-0.011870333924889565,0.04264406859874725,0.02194996364414692,0.009334501810371876,-0.03254558518528938,-0.03254786506295204,-0.04181164875626564,0.03464553877711296,0.009566939435899258,0.019686654210090637,-0.04535960778594017,0.0444602370262146,0.03145385906100273,-0.02721686102449894,-0.03010394051671028,-0.029954491183161736,-0.018521500751376152,0.002342305378988385,-0.006438987795263529,-0.019752727821469307,0.01058289222419262,-0.034109070897102356,-0.01966610737144947,-0.012644092552363873,-0.004156413953751326,0.026981748640537262,-0.02841518446803093,0.0013467952376231551,0.008743752725422382,-0.0429123193025589,0.010175292380154133,-0.031173154711723328,-0.04115238040685654,0.042471032589673996,0.04405549168586731,0.02917882800102234,-0.018486350774765015,-0.03806601092219353,0.017431098967790604,-0.005662435665726662,-0.03576062247157097,-0.00045630999375134706,-0.04405354708433151,0.03872760012745857,-0.022822881117463112,0.01537694688886404,-0.017814844846725464,0.0018987079383805394,0.004419465083628893,-0.029817305505275726,0.044429466128349304,0.026031525805592537,0.041582927107810974,0.03735635057091713,0.00926276110112667,0.03991537541151047,-0.038934532552957535,-0.0287643950432539,-0.04302804544568062,-0.01652626506984234,-0.010532727465033531,-0.021633673459291458,0.03110329806804657,-0.013553179800510406,-0.020726744085550308,0.004039683844894171,-0.03397373855113983,0.028592189773917198,-0.04025363177061081,0.046066511422395706,0.025758277624845505,-0.028505830094218254,-0.046784769743680954,0.02984713390469551,0.019571635872125626,0.021667320281267166,0.025666026398539543,-0.040301550179719925,-0.013391253538429737,-0.03634434938430786,0.03435477986931801,0.01166581828147173,-0.015999458730220795,-0.041293658316135406,-0.017883768305182457,-0.016540158540010452,0.02172406204044819,0.013014938682317734,0.03663590922951698,-0.0026288253720849752,-0.0359918586909771,0.020176028832793236,0.02467401511967182,0.005797699559479952,0.025637393817305565,-0.0005870407330803573,0.002150843618437648,-0.0068556698970496655,-0.04490219056606293,-0.037099115550518036,-0.04433354362845421,0.012906385585665703,-0.017564594745635986,0.000810895930044353,0.03856165334582329,-0.02372056432068348,-0.00847906619310379,0.024178817868232727,-0.02565959468483925,-0.040023788809776306,-0.019892539829015732,-0.03205334395170212,0.04065558314323425,0.029152624309062958,0.012621919624507427,0.03514551743865013,0.028731750324368477,-0.029654989019036293,0.03714173287153244,0.003722341265529394,0.029088258743286133,0.037475939840078354,-0.017219489440321922,-0.036894701421260834,-0.025741251185536385,-0.006896649021655321,0.0300887580960989,0.034130293875932693,-0.04664942994713783,0.001016836380586028,-0.00781412422657013,-0.02629261091351509,-0.035966213792562485,-0.015363958664238453,0.041905634105205536,-0.016727538779377937,0.0017778784967958927,0.019208518788218498,-0.012902593240141869,0.044637374579906464,0.04375417158007622,-0.023484963923692703,-0.0002603246830403805,-0.018839776515960693,-0.02035718597471714,-0.04381716251373291,0.010366363450884819,0.0002534743689466268,-0.042436566203832626,-0.020943230018019676,0.038627829402685165,-0.024641191586852074,-0.03359805792570114,-0.0009979207534343004,0.04594952240586281,-0.024405281990766525,0.016286499798297882,0.024752981960773468,-0.0248232651501894,0.021592551842331886,-0.012509620748460293,0.012518037110567093,0.012633834965527058,0.003384800860658288,-0.038764484226703644,0.03172444552183151,-0.016956781968474388,-0.02965986169874668,-0.0434492826461792,0.008599774911999702,0.01680014654994011,-0.045737750828266144,0.0011441780952736735,-0.025877436622977257,0.013735432177782059,-0.030809622257947922,0.018065454438328743,-0.010716463439166546,0.04132093861699104,-0.03429574519395828,-0.015037395991384983,-0.036570969969034195,0.04018212854862213,0.03570173308253288,-0.02290220372378826,0.015136794187128544,0.030013786628842354,0.005222794599831104,0.0028053736314177513,-0.0244244746863842,-0.03849833086133003,0.03758232668042183,0.03788531571626663,0.012593322433531284,-0.015230098739266396,-0.014266926795244217,0.021378662437200546,0.03757234662771225,0.03662394732236862,0.026480257511138916,0.013438241556286812,-0.03934634104371071,-0.032014794647693634,0.037708964198827744,0.010069717653095722,-0.04643702507019043,-0.03770652785897255,0.015469598583877087,-0.04682829976081848,-0.032092440873384476,0.004610891453921795,0.018156040459871292,0.01437770389020443,-0.026088103652000427,0.02007519267499447,-0.024860039353370667,-0.016519714146852493,0.02332163043320179,0.014157415367662907,0.033041562885046005,0.014912438578903675,0.006462959107011557,-0.03844422101974487,-0.012515997514128685,-0.022215239703655243,-0.02422226592898369,0.044753607362508774,-0.010114497505128384,0.03709324821829796,0.012407601810991764,0.027893392369151115,0.00024950472288765013,0.00727621465921402,-0.0007079357164911926,-0.028834398835897446,0.02104717493057251,-0.020742090418934822,-0.045006558299064636,0.01376377884298563,-0.030549975112080574,0.041673723608255386,0.04294817894697189,0.0392521433532238,-0.01228486467152834,-0.045844778418540955,0.040525101125240326,-0.006794818677008152,0.044152263551950455,0.04386512190103531,0.03339977562427521,-0.019448090344667435,-0.0108714047819376,0.03322258219122887,-0.017321813851594925,-0.031270746141672134,0.005374218337237835,0.04126651957631111,0.01854725554585457,0.00662881089374423,-0.038112904876470566,0.010881364345550537,0.04636614769697189,-0.03405323252081871,0.0017342818900942802,0.035704925656318665,0.022780176252126694,0.018640533089637756,0.019157910719513893,-0.013294144533574581,-0.01952916570007801,0.02927001751959324,0.029341191053390503,0.034730326384305954,0.039098504930734634,0.001073154155164957,0.00014346324314828962,0.02822301723062992,0.01418874692171812,0.019108973443508148,0.027986247092485428,0.0369001179933548,-0.015327995643019676,-0.011771643534302711,-0.038415152579545975,0.007406413555145264,-0.04390653967857361,-0.0032549239695072174,0.004034784156829119,-0.02019627019762993,0.00859413668513298,-0.04442143440246582,-0.04377352073788643,0.03052266128361225,-0.013227968476712704,-0.03528544306755066,0.002104545710608363,0.025545286014676094,-0.026887420564889908,0.011627204716205597,-0.03923209384083748,-0.042417362332344055,0.002966594882309437,0.003844666527584195,0.013002845458686352,0.021391497924923897,0.04502245783805847,0.001542228157632053,-0.016750864684581757,0.02792886272072792,-0.02168257161974907,-0.005774182733148336,-0.03988409787416458,-0.04490865021944046,0.04377320036292076,0.031788550317287445,0.018541980534791946,-0.008614364080131054,-0.03091106005012989,-0.03250599652528763,-0.023630617186427116,0.004657552111893892,0.020303864032030106,0.015156971290707588,-0.020821422338485718,0.0430368036031723,0.022508470341563225,0.00514267198741436,0.010570389218628407,-0.007606999482959509,-0.02386828325688839,-0.01362705696374178,0.024395950138568878,-0.045945364981889725,-0.03632505610585213,-0.04295468330383301,-0.04345366731286049,0.03363168612122536,0.01926896534860134,-0.0024435322266072035,-0.03805067762732506,-0.0007932682055979967,-0.0025099690537899733,-0.03091980703175068,-0.006258584558963776,-0.009602912701666355,0.01096109114587307,0.012781807221472263,-0.043020784854888916,-0.011863438412547112,0.01190816517919302,0.0002967738837469369,0.03372906893491745,0.015014711767435074,-0.03189125657081604,-0.04063037782907486,0.013474925421178341,-0.044798847287893295,0.008115614764392376,0.04165211692452431,0.0071409628726542,-0.010580749250948429,0.013557118363678455,-0.00394988339394331,0.004316000267863274,0.04176892712712288,-0.010776333510875702,0.04363526403903961,0.03835200518369675,-0.028782540932297707,-0.04074462130665779,-0.037772148847579956,-0.045583151280879974,-0.038371533155441284,0.017315074801445007,-0.040571726858615875,-0.017127513885498047,0.03263016790151596,-0.04510533809661865,0.029753245413303375,-0.020639676600694656,-0.036127105355262756,0.018614167347550392,0.012199848890304565,0.0357142873108387,0.022241104394197464,0.028713664039969444,-0.02062266506254673,-0.03051886335015297,0.023711763322353363,0.02903098240494728,0.046408846974372864,-0.00826762430369854,-0.012108931317925453,0.02615264430642128,-0.015062276273965836,0.04075584188103676,0.03391100466251373,-0.006718187592923641,0.02373601496219635,0.024083420634269714,-0.037550196051597595,0.03808730095624924,0.0004969488945789635,0.030887575820088387,-0.01702590100467205,0.037422191351652145,-0.010483120568096638,-0.04628179967403412,0.03835497051477432,-0.03867016360163689,-0.017095530405640602,0.04258234053850174,0.04263392090797424,0.006948267575353384,0.012473699636757374,-0.004877781495451927,-0.01956522837281227,-0.016210801899433136,0.016322731971740723,0.023878272622823715,0.02758757397532463,0.02740204893052578,-0.03867777809500694,-0.0005279178731143475,-0.041861310601234436,0.004686137195676565,-0.005532057490199804,0.03668239712715149,-0.014105594716966152,-0.03623097389936447,-0.033778127282857895,0.024742664769291878,0.011185132898390293,-0.03773953765630722,-0.03934948146343231,0.019014574587345123,-0.040422771126031876,0.03045259416103363,0.019513484090566635,-0.03961043059825897,-0.039280328899621964,0.04604310914874077,-0.011895792558789253,-0.012239113450050354,0.02959534153342247,0.04231615364551544,0.04598269611597061,0.023973222821950912,-0.01170761976391077,-0.039406824856996536