-0.009045141749083996,0.005493305157870054,-0.006242041010409594,0.007877256721258163,-0.0013892599381506443,0.007028745952993631,-0.0015421599382534623,0.0005722215282730758,-0.003445693524554372,0.002976279938593507,-0.0034135649912059307,-0.005200269166380167,-0.007872357964515686,-0.008311879821121693,-0.0036434363573789597,0.00445011630654335,-0.005530219525098801,-0.003770282259210944,0.007621365133672953,0.0026202218141406775,0.007894843816757202,0.007735193707048893,-0.008204296231269836,0.008558254688978195,-0.008434288203716278,0.008005693554878235,0.0008825305267237127,0.0006280641537159681,0.004013566300272942,0.0071334633976221085,0.0022038999013602734,-0.0013983941171318293,-0.007292618975043297,0.005441376939415932,-0.006984211504459381,0.004259882494807243,0.000529071839991957,-0.0021422177087515593,0.002128344029188156,0.005124504212290049,0.008297646418213844,-0.0044197626411914825,0.008410265669226646,0.008670050650835037,0.005900490563362837,0.007175113540142775,0.003621696261689067,-0.00866144709289074,0.0014154614182189107,0.0046514663845300674,0.008308045566082,0.0013284754240885377,0.0055350190959870815,0.0038587909657508135,-0.0041170381009578705,-0.006487314123660326,0.004721144214272499,-0.0050013125874102116,-0.0047959559597074986,0.002710319822654128,0.005438638385385275,0.00155193533282727,0.007241876795887947,-0.005421068985015154,-0.0046507990919053555,0.0025788440834730864,0.006196257192641497,0.000743784592486918,-0.009201246313750744,0.003330642357468605,0.005899463314563036,-0.004197172354906797,-0.008377519436180592,0.0003413805097807199,-0.00860393512994051,-0.0015749784652143717,-0.009061492048203945,-0.0051668803207576275,-0.0020862354431301355,-0.007296246942132711,-0.007250179070979357,0.0061530605889856815,-0.008617439307272434,0.003556865965947509,0.00591655308380723,-0.006938508246093988,-0.005723081529140472,0.0026643392629921436,-0.0034617548808455467,-0.0004391670227050781,0.006320719141513109,-0.0068024382926523685,0.002253278624266386,0.008320904336869717,-0.008316295221447945,-0.008268546313047409,0.0010329324286431074,0.008653253316879272,-0.005251591559499502,-0.003177510341629386,-0.007542024366557598,-0.0025861416943371296,-0.008563265204429626,-0.0020814070012420416,0.0010468903928995132,0.00893388967961073,0.00598948122933507,0.006058612372726202,-0.005107217002660036,-0.007756396662443876,0.0019417469156906009,0.0004012146673630923,0.0003140851331409067,-0.007347047794610262,-0.00011116784298792481,-0.006569690071046352,-0.0014604022726416588,-0.008227784186601639,0.006713672075420618,-0.009148680604994297,0.00826332438737154,0.006826462689787149,0.004753070883452892,0.009076019749045372,-0.008384628221392632,0.002666078507900238,0.006571026518940926,-0.007015848997980356,0.0015978283481672406,-0.0019903068896383047,-0.001202472485601902,0.0077596367336809635,0.0007306246552616358,-0.007642943877726793,0.008223765529692173,-0.005914329085499048,0.007385661359876394,0.008857338689267635,0.0071074338629841805,0.003334150416776538,0.004582782741636038,0.003761555999517441,-0.0007382843759842217,-0.004237161949276924,-0.004037840291857719,0.004350307397544384,0.002373830880969763,0.0016001396579667926,0.002873410005122423,0.005170342046767473,0.00467316759750247,-0.007414553314447403,-0.0025707504246383905,-0.004433575551956892,0.0007228981703519821,-0.008241712115705013,0.004938445053994656,-0.007393525447696447,-0.004293775651603937,0.005319683346897364,-0.008427014574408531,0.0030159451998770237,0.00798437837511301,0.0022157696075737476,0.004002128262072802,0.005498827435076237,-0.005217876750975847,0.0015262766974046826,-0.003585727186873555,-0.004705579020082951,-0.005777936894446611,0.0016102598747238517,0.005541421473026276,0.007070982363075018,-0.0013385051861405373,-0.0023854426108300686,0.003525604959577322,0.005274973344057798,-0.0046336716040968895,-0.003806911874562502,0.0006318065570667386,-0.0010415342403575778,0.003872988745570183,8.828685531625524e-05,-0.0072981673292815685,-0.006276274565607309,0.007560097146779299,-0.005121073219925165,-0.008454710245132446,0.004355477634817362,0.00346359028480947,0.0018855480011552572,4.6395580284297466e-05,0.008832291699945927,-0.007143359165638685,0.00019504550436977297,0.001208139699883759,-0.00897347554564476,-0.001650443533435464,0.005320931784808636,-0.0005392610910348594,0.007059530355036259,0.0027264589443802834,0.0050066509284079075,0.005728481337428093,0.0035668688360601664,0.004692594986408949,0.00367596629075706,0.0009527045185677707,0.0012548713712021708,-0.0058263796381652355,0.006159995216876268,-0.0035278976429253817,0.0006758341914974153,-0.0047047254629433155,0.0036863964051008224,0.008937392383813858,0.005680691450834274,0.002243176568299532,0.0012732652248814702,-0.0001882809301605448,-0.005542654078453779,-0.0028533772565424442,-0.0017557344399392605,0.008362113498151302,-0.0013951171422377229,0.001624400494620204,0.007945654913783073,0.00035031227162107825,-0.00466895429417491,-0.002233153907582164,-0.002335946075618267,0.004040745552629232,-0.003829044057056308,0.0043335482478141785,0.007321981713175774,-0.0030778427608311176,-0.006851791404187679,0.002608973067253828,-0.00261193816550076,0.0006429689819924533,0.002526461612433195,-0.0017304167849943042,0.007988340221345425,-0.0018833110807463527,-0.0036174689885228872,0.007254838477820158,-0.006833794992417097,-0.0070611461997032166,0.008195215836167336,-0.005467620212584734,-0.006605637259781361,0.0006650159484706819,-0.008516903035342693,0.002260238863527775,-0.0008810959989205003,0.002643710235133767,-0.00405828608199954,0.007626926992088556,-0.004309388808906078,0.0025901796761900187,0.008371943607926369,-0.0018607279052957892,-0.006361318286508322,-0.008110684342682362,0.008708961308002472,0.004961787723004818,0.007880495861172676,0.003742294618859887,-0.002957936143502593,-0.007083858363330364,0.008074761368334293,-0.00019154378969687968,-0.0019419753225520253,0.0014662423636764288,-0.0073932744562625885,-0.003583373036235571,0.002595845377072692,-0.007514279335737228,-0.006853323895484209,0.000203339135623537,0.0023254340048879385,-0.005880227778106928,-0.00877405982464552,0.008621755987405777,-0.008879189379513264,-0.009357493370771408,-0.0033169295638799667,-0.0052138762548565865,0.0013876819284632802,0.007415500935167074,-0.0003510568058118224,0.0051423730328679085,0.007697852328419685,-0.005835297517478466,-0.00021562374604400247,0.0026752206031233072,-0.0031568228732794523,0.004511267878115177,0.0038639011327177286,-0.001479610218666494,-0.007742908783257008,-0.009179068729281425,-0.002452437300235033,-0.007853629998862743,0.005298490636050701,-0.0031106718815863132,0.0031268412712961435,-0.0028840554878115654,0.005567831452935934,0.007306400686502457,0.006349490024149418,-0.0002879080711863935,-0.007818003185093403,-0.002407799707725644,-0.0014160895952954888,0.00865707453340292,0.0012355694780126214,0.0026521836407482624,0.005305947735905647,0.001286427373997867,0.0018557484727352858,-0.0047838566824793816,-0.008289501070976257,0.004166170489042997,0.0065594627521932125,-0.0016503875376656651,0.0009236243786290288,-0.003619072725996375,-0.0009318756056018174,-0.005469033960253,0.0048900181427598,-0.00014807873230893165,0.0008903146372176707,-0.008699358440935612,0.0023049653973430395,-0.005586506333202124,-0.0021884378511458635,-0.0016371792880818248,-0.0009601067285984755,-0.00512061407789588,0.006586003117263317,-0.00135194999165833,0.002112722024321556,0.0021466233301907778,0.002015903126448393,0.0011197159765288234,0.0060700164176523685,0.00588185852393508,-0.0015532217221334577,0.0025585200637578964,-0.007463586516678333,-0.007690255995839834,-0.00037412639358080924,0.007527503650635481,0.0028235872741788626,0.0031848771031945944,-0.006432489491999149,-0.0008744419319555163,-0.0018616607412695885,0.00532423984259367,-0.006805014796555042,0.0007409097743220627,0.007737727835774422,0.007382563315331936,0.006628234405070543,-0.002346180146560073,0.008296968415379524,0.005743927322328091,0.006605692207813263,0.008132455870509148,0.008219828829169273,-0.004882886074483395,-0.00699563417583704,0.003592678112909198,0.001192558091133833,-0.0032403606455773115,0.003471873700618744,-0.008230617269873619,-0.0085086515173316,-0.0027348122093826532,-0.0057516940869390965,0.004113136790692806,0.00842713937163353,0.0030429139733314514,0.0029142603743821383,-0.009272200055420399,0.0002348583220737055,0.005965745076537132,0.0029016830958426,-0.005113779101520777,0.006555592641234398,0.00873451679944992,-0.004150993190705776,-0.005502726417034864,-0.0030316519550979137,-0.008208938874304295,0.007024761289358139,0.008075001649558544,0.0025102600920945406,0.004973660223186016,0.0031748211476951838,-0.0023017197381705046,0.0024865607265383005,0.0063270265236496925,0.005830291658639908,-0.007872597314417362,-0.0006992541602812707,-0.0019264877773821354,0.004741766024380922,2.9711884053540416e-05,-0.0028217725921422243,0.0038834221195429564,-0.0004928673151880503,-0.0045718238689005375,0.007343833800405264,-0.007271141745150089,-0.009056532755494118,-0.006690893787890673,-0.0063199205324053764,0.000719002855475992,0.0023513929918408394,-0.0009623556397855282,-0.005557888187468052,-0.0069111608900129795,-0.00014369768905453384,0.0012350385077297688,-0.0036817060317844152,-0.005252023693174124,-0.007881338708102703,-0.008903119713068008,-0.00740852253511548,0.004555329214781523,-0.0029283687472343445,-0.008880765177309513,0.00015759325469844043,0.0006821866263635457,-0.00133653508964926,-0.007315279450267553,0.004797624424099922,0.003559001488611102,-0.0019749088678508997,-0.0022365020122379065,-0.006464455276727676,0.004771042615175247,0.0018762690015137196,-0.007783155422657728,-0.002288233954459429,0.00759133230894804,-0.0008912253542803228,-0.003288264386355877,0.0027064091991633177,-0.005581171251833439,0.00045098879490979016,0.003190313233062625,0.0066750249825417995,0.0036223847419023514,-0.0021699711214751005,0.00503790657967329,0.007493621204048395,-0.00041419410263188183,-0.009312201291322708,0.007164946757256985,-0.006286406423896551,-0.0070218187756836414,-0.0036121548619121313,-0.0022527812980115414,0.005631915759295225,-0.0020801674108952284,-0.008479244075715542,0.0025594038888812065,0.0032222967129200697,0.005910689011216164,-0.001897913054563105,-0.007778932340443134,0.0010010609403252602,-0.0071222977712750435,-0.009075973182916641,0.005240828730165958,-0.0018123295158147812,0.0004737782874144614,0.0030650594271719456,-0.0018571288092061877,-0.008435690775513649,-0.004645246546715498,-0.00574325118213892,0.008978534489870071,0.0045061311684548855,-0.000907263602130115,-0.008205680176615715,-0.007218938786536455,0.005885975901037455,0.008377941325306892,-0.008807619102299213,0.007718984503298998,-0.0022422282490879297,-0.005380718503147364,-0.007475110702216625,0.005112179089337587,-0.0005810211296193302,0.006252889987081289,-0.0051452540792524815,0.0033604109194129705,-0.007176388520747423,-0.007709658704698086,-0.006889032199978828,0.005810767412185669,0.0029290698003023863,-0.006276814267039299,-0.002163020195439458,0.0049606976099312305,-0.004026196431368589,0.007923218421638012,0.007797987665981054,0.0009980828035622835,0.0024844908621162176,0.0028838973958045244,-0.004537710454314947,-0.0025287377648055553,-0.006841287016868591,0.00799101684242487,0.00421170424669981,-0.008525610901415348,0.0009319784003309906,-0.0029470808804035187,0.005930723622441292,-0.002933422802016139,0.002713324036449194,-0.006281128618866205,0.0011080701369792223,-0.003871840424835682,-0.006296931765973568,0.002245587296783924,0.0026099823880940676,0.00909066665917635,0.0031827399507164955,0.0002990809443872422,0.007760852575302124,0.00617521395906806,0.0009201480424962938,0.0002166976046282798,0.008312283083796501,0.002205127850174904,0.004022154491394758,-0.007767681032419205,0.004107249900698662,-0.004421133082360029,-0.007225126028060913,0.006576890591531992,0.003597500966861844,-0.0017346490640193224,-0.0012862125877290964,-0.005691435653716326,-0.009217783808708191,-0.002829135861247778,-0.006607085466384888,-0.0014683855697512627,0.006279012653976679,-0.007239757105708122,-0.007672179024666548,0.007562828715890646,0.004611837211996317,-0.008399436250329018,-0.007901206612586975,0.003479844657704234,-0.0024344301782548428,0.004217665176838636,-0.0017928762827068567,0.008797816932201385,0.0036583738401532173,-0.008520720526576042,-0.0031834247056394815,0.0011992781655862927,-0.00672982819378376,-0.009349732659757137,-0.007906084880232811,0.0004597392398864031,0.002489763777703047,-0.007650438230484724,0.003108336590230465,0.0022052982822060585,0.008273506537079811,0.006408104207366705,0.008336401544511318,0.008766296319663525,-0.0011094068177044392,-0.00022381953021977097,-0.0041025071404874325,0.00016200637037400156,-0.006563635542988777,0.0032262003514915705,-0.008928397670388222,-0.00496722711250186,-0.005485293921083212,0.008235958404839039,-0.006672639399766922,0.007350198458880186,-0.007058861665427685,0.002836728934198618,-0.003382726339623332,-0.003455730155110359,0.009371163323521614,-0.005147153045982122,-0.0055888039059937,0.0016830821987241507,0.004529518075287342,0.009074574336409569,0.003790015121921897,0.0011667548678815365,-0.0017048371955752373,0.0017917174845933914,0.0018993020057678223,-0.005303888116031885,0.0032221940346062183,-0.00555370282381773,-0.00018522153550293297,-0.004511289764195681,-0.0035160696133971214,0.0021443350706249475,-0.008184646256268024,-0.009170744568109512,-0.006941256579011679,-0.0062251933850348,-0.005676858127117157,0.0051533542573452,-0.0009954975685104728,-0.0005615870468318462,0.0027169466484338045,0.004310679621994495,-0.009331041015684605,0.006709878798574209,0.00918605737388134,-0.007106993347406387,0.002843723399564624,-0.009351692162454128,-0.00847528874874115,-0.004038860555738211,0.00651582982391119,0.002870419528335333,-0.0010150463785976171,-0.0011508292518556118,-0.00063463015248999,-0.00354935135692358,0.0071044908836483955,0.001279524527490139,-0.0002981419675052166,-0.0006530014215968549,0.008197014220058918,0.0042082881554961205,-0.006674366537481546,-0.0011813752353191376,-0.0039754025638103485,0.009156712330877781,-0.0015869863564148545,-0.008120980113744736,-0.0016656458610668778,-0.0033553019165992737,0.0018757014768198133,-0.005146687384694815,-0.008720764890313148,-0.007594475522637367,-0.004073748830705881,-0.002848332282155752,0.006291056517511606,-0.0043196179904043674,-0.008804995566606522,0.0052812360227108,0.00693915132433176,-0.00014100536645855755,-0.0040401979349553585,0.005119677167385817,-0.009229709394276142,0.007975230924785137,0.006875490769743919,0.0008465191349387169,-0.0041784197092056274,-0.008779595606029034,0.009400146082043648,0.004930314142256975,-0.0030290803406387568,-0.009034773334860802,0.002622030209749937,0.009157256223261356,0.0038963465485721827,-0.007823148742318153,-0.0018336569191887975,-0.0073443143628537655,0.007752114441245794,-0.0031849544029682875,0.004390867426991463,-0.0078047807328403,-0.006982745137065649,0.0033778129145503044,0.0064607951790094376,-0.005609720479696989,-0.001531821209937334,0.0022483672946691513,0.005573343485593796,0.0024134356062859297,-0.007603041362017393,0.0008085319423116744,0.007234005723148584,0.006922127213329077,0.0016017146408557892,0.009322461672127247,-0.007420819718390703,-0.0003989777760580182,0.005175552796572447,-0.006745609920471907,0.008891054429113865,-0.002740838099271059,-0.0028140617068856955,-0.0053887926042079926,-0.003982080612331629,0.0014623278984799981,-0.0013245653826743364,-0.0057613542303442955,0.005815313197672367,-0.008226863108575344,0.006294964347034693,-0.004228323698043823,-7.372658728854731e-05,-0.002233014442026615,0.0013305877801030874,0.0055677262134850025,0.009202450513839722,-0.003643169067800045,0.0010147826978936791,-0.0006358051323331892,0.00938359834253788,0.005811230279505253,-0.001931066857650876,-0.0004308135830797255,-0.004772674757987261,0.004802275449037552,0.006493652705103159,0.00874548964202404,0.0012414321536198258,0.0032124025747179985,-0.0010104470420628786,0.0020551567431539297,-0.002840133151039481,0.004472059663385153,-0.008970137685537338,-0.008861915208399296,0.004066567402333021,0.008100438863039017,0.0024894734378904104,0.004261902067810297,0.006093194708228111,-0.002597482642158866,-0.0073646423406898975,0.008145435713231564,0.008248426951467991,-0.00109011004678905,-0.00531432218849659,0.0073797693476080894,0.003921824041754007,-0.009242316707968712,-0.00737179908901453,0.009087692014873028,-0.00868018064647913,-0.004084799438714981,0.0009153792052529752,-0.005931008141487837,-0.00503420177847147,-0.002760867588222027,-0.004329176619648933,0.005706595256924629,8.842295756039675e-06,-0.004158731084316969,-0.0035104723647236824,-0.008647479116916656,-0.00846836157143116,0.004100014455616474,-0.00727425841614604,-0.0004514364991337061,0.006439897697418928,-0.002469827188178897,-0.0028966194950044155,0.007016747258603573,0.006862628273665905,0.007150024175643921,0.001355300541035831,0.008506582118570805,0.005999699234962463,-0.0015828426694497466,0.0024387852754443884,-0.00710757402703166,0.0009683995158411562,-0.004449931904673576,-0.0040664332918822765,-0.007033097557723522,-0.0026621853467077017,-0.00034585720277391374,0.001890664454549551,-0.0036648183595389128,0.005498041398823261,0.00039806441054679453,0.0025992023292928934,-0.0041674161329865456,0.005908704828470945,0.002339279977604747,0.0068151457235217094,-0.006390315946191549,-0.0022407437209039927,-0.007272730115801096,-0.005345460027456284,-0.00197971286252141,0.007421141490340233,0.0010760072618722916,-0.003185577690601349,0.004645161796361208,-0.00902692973613739,-0.0024389326572418213,0.0018993184203281999,0.001568525331094861,0.0020255600102245808,-0.005420622415840626,-0.0030596146825701,0.00811696331948042,0.008914289064705372,-0.003530399175360799,0.002720141550526023,-0.00486046401783824,-0.002468352671712637,0.00549935270100832,2.581133958301507e-05,0.006575881037861109,0.002423874568194151,0.0024272750597447157,-0.008759936317801476,0.004697328433394432,0.00898752547800541,-0.0005033418419770896,-0.006415503565222025,0.008970809169113636,-0.003942433744668961,-0.0017035139026120305,-0.007942462339997292,-0.0073131658136844635,-0.00532540725544095,0.0009148356039077044,0.0010900900233536959,0.0020008471328765154,0.0015794207574799657,-8.594448445364833e-05,0.005682884715497494,0.008160807192325592,-0.004325360059738159,-0.006949309725314379,-0.0014048361917957664,-0.008900285698473454,0.007209868170320988,-0.0048904079012572765,0.0009302573162131011,-0.00723330257460475,0.0010046875104308128,-0.008664051070809364,0.005056838970631361,0.008565305732190609,-0.003625747049227357,-0.004542578011751175,-0.000974268710706383,0.002258725930005312,-0.005844606086611748,0.005705423187464476,-0.005664641968905926,-0.009294296614825726,0.00045933868386782706,-0.007232324685901403,0.003730139462277293,-0.006248685996979475,0.005970078054815531,-0.0005536190583370626,0.0012494914699345827,-0.005889230873435736,-0.006639327388256788,0.002471594838425517,-0.004594340920448303,-0.0021414386574178934,-0.0003828747139777988,-0.00507969968020916,0.005557474214583635,0.00826475489884615,-0.0012768006417900324,0.007853471674025059,0.007197995204478502,-0.006275158375501633,-0.006137261167168617,-0.00042108341585844755,0.0004898547776974738,-0.0029833714943379164,-0.0035137117374688387,-0.0012866392498835921,0.0035845956299453974,-0.007810255978256464,0.0039624422788619995,0.008016914129257202,0.004957450088113546,-0.0058053326793015,-0.007764272857457399,-0.0001899118215078488,0.008572377264499664,0.005989804398268461,0.0011703843483701348,-0.006720836739987135,0.004011558834463358,0.00587585149332881,0.008170347660779953,0.0020979982800781727,0.0002619712904561311,0.0022308393381536007,0.008324197493493557,0.0023990122135728598,-0.004567041993141174,0.0025498769246041775,0.0071297818794846535,0.0012505502672865987,4.158820956945419e-05,0.0043786922469735146,0.00301767373457551,-0.008342916145920753,0.004227195400744677,-0.0017472432227805257,0.008280739188194275,0.008842960000038147,-0.000973304093349725,0.00880481768399477,-0.0035660944413393736,0.0034243965055793524,-0.007998001761734486,-0.00668359873816371,0.00684409961104393,0.007394164334982634,0.0006035435944795609,-0.003021752927452326,-0.0009303357219323516,0.006939959246665239,-0.00544267101213336,-0.003865955863147974,0.005357295274734497,0.008174533024430275,-0.007662372663617134,0.005701909307390451,0.0027184681966900826,-0.0050703054293990135,0.004800843540579081,0.004276283551007509,-0.006738704163581133,3.327934609842487e-05,0.004847345873713493,-0.00580780953168869,-0.0007090705912560225,-0.00713919335976243,-0.0036407592706382275,-0.005311711225658655,8.604735921835527e-05,-0.006754277274012566,-0.0022059886250644922,-0.004235981963574886,0.004616935737431049,0.003744744695723057,-0.007624323479831219,0.008517329581081867,0.004591378848999739,0.002171063330024481,-0.0004284022143110633,-0.006064034067094326,0.008677744306623936,-0.00926095899194479,0.0036097208503633738,0.00013079092605039477,0.007559970486909151,-0.0022519880440086126,0.0003413467202335596,0.0045473212376236916,-0.008514409884810448,-0.008384522050619125,-0.005429504904896021,-0.006656202953308821,-0.009287969209253788,0.002302822656929493,0.005554573144763708,0.00858518946915865,-0.00112067605368793,-0.0041506001725792885,0.006832338869571686,0.006465600803494453,0.002337668091058731,-0.004273108672350645,0.007672169711440802,-0.006054426543414593,-0.00858756061643362,0.005568398162722588,0.0011882620165124536,-0.004774738103151321,0.003204493084922433,0.0050062211230397224,0.0064695654436945915,-0.0041042473167181015,-0.008926996961236,0.00018026342149823904,0.006686374545097351,-0.005501229781657457,-0.0014913440681993961,-0.00458753015846014,-0.009156838990747929,0.0074838800355792046,-0.006869801320135593,0.005006770603358746,-0.0028927884995937347,-0.004188301041722298,0.00828335341066122,0.002946596359834075,0.0035054110921919346,0.004873022902756929,-0.0029995543882250786,0.0011877998476848006,-0.004328701179474592,0.006280792411416769,0.0018579120514914393,-0.004832861945033073,0.0075069088488817215,0.0015107193030416965,-0.0001025671444949694,-0.008760325610637665,0.007695705164223909,0.008494573645293713,0.0011677322909235954,-0.001089943340048194,-0.0026492972392588854,-0.004369633737951517,0.001392024103552103,-0.007000834681093693,0.00787239708006382,-0.00610082782804966,0.004607109818607569,-0.0036395303905010223,-0.005158696789294481,0.0010789342923089862,0.0049758185632526875,0.004254092928022146,-0.005014218855649233,-0.003196289762854576,0.006924821995198727,0.004187671933323145,0.003989334683865309,-0.00435414956882596,0.005480401683598757,-0.002671473892405629,-0.0018636913737282157,-0.004003417212516069,-0.007127109915018082,-0.0015060155419632792,-0.009090435691177845,-0.000838319887407124,0.004221225157380104,0.008653643541038036,-0.007930935360491276,-0.004120879806578159,-0.00011971227650064975,-0.006206001155078411,-0.00721294479444623,-0.0009059171425178647,0.001508337096311152,0.0060109845362603664,0.009350286796689034,0.0051473407074809074,-0.005248052068054676,0.004653026815503836,0.000688987085595727,-0.0009343267884105444,0.008183185942471027,0.0037900852039456367,0.0034065654035657644,-0.009188013151288033,0.006854393985122442,0.005505063105374575,-0.00378936855122447,-0.003917378839105368,-0.008403459563851357,-0.008452750742435455,0.003160452703014016,-0.005907895043492317,0.007954339496791363,0.0064284056425094604,-0.0028502538334578276,-0.0022639851085841656,-0.003256561467424035,-0.007672243285924196,-0.00881801825016737,-0.0009093405678868294,0.0083207618445158,0.007835883647203445,0.005816102959215641,0.0024084048345685005,0.006688153836876154,0.0002736933238338679,-0.006022395566105843,0.0034530493430793285,0.007899560034275055,-0.009040511213243008,-0.004682215861976147,-0.004419117700308561,-0.007547501474618912,-0.005170084536075592,-0.002190294675529003,0.00826068315654993,0.006764330435544252,0.008376696147024632,-0.007142328191548586,-0.008881432004272938,-0.00734327919781208,0.007780120242387056,-0.006448276806622744,0.0013561564264819026,-0.005130714736878872,-0.009021022357046604,-0.007818059995770454,0.003935195505619049,-0.005980789661407471,-0.005101444199681282,-0.0023169659543782473,0.002946910448372364,-0.000584988621994853,0.008350514806807041,-0.0012465405743569136,-0.005665288772433996,0.0006703488761559129,-0.0009324555285274982,0.005389579106122255,0.008172130212187767,0.006313761230558157,-0.0020953083876520395,-0.005346137564629316,0.007783664856106043,-0.0021535921841859818,0.005071074236184359,0.009194809943437576,0.0014466550201177597,-0.0003875959664583206,0.0037484930362552404,-0.00576311768963933,-0.00023032417811919004,-0.0035373724531382322,-0.006321552209556103,0.0020615423563867807,0.0014141120482236147,0.004901924170553684,0.007003200706094503,-0.005265929736196995,0.00524998689070344,-0.002502059331163764,0.0024127871729433537,0.006576128304004669,-0.004592441953718662,0.001889183884486556,-0.00037898626760579646,0.00545442895963788,0.0036994183901697397,0.0050601172260940075,-0.003995904233306646,0.0038326720241457224,0.0019798704888671637,-0.0008239237940870225,-0.002296546706929803,-0.003175356425344944,-0.009227119386196136,-0.006221595220267773,-0.00829927809536457,0.00654117064550519,0.0067617278546094894,0.0065004825592041016,0.005968927871435881,-0.005247281398624182,-0.00016294683155138046,0.007659551687538624,0.004875910468399525,-0.009375295601785183,-0.0007728668861091137,-0.009208918549120426,-0.004133399110287428,-0.0012177461758255959,0.007377017755061388,0.00289258174598217,-0.0025952968280762434,-0.00018575889407657087,0.005957738496363163,-0.003776172176003456,0.0021531335078179836,-0.0044792587868869305,-0.00038644258165732026,-0.008945636451244354,0.006613594014197588,-0.008500251919031143,-0.005191553849726915,-0.003138868836686015,0.0023442974779754877,0.0041281902231276035,-0.007895953953266144,-0.008591308258473873,0.00561261922121048,0.003980298060923815,0.006224782671779394,0.003310226835310459,0.004710129927843809,-0.0022834043484181166,0.001686139265075326,0.005732509307563305,-0.006173406727612019,-0.0014603473246097565,0.004512304440140724,0.0006041789893060923,0.0034060052130371332,-0.003903707955032587,-0.008801110088825226,-0.00886121392250061,0.008315639570355415,0.008348709903657436,-0.005437368061393499,-0.006637155078351498,-0.009068132378160954,-0.00506183598190546,-0.003123536938801408,-0.00487380800768733,0.005581961944699287,0.0046804058365523815,-0.007885790430009365,0.0037005136255174875,0.00037761565181426704,-0.0069245039485394955,0.004494382068514824,-0.007790999487042427,-0.006078172940760851,-0.006603162735700607,0.008245984092354774,0.0037167698610574007,-0.0016766636399552226,0.006049188785254955,-0.00534854969009757,0.008096708916127682,0.003693342674523592,0.0011097113601863384,0.005529455374926329,0.002711646258831024,0.007267772685736418,0.006178157404065132,-0.005691047292202711,-0.004904556088149548,-0.008186032064259052,-0.005268110893666744,-0.0029504294507205486,-0.008865744806826115,-0.003486745059490204,0.00509752007201314,0.0063906642608344555,-0.00924089178442955,-0.009273345582187176,-0.00665731355547905,0.006995406001806259,-0.0005872123292647302,0.009069993160665035,0.007272797171026468,0.007325380574911833,-0.006994087249040604,-0.00047531950986012816,0.009270944632589817,-0.006607396062463522,0.0013862141640856862,-0.0029369143303483725,-0.0021176189184188843,0.007338038645684719,0.0016432107659056783,0.004856066312640905,0.0032476121559739113,0.0005360718350857496,0.005475259851664305,0.008841151371598244,0.008767585270106792,0.005432558711618185,-0.0002478720562066883,-0.006342100445181131,-0.008573099970817566,-0.00505828345194459,-0.00301276589743793,-0.006968335248529911,-0.005183665081858635,-0.007838275283575058,0.0004356752324383706,-0.0070345234125852585,0.0045550912618637085,-0.0031555958557873964,0.0032255598343908787,0.007182483095675707,-0.007792219053953886,0.009184828959405422,0.0027213694993406534,-0.008405630476772785,-0.003506149398162961,0.007252553943544626,0.0017998387338593602,-0.004009399097412825,0.00827287882566452,0.005391442682594061,0.004419583827257156,0.007293982431292534,0.005063351709395647,-0.00401809997856617,0.0015680883079767227,0.006426508538424969,-0.0060088979080319405,-0.006344009656459093,-0.00642009824514389,-0.005756594240665436,-0.007467907853424549,0.00633918447420001,0.005976134445518255,-0.006562885828316212,0.00385554158128798,0.0023785382509231567,-0.0042161038145422935,-0.005134056322276592,-0.004697727970778942,0.004327376838773489,-0.003405788680538535,-0.00418309448286891,-0.008985866792500019,0.007666461169719696,0.004742370918393135,-0.0005206830101087689,0.008319016546010971,-0.0038911134470254183,0.00327514810487628,-0.003672685706987977,-0.0034955483861267567,0.006471541710197926,0.005386990960687399,-0.0038802993949502707,-0.007878890261054039,-0.002686904277652502,0.004879876505583525,-0.007519338745623827,0.003226015018299222,0.007318413350731134,-0.006040066946297884,0.00680028460919857,-0.008443547412753105,0.003127862699329853,0.005462330300360918,-0.0010171417379751801,-0.0055490476079285145,0.008005915209650993,-0.009004080668091774,0.0010566557757556438,-0.0023693370167165995,-0.0007107792771421373,0.0007088067359291017,0.0006746463477611542,-0.005548819433897734,0.003401892026886344,-0.009017311036586761,-0.008979031816124916,-0.0003808669571299106,0.0008113767253234982,-0.004208979196846485,0.0009950385428965092,0.00032644622842781246,-0.0028133236337453127,0.0028748612385243177,0.008630477823317051,-0.00015130663814488798,0.005399167072027922,-0.004724075086414814,0.00494607025757432,0.002820926485583186,0.0026478010695427656,0.007411445491015911,-0.004991007968783379,-0.002450878731906414,-0.007816667668521404,0.004273343365639448,0.006487061269581318,-0.0017479376401752234,-0.0026694012340158224,0.003005082719027996,-0.007957282476127148,-0.0038535946514457464,-0.0024929794017225504,0.0003719755623023957,-0.00041803589556366205,-0.005454846657812595,0.0007892990252003074,0.00802842527627945,-0.008869152516126633,0.00341103901155293,0.002365776104852557,0.008000226691365242,0.002753738546743989,0.002368287416175008,0.005093507003039122,-0.00434436509385705,0.0018211035057902336,0.0003864837344735861,-0.0011348662665113807,-0.007884516380727291,-0.0038769342936575413,-0.004114847164601088,0.00423765741288662,0.007929926738142967,-0.005039735231548548,-0.007975953631103039,0.009420821443200111,0.0036162727046757936,0.007287209387868643,-0.006673938129097223,0.005675956141203642,0.005911999382078648,-0.0065308744087815285,-0.006344442721456289,-0.0038241404108703136,-0.005303226411342621,0.008958948776125908,-0.0025553451851010323,0.004933936987072229,0.005756352562457323,-0.002122987527400255,0.003454104531556368,-0.007352342829108238,-0.0019156747730448842,0.008806687779724598,-0.006209473125636578,-0.002126189647242427,0.005484298802912235,0.003132551210001111,0.0024951244704425335,0.006663772277534008,-0.008831228129565716,0.0051203761249780655,0.007214470766484737,-0.009076506830751896,0.0011287258239462972,-0.00282655144110322,-0.00842622946947813,-0.0015261967200785875,0.0027279159985482693,0.00789736583828926,0.002286110771819949,0.006726886611431837,-0.007094986736774445,-0.005422691814601421,0.008861192502081394,0.007303024176508188,-0.004958213772624731,0.002294193720445037,-0.002562758745625615,-0.0005703635397367179,0.006804376374930143,0.004452338442206383,-0.004896617028862238,-0.0034384685568511486,-0.003932748455554247,0.005297426600009203,-0.0001651808270253241,0.008494420908391476,0.005974703934043646,-0.005408888682723045,0.005397076718509197,0.00013584460248239338,-0.004609171766787767,-0.0025480836629867554,0.008897187188267708,-0.000279968895483762,0.004149907268583775,-0.0004092539311386645,-0.002393412636592984,0.005594243761152029,0.006570073775947094,-0.008027611300349236,-0.004133963491767645,0.0001697043771855533,-0.0034284263383597136,0.005352895241230726,-0.007221850100904703,0.005620142444968224,0.0022374987602233887,-0.003938996698707342,-0.0029031678568571806,-0.005940662231296301,-0.004630743991583586,0.004105780739337206,-0.002312276279553771,0.00354597344994545,0.00028658375958912075,-0.0066458010114729404,5.686189069820102e-06,0.004844555165618658,-0.0037808381021022797,0.0028069843538105488,-0.0056355735287070274,-0.00682626711204648,-0.0026048619765788317,-0.0020600780844688416,0.004928880371153355,-0.00072844373062253,-0.007851499132812023,0.002541165566071868,-0.0005559523706324399,-0.003143277717754245,0.0057036392390728,-0.006475991103798151,0.007790404371917248,-0.0030975928530097008,-0.0007119885412976146,0.008091554045677185,0.004933439660817385,-0.007981620728969574,0.0014942896086722612,-0.0035431343130767345,0.00018192827701568604,0.004589947406202555,-4.9530866817804053e-05,-0.00804322399199009,0.0005860724486410618,-0.00892482977360487,-0.002827751450240612,-0.00039060841663740575,0.0027421789709478617,0.0001391179539496079,-0.006521513219922781,0.00814739614725113,0.002847586991265416,-0.0034192348830401897,0.008781392127275467,0.007214393466711044,-0.0066808597184717655,0.002944020554423332,0.0011513250647112727,-0.005753631237894297,-0.004989016335457563,0.001221047481521964,-0.0033379255328327417,0.0063168141059577465,-0.0075409249402582645,0.007805816829204559,0.006424374878406525,0.004508059471845627,-0.004442059434950352,0.004063577391207218,-0.0011286286171525717,0.0025371466763317585,-0.003501666709780693,0.006336566526442766,-0.008615425787866116,0.003621964016929269,0.00620070518925786,0.0027753543108701706,-0.0057692574337124825,-0.004021008498966694,0.00030203239293769,-0.0031848368234932423,-0.009286632761359215,-0.008614299818873405,0.005055662244558334,-0.007805062457919121,0.008068247698247433,-0.001054324209690094,0.004876045975834131,-0.007018726319074631,0.008040309883654118,-0.00874292105436325,-0.008586340583860874,-0.008352302014827728,-0.007434152066707611,-0.00022521699429489672,0.005441026762127876,-0.004021825268864632,0.004642016254365444,0.005173765122890472,0.007697116583585739,-0.006571101490408182,-0.0068308827467262745,-0.007083544973284006,-0.0026236004196107388,-0.000176991758053191,-0.0006997112068347633,-0.004545903764665127,0.0023151475470513105,-0.0030186797957867384,-0.002495847176760435,-0.007394537329673767,0.0017559812404215336,0.0029412233270704746,0.004870998207479715,0.007616990711539984,0.005022426135838032,-0.004946778062731028,-0.004948444198817015,0.007824995554983616,0.005476062651723623,0.005327776074409485,0.0041521270759403706,-0.004355943761765957,0.006552298553287983,-0.006693180184811354,-0.002798813860863447,-0.002865429734811187,0.001151561038568616,-0.00066615134710446,-0.0007345046033151448,0.001028236118145287,-0.0015678893541917205,-0.00467844121158123,0.0031077363528311253,0.005486083682626486,-0.00037252443144097924,0.0028325410094112158,0.0006872111698612571,-0.008269360288977623,-0.0014237608993425965,-0.009195515885949135,0.003063343930989504,0.00017354947340209037,-0.0069960057735443115,0.0008133266819640994,0.007510398514568806,-0.002978943521156907,0.009088326245546341,0.008656122721731663,0.005387358833104372,0.005922981537878513,-0.001658154302276671,-0.0018086290219798684,0.008566036820411682,-0.002492060186341405,-0.007555645424872637,-0.006506048142910004,0.0039789872244000435,-0.0021772601176053286,-0.0056299385614693165,0.005921935196965933,-0.0001899928756756708,0.0012945618946105242,-0.006483364384621382,-0.005753810983151197,-0.007011532783508301,0.0002963531296700239,0.005203194450587034,0.004387782886624336,-0.004468302242457867,0.006630026735365391,-0.007393110077828169,-0.00723538501188159,0.006587801035493612,-0.004784369841217995,0.003933379892259836,-0.00920796301215887,-0.007618659641593695,0.0020767070818692446,-0.00594888674095273,-0.008848235011100769,-0.0005992057267576456,-0.0031642864923924208,0.005704465787857771,0.006016026251018047,0.0021738321520388126,-0.0038684667088091373,-0.0006986387888900936,0.0038251394871622324,-0.008075067773461342,-0.0031265357974916697,0.006083172280341387,-0.001743988017551601,0.0023664396721869707,-0.007567362394183874,0.005230396054685116,-0.007489687297493219,0.006818653549998999,-0.007374336011707783,0.0073707918636500835,-0.002539270091801882,0.002363179111853242,0.006537130568176508,-0.009187583811581135,-0.004384709522128105,0.007697384804487228,-0.002081799553707242,0.0039005365688353777,-0.0067475782707333565,0.0033740366343408823,-0.00800465140491724,0.004106228239834309,-0.0032881449442356825,-0.0006174701848067343,-0.0062502468936145306,0.0024280527140945196,-0.0030293953604996204,-0.00216818624176085,0.002885732101276517,-0.006013331934809685,0.006642219144850969,0.00451745605096221,0.0014803699450567365,-0.00696879718452692,0.0035366632509976625,-0.009041489101946354,0.005741560831665993,-0.003669816069304943,-0.007177892606705427,-0.006289053242653608,0.00872920360416174,0.005170450080186129,-0.0049058664590120316,0.008735445328056812,-0.0067437016405165195,0.004412730224430561,0.002969244262203574,0.006066232454031706,-0.002201673574745655,-0.0018233335576951504,0.002364034065976739,-0.0018915672553703189,-0.008601181209087372,0.004340582527220249,0.0026719672605395317,-0.0014120289124548435,-0.003684811992570758,-0.003348353784531355,0.004553977400064468,0.004330850206315517,0.006018331274390221,0.004951640032231808,0.004871993325650692,-0.004644312430173159,-0.007467405404895544,0.004943581763654947,-0.007523718755692244,0.00908572506159544,0.00707390159368515,0.0006514606648124754,-0.0027568505611270666,0.000527031603269279,0.004427019041031599,0.004841164220124483,-0.007993565872311592,0.00575344217941165,0.0026822490617632866,-0.008615742437541485,-0.0034906419459730387,0.00022228181478567421,-0.005835408344864845,-0.006459786090999842,-0.009110169485211372,0.007759257685393095,-0.008323797956109047,-0.002497927751392126,-0.005510682240128517,0.004552538972347975,0.003916161600500345,0.005778132472187281,0.002217204077169299,0.001744382199831307,-0.0017251146491616964,0.002584762405604124,-0.007213857490569353,0.0034895874559879303,-0.0074264658614993095,0.006821400951594114,0.0001276790862902999,0.0005915456567890942,0.0016161303501576185,0.005210421048104763,-0.0003839475684799254,-0.0013402111362665892,-0.003958535380661488,-0.006972160190343857,-0.005800826475024223,-0.009369703941047192,0.006966239772737026,0.005002267193049192,-0.005268024746328592,-0.009334693662822247,-0.00012564921053126454,-0.0016211875481531024,0.005211276933550835,-0.0018031324725598097,0.00686772633343935,-0.007576269563287497,-0.0024995729327201843,0.008180267177522182,-0.009157827123999596,-0.002030463656410575,-0.0044951424933969975,0.0006219296483322978,-0.004136731382459402,0.006977046839892864,0.008240747265517712,0.006586491595953703,-0.001884119352325797,0.009233334101736546,0.004434330854564905,-0.002698686672374606,-0.007623282726854086,0.0031565027311444283,0.004312720149755478,-0.0070824576541781425,0.0009513942059129477,0.009172541089355946,-0.003250804264098406,-0.003706821473315358,0.0075995102524757385,-0.007175592705607414,0.008167198859155178,0.0052717141807079315,-0.002034601988270879,-0.007812906987965107,-0.009023153223097324,-0.0023167820181697607,0.0038768791127949953,-0.00021795203792862594,0.004502489231526852,0.0032229458447545767,0.001387152704410255,0.0088044423609972,0.004309437237679958,0.007810658775269985,-0.004831834230571985,0.0040329452604055405,0.0018559338059276342,0.007992877624928951,0.00021374705829657614,-0.004126466810703278,-0.002148239640519023,-0.005269754212349653,-0.0052482616156339645,-0.0005388697609305382,0.007396872155368328,-0.005776667967438698,-0.00397180300205946,0.00665273005142808,-0.0030052613001316786,0.008709465153515339,-0.004328071139752865,-0.0010705976746976376,-0.007586404215544462,0.009268178604543209,0.007350400555878878,0.005985869560390711,-0.0064266459085047245,0.00883919931948185,0.008083299733698368,-0.001193157397210598,0.0034308091271668673,0.009273507632315159,-0.0016801009187474847,-0.007258979137986898,0.0069304280914366245,-0.00042530815699137747,0.009170758537948132,0.0009736089268699288,-0.008830622769892216,-0.00013875118747819215,0.004115666262805462,-0.008895626291632652,-0.0016106698894873261,-0.006459886208176613,0.002706496510654688,0.008613638579845428,0.002358467550948262,0.0036800061352550983,-0.0019281323766335845,0.0012036196421831846,0.0008410547161474824,0.004896431230008602,0.006725823041051626,0.00307846674695611,0.00903586857020855,0.006187685765326023,-0.007041157688945532,0.00015703837561886758,0.007596747484058142,0.00836219359189272,-0.0022352293599396944,0.004259875509887934,-0.0016644953284412622,-0.007058898918330669,0.00724742142483592,0.008136930875480175,0.00010664612636901438,-0.009040115401148796,0.005956341978162527,-0.00041766237700358033,-0.007975520566105843,-0.00582492770627141,-0.006525659468024969,0.003517243079841137,-0.0037561263889074326,-0.00698493979871273,0.007866209372878075,0.008597023785114288,-0.0067804730497300625,-0.005057217553257942,0.0017471743049100041,-0.00655614398419857,-0.006404167506843805,-0.00305756414309144,0.008458634838461876,0.008708152920007706,0.006441191304475069,0.003695296822115779,0.0041641551069915295,-0.0005558670382015407,0.0005830989102832973,0.0025435665156692266,0.004363694693893194,-0.007564143277704716,-0.0051569039933383465,0.008718756027519703,-0.0030833291821181774,-0.004337153397500515,-0.0014516825322061777,-0.0039151450619101524,-0.007670378312468529,-0.005474821664392948,0.00265117222443223,-0.005188654642552137,0.0027924368623644114,-0.007502919062972069,-0.008597685024142265,0.0068134586326777935,0.004904428496956825,0.0031376355327665806,-0.008804057724773884,-0.004884496796876192,0.00588748836889863,-0.006664923392236233,0.005897349677979946,0.0015999238239601254,0.004534590523689985,0.0027327665593475103,-0.0015443540178239346,-0.003894991474226117,0.0032633605878800154,0.005785668268799782,-0.008542947471141815,-0.0022404363844543695,-0.0027890214696526527,0.0011357615003362298,-0.00724154245108366,0.008164872415363789,0.0009297275682911277,0.007983135990798473,0.0059755477122962475,-0.005781283602118492,-0.006896165199577808,0.006807773374021053,0.0006955969729460776,-0.009013536386191845,0.00817926973104477,-0.0004901898792013526,-0.0037260036915540695,0.000328932364936918,0.006087298505008221,-0.007310460787266493,-0.002635437995195389,-0.0033887086901813745,0.006401850841939449,0.005251590628176928,-0.0018610646948218346,0.003109175246208906,-0.0019677754025906324,0.0013578562065958977,0.009250921197235584,0.0006859586574137211,0.009201284497976303,0.004663812927901745,-0.007114301435649395,0.00558067113161087,-0.006351686082780361,0.000624942360445857,0.002145559061318636,0.007390194572508335,-0.00542814563959837,0.007083966862410307,0.008184274658560753,-0.007701825350522995,0.00725962221622467,-0.00451150257140398,-0.007861862890422344,0.008637059479951859,-0.0020100846886634827,0.002328707603737712,0.0010109242284670472,-0.005376236047595739,0.0032044758554548025,-0.008517695590853691,-0.005565879866480827,0.008375521749258041,0.00854211114346981,-0.0003088179510086775,-0.006205176003277302,-0.001456348691135645,0.0071055893786251545,-0.008063164539635181,-0.00697983056306839,0.007454947102814913,-0.0015735983615741134,-0.007815868593752384,-0.006767218466848135,0.007206089328974485,-0.00016940014029387385,-0.006320043932646513,0.007424394134432077,0.0065072872675955296,-0.008952072821557522,0.0015392807545140386,-0.004790350794792175,0.0006400435813702643,-0.004133627749979496,-0.003444921923801303,0.0019319161074236035,0.000747638288885355,-0.001953735249117017,-0.007361689582467079,0.008841162547469139,-0.006101896520704031,0.002518804743885994,-0.007829423062503338,0.0035565122961997986,-0.007601538207381964,-0.00506968516856432,0.002779529895633459,-0.004065242130309343,0.0006341382977552712,-0.007043474819511175,-0.005578996613621712,0.004411154892295599,-0.008724112994968891,-0.007282332517206669,-0.005342943128198385,-0.009005147963762283,-0.007591064088046551,-0.004093921277672052,-0.007637572009116411,0.006899054627865553,-0.008142746984958649,0.006802498362958431,0.006085751578211784,-0.007490102667361498,-0.00891136098653078,-0.008445094339549541,0.0017157167894765735,0.0032185118179768324,0.002284119138494134,0.0007959502399899065,-0.006100760307163,0.006425477098673582,-0.0032262937165796757,0.009155260398983955,-0.002148966770619154,-0.004440283868461847,0.007428412325680256,0.0012844918528571725,0.004187190905213356,-0.001705086906440556,0.0072905076667666435,0.007869224064052105,-0.0011717126471921802,-0.004858259577304125,0.0027930280193686485,0.008560500107705593,0.002317039528861642,0.008553688414394855,-0.00292151584289968,0.007817775942385197,-0.007269390858709812,-0.0026390140410512686,-8.856946078594774e-05,0.0028935286682099104,-0.003852507332339883,0.007992691360414028,0.007603274658322334,0.005645027384161949,-0.007232875097543001,-0.007911618798971176,-1.697744482953567e-05,0.005005934741348028,-0.00706605426967144,0.002676286268979311,0.0005412426544353366,0.004265446215867996,-0.0011974545195698738,0.0036512664519250393,-0.006382825318723917,-0.005349054932594299,0.007599633187055588,-0.0031906655058264732,0.009142540395259857,-0.008516836911439896,-6.145937368273735e-05,-0.003274646820500493,0.009339181706309319,0.009227692149579525,-0.0049622864462435246,-0.004360416904091835,0.004709255415946245,0.007342242170125246,0.0030941939912736416,0.006872883532196283,-0.00819471012800932,0.002658616518601775,0.003779929829761386,-0.005806031636893749,0.005242149345576763,0.008368082344532013,0.007498596329241991,-0.004778149072080851,-0.003291970118880272,1.0121704690391198e-05,-0.0064063905738294125,0.00855063833296299,-0.006345564033836126,0.0049315025098621845,-0.002964174374938011,0.0014028586447238922,-0.008497797884047031,-0.005529858637601137,-0.001028610160574317,0.003347821766510606,0.005234404467046261,-0.008818034082651138,-0.006517290603369474,0.00433629984036088,0.005900670774281025,-0.004937549587339163,-0.00506761996075511,-0.007730224169790745,-0.006559613160789013,-0.009235021658241749,0.001704682712443173,0.007608438841998577,-0.0065731084905564785,0.004745292942970991,0.0014036307111382484,0.008288213983178139,0.005622874479740858,0.006649507209658623,0.0026344163343310356,0.005871300585567951,-0.002785272430628538,-0.005452629178762436,0.00776941142976284,0.004419452045112848,-0.00768120214343071,0.006911912467330694,-0.00282651511952281,-0.0037783142179250717,0.0023325374349951744,0.0013042197097092867,0.0007338342256844044,-0.004591957665979862,0.008659953251481056,0.008478466421365738,-0.009306071326136589,-0.00303198816254735,-0.008527996949851513,0.006601365283131599,0.007283245213329792,0.0003613184962887317,0.0064023332670331,0.0038399354089051485,9.014110219141003e-06,-0.00254377955570817,-0.004378905985504389,-0.004506666213274002,0.0011838176287710667,-0.006247991230338812,-0.006097892299294472,-0.009188786149024963,0.00214773858897388,0.009310053661465645,0.007334182504564524,0.0038841916248202324,0.0053846873342990875,-0.0015457805711776018,-0.003779111197218299,-0.0024527523200958967,-0.007853744551539421,0.002532149665057659,-0.006096444092690945,0.004958525765687227,-0.005812342278659344,-0.005095141939818859,0.008613353595137596,-0.00740250525996089,-4.663269010052318e-06,-0.00820607878267765,-0.007684711832553148,0.002526494674384594,0.002474362961947918,-0.0057533495128154755,0.007019109092652798,0.0038178397808223963,-0.003732023760676384,-0.004714315757155418,0.004796203691512346,0.004407750908285379,-0.006586661096662283,-0.0028194382321089506,-0.005311134736984968,-0.0038542882539331913,-0.003978421445935965,0.008964496664702892,0.004719607066363096,0.0052802483551204205,-0.004169445484876633,-0.009375751949846745,-0.008292282931506634,0.0010122940875589848,-0.004017943982034922,-0.005757516250014305,-0.00845238659530878,0.007081915158778429,0.0018986213253811002,-0.007366175297647715,0.005023982375860214,0.004825080279260874,-0.003943902440369129,-0.005842310842126608,0.00591844879090786,-0.003188441274687648,0.006547275930643082,-0.008563711307942867,3.875018137478037e-06,-0.006007367745041847,0.003251416143029928,0.009363790042698383,-0.0016276281094178557,-0.007497970946133137,-0.0034109719563275576,0.0073769586160779,0.005013180430978537,-0.005017844028770924,0.008544094860553741,0.0023143854923546314,-0.006224127486348152,0.0013772211968898773,-0.0008984711021184921,0.0060272216796875,-0.002912695985287428,0.007071478292346001,0.005886893253773451,0.0033040971029549837,-0.004516643472015858,0.008864067494869232,0.0009363660938106477,0.007683164440095425,-0.005322765558958054,0.009109389036893845,0.005965967662632465,0.008469547145068645,-0.005383802577853203,-0.0012800580589100718,-0.0075408280827105045,-0.006801292300224304,-0.004037817474454641,0.008514647372066975,0.0031669591553509235,-0.0034633339382708073,0.008568068966269493,0.0045289634726941586,0.007673322688788176,0.008053828030824661,0.004736482631415129,-0.004807347897440195,0.009357986971735954,-0.003266723360866308,0.003250802168622613,0.006505499128252268,-0.006084495689719915,0.002072682837024331,-0.002324184635654092,-0.0047846646048128605,-0.009156178683042526,0.007016160059720278,-0.00682279234752059,0.007131610065698624,0.00191558210644871,0.0022985083051025867,0.006201635580509901,0.00020004264661110938,-0.002660536440089345,-0.0067678410559892654,0.0013463845243677497,0.0010221030097454786,-0.0038534309715032578,0.0019025002839043736,-0.0011185631155967712,0.00576577614992857,0.0011397505877539515,0.00817499216645956,0.00035947325523011386,0.007306767161935568,0.00040726223960518837,0.001113050733692944,-0.002482054056599736,-0.0018549013184383512,0.008164724335074425,-0.005180211737751961,-0.0070945690385997295,0.0062303803861141205,0.0014679390005767345,-0.004026514478027821,-0.0012492310488596559,0.000489923870190978,0.001753975753672421,0.006057885941118002,-0.001964492490515113,0.0033401008695364,0.006315752863883972,0.006485083140432835,-0.004598370753228664,-0.0027951437514275312,0.0018059214344248176,0.007274628151208162,0.0054824454709887505,0.001600181101821363,0.00911630503833294,-0.0011254409328103065,0.006460158620029688,0.006008378230035305,0.007694315630942583,0.009191546589136124,-5.8193905715597793e-05,-0.005699363071471453,-0.0007124802214093506,0.006676203571259975,0.006341959815472364,-0.0030610847752541304,-0.00848796684294939,0.00020531217160169035,-0.0004666418244596571,-0.007767332252115011,0.005564624909311533,-0.00404808996245265,0.0027605562936514616,-0.0074717202223837376,0.006801950745284557,0.0045190295204520226,-0.0020775997545570135,0.0024545800406485796,-0.00585573585703969,0.00914645567536354,0.005587294697761536,0.005452534183859825,-0.006496346555650234,-0.00904663186520338,0.0016250895569100976,-0.006669263355433941,0.005293768830597401,-0.001556601608172059,-0.00301325018517673,-0.007994222454726696,0.009347709827125072,0.008594670332968235,-0.0069047193974256516,-0.0031219690572470427,-0.002031600335612893,-0.0037985965609550476,0.00819006934762001,0.004183209966868162,0.008593290112912655,0.007062773685902357,0.0048073818907141685,0.003724748035892844,0.006905926391482353,0.00348390219733119,-0.005830253940075636,0.002806637668982148,0.0003037717251572758,0.009081841446459293,0.00020909318118356168,-0.008655349723994732,-0.00441138818860054,0.007868959568440914,0.008714172057807446,0.00431756442412734,-0.008309598080813885,-0.008936076425015926,-0.0003622198128141463,0.009415721520781517,0.006964646279811859,0.00816426519304514,0.002344097476452589,0.006775174755603075,-0.003366542048752308,-0.008862410672008991,0.007886756211519241,-0.0052702296525239944,0.0043191006407141685,0.0030119074508547783,-0.006403286475688219,-0.00569609459489584,-0.003191314171999693,0.004852847661823034,-0.008640119805932045,-0.0017250105738639832,0.0031264405697584152,-0.006154126953333616,-0.007132770027965307,-0.0020418495405465364,-0.003990400116890669,0.002825511619448662,0.008850718848407269,-0.009293690323829651,0.0075876060873270035,-0.001233076909556985,0.003105868585407734,0.006622142158448696,0.0014034319901838899,-0.007548113819211721,-0.006734277121722698,0.005461360793560743,-0.005070371553301811,0.0013204134302213788,-0.0013296587858349085,-0.003669159719720483,0.005417882930487394,0.004369734786450863,0.0027694697491824627,-0.0023716853465884924,-0.005120153073221445,0.0003209377755410969,0.005984090734273195,0.0014446413842961192,0.00886119157075882,-0.009087741374969482,0.009391505271196365,0.0036207616794854403,0.006276905070990324,-0.003080732189118862,0.00017902033869177103,0.005606013350188732,0.0049228062853217125,-0.0030979937873780727,-0.0032789355609565973,0.00308319297619164,0.008175420574843884,-0.0011281950864940882,-0.0027420567348599434,0.007443253882229328,0.0034642727114260197,-0.002077758312225342,-0.008300603367388248,0.00418704142794013,-0.002743104239925742,-0.008050743490457535,0.002132999012246728,-0.003305671736598015,-0.0030152148101478815,-0.0003697690845001489,0.004110736772418022,-0.0041830288246273994,-0.007856410928070545,-0.0013990094885230064,-0.008345616981387138,0.003731196280568838,0.008656609803438187,0.003007190302014351,-0.004200133960694075,-0.0059615205973386765,-0.005001169163733721,-0.005211235489696264,-0.003477649763226509,-0.007547455374151468,0.007461636792868376,0.007262379862368107,0.002188194775953889,-0.008214293047785759,0.005737281404435635,-0.008216772228479385,-0.0073775979690253735,-0.0032628339249640703,-0.0012667616829276085,-0.0027248442638665438,-0.006271537393331528,-0.007269846275448799,0.006779535207897425,-0.0025501411873847246,-0.005268157925456762,-0.00022249638277571648,-0.008685706183314323,0.001907407189719379,-0.004706501495093107,0.0018679189961403608,0.0021674479357898235,0.005835621617734432,-0.005055913235992193,-0.0006651066360063851,0.008705729618668556,0.004292101599276066,0.008958718739449978,0.008056100457906723,0.0021033661905676126,-0.004416810814291239,0.004851749632507563,0.0037459838204085827,0.0016923616640269756,0.0037405306939035654,0.0021567188668996096,0.0003855169052258134,-0.0015576948644593358,-0.008537136018276215,0.006897800602018833,0.006895030383020639,0.0017905310960486531,-0.004341233521699905,-0.00884880218654871,-0.009350817650556564,-0.008006975054740906,-0.002614015946164727,-0.0058379401452839375,-0.004396647680550814,0.003773923497647047,0.008652607910335064,-0.00549238221719861,-0.0006257815985009074,0.009260425344109535,0.008136068470776081,-0.0027527189813554287,-0.0033661320339888334,-0.004823303781449795,-0.006454590242356062,-0.0007272760849446058,-0.0029632048681378365,0.004627110902220011,-0.004923027940094471,0.004467209801077843,-0.003959706053137779,0.0017663468606770039,0.0026256064884364605,0.003252629889175296,-0.006080556195229292,-0.004061895422637463,-0.004749911837279797,0.0014548489125445485,-0.007952999323606491,0.0003643390955403447,-0.00773449195548892,-0.003042287426069379,0.003531336784362793,-0.0016227503074333072,-0.004108344204723835,0.0021993371192365885,0.004538548178970814,-0.004592590034008026,-0.0037491051480174065,0.0026598928961902857,0.008768887259066105,-0.005356884095817804,0.0029222292359918356,0.007666607853025198,-0.0006928186630830169,-0.0034211426973342896,0.003159556770697236,-0.008786283433437347,-0.0026061488315463066,-0.004527112003415823,-0.0051541454158723354,-0.00599758792668581,0.004480030387639999,0.008579188026487827,-0.0021434687077999115,-0.008454058319330215,0.004138086456805468,0.0007404307834804058,0.004227060824632645,0.0028029107488691807,0.0076448447071015835,-0.006737507414072752,-0.006197516340762377,-0.002956351498141885,-0.000139718409627676,0.008024677634239197,0.007672222796827555,0.007012460846453905,-0.005195574834942818,0.004339108243584633,-0.002169563202187419,0.00812749844044447,-0.0053458260372281075,-0.0067234942689538,0.006461957469582558,0.004102905746549368,0.006067830603569746,-0.006405932828783989,0.0072592394426465034,0.0033640710171312094,0.002874137833714485,0.0015772870974615216,0.00500474451109767,-0.0015674906317144632,-0.006883813533931971,0.0007573095499537885,0.004683803301304579,-0.006492271088063717,-0.005169217474758625,0.003714360296726227,-0.004311340861022472,-0.006185948383063078,0.007343729492276907,-0.006352417636662722,-0.0029073513578623533,-0.0013228674652054906,-0.00042589774238877,-0.0025847090873867273,0.007778893690556288,0.0030049867928028107,-0.0026188346091657877,-0.0026525789871811867,7.781884050928056e-05,-0.00874487403780222,0.008043629117310047,-0.005179365165531635,0.003737223567441106,0.005243916530162096,0.006177559494972229,-0.0062635354697704315,0.0007127144490368664,-0.007804046384990215,0.005753395147621632,-0.00023184590099845082,-0.0063974675722420216,0.004134412854909897,-0.0031511757988482714,-0.007224360480904579,-0.000708967971149832,-0.004954863339662552,0.008487001992762089,-0.0025840362068265676,0.0013845298672094941,0.008452017791569233,-0.0019756583496928215,-0.0026448522694408894,-0.006324307061731815,0.008262932300567627,0.00567669328302145,-0.005222619511187077,-0.0031234920024871826,0.007823043502867222,0.0007231397903524339,0.0010813761036843061,0.0028075191657990217,0.00495134899392724,0.008281278423964977,0.005703622940927744,0.008191350847482681,0.0060492693446576595,-0.008505711331963539,-0.007168937940150499,0.007257829885929823,-0.008857989683747292,0.005552281159907579,0.006598880514502525,-0.0015684637473896146,-0.0027079081628471613,-0.0057242694310843945,-0.008459510281682014,0.004634442739188671,-0.007993108592927456,0.008381103165447712,-0.003800434758886695,0.005553068593144417,-0.008256751112639904,0.0007033271249383688,-0.0028156947810202837,-0.008814779110252857,0.0029504355043172836,0.008353167213499546,-0.009176657535135746,-0.004294394515454769,0.003849218599498272,0.007002615835517645,-0.005790685769170523,-0.008047979325056076,-0.009215031750500202,-0.005331436172127724,-0.008036688901484013,-0.00262106372974813,-0.0011030916357412934,-0.0003548640524968505,-0.006701168138533831,-0.0006540720351040363,-0.009206908755004406,-0.004875787068158388,-0.0024382227566093206,-0.007151959463953972,0.005926698446273804,-0.005594134330749512,0.004815307911485434,-0.0004945105756632984,-0.00038453112938441336,0.0027260060887783766,-0.00857250764966011,-0.007924236357212067,-0.0032591635826975107,-0.001567473285831511,-0.00132084172219038,0.003321857890114188,-0.009392021223902702,0.008626437745988369,-0.006124164909124374,-0.004730214364826679,0.007621665485203266,-0.009302042424678802,0.009231830947101116,-0.008729263208806515,-0.007138305809348822,-0.0048902202397584915,-0.0011557708494365215,0.00034320596023462713,-0.007435588166117668,-0.008019853383302689,-0.008805990219116211,-0.004577295389026403,0.007920370437204838,-0.0020747478120028973,0.004959261044859886,-0.005828860681504011,-0.008189142681658268,0.0010166243882849813,0.006051286123692989,0.007487034425139427,0.0008648080984130502,-0.0038762076292186975,-0.0073456307873129845,0.0031512456480413675,-0.00413216557353735,0.006462423130869865,0.0019724147859960794,0.006742865778505802,0.0012492139358073473,0.005104659590870142,-0.003871103748679161,5.361347575671971e-05,-0.009040029719471931,0.002023650798946619,0.0006307179573923349,0.00479544885456562,0.004300507716834545,0.002395627787336707,-0.00833918433636427,0.007572812493890524,-0.00906609557569027,0.005697539076209068,-0.0003919883747585118,0.005974391475319862,-0.0006604003719985485,0.0027587797958403826,-0.002574421465396881,0.004577215760946274,-0.004625705536454916,0.004119936376810074,-0.005768574774265289,0.0041728876531124115,-0.003882736898958683,-0.0041658454574644566,0.005852261558175087,0.005893594119697809,0.003594811772927642,0.007965113036334515,-0.006467763334512711,-0.004341000225394964,-0.0038764255587011576,-0.0036645052023231983,-0.0032368607353419065,0.0037001094315201044,-0.004313998389989138,-0.004028894007205963,0.0013200900284573436,-0.005769144278019667,-0.0025440698955208063,-0.008315790444612503,0.008503314107656479,-0.003438594751060009,0.006576798390597105,0.0005591633962467313,-0.005113956984132528,-0.005767920985817909,0.0036615044809877872,0.008735403418540955,-0.005962245166301727,-0.00723407743498683,-0.002126055769622326,-0.0019998762290924788,0.0057539381086826324,-0.0005883157718926668,-0.008230377919971943,0.007904383353888988,-0.002387571381404996,0.0031650555320084095,0.0031454279087483883,-0.008345385082066059,-0.009336881339550018,-0.007748929318040609,0.008578669279813766,0.005523439962416887,-0.006922169588506222,0.0021559540182352066,0.0021014991216361523,-0.009394414722919464,-0.001337268389761448,0.003977473359555006,-0.005892488639801741,0.006593173835426569,0.003010157961398363,-0.0092747388407588,0.006668495945632458,-0.009040234610438347,0.007289189845323563,-0.003129915101453662,0.003730998607352376,0.005399775225669146,-0.004116354044526815,-0.0027028003241866827,0.00017568442854098976,0.0015509712975472212,-0.003913765773177147,0.009252658113837242,0.004451775923371315,-0.0042500984854996204,0.0026365199591964483,-0.0012187249958515167,0.006770349573343992,-0.0032195241656154394,-0.0058725313283503056,-0.008537523448467255,0.009100643917918205,-0.002650383161380887,-0.005258428864181042,-0.0001584027340868488,-0.003921314142644405,-0.005025646183639765,0.0021844147704541683,-0.007997975684702396,0.0001651899074204266,-0.0021202785428613424,0.0006076883291825652,-0.0033797333016991615,0.0013181755784898996,-0.007866935804486275,-0.0023322044871747494,-0.004939431790262461,-0.0011678007431328297,-0.0019151956075802445,0.0024624448269605637,0.0024168449454009533,-0.001632643397897482,-0.005989863537251949,0.001536175492219627,0.008765933103859425,-0.005918039940297604,-0.008106736466288567,-0.004430558532476425,-0.0016409690724685788,-0.003647612174972892,0.006288551725447178,-0.00013490112905856222,-0.00477711483836174,0.008459189906716347,-0.007053198292851448,-0.007093682419508696,-0.004792989697307348,-0.007961755618453026,0.004727012477815151,-0.0035231290385127068,0.004316878039389849,0.0049354154616594315,-0.004938993137329817,0.0003414155507925898,0.00036456662928685546,0.006977709475904703,-0.008923170156776905,-0.003448073286563158,0.007186866365373135,-0.004952399525791407,-0.006831007078289986,0.0014276643050834537,-0.003653440158814192,-0.0006186982500366867,0.006012244150042534,0.0003852977533824742,0.00029491985333152115,-0.004174475558102131,0.005501855630427599,0.004504465963691473,-0.005002863705158234,-0.0033878623507916927,0.005422117654234171,-0.00267892237752676,-0.001817038282752037,-0.0025530632119625807,-0.006365749519318342,-0.0029951694887131453,0.005691098049283028,-0.00017168986960314214,-0.00078943109838292,-0.006464905571192503,-0.006065987050533295,-0.008597527630627155,-0.009142642840743065,-0.0002290793345309794,-0.001710224081762135,-0.004227143246680498,0.009208415634930134,-0.0019214714411646128,0.005426287185400724,-0.00544609222561121,-0.004759946838021278,0.0012819647090509534,-0.009329359047114849,-0.00907747820019722,-0.006730676628649235,-0.005209663417190313,0.0005197692662477493,0.0034974797163158655,-0.003540515433996916,-0.0049096886068582535,0.006064950488507748,-0.006344053894281387,0.003348920028656721,0.00810457207262516,-0.005038656760007143,-0.007769344374537468,0.009015020914375782,-0.004313667770475149,-0.00422174297273159,-0.00030881635029800236,-0.005060354247689247,0.009261572733521461,-0.008597204461693764,-0.0009160562185570598,0.0009052266250364482,-0.0006250758888199925,0.0003821036370936781,0.00916201900690794,0.007081842515617609,-0.003605147125199437,0.0009640516364015639,-0.009399169124662876,-0.0017039069207385182,-0.006323471665382385,0.003969699610024691,-0.0052476730197668076,0.004675372038036585,-0.003516346914693713,0.008001204580068588,-0.0010298239067196846,0.006379131227731705,0.0024059475399553776,0.00897073745727539,0.004559158813208342,0.004276794381439686,-0.004424808546900749,8.756545139476657e-05,-0.003950140904635191,-0.009042344056069851,0.003954956773668528,-0.004970582667738199,-0.0019341714214533567,-0.004052700009196997,-0.005650799255818129,-0.008142778649926186,-0.003051210194826126,-0.00786781869828701,0.000754617212805897,-0.009035731665790081,0.008268222212791443,0.008765597827732563,-0.0036766736302524805,-0.004512850195169449,-0.007441787049174309,0.007608330808579922,0.001629040576517582,0.002066332381218672,0.007437943015247583,0.007718631066381931,0.006168615072965622,0.005136574152857065,0.0070880562998354435,0.007064162287861109,-0.0024735128972679377,0.008895084261894226,0.003927506506443024,-0.0024440987035632133,-0.0010934442980214953,0.003514197189360857,-0.0026150911580771208,0.006135431118309498,-0.006620645988732576,0.007658973336219788,-0.0037412834353744984,-0.006533235311508179,0.006727028638124466,-0.004902272950857878,0.006451993715018034,-0.003834143280982971,0.008152135647833347,-0.005285621155053377,-0.008095568977296352,0.008202283643186092,-0.006290544290095568,0.008345184847712517,0.006086829584091902,-0.007864788174629211,-0.0010354301193729043,-0.008025259710848331,-0.0032040809746831656,-0.0027957898564636707,0.0018692180747166276,0.008942166343331337,-0.006212913431227207,-0.003216024022549391,0.0016336305998265743,-0.006181645207107067,0.0039572748355567455,-0.0018150785472244024,0.008447411470115185,0.0024377976078540087,-0.002578003564849496,0.00412204023450613,0.006364591419696808,0.005645012948662043,-0.004464147612452507,-0.0015643739607185125,-0.0009027018095366657,-0.0021020914427936077,-0.0035595158115029335,0.004747804254293442,-0.009175040759146214,-0.003885123645886779,-0.006741786375641823,-0.006983903702348471,-0.004197864793241024,0.0049240561202168465,0.008820164948701859,0.0002705903898458928,-0.00303168804384768,0.006184022407978773,-0.00814392976462841,-0.00765323918312788,-0.0029105276335030794,-0.0009732200996950269,0.005595823749899864,0.007990987040102482,0.0005847513093613088,-8.51446166052483e-05,-0.0053992425091564655,-0.000921074126381427,0.007960539311170578,-0.002017498482018709,-0.005443601403385401,-0.003062897827476263,0.0002704804646782577,0.0018495393451303244,-0.001274270936846733,0.004856368992477655,0.0015838613035157323,0.0030990582890808582,0.006818914785981178,0.006870993413031101,-0.005578350741416216,0.0023151112254709005,0.0040688104927539825,-0.006662303581833839,0.006440094672143459,-0.006011502351611853,0.005622476805001497,-0.006368821021169424,0.004541390109807253,-0.0066191949881613255,-0.0022819486912339926,-0.00670627411454916,-0.004314864985644817,0.009104305878281593,-0.007380106020718813,-0.0017623512540012598,0.0033223817590624094,-0.007625903934240341,-0.007354525849223137,-0.006710992660373449,0.0027220305055379868,0.007691632490605116,0.006124650593847036,0.009076941758394241,0.0014652663376182318,0.008671225979924202,-0.0036712067667394876,-0.0014795969473198056,-0.001958337612450123,-0.00851474329829216,0.00619445089250803,-0.008940375410020351,0.0043176086619496346,-0.001751074567437172,-0.009287450462579727,-0.003953129518777132,-0.002896564779803157,0.008732032962143421,0.0030246980022639036,0.0008155301329679787,-0.007015678565949202,-0.0020509788300842047,-0.00873252097517252,0.004915944766253233,-0.006343869958072901,0.0017719409661367536,0.003745119087398052,-0.002513245213776827,0.002489280654117465,0.004963833373039961,-0.005942538380622864,0.0018927176715806127,0.004393160808831453,-0.002691192552447319,-0.0063493032939732075,-0.004025114234536886,0.008137475699186325,-0.0026836676988750696,-0.007379423826932907,-0.007849549874663353,-0.00601083692163229,-0.007007148116827011,-9.699216752778739e-05,-0.0028699561953544617,0.006414446979761124,0.007160326465964317,-0.0005061677074991167,0.007300358731299639,-0.0009351603221148252,0.0026651222724467516,-0.006348755210638046,-0.008416565135121346,-0.006394830532371998,-0.00466966861858964,0.004714367911219597,-0.006142524536699057,-0.006948123686015606,0.008034427650272846,0.00354566378518939,-0.0004966721753589809,-0.007610315922647715,0.006618374027311802,-0.007360455114394426,0.0020925956778228283,0.00315727386623621,-0.001872258959338069,0.007735603488981724,-0.008443045429885387,0.0059858039021492004,0.001017095404677093,0.002096116077154875,0.009157121181488037,0.0015595549484714866,0.0055893175303936005,-0.0065087913535535336,0.005819837562739849,0.004913343116641045,0.00880481954663992,0.008195694535970688,-0.00537266256287694,-0.0006540215108543634,0.007740662898868322,0.0026513836346566677,-0.0006771995685994625,-0.007347628474235535,-0.002782125724479556,0.003111756406724453,0.0052109211683273315,-0.000987815554253757,-0.00834607146680355,0.002508865436539054,0.007930358871817589,-6.200040661497042e-05,0.008058921433985233,-0.0027378282975405455,0.0072686513885855675,0.005388110876083374,0.008685297332704067,0.005476122256368399,-0.0033511349465698004,0.007535660173743963,0.0031961745116859674,-0.006348522379994392,-0.008531816303730011,-0.002517314162105322,0.005397716071456671,0.002227358752861619,0.0005152059602551162,-0.009326169267296791,-0.001207437482662499,-0.006430489011108875,-0.0008489636820740998,0.009249575436115265,0.0071401773020625114,-0.0035552389454096556,0.0017633126117289066,4.4730768422596157e-05,-0.006950693670660257,0.009212791919708252,-0.0014014213811606169,0.00011172384984092787,0.0027799492236226797,-0.00579456239938736,-0.005217729602009058,-0.005775516852736473,-0.0021671773865818977,-0.005641684401780367,0.008020573295652866,0.0040337806567549706,0.007484083063900471,0.006556245498359203,0.0038242798764258623,-0.004831976722925901,0.0021729764994233847,-0.0058932192623615265,-0.0069051142781972885,0.002497406443580985,0.002347941743209958,-0.006451149471104145,-0.0027695188764482737,-0.008149832487106323,0.004060723353177309,0.00916951335966587,0.004515191074460745,0.0064750718884170055,-0.00043924074270762503,-0.007598431780934334,0.004265142604708672,-0.004572747275233269,-0.0020955458749085665,0.003822966944426298,0.00761440908536315,-0.0002535942767281085,0.008682205341756344,0.0003791222698055208,-0.00709278229624033,0.0003514832933433354,0.0067842258140444756,0.0007201377884484828,0.004662109538912773,0.0009064917685464025,0.0008707186207175255,-0.004042445681989193,-0.005612301640212536,-0.004152280744165182,-0.0011074456851929426,0.005824629217386246,0.006189662031829357,-0.0063242376782000065,0.0009988269302994013,-0.001573600573465228,0.0013387538492679596,0.0027802044060081244,-0.004138973541557789,0.00788597296923399,0.008190639317035675,-0.007414962165057659,0.0038217667024582624,-0.008771409280598164,-0.00852077454328537,0.008610979653894901,0.0036682630889117718,-0.003293811110779643,0.0031987051479518414,0.006506436970084906,0.006977776996791363,-0.009010380133986473,0.005987439304590225,0.006644994951784611,0.0018020507413893938,-0.00037253761547617614,-0.007308844476938248,-0.004890817683190107,-0.00017360239871777594,0.006868201773613691,0.005703594069927931,-7.133660255931318e-05,0.0053744507022202015,0.005000428296625614,0.0014907115837559104,-0.0052535380236804485,-0.0028527588583528996,-0.006311279721558094,-0.009261424653232098,-0.00788194127380848,0.004886014387011528,-0.00876629538834095,-0.001877208356745541,0.009137351997196674,0.005555576644837856,0.004716662690043449,-0.004230698104947805,0.0026696505956351757,-1.883584809547756e-05,0.0023330296389758587,-0.0012013256782665849,0.0005875083152204752,0.009186333045363426,-0.0032039552461355925,-0.00532615976408124,-0.0009629359701648355,0.00046267142170108855,-0.007785680238157511,0.005757170729339123,-0.0014600257854908705,-0.001626707729883492,0.002991391345858574,0.005141873378306627,0.009140204638242722,-0.006133284419775009,-0.0028985165990889072,-0.006232207175344229,0.007165031973272562,0.0009171522106043994,0.006630818825215101,0.009126786142587662,0.0009493724210187793,-0.007174205966293812,-0.002603108761832118,-0.00871571246534586,0.0065717087127268314,-0.009059802629053593,0.0017384852981194854,-0.007400258909910917,-0.009253999218344688,-0.004579849541187286,0.000980216427706182,-0.00798439234495163,0.002165011130273342,0.0032386125531047583,0.008834801614284515,0.007516200188547373,0.0012610913254320621,0.005520109087228775,-0.002558570122346282,0.0016168166184797883,-0.0018116151914000511,-0.00305852759629488,0.004284553229808807,-0.003817520570009947,-0.002240508096292615,-0.002492069499567151,0.006968598812818527,-0.00619178730994463,-0.0022231433540582657,0.0072969659231603146,-0.00910841953009367,0.008424276486039162,0.007504156790673733,-0.0015392049681395292,0.002881938125938177,0.009236456826329231,0.0010383563349023461,-0.007573925890028477,0.006653252523392439,-0.006873430218547583,-0.004558701533824205,0.00702702859416604,-0.004582067020237446,0.004612477496266365,-0.0009783346904441714,0.004888149444013834,-0.005027199629694223,-0.001506782486103475,-0.003413739148527384,-0.004713549744337797,-0.003483888693153858,-0.0033229112159460783,0.008565465919673443,0.0006300173699855804,-0.0007081693620420992,6.766317528672516e-05,0.009331637993454933,0.002892598509788513,0.003830699250102043,-0.00349897681735456,-0.0005297403549775481,-0.0059350901283323765,0.003486705245450139,-0.0029185456223785877,0.004672618117183447,-0.005388070363551378,-0.0018089242512360215,-0.0005364608950912952,-0.0062649184837937355,-0.008087818510830402,-0.003434274345636368,0.0008492874912917614,0.002875399310141802,-0.001399667002260685,1.05067047115881e-05,0.0008171892259269953,0.00022906689264345914,-0.007697616703808308,-0.001780916121788323,-0.00555429607629776,0.0006393867079168558,0.004856417421251535,0.0014995025703683496,-0.0052254656329751015,-0.0054896059446036816,-0.00870043970644474,-0.001378654153086245,-0.0012568142265081406,-0.004950418137013912,0.0049729300662875175,-0.002129003405570984,0.0031899516470730305,0.0026385108940303326,0.00197371793910861,0.007676067762076855,-0.009097795002162457,-0.008117408491671085,0.0041805594228208065,-0.0027492621447890997,0.009150618687272072,-0.00532741192728281,-0.00594770722091198,0.0016643814742565155,-0.004141873214393854,-0.002993366215378046,0.007920041680335999,-0.008902349509298801,0.0005934571381658316,-0.003098528366535902,-0.0028899828903377056,-0.004736274480819702,-0.006860148161649704,-0.00874762237071991,0.009173332713544369,0.003020236501470208,0.0052164955995976925,-0.008173806592822075,-0.00911693461239338,0.0018910642247647047,0.004213033709675074,-0.0019717987161129713,-0.002105488907545805,-0.0021670644637197256,-0.006523963995277882,0.004778136499226093,-0.005350108724087477,-0.003296409035101533,0.0032245530746877193,-0.00939436536282301,0.005010484252125025,0.007507902570068836,-0.008425614796578884,0.001727976487018168,-0.0017156247049570084,-0.00792089756578207,0.003431119490414858,0.0021167288068681955,0.002687168540433049,0.005898728501051664,-0.0040011960081756115,0.0033342051319777966,0.004579352680593729,-0.0062216161750257015,0.00859748013317585,-0.0030032224021852016,0.004022679291665554,0.004780565854161978,8.115990931401029e-05,-0.006975643802434206,-0.004212987143546343,-0.004991632886230946,0.0003558679309207946,-0.00448360200971365,0.0008846938726492226,-0.003977153915911913,-0.009377664886415005,-0.002566145034506917,0.0020135599188506603,0.005150003358721733,-0.008863120339810848,-0.004539503715932369,0.009130858816206455,-0.004473655018955469,0.00521581806242466,0.00018127956718672067,-0.0070980507880449295,0.0027016925159841776,0.008772248402237892,0.007277886848896742,0.0035833006259053946,0.00023438967764377594,-0.003390954341739416,-0.0026834167074412107,-0.002885701833292842,0.007938887923955917,-0.005423529539257288,-0.0022888134699314833,-0.001274517853744328,-0.0017080995021387935,-0.009317825548350811,-0.004301861394196749,-2.226437754870858e-05,0.004901377018541098,0.0013116503832861781,-0.002159469062462449,0.003109933575615287,0.003124070819467306,-0.004734342452138662,-0.007444445509463549,0.005704827606678009,0.0005654414999298751,-0.0060766940005123615,-0.004468476865440607,0.005013656802475452,0.0028867123182862997,0.0083736227825284,-0.0006535756983794272,-0.00841489527374506,0.0037731642369180918,-0.004603094421327114,-0.0033065329771488905,-0.005698320455849171,-0.0035868831910192966,0.006199273746460676,0.0014478102093562484,-0.007343269418925047,0.0016337441047653556,0.0025163001846522093,0.007239752449095249,0.006766383070498705,-0.008213930763304234,0.006898862775415182,-0.008439361117780209,-0.0064979614689946175,-0.0072983382269740105,-0.005979539826512337,0.005706229712814093,0.0035042620729655027,0.003520107362419367,0.007940459996461868,-0.0020281795877963305,-0.00933423638343811,0.0026328032836318016,0.006924707908183336,0.008958190679550171,-0.00255381315946579,0.0060613458044826984,0.006570383906364441,-0.006680276244878769,0.0024770989548414946,-0.0061406525783240795,-0.0009981982875615358,0.007134922780096531,0.005446639843285084,0.0013275991659611464,0.005808401387184858,-0.006522542331367731,-0.0057313162833452225,-0.005469139199703932,0.005193566437810659,0.007354733534157276,0.001186393783427775,0.008614015765488148,0.004291458521038294,0.0012023223098367453,0.0021026788745075464,0.006575916428118944,-0.0077003538608551025,-0.006236979737877846,-0.0043893116526305676,0.007426482625305653,0.008369220420718193,-0.0026992494240403175,0.00797275546938181,0.0008859273511916399,-0.0004969747387804091,0.006260940805077553,0.0008718789322301745,-0.0008502648561261594,-0.009095857851207256,-0.009153496474027634,0.0024039524141699076,-0.008015700615942478,0.004459478426724672,0.0023053449112921953,-0.0007891369168646634,0.003949291538447142,0.009274393320083618,-0.0047637647949159145,0.0010782481404021382,0.006450761575251818,-0.009078647010028362,-0.0055693406611680984,0.0003891716187354177,0.0009774528443813324,-0.0077814981341362,-0.001745181973092258,0.00036710413405671716,-0.0014529154868796468,0.003766766283661127,0.005097455810755491,-0.0007519757491536438,-0.0014029890298843384,0.0038558708038181067,0.0010343660833314061,0.006959632970392704,-0.000359853234840557,0.001392051693983376,-0.006983503233641386,0.006312103942036629,-0.0014662978937849402,0.004114113748073578,-0.001330629806034267,-0.009385485202074051,-0.0018772116163745522,-0.006631556432694197,-0.0019109731074422598,-0.0033634493593126535,-0.005596676841378212,-0.007077706977725029,0.00429247273132205,0.004786908160895109,-0.004422787576913834,-9.556242730468512e-05,-0.0006806268356740475,-0.0027262461371719837,-0.0041851503774523735,-0.0059073856100440025,0.0070059821009635925,0.006261872127652168,-0.0015621371567249298,0.00415412662550807,-3.647706034826115e-05,-0.007799608167260885,0.006056539714336395,-0.005282439291477203,0.0038834880106151104,0.0005099773406982422,0.0035776847507804632,-0.0005462805856950581,0.0038036906626075506,-0.00878758355975151,-0.008636417798697948,0.007447063457220793,0.004690038971602917,0.006171026267111301,-0.0008210978121496737,-0.0007636866066604853,0.0006342667038552463,-0.00482379412278533,0.0043854801915585995,0.006189432926476002,0.00765154929831624,0.00031522262725047767,-0.0016109755961224437,0.006217241752892733,0.004745811689645052,0.006900497246533632,0.0029231621883809566,0.0072020599618554115,-0.007730688899755478,0.0033711984287947416,-0.007735320832580328,0.004675168078392744,0.0024101613089442253,-0.00910383090376854,0.0018613034626469016,-0.006654529366642237,-0.006727257277816534,-0.006575887557119131,-0.00030904271989129484,-0.007232831325381994,-0.007042281795293093,-0.004588575568050146,-0.009388638660311699,-0.004219931550323963,0.0022212553303688765,0.0019044367363676429,0.008823010139167309,-0.007155820727348328,0.006868292577564716,-0.0020505653228610754,-0.0021286571864038706,-0.00284676649607718,-0.007059292867779732,-0.00040876600542105734,0.005398744251579046,0.007054214831441641,0.008698031306266785,0.005359536502510309,0.0023098683450371027,-5.100388443679549e-05,0.007044222671538591,0.004498939495533705,-0.006372581701725721,0.0034277953673154116,-0.0013010205002501607,0.0017965800361707807,0.007485210429877043,0.0028641573153436184,0.008244335651397705,0.006883659400045872,-0.006981161423027515,-0.009185368195176125,-0.0021776449866592884,0.006864108610898256,-0.005078078713268042,0.0035939100198447704,-0.00045613598194904625,0.004622104112058878,-0.006303025875240564,-0.004909638315439224,-0.004845079500228167,0.0009062563185580075,-0.0039595807902514935,0.0058561586774885654,-0.0028849749360233545,0.0030194714199751616,0.008427852764725685,0.002005552174523473,-0.004852107260376215,0.006208320613950491,-0.009168758057057858,-0.004581684712320566,-0.0021199171897023916,-0.005720207933336496,0.001950675155967474,0.0010855221189558506,-0.0017627408960834146,-0.0038703440222889185,-0.0012473989045247436,-0.0039298576302826405,-0.005244838073849678,-0.0028007631190121174,0.0019191462779417634,0.0027852708008140326,-0.0038145468570291996,0.008406764827668667,-0.004480046220123768,0.003983454778790474,-0.007872971706092358,0.0030941911973059177,-0.000758279871661216,0.0012940247543156147,-0.005944349337369204,-0.001254275324754417,0.005001663696020842,0.005016830284148455,-0.004938605707138777,-0.0027759477961808443,-0.009332926943898201,-0.0077134594321250916,-0.007022195961326361,-0.0038842062931507826,0.004865108989179134,0.00018759244994726032,0.005496610887348652,0.004787786398082972,0.0016331844963133335,-7.744331014691852e-06,0.008104683831334114,0.0012972552794963121,-0.0003280308155808598,0.00693509029224515,-0.008061607368290424,0.0029285652562975883,-0.0072799017652869225,0.006008224096149206,0.005497680976986885,6.255164771573618e-05,0.003022905671969056,0.005120835267007351,-0.0003190237330272794,0.007627722341567278,-0.0011888534063473344,0.007365737110376358,0.0015506475465372205,-0.0013916488969698548,-0.009327567182481289,-0.003848389722406864,0.006912617012858391,-0.0013452208368107677,-0.0014814300229772925,-0.00020413420861586928,-0.00402211956679821,-0.00016389461234211922,-0.002340464387089014,0.007693227380514145,0.001197611098177731,0.006277699489146471,0.003508595284074545,-0.0054078418761491776,0.006907705683261156,-0.0077641550451517105,-0.0009707888239063323,-0.004908644128590822,0.0007009135442785919,-0.0037640167865902185,0.0041846358217298985,0.008209869265556335,0.003926558885723352,-0.002724911319091916,0.0018764410633593798,0.007300060708075762,-0.004328039009124041,-0.00718241510912776,-0.006946285720914602,-0.00010174373892368749,0.004359839949756861,0.0029517428483814,-0.0008720139740034938,0.0043063475750386715,0.002513917861506343,0.0024060108698904514,-0.005600077100098133,-0.003528327215462923,-0.00292970915324986,0.005789571907371283,0.005167806521058083,-0.004654305055737495,-0.008367630653083324,0.005030058789998293,-0.001699458109214902,-0.005272271111607552,-0.007204720750451088,-0.00916360691189766,-0.0013636164367198944,-0.003017270239070058,0.0036890115588903427,0.008957228623330593,-0.005517176352441311,-0.004835584666579962,-0.0030635343864560127,-0.0006454393733292818,0.003712116042152047,-0.0027866181917488575,-0.007445674389600754,0.00432612793520093,0.00553500559180975,-0.004748768638819456,-0.006833608727902174,0.000517717213369906,-0.005488278344273567,-0.002370451344177127,0.005210120230913162,-0.005275839939713478,0.005753551609814167,0.003267160151153803,-0.005273602437227964,0.0004915949539281428,0.002140078227967024,-0.005639268551021814,-0.006679445505142212,0.0005811461014673114,0.0036395196802914143,-0.0006618471816182137,-0.008087900467216969,0.007989833131432533,0.0036606520880013704,0.0022737551480531693,0.002695463364943862,-0.0019113384187221527,0.009102598764002323,-0.006909922230988741,0.004491901956498623,-0.0014921147376298904,0.007160739507526159,0.004080548416823149,0.001165839727036655,0.008224925957620144,0.007750082761049271,-0.00842032115906477,-0.0057843709364533424,0.003304659854620695,0.007926135323941708,-0.0013152133906260133,-0.008684794418513775,0.002688959939405322,-0.005744911730289459,0.0009782962733879685,-0.0021731280721724033,0.0010857497109100223,0.008125516586005688,-0.00027220367337577045,-0.008755648508667946,0.001516108401119709,-0.0032810107804834843,0.005224397871643305,-0.0005706046940758824,0.004533202853053808,0.007681811694055796,-0.002593787619844079,0.00919647328555584,-0.0065879663452506065,0.0027015258092433214,-0.00875073205679655,-0.005398952402174473,0.002510637044906616,-0.008535961620509624,-0.007491180673241615,-0.003933669999241829,0.0014169934438541532,-0.009104165248572826,-0.0003368293691892177,0.0023592826910316944,-0.0018376510124653578,-0.008132980205118656,0.0020797366742044687,0.0019848933443427086,0.00010840937466127798,0.003626367775723338,-0.005498141050338745,0.0033517908304929733,-0.006369492970407009,-0.0020222964230924845,-0.00813448615372181,0.0059951115399599075,0.0007137699285522103,0.008851652964949608,0.008311647921800613,0.009368899278342724,-0.007500936277210712,0.0019990289583802223,-0.0017426329432055354,0.0006090597598813474,-0.0036000250838696957,-0.008500602096319199,0.0039014173671603203,0.008753577247262001,0.0006040809093974531,-0.003208399750292301,0.008235827088356018,-0.002548754448071122,0.007789189461618662,0.006682986859232187,0.000534167280420661,0.0033200057223439217,0.0037607813719660044,0.0026473018806427717,-0.006383126135915518,0.0036190019454807043,-0.009344631806015968,0.0039437697269022465,0.001025366480462253,-0.0045204972848296165,0.005707092117518187,-0.0017850941512733698,-0.0002717637980822474,-0.008883723989129066,-0.0018595336005091667,-0.006257622502744198,-0.004212485160678625,-0.004663775209337473,-0.008539516478776932,-0.000747893878724426,0.000419579359004274,0.0013308963971212506,-0.0007154638296924531,0.006942668929696083,-0.008696338161826134,0.002134806476533413,0.006878834683448076,-0.00863308273255825,-7.45319775887765e-05,0.0016687121242284775,-0.005815712735056877,-0.004657710436731577,0.005364739801734686,0.001262068864889443,-0.003468248527497053,0.004972971975803375,0.004633695352822542,-0.0029114496428519487,-0.00021866937458980829,0.0030881334096193314,-0.0029519160743802786,0.002420533914119005,-0.004684641025960445,-0.003914813976734877,-0.0035643717274069786,0.008193663321435452,0.006268625613301992,0.0012200819328427315,0.0011957642855122685,-0.008349098265171051,0.002806029748171568,-0.003236242802813649,0.0021064900793135166,0.006391992326825857,-0.008549240417778492,0.0020080995745956898,0.0012019914574921131,-0.005517491139471531,0.0027482660952955484,0.0010259171249344945,0.005021227989345789,-0.007325130049139261,-0.001065232791006565,0.009357230737805367,0.00355402659624815,0.0034603530075401068,-0.0034286887384951115,-0.007639470510184765,0.008446563966572285,-0.007421697489917278,0.009258963167667389,-0.007039870601147413,-0.006191359832882881,-0.0036072644870728254,0.00022789108334109187,0.005455475766211748,0.008851122111082077,-0.0026586283929646015,-0.009020598605275154,0.0021891817450523376,0.003958729095757008,-0.0019329168135300279,-0.005955149885267019,-0.0036515535321086645,0.0029245703481137753,-0.00011421796079957858,0.004572190809994936,-0.00530288415029645,0.006425198167562485,-0.006473871413618326,-0.003202537540346384,0.001709630829282105,0.0044485172256827354,-0.0044005555100739,0.00842044036835432,0.0038701517041772604,-0.00531250424683094,0.0042398772202432156,0.0036863319110125303,0.004745898302644491,0.007814253680408001,0.003975697793066502,-0.002789098536595702,0.005457189865410328,0.003677383065223694,0.0013909200206398964,-0.0027529492508620024,0.007911432534456253,0.0002502748684491962,0.0024184067733585835,-0.0015807964373379946,0.0052890232764184475,-0.0029785551596432924,0.0058496491983532906,-0.007361378520727158,0.003938145469874144,-0.00042413981282152236,0.003747801762074232,0.0006018351414240897,-0.006864638067781925,-0.00042099031270481646,0.00874399859458208,0.004801747854799032,-0.003745432011783123,0.008359625935554504,0.005254946183413267,-0.0025383655447512865,0.001957360655069351,-0.0013678108807653189,-0.007572793867439032,0.005763179622590542,-0.00579823786392808,-0.0007783164619468153,0.0038198204711079597,0.008134977892041206,-0.008211448788642883,-0.0019966894760727882,0.0021660150960087776,0.005261264741420746,0.007923288270831108,-0.009381377138197422,0.002412607194855809,-0.009260311722755432,0.005410650745034218,-0.006576400250196457,0.007429147604852915,-0.006473795976489782,0.004979599267244339,-0.00395114254206419,0.0010873835999518633,0.0020491790492087603,-0.005502994172275066,-0.0037740624975413084,-0.007369527593255043,-0.00929185003042221,-0.0048885950818657875,0.00031133712036535144,0.0040252963081002235,0.005528636742383242,-0.0080796517431736,-0.004269211553037167,0.0050899190828204155,-0.0003488922375254333,-0.005965226795524359,-0.0020161287393420935,-0.004313653334975243,-0.008438671939074993,0.004966176580637693,-0.003906443249434233,0.00837800931185484,0.007306806743144989,0.00407584011554718,-0.003249184926971793,-0.004127842839807272,-0.0004542481910903007,-0.0027233713772147894,0.007551718503236771,-0.007068788632750511,0.004229834768921137,0.0020951086189597845,0.005768297705799341,0.0008093871874734759,0.0024455497041344643,0.008708889596164227,-0.007661695126444101,-0.00741909584030509,-0.0019901294726878405,-0.0005020505050197244,-0.0056329285725951195,-0.007836460135877132,-0.008973740972578526,0.004984640516340733,-0.0002697932068258524,0.006466340739279985,-0.0026056806091219187,0.003835560753941536,-0.00020468869479373097,0.0021176354493945837,-0.0024309230502694845,-0.00786577444523573,0.008419346995651722,0.006327704060822725,-0.0035270731896162033,0.008632353506982327,-0.00374146131798625,-0.0010619335807859898,0.004805728793144226,-0.003581505734473467,-0.0032900229562073946,-0.001680754474364221,-0.0005844708648510277,-0.007067305501550436,-0.009063057601451874,0.00788874737918377,-0.0027508011553436518,-0.007479554507881403,0.00488202553242445,-0.003843058133497834,-0.0059754373505711555,0.008706250227987766,0.007915343157947063,-0.007402743212878704,0.00751624396070838,0.007357981987297535,0.0025362211745232344,0.0005696860607713461,-0.005302665289491415,-0.007108548190444708,0.0020099019166082144,0.006062621250748634,0.0035566959995776415,-0.005991479381918907,-0.00393812358379364,0.0008832489256747067,0.0023600896820425987,-0.008032724261283875,0.0021544054616242647,0.004452632274478674,-0.005980947520583868,-0.004761517513543367,-0.004523173440247774,0.008277855813503265,-0.0017375409370288253,0.0005852373433299363,0.004226778633892536,-0.0024066143669188023,-0.007406232412904501,0.0029113381169736385,0.0031548375263810158,-0.00449228473007679,-0.008728954941034317,0.003118742024526,0.0038354056887328625,-0.008900401182472706,0.003642870346084237,0.008261938579380512,-0.006028603762388229,0.00041228331974707544,0.0037104070652276278,-0.005064250435680151,0.004739679396152496,0.006930175703018904,0.005923636257648468,-0.0045229410752654076,0.005729346070438623,-0.0016184054547920823,-0.0043807304464280605,-0.006232422310858965,0.0076989671215415,-0.0013635954819619656,0.006885964423418045,-0.006390738766640425,0.005029626190662384,-0.007321961689740419,-0.009060611948370934,0.009316635318100452,-0.008008301258087158,-0.0007121033268049359,0.007123855873942375,0.006014563143253326,-0.0005308964755386114,0.0020945400465279818,0.0024490859359502792,-0.007325458340346813,-0.004033876117318869,-0.00373108871281147,-0.0022807233035564423,-0.004240432754158974,-0.004662072751671076,-0.0027197536546736956,-0.002260255627334118,-0.00022935493325348943,-0.006127834785729647,0.005430768709629774,0.006790638901293278,-0.0047247582115232944,-0.007072282489389181,0.004189518745988607,0.007985414005815983,-0.008730106987059116,-0.009119496680796146,-0.005941856652498245,0.003484587650746107,0.008747508749365807,0.004717216826975346,0.0013838661834597588,0.0037810637149959803,-0.005052898079156876,0.0035555027425289154,-0.003346309531480074,-0.00520849134773016,-0.0049427649937570095,0.003165123052895069,0.0050341165624558926,0.0015489646466448903,-0.008190562948584557,-0.008676478639245033,-0.005307676736265421,-0.004004769958555698,-0.0017788078403100371,-0.007961691357195377,0.004242853261530399,0.003986033145338297,-0.002872325014322996,0.0011954092187806964,-0.007492979988455772,-0.0015830198535695672,0.006732439622282982,0.0030302859377115965,-0.007436068262904882,0.006544672418385744,0.0034076760057359934,-0.0008716040756553411,0.003621537471190095,-0.006141506135463715,0.000959761266130954,0.0022272090427577496,0.00805094838142395,-0.008133571594953537,-0.0023440432269126177,0.008221463300287724,-0.005306747276335955,0.005898218136280775,-0.0093607809394598,-0.008904336020350456,-0.0032304408960044384,0.0050578913651406765,-0.007432452403008938,-0.002192072570323944,-0.0069187297485768795,-0.0051867179572582245,6.697038043057546e-05,-0.0033900956623256207,-0.005406477022916079,-0.0019921211060136557,0.003790137358009815,-0.007145431824028492,-0.00037295668153092265,-0.004225673153996468,-0.0022718089167028666,0.0060548484325408936,0.008088047616183758,-0.004822724964469671,0.0024534082040190697,0.0033315184991806746,0.006448368076235056,0.007511654403060675,-0.0005913968780077994,0.009081573225557804,0.008861325681209564,0.00013260483683552593,0.0008012291509658098,0.0031643102411180735,-0.0023618065752089024,0.0030570290982723236,0.000279570696875453,-0.0087245749309659,0.00664153229445219,0.008289036341011524,-0.008898749947547913,0.005447261035442352,-0.002137377392500639,0.0016197439981624484,9.797411621548235e-06,0.0009745650459080935,-8.060632535489276e-05,0.0066526178270578384,0.0034612356685101986,-0.0016308462945744395,0.003556405659765005,0.008753283880650997,-0.007880311459302902,-0.0020927591249346733,0.0069754295982420444,0.004505056422203779,0.008187023922801018,-0.008642096072435379,0.006830696016550064,0.005496291443705559,0.005933218169957399,0.0018398185493424535,-0.008414470590651035,0.000746941426768899,-0.0017231014790013433,0.0005196748534217477,0.004527090582996607,0.001814366551116109,-0.0038900922518223524,0.001881047384813428,-0.007828406989574432,-0.009290563873946667,-0.0018410802586004138,0.004844628274440765,0.0060750870034098625,0.0009479125146754086,0.006928685586899519,-0.007023056503385305,0.00873484555631876,0.007938721217215061,0.0018765685381367803,-0.008286881260573864,-0.0008501076954416931,-0.006019894033670425,0.0024251819122582674,-0.005818606354296207,-0.0003310202737338841,-0.005524159409105778,-0.005971269216388464,-0.004728953819721937,-0.00884170550853014,0.004073300398886204,-0.003622939344495535,0.0037349218036979437,0.002895853016525507,-0.008147970773279667,-0.003523476654663682,0.0012678139610216022,0.00787552073597908,-0.001844444777816534,0.0001009333718684502,0.004713018424808979,0.005711358971893787,0.007967732846736908,-4.2661868064897135e-05,-0.005746789276599884,0.004980497527867556,-0.007030160631984472,-0.0015251117292791605,0.002420158125460148,0.0036166838835924864,0.004392150789499283,-0.0057506621815264225,0.009065843187272549,-0.006034811958670616,-0.007582949940115213,0.0030958843417465687,0.007719322107732296,0.0011285090586170554,0.001807182328775525,0.0007328922511078417,-0.008588646538555622,0.0034176211338490248,-0.002657068893313408,0.008198855444788933,-0.0058800759725272655,-0.0037114645820111036,0.00010063159425044432,-0.0004163720295764506,-0.001863266690634191,-0.0034786961041390896,-0.00662298733368516,0.006043651141226292,-0.0009520471794530749,0.0013826694339513779,0.0008863307302817702,0.001430282136425376,0.003861730918288231,0.0024429040495306253,-0.00424076896160841,0.0010206595761701465,-0.0047933124005794525,0.001681061927229166,-0.0012687796261161566,-0.008649758994579315,0.0044090477749705315,-0.0042264084331691265,0.007909569889307022,-0.004115389660000801,0.009346477687358856,-0.0006853215163573623,-0.008894112892448902,-0.007956678979098797,-0.007847284898161888,-0.008333719335496426,-0.00435542082414031,-0.0032873337622731924,-0.007298022508621216,-0.0011522361310198903,-0.0025209872983396053,0.0025734659284353256,-0.00570788886398077,0.0077931759878993034,0.000311615236569196,0.002336753997951746,-0.008647876791656017,0.001121759065426886,-0.002469364320859313,0.007984069176018238,0.007260261103510857,0.002598297782242298,0.005045711994171143,0.002728855237364769,-0.009071871638298035,0.0038288820069283247,-0.006061337888240814,0.0034424199257045984,-0.009193766862154007,-0.003545070067048073,0.0003287237777840346,-0.0031264987774193287,0.0036570518277585506,0.00043742157868109643,0.008650736883282661,-0.002663480583578348,0.004180367570370436,0.006323289126157761,-0.004622841719537973,0.004787103272974491,-0.001996026374399662,-0.006970851216465235,-0.009322963654994965,0.004592271987348795,-0.005889298859983683,-0.008428877219557762,-4.204082870273851e-05,-0.0028722132556140423,0.0036160286981612444,-0.007372281514108181,-0.006896830163896084,-0.0017924531130120158,0.00039475405355915427,0.006105133797973394,0.0016208200249820948,0.007579165976494551,-0.005296007730066776,0.0018200037302449346,0.0029291645623743534,0.004255377687513828,0.009196468628942966,-0.0005897143855690956,-0.0024460661225020885,0.006631993688642979,-0.006066202651709318,-0.008694389835000038,-0.0010493275476619601,-0.004742360208183527,-0.0019341516308486462,0.00914838071912527,-0.0028434274718165398,0.003915105946362019,-0.004687345586717129,-0.00369067769497633,-0.0048235878348350525,0.0013617678778246045,-0.005144068039953709,0.00411060219630599,0.003394318511709571,-0.0014745255466550589,-0.008913377299904823,-0.00896838866174221,0.0006224336102604866,0.006382874678820372,0.0018645257223397493,-0.0012041609734296799,0.0071897986344993114,-0.005690902005881071,-0.0026377567555755377,0.0012330219615250826,-0.003911435604095459,0.009362815879285336,-0.000891235948074609,-0.008422336541116238,-0.0060845185071229935,0.000615814991760999,0.000946241314522922,0.009107952006161213,0.0018848237814381719,0.0031380364671349525,-0.005376657471060753,-0.007385643199086189,0.001923241768963635,0.006865459028631449,0.0016480565536767244,-0.0010703105945140123,0.0014757262542843819,-0.0005817284109070897,-0.006727324798703194,0.004539910703897476,0.0006265098927542567,-0.0018874190282076597,0.0011266182409599423,-0.004859581124037504,-0.0013490711571648717,0.002307112794369459,-0.005142472684383392,0.004686490632593632,0.0004001213819719851,0.006805529352277517,0.006533489096909761,-9.797542588785291e-05,-0.005720173008739948,0.00445424672216177,-0.0015236282488331199,0.0017843290697783232,-0.007378230337053537,0.0024790822062641382,-0.0023720816243439913,-0.003112080041319132,0.009028333239257336,-0.0012650599237531424,0.003352460218593478,0.0024065228644758463,-0.0074339862912893295,0.004666518419981003,-0.0033195307478308678,0.005625561345368624,0.002028897637501359,-0.003433604259043932,-0.002696588635444641,0.004357805009931326,0.0009463027236051857,0.003170223440974951,-0.0064185368828475475,0.00540060643106699,-0.0033716182224452496,0.0022585743572562933,-0.007238947786390781,-0.0033522755838930607,0.002803908661007881,-0.004239510744810104,0.007155620492994785,0.0030365742277354,0.0069669815711677074,-0.0019613250624388456,-0.00875552836805582,0.0014369154814630747,-0.0030178597662597895,-0.000968650565482676,