-0.003749603172764182,0.014365025795996189,0.007380358409136534,0.003129074117168784,-0.010861081071197987,-0.010838440619409084,-0.013923080638051033,0.01176102738827467,0.00330073363147676,0.006626208778470755,-0.015145458281040192,0.01485828123986721,0.010528924874961376,-0.009060058742761612,-0.009911582805216312,-0.0099276602268219,-0.006156879011541605,0.0007790030795149505,-0.002166605554521084,-0.006596183869987726,0.003560525132343173,-0.011311717331409454,-0.0065435548312962055,-0.004215829540044069,-0.0013952212175354362,0.009002972394227982,-0.009485100395977497,0.000478331494377926,0.002969564637169242,-0.01434013620018959,0.0033936509862542152,-0.010433856397867203,-0.013765507377684116,0.014210212975740433,0.014769489876925945,0.009771836921572685,-0.006201877258718014,-0.012756825424730778,0.005777745507657528,-0.0019016375299543142,-0.011881593614816666,-3.4029439120786265e-05,-0.014683371409773827,0.012932056561112404,-0.007647605612874031,0.005130304954946041,-0.005876096431165934,0.0008065445581451058,0.0016943234950304031,-0.010122294537723064,0.01474852953106165,0.008624882437288761,0.013839629478752613,0.01245709415525198,0.003099141176789999,0.013365215621888638,-0.013104917481541634,-0.009672165848314762,-0.0144197354093194,-0.005539804231375456,-0.0035116150975227356,-0.0071963840164244175,0.010451949201524258,-0.004602549131959677,-0.0069435229524970055,0.001353190978989005,-0.011331732384860516,0.009585517458617687,-0.013395799323916435,0.01550387404859066,0.008549126796424389,-0.009493527002632618,-0.015585525892674923,0.010012947022914886,0.006581095978617668,0.0073151979595422745,0.008721979334950447,-0.013514923863112926,-0.004435492213815451,-0.012082700617611408,0.01154774148017168,0.00396086135879159,-0.00522968964651227,-0.013623343780636787,-0.006063991226255894,-0.005535444710403681,0.0073001147247850895,0.004421140532940626,0.012343449518084526,-0.0007164938724599779,-0.01184093113988638,0.0066014560870826244,0.008189919404685497,0.001951343845576048,0.008631080389022827,-7.11027387296781e-05,0.0008761314675211906,-0.002121877856552601,-0.0149465911090374,-0.01222921721637249,-0.01461178157478571,0.0044999876990914345,-0.005742499139159918,0.0003099926107097417,0.01284808199852705,-0.007870757952332497,-0.0026826714165508747,0.008261654525995255,-0.008434945717453957,-0.013315478339791298,-0.006662325467914343,-0.01078514289110899,0.013628988526761532,0.009872800670564175,0.004361982923001051,0.011823952198028564,0.009593703784048557,-0.009979164227843285,0.012295818887650967,0.001297221751883626,0.009839046746492386,0.01264247391372919,-0.005693844985216856,-0.012357332743704319,-0.008686929941177368,-0.002435140311717987,0.01012276392430067,0.011525867506861687,-0.015447982586920261,0.00042196022695861757,-0.0026149731129407883,-0.008854275569319725,-0.01217266172170639,-0.005081707611680031,0.014109431765973568,-0.00545478705316782,0.0006878590793348849,0.006425945088267326,-0.004417881835252047,0.014697080478072166,0.014645355753600597,-0.0077679697424173355,3.207636473234743e-05,-0.00620707031339407,-0.006813663989305496,-0.014805559068918228,0.0032181197311729193,0.0008678383892402053,-0.013350005261600018,-0.006376117002218962,0.01325060985982418,-0.008070213720202446,-0.011247958987951279,-0.0005016317591071129,0.016134541481733322,-0.007405731361359358,0.005948266480118036,0.008515793830156326,-0.008220523595809937,0.007119400426745415,-0.004358653444796801,0.004896276630461216,0.004834496881812811,0.0015178013127297163,-0.012793444097042084,0.010574441403150558,-0.005797611549496651,-0.01008603535592556,-0.013916632160544395,0.0033667944371700287,0.005872622597962618,-0.015228377655148506,0.0002826569543685764,-0.008808411657810211,0.00440542446449399,-0.00982956774532795,0.006391419563442469,-0.003444619942456484,0.01374169159680605,-0.011633764952421188,-0.005230624694377184,-0.012409674003720284,0.01378761325031519,0.012193828821182251,-0.007601029239594936,0.004903645254671574,0.009809029288589954,0.0015529398806393147,0.0007564531988464296,-0.007788824383169413,-0.012599720619618893,0.012565728276968002,0.012476949952542782,0.004012260586023331,-0.00524692889302969,-0.004921756684780121,0.007147148717194796,0.012569312006235123,0.012286707758903503,0.008937172591686249,0.004585429560393095,-0.013067193329334259,-0.010693725198507309,0.01264551468193531,0.0034443645272403955,-0.015398317947983742,-0.012465421110391617,0.005276880227029324,-0.015597565099596977,-0.010764211416244507,0.0016513873124495149,0.006196777801960707,0.004934077151119709,-0.008619142696261406,0.006736487615853548,-0.008357364684343338,-0.005654155742377043,0.007937639951705933,0.004848743323236704,0.011109196580946445,0.0049854242242872715,0.0020785138476639986,-0.013006266206502914,-0.004399711266160011,-0.007303544320166111,-0.00803754199296236,0.014934582635760307,-0.0034606747794896364,0.012235823087394238,0.003928475081920624,0.009090922772884369,0.00014996288518887013,0.0024260645732283592,-0.0003178059996571392,-0.009769639931619167,0.006829746067523956,-0.007140687201172113,-0.015226295217871666,0.004649399779736996,-0.010215734131634235,0.013849252834916115,0.014215486124157906,0.012945139780640602,-0.00425457488745451,-0.015443229116499424,0.013514628633856773,-0.0022846367210149765,0.01474863849580288,0.014649239368736744,0.01114827860146761,-0.006497712340205908,-0.0036176207941025496,0.011080381460487843,-0.005795151460915804,-0.010441702790558338,0.0017995971720665693,0.013778968714177608,0.0061937845312058926,0.00222782208584249,-0.012744300998747349,0.0036455723457038403,0.015517352148890495,-0.011358432471752167,0.0005864369450137019,0.011931738816201687,0.007634576875716448,0.006243405397981405,0.006434306502342224,-0.004399321507662535,-0.0064824908040463924,0.009808160364627838,0.009832003153860569,0.011657320894300938,0.013090484775602818,0.0003996239975094795,0.00010250664490740746,0.009493008255958557,0.004805979784578085,0.006453258916735649,0.00941180344671011,0.012346118688583374,-0.00508490577340126,-0.0038827373646199703,-0.012776612304151058,0.002540400018915534,-0.014619516208767891,-0.0010883727809414268,0.0013364788610488176,-0.006717646960169077,0.0029212511144578457,-0.01479254849255085,-0.014589865691959858,0.01019908208400011,-0.00451454846188426,-0.011398416012525558,0.001012513181194663,0.008814268745481968,-0.00872083194553852,0.004055304452776909,-0.013045037165284157,-0.01417519710958004,0.0013616059441119432,0.0015972679248079658,0.004669112619012594,0.007418085355311632,0.015178680419921875,0.000531498109921813,-0.005624067969620228,0.009640045464038849,-0.006923048757016659,-0.001601050840690732,-0.013093020766973495,-0.014938486739993095,0.014604741707444191,0.010577524080872536,0.0064355055801570415,-0.0025642330292612314,-0.010036042891442776,-0.010687164030969143,-0.007874341681599617,0.0015162031631916761,0.006730145309120417,0.005287467036396265,-0.006659355480223894,0.014628300443291664,0.007644029799848795,0.001722975866869092,0.0034974564332515,-0.0025837281718850136,-0.007728524040430784,-0.0042679994367063046,0.008363071829080582,-0.015262137167155743,-0.012126076966524124,-0.014361885376274586,-0.014546601101756096,0.01153707504272461,0.006722426973283291,-0.0006326214643195271,-0.012649460695683956,-0.00024891295470297337,-0.0008496240479871631,-0.010416449047625065,-0.001848704181611538,-0.0029443579260259867,0.003915288485586643,0.0044954861514270306,-0.014262357726693153,-0.00415610009804368,0.0034888065420091152,0.00036251317942515016,0.011549708433449268,0.00528241042047739,-0.010441765189170837,-0.013541039079427719,0.00414251210168004,-0.015607313252985477,0.002974366769194603,0.01421656459569931,0.002641009632498026,-0.0033812164328992367,0.004408175125718117,-0.0018730139127001166,0.0007018993492238224,0.014240765012800694,-0.0032951959874480963,0.014805691316723824,0.012878511101007462,-0.00992237776517868,-0.014334647916257381,-0.013421129435300827,-0.014944547787308693,-0.01254126988351345,0.005953783169388771,-0.013626559637486935,-0.0062454682774841785,0.010053800418972969,-0.015886100009083748,0.010191082954406738,-0.0066660731099545956,-0.011974751017987728,0.0059695057570934296,0.0033972058445215225,0.011008932255208492,0.006677551660686731,0.009797750972211361,-0.00670518446713686,-0.01018254179507494,0.007546164095401764,0.008939603343605995,0.014616184867918491,-0.0033404259011149406,-0.003965448588132858,0.008655990473926067,-0.005212881602346897,0.013357526622712612,0.011059172451496124,-0.002433335641399026,0.007883190177381039,0.008038539439439774,-0.012667229399085045,0.012504208832979202,-0.0001456026511732489,0.010026160627603531,-0.0058793858624994755,0.012484260834753513,-0.0035470984876155853,-0.015621216036379337,0.012556204572319984,-0.013249380514025688,-0.0059808166697621346,0.014093422330915928,0.014317844994366169,0.0022330840583890676,0.003959211986511946,-0.0019214511848986149,-0.0068448628298938274,-0.005621820222586393,0.005402652081102133,0.00813660304993391,0.00907808542251587,0.008901378139853477,-0.01323144230991602,-0.0004408491658978164,-0.014142842032015324,0.0015818462707102299,-0.0016563644167035818,0.012087095528841019,-0.004982789978384972,-0.012416861020028591,-0.011529139243066311,0.008127021603286266,0.0037768278270959854,-0.012417023070156574,-0.013299115933477879,0.006107838358730078,-0.013772236183285713,0.00996058527380228,0.0064149838872253895,-0.013172944076359272,-0.012885937467217445,0.015523352660238743,-0.003831857116892934,-0.004015854559838772,0.009902824647724628,0.014132466167211533,0.015340092591941357,0.007982959970831871,-0.00376691622659564,-0.013021323829889297,0.008819197304546833,0.0018708836287260056,-0.0024038744159042835,0.012819123454391956,-0.012330379337072372,-8.580644498579204e-05,-0.015314815565943718,-0.0009236090118065476,-0.0140027841553092,-0.012075012549757957,-0.012133574113249779,0.0046822912991046906,0.007907283492386341,0.0027489697095006704,0.01467275619506836,-0.003955422900617123,-0.006826637778431177,0.0116067910566926,-0.00876274798065424,0.014757337979972363,-0.015321101993322372,0.01489863358438015,-0.01447136327624321,0.012298268266022205,0.0008380364160984755,0.015576665289700031,-0.013335991650819778,0.0018081706948578358,0.014872608706355095,0.0006876004044897854,0.004025529138743877,0.006165886297821999,-0.0014380275970324874,0.004196119029074907,0.0027892333455383778,0.012719855643808842,-0.014401768334209919,-0.006967850495129824,0.01423183735460043,0.012348189018666744,-0.00151815393473953,0.0037126089446246624,-0.007077896036207676,-0.009879646822810173,-0.0011587223270907998,-0.004648451693356037,0.0026336757000535727,-0.01344896201044321,0.014949731528759003,0.015357250347733498,0.006265314761549234,0.0011434542248025537,-0.006021934095770121,0.009921454824507236,0.005788388662040234,-0.010678109712898731,0.012991956435143948,0.010198237374424934,0.01422096136957407,0.007137865759432316,0.0035874946042895317,-0.0025959420017898083,0.013680992648005486,0.011573013849556446,-0.014381157234311104,-0.014975803904235363,-0.0039048269391059875,0.00981784239411354,0.015408672392368317,-0.011051664128899574,0.0029735343996435404,-0.003770677838474512,0.014855293557047844,0.010816256515681744,0.010696759447455406,-0.00098583719227463,-0.0026923678815364838,-0.00716758519411087,-0.014028680510818958,0.011532081291079521,0.009893323294818401,0.015804141759872437,0.015704160556197166,0.0017512765480205417,0.008501485921442509,0.014059397391974926,0.011053035967051983,-0.007985356263816357,-0.00153255311306566,-0.011313216760754585,0.014564442448318005,0.0033775316551327705,-0.008688176982104778,0.0051523055881261826,0.003325337078422308,-0.004884020425379276,-0.011891708709299564,0.005531654227524996,0.0006203335942700505,0.00848631002008915,0.0003318366943858564,0.010702515952289104,0.0012592814164236188,0.0022051911801099777,0.011984338983893394,-0.003059317357838154,-0.011696277186274529,-0.015218017622828484,0.00763799250125885,0.0034534784499555826,0.006691480986773968,-0.008996203541755676,-0.011507588438689709,-0.015520353801548481,-0.005070938728749752,0.0024493704549968243,-0.003702390007674694,-0.0017889332957565784,0.012799420394003391,-0.004881247412413359,0.0001932562154252082,0.008608113043010235,-0.0036072952207177877,0.0036328828427940607,0.011561959981918335,0.014153153635561466,-0.011325164698064327,0.013183074072003365,-0.0005801796214655042,-0.007906733080744743,-0.0014450853923335671,0.015200084075331688,-0.00035044021205976605,-0.005636283196508884,0.003911575302481651,-0.008486968465149403,-0.01357285212725401,-0.011788002215325832,-0.011745821684598923,-0.01100096944719553,-0.011413078755140305,0.004460025113075972,-0.01005631871521473,-0.0048641543835401535,0.012592454440891743,-0.0008276773733086884,0.005295786075294018,-0.01035755593329668,-0.009725471958518028,-0.014513221569359303,-0.010446387343108654,-0.006954872515052557,-0.01023275125771761,-0.0130125992000103,-0.011995508335530758,-0.0012355102226138115,-0.009278599172830582,-0.004270382225513458,0.0001559560769237578,0.005989654455333948,-0.014586052857339382,0.009456819854676723,0.004043790511786938,-0.013215087354183197,0.011834568344056606,0.013351280242204666,-0.013917139731347561,-0.007085578516125679,0.009655592031776905,0.007835045456886292,-0.009971052408218384,-0.009170209988951683,-0.004058356396853924,-0.0005175063270144165,0.0037107670214027166,-0.004176929127424955,-0.0012075406266376376,0.00782372523099184,-0.014626111835241318,-0.007793949916958809,0.0067491186782717705,0.01248082797974348,0.00033697992330417037,0.000987468403764069,-0.01242756936699152,-0.0016388620715588331,0.0010652818018570542,-0.007994008250534534,-0.007266135886311531,-0.0039404635317623615,-0.015253919176757336,-0.005679502617567778,-0.009120922535657883,-0.0053567104041576385,-0.01192699559032917,0.0123193534091115,0.00285592139698565,0.005557745695114136,0.009093751199543476,-2.6776975573739037e-05,-0.012930741533637047,0.0012114103883504868,0.0026794946752488613,0.007633097469806671,-0.0022634377237409353,-0.011794309131801128,-0.006785321515053511,-0.004162230063229799,0.004589722491800785,0.0021412870846688747,-0.004667561035603285,0.015293244272470474,0.003340671304613352,-0.008218996226787567,-0.012386825866997242,-0.01104848925024271,-0.008136937394738197,-0.010826055891811848,-0.009976481087505817,-0.006769624073058367,-0.010182639583945274,0.012797851115465164,-0.013352235779166222,0.0006618795450776815,-0.0028953400906175375,0.01523696631193161,-0.012184959836304188,-0.0030432932544499636,0.015120836906135082,0.011482950299978256,0.00993211381137371,-0.007680767215788364,-0.010364699177443981,0.005442116409540176,0.013767889700829983,0.0020784910302609205,0.0022725523449480534,-0.006949926260858774,0.008500841446220875,-0.009907299652695656,-0.005523445084691048,-0.0022372689563781023,0.00041097827488556504,-0.00816034059971571,-0.012192231602966785,0.0034434699919074774,-0.0067404513247311115,0.002598509890958667,-0.010798622854053974,-0.00040250291931442916,0.0009831779170781374,-0.014205638319253922,-0.005240011960268021,-0.011630263179540634,-0.013773541897535324,0.01562613807618618,-0.005405391100794077,0.009743030183017254,-0.007805833593010902,0.005644188262522221,0.008150308392941952,0.0030588218942284584,-0.0007599482196383178,-0.0025974351447075605,-0.00483139930292964,0.013509729877114296,0.010340326465666294,0.014632832258939743,-0.011818014085292816,0.007444597315043211,0.014012998901307583,-0.01010199822485447,-0.013761375099420547,0.007549803704023361,0.002338654361665249,0.01090768538415432,-0.011234411969780922,0.009486524388194084,-0.009388246573507786,-0.010624642483890057,-0.010603072121739388,0.010014763101935387,0.005372104700654745,0.0009115051361732185,-0.004287875257432461,0.011795669794082642,-0.0034712094347923994,0.009959675371646881,-0.0019923183135688305,-0.0040112887509167194,-0.0014116748934611678,-0.006651874631643295,0.007746722549200058,5.981132562737912e-05,-0.008494879119098186,0.012559376657009125,-0.003829018445685506,0.0010671236086636782,0.012400300242006779,0.003884699894115329,-0.012116492725908756,0.013870060443878174,0.003934125881642103,-0.0054550087079405785,-0.011806848458945751,0.00877925381064415,0.0037618856877088547,0.0010367609793320298,0.0123771782964468,0.008943869732320309,-0.011362011544406414,-0.006453581620007753,-0.008517483249306679,0.0076363529078662395,-0.014841163530945778,0.0020405531395226717,0.007989665493369102,0.011435064487159252,-0.005575032439082861,0.009565865620970726,-0.012446893379092216,0.01078271958976984,-0.01204918697476387,-0.003686445765197277,0.00882747396826744,-0.011671631596982479,-0.009116282686591148,0.006873087491840124,0.006734558846801519,0.004102408420294523,0.005617848597466946,0.000775732914917171,-0.00837696809321642,-0.005321278236806393,-0.010057776235044003,0.01293307077139616,0.0026505659334361553,-0.0030807347502559423,-0.0011335338931530714,0.014198376797139645,-0.010889693163335323,0.0027218435425311327,0.00019257199892308563,0.0035292499233037233,-0.015191336162388325,0.011813593097031116,0.013651285320520401,0.0020290750544518232,0.0062065403908491135,0.013358963653445244,0.006550115067511797,-0.010953501798212528,0.0024280527140945196,0.0033200124744325876,-0.002485615201294422,0.0074614561162889,0.013736799359321594,0.013454272411763668,-0.0015461718430742621,-0.012248994782567024,0.015248836018145084,0.010604776442050934,-0.011887411586940289,0.013295465148985386,0.011671963147819042,0.0005599469877779484,0.0028283586725592613,-0.003290116088464856,-0.014189190231263638,-0.005262841936200857,0.009529821574687958,-0.015733277425169945,-0.005349518731236458,-0.003311269450932741,0.001078763627447188,0.013135433197021484,-0.004985653795301914,-0.004965338855981827,0.007354751229286194,-0.0016561608063057065,-0.008822407573461533,-0.0016140961088240147,-0.011501367203891277,-0.01015861053019762,-4.95630047225859e-05,-0.0025890411343425512,0.0130652179941535,-0.0043660374358296394,0.0025551063008606434,0.004173535853624344,-0.015337305143475533,0.005153692793101072,-0.010241094045341015,0.014510132372379303,-0.011131249368190765,-0.002679654862731695,-0.013103033415973186,0.0157597865909338,1.699720451142639e-05,0.0029089325107634068,-0.0137696648016572,0.007871522568166256,-0.009155378676950932,0.012583525851368904,-0.009296391159296036,-0.009878167882561684,-0.014772238209843636,-0.0009558027959428728,0.0020333982538431883,-0.013717960566282272,0.008697026409208775,-0.0014968867180868983,0.0006453762762248516,-0.001973868813365698,-0.0031831718515604734,0.0018839479889720678,-0.01089507807046175,-0.010086103342473507,0.011372837238013744,0.013973469845950603,-0.0040940772742033005,-0.007275617215782404,0.004554565530270338,-0.002882961183786392,-0.01502951793372631,-0.01095148641616106,0.006703502498567104,0.0049457731656730175,-0.014976008795201778,-0.008797739632427692,-0.008501832373440266,0.005427673924714327,-0.015117758885025978,-0.01239954773336649,0.009656116366386414,-0.009991657920181751,0.004956949967890978,-0.00820696447044611,-0.012640416622161865,-0.008094528689980507,0.007135596591979265,0.011415120214223862,0.010599901899695396,-0.0031494335271418095,0.0053475690074265,-0.009322998113930225,-0.006525618955492973,0.01264308113604784,-0.015227288007736206,-0.01296505518257618,-0.00917641632258892,-0.014959977939724922,-0.010080767795443535,0.002661127597093582,-0.002330395393073559,0.012590656988322735,0.010145499370992184,-0.004980095662176609,-0.007607516832649708,-0.0038308128714561462,0.0029441227670758963,-0.007146819494664669,0.0040969084948301315,-0.002770083723589778,0.001670488971285522,-0.0020052657928317785,-0.006529113743454218,0.01430824026465416,0.008514956571161747,-0.01122901402413845,0.011724586598575115,-0.00036904789158143103,0.012476831674575806,0.00942451972514391,-0.00223257252946496,-0.014964266680181026,-0.00721204886212945,0.0013693516375496984,0.004219891503453255,-0.007691448088735342,-0.011514992453157902,0.01070894580334425,0.01535002887248993,0.0008426104905083776,-0.010251801460981369,-0.0068944948725402355,-0.014723309315741062,0.013701017014682293,-0.011949974112212658,0.0024511837400496006,-0.00713173346593976,0.00182133330963552,0.005061245523393154,0.010905866511166096,-0.008685318753123283,-0.015345255844295025,-0.011484424583613873,0.01263043750077486,0.011904587037861347,0.003326061647385359,0.0036506815813481808,0.005837130825966597,-0.010208198800683022,0.01306263729929924,-0.002601634943857789,-0.0036337091587483883,0.0008476937655359507,-0.01380086224526167,-0.009862425737082958,0.007484841160476208,-0.013262362219393253,0.0032073701731860638,-0.00801124982535839,-0.0032215488608926535,-0.006078645586967468,-0.0038458765484392643,0.006802902556955814,-0.006512891501188278,0.0020116243977099657,-0.0007190445903688669,0.005503361113369465,0.014447066001594067,0.008090950548648834,-0.00915551371872425,-0.014932487159967422,-0.007597038522362709,0.003092108992859721,-0.013755157589912415,0.0005951083148829639,0.003854260081425309,-0.005295188166201115,0.0084779541939497,-0.012489022687077522,-0.013463919050991535,0.007201353088021278,-0.00014988507609814405,0.00597001239657402,-0.002083445666357875,-0.008061747066676617,0.010054923593997955,0.00945339072495699,0.006156930699944496,-0.007209749426692724,0.0028572233859449625,-0.004427846055477858,-0.012973795644938946,0.013154937885701656,-0.011491138488054276,0.014237955212593079,-0.0017149954801425338,-0.00997038371860981,0.0012732262257486582,0.01171713788062334,0.007302016485482454,0.009683963842689991,0.005017779767513275,0.0060731046833097935,0.011007465422153473,-0.00796314887702465,-0.00039301422657445073,-0.008848204277455807,0.015407230705022812,0.014034047722816467,-0.014567350968718529,0.006438561715185642,0.013417916372418404,-0.010129429399967194,0.0021272851154208183,0.013123958371579647,-0.014741497114300728,0.006230434402823448,-0.006519574671983719,0.013423179276287556,0.014894463121891022,0.01404572557657957,-0.0008108470356091857,0.01145154982805252,0.010861865244805813,-0.005900606047362089,0.010881965979933739,-0.014053317718207836,0.003541863989084959,-0.008274942636489868,-0.012094449251890182,-0.01376334112137556,0.005715326406061649,-0.004537496250122786,0.007627756334841251,-0.013328016735613346,-0.0057149846106767654,0.0010030270786955953,0.00869719497859478,-0.006280144676566124,0.004481317475438118,0.01266342494636774,0.0039742509834468365,-0.008486402221024036,-0.015424871817231178,0.011090796440839767,-0.01569974049925804,0.012312933802604675,0.0013391657266765833,0.014066657051444054,0.009240400977432728,0.015218778513371944,-0.005398952402174473,0.00791667215526104,-0.002682099351659417,-0.0002991033252328634,0.004068128764629364,0.011486991308629513,0.014688766561448574,0.007817506790161133,-0.0030384864658117294,-0.0021358048543334007,0.007718859706073999,-0.008358104154467583,-0.01271984912455082,-0.005233818665146828,-0.007309864740818739,-0.006736166309565306,-0.008134065195918083,-0.014389838092029095,-0.015436490997672081,0.01497574057430029,-0.0028544666711241007,-0.004093123134225607,0.005553656257688999,-0.00911125261336565,0.014039646834135056,0.00891021266579628,-0.013073832727968693,-0.002667877357453108,0.011903015896677971,0.013959964737296104,-0.0012975586578249931,0.003401665948331356,-0.010658088140189648,0.015464210882782936,-0.008522164076566696,0.013929530046880245,0.004636544268578291,0.003157504368573427,0.00024926007608883083,-0.008600845001637936,-0.010267856530845165,-0.008862292394042015,-0.009976861998438835,0.008741427212953568,-0.004917838145047426,-0.014060735702514648,0.014788354746997356,0.0121148731559515,0.013513407669961452,0.01558656245470047,-0.010415073484182358,-0.0033809032756835222,0.008140739053487778,0.0061881025321781635,-0.010939757339656353,0.009981559589505196,-0.008778786286711693,-0.00885125994682312,0.0011109041515737772,0.002935361582785845,0.002531719394028187,-0.012912972830235958,0.011917782947421074,-0.007486768066883087,-0.011853549629449844,0.012245946563780308,0.014396261423826218,0.011435502208769321,0.009770418517291546,0.004869719035923481,0.0015097205759957433,-0.01324011106044054,-0.002910092007368803,-0.004010277800261974,-0.007644325029104948,0.007004461716860533,-0.00018467554764356464,-0.013293260708451271,-0.008918766863644123,0.005811392329633236,-0.013397113420069218,0.011056019924581051,-0.00019637445802800357,-0.0006493127439171076,0.002892453921958804,0.010214148089289665,-0.004783337004482746,0.005619795527309179,0.0020563926082104445,-0.007368715479969978,0.011971521191298962,0.009391690604388714,0.004970164969563484,0.011112182401120663,0.011610799469053745,0.006584383547306061,0.01066351868212223,0.006255018524825573,0.0056933811865746975,0.00371500919573009,0.008013312704861164,-0.010786275379359722,0.012038122862577438,0.011754034087061882,-0.014885217882692814,0.010289918631315231,-0.01177571527659893,-0.005203600041568279,0.007699679583311081,-0.01073339395225048,0.010043088346719742,0.010483331978321075,0.0002032432530540973,-0.015685459598898888,-0.006764992605894804,0.0036798310466110706,0.015198697336018085,0.004150213208049536,-0.007628167048096657,0.004168170504271984,0.0011237770086154342,0.00879141129553318,-0.012476968578994274,0.008216962218284607,0.001261246856302023,0.014594539999961853,-0.004995853640139103,0.004258531611412764,0.013614559546113014,-0.012599683366715908,0.013797624967992306,0.0058905319310724735,-0.013699108734726906,-0.006267860531806946,0.006661000661551952,-0.013708112761378288,0.0025712742935866117,-0.004917696584016085,0.0037408852949738503,-0.014413677155971527,0.01176727656275034,0.015026640146970749,0.014784852042794228,0.007829342037439346,-0.011801079846918583,0.00803255382925272,-0.015108654275536537,-0.01510892529040575,-0.005537882447242737,-0.0004301409353502095,0.00844260398298502,0.00564861623570323,-0.0018495661206543446,-0.007220349740236998,0.015729723498225212,-0.0022900309413671494,-0.0016114580212160945,-0.010733325965702534,0.009214188903570175,0.006053248420357704,-0.008820065297186375,-0.013145409524440765,0.005781624466180801,0.004827448632568121,-0.007231266237795353,0.014203821308910847,-0.011023527011275291,-0.00206728745251894,0.01412222906947136,-0.0024178423918783665,0.004251102916896343,-0.00317924446426332,-0.0070005846209824085,0.015448333695530891,-0.0027145538479089737,0.012612761929631233,-0.008360523730516434,-0.009113362990319729,-0.0147077776491642,0.004943392239511013,-0.0040140156634151936,0.011642101220786572,-0.0006948733353056014,0.014961066655814648,-0.00991939939558506,0.011767207644879818,0.008868536911904812,0.008679598569869995,0.011022120714187622,0.008433051407337189,0.004171400796622038,-0.01161167025566101,-0.014679641462862492,0.013416662812232971,0.003807526547461748,0.009538689628243446,-0.00037528740358538926,-0.01190122403204441,-0.011800985783338547,0.0059667727909982204,-0.0020815692842006683,-0.009304978884756565,-6.21053550275974e-05,-0.013543532229959965,0.0027502872981131077,-0.007278863340616226,0.00950032752007246,-0.005844826344400644,-0.0012174558360129595,-0.015220127068459988,-0.013327203691005707,-0.003348840167745948,-0.0006544789648614824,0.003219940699636936,-0.006461900658905506,0.006323559675365686,0.011518445797264576,0.0089050168171525,-0.01465031411498785,-0.0007000578916631639,-0.012480572797358036,-0.008086476475000381,0.015586559660732746,-0.010911223478615284,0.0003836197138298303,0.00400946568697691,0.006353286094963551,0.001892278203740716,-0.015446164645254612,-0.00526188500225544,0.0009595747687853873,-0.012630049139261246,-0.00449869642034173,-0.014782042242586613,-0.013323280960321426,-0.0031971773132681847,-0.011354760266840458,0.0025273433420807123,0.006356154568493366,0.009687093086540699,-0.009486501105129719,-0.010496897622942924,-0.012400156818330288,0.004588498268276453,0.006905967369675636,-0.014482241123914719,0.013967595063149929,-0.014168097637593746,0.001348513294942677,0.006748684681952,0.01201076153665781,0.0071255965158343315,0.009842423722147942,-0.004882449749857187,0.009936665184795856,-0.013239270076155663,0.012628776952624321,0.0017850403673946857,0.010366701520979404,-0.0012330403551459312,0.004718199837952852,0.0007724358583800495,0.007311925757676363,-0.013113558292388916,-0.013637689873576164,-0.007688125129789114,-0.010531914420425892,0.011889796704053879,-0.008938306011259556,0.014659176580607891,-0.005684207193553448,-0.010530911386013031,0.008825722150504589,0.004870016593486071,-8.863837865646929e-05,0.0015445887111127377,0.006434835959225893,-0.009168732911348343,0.015219648368656635,0.014746814966201782,0.0046614427119493484,-0.009509262628853321,0.005350938998162746,-0.014105310663580894,-0.01543341763317585,-0.008088110014796257,-0.0013504615053534508,0.011613450944423676,0.007207905873656273,0.007262428291141987,-0.0029465474653989077,-0.0054307738319039345,-0.00442499527707696,0.015323423780500889,-0.014551347121596336,0.011650681495666504,0.0020852121524512768,-0.002475550165399909,0.0066322386264801025,-0.0006860571447759867,0.011716233566403389,0.012643330730497837,-0.0023976610973477364,-0.007410041056573391,0.00246268417686224,0.01263099443167448,-0.009361722506582737,0.003788745030760765,0.004126138985157013,0.007527023553848267,-0.011934432201087475,0.006463095545768738,0.012626527808606625,-0.010287143290042877,-0.008367279544472694,0.014929739758372307,-0.00978897139430046,0.011818409897387028,0.0003650201251730323,-0.007633699104189873,0.011761191301047802,-0.0017654821276664734,0.0004769793595187366,-0.0043707494623959064,0.003620750270783901,-0.010010087862610817,-0.003193313954398036,0.01479082740843296,-0.007699287496507168,0.004973751492798328,-0.005450634751468897,0.009334616363048553,-0.011130680330097675,0.01496635377407074,-0.0015579868340864778,-0.008419923484325409,-0.013490918092429638,-0.010423434898257256,0.0012683544773608446,-0.004758844617754221,0.010419363155961037,-0.002300589345395565,-0.008028442971408367,0.0036653117276728153,0.006503062788397074,-0.009981140494346619,-0.010250359773635864,-0.014658347703516483,0.007371117826551199,0.005107492208480835,-0.0008779054624028504,0.010813629254698753,0.01005809661000967,0.002828494179993868,0.011611487716436386,-0.009378449991345406,-0.01234246976673603,-0.007382709067314863,-0.014067481271922588,0.0012752639595419168,0.013880773447453976,-0.014575177803635597,-0.011994539760053158,-0.0015952343819662929,0.013595826923847198,-0.00585786160081625,-9.170713747153059e-05,-0.014772571623325348,-0.011266232468187809,0.015366792678833008,0.01474935282021761,-0.015590929426252842,0.014350897632539272,0.004120462108403444,0.011387544684112072,-0.0015649739652872086,0.00047478091437369585,-0.0003300882817711681,0.005311237182468176,-0.011339450255036354,-0.015104242600500584,-0.006281314883381128,0.006369423121213913,-0.009460295550525188,0.005480952560901642,0.014866529032588005,-0.0128050921484828,0.005215318873524666,-0.0019585606642067432,0.01156274601817131,-0.010244322940707207,0.0060817282646894455,0.010694197379052639,0.014075093902647495,0.005572054069489241,-0.00021335763449314982,0.0036564250476658344,0.011630108579993248,0.002224251627922058,-0.014841304160654545,0.01364687830209732,0.005822157487273216,0.005503868218511343,-0.009064314886927605,0.004985475447028875,-0.0033648512326180935,0.00478673679754138,-0.012397567741572857,0.004876910708844662,0.015739168971776962,-0.01435790117830038,0.015044589526951313,-0.0029511370230466127,0.011737420223653316,0.0089875478297472,0.002272331854328513,0.007710510399192572,0.012115282006561756,-0.002973936963826418,-0.0055301375687122345,0.005082280375063419,0.009439363144338131,0.008462642319500446,0.009614150039851665,-0.0018762524705380201,0.010080507025122643,-0.012093043886125088,0.0011904293205589056,-0.015915947034955025,-0.005361516494303942,-0.003997683059424162,-0.0031383358873426914,0.006176898255944252,-0.0036371578462421894,-0.001828281907364726,-0.008586306124925613,-0.0038041085936129093,-0.008397442288696766,-0.013374240137636662,0.0032374279107898474,0.005192640237510204,0.003563028061762452,-0.0014631333760917187,-0.0036311850417405367,0.011652011424303055,0.0006792931817471981,-0.0007062090444378555,-0.01513646636158228,-0.005258155055344105,-0.004118507262319326,-0.0030718904454261065,0.002688139211386442,0.0011533036595210433,0.0033835694193840027,0.00823646318167448,0.009660406038165092,0.006546295713633299,0.01450389064848423,-0.015054537914693356,-0.009494880214333534,-0.01556215900927782,0.004578801337629557,0.012412767857313156,-0.008424978703260422,0.013205847702920437,-0.014136109501123428,0.013583522289991379,-0.00472069438546896,-0.012524519115686417,-0.0003356276429258287,-0.007565670646727085,-0.007067397702485323,-0.006269148550927639,0.009490611962974072,0.0012597228633239865,-0.005884920246899128,0.003559903707355261,0.00690506724640727,-0.0074022687040269375,-0.0028460875619202852,-0.01197120826691389,-0.010013023391366005,0.005803341045975685,-0.010029876604676247,0.000840169086586684,0.006442831363528967,-0.012481717392802238,0.002162084449082613,-0.007627755403518677,0.01469724252820015,-0.00048483393038623035,0.00973983108997345,0.0014749234542250633,-0.014447134919464588,0.004240230657160282,0.01430154126137495,0.0032198901753872633,0.010103845968842506,0.012260764837265015,-0.008683604188263416,-0.009115546941757202,0.003516811178997159,-0.0028253193013370037,0.010713721625506878,0.012677107006311417,-0.004473488312214613,-0.008446994237601757,0.00881097000092268,-0.007138464134186506,0.010192052461206913,-0.0023914563935250044,0.005410117097198963,-0.012586571276187897,0.004041904117912054,-0.0015401147538796067,0.0026233079843223095,-0.010577882640063763,0.007502825930714607,0.011635838076472282,-0.008646782487630844,-0.012680331245064735,-0.015103902667760849,0.004362186882644892,0.003322824602946639,0.0015061136800795794,-0.00830517616122961,-0.0031377123668789864,0.00304432213306427,-0.00017210622900165617,0.015294058248400688,-0.011529190465807915,0.00621045520529151,-0.0028465045616030693,-0.0019520038040354848,0.006892486475408077,0.0059895203448832035,0.015398881398141384,-0.011794468387961388,-0.012477125972509384,0.007296822965145111,0.0028200375381857157,-0.007154112681746483,-0.013410557061433792,-0.013232744298875332,0.01240092609077692,-0.009703170508146286,-0.005348597187548876,-0.008273628540337086,-0.004627433139830828,-0.013722238130867481,0.0004968519788235426,-0.01370282657444477,0.009568875655531883,-0.008155222982168198,0.0016528393607586622,0.01194416917860508,0.004665512125939131,0.0009719699155539274,-0.005544871091842651,-0.005168740637600422,0.005638896953314543,0.016028396785259247,0.005018699448555708,0.0018026698380708694,0.007330840919166803,-0.0010166781721636653,-0.013834700919687748,0.001885820529423654,0.014153959229588509,-0.010321704670786858,0.005997003521770239,-0.009427371434867382,0.0011948657920584083,-0.012707493267953396,-0.0017006973503157496,0.007744831033051014,-0.004828036297112703,0.0052154939621686935,0.00937336403876543,0.013560260646045208,-0.008367927744984627,-0.0033587473444640636,-0.011376307345926762,0.015580072067677975,0.013518102467060089,0.001309022307395935,0.010856173932552338,0.000637538090813905,0.0036807397846132517,-0.013408361002802849,0.00805811770260334,-0.01175752468407154,0.01031903550028801,0.008904901333153248,0.006500262301415205,-0.014955614693462849,-0.00665291165933013,-0.007487338036298752,-0.004408406559377909,-0.013050910085439682,0.013752673752605915,0.0015535805141553283,-0.006468029227107763,-0.0036584879271686077,-0.001624307595193386,0.00322292884811759,0.00048824603436514735,0.013198384083807468,-0.00025597881176508963,0.01525116991251707,0.010753920301795006,-0.008870765566825867,0.013619724661111832,-0.012238042429089546,0.009881808422505856,-0.003950588405132294,0.011760168708860874,0.011489028111100197,0.009929823689162731,0.009097578004002571,-0.006345267873257399,-0.013432726263999939,-0.0032611980568617582,-0.01052109245210886,0.006025746464729309,-0.00465281680226326,0.014901957474648952,0.004231682047247887,0.009983272291719913,-0.01184047944843769,0.01122811995446682,0.013266121037304401,-0.0002591326483525336,0.003204833250492811,0.008146949112415314,-0.010480466298758984,-0.00015956962306518108,-0.003423136193305254,-0.011227321811020374,-0.004071269650012255,-0.013800907880067825,-0.015178169123828411,-0.01172870583832264,0.014404211193323135,0.001379935652948916,0.014755252748727798,-0.002046365989372134,-0.0060782767832279205,3.0077088013058528e-05,-0.0021065748296678066,-0.012682340107858181,0.004343024920672178,-0.0088424701243639,0.00384393404237926,0.004662149120122194,-0.011127304285764694,-0.014032112434506416,0.008732127957046032,-0.0012675648322328925,-0.013701193034648895,0.015762323513627052,-0.013898277655243874,0.006204904988408089,0.015287931077182293,-0.008261842653155327,-0.011294177733361721,-0.011901388876140118,-0.006115338299423456,-0.012547624297440052,0.006103204097598791,-0.0138457752764225,0.0002736199530772865,0.01571257971227169,0.010002078488469124,0.0037185968831181526,-0.006067660171538591,0.003953356295824051,0.0008503645076416433,-0.002348880749195814,-0.011653732508420944,0.012315192259848118,-0.0015419037081301212,-0.009620974771678448,-0.00415690615773201,-0.0027264554519206285,0.010343650355935097,0.0074064405634999275,0.008627903647720814,-0.015430196188390255,-0.002637340920045972,-0.0005758177721872926,-0.015211796388030052,-0.007610933389514685,0.008263804018497467,-0.011321443133056164,0.0011896603973582387,-0.008942900225520134,-0.015379191376268864,-0.00818079523742199,0.01504515204578638,0.009612644091248512,0.014737111516296864,-0.0002568142954260111,-0.01223795022815466,0.0015866848407313228,-0.0014108559116721153,0.010936649516224861,-0.012553732842206955,-0.0001020172203425318,-0.010921845212578773,-0.0054426006972789764,0.007554536685347557,-0.0007537303608842194,-0.003940611146390438,-0.0033681518398225307,-0.0013395313872024417,0.009091786108911037,0.01241347286850214,0.014341862872242928,0.008985293097794056,-0.005918459501117468,0.005878085270524025,-0.0020618389826267958,-0.007719018962234259,0.01074944343417883,-0.014674858190119267,0.012599175795912743,-0.001312549808062613,0.00426032580435276,0.004952303133904934,0.012497905641794205,0.004267166834324598,0.0035148020833730698,-0.013787156902253628,0.0005146179464645684,-0.011104837991297245,0.007488418836146593,0.00036935985554009676,0.0056320964358747005,-0.014577684924006462,-0.01318554300814867,0.006823909003287554,-0.013500092551112175,-0.013446792028844357,-0.015451396815478802,0.014368676580488682,0.007439284585416317,-0.004675841890275478,-0.006404472514986992,-0.004635581746697426,0.008910917676985264,0.005097126588225365,-0.009994830936193466,-0.010348208248615265,-0.012715363875031471,0.005135452374815941,0.0085435276851058,-0.007089949678629637,-0.01549637969583273,-0.013487921096384525,0.014641677029430866,-0.006524720229208469,0.008498912677168846,0.003966950345784426,-0.003691017162054777,-0.00965123437345028,-0.01224046666175127,0.0035307169891893864,0.008654684759676456,0.004532637074589729,0.0009748330921866,-0.014441370032727718,0.014471301808953285,0.009217058308422565,-0.006612217519432306,0.015169003047049046,0.003216041484847665,0.0026274030096828938,0.00788651779294014,0.009548874571919441,0.004779010079801083,-0.011801387183368206,-0.005106584634631872,0.013544020242989063,-0.008678124286234379,-0.00399751216173172,-0.0024065084289759398,-0.0020403938833624125,0.003539459779858589,0.014014560729265213,-0.008184384554624557,-0.011940707452595234,-0.009531299583613873,0.012025389820337296,0.004521463997662067,-0.00678766006603837,0.010000295005738735,0.011443272233009338,0.0109732486307621,0.013262303546071053,-0.008016180247068405,0.007989500649273396,-0.0012623585062101483,0.010823405347764492,0.0072382353246212006,0.008746948093175888,0.0049317264929413795,-0.010082805529236794,0.0013713177759200335,0.015131752006709576,0.013618811033666134,-0.014553259126842022,-0.010581494309008121,-0.011599878780543804,0.007197550497949123,0.009944943711161613,-0.009245278313755989,2.7180220058653504e-05,0.010733800008893013,0.007432140409946442,0.0014313526917248964,0.0028497593011707067,0.0001430387783329934,-0.006579243112355471,0.0019456591689959168,0.005980526562780142,0.011908586136996746,0.004434856586158276,0.008223118260502815,-0.010864460840821266,-0.0013693731743842363,-0.015591474249958992,-0.00797277968376875,0.007279030978679657,0.015673456713557243,-0.012717592529952526,-0.003230982692912221,0.009355176240205765,-0.009415159933269024,0.0017918780213221908,0.0074873859994113445,0.0037711854092776775,-0.009936519898474216,-0.004704874008893967,0.008856582455337048,0.0016631926409900188,-0.015578663907945156,0.008362761698663235,-0.014604591764509678,0.007654499262571335,-0.009559925645589828,0.0143583370372653,-0.004240075126290321,-0.005416766740381718,-0.010993859730660915,-0.006069762632250786,0.011793009005486965,0.01539977453649044,-0.004579721484333277,-0.0020487329456955194,0.0066841598600149155,0.011986675672233105,0.0028353810776025057,-0.003615051042288542,-0.003130694618448615,0.005721614696085453,-0.016114650294184685,0.003497274359688163,-0.004718927200883627,0.009245905093848705,-0.013115668669342995,0.002351923380047083,-0.0010702541330829263,0.004128891974687576,-0.013972817920148373,0.0024257705081254244,0.0019145181868225336,0.0015846692258492112,0.00279439939185977,0.005132189020514488,0.00933412741869688,-0.007439306937158108,0.010201672092080116,-6.154872244223952e-05,-0.013752923347055912,-0.014409586787223816,-0.005621406249701977,0.008790630847215652,0.0064478907734155655,0.009082796052098274,0.0005776993930339813,-0.002261754125356674,-0.011533326469361782,-0.005698734428733587,-0.002203014213591814,-0.013065481558442116,-0.008833466097712517,0.0031657761428505182,0.007111994083970785,0.015445366501808167,0.013533289544284344,0.004441197030246258,-0.0025204503908753395,0.004313897341489792,0.009079423733055592,-0.011982185766100883,-0.0027571935206651688,0.010825395584106445,-0.003604345954954624,0.002325148321688175,0.0028145723044872284,-0.009951544925570488,-0.004269560799002647,-0.005137129221111536,-0.014899300411343575,-0.014985351823270321,0.01052920613437891,-0.007151244208216667,0.0005761215579696,-0.006271297112107277,0.014008738100528717,-0.007553179748356342,-0.0021835938096046448,0.01180426124483347,0.010801268741488457,-0.009946207515895367,0.009668604470789433,-0.0012469484936445951,-0.0004968520370312035,-0.011554508469998837,-0.013259668834507465,0.007174094207584858,-0.00016074688755907118,-0.0018755716737359762,0.007345858961343765,0.00844479724764824,-0.01074992772191763,0.0034805696923285723,-0.011567181907594204,0.00788240134716034,0.0050857956521213055,0.014523876830935478,-0.013575232587754726,-0.013983653858304024,-0.006889896467328072,-0.007569676730781794,-0.008046508766710758,0.012924700044095516,-0.007864442653954029,-0.007185834925621748,0.008212280459702015,-0.0015966224018484354,0.008721708320081234,-0.013742773793637753,-0.0003810953348875046,-0.014753169380128384,-0.013828997500240803,0.01286002341657877,-0.011389407329261303,0.0010379410814493895,-0.002785932505503297,-0.004794037435203791,0.012670326977968216,-0.015090657398104668,0.005190414842218161,0.014632745645940304,0.0018642303766682744,0.013775160536170006,-0.014112825505435467,-0.002539472421631217,-0.0075767748057842255,0.007278326898813248,0.015137800946831703,-0.007808621507138014,0.004781940020620823,-0.009497363120317459,0.002085374901071191,-0.0011443783296272159,0.01489225123077631,0.0033284351229667664,-0.004882270935922861,-0.012304967269301414,-0.010942558757960796,-0.008640273474156857,-0.007862603291869164,0.011067882180213928,0.0018351897597312927,0.0006090668612159789,-0.012297027744352818,0.011515633203089237,0.007127683609724045,-0.013627635315060616,0.00656736409291625,0.0012819163966923952,-0.013354565016925335,-0.0014562116703018546,-0.00031450652750208974,-0.010447156615555286,0.014159908518195152,0.011061581782996655,0.005253499839454889,-0.001330612227320671,-0.0029424885287880898,0.004309074487537146,0.0009859857382252812,-0.014138630591332912,0.00025852283579297364,0.009650873951613903,-0.00123984320089221,-0.014065762981772423,0.008601276203989983,-0.00982541125267744,-0.00779279600828886,-0.01063329167664051,-0.005313702393323183,0.00820854026824236,0.0006995329749770463,-0.0097550293430686,0.0116678886115551,0.011921323835849762,0.01174174714833498,-0.008179058320820332,-0.001482018968090415,0.015378745272755623,0.008201793767511845,-0.0151685681194067,-0.013807111419737339,-0.0011137084802612662,0.012976144440472126,0.001224673818796873,-4.944383181282319e-05,-0.012806183658540249,0.004771266132593155,0.010123761370778084,-0.0037844479084014893,0.008703090250492096,0.014669801108539104,-0.009330205619335175,0.0004918466438539326,-0.00687978882342577,0.009185634553432465,0.002410269808024168,0.004234794061630964,0.009402480907738209,-0.00326943420805037,0.012950623407959938,0.0009202226065099239,-0.010904451832175255,0.006124117877334356,0.009225886315107346,-0.005832605995237827,0.011251788586378098,0.012688705697655678,-0.007211147341877222,0.0150919109582901,-0.011551153846085072,-0.009545223787426949,-0.010022112168371677,0.012459663674235344,0.004721406381577253,-0.011164830066263676,-0.0020711091347038746,0.003503239480778575,-0.01321853045374155,0.01212154421955347,0.009629199281334877,3.0680414056405425e-05,0.014644687995314598,-0.002731690648943186,0.015222052112221718,0.00529569061473012,0.004299680702388287,-0.010530966334044933,0.01199831161648035,-0.0023663416504859924,-0.010752822272479534,-0.015445306897163391,0.0018933534156531096,0.000897111021913588,0.006957862060517073,0.01230690535157919,-0.013335069641470909,0.007287662476301193,-0.009899403899908066,0.011323526501655579,0.01008708868175745,0.0012822962598875165,0.006645016372203827,-0.005881433840841055,-0.0009295851341448724,0.010151413269340992,-0.0013147828867658973,-0.004530792124569416,-0.00020407605916261673,0.010389809496700764,-0.005225136410444975,-0.01035641971975565,0.00664790952578187,0.010228832252323627,-0.012698868289589882,-0.008198842406272888,-0.011328085325658321,-0.004741506651043892,-0.0015359449898824096,0.007887409999966621,0.00480632996186614,0.0038277963176369667,-0.0046935779973864555,0.01084215473383665,-0.0008630976662971079,0.01515079103410244,0.0042519341222941875,-0.011809557676315308,0.00554487481713295,-0.00558985210955143,0.005976849235594273,-0.013572988100349903,-0.010270045138895512,0.011251358315348625,-0.008639389649033546,0.010606290772557259,-0.007050877436995506,0.004577316343784332,0.00613682996481657,0.0003797047247644514,-0.0061819832772016525,-0.009120568633079529,-0.014827397651970387,-0.006262288894504309,0.0048482101410627365,0.013810228556394577,0.011648332700133324,0.008331996388733387,0.00903785228729248,0.005132787395268679,-0.007627218961715698,0.012804913334548473,0.005267937667667866,0.0017619999125599861,-0.012435520999133587,-0.0017907293513417244,-0.0013424193020910025,0.011493739672005177,0.0013391899410635233,-0.003963635768741369,0.014881029725074768,-0.012477053329348564,-0.0025660167448222637,-0.014526794664561749,0.007619841489940882,0.013322845101356506,-0.006884502712637186,0.011340457014739513,-0.006624923553317785,0.012843313626945019,0.007683000527322292,0.009128475561738014,-0.015126198530197144,0.014686375856399536,0.00715919304639101,-0.006254909560084343,0.010196000337600708,-0.007372808177024126,0.01122869923710823,-0.012123041786253452,0.006500807125121355,0.0012866758042946458,-0.012866979464888573,-0.00845071580260992,-0.015946127474308014,-0.0015075188130140305,-0.006180227734148502,0.0031689272727817297,-0.006418569013476372,-0.006462541408836842,0.007359068375080824,-0.014795107766985893,0.012321972288191319,0.011206565424799919,0.005361269228160381,0.00292365369386971,0.012245909310877323,-0.01028467621654272,-0.013734876178205013,-0.008528166450560093,0.009393887594342232,-0.014634150080382824,0.0025966009125113487,0.015491686761379242,0.010930769145488739,0.00034687784500420094,-0.014025433920323849,0.010580236092209816,0.0032088952139019966,-0.0122052151709795,-0.013022905215620995,0.012654700316488743,0.005051194690167904,0.01019360963255167,0.01208319142460823,0.002349103568121791,0.0006144302897155285,-0.0021400919649749994,-0.00572678679600358,-0.0020951766055077314,0.008522086776793003,0.0032893940806388855,0.012436539866030216,-0.001784543739631772,0.003380859736353159,0.004129453096538782,0.0027745019178837538,0.006215840112417936,-0.00827838759869337,0.00038237025728449225,-0.012539180926978588,-0.0036856504157185555,-0.0004748687206301838,0.0046332343481481075,0.01405723113566637,0.003174658166244626,0.007677820976823568,0.00016584151308052242,0.004183609038591385,-0.013692234642803669,-0.007948308251798153,-0.004496247507631779,-0.0008639412117190659,-0.014368625357747078,-0.011403637938201427,-0.007128514815121889,0.014767765067517757,-0.005489652510732412,-0.0006340579711832106,-0.009583640843629837,0.003504906315356493,-0.0069549810141325,-0.009339679963886738,0.00040619465289637446,-0.015737779438495636,-0.015563962049782276,-0.008854490704834461,-0.014635889790952206,-0.012400154955685139,-0.00513316597789526,0.00951429270207882,0.002255374565720558,0.0004859949985984713,-0.005818200763314962,0.013930290006101131,-0.0031954143196344376,-0.013126078061759472,0.0035903716925531626,-0.012256396003067493,-0.004866423085331917,0.0008235290879383683,0.01202478352934122,-0.00022734820959158242,0.006243593525141478,0.015429893508553505,-0.011693362146615982,-0.007069141138345003,-0.002848289906978607,-0.0023454136680811644,-0.0029158310499042273,0.012692052870988846,0.006616442464292049,0.003413269529119134,-0.005940208677202463,0.010622888803482056,0.014440999366343021,0.010005527175962925,-0.0159473717212677,0.004191994201391935,-0.014155064709484577,-0.00757583137601614,-0.013624663464725018,0.0032875610049813986,0.00572983268648386,-0.012372210621833801,-0.0037386592011898756,-0.0013483789516612887,-0.004059929400682449,-0.01175232045352459,-0.0025900285691022873,0.007772007025778294,-0.013702614232897758,-0.013275600969791412,-0.004536127205938101,0.014064530842006207,0.005505981855094433,0.005616490729153156,-0.004493712447583675,0.0028941871132701635,-0.015443956479430199,0.004375506658107042,0.0132153844460845,0.003716845531016588,0.012157153338193893,0.0075280871242284775,-0.011570846661925316,0.01302257925271988,-0.013532324694097042,0.0010778038995340466,-0.011032587848603725,-0.015009981580078602,-0.0019975234754383564,-0.006094452925026417,-0.00022844114573672414,0.002476802561432123,-0.014575192704796791,-0.011604811996221542,0.0022728045005351305,-0.004532644525170326,0.0075546009466052055,0.004911459516733885,0.010807271115481853,0.005752421449869871,-0.0019072467694059014,0.005857604555785656,-0.0067250849679112434,-0.005875728093087673,0.009159007109701633,-0.0019161829259246588,0.008991756476461887,0.01049454603344202,0.011660151183605194,0.01350842323154211,-0.0019596759229898453,-0.005739693064242601,0.002305683447048068,-0.004529968835413456,0.0034749493934214115,0.006836497224867344,0.006295612081885338,-0.003749796189367771,-0.010606694035232067,-0.002553895814344287,-0.011784420348703861,0.012554329819977283,-0.00455543864518404,-0.010611358098685741,-0.014861487783491611,0.0043769595213234425,0.0038442802615463734,-0.005671471823006868,-0.013214313425123692,-0.002573297591879964,-0.0057182032614946365,0.005807681940495968,0.0034951111301779747,-0.004194621462374926,-0.008898355066776276,0.01571178436279297,-0.0012129399692639709,0.006165849976241589,-0.011198367923498154,-0.00036422917037270963,-0.014919246546924114,0.0001398947642883286,0.01486106589436531,-0.003474784316495061,-0.014406785368919373,-0.014725261367857456,-0.003503199899569154,-0.010765714570879936,-0.015126509591937065,0.008244963362812996,-0.0011534631485119462,-0.006538549438118935,0.012700374238193035,-0.012144088745117188,0.014367086812853813,-0.005966483615338802,0.012437725439667702,0.003415060695260763,0.010431993752717972,0.015333149582147598,-0.006710281129926443,0.014531183987855911,-0.003591954242438078,-0.0034284470602869987,-0.004864449147135019,0.0014274163404479623,-0.01088952086865902,0.0017034513875842094,0.0012996927835047245,0.008166293613612652,0.010754825547337532,-0.001695810235105455,-0.006115986965596676,-0.007535723969340324,-0.00962233729660511,-0.013997909612953663,-0.005123700946569443