0.40631532669067383,0.5898712873458862,-0.591759204864502,-0.10088417679071426,-0.19017797708511353,0.24331378936767578,0.3499370813369751,0.07387065887451172,0.10944820940494537,0.46494218707084656,0.37381798028945923,0.1978735327720642,-0.25905755162239075,-0.22282400727272034,0.7151347398757935,-0.637336015701294,-0.28455719351768494,0.2876138687133789,0.4598517417907715,-0.00914302933961153,0.7458052039146423,-0.27535903453826904,0.4621948003768921,-0.3449952006340027,0.13737677037715912,0.05669781565666199,0.15359899401664734,-0.47974735498428345,0.2620929479598999,-0.11593972146511078,0.004950764123350382,0.24571089446544647,0.03654243424534798,0.011526373215019703,0.27680832147598267,-0.3023245334625244,-0.14956586062908173,-0.02962806448340416,0.3145049512386322,-0.654225766658783,0.32521650195121765,-0.3504939675331116,0.4059584438800812,-0.2908300757408142,0.4710652530193329,-0.6707738041877747,0.49573779106140137,-0.1018729954957962,0.009555552154779434,-0.10686040669679642,-0.010510468855500221,0.7420241832733154,-0.3795635998249054,0.565402090549469,-0.7063753008842468,0.46419811248779297,-0.4140949249267578,0.4829990863800049,-0.011481248773634434,0.666896641254425,0.17499129474163055,-0.07526937872171402,-0.6695135831832886,0.5213183164596558,-0.027904540300369263,-0.4079570472240448,-0.3915492296218872,-0.11698608845472336,0.5804539918899536,0.5671601891517639,0.11494235694408417,-0.10707759857177734,0.07511056959629059,0.4024273157119751,0.7049723863601685,-0.3877561092376709,0.11022353172302246,-0.5505197048187256,-0.6993691921234131,0.03203258290886879,-0.7428253889083862,-0.07902324944734573,-0.7427981495857239,-0.34867000579833984,0.5684061050415039,-0.6079151630401611,-0.4316123425960541,-0.24384933710098267,-0.08316604793071747,-0.07000913470983505,0.4537639617919922,0.3174252510070801,0.33455681800842285,-0.7155953049659729,-0.1834530085325241,-0.4537411630153656,0.6072471141815186,-0.1577916443347931,0.7343055605888367,-0.25019675493240356,0.740171492099762,-0.009838951751589775,-0.4265630543231964,-0.3866737186908722,0.2594626247882843,-0.18500682711601257,0.3765583038330078,0.6009413003921509,0.49546530842781067,-0.49539580941200256,0.0016900870250537992,0.5207499861717224,0.04791837930679321,-0.35530173778533936,-0.13573431968688965,-0.2177242487668991,0.4284828007221222,-0.7480043172836304,-0.6446975469589233,0.4432176947593689,-0.6947702169418335,0.48603227734565735,-0.08016157895326614,0.1973198801279068,-0.3552776277065277,-0.026300475001335144,-0.09119861572980881,-0.5096845626831055,0.36393481492996216,-0.5568334460258484,-0.5183466672897339,0.23098838329315186,-0.09435700625181198,0.3662879467010498,-0.17806723713874817,-0.1975756138563156,0.20192520320415497,0.5414692759513855,-0.5712355375289917,0.720711350440979,-0.5071269273757935,0.6935482621192932,0.7407994270324707,0.33563196659088135,0.6711017489433289,-0.02375860884785652,-0.06262710690498352,-0.19945037364959717,-0.2704464793205261,0.4338613748550415,-0.19623763859272003,0.11394409090280533,-0.3147386312484741,-0.4523075520992279,-0.3565095365047455,0.4638814926147461,-0.3457387685775757,-0.32295048236846924,0.6006962656974792,-0.5698747634887695,0.5394949316978455,0.08565478771924973,-0.1585124284029007,-0.648291289806366,-0.6754010915756226,-0.6733688712120056,0.115655317902565,-0.6943275332450867,0.09584110975265503,0.07578442990779877,0.38926398754119873,-0.16608460247516632,0.06874958425760269,-0.572731614112854,0.11387082189321518,0.3639434278011322,-0.508777379989624,-0.7303097248077393,-0.615975558757782,0.4034375548362732,-0.35629913210868835,-0.3033640682697296,0.45230832695961,-0.45005711913108826,-0.1532134860754013,-0.6951979398727417,-0.43464386463165283,-0.6706898808479309,0.428438663482666,0.36290350556373596,0.5076883435249329,0.38791424036026,-0.16326646506786346,0.049850571900606155,0.26043087244033813,0.12835827469825745,0.6787911653518677,0.4061979353427887,-0.3933831453323364,0.03088838793337345,-0.0012730435701087117,0.6002866625785828,0.524788498878479,-0.6822119355201721,0.32986924052238464,0.12699508666992188,-0.3770444989204407,-0.4332335591316223,-0.6807736158370972,0.21550656855106354,0.43589603900909424,0.09803581982851028,-0.3847825229167938,-0.33473432064056396,-0.19972935318946838,-0.44207650423049927,-0.10343372076749802,-0.2866416573524475,0.3224709630012512,0.5499148368835449,-0.30014950037002563,0.23562929034233093,-0.3009091019630432,-0.3435046970844269,-0.5414209961891174,-0.48860639333724976,-0.4896846413612366,0.5490663647651672,-0.43357113003730774,-0.32964813709259033,-0.7396807074546814,0.6431015729904175,-0.09798736125230789,-0.22809889912605286,-0.35474467277526855,-0.3997493088245392,-0.18035155534744263,0.24512077867984772,-0.15663264691829681,-0.5924873948097229,-0.12917132675647736,-0.20560772716999054,0.5172235369682312,0.5131837725639343,-0.1796831488609314,-0.4673175811767578,-0.16292309761047363,0.7278527021408081,0.15680646896362305,-0.709726095199585,0.0022346677724272013,-0.5590575337409973,-0.29171690344810486,-0.66288822889328,0.5908003449440002,-0.23178638517856598,-0.2487928569316864,-0.40101346373558044,0.5957546830177307,0.53913813829422,-0.3910427391529083,0.20227624475955963,0.3321879506111145,-0.22623944282531738,0.5553198456764221,-0.09644518047571182,0.6236306428909302,-0.43336358666419983,0.6945787668228149,0.3956696093082428,0.4705088138580322,-0.41571110486984253,0.3203721344470978,0.3629387617111206,-0.2340533584356308,-0.01357963215559721,0.41198307275772095,0.4529719650745392,-0.3805418610572815,-0.6172193884849548,-0.36361411213874817,-0.4721161425113678,-0.18729104101657867,0.32685068249702454,0.42280665040016174,-0.07847071439027786,-0.0019112324807792902,0.47166839241981506,-0.6360114216804504,0.20655719935894012,-0.34913355112075806,-0.42303529381752014,0.23644067347049713,0.30106210708618164,-0.023563599213957787,0.3258836269378662,-0.5598791241645813,0.08190135657787323,0.016575738787651062,-0.05033434182405472,0.04412422329187393,-0.5284006595611572,-0.6248509287834167,-0.047024164348840714,0.4054430425167084,0.13167934119701385,-0.6868016123771667,0.31732356548309326,0.1813986897468567,-0.40950772166252136,-0.3320905566215515,0.1855507493019104,0.2814093828201294,0.24466940760612488,0.6557363867759705,0.21712104976177216,-0.23823529481887817,-0.014307469129562378,-0.29926255345344543,-0.7324180006980896,-0.7456624507904053,-0.5767767429351807,-0.5643998980522156,-0.22377803921699524,-0.4282543659210205,-0.7119836807250977,0.7399396896362305,0.545672595500946,0.4125593304634094,0.7123119235038757,0.3916618525981903,0.23970012366771698,0.40438708662986755,-0.11015742272138596,-0.20843635499477386,-0.026232628151774406,-0.534586489200592,-0.4828434884548187,0.6112520694732666,0.7110395431518555,0.0993284359574318,0.21103250980377197,-0.14315061271190643,0.30379563570022583,0.38989537954330444,0.7212446331977844,-0.4022366404533386,0.18032462894916534,-0.6264166831970215,0.2783733606338501,0.29909956455230713,0.4054447412490845,0.25085538625717163,-0.5955604910850525,-0.10695172846317291,-0.33689647912979126,-0.07671451568603516,-0.23609235882759094,-0.05270431935787201,0.7313950061798096,-0.418636292219162,0.2681414783000946,0.42924773693084717,-0.6664857268333435,0.6318398714065552,-0.4459727704524994,-0.5781404972076416,0.6155629754066467,-0.4060390293598175,-0.26785507798194885,0.2399185448884964,-0.5085058212280273,-0.026870476081967354,0.5872390866279602,-0.42416617274284363,-0.15592528879642487,-0.448853462934494,0.6316685080528259,0.15432730317115784,0.01208494883030653,-0.49232152104377747,-0.020200427621603012,-0.12008525431156158,0.09338821470737457,-0.6197497248649597,0.5440551042556763,-0.631302535533905,0.01824132725596428,-0.6888701319694519,0.09735143929719925,-0.7086552977561951,0.38145503401756287,0.1856725811958313,0.6570292115211487,-0.29203900694847107,-0.6306902170181274,0.6389649510383606,0.3651384711265564,-0.3613393008708954,-0.601044237613678,0.07448822259902954,-0.30063560605049133,0.500334620475769,-0.35153791308403015,-0.7448539733886719,-0.37136489152908325,-0.7302017211914062,-0.013741990551352501,-0.63233482837677,-0.3917373716831207,0.5003673434257507,-0.4680587649345398,-0.38549479842185974,-0.2298145294189453,0.487517386674881,-0.7131395936012268,0.6011548042297363,0.224792942404747,0.24713867902755737,-0.0004072991432622075,0.2743075489997864,-0.2055676430463791,-0.2090751975774765,0.11029253154993057,0.4548647105693817,0.6384943723678589,-0.483644038438797,-0.6009671688079834,-0.06105948984622955,0.5322210192680359,0.4541127383708954,-0.20898346602916718,0.07703802734613419,0.6597355604171753,-0.6252291202545166,-0.6857197284698486,-0.6888319849967957,-0.44978639483451843,-0.40974345803260803,-0.42959752678871155,0.17793641984462738,0.12761619687080383,0.34115880727767944,-0.48908355832099915,0.6665683388710022,-0.01010992843657732,0.5175398588180542,-0.5092232823371887,0.10547680407762527,0.6940932273864746,0.2966185212135315,-0.740634024143219,-0.16158434748649597,0.22149501740932465,-0.10507937520742416,-0.3139360249042511,0.23216496407985687,0.613506555557251,-0.28177186846733093,0.15165294706821442,0.5777995586395264,0.012497616931796074,-0.4272770285606384,0.7219465970993042,0.7385095357894897,0.5162973403930664,-0.3073681592941284,0.7361672520637512,-0.06074216589331627,0.5136315822601318,-0.4962185323238373,0.45744243264198303,0.6401675939559937,-0.018694916740059853,0.030320199206471443,0.049864817410707474,-0.3906209468841553,0.23984046280384064,0.2425362914800644,0.15500107407569885,-0.24208661913871765,-0.2524195611476898,0.7138423919677734,-0.30758675932884216,0.05628449097275734,0.0631118193268776,-0.004952655173838139,0.6417991518974304,0.42802879214286804,0.2237679809331894,0.3545745015144348,-0.5176888704299927,0.079688660800457,0.2669023275375366,-0.6078407764434814,-0.36713510751724243,0.6759843826293945,-0.17436403036117554,0.16623036563396454,-0.511460542678833,0.6118417382240295,0.6686105728149414,-0.09718015789985657,0.22423025965690613,-0.6484633684158325,0.15843605995178223,0.22297681868076324,-0.2187042534351349,-0.3232915699481964,0.3977441191673279,0.007207124028354883,-0.4092365801334381,0.5883358716964722,0.6107546091079712,0.20902951061725616,0.3668459951877594,-0.02764003537595272,0.19028319418430328,-0.2505004107952118,0.6556221842765808,0.5253937244415283,0.7289627194404602,-0.633091390132904,0.4276416599750519,-0.07114045321941376,-0.24196594953536987,-0.3596591055393219,-0.2320765256881714,-0.2102566957473755,0.36185863614082336,0.2010842114686966,-0.20046235620975494,-0.16836784780025482,-0.228220596909523,0.6054871082305908,0.03251158446073532,-0.21278265118598938,-0.11779041588306427,-0.00041999670793302357,-0.7447883486747742,-0.6248623132705688,-0.07474176585674286,-0.14667975902557373,-0.4031211733818054,-0.06772315502166748,0.3458293378353119,0.5223298072814941,0.06187538802623749,0.2043721228837967,0.28862032294273376,0.5387285351753235,0.6265127062797546,0.6742895841598511,-0.2694454789161682,-0.16564664244651794,0.08709010481834412,-0.616581380367279,0.6211934089660645,0.4114232361316681,0.23464198410511017,0.24545882642269135,-0.015566887333989143,0.23811346292495728,0.01497899554669857,0.00951146800071001,0.7290142178535461,-0.335774302482605,0.5441738963127136,-0.21177257597446442,0.20467635989189148,0.012495757080614567,-0.5982097387313843,-0.20105545222759247,-0.7075364589691162,0.6065047383308411,0.08983325213193893,-0.17814184725284576,0.12852953374385834,0.3398231267929077,-0.44158801436424255,0.27551665902137756,0.03391943499445915,-0.10492417961359024,0.08111822605133057,0.5732819437980652,-0.3951943516731262,-0.45350757241249084,0.17955374717712402,0.0044663711450994015,0.31112349033355713,-0.023696020245552063,0.46091407537460327,-0.667443573474884,-0.7072913646697998,0.6129365563392639,-0.6727613210678101,-0.2809782326221466,-0.23449009656906128,-0.039130862802267075,0.19116121530532837,-0.2561713755130768,0.5239377021789551,-0.1763564795255661,0.6807667016983032,-0.5382720828056335,-0.3871629238128662,0.5327761173248291,-0.06094500422477722,-0.34233149886131287,0.14875629544258118,-0.11595209687948227,0.6904533505439758,-0.35154709219932556,-0.32899588346481323,0.09925253689289093,-0.6598078608512878,-0.003892399836331606,-0.35067805647850037,0.654477596282959,0.6797663569450378,-0.3760118782520294,0.056818243116140366,-0.7277035117149353,-0.6343508958816528,-0.5295848846435547,-0.47333696484565735,0.043517954647541046,0.03763214126229286,0.7077139019966125,0.28940433263778687,-0.0312916599214077,0.5167495012283325,-0.4591388702392578,0.14630338549613953,-0.2798580527305603,-0.4079878032207489,-0.14156045019626617,0.5200222730636597,0.4621746242046356,0.03018833138048649,-0.6719796657562256,-0.6422984600067139,-0.6419286727905273,-0.22236812114715576,0.1533084660768509,0.7205302119255066,0.06256740540266037,-0.2125319391489029,0.5354111194610596,-0.6197593808174133,0.3476412892341614,-0.5301403403282166,0.051429200917482376,-0.6062815189361572,-0.011023442260921001,-0.36500969529151917,0.6239413619041443,-0.29471027851104736,-0.022861145436763763,-0.549168586730957,-0.13264334201812744,0.25929027795791626,-0.129566952586174,-0.046803779900074005,-0.6140745282173157,-0.16548889875411987,0.26291486620903015,0.5936307907104492,-0.5077590346336365,0.3675106465816498,0.748244047164917,-0.6151670813560486,0.6131358742713928,-0.41586732864379883,0.16126614809036255,0.032594919204711914,-0.4062975347042084,0.09787772595882416,-0.4717201292514801,0.1024692952632904,0.4217117726802826,0.2872166335582733,-0.4095996022224426,0.15042968094348907,-0.5278690457344055,0.5130822658538818,-0.5489023923873901,-0.039691824465990067,0.1535983681678772,0.4095703065395355,-0.09655404090881348,-0.4384835660457611,-0.195909783244133,-0.24052944779396057,0.1668679267168045,-0.6129578948020935,-0.48675909638404846,-0.7087813019752502,0.529043436050415,0.33523210883140564,-0.5599064230918884,0.27453920245170593,0.14464257657527924,0.5884097814559937,0.04254187270998955,0.4787670969963074,-0.33775594830513,0.26579195261001587,0.037699609994888306,0.4614494740962982,-0.3619052469730377,0.5894131660461426,-0.6946625709533691,0.25146016478538513,0.20796887576580048,0.08049575239419937,0.6169629693031311,0.4755185544490814,0.1189638003706932,0.4215349555015564,0.4684159457683563,0.18373064696788788,-0.24612922966480255,-0.6149221658706665,-0.56801438331604,0.15273873507976532,-0.6294212341308594,-0.690009355545044,-0.3682917654514313,-0.13553304970264435,-0.012945299036800861,0.052194226533174515,-0.3569795787334442,0.7203973531723022,0.4572324752807617,-0.0120480852201581,-0.6560294032096863,0.40869638323783875,-0.45640674233436584,0.5622097849845886,0.4519132971763611,-0.6625621318817139,-0.25182682275772095,0.7262691855430603,-0.27091798186302185,0.7058206796646118,-0.0033361364621669054,-0.5975561738014221,-0.47322213649749756,0.4474157392978668,-0.028230082243680954,0.10728096216917038,0.7264056205749512,0.616931140422821,-0.18138472735881805,-0.6213675141334534,-0.07146249711513519,0.23705898225307465,0.565190851688385,0.2276543229818344,-0.5158199667930603,0.5575263500213623,0.3118933439254761,-0.5375831723213196,0.0532199926674366,0.5908370614051819,-0.15993861854076385,-0.38014206290245056,0.44584566354751587,-0.6265913844108582,0.4967709183692932,0.6879444718360901,0.5752040147781372,-0.3601771891117096,-0.5154616236686707,0.5316513180732727,0.1861172914505005,0.4039366841316223,-0.2729847729206085,0.478879451751709,0.6634296774864197,0.40053874254226685,0.5336446166038513,-0.4932819902896881,0.23555083572864532,-0.05604834109544754,-0.01146233081817627,-0.3753865361213684,-0.34112411737442017,0.7182608246803284,0.07011587917804718,-0.3097492754459381,0.1554558128118515,0.0594341866672039,0.5266309380531311,0.623909056186676,0.19747589528560638,0.05459580197930336,-0.5,0.55061936378479,-0.031121086329221725,-0.26742711663246155,0.17559386789798737,0.35452595353126526,0.663077175617218,-0.3565415143966675,-0.5626388192176819,0.32258138060569763,-0.13879582285881042,-0.5639641880989075,-0.3986540734767914,-0.6288060545921326,-0.7058118581771851,-0.4379965364933014,0.49669405817985535,0.553531289100647,-0.6150495409965515,-0.27956801652908325,0.09074268490076065,-0.16438278555870056,0.517672061920166,-0.4728676378726959,-0.4003399610519409,0.7134016156196594,0.5528560280799866,0.36839741468429565,-0.4249839782714844,-0.6567620038986206,-0.4645233750343323,0.25535082817077637,-0.5309730172157288,-0.4443122148513794,0.0338217094540596,-0.4984439015388489,0.10664058476686478,0.6373748779296875,-0.6904305219650269,-0.3712533116340637,-0.3376249670982361,0.42573603987693787,0.5335611701011658,0.4405008554458618,-0.28973329067230225,-0.22358262538909912,-0.3408118784427643,-0.24807439744472504,-0.14622536301612854,0.4999057948589325,-0.4841723144054413,-0.5236330628395081,-0.2373685985803604,-0.055649541318416595,0.4253581166267395,-0.3293823301792145,-0.029039954766631126,-0.2161559909582138,-0.663324236869812,0.36672312021255493,-0.17156267166137695,-0.6757800579071045,0.6070815324783325,0.4923911392688751,-0.6836158037185669,-0.09631701558828354,-0.2433452159166336,-0.5423135757446289,-0.12558026611804962,0.6848057508468628,-0.7280862331390381,0.4819587171077728,-0.5114489197731018,-0.0038469387218356133,-0.0529320202767849,-0.14468377828598022,-0.00569937564432621,0.597506582736969,0.02000938542187214,-0.08155173063278198,-0.43908530473709106,0.6270860433578491,-0.3742619454860687,-0.4723510444164276,-0.725453794002533,0.06174665689468384,-0.08575206249952316,0.41278159618377686,-0.4516810178756714,0.25385886430740356,0.27633363008499146,-0.4785609543323517,-0.39419132471084595,0.6821581125259399,-0.7300757169723511,0.3285377323627472,0.12097088247537613,0.11112099140882492,-0.5710422992706299,-0.17933069169521332,0.1075235903263092,0.17537543177604675,-0.012259137816727161,0.3267658054828644,0.4991464614868164,0.45283254981040955,-0.373331218957901,-0.599226713180542,0.3149200677871704,-0.48323097825050354,0.5412740111351013,-0.7048772573471069,0.6620227694511414,0.016701145097613335,-0.6990346312522888,-0.15835122764110565,-0.6283041834831238,-0.25580835342407227,-0.31034359335899353,0.015819517895579338,0.3789862096309662,0.04593168944120407,0.5493662357330322,0.1568458378314972,0.13675670325756073,0.44410237669944763,-0.33845192193984985,-0.6059818863868713,0.2898247241973877,0.7052834033966064,-0.7153404355049133,0.41894254088401794,-0.3539104163646698,0.38835012912750244,0.3337022364139557,0.3027964234352112,0.6555517315864563,-0.13207341730594635,-0.05978403985500336,-0.4613145887851715,-0.3151269853115082,0.6486172676086426,-0.3396334946155548,0.06604991853237152,-0.49321669340133667,0.37497904896736145,0.2641775906085968,-0.23959580063819885,0.32127049565315247,0.12282930314540863,0.07937539368867874,-0.12981750071048737,-0.26203709840774536,0.6629655957221985,-0.027086760848760605,0.6351555585861206,-0.1424405574798584,0.14400719106197357,0.40387099981307983,0.4328407347202301,-0.06489059329032898,-0.5984299182891846,-0.1955334097146988,0.6439072489738464,-0.04570164903998375,-0.236241415143013,0.4402628540992737,-0.6770915985107422,0.4906010627746582,-0.6791301965713501,0.37349987030029297,-0.5918906927108765,-0.07825937122106552,0.6960816979408264,0.38709619641304016,0.028628967702388763,-0.47445762157440186,0.6644605994224548,0.501778244972229,0.412638783454895,-0.2249474674463272,-0.712982714176178,-0.250014990568161,-0.3172828257083893,-0.642769992351532,0.2484222799539566,0.42167994379997253,-0.5709362626075745,-0.25215694308280945,-0.7360255718231201,0.6881139874458313,0.39599013328552246,0.22982114553451538,-0.057908933609724045,-0.2909700274467468,0.3772147297859192,0.6243544816970825,-0.4964142441749573,-0.1597389131784439,-0.5131692886352539,-0.2303442507982254,-0.038862090557813644,-0.34086549282073975,-0.12000960856676102,-0.15581154823303223,0.4650554358959198,-0.4722144305706024,0.6037763953208923,-0.433810293674469,-0.5255664587020874,0.027053404599428177,0.21449735760688782,0.04885869100689888,0.5550772547721863,0.46280136704444885,-0.6211900115013123,-0.05020233243703842,-0.4406343996524811,0.1803400069475174,0.5430768728256226,-0.647975742816925,-0.5839774012565613,0.07886263728141785,-0.06718263030052185,0.6283879280090332,0.11339955031871796,0.16180452704429626,0.5015531182289124,-0.20607727766036987,0.22616295516490936,-0.49497663974761963,-0.6935234069824219,0.03839452564716339,-0.7123005986213684,-0.5980779528617859,-0.1362191140651703,0.2340141087770462,-0.024192456156015396,-0.590039849281311,0.0961013063788414,0.3879925608634949,-0.4991926848888397,-0.6780130863189697,-0.3685576021671295,-0.6374820470809937,-0.38592758774757385,-0.32566872239112854,0.37139344215393066,-0.6438266038894653,0.47553956508636475,0.4339127540588379,0.39807191491127014,0.11465691030025482,0.03867526352405548,-0.11019113659858704,0.6960486769676208,0.13810905814170837,0.6611361503601074,0.7266233563423157,-0.3031660318374634,-0.4740448594093323,0.6967962384223938,-0.23083260655403137,-0.6045213341712952,0.3111834228038788,-0.4692283868789673,0.6473569869995117,-0.2559237480163574,-0.31820324063301086,0.1437593698501587,0.04123419150710106,-0.19681169092655182,0.6963297128677368,0.22631794214248657,-0.6629629135131836,0.3968818783760071,0.5226585865020752,-0.25154736638069153,0.6485661268234253,-0.2603488564491272,0.5714585781097412,-0.5952966213226318,-0.6286234259605408,-0.5466395020484924,-0.2452855408191681,-0.211222305893898,-0.5044452548027039,0.44295138120651245,-0.06855617463588715,-0.18242283165454865,-0.34757882356643677,-0.3648240268230438,0.018127258867025375,0.41606733202934265,-0.0780012235045433,-0.507262110710144,-0.029793022200465202,0.2523775100708008,-0.2485559582710266,0.21025338768959045,-0.3822035491466522,-0.03334216773509979,0.5814988017082214,-0.48079121112823486,-0.6040564179420471,0.4354504346847534,-0.11979614198207855,-0.5044481754302979,-0.056553930044174194,-0.12104903161525726,-0.3007754385471344,-0.3402303159236908,-0.3757804334163666,0.728924036026001,0.40385422110557556,-0.03511057049036026,0.0014790560817345977,0.3352387547492981,0.1760576367378235,-0.6759152412414551,-0.5043286681175232,0.1228746697306633,-0.3190991282463074,-0.6874516606330872,0.44876495003700256,0.026428457349538803,-0.03134560585021973,0.4118260145187378,0.18541978299617767,-0.7245854139328003,-0.1035538911819458,0.1338571012020111,0.7141649723052979,-0.22213204205036163,-0.7247242331504822,-0.2767081558704376,-0.21533963084220886,0.23434662818908691,0.5862317681312561,-0.5098564028739929,-0.15485182404518127,0.4390292763710022,0.5409908890724182,-0.6830594539642334,0.5222058296203613,-0.09299132227897644,0.5031722784042358,0.2849251925945282,-0.12143922597169876,0.7320826053619385,0.2702743113040924,0.5220873355865479,-0.497150182723999,0.5579316020011902,-0.6241771578788757,0.5980951189994812,-0.30790096521377563,0.08466766029596329,-0.2060205638408661,0.6358730792999268,0.05849971994757652,0.4554629921913147,-0.032991278916597366,-0.15458472073078156,-0.08941453695297241,0.2014288306236267,0.48631030321121216,-0.7344582080841064,-0.45716729760169983,-0.12611538171768188,0.5854316353797913,-0.5043882131576538,-0.43411192297935486,0.43041524291038513,-0.3650319278240204,0.17774227261543274,-0.029470011591911316,-0.46996113657951355,0.24286630749702454,0.23251807689666748,-0.35160258412361145,-0.24042168259620667,0.530035138130188,-0.2604515552520752,0.5202245712280273,0.6498596668243408,-0.4756597876548767,0.03507264703512192,-0.2694378197193146,0.18210849165916443,-0.7407291531562805,0.09385238587856293,0.10267193615436554,-0.5827926993370056,0.23620237410068512,0.3540254235267639,-0.059018637984991074,0.00695054093375802,0.30653712153434753,-0.5880123376846313,0.5183539390563965,-0.6578105688095093,-0.6651955246925354,0.2713812291622162,0.3102635443210602,-0.17831629514694214,-0.6407099366188049,0.40983325242996216,0.002799379173666239,-0.4937188923358917,0.05291461944580078,0.44683638215065,-0.49865418672561646,0.497101366519928,-0.45389223098754883,-0.5722171068191528,0.2140478640794754,0.3774944245815277,-0.7153907418251038,-0.06023428589105606,0.6419443488121033,0.2338513284921646,0.5787233114242554,-0.6941223740577698,0.7438796162605286,-0.5253000855445862,-0.43206480145454407,0.23817792534828186,0.6756902933120728,0.3730522692203522,0.3069494068622589,-0.6994045376777649,-0.21875235438346863,-0.5544077754020691,-0.4098286032676697,-0.21396081149578094,-0.06061387062072754,0.6523845195770264,-0.4916943311691284,0.5549098253250122,0.25385600328445435,0.7165113091468811,0.4325636029243469,-0.03684559836983681,0.3815554082393646,-0.09761452674865723,-0.3403638005256653,0.406780481338501,-0.28030458092689514,0.7217581272125244,0.47310084104537964,0.24457140266895294,0.16999046504497528,-0.39160606265068054,-0.5300551652908325,-0.7327412366867065,0.3699880540370941,-0.2815358638763428,0.055567096918821335,-0.06344807147979736,-0.06993558257818222,0.26198717951774597,0.35307562351226807,-0.7091392874717712,-0.07971391081809998,-0.4759505093097687,-0.6251990795135498,-0.1549338400363922,0.4241795539855957,-0.5185196995735168,0.1409551203250885,-0.16862325370311737,0.050716087222099304,-0.5468952655792236,0.5113353729248047,0.16267679631710052,0.3562251627445221,-0.5941081047058105,-0.32616424560546875,0.24416494369506836,-0.6358442902565002,0.6677000522613525,-0.17279177904129028,-0.06599786877632141,-0.4267435371875763,-0.3095328211784363,0.4558846652507782,-0.35019651055336,0.31403297185897827,-0.15641911327838898,-0.6779259443283081,-0.25435590744018555,0.6667840480804443,0.12152682989835739,0.13354593515396118,-0.4094142019748688,0.33877667784690857,-0.5386137366294861,0.18146741390228271,-0.0726575180888176,-0.1260116547346115,-0.6784508228302002,0.12151558697223663,-0.7057629823684692,0.6204807758331299,-0.11654335260391235,-0.23690956830978394,0.16892459988594055,0.10186657309532166,0.6576446890830994,0.3612518310546875,0.4993169903755188,0.14869695901870728,0.20835988223552704,0.013306589797139168,-0.302137553691864,-0.5439645648002625,0.33741337060928345,-0.4646443724632263,0.11906283348798752,0.63665771484375,-0.1529485285282135,-0.4453366994857788,0.6703094244003296,-0.6513689160346985,0.12985621392726898,0.443684846162796,0.21868877112865448,0.3153637647628784,0.5742324590682983,-0.7498295903205872,-0.1929030567407608,-0.5924615859985352,0.496359646320343,0.600830078125,-0.6373584270477295,0.6732999682426453,-0.5413289666175842,-0.6612538695335388,-0.020942246541380882,-0.5524013638496399,-0.29058176279067993,0.21403317153453827,-0.28482261300086975,-0.5824543833732605,0.5778958797454834,0.23923203349113464,-0.21955129504203796,0.7471083402633667,0.20782867074012756,-0.2023850530385971,0.08970478177070618,-0.6481137871742249,0.2875994145870209,0.37375378608703613,0.04878266900777817,0.5734617710113525,0.33243638277053833,0.6416494250297546,0.5824527144432068,0.516505241394043,-0.40719476342201233,-0.09006205201148987,0.2553562521934509,0.32396337389945984,0.19714468717575073,-0.08917538076639175,-0.544763445854187,0.5474885106086731,-0.2605063021183014,-0.2842511236667633,-0.5414988398551941,-0.6328110694885254,-0.2608541250228882,0.6589171290397644,0.2070496827363968,-0.23860986530780792,-0.7229744791984558,-0.11288368701934814,0.6895054578781128,-0.021034257486462593,0.724784791469574,-0.203036829829216,-0.18981842696666718,0.11067687720060349,-0.5227665901184082,-0.653160572052002,0.26959919929504395,-0.12586991488933563,-0.5275158882141113,0.4852413833141327,-0.7377151846885681,0.14080283045768738,0.3879711925983429,-0.6890203356742859,-0.37987449765205383,-0.6659015417098999,-0.3716198801994324,0.40304288268089294,0.08902449905872345,-0.08704641461372375,-0.42402172088623047,-0.2826026380062103,-0.7019512057304382,-0.722524881362915,-0.33195140957832336,0.6387420296669006,-0.15933428704738617,0.1661444455385208,0.631484866142273,0.17420625686645508,0.6089847683906555,0.2637788951396942,0.5889770984649658,0.4732934832572937,0.08978185057640076,-0.1955258697271347,0.7458884119987488,-0.28246480226516724,0.5671746134757996,-0.2987203598022461,0.3861849009990692,0.22464020550251007,0.538837730884552,-0.14541587233543396,0.17794939875602722,0.03927358612418175,-0.1770964115858078,0.3126201629638672,-0.659504771232605,-0.16598622500896454,-0.6044013500213623,-0.017042940482497215,-0.07802331447601318,0.48450151085853577,0.6863496899604797,0.5230182409286499,-0.6864113807678223,0.5357714295387268,-0.5741736888885498,-0.11258009821176529,-0.33082011342048645,-0.37339910864830017,-0.13946941494941711,0.6163186430931091,0.698581874370575,-0.03221885859966278,0.7417482733726501,0.4912533462047577,-0.4253824055194855,-0.25191158056259155,-0.07129265367984772,0.15316113829612732,0.38604652881622314,0.4516775906085968,-0.00516891572624445,0.240950345993042,-0.04529236629605293,0.6422091126441956,0.6260614395141602,-0.05255061015486717,0.3938499689102173,0.2369290590286255,0.6936165690422058,-0.049814965575933456,-0.7118216753005981,-0.3337743878364563,0.6596155762672424,-0.52613765001297,0.7444283962249756,0.04662083461880684,0.5436540246009827,0.25917306542396545,-0.737642765045166,0.35748255252838135,0.6831446290016174,-0.4014078378677368,0.45594534277915955,-0.08692261576652527,0.3120175898075104,-0.12867185473442078,-0.6936468482017517,0.07522363215684891,-0.6989638805389404,0.5242784023284912,-0.2390168160200119,0.3980454206466675,-0.03149706870317459,0.36332815885543823,0.04109283536672592,-0.06863834708929062,-0.13678674399852753,-0.5964195132255554,-0.02438773587346077,0.17832030355930328,-0.22800546884536743,-0.7429458498954773,0.480155885219574,0.3906174302101135,-0.677501916885376,-0.4497162401676178,-0.6693251132965088,-0.6520731449127197,0.7417117357254028,-0.31460079550743103,-0.49608129262924194,-0.18693991005420685,-0.6793463826179504,0.24256089329719543,0.14788192510604858,-0.1447703093290329,0.291390061378479,0.6797366142272949,0.5425286293029785,0.17640912532806396,-0.718311071395874,-0.7176142334938049,-0.2113335132598877,-0.5552599430084229,-0.10512358695268631,0.2051152139902115,0.718317985534668,-0.685086727142334,0.4671727120876312,-0.384234756231308,0.2920442521572113,0.10800684243440628,-0.00864094402641058,0.10579384118318558,0.022415347397327423,0.1697087287902832,0.6005176305770874,0.25143200159072876,-0.38005879521369934,0.2964641749858856,-0.01846170984208584,-0.28518280386924744,0.33721816539764404,0.07290574908256531,-0.2654727101325989,-0.7420361042022705,-0.3603118062019348,0.07532436400651932,-0.6504993438720703,0.39952385425567627,0.26509183645248413,0.6685572266578674,0.24212715029716492,-0.6952816247940063,0.2792327105998993,-0.13522876799106598,0.4649433195590973,-0.49200505018234253,-0.08602864295244217,0.43533846735954285,0.052044350653886795,0.10260938107967377,0.3814451992511749,-0.5212033987045288,0.1701008677482605,-0.5047527551651001,0.06609120965003967,-0.19497612118721008,0.3699741065502167,0.4550851285457611,0.49926379323005676,0.7020896077156067,-0.12614856660366058,-0.39564359188079834,0.17135244607925415,-0.21536099910736084,-0.5477237701416016,0.011169997975230217,0.5881437659263611,0.6646683216094971,-0.06843846291303635,0.661176860332489,0.6955893635749817,-0.5079830884933472,-0.5789275169372559,-0.5181244015693665,-0.6782065629959106,0.7106542587280273,0.5090810060501099,-0.11167310178279877,0.7223942279815674,0.746260941028595,0.3644149899482727,0.08213658630847931,-0.034363098442554474,-0.10272549837827682,-0.5099935531616211,0.3833441138267517,0.3864016532897949,-0.47507843375205994,0.45927414298057556,0.28475213050842285,0.5534495711326599,0.6794027090072632,0.31828710436820984,-0.6221638917922974,0.17296268045902252,-0.7000064253807068,0.6412442326545715,-0.013034608215093613,0.262881338596344,0.014132686890661716,-0.5774193406105042,-0.17824682593345642,0.010740794241428375,0.7343050837516785,0.2598418891429901,-0.37041959166526794,0.6227807998657227,0.30371859669685364,0.007396795321255922,0.30872783064842224,0.049345917999744415,0.371291846036911,-0.12800785899162292,-0.19745217263698578,-0.0456850565969944,0.30640092492103577,-0.13246682286262512,0.652411937713623,0.02721528522670269,0.4905010461807251,0.18594904243946075,0.7286824584007263,0.20309926569461823,-0.6884694695472717,-0.7183992862701416,0.07663775235414505,-0.42352110147476196,0.5163495540618896,-0.398021399974823,-0.4548940658569336,-0.2896767556667328,-0.7011993527412415,0.28294557332992554,0.5036352276802063,-0.22359059751033783,0.2224324494600296,-0.03368298336863518,0.5406205058097839,0.36579954624176025,0.5646231174468994,-0.11245902627706528,0.07525599002838135,0.5254138112068176,0.2888200879096985,-0.25916096568107605,0.009236715734004974,-0.05697842314839363,0.011795759201049805,0.6217135787010193,0.3150886297225952,0.6000171899795532,0.2832719087600708,0.4403022229671478,-0.2570498585700989,0.2179325968027115,0.3302138149738312,-0.3360452353954315,-0.006513544823974371,0.6165738105773926,0.029939647763967514,-0.3110732436180115,0.6272250413894653,0.43278688192367554,0.041590187698602676,0.721817672252655,0.30602967739105225,0.4901694655418396,-0.5748077034950256,-0.4944824278354645,0.26503756642341614,0.5853824019432068,-0.700486958026886,-0.15587766468524933,0.4801081717014313,-0.3147266209125519,-0.3216143846511841,-0.5624414086341858,0.7273569703102112,-0.5467482209205627,-0.5428823232650757,-0.23891034722328186,0.362931489944458,-0.4624582827091217,0.5536446571350098,-0.5847226977348328,0.6137403845787048,0.1929461807012558,-0.04120190069079399,-0.7177352905273438,0.04248146712779999,-0.6221984624862671,-0.3994790017604828,-0.42528435587882996,0.136564701795578,0.4062277376651764,-0.524736762046814,0.44857481122016907,-0.46902620792388916,-0.7435713410377502,-0.03628003969788551,-0.21489523351192474,0.6049378514289856,0.4387146532535553,0.3566271960735321,-0.21783152222633362,0.5994538068771362,-0.49965396523475647,0.12149453908205032,-0.5156577229499817,0.257645845413208,-0.7015407085418701,0.23834830522537231,-0.12112770974636078,-0.16341829299926758,0.0784226506948471,0.46380704641342163,-0.14825035631656647,0.17696720361709595,0.680185854434967,0.6331132054328918,-0.4385301172733307,-0.232145294547081,-0.5686115622520447,0.5982494950294495,-0.05768248811364174,0.1285502314567566,0.7266431450843811,-0.013551187701523304,-0.7292978167533875,0.5494726896286011,0.36326390504837036,-0.08554411679506302,0.016193728893995285,0.09178657829761505,-0.4494878053665161,-0.4434301257133484,-0.6082560420036316,0.45645347237586975,0.4141186773777008,-0.4687826335430145,-0.6413277387619019,0.24141529202461243,0.10019978880882263,0.1534690260887146,0.11634302884340286,0.529611349105835,0.022614946588873863,0.48257002234458923,0.0010663665598258376,-0.7297605872154236,-0.4599290192127228,0.2685529589653015,0.12064696103334427,0.38748037815093994,-0.40462955832481384,0.40688401460647583,0.702763020992279,-0.4453372657299042,0.6320719122886658,0.2890093922615051,0.36192604899406433,-0.26818645000457764,0.4661065936088562,0.22068943083286285,-0.2686622440814972,0.48980283737182617,0.3293644189834595,-0.32629331946372986,0.1637028306722641,0.42330995202064514,0.37285467982292175,-0.5072556734085083,-0.12961585819721222,-0.4563739001750946,0.5282135605812073,0.5746897459030151,-0.6497707366943359,0.19697372615337372,-0.30362173914909363,0.1504402607679367,0.22013288736343384,-0.03318237513303757,-0.49355965852737427,0.5360479950904846,0.5622560977935791,-0.16887511312961578,0.3099212646484375,-0.01666102558374405,0.4113224744796753,0.564935564994812,-0.33850976824760437,-0.28460565209388733,-0.6801436543464661,-0.3181469440460205,0.4134216606616974,-0.1051669716835022,0.6877934336662292,-0.3591998517513275,0.49710533022880554,-0.17392593622207642,-0.6086820960044861,-0.7284033894538879,0.7462593913078308,0.1754961609840393,0.4130514860153198,0.3893294930458069,0.6902440786361694,-0.7038542628288269,-0.314029335975647,0.19145426154136658,-0.7490676045417786,0.5672100782394409,0.18628105521202087,0.09775988012552261,0.32927796244621277,0.5072447657585144,-0.5573053956031799,-0.7241877317428589,-0.4476947784423828,-0.41787242889404297,0.08102685958147049,0.25242185592651367,0.31802454590797424,-0.5555755496025085,-0.21323397755622864,0.016112808138132095,-0.31814247369766235,0.7348999977111816,-0.310553640127182,-0.7208383679389954,-0.597682535648346,0.5846814513206482,0.5501874685287476,-0.14079070091247559,0.6758634448051453,0.07357783615589142,0.27471724152565,-0.05612633004784584,0.5728470683097839,0.1355898082256317,0.18654608726501465,-0.39682281017303467,-0.6301171779632568,-0.5910205245018005,-0.3864312469959259,-0.16931113600730896,0.20725075900554657,0.6973884701728821,-0.15138451755046844,0.31831154227256775,0.4058549404144287,-0.11632292717695236,-0.2830202281475067,0.48580068349838257,0.4251615107059479,-0.3550923764705658,-0.6309522390365601,0.19609560072422028,0.19753336906433105,0.061834972351789474,0.2852784991264343,0.43747952580451965,-0.24194352328777313,0.5073128938674927,-0.4067939817905426,-0.5693681836128235,-0.5823323130607605,0.7191882133483887,0.4802350401878357,0.3299090266227722,-0.4611952006816864,-0.4866389036178589,0.6986501812934875,0.31065478920936584,-0.6021138429641724,0.6015161275863647,-0.7176766991615295,0.03361119329929352,-0.21464793384075165,0.22770066559314728,0.641731321811676,0.040393274277448654,0.5467183589935303,0.525296151638031,-0.6906038522720337,0.34502995014190674,-0.6590449810028076,0.5092346668243408,0.659609317779541,0.43025103211402893,-0.5775176882743835,-0.3312843143939972,-0.48439913988113403,-0.017507323995232582,0.03385527431964874,0.6825847029685974,0.14717242121696472,0.5126181840896606,-0.5537306070327759,0.6501473188400269,0.5335689187049866,0.29000338912010193,-0.5337187647819519,-0.2645690143108368,-0.22476592659950256,-0.6657869219779968,-0.5762560963630676,0.11497834324836731,0.34087711572647095,0.6268056631088257,-0.011119882576167583,0.38914814591407776,0.4834915101528168,-0.535781741142273,0.46643751859664917,0.37359926104545593,-0.18756400048732758,-0.5189787745475769,-0.6101857423782349,0.06138574331998825,0.6689132452011108,-0.4146517813205719,-0.4296491742134094,-0.08949048817157745,-0.6332768201828003,0.6055822968482971,-0.5143294930458069,0.5980916023254395,0.3245759606361389,-0.3719884753227234,0.7108716368675232,0.22676485776901245,0.5172293186187744,0.4431169033050537,-0.6080307364463806,-0.20841574668884277,-0.6899927854537964,0.3092527687549591,0.3693258762359619,-0.13437923789024353,-0.1919645518064499,-0.5217846035957336,0.5131024718284607,-0.16282185912132263,0.41341593861579895,-0.15880611538887024,0.32508960366249084,-0.47033607959747314,0.10092400759458542,0.3934203088283539,-0.26984819769859314,0.25626257061958313,-0.3184022009372711,0.721409261226654,0.09250909090042114,0.023788364604115486,0.2397698611021042,-0.21256506443023682,-0.6322035193443298,0.3809671103954315,0.275016188621521,0.3162311017513275,0.6728965640068054,0.41391438245773315,0.24655622243881226,0.39911580085754395,-0.13472963869571686,-0.22914597392082214,0.7244810461997986,0.5193183422088623,-0.502230703830719,0.16555528342723846,-0.10093839466571808,0.26217615604400635,0.4755004644393921,0.03759792074561119,-0.2628243863582611,-0.5887168049812317,0.5354978442192078,-0.3389972746372223,0.32639774680137634,0.4402795135974884,-0.17150039970874786,-0.3690757155418396,-0.486907958984375,0.20680204033851624,0.2869010865688324,-0.5247861742973328,-0.02334362454712391,0.5848620533943176,0.1332864761352539,-0.2110075205564499,-0.14313112199306488,0.398441344499588,0.6425930857658386,0.45760899782180786,0.5811374187469482,-0.048729971051216125,0.5436252355575562,-0.5465016961097717,-0.68244469165802,-0.6012224555015564,0.05610712990164757,-0.14293912053108215,0.6930552124977112,0.02855703793466091,0.730953574180603,-0.5437601208686829,0.003010776825249195,-0.5360234975814819,0.7073194980621338,-0.08456751704216003,0.734595537185669,0.2104518562555313,-0.021909376606345177,-0.15039460361003876,0.6780235767364502,0.4068297743797302,0.39930617809295654,-0.38958024978637695,-0.1381179690361023,0.04630731791257858,0.6366956233978271,0.22760318219661713,-0.03633970022201538,0.26559409499168396,0.4659118056297302,-0.1342078149318695,-0.19816400110721588,-0.6277332305908203,-0.17262744903564453,0.2614247500896454,0.6528076529502869,-0.4853965640068054,-0.11586367338895798,0.36400383710861206,0.13717083632946014,0.48665499687194824,0.4956320524215698,-0.40842339396476746,-0.31799885630607605,0.7263933420181274,0.7356659173965454,-0.6276295185089111,-0.46264323592185974,-0.09730501472949982,-0.24649904668331146,0.006020899396389723,0.37684547901153564,-0.0557994581758976,0.2671903669834137,-0.36165091395378113,-0.2913241386413574,-0.7298638224601746,0.09097601473331451,-0.7250343561172485,-0.36772391200065613,-0.04600956290960312,0.6709537506103516,0.06848857551813126,0.6959486603736877,-0.6880366802215576,-0.46881723403930664,-0.2538558840751648,0.2686587870121002,0.0647379606962204,0.3093438148498535,-0.4634751081466675,-0.12198733538389206,-0.1477157324552536,-0.5917574167251587,0.03597582131624222,-0.6239112615585327,0.06510129570960999,0.27541428804397583,0.6176543831825256,-0.19689705967903137,-0.21913965046405792,-0.4801439642906189,-0.23799939453601837,-0.6499778032302856,0.5575425624847412,-0.5838274955749512,-0.6950401663780212,-0.18467484414577484,-0.003616896690800786,0.2608279883861542,-0.21423673629760742,-0.5019514560699463,0.009579275734722614,-0.7131064534187317,-0.6635919213294983,-0.38075342774391174,-0.3355819582939148,0.6925115585327148,0.7333216667175293,0.14827127754688263,0.5018283724784851,-0.679183840751648,0.6074697375297546,0.5928131341934204,-0.01352588552981615,0.23543384671211243,-0.7403897643089294,-0.00977492704987526,-0.4880902171134949,0.3950435519218445,0.16682720184326172,-0.47033780813217163,0.6343838572502136,-0.4734536111354828,-0.20028838515281677,0.6719892621040344,0.6922739148139954,0.2916664779186249,0.6619576811790466,-0.3461204469203949,0.670740008354187,0.3728705942630768,-0.3618169128894806,-0.14168599247932434,-0.15601129829883575,0.11609657108783722,0.12527641654014587,-0.47267335653305054,-0.32651957869529724,0.5117425322532654,-0.36207568645477295,-0.23632904887199402,-0.042576536536216736,0.3533022701740265,-0.60286945104599,-0.10340411961078644,-0.7070972323417664,-0.014921528287231922,-0.3087332844734192,-0.44014444947242737,-0.49433180689811707,0.27986016869544983,0.17514927685260773,-0.5287893414497375,-0.6322183012962341,-0.7443529367446899,0.33085909485816956,0.048891108483076096,0.6231086850166321,0.45485472679138184,0.29876452684402466,0.0443156398832798,0.3754787743091583,-0.6908629536628723,0.30063262581825256,-0.17063802480697632,-0.12204940617084503,-0.6314631700515747,0.5162057876586914,-0.6103479862213135,-0.6747466921806335,-0.7274489402770996,-0.02969878725707531,0.5748746395111084,-0.3585105538368225,0.6088874936103821,-0.6227261424064636,0.009759223088622093,0.531650722026825,-0.2823753356933594,0.25656363368034363,0.721326470375061,0.44576406478881836,-0.10881202667951584,-0.17374631762504578,-0.35196301341056824,-0.29848426580429077,0.1481267809867859,0.6454505920410156,0.41103994846343994,-0.00737491250038147,-0.0642150267958641,-0.12961135804653168,-0.355739951133728,0.46376511454582214,0.18695497512817383,0.6657893061637878,-0.21543236076831818,-0.38729235529899597,0.5063541531562805,-0.12158645689487457,-0.0791822150349617,0.04332411289215088,0.43002453446388245,-0.6003220081329346,-0.6493968367576599,0.5356460213661194,0.5114786624908447,-0.09713628888130188,-0.16658055782318115,0.5902556777000427,0.6814544796943665,0.5142565965652466,-0.5000000596046448,0.09426639974117279,0.43705523014068604,0.12442829459905624,0.12925593554973602,-0.07895238697528839,0.2073061317205429,-0.62954181432724,0.31695738434791565,-0.4191317856311798,-0.4585549533367157,0.7498605251312256,-0.09983986616134644,-0.23619137704372406,-0.3997477889060974,-0.5505022406578064,-0.13886180520057678,-0.2793029248714447,0.47565561532974243,-0.301636278629303,0.16510705649852753,-0.3674210011959076,0.40666407346725464,-0.16914024949073792,-0.675005316734314,0.14593467116355896,0.6246486902236938,0.6383471488952637,0.7045431733131409,0.22078672051429749,0.3468998372554779,0.5663154721260071,-0.2942485511302948,-0.683253288269043,0.5316531658172607,-0.48430365324020386,-0.7241860628128052,-0.7202316522598267,-0.15165938436985016,0.21800483763217926,-0.2751070559024811,-0.402628630399704,-0.7281710505485535,-0.2351660430431366,-0.2477262169122696,0.25486648082733154,-0.11393040418624878,-0.7119337916374207,0.023574501276016235,-0.17429466545581818,-0.5429245233535767,0.342414915561676,-0.45759448409080505,-0.5835205316543579,-0.027161840349435806,0.13078591227531433,0.1999252736568451,0.5659096837043762,-0.35464900732040405,-0.0672634020447731,-0.3678978681564331,-0.6669449210166931,0.5991083383560181,-0.41600048542022705,-0.5062371492385864,-0.04237121716141701,0.3762209713459015,0.7026106119155884,0.3318590819835663,-0.5733508467674255,-0.41631942987442017,0.06187109276652336,0.6599767208099365,-0.0512186735868454,-0.7180667519569397,0.7398074865341187,-0.16539360582828522,-0.661017119884491,0.11871162801980972,0.1104259267449379,-0.1931442767381668,-0.04901159554719925,-0.5435662269592285,0.09125527739524841,0.4438834488391876,0.4147084653377533,0.054735466837882996,-0.6824086904525757,-0.38872578740119934,0.19049276411533356,-0.5941104888916016,0.542971670627594,0.04317392408847809,-0.3892677128314972,0.7272796630859375,0.5356744527816772,0.5494702458381653,-0.23746749758720398,-0.05148414894938469,-0.3257024586200714,0.4238053262233734,0.15032921731472015,-0.19006818532943726,0.44867032766342163,-0.30962297320365906,0.4118095934391022,-0.5711990594863892,-0.4728018343448639,0.4192785322666168,-0.09114168584346771,0.627396285533905,-0.2036547064781189,0.03358883783221245,0.07879670709371567,-0.28811222314834595,-0.3259289562702179,0.6888329386711121,-0.4655753970146179,-0.36239320039749146,0.3311941921710968,0.5107406973838806,0.06175343319773674,0.5723377466201782,0.03998461738228798,0.1841975897550583,-0.6181364059448242,-0.015100518241524696,0.6840881705284119,0.22912457585334778,-0.013582427985966206,0.6769116520881653,-0.005550815723836422,-0.3406311869621277,-0.05622822418808937,0.059526555240154266,-0.7076328992843628,0.7088454961776733,-0.278052419424057,0.6874023079872131,0.42059236764907837,-0.6992002725601196,0.6118062734603882,0.47983697056770325,-0.5144005417823792,-0.18536849319934845,-0.5298184752464294,0.29621216654777527,0.5571746826171875,0.4577043652534485,0.37805691361427307,0.1990402340888977,0.6792929768562317,-0.19751566648483276,0.10799957066774368,0.32614320516586304,0.34481990337371826,0.4451720118522644,-0.340445339679718,0.7191910147666931,-0.4141252636909485,0.3104687035083771,-0.11085182428359985,-0.3915155231952667,-0.43106356263160706,-0.12317230552434921,-0.3828278183937073,-0.10792006552219391,0.26655805110931396,0.5030489563941956,0.6337049007415771,-0.5919666886329651,-0.16606034338474274,0.6909539699554443,-0.4637419879436493,-0.22887691855430603,0.6315878629684448,-0.6061290502548218,0.0034475100692361593,-0.6590179204940796,0.38831499218940735,-0.4295998215675354,-0.5573132634162903,-0.44402122497558594,0.650520384311676,-0.6355350613594055,-0.26009055972099304,0.06283605098724365,0.6432381272315979,-0.34358492493629456,-0.42365482449531555,0.6132400631904602,-0.7455162405967712,-0.18669946491718292,-0.3631945550441742,-0.7328867316246033,0.49422451853752136,0.000382402038667351,0.38495349884033203,-0.05490749701857567,0.30547064542770386,-0.37226396799087524,0.1592695713043213,0.6020352244377136,0.054497744888067245,-0.2791053056716919,0.3577342629432678,0.2142934799194336,-0.4132942259311676,-0.509344220161438,-0.20274771749973297,0.3748106062412262,0.18798865377902985,0.0455455519258976,0.03760882094502449,0.09275300800800323,0.03623536229133606,-0.0654357299208641,0.6898210048675537,-0.12638314068317413,0.6111437082290649,0.6788882613182068,-0.054654717445373535,0.4801246225833893,0.4956950545310974,0.27774661779403687,-0.19983722269535065,-0.0053447820246219635,-0.7354711890220642,0.1265501230955124,-0.5831111669540405,-0.1633165329694748,0.4286993741989136,0.007003725506365299,-0.4050132930278778,0.0032145832665264606,0.3127528131008148,-0.5243530869483948,-0.033018868416547775,0.6409912109375,-0.519914448261261,-0.1406729370355606,-0.4357171058654785,0.3303002119064331,0.13505616784095764,0.5042645931243896,-0.7282775640487671,-0.16779223084449768,-0.20505556464195251,0.490446001291275,-0.6177999377250671,0.6447879076004028,0.015236010774970055,-0.4913133978843689,0.4414568841457367,0.10160309076309204,0.6075093746185303,0.23032571375370026,0.048443567007780075,-0.29334819316864014,0.26259249448776245,0.10874565690755844,0.6069862246513367,0.3058631718158722,-0.042784541845321655,0.06196761876344681,-0.19700828194618225,0.2867022156715393,-0.4449617564678192,0.5188262462615967,-0.6362203359603882,-0.6922230124473572,-0.6866170763969421,0.12797419726848602,-0.2208661288022995,0.6150907874107361,0.36614930629730225,0.31714004278182983,0.5762544870376587,0.5889514684677124,0.04988422989845276,0.37527182698249817,-0.34604331851005554,0.04982197284698486,-0.42541125416755676,-0.5388235449790955,-0.09032946079969406,-0.5962358117103577,0.5192173719406128,0.7023296356201172,0.22684623301029205,0.7235403656959534,-0.33298012614250183,0.282976359128952,0.32313212752342224,-0.024666259065270424,0.5452963709831238,-0.14242053031921387,-0.20975375175476074,0.5118375420570374,0.3268054723739624,-0.013059910386800766,-0.4513784646987915,-0.2944830060005188,0.6404275298118591,0.09203799068927765,0.6759969592094421,0.5159081220626831,0.39240342378616333,0.1031852439045906,-0.2914493978023529,-0.2133171111345291,0.20014846324920654,0.4893018305301666,-0.7300354838371277,-0.6177961230278015,0.4785846471786499,0.22037428617477417,0.19482502341270447,-0.3371911346912384,-0.34288471937179565,-0.34670290350914,-0.7092328071594238,0.679568886756897,0.44264501333236694,-0.10464556515216827,0.1773708313703537,-0.30446287989616394,-0.29344508051872253,0.4140368402004242,-0.5600123405456543,-0.3676057457923889,0.5859429240226746,-0.5015162825584412,0.20851309597492218,0.33718422055244446,-0.2635054588317871,0.36179518699645996,0.24375011026859283,0.0020367270335555077,0.02123894914984703,-0.040851958096027374,0.5070006847381592,-0.1509331613779068,-0.4246661961078644,-0.2599869668483734,-0.049767497926950455,0.65633225440979,0.45035120844841003,-0.4600379467010498,0.5495018362998962,-0.651102602481842,0.3481135666370392,-0.3900476098060608,0.3255215287208557,0.32902151346206665,-0.5539124011993408,-0.7186537981033325,-0.3229396939277649,0.2747097909450531,0.4556475281715393,0.44453510642051697,0.4518136978149414,-0.5128998756408691,0.36825671792030334,0.6298936009407043,0.6772317886352539,-0.6070586442947388,-0.2850216031074524,0.3870258927345276,-0.39556244015693665,-0.207535520195961,0.26887577772140503,0.4979941248893738,0.39950045943260193,-0.034317001700401306,0.3141798675060272,-0.690447986125946,-0.15261228382587433,-0.38917478919029236,-0.47540920972824097,0.1476784199476242,-0.5557482838630676,-0.1191476508975029,-0.6196923851966858,-0.5017812848091125,0.6037247776985168,-0.04249700903892517,0.03317974880337715,-0.6930888891220093,-0.5388781428337097,-0.4394319951534271,0.5313289761543274,-0.6942843794822693,-0.6516582369804382,-0.5331214070320129,-0.32489344477653503,-0.14354154467582703,0.422357976436615,-0.11997313052415848,-0.5410779714584351,-0.21315178275108337,0.2258615791797638,0.2771657407283783,0.04634213447570801,-0.12921886146068573,0.18215501308441162,0.626686155796051,0.4351358413696289,0.2900254726409912,0.05502159893512726,0.6072515845298767,-0.3442080318927765,0.3189983665943146,-0.20185044407844543,-0.485415518283844,0.25023624300956726,-0.551019549369812,0.3005865514278412,0.2459639459848404,-0.5027042627334595,-0.6737500429153442,-0.6990635991096497,0.08855865150690079,-0.28244873881340027,-0.2744525372982025,-0.4335792362689972,0.7148776054382324,0.7369218468666077,0.29002562165260315,0.44130125641822815,-0.41642728447914124,0.3124830424785614,-0.6080512404441833,-0.5424731373786926,0.14052802324295044,-0.5855512619018555,-0.17470507323741913,-0.0616275817155838,0.5617606043815613,-0.032834868878126144,-0.22080837190151215,0.3299584984779358,0.5943297147750854,0.3633109927177429,-0.40432682633399963,0.7056543827056885,0.7115728259086609,-0.3752199113368988,0.12211672216653824,-0.3249801993370056,0.3366454839706421,-0.06074638292193413,-0.3435262143611908,0.2726137936115265,0.15576253831386566,-0.28026360273361206,0.20305867493152618,-0.0953943058848381,-0.44573792815208435,-0.675910234451294,-0.36438116431236267,0.5093916058540344,0.48224928975105286,0.6982777714729309,-0.04678451269865036,0.6354556679725647,0.23681281507015228,0.028309375047683716,-0.2966262400150299,0.08193881064653397,-0.37157347798347473,0.553518533706665,0.5461031794548035,0.16399399936199188,-0.3220885097980499,0.14222629368305206,-0.5001986622810364,-0.7485847473144531,0.24533702433109283,-0.5244773626327515,-0.5087228417396545,0.11013660579919815,-0.14749741554260254,0.46069350838661194,-0.0011199048021808267,0.03712165728211403,-0.11518276482820511,0.5007794499397278,0.685316801071167,-0.6043227910995483,-0.36041733622550964,-0.04527449235320091,-0.7003169655799866,0.7378777265548706,0.6579537391662598,0.4583035111427307,-0.14645624160766602,0.7029874324798584,-0.6416314840316772,0.5095365643501282,-0.4361039400100708,-0.5844448208808899,-0.6146224737167358,-0.12940499186515808,0.27714669704437256,-0.7024372816085815,-0.5580433011054993,0.48963356018066406,0.5845401287078857,-0.3153669536113739,0.5197944641113281,0.6875449419021606,0.6470618844032288,-0.4351360499858856,-0.035223037004470825,-0.381827175617218,-0.4057503938674927,0.08950158208608627,0.028319966048002243,-0.5586881041526794,-0.3234061896800995,-0.13459765911102295,-0.10285022854804993,0.4686969220638275,-0.37273678183555603,0.5950853228569031,0.713208019733429,0.44688597321510315,-0.471855103969574,-0.3405727744102478,-0.48581743240356445,-0.6414631009101868,-0.10554179549217224,0.622549295425415,0.44108614325523376,-0.4571594297885895,0.35985177755355835,-0.5029041171073914,0.0069711217656731606,-0.5375711917877197,-0.15331286191940308,-0.7138204574584961,-0.17838209867477417,-0.14195646345615387,0.5441668629646301,-0.47200751304626465,0.2770487368106842,0.4401259422302246,0.3460225760936737,0.609306275844574,0.7354136109352112,-0.5755294561386108,0.06497989594936371,0.0876864492893219,-0.39086419343948364,-0.06736920028924942,0.3584044277667999,-0.3635103404521942,0.3443951904773712,0.39722946286201477,-0.47391653060913086,-0.075892373919487,0.3644190728664398,0.04766133800148964,0.04074183106422424,0.6721211075782776,0.39242810010910034,-0.18398909270763397,-0.3887798488140106,0.6298463940620422,0.2168646603822708,-0.4898720681667328,-0.5792166590690613,-0.417838990688324,0.24130654335021973,0.02066170796751976,-0.15343599021434784,0.05832003429532051,-0.25254902243614197,0.36543864011764526,-0.16956040263175964,-0.49945560097694397,0.5985966920852661,-0.28253835439682007,-0.027048859745264053,-0.5669558644294739,0.4026130139827728,0.5452318787574768,-0.10913113504648209,-0.6819671988487244,-0.5725375413894653,-0.02229214832186699,-0.06907473504543304,0.5662979483604431,-0.20801419019699097,-0.25683048367500305,0.5857976675033569,-0.5918983817100525,-0.6044233441352844,0.5518650412559509,0.6549831032752991,-0.6916021108627319,-0.11696478724479675,-0.045099660754203796,0.7325984239578247,0.6742868423461914,0.15294596552848816,0.685547947883606,-0.1087823361158371,0.2906954288482666,-0.008126599714159966,-0.30106186866760254,0.334814190864563,0.11471744626760483,0.5811553597450256,-0.20912587642669678,0.7493269443511963,-0.1889737844467163,0.5691169500350952,0.7343339323997498,-0.7282372117042542,0.5156639814376831,0.5903766751289368,0.03640269115567207,0.01902942731976509,-0.3890282213687897,0.6644854545593262,-0.2970627546310425,0.48524728417396545,0.7256181240081787,-0.6276233196258545,-0.25335314869880676,-0.17311426997184753,0.063137948513031,-0.608860194683075,-0.4091760814189911,0.20004980266094208,-0.4010334312915802,0.02870342880487442,-0.6610216498374939,0.4033590853214264,-0.49037936329841614,0.4849965572357178,0.4224204421043396,-0.46644526720046997,0.05338619649410248,-0.38178110122680664,-0.546592652797699,0.3449694812297821,-0.1331578940153122,-0.3194073438644409,0.19175875186920166,-0.29906195402145386,-0.6333696246147156,-0.46346694231033325,0.6419427990913391,0.4126735031604767,0.6813915967941284,0.44644272327423096,-0.28296375274658203,0.30559027194976807,0.2713893949985504,-0.7482275366783142,-0.14800326526165009,-0.4909135699272156,0.35939663648605347,-0.5658825635910034,-0.5000202059745789,0.5091844201087952,-0.5593504905700684,0.3569425046443939,0.563839316368103,0.519929826259613,0.10901258140802383,0.6722849607467651,0.1517336219549179,-0.14508937299251556,0.3908994793891907,-0.3966449499130249,-0.04971438646316528,-0.05103646591305733,0.3196641206741333,0.7333429455757141,0.6468403339385986,-0.25147712230682373,-0.03509945049881935,-0.7322243452072144,-0.08830812573432922,-0.33561792969703674,0.7043039798736572,-0.1983976811170578,-0.6635863184928894,0.05401867628097534,-0.1952902376651764,-0.15931257605552673,-0.3971962630748749,-0.6508991718292236,0.6005367040634155,0.6212306022644043,-0.34824100136756897,0.5788471698760986,0.11103937774896622,-0.4962387681007385,-0.467892587184906,-0.37334969639778137,0.5542188882827759,-0.2644452452659607,-0.10903484374284744,-0.09293254464864731,-0.23774290084838867,0.3267747461795807,-0.6716481447219849,-0.6931503415107727,-0.42314159870147705,0.12343858927488327,0.6557372212409973,0.3247937262058258,-0.18917320668697357,-0.13089384138584137,-0.6819767355918884,-0.020413070917129517,0.12846697866916656,0.21628999710083008,-0.6572243571281433,-0.08852352946996689,-0.25305986404418945,-0.1635177731513977,0.6961711645126343,0.42014315724372864,-0.31058937311172485,-0.6823719143867493,-0.7430353760719299,-0.26547855138778687,-0.10651718825101852,0.4219120740890503,0.665980339050293,0.6155446171760559,-0.7036130428314209,-0.05885948985815048,-0.32021111249923706,0.07134826481342316,-0.47690942883491516,-0.3494819104671478,0.3247309625148773,0.636936604976654,0.10931732505559921,0.12629549205303192,0.5915730595588684,-0.2143877148628235,0.5989081859588623,-0.43008047342300415,-0.3058127164840698,0.11628271639347076,-0.2779393494129181,0.5330916047096252,0.677074670791626,-0.6883804798126221,-0.16961385309696198,-0.6702024936676025,0.09311685711145401,-0.38491764664649963,0.37189802527427673,0.612795889377594,0.04973221942782402,0.40087443590164185,-0.394686758518219,0.40746697783470154,-0.03303859010338783,0.2021777629852295,-0.16972693800926208,0.7453867793083191,0.39906129240989685,-0.049970630556344986,0.13034862279891968,0.13678516447544098,-0.7100999355316162,-0.7468729019165039,0.3977857530117035,0.09028635174036026,0.5402145385742188,0.5299734473228455,-0.11430821567773819,-0.2926207482814789,-0.68369460105896,0.12264435738325119,0.6207130551338196,-0.05085265263915062,-0.7319691181182861,-0.10320264101028442,-0.5960689187049866,-0.008852895349264145,-0.6973210573196411,-0.5800909996032715,0.2920377254486084,-0.4272875487804413,-0.575042724609375,-0.11949306726455688,-0.5265125036239624,-0.6683130860328674,-0.28443166613578796,-0.6112856864929199,-0.41193458437919617,0.08552725613117218,-0.6693626642227173,0.07930442690849304,0.026071030646562576,-0.04477117210626602,0.29845061898231506,-0.5719655752182007,0.43574151396751404,-0.340899795293808,-0.7302483320236206,0.13474835455417633,-0.1527019590139389,-0.6419087052345276,0.743668258190155,0.5278409719467163,0.511834979057312,0.20532001554965973,0.09237313270568848,-0.6303268671035767,0.128835991024971,-0.4166646897792816,0.7216507196426392,-0.08780578523874283,0.17167481780052185,-0.41660934686660767,-0.39166778326034546,-0.5969176292419434,0.21286572515964508,0.10633164644241333,-0.19281506538391113,0.1976553499698639,0.3288176357746124,0.5371963977813721,0.20202472805976868,0.5419082045555115,-0.4267219603061676,-0.45310550928115845,0.6919082999229431,-0.3031672239303589,-0.18603776395320892,-0.08804713934659958,-0.4382615387439728,0.5488398671150208,-0.12557098269462585,-0.5857935547828674,-0.4428565502166748,-0.17930297553539276,0.6543119549751282,-0.2593543231487274,0.4573952257633209,0.002740143332630396,0.29361242055892944,-0.6911675333976746,0.3258682191371918,0.19460877776145935,0.04855438321828842,-0.6808949112892151,0.06941626965999603,-0.49230504035949707,0.4179389178752899,0.7317458987236023,0.5247231125831604,-0.1367611587047577,0.5262154340744019,-0.4474528431892395,-0.23053959012031555,0.546619176864624,0.14811955392360687,0.1945347934961319,0.21847397089004517,-0.5781629085540771,0.03712347894906998,-0.4529160261154175,-0.6905477643013,-0.12971918284893036,0.05839284509420395,-0.5538843274116516,-0.418335497379303,-0.5699300169944763,-0.11168935894966125,0.259029746055603,0.13265395164489746,-0.05495129153132439,-0.439790815114975,-0.006432234309613705,-0.32396891713142395,0.5307087302207947,-0.28007444739341736,0.4229469895362854,-0.6518047451972961,-0.5609311461448669,-0.12011847645044327,0.1696307510137558,0.6718078851699829,-0.45348018407821655,0.43912413716316223,0.6961351633071899,-0.0829286277294159,0.04809213802218437,-0.5635234713554382,0.060830336064100266,0.4825020432472229,-0.31629955768585205,-0.3684788644313812,-0.35477182269096375,0.07793382555246353,0.33845430612564087,0.6165973544120789,0.23188845813274384,0.41837164759635925,0.1711127609014511,-0.6944122910499573,-0.22274602949619293,-0.09770689159631729,-0.3507601022720337,0.24739821255207062,0.2014896124601364,-0.033479493111371994,0.6507348418235779,0.1964508444070816,-0.1708821803331375,0.5850846171379089,-0.009189104661345482,0.6104639768600464,-0.3580067753791809,0.568575918674469,-0.4199790954589844,-0.41683223843574524,-0.698921263217926,0.08245881646871567,0.6023207306861877,0.39540183544158936,0.5142336487770081,0.28418004512786865,-0.2966310977935791,0.6748245358467102,0.39867928624153137,0.3037400543689728,0.2294607311487198,-0.4692671597003937,0.7246056199073792,0.34628531336784363,0.6097425818443298,0.16592416167259216,0.3288875222206116,-0.038240425288677216,0.14825429022312164,-0.1615881472826004,-0.5004337430000305,-0.5865723490715027,-0.0825514867901802,0.39541295170783997,-0.6762000322341919,0.01987362466752529,-0.5878662467002869,0.7076890468597412,0.44460105895996094,-0.07364711165428162,0.07247947156429291,-0.379931777715683,-0.16878849267959595,-0.3098283112049103,-0.036545369774103165,0.7272348403930664,0.2075209617614746,0.2566433250904083,-0.05452617257833481,-0.47711458802223206,0.14098413288593292,0.45759645104408264,-0.6806016564369202,-0.3373235762119293,0.09198412299156189,-0.044207457453012466,-0.6198268532752991,0.42740684747695923,0.3896360993385315,0.6655504107475281,-0.43009719252586365,-0.147364541888237,-0.051482971757650375,0.26317447423934937,0.4937649369239807,-0.08211846649646759,0.5529563426971436,0.21896298229694366,-0.44270938634872437,-0.4442288279533386,-0.39975669980049133,0.3143894076347351,0.5352210402488708,0.3841415047645569,0.1855851113796234,-0.6322062611579895,0.5028675198554993,-0.49706846475601196,0.4817543029785156,-0.6480816006660461,-0.37316057085990906,0.20876526832580566,0.2748739421367645,0.6593142151832581,0.4295896291732788,0.639403223991394,0.7293077111244202,0.21650120615959167,-0.167031392455101,0.11600670218467712,-0.4928339719772339,0.5666897296905518,-0.6123086810112,0.570286750793457,0.4971650540828705,-0.02773008868098259,0.22852779924869537,0.10104319453239441,-0.37471696734428406,-0.23608946800231934,-0.3504698872566223,-0.2468336820602417,0.4455130100250244,-0.15497732162475586,0.5211823582649231,0.2281886637210846,-0.027957739308476448,0.09872521460056305,-0.17896969616413116,0.20880167186260223,-0.558387815952301,0.6622910499572754,0.20268867909908295,-0.4777907729148865,-0.10714729130268097,0.28794121742248535,-0.2474394291639328,0.5700459480285645,-0.47675126791000366,-0.16324776411056519,-0.4043639600276947,0.2395099550485611,0.6879632472991943,0.5910471677780151,0.5422897934913635,0.7291790843009949,-0.3276123106479645,-0.17863601446151733,0.14930112659931183,-0.21935845911502838,0.5889041423797607,-0.06553222984075546,-0.5285208225250244,-0.5551409125328064,-0.7037968635559082,-0.6788034439086914,0.6617172956466675,-0.25717756152153015,0.7170734405517578,0.5211226344108582,0.16538868844509125,0.1413601040840149,-0.5177075862884521,-0.2002885490655899,0.6305012106895447,0.6984302997589111,-0.5259344577789307,-0.36999383568763733,-0.6288269758224487,-0.6711705327033997,-0.16735856235027313,0.3885447680950165,-0.4683470129966736,-0.19698964059352875,0.4426156282424927,0.41897013783454895,-0.44377580285072327,-0.5982078313827515,-0.3292973041534424,-0.007073676213622093,0.4908201992511749,0.6088791489601135,-0.5027949810028076,0.15152865648269653,-0.1595180630683899,0.6124978065490723,0.2297029197216034,-0.24466343224048615,0.04973173886537552,-0.3381454646587372,0.554004430770874,0.7203954458236694,0.1198125034570694,-0.3975064754486084,0.4888014495372772,-0.29557862877845764,0.4737613797187805,0.05058715492486954,-0.5986230373382568,0.4631524384021759,0.4055843949317932,-0.43228116631507874,0.5661944150924683,-0.6816748976707458,-0.599151074886322,-0.6179248094558716,-0.3026823103427887,0.5079630017280579,-0.6087260246276855,-0.4628468155860901,0.6989985108375549,0.15565849840641022,-0.74738609790802,0.328532338142395,-0.13384541869163513,-0.6180551648139954,-0.1338992714881897,0.028777137398719788,-0.33144626021385193,-0.6372941136360168,0.08331923931837082,0.2766960859298706,0.2424687296152115,-0.6106451749801636,0.2665334939956665,-0.41970294713974,0.4546525776386261,0.0661415159702301,0.7131345868110657,-0.38221848011016846,-0.10072154551744461,-0.249391570687294,0.5778075456619263,0.33139628171920776,0.47392040491104126,-0.3630498945713043,-0.0678979903459549,0.09824946522712708,-0.29123827815055847,-0.31185922026634216,0.36914587020874023,-0.17649905383586884,0.4498334527015686,-0.28036367893218994,0.03150806576013565,0.5104314088821411,0.15762631595134735,-0.0931708961725235,-0.6086513996124268,0.49229663610458374,0.4608301818370819,-0.7464408874511719,-0.24104420840740204,0.5313246846199036,0.6457417607307434,0.44466960430145264,0.7085535526275635,-0.5183383226394653,-0.7179138660430908,-0.463963121175766,0.23137980699539185,0.1830117553472519,0.3903251886367798,0.0025874332059174776,-0.3994571566581726,-0.028961097821593285,-0.7421711087226868,-0.1400735229253769,0.6394495368003845,0.5172550082206726,0.2417602837085724,-0.2791820466518402,-0.495528906583786,0.5159754753112793,-0.576428234577179,-0.30815696716308594,-0.4456314742565155,-0.6957656145095825,-0.7329843640327454,-0.10317434370517731,-0.4053643047809601,0.5276764631271362,-0.14513762295246124,0.10535431653261185,-0.24240893125534058,0.5151652097702026,-0.43772777915000916,-0.5317401885986328,0.4304400384426117,-0.09072450548410416,-0.13968700170516968,-0.6925660967826843,0.5596076846122742,0.46428510546684265,0.6371928453445435,-0.18989139795303345,-0.2742726802825928,0.5796156525611877,0.05865844339132309,-0.5037322640419006,-0.19372577965259552,0.45269283652305603,0.5422171354293823,-0.21360011398792267,0.08857133984565735,-0.4392404556274414,0.43512651324272156,-0.45031219720840454,0.3575337529182434,-0.18154510855674744,-0.27034270763397217,0.6878671646118164,0.2819109559059143,-0.32311299443244934,-0.06664541363716125,-0.07296299189329147,-0.4829159677028656,-0.12204620987176895,-0.7140608429908752,-0.18963775038719177,-0.3736265301704407,0.6190767288208008,-0.32886672019958496,0.4717614948749542,0.32768362760543823,-0.43449389934539795,-0.5496616959571838,-0.1516730785369873,-0.4623943567276001,0.20251335203647614,-0.16076445579528809,0.4686627984046936,0.36571168899536133,0.25129735469818115,-0.15326926112174988,0.39321255683898926,0.6899217367172241,-0.38243329524993896,0.058239687234163284,0.31768175959587097,-0.08869918435811996,0.23941156268119812,-0.2871772348880768,-0.5977541208267212,-0.4115060567855835,0.6882827281951904,0.7257599830627441,-0.2937433421611786,-0.5811477899551392,0.29532715678215027,0.15296827256679535,0.21403895318508148,0.30732855200767517,0.7263571619987488,-0.6773061752319336,0.4554663598537445,0.36927422881126404,0.2173764705657959,0.06365643441677094,-0.2598269283771515,0.3941609859466553,6.873658276163042e-05,0.21438896656036377,0.12474565953016281,0.32861149311065674,0.17389364540576935,-0.26105159521102905,0.3677418529987335,0.18948298692703247,0.7350210547447205,0.34157270193099976,0.6711339354515076,-0.17554445564746857,0.4972844421863556,-0.4018239974975586,0.507843554019928,0.3229903280735016,-0.17453785240650177,-0.7459533214569092,-0.4985751509666443,0.1309114396572113,-0.5701164603233337,0.2495061457157135,0.4520285725593567,-0.7223271131515503,-0.40021395683288574,-0.01962411217391491,-0.388994038105011,-0.5489753484725952,-0.5685856938362122,0.24710112810134888,-0.5952938795089722,0.6630435585975647,0.6081737279891968,-0.47820740938186646,-0.6858491897583008,-0.7018950581550598,-0.25782835483551025,0.445787638425827,0.6033737659454346,-0.32228946685791016,0.014819156378507614,-0.5407282114028931,0.03703003749251366,0.09557632356882095,-0.6492353677749634,-0.669487476348877,-0.6702802777290344,-0.5703852772712708,0.21156978607177734,0.5957797765731812,0.5279262065887451,0.008319728076457977,-0.5873976945877075,-0.23439817130565643,0.15599125623703003,0.408253937959671,0.5700466632843018,-0.6169167757034302,0.5640402436256409,0.28107768297195435,0.7305428385734558,0.4926426112651825,-0.6080837845802307,-0.5176317095756531,0.2999538481235504,0.719230592250824,0.1497630625963211,-0.1304570436477661,-0.10342587530612946,0.08747529983520508,-0.7495241761207581,0.33292385935783386,-0.2574232518672943,-0.4390674829483032,0.58796226978302,0.5049019455909729,-0.31145673990249634,0.16301672160625458,-0.546211838722229,0.10541606694459915,-0.3732949197292328,-0.28502947092056274,-0.45002907514572144,-0.44642114639282227,0.404683917760849,-0.13869589567184448,-0.37551799416542053,0.3119567036628723,0.03461671620607376,-0.38575831055641174,0.6603307127952576,0.20059208571910858,0.5374972820281982,-0.6720321774482727,0.18446315824985504,-0.36714717745780945,-0.41116461157798767,0.020297899842262268,-0.6732780933380127,0.14433172345161438,0.13092918694019318,0.2160145491361618,-0.00623040646314621,0.07994446903467178,0.11848921328783035,0.09023032337427139,0.22367613017559052,-0.605625331401825,-0.40852975845336914,0.5189335346221924,0.5503126382827759,0.43385785818099976,0.007684042677283287,-0.6167712211608887,-0.17266903817653656,-0.26735350489616394,0.2541988492012024,-0.6760590076446533,-0.48987072706222534,0.2702099680900574,-0.23711512982845306,-0.6948559880256653,-0.6783621311187744,-0.3363451659679413,0.4596956968307495,-0.46660473942756653,-0.12471078336238861,-0.123527891933918,0.21576747298240662,-0.22811879217624664,-0.41596055030822754,0.503928005695343,0.20231880247592926,-0.35094431042671204,-0.3359973132610321,0.0644170492887497,0.00848447810858488,0.4527457058429718,-0.260177344083786,-0.05304524675011635,-0.5188727974891663,-0.2774948477745056,0.42997118830680847,-0.5199034214019775,-0.6893537044525146,-0.5494343042373657,0.5166641473770142,-0.20828963816165924,0.3722463846206665,-0.4552352726459503,-0.17807479202747345,0.1306222677230835,-0.6103566288948059,-0.4151776432991028,0.6127007603645325,0.0776025578379631,0.001789535628631711,0.3463028073310852,-0.2989251911640167,0.6634270548820496,-0.045439742505550385,0.34587475657463074,-0.5946618318557739,-0.3280947804450989,0.7448359727859497,0.7126619815826416,0.5135044455528259,0.25457772612571716,0.7301800847053528,0.2910782992839813,-0.029077716171741486,0.6291331052780151,-0.07398742437362671,-0.15288808941841125,0.6483383178710938,0.5495447516441345,0.6661551594734192,0.1814427673816681,-0.3815450370311737,0.026732077822089195,0.5597237348556519,-0.4493640661239624,-0.6515117883682251,-0.5488700866699219,0.1823909729719162,-0.030665326863527298,0.4116663634777069,0.4708729088306427,0.3760548532009125,-0.7390153408050537,-0.11513295024633408,-0.6474881172180176,0.10370546579360962,0.3743438422679901,-0.39777907729148865,0.009912990964949131,-0.6397854685783386,0.5148341655731201,0.18327432870864868,0.3977578282356262,0.3300412595272064,0.34645095467567444,-0.05074968561530113,0.2676863670349121,-0.4195818305015564,-0.329628586769104,-0.0190411489456892,0.13890871405601501,-0.30895164608955383,0.7497569918632507,-0.6288424134254456,0.635509192943573,-0.4781557619571686,0.1544174998998642,-0.24936093389987946,0.09609753638505936,-0.30256006121635437,-0.22942179441452026,0.435972660779953,-0.1386432647705078,0.061870183795690536,0.49531590938568115,0.7371149063110352,-0.21766974031925201,0.2665523886680603,-0.3255196213722229,-0.39868831634521484,0.3913588225841522,-0.15163680911064148,-0.4044189751148224,-0.2786177098751068,-0.6078121066093445,-0.6946666836738586,-0.6551310420036316,-0.4324082136154175,-0.6249261498451233,0.03156149014830589,0.4180365800857544,-0.17127878963947296,-0.004700373858213425,-0.06411068886518478,0.14534243941307068,0.036319244652986526,0.24709834158420563,-0.24024569988250732,0.048754844814538956,0.6473647356033325,-0.44533172249794006,0.7027906179428101,-0.26611602306365967,-0.5344932675361633,-0.2931725084781647,-0.7047678828239441,0.15202711522579193,-0.3399646282196045,0.20309540629386902,0.19184432923793793,-0.409677654504776,0.5884373188018799,0.3946479558944702,-0.4481825530529022,0.03118920512497425,0.17794741690158844,-0.4408288598060608,0.6720953583717346,0.31170976161956787,-0.65218585729599,-0.6024136543273926,-0.08769811689853668,0.7098538279533386,0.5646052360534668,0.2827592194080353,0.03359034284949303,0.5150378942489624,-0.2582082152366638,-0.32585111260414124,0.09056137502193451,0.21360179781913757,-0.07585673034191132,-0.6568714380264282,0.3295426666736603,0.5893070101737976,-0.6504648327827454,0.1614011824131012,-0.6953704953193665,-0.6972771286964417,0.27639564871788025,-0.3440669775009155,0.43168991804122925,-0.7268642783164978,-0.3321888744831085,0.3166255056858063,-0.7116771936416626,0.28013134002685547,0.6677319407463074,-0.2878594398498535,0.33749330043792725,0.3444206118583679,0.2859943211078644,0.5443832874298096,-0.3319080173969269,0.14436285197734833,0.23394718766212463,-0.616003155708313,0.12153952568769455,-0.541674017906189,-0.28492796421051025,-0.5060458779335022,-0.6892862319946289,-0.17846325039863586,-0.26718252897262573,-0.2484792172908783,0.1114618256688118,0.7494390606880188,0.1067345142364502,0.6643824577331543,-0.13751088082790375,-0.531475841999054,0.6252039670944214,0.13588504493236542,-0.3445914387702942,-0.4518260061740875,-0.1393548995256424,-0.6900209188461304,0.24013377726078033,-0.3594503402709961,0.1987619698047638,0.5337673425674438,-0.6221178770065308,0.47667062282562256,0.06556455045938492,-0.2780691087245941,0.2993261218070984,-0.3994876742362976,0.5349950790405273,-0.7171036005020142,0.04957549273967743,-0.20163914561271667,-0.08404256403446198,0.12365859746932983,-0.26422348618507385,-0.4751378297805786,0.7476687431335449,-0.4524039626121521,-0.7244004011154175,-0.5076774954795837,0.503452718257904,-0.5488171577453613,-0.31623050570487976,-0.236805722117424,-0.6583881974220276,-0.7137387990951538,-0.7188675403594971,0.6627756953239441,0.5968167781829834,-0.25748729705810547,-0.575092613697052,0.16069601476192474,0.5185205936431885,-0.4095665514469147,0.46237683296203613,0.7056209444999695,0.12460315972566605,-0.06257262825965881,-0.05567857623100281,-0.39266058802604675,0.31313377618789673,0.16187024116516113,0.5803029537200928,0.5976163148880005,0.0838504210114479,0.6136231422424316,-0.20758530497550964,-0.3180464208126068,0.600934624671936,0.16989482939243317,0.15886928141117096,0.5761846303939819,-0.13675303757190704,-0.30613353848457336,-0.5118297934532166,-0.16369135677814484,0.6443321108818054,-0.2773139774799347,-0.3414057791233063,0.5764473080635071,-0.18387414515018463,0.0555761344730854,0.014781935140490532,0.3271029591560364,-0.4348069727420807,-0.6299463510513306,-0.13645993173122406,0.41738712787628174,0.5082505345344543,0.6921001076698303,-0.5651788115501404,-0.6231487989425659,0.7162730693817139,-0.13958792388439178,-0.6824643611907959,0.34982961416244507,-0.5786786675453186,0.2881799638271332,-0.1761406809091568,0.1604480892419815,-0.6041224002838135,0.5266890525817871,-0.29176631569862366,-0.6059970855712891,-0.32594096660614014,-0.3422102928161621,0.5821915864944458,0.05074832960963249,0.38917338848114014,-0.3128201365470886,0.36645224690437317,0.6868817806243896,0.3076053857803345,-0.4986785054206848,0.4488612115383148,-0.09119059890508652,0.27637967467308044,0.6171779632568359,0.37955257296562195,0.3829279839992523,0.31680646538734436,0.01357513852417469,-0.7255959510803223,0.15402664244174957,-0.38072875142097473,0.56031733751297,0.5681825280189514,-0.7162309885025024,0.29917511343955994,-0.6739625930786133,-0.311522513628006,-0.05759246647357941,-0.08005717396736145,0.7011730670928955,0.5148777365684509,0.5177747011184692,0.3342798948287964,-0.13147443532943726,-0.527616560459137,0.237346813082695,-0.23134845495224,0.3317851126194,-0.2793281078338623,0.6092531085014343,-0.7161468863487244,0.22199292480945587,0.628609299659729,-0.32834479212760925,0.7265098094940186,0.5052437782287598,-0.24216490983963013,0.3966396749019623,-0.6950833201408386,-0.33570870757102966,-0.4941214919090271,0.7280085682868958,-0.39608505368232727,-0.13363146781921387,-0.5628789067268372,0.014590604230761528,0.6906238794326782,-0.36978620290756226,0.16867895424365997,-0.5387185215950012,-0.144938126206398,-0.2984325885772705,-0.6385033130645752,0.27462708950042725,0.16383366286754608,-0.15386433899402618,0.30347031354904175,-0.578260064125061,0.6035051345825195,-0.4215272068977356,-0.3468707501888275,-0.0543077290058136,-0.4482841491699219,0.10185263305902481,-0.5277002453804016,0.13449934124946594,-0.340520977973938,0.13242179155349731,0.7376007437705994,-0.6156756281852722,-0.15322193503379822,0.49900200963020325,0.5926826596260071,-0.18321551382541656,0.3227839171886444,-0.04952944442629814,-0.3602200150489807,0.052942708134651184,0.13535892963409424,-0.13237759470939636,0.0046325745061039925,-0.5991104245185852,-0.6496158838272095,0.3758046627044678,-0.23678649961948395,-0.4035555422306061,-0.4781935214996338,0.24542194604873657,0.10956975817680359,0.35008057951927185,0.7408339977264404,0.6903119683265686,0.2886370122432709,-0.5290465950965881,0.3787539303302765,0.5912652015686035,0.3907281458377838,0.30701762437820435,0.22965656220912933,0.6102672219276428,0.1932133585214615,-0.36000698804855347,-0.5314421653747559,-0.1258375495672226,0.2795048654079437,0.6659590601921082,-0.34594959020614624,-0.7423468828201294,-0.44852811098098755,-0.5641295313835144,0.25099262595176697,0.6794893741607666,0.09208526462316513,-0.27303510904312134,-0.489142507314682,0.7333012819290161,-0.3898656964302063,-0.7221131324768066,0.2609235346317291,-0.15068002045154572,0.29795557260513306,-0.21295903623104095,-0.6252283453941345,0.34101733565330505,-0.2581304609775543,0.5824322700500488,-0.0904533639550209,-0.20140449702739716,-0.3739190399646759,-0.46742284297943115,-0.04960257560014725,-0.22955924272537231,-0.20895780622959137,-0.6554260849952698,0.6408504247665405,-0.4975659251213074,0.040369149297475815,0.41237926483154297,0.6857911348342896,0.48231837153434753,0.6806999444961548,0.43142202496528625,0.6475194096565247,0.5901383757591248,-0.13918668031692505,-0.4182726740837097,0.5787513852119446,0.038948092609643936,0.033053137362003326,0.7203807234764099,-0.2653137147426605,-0.4917294979095459,-0.7357951998710632,0.14750222861766815,-0.5242787599563599,0.23822884261608124,-0.4902476370334625,0.2761296331882477,0.37170615792274475,-0.7104148268699646,-0.5072553157806396,0.09106304496526718,0.0928606390953064,-0.6601657867431641,0.17821089923381805,0.36563485860824585,-0.24480792880058289,0.38879457116127014,-0.19995838403701782,-0.22694313526153564,0.140380859375,0.6045344471931458,-0.03658800199627876,0.6411799192428589,-0.008945842273533344,-0.24443387985229492,-0.2361351102590561,0.26579731702804565,-0.5134246349334717,-0.3636891841888428,0.39952605962753296,0.7456309795379639,-0.4876209497451782,-0.16623805463314056,0.040030915290117264,-0.05277658626437187,-0.29726722836494446,-0.19044137001037598,-0.6313123106956482,0.4727897047996521,-0.6181221604347229,0.1946219801902771,0.6299652457237244,0.33069315552711487,-0.596998929977417,0.14726358652114868,0.15547269582748413,-0.4806425869464874,0.18642771244049072,0.23214904963970184,0.652033805847168,0.7365397810935974,-0.015476234257221222,-0.3918391466140747,-0.412752628326416,0.07900868356227875,-0.5997885465621948,0.6373383402824402,0.030315600335597992,0.09713041037321091,-0.3908352553844452,-0.6339386701583862,-0.32615426182746887,0.5923038721084595,-0.1658145934343338,-0.73823082447052,-0.011528674513101578,-0.7425560355186462,0.7380629181861877,-0.024227159097790718,-0.6140953898429871,0.33365264534950256,0.36457008123397827,-0.16816894710063934,0.3787998855113983,0.06824265420436859,-0.7304486036300659,0.4978120028972626,-0.2165716141462326,0.36619430780410767,0.4104697108268738,0.6182447671890259,0.23955506086349487,0.37225082516670227,-0.4197724461555481,0.6518779993057251,0.3644014000892639,0.15766002237796783,0.35693323612213135,-0.0821666270494461,-0.5352174639701843,-0.23677866160869598,-0.14115598797798157,0.4545406103134155,0.30588334798812866,0.6468170881271362,-0.27996113896369934,-0.0780598446726799,0.0862322673201561,-0.032822318375110626,0.14808262884616852,-0.40578070282936096,-0.3461381793022156,0.39670228958129883,0.36891987919807434,0.1525186002254486,0.13756349682807922,0.20789368450641632,-0.16684754192829132,-0.11277038604021072,-0.4314618408679962,-0.4614519774913788,-0.718363344669342,-0.4197424650192261,-0.27257585525512695,0.12419971823692322,0.21261107921600342,-0.2000032514333725,-0.15905378758907318,0.44909635186195374,-0.42794591188430786,-0.46349984407424927,0.31371554732322693,-0.19165267050266266,-0.19385622441768646,0.3967262804508209,-0.029805105179548264,0.23688329756259918,-0.4184081256389618,-0.5209276080131531,0.7387143969535828,0.047498054802417755,-0.7319408059120178,-0.4969305396080017,0.5146843791007996,0.47689154744148254,0.23007437586784363,-0.7221841216087341,-0.369356632232666,0.4167632758617401,0.449792742729187,-0.11927720159292221,0.3891047537326813,-0.4699506163597107,-0.35860177874565125,-0.45410895347595215,-0.7375455498695374,-0.08718007057905197,0.7126075029373169,-0.7195375561714172,0.6002524495124817,0.18124617636203766,0.29209139943122864,-0.6326277256011963,-0.5485272407531738,-0.3259551525115967,0.43440884351730347,0.6635885238647461,-0.5335677266120911,-0.01947244629263878,-0.5782980918884277,0.37491321563720703,-0.7466287016868591,-0.29973357915878296,-0.19532348215579987,-0.2032899260520935,0.08025117963552475,-0.1484145224094391,-0.17567682266235352,-0.19198694825172424,-0.3754761517047882,-0.26861104369163513,-0.6323132514953613,-0.1389334499835968,-0.3513277769088745,0.641636073589325,0.49057939648628235,-0.05937240272760391,0.12742362916469574,-0.30409443378448486,0.24126075208187103,-0.490977942943573,-0.6378059387207031,-0.6922010183334351,0.09142202883958817,0.5682054162025452,-0.7447278499603271,-0.44152700901031494,0.6308414936065674,-0.22212332487106323,0.6785258650779724,0.6017975211143494,-0.6616648435592651,0.4015953540802002,-0.18666763603687286,0.17204616963863373,-0.26447659730911255,0.2226032018661499,0.3509794771671295,-0.23411297798156738,0.4431259036064148,0.23915773630142212,-0.6489542126655579,-0.41385582089424133,-0.05605410411953926,-0.4872192144393921,-0.525029182434082,0.23745577037334442,-0.10825413465499878,-0.27246615290641785,-0.6971509456634521,-0.2851031422615051,-0.3853013813495636,0.2433973252773285,0.4209039509296417,-0.33472129702568054,0.4736565053462982,0.31713512539863586,0.45175009965896606,-0.29359230399131775,-0.19561217725276947,0.4587501585483551,-0.7158971428871155,0.4579908549785614,0.23429575562477112,-0.6134741306304932,-0.06618655472993851,0.12511469423770905,-0.5548576712608337,-0.38564959168434143,-0.16574205458164215,0.34093141555786133,-0.22440552711486816,0.43484312295913696,0.6630736589431763,0.1464882791042328,0.4293387532234192,0.513762354850769,0.019247202202677727,0.7390998601913452,0.3185226321220398,-0.4421597719192505,-0.11655467748641968,0.429649293422699,0.6578747034072876,-0.7441797852516174,0.6029433012008667,-0.49315163493156433,0.3576534390449524,-0.5240118503570557,0.4367462694644928,-0.5939959287643433,-0.5285419225692749,0.020267795771360397,-0.5874882936477661,-0.6028116941452026,0.5345198512077332,0.6648069620132446,-0.2150435447692871,0.6681922078132629,-0.34866636991500854,-0.3423755168914795,0.08797262609004974,0.16479213535785675,0.7411864995956421,0.4589554965496063,0.7485887408256531,0.4009123742580414,0.21335509419441223,0.7390624284744263,0.7455410957336426,0.4657318592071533,0.3397594094276428,0.025117743760347366,-0.5277423858642578,0.7100235819816589,-0.5058562755584717,0.06647133827209473,-0.5847591161727905,0.44583964347839355,-0.2644810974597931,-0.3684219419956207,0.19754071533679962,0.6184934377670288,0.5695627927780151,-0.561877429485321,0.4484555125236511,0.1287069469690323,0.11738797277212143,0.5517353415489197,-0.3296789526939392,-0.6791964769363403,-0.6154652237892151,0.3190614581108093,0.11916529387235641,-0.6848932504653931,-0.3902330696582794,0.3742900788784027,-0.12430741637945175,0.15079949796199799,-0.46503740549087524,0.17906290292739868,0.7481228709220886,-0.3766160309314728,-0.050717443227767944,0.5153139233589172,-0.49759531021118164,0.6227933168411255,-0.12295256555080414,-0.434388130903244,0.5461663603782654,0.5465826988220215,0.2235766500234604,-0.34149712324142456,0.3988945186138153,-0.5196777582168579,0.5551732182502747,0.5926400423049927,0.3940492570400238,-0.26196032762527466,0.16753074526786804,0.06731805205345154,0.01992202177643776,0.596489429473877,0.4137919843196869,0.34214234352111816,-0.4094001352787018,0.7088453769683838,-0.46577149629592896,0.04045546054840088,0.5970837473869324,-0.4847991466522217,-0.26747891306877136,0.6384276151657104,-0.17195022106170654,-0.663983941078186,0.0033294223248958588,0.5254067778587341,0.3281889855861664,-0.2497527301311493,-0.4585734009742737,-0.5313341617584229,0.3976612985134125,-0.6427604556083679,-0.10753890872001648,0.2265995293855667,-0.36379531025886536,-0.6272797584533691,0.4140075445175171,0.33262938261032104,0.5352751612663269,-0.2783893644809723,-0.43575119972229004,-0.2772558927536011,0.684465765953064,-0.3326576352119446,0.3766559660434723,0.2384694218635559,-0.06396021693944931,-0.39299407601356506,-0.24761727452278137,-0.34058424830436707,0.4613901376724243,-0.24677042663097382,-0.46793437004089355,0.2968686819076538,0.15544795989990234,-0.6540857553482056,0.6820679306983948,0.5722534656524658,0.6539868712425232,0.15277546644210815,-0.1067616418004036,-0.32307523488998413,0.40552300214767456,-0.3657171428203583,0.7481197118759155,0.6537975072860718,0.649606466293335,0.2997709810733795,-0.6473534107208252,0.3869924545288086,0.5646131038665771,-0.6277211904525757,0.2808942496776581,-0.09018322825431824,0.5897089242935181,-0.6059409976005554,0.22724337875843048,-0.2022332400083542,-0.6975449323654175,-0.41009989380836487,-0.16412773728370667,-0.5790298581123352,0.46933645009994507,0.6336857080459595,-0.15132004022598267,-0.10659187287092209,-0.18994244933128357,-0.5977616310119629,0.48114094138145447,-0.08535435050725937,0.03200192376971245,-0.4397779703140259,0.09704995900392532,0.5023842453956604,0.5584279298782349,0.15181951224803925,0.4404510259628296,0.2927444279193878,-0.14260904490947723,0.3862444758415222,0.1100078821182251,-0.6624467372894287,-0.0437949039041996,0.6266761422157288,0.09723640233278275,0.6117914319038391,-0.7497408986091614,-0.14296603202819824,-0.022757362574338913,0.3169325590133667,0.5933756828308105,0.31534484028816223,0.47757095098495483,0.5118217468261719,-0.1311873197555542,-0.2851925790309906,-0.6342450976371765,0.09787855297327042,-0.3606857359409332,0.43266531825065613,0.12961828708648682,0.6763622164726257,0.6171825528144836,0.4901786148548126,0.5573446154594421,-0.11270496994256973,-0.4185259938240051,0.2108103483915329,-0.5855731964111328,-0.3693501055240631,-0.5775583386421204,0.5670552849769592,0.3118935823440552,0.04165186360478401,-0.12076243758201599,0.09932741522789001,-0.4111636281013489,0.38095352053642273,-0.4150645136833191,0.49564990401268005,-0.5149979591369629,0.6111273765563965,-0.033564720302820206,-0.5417352914810181,0.4923582375049591,-0.15202859044075012,-0.020296309143304825,-0.3621436655521393,0.5323103070259094,-0.22859635949134827,-0.3007327616214752,0.014956447295844555,-0.47884753346443176,-0.29217642545700073,-0.23686635494232178,-0.29713210463523865,0.08151650428771973,0.6945590972900391,0.5043696165084839,0.4149327278137207,0.5976220965385437,0.47267502546310425,0.4142780601978302,-0.2865125834941864,0.28434649109840393,-0.47163382172584534,0.6154657602310181,-0.20024152100086212,-0.25680652260780334,0.739363431930542,-0.16398373246192932,-0.5376644134521484,-0.28910765051841736,-0.1067323088645935,0.37609297037124634,0.4967823326587677,-0.13818712532520294,-0.2400059849023819,0.5173640847206116,-0.6725149750709534,-0.5696759223937988,-0.1935785710811615,-0.747557520866394,0.28412073850631714,-0.06710255146026611,-0.4771902561187744,-0.6358333826065063,-0.10053504258394241,-0.7196828126907349,-0.5957862734794617,0.38458800315856934,-0.3370477557182312,0.7290025949478149,0.06931602209806442,-0.5250383019447327,0.34552866220474243,0.523490846157074,-0.1705603003501892,-0.33626219630241394,-0.5878953337669373,0.38874655961990356,-0.5285025238990784,0.38049325346946716,0.42808181047439575,-0.612267792224884,-0.2743229568004608,-0.4592055380344391,-0.3747633099555969,0.7417030930519104,0.3303704559803009,-0.5266896486282349,0.19287797808647156,-0.37454643845558167,-0.6780218482017517,-0.3891253173351288,-0.3599342405796051,-0.11746393144130707,-0.6474319100379944,0.3040390610694885,0.43552765250205994,0.4966365396976471,0.4604763388633728,-0.2837375998497009,-0.5856212973594666,-0.14644759893417358,-0.008593362756073475,0.3636302649974823,-0.686754047870636,-0.7090547680854797,-0.1120111420750618,-0.4595843255519867,-0.5559865236282349,0.5588510632514954,-0.20166648924350739,-0.6395933628082275,-0.39464041590690613,0.3922834098339081,-0.4982001483440399,0.38833823800086975,-0.6978101134300232,-0.7427535653114319,-0.5569964051246643,-0.07635167241096497,-0.31133368611335754,0.6213725209236145,-0.0955595150589943,0.6466902494430542,-0.010385597124695778,0.6204745173454285,-0.49824991822242737,0.654201328754425,-0.4553939700126648,-0.3188834488391876,0.2416040301322937,0.1286424845457077,0.671576738357544,0.41043412685394287,-0.28768259286880493,-0.04659375548362732,0.449385404586792,0.6820608973503113,-0.15221473574638367,-0.7493230700492859,-0.28004106879234314,0.36664628982543945,-0.7186691761016846,-0.23145419359207153,0.012197352014482021,0.5988104343414307,-0.26973196864128113,-0.23039716482162476,0.4301878809928894,0.36579886078834534,-0.6861796975135803,-0.3067210018634796,0.17715834081172943,-0.09331094473600388,-0.4718261957168579,-0.26500025391578674,0.17658142745494843,0.510234534740448,0.19930806756019592,0.6823563575744629,-0.6283440589904785,-0.03017829917371273,-0.1028362587094307,0.33522793650627136,-0.5433490872383118,0.4298055171966553,-0.5232682228088379,-0.5404507517814636,-0.5940960645675659,0.26308533549308777,0.5540142059326172,-0.2421809732913971,-0.4576265811920166,0.20778965950012207,-0.5940885543823242,0.2296515852212906,0.43156325817108154,0.5565152764320374,0.5362363457679749,-0.5437017679214478,0.22957541048526764,0.45268481969833374,-0.5175029039382935,0.16325601935386658,-0.3950209319591522,0.5027979016304016,0.6154510974884033,0.68791663646698,0.08040183037519455,-0.4132695496082306,-0.4367540776729584,-0.5059078335762024,-0.5516456961631775,0.3313916027545929,-0.25106337666511536,0.5985426902770996,0.3935662806034088,0.5267653465270996,-0.2840365469455719,0.5612764358520508,0.14188948273658752,-0.5387454628944397,0.02366754040122032,0.7308351993560791,0.34156009554862976,-0.6007035970687866,-0.3442644476890564,-0.4951137602329254,0.3090745806694031,0.35009756684303284,0.7451353073120117,-0.4865322709083557,0.3610471785068512,0.03661010041832924,0.6746701002120972,-0.13421432673931122,0.2390744835138321,-0.02905186079442501,-0.4336339235305786,0.45809367299079895,0.4064573347568512,-0.5027017593383789,0.4927975833415985,0.2853200435638428,-0.43186265230178833,0.217967689037323,-0.016401272267103195,-0.5286858677864075,0.17096035182476044,0.19909492135047913,-0.45187684893608093,0.2083667814731598,-0.6411356925964355,-0.28761744499206543,0.5905378460884094,-0.3957180380821228,0.6373635530471802,-0.16916263103485107,-0.465534508228302,-0.19661137461662292,-0.7096150517463684,-0.23514622449874878,0.3091396689414978,0.0794280394911766,-0.19568634033203125,0.6913487911224365,0.01247724425047636,0.46687668561935425,0.18622876703739166,-0.2809726893901825,0.6959494948387146,0.5600858926773071,0.29809513688087463,0.6431559920310974,0.693475604057312,-0.2651491165161133,-0.17921321094036102,-0.06193046271800995,0.2785662114620209,0.6996208429336548,-0.5677580237388611,-0.4000644385814667,-0.4151577055454254,0.2808077037334442,-0.07618927210569382,0.61442631483078,0.4841136336326599,-0.09568487107753754,-0.29316356778144836,-0.542376697063446,0.40860116481781006,-0.03999246284365654,0.11070892959833145,-0.07043337821960449,0.46120041608810425,0.17958198487758636,0.19494719803333282,0.7453248500823975,0.5735964179039001,0.7307997345924377,-0.10632500052452087,0.056165728718042374,0.017492052167654037,-0.619017481803894,-0.666958212852478,0.02402673102915287,-0.25851330161094666,-0.7103065252304077,0.6842579245567322,0.3307647109031677,-0.23260891437530518,0.5252528190612793,-0.003914957866072655,-0.5220322012901306,0.5001423358917236,-0.49822038412094116,-0.5670671463012695,0.030556797981262207,-0.4388597011566162,-0.5274680852890015,0.7276570200920105,0.4447196424007416,0.5091594457626343,0.5383044481277466,-0.4054165780544281,0.4415750503540039,0.4053594768047333,-0.44265303015708923,0.39834654331207275,-0.18256379663944244,-0.37412670254707336,0.7314153909683228,-0.12008856236934662,-0.2610900104045868,0.36296144127845764,0.5583735704421997,-0.14601518213748932,0.5295461416244507,-0.28195178508758545,0.05346135050058365,-0.4856705069541931,0.12148277461528778,0.5624493956565857,0.017809946089982986,-0.3909146785736084,-0.6325979232788086,0.4112151861190796,-0.02965729311108589,0.20867972075939178,0.0009906684281304479,0.0020152258221060038,0.5859686136245728,-0.5982670783996582,-0.6338182687759399,0.24792709946632385,-0.1324954777956009,-0.029388420283794403,0.3476090133190155,-0.5648653507232666,-0.05199134722352028,0.24683891236782074,0.5825477242469788,-0.021867305040359497,-0.5022256970405579,0.6085817217826843,-0.5926532745361328,-0.6731576323509216,0.24740365147590637,-0.07050330191850662,0.6257184743881226,-0.5694112181663513,-0.2524227201938629,-0.7456350326538086,-0.3258728086948395,0.4343973696231842,-0.5422975420951843,0.07067719846963882,0.07817017287015915,-0.6040859818458557,-0.013114608824253082,0.6712194681167603,0.6545473337173462,-0.5201628804206848,0.12787091732025146,-0.6922500729560852,0.28154081106185913,-0.39526280760765076,-0.13224126398563385,-0.3976733088493347,-0.7089177966117859,-0.45733267068862915,-0.6388720273971558,-0.6291800737380981,0.19596576690673828,-0.41340264678001404,-0.3615628480911255,-0.4108782410621643,0.06650619953870773,0.16327089071273804,-0.5046007633209229,-0.5017569661140442,-0.6762679219245911,0.5056952238082886,-0.6379879713058472,-0.659027636051178,-0.7138938307762146,-0.4990323781967163,0.28210821747779846,-0.5381210446357727,0.12084510922431946,0.2627761960029602,-0.078656867146492,0.5042121410369873,-0.10848866403102875,0.20243564248085022,0.5789934992790222,-0.11504853516817093,-0.19998402893543243,0.023203112185001373,-0.22145727276802063,-0.5749068260192871,0.6972252726554871,-0.3707060217857361,-0.5685795545578003,0.11818795651197433,0.17867949604988098,-0.5288122296333313,0.5576541423797607,-0.6069345474243164,-0.31730180978775024,-0.40412575006484985,-0.4525505006313324,-0.05268966779112816,0.532739520072937,-0.5871363282203674,0.22560282051563263,0.10675818473100662,-0.10317058861255646,0.3796597421169281,0.20839093625545502,0.30811432003974915,-0.5485374331474304,0.062450241297483444,-0.3193809688091278,-0.17515912652015686,0.07958672940731049,-0.73105388879776,-0.653131902217865,-0.40987876057624817,0.043182436376810074,-0.7469074130058289,-0.11111342906951904,-0.7150105237960815,0.13978420197963715,-0.43465688824653625,-0.7215404510498047,0.010140211321413517,0.59316086769104,0.27031299471855164,0.2386198192834854,0.1964784562587738,0.21259763836860657,0.28204360604286194,0.4542131721973419,-0.11836130917072296,0.48180443048477173,0.37657058238983154,0.6840360760688782,0.3816746175289154,-0.3887462019920349,0.16172721982002258,-0.12703931331634521,-0.6150579452514648,0.4136241674423218,-0.09399428218603134,-0.4911860227584839,0.10980503261089325,-0.20483079552650452,0.6999405026435852,-0.24705691635608673,0.01595073752105236,-0.676644504070282,0.3152925670146942,-0.686381995677948,-0.06248454377055168,0.40593421459198,-0.4800860583782196,0.6054006218910217,-0.6536322236061096,0.6642054319381714,-0.5842903852462769,-0.6793469190597534,-0.592183530330658,0.10401853173971176,0.7079066038131714,0.17833347618579865,-0.2999039590358734,0.0823858454823494,0.1791262924671173,-0.21224495768547058,-0.5667291283607483,-0.13270708918571472,0.5243614315986633,0.4508211016654968,0.4322633445262909,-0.13223659992218018,-0.7432124614715576,0.5519301295280457,-0.08512160181999207,-0.531746506690979,0.5919501781463623,-0.041969940066337585,-0.1675548106431961,0.6941741704940796,0.4513144791126251,0.5547298192977905,0.03611230105161667,-0.3433693051338196,0.4838196039199829,-0.2759813666343689,0.3510581851005554,0.10535859316587448,-0.06861010193824768,0.5591518878936768,0.33850523829460144,-0.7035554647445679,-0.22035717964172363,0.222696915268898,-0.3507453203201294,-0.5454045534133911,-0.36833757162094116,-0.4449874758720398,-0.37121516466140747,0.21500404179096222,0.2573121190071106,0.529778778553009,-0.7398159503936768,-0.598320484161377,0.5125932693481445,-0.5063421130180359,0.2561655640602112,0.4359469413757324,0.5652188658714294,0.4112352132797241,-0.6642428040504456,0.14649252593517303,-0.06259089708328247,-0.1107650101184845,-0.6279760003089905,0.4552965760231018,-0.5798690915107727,0.5479526519775391,0.3204555809497833,0.579908549785614,-0.05671701952815056,-0.6003481149673462,-0.38257452845573425,0.698857307434082,-0.07455959171056747,-0.6001823544502258,0.06877287477254868,0.11229247599840164,-0.37752342224121094,-0.6201590895652771,0.23792117834091187,0.1071634292602539,-0.706030547618866,-0.16444675624370575,0.40908917784690857,-0.22301067411899567,0.5990035533905029,-0.22756212949752808,-0.12825116515159607,-0.0537237711250782,0.28359222412109375,