-0.0018494254909455776,-0.0013588526053354144,-0.0027209504041820765,-0.0042104884050786495,-0.00247011287137866,-0.006835665553808212,0.0029721837490797043,0.0026193317025899887,-0.0007760849548503757,-0.0025330393109470606,-0.000883475411683321,0.006312571931630373,0.0015120027819648385,0.003351842286065221,-0.0037945816293358803,-0.005766766145825386,-0.005917591042816639,-0.0002969152410514653,0.003196634817868471,0.004078870639204979,0.0032456903718411922,0.00601333798840642,-0.006340572144836187,0.005139235872775316,0.002346414839848876,-0.004826625343412161,0.00233452208340168,-1.652599348744843e-05,-0.0020566622260957956,-0.003537864191457629,-0.0007537442143075168,-0.0040187593549489975,-0.006084721069782972,0.005083646159619093,0.0015859706327319145,-0.002269400516524911,-0.0010700906859710813,0.005182881373912096,-0.0024204300716519356,-0.0014154675882309675,0.0035673438105732203,-0.004559829831123352,0.0022050205152481794,-0.0008042650879360735,0.0002540371206123382,0.003946824464946985,0.006901448126882315,0.00468107033520937,-0.004765097517520189,-0.0036981890443712473,-0.0011812633601948619,0.003383252304047346,0.0003311067703180015,0.005801099818199873,-0.0066177332773804665,-0.0033916481770575047,-0.0038700688164681196,0.003630690509453416,-0.0005089295445941389,-0.007101503666490316,0.003965463954955339,-0.0019059854093939066,-0.0033854476641863585,-0.004568928852677345,0.006256805267184973,0.006324492860585451,-0.006058004684746265,-0.003849591128528118,0.0020205527544021606,0.0022714463993906975,-0.0012097446015104651,0.0009929494699463248,0.0028563786763697863,0.006370021961629391,0.003105923067778349,-0.005752136465162039,0.0029766543302685022,-0.006272996310144663,-7.135218038456514e-05,0.00021502020535990596,0.0038481177762150764,-0.00716472789645195,0.005268902983516455,0.0022061876952648163,-0.006909191608428955,-0.005024302750825882,-0.006802958901971579,0.003603790421038866,-0.004879245534539223,-0.0066329846158623695,-0.00533211138099432,0.0006091175018809736,-0.000223729366553016,-0.003740213345736265,0.006234724074602127,0.004995665978640318,-0.002783684292808175,-0.00042059284169226885,0.0001601462427061051,0.0036145972553640604,-0.0010384221095591784,0.0008060336695052683,-0.0009851771173998713,0.0040543945506215096,0.00107965141069144,0.0047240834683179855,-0.006223342847079039,0.006093458738178015,0.004826928488910198,0.004831008613109589,-0.005156885366886854,-0.003295434406027198,0.007068308535963297,0.006690592039376497,-0.0036910357885062695,-0.0009804712608456612,-0.004919063299894333,-0.0032817579340189695,-0.00432267552241683,-0.005872085690498352,0.0011295400327071548,-0.0037058654706925154,0.007203024346381426,0.0003616939065977931,-0.001946959993802011,0.005962157156318426,0.001820267178118229,-0.005262420512735844,1.4930654288036749e-05,-0.0007977229543030262,0.003820019541308284,0.002849764423444867,-0.00177018775139004,-0.0003632130683399737,0.0003620950155891478,-0.0011506659211590886,-0.00562708918005228,0.00592254800722003,0.002588112372905016,-0.0003506461507640779,0.0009546953369863331,-0.004068444948643446,0.0005488001625053585,0.0036123835016041994,0.0005179168074391782,-0.00028436118736863136,-0.000473440537462011,0.003862866898998618,0.0037262148689478636,0.003643897594884038,-0.0038056408520787954,0.0015471151564270258,0.00387360411696136,0.0008367742411792278,0.00401846319437027,0.004921418614685535,-0.004835618194192648,-0.0028849071823060513,0.0013772977981716394,-0.003078288398683071,0.006269257050007582,-0.004494212567806244,-0.0021418482065200806,0.0070185586810112,-0.004564642906188965,-0.0007961263181641698,-0.0027070757932960987,0.004365106578916311,-0.0029252583626657724,-0.004932749085128307,0.006216761190444231,-0.0026294132694602013,0.003422507317736745,-0.003128840122371912,-0.004750357940793037,0.004539767745882273,-0.006196015980094671,-0.002314689103513956,0.004179098177701235,0.000349380454281345,0.0029036966152489185,-0.006052536889910698,0.0037373302038758993,-0.0045412397012114525,0.004598092287778854,0.0010436932789161801,0.0035911162849515676,-0.003981877584010363,-0.0013640964170917869,0.004481255076825619,0.005967060104012489,-0.003846900537610054,0.004317518789321184,-0.0054846531711518764,-0.0009399890550412238,0.006297966931015253,0.006409997586160898,-0.00282392674125731,-0.004254050552845001,-0.00491969333961606,-0.00011873430048581213,-0.005655203480273485,-0.0017778069013729692,-0.006680813618004322,-0.0032818359322845936,0.00590971065685153,-0.0005790879367850721,-0.005872039590030909,0.002329575829207897,0.0066905999556183815,-0.00042024816502816975,0.0019009398529306054,0.006232593208551407,-0.0010193269699811935,0.0024509401991963387,-0.0007322930614463985,0.0067749847657978535,0.0002524198789615184,0.005673160310834646,0.00018342006660532206,0.0025883405469357967,-0.0014698238810524344,0.006167981307953596,0.0022412154357880354,-0.006878884509205818,-0.006920740474015474,0.00254584988579154,-0.005685922224074602,0.0028903342317789793,-0.002816151361912489,0.0005891278269700706,-0.004616858437657356,-0.003766377456486225,-0.0010880266781896353,0.0021105711348354816,-0.00497891241684556,-0.00313018006272614,-0.004314951598644257,0.005034530535340309,0.0018560379976406693,-0.0005452537443488836,0.006436483468860388,0.0033219431061297655,0.006060278043150902,0.0012221212964504957,-0.0052903820760548115,0.0025199640076607466,-0.00431603379547596,-0.00231465813703835,6.485108769993531e-06,-0.004881758708506823,-0.007060551550239325,-0.0026612940710037947,0.004653705283999443,-0.00686471164226532,-0.00560388620942831,0.004230863880366087,-0.0029793265275657177,0.006307923700660467,-0.001548639964312315,0.004158927593380213,-0.003685001516714692,-0.006477373652160168,0.005532127805054188,0.006373361684381962,0.0028748109471052885,0.003640791866928339,-0.0072551206685602665,0.003737837076187134,-0.00013625842984765768,-0.0008302500937134027,0.00042109773494303226,-0.003295299829915166,0.003036599839106202,-0.0025715273804962635,0.000547940784599632,-0.005462270695716143,0.0023205855395644903,-0.0045587425120174885,-0.004630285315215588,-0.007192273624241352,-0.005711553152650595,-0.004067010711878538,-0.0040990742854774,-0.002407131250947714,-0.006656949874013662,0.006040669046342373,-0.005628356710076332,0.002891109324991703,0.0006551533006131649,0.000542301859240979,-0.005818059667944908,-0.0037641646340489388,0.004084929823875427,-0.00037598394555971026,-0.000867489434313029,0.0005415620980784297,-0.0009284746483899653,0.004489284940063953,0.003735081758350134,-0.0024545753840357065,0.0047181290574371815,0.0005761572974734008,0.0022051697596907616,0.005588753614574671,-0.00031134579330682755,0.003817231860011816,0.0020748320966959,-0.0008363776723854244,0.004371797200292349,-0.005638068541884422,0.0012626975076273084,-0.006430211942642927,-0.004824891220778227,0.0016187133733183146,-0.002692045643925667,-0.0033629436511546373,0.006629906594753265,-0.001792530296370387,0.0010594843188300729,0.000593200558796525,-0.006152903661131859,0.002633188385516405,0.0002968043845612556,-0.0015700091607868671,-0.006044270936399698,-0.002851804019883275,0.005684589501470327,-0.004502859432250261,-0.0038772730622440577,-0.00411037914454937,0.005731010343879461,0.0030342992395162582,0.005651233252137899,0.0061042229644954205,0.0062707881443202496,-8.658304432174191e-05,-0.00021992601978126913,0.004856223706156015,-0.002322270767763257,-0.006761717144399881,-0.0023307818919420242,0.0032078400254249573,-0.005337386857718229,0.004115041345357895,0.004634934477508068,-0.005650808103382587,-0.005704639945179224,-0.004295540973544121,-0.002069242065772414,0.0006235601613298059,-2.3518943635281175e-05,0.005353814922273159,-0.004835094790905714,0.0032180827111005783,0.0009484157199040055,0.003615884343162179,-0.0020039239898324013,-9.541702456772327e-05,-0.0064125522039830685,-0.005272630136460066,-0.0015958748990669847,-2.3515032808063552e-05,-0.005698586814105511,0.004938334692269564,0.006653201300650835,0.0016271620988845825,-0.006216890178620815,0.003593240864574909,-0.003910945728421211,0.00355934607796371,-0.0007741224253550172,-0.006294547114521265,-0.003089891280978918,-0.0009131839033216238,0.003471286268904805,-0.005143127404153347,-0.0028833223041146994,-0.005742305424064398,0.001863551908172667,-0.00030271155992522836,0.006306983530521393,0.003588287392631173,0.004179659765213728,-0.00464113662019372,-0.003314817789942026,0.00028716816450469196,-0.006823011673986912,0.005553004331886768,0.004187329672276974,-0.00627227732911706,0.005221895407885313,-0.0068233078345656395,-0.005276526790112257,-0.006152844522148371,-0.00017684735939837992,0.004323924425989389,-0.00425403006374836,0.004227601923048496,-0.004238520283252001,0.0072866687551140785,0.005388668272644281,0.003668642370030284,0.0015538944862782955,-0.003478130791336298,-0.005198766011744738,-0.0002307390095666051,-0.0011139558628201485,0.0027547620702534914,-0.004539289977401495,0.001134024583734572,0.0031131799332797527,-0.0025923510547727346,0.0042699906043708324,-0.0007754762773402035,-0.004642818588763475,-0.004108222667127848,-0.0029157581739127636,-0.004659871105104685,0.0011172584490850568,0.006613810546696186,0.005937271285802126,-0.002255029045045376,0.005531356204301119,0.006763115059584379,-0.0025649152230471373,0.00633031502366066,0.007737071719020605,0.004901038017123938,-0.0010198731906712055,0.0019012634875252843,-0.0015240560751408339,0.007642307318747044,-0.005729028023779392,0.0060755121521651745,-0.00584792485460639,-0.006211542058736086,0.006713939364999533,0.005659748334437609,-0.0016197647200897336,0.006827072706073523,0.005449733231216669,0.006079944781959057,0.0016658720560371876,0.006857611238956451,0.004675463307648897,0.006518203765153885,-0.002940791193395853,0.0005856775096617639,0.005401774309575558,0.0013100908836349845,0.004403227008879185,0.006923815235495567,0.004489658400416374,-0.0026673872489482164,-0.005352681037038565,-0.003193420358002186,0.0024743438698351383,-0.006982816848903894,-0.0045459880493581295,-0.0024152640253305435,0.005451750010251999,-0.00639759935438633,-0.006562876980751753,0.0005283346981741488,-0.004567747004330158,-0.0036421576514840126,-0.004550644662231207,0.001054051099345088,-0.0065781548619270325,0.006391361355781555,-0.005324026569724083,0.006527729332447052,0.003985370974987745,0.004644874017685652,-0.004653230309486389,0.0024307311978191137,0.004520028829574585,0.0007659614202566445,0.0006301430985331535,-0.004887743387371302,-0.0012701372615993023,-0.0050539299845695496,0.006755712442100048,0.0025713241193443537,-0.006534995045512915,-0.0003865259641315788,0.0019618263468146324,-0.005908435210585594,0.0022861757315695286,-0.004724630154669285,-0.0014259640593081713,0.001657754764892161,-0.002084722276777029,-0.0017829628195613623,0.004843742586672306,-0.0028683384880423546,0.0020884573459625244,0.0049195485189557076,-0.005013924557715654,-0.00660089123994112,0.004688316490501165,0.0008597066625952721,0.005026746075600386,-0.0037326542660593987,0.004760798532515764,-0.0057213096879422665,0.005708606448024511,0.004938624799251556,0.0012899996945634484,0.0016089894343167543,-0.0020447070710361004,-0.004049019888043404,-0.0003404702292755246,0.0025425730273127556,0.007252927869558334,0.0047005545347929,-0.0007384849013760686,0.003737000050023198,-0.005418246611952782,-0.0011407225392758846,-0.000957662588916719,0.007308752276003361,-0.0014253732515498996,-0.005893753841519356,-0.0062113129533827305,0.0027730269357562065,-0.003262610174715519,0.0048928894102573395,-0.0007686850149184465,-0.002400335157290101,0.003641409333795309,-0.001378580229356885,0.003056805580854416,0.0025387725327163935,0.0031706334557384253,0.004989573732018471,0.004795494023710489,0.001999171683564782,0.00608077785000205,-0.006999002303928137,0.006030752323567867,-0.0052671534940600395,-0.004455700051039457,0.004214498680084944,-0.0015202270587906241,-0.0011692529078572989,-0.0035766700748354197,-0.004140074364840984,-0.005826610140502453,-0.004229411482810974,0.0011088968021795154,0.003142734058201313,0.003671620273962617,-0.001642998424358666,0.0062377615831792355,-0.002317716833204031,-0.005386563949286938,0.006701515056192875,0.0008406999986618757,0.006933686789125204,-0.001373592996969819,0.0039333440363407135,-0.005294918082654476,0.00533201964572072,-0.004601708147674799,-0.006051909178495407,-0.005548449698835611,0.0010626122821122408,-0.0028514517471194267,0.006726768799126148,0.005167212802916765,0.00450635701417923,0.004557631444185972,0.005587968043982983,0.005349108949303627,0.0060526421293616295,0.0060747708193957806,-0.0030861704144626856,-0.004190928302705288,0.002088807290419936,-0.00553173990920186,-0.004286626353859901,0.003800484584644437,0.0020346581004559994,0.0021312774624675512,0.006371697410941124,0.002312043681740761,-0.0010635096114128828,-0.003201588988304138,-0.002387984422966838,-0.0032605361193418503,-0.006744967307895422,-0.0034654538612812757,0.004820359405130148,0.0032187022734433413,0.0017062099650502205,0.005705611314624548,-0.003497376572340727,0.0011105374433100224,-0.006677288096398115,0.005673389881849289,-0.0007632356719113886,-0.004576414357870817,-0.0035830631386488676,0.005185160785913467,-0.005494356155395508,0.006155936513096094,-0.0017418190836906433,-0.00345411105081439,-0.002199888229370117,-0.00116833730135113,0.0007601452525705099,0.0013220926048234105,-0.000690869870595634,-0.0006046716589480639,-0.003002515761181712,-0.00163647357840091,-0.00041918247006833553,0.001474410411901772,-0.005251519847661257,0.0038116974756121635,0.0025699189864099026,-0.0028607414569705725,-0.0005499091930687428,0.006627368275076151,-0.006706029176712036,0.004652559291571379,0.00021725197439081967,0.001670312019996345,0.0028922269120812416,-0.00040643877582624555,-0.004170639906078577,0.006009290460497141,0.003476698650047183,0.001113650854676962,-0.0004918514168821275,0.00022307047038339078,0.004793995060026646,-0.006965358275920153,0.005493156146258116,-0.006324601359665394,0.0018311903113499284,-0.0023154651280492544,0.0026144636794924736,-0.005746911745518446,0.0009304420091211796,0.005159120541065931,-4.0759448893368244e-05,-0.005942527670413256,-0.006641177460551262,0.001813483890146017,-0.006073854397982359,-0.006023474968969822,-0.0009471183875575662,-0.004111988469958305,-0.004108372610062361,-0.00013208022573962808,-0.003004784695804119,-0.003946936689317226,0.0003096730506513268,-0.002864597365260124,-0.0058943540789186954,0.0027228188700973988,0.0012513971887528896,-0.004122708458453417,0.001275393646210432,0.006647026166319847,0.00661214254796505,0.0004423909995239228,-0.005779944360256195,-0.0005870044697076082,-0.00675805052742362,-0.001242186175659299,0.005784430541098118,-0.00046404649037867785,0.0006803632713854313,-0.004918694030493498,-0.00706340791657567,0.007007047533988953,-0.0022825654596090317,-0.003182436106726527,0.001027870224788785,0.003481058869510889,-0.0035739836748689413,0.00046543788630515337,-0.002362472703680396,-0.00020573986694216728,-0.004886403679847717,0.00016558366769459099,-0.006373954936861992,0.004971499554812908,0.0018810718320310116,0.006333270575851202,0.001517880242317915,-0.00445131678134203,-0.0001862909266492352,0.0023787198588252068,-0.001800436177290976,0.0008245696080848575,-0.004874086938798428,0.004014294594526291,0.005990469362586737,-0.002443552715703845,0.004539499059319496,-0.00576908839866519,-0.003557923249900341,-0.0003959489695262164,-0.0013561552623286843,0.0020786775276064873,0.0009959409944713116,-0.00581461051478982,-0.005137388128787279,-0.006154869217425585,0.006844937335699797,0.0021390176843851805,0.005173671990633011,0.0006968784728087485,-0.004206604324281216,0.002035100944340229,7.25373174645938e-05,-0.0012784976279363036,-0.0017779039917513728,0.0022273999638855457,0.0018596717854961753,-0.00490143708884716,0.004691706504672766,0.002101028570905328,0.000464545184513554,0.003417517524212599,-0.00487160449847579,0.006202875170856714,-0.0031414751429110765,-0.0033912789076566696,0.0044220550917088985,-0.0022986894473433495,0.004868005868047476,-0.002342935185879469,0.0007360920426435769,-0.004054965917021036,0.0033502609003335238,-0.004745114129036665,0.0058286311104893684,-0.001940073911100626,-0.0006718267686665058,-0.0067821103148162365,0.006914673838764429,0.004547558259218931,-0.0008483111159875989,0.0058367992751300335,0.006231728475540876,0.0005391257582232356,-0.0037348666228353977,-0.0001251538924407214,-0.0024231234565377235,-0.0006709063891321421,0.005983514711260796,-0.003033223794773221,0.004973317962139845,0.006422010716050863,0.004456060938537121,0.00044693201198242605,0.0009960610186681151,0.004664245992898941,-0.006414220668375492,0.003479578997939825,0.00047622143756598234,-0.0013855408178642392,0.0038841150235384703,-0.0032438666094094515,0.0058136386796832085,0.0027794111520051956,0.0016367899952456355,0.00034323838190175593,-0.004042177926748991,0.0017696884460747242,0.003357906127348542,-0.006954108364880085,-0.0019263910362496972,0.004716408438980579,0.001965265953913331,0.001754302647896111,-0.0038922587409615517,0.001868475810624659,0.003995334729552269,-0.0013814086560159922,-0.004536425694823265,-0.00609933864325285,-5.456174403661862e-05,0.0024023742880672216,-0.004836392123252153,-0.001131699769757688,0.0009079449810087681,-0.005155935883522034,-0.00359448604285717,0.001633455278351903,0.0032552690245211124,0.0019205757416784763,0.002943585626780987,0.0009725324343889952,0.0049112578853964806,0.004770612344145775,0.004350306000560522,0.0012570741819217801,0.0075306822545826435,-0.006504283752292395,-0.004252591636031866,0.004547365941107273,0.004879313986748457,0.004914808552712202,0.0054958174005150795,-0.0009672098094597459,0.00633331760764122,-0.0040218038484454155,0.006473205052316189,0.0009571395348757505,-0.004644750151783228,0.003531036200001836,-0.002796558430418372,-0.003822241211310029,-0.004544397816061974,-0.006536800414323807,0.00405001500621438,4.6532542910426855e-05,0.007108550053089857,-0.0006819653790444136,0.005118414293974638,0.0070162429474294186,-0.0064429184421896935,-0.0052271452732384205,-0.001995439175516367,0.0055543240159749985,0.005161547102034092,-0.0014790091663599014,-0.0038053703028708696,0.004548333585262299,0.001646585064008832,-0.006346503738313913,0.004890564829111099,0.007156954146921635,-0.006345762871205807,-0.002771829953417182,0.00508312089368701,0.0018199594924226403,0.007669208571314812,0.006178939715027809,-0.004350378178060055,0.0028771799989044666,0.002763713477179408,-0.005049070809036493,-0.006038419436663389,0.0010172086767852306,-0.0012629627017304301,0.0008702180930413306,-0.0035023894160985947,0.0007276524556800723,-0.001578975236043334,0.005759315565228462,-0.002586734713986516,0.005465993657708168,-0.0016325913602486253,0.0012223741505295038,-0.002928580157458782,0.004548756405711174,0.0049390634521842,0.004343011416494846,0.002003535395488143,-0.002830416662618518,0.0019608852453529835,0.006510574370622635,0.002039377810433507,0.006559631787240505,-0.002845593960955739,0.004970621317625046,0.003096891799941659,0.004501589573919773,0.003059282898902893,-0.00020713791309390217,0.0027597681619226933,0.006389908958226442,-0.0012122549815103412,0.00659379456192255,-0.00634183082729578,-0.006913142744451761,4.244450610713102e-05,0.0050356704741716385,-0.003468712791800499,0.0029357036110013723,0.0007377137080766261,-0.00288854050450027,-0.0029766263905912638,-0.005959378555417061,0.000673534581437707,-0.0005829426809214056,-0.0028716837987303734,0.006872284226119518,0.00473357830196619,0.000502723385579884,0.0004259830166120082,-0.004252806771546602,0.002377936616539955,0.006730643566697836,0.005912285763770342,-0.005877591669559479,-0.006423469167202711,0.0067987903021276,-0.004147637635469437,0.000910865783225745,-0.005977761931717396,0.004910530522465706,-0.005361535120755434,0.0021911535877734423,-0.006211146246641874,-0.004772569518536329,0.00018549003289081156,-0.0064209820702672005,-0.004325914196670055,-0.005085631273686886,-0.006480125244706869,0.006752420216798782,-0.0006450386135838926,0.005166403017938137,-0.0019815098494291306,-0.006535153836011887,0.0027485250029712915,-0.006701359059661627,0.0004463566292542964,-0.005730877164751291,0.0018274232279509306,0.005093447398394346,0.006366637535393238,6.516179382742848e-06,-6.0184087487868965e-05,-0.0071704494766891,0.003487307345494628,0.006306023802608252,-0.0012783050769940019,0.003795981639996171,0.003922530449926853,0.0039071026258170605,0.0034966780804097652,-0.004396399948745966,0.0033377986401319504,-0.005299095995724201,0.003018102142959833,-0.007329574320465326,0.00576243968680501,0.004506929311901331,0.002525134477764368,-0.00576979061588645,0.004426309838891029,0.005172991659492254,0.002465632278472185,0.006585394497960806,-0.006166509352624416,0.0028299465775489807,0.00018708188144955784,-0.005299870390444994,0.002045159926638007,0.003982884343713522,-0.004927521571516991,0.004071116913110018,-0.006057593040168285,0.0010568439029157162,0.003980581648647785,-0.005146000999957323,0.0008972641662694514,-0.001276836497709155,0.0013169682351872325,-0.001324789714999497,-0.0036100861616432667,-0.0036137124989181757,0.00511929439380765,-0.005089044105261564,-0.005566229112446308,-0.005653741769492626,-0.005878872703760862,-0.006678441073745489,-0.004578317515552044,-0.004136216826736927,-0.0031043589115142822,-0.005142865236848593,-0.005521595478057861,0.0009170488337986171,0.0033736820332705975,0.002054512267932296,0.001100336667150259,-0.0005381668452173471,0.002176024252548814,0.00590797234326601,0.002015182515606284,-0.0061105769127607346,0.0012061860179528594,0.0005467779701575637,-0.0005661373725160956,0.0011651342501863837,0.0026273452676832676,-0.0064977845177054405,-0.00014779942284803838,0.004602435976266861,0.00045141519512981176,-0.00620331009849906,0.004035271238535643,0.0064173536375164986,0.005205036140978336,-0.0019406713545322418,0.0004972547176294029,0.0013400987954810262,0.0031205504201352596,0.002474982524290681,-0.004291727673262358,0.004885497968643904,0.004999484401196241,-0.0013981092488393188,-0.005249473731964827,0.0015815594233572483,-0.002088825684040785,0.0034788597840815783,-0.0026314661372452974,-0.00335713685490191,0.005364147014915943,0.0016974800964817405,-0.005923586431890726,0.002740660682320595,0.0037074480205774307,-0.003804693231359124,0.006595382932573557,-0.0020504621788859367,0.005944681819528341,-0.0034189221914857626,0.0015128377126529813,0.00010521143121877685,0.00688157556578517,-0.0016593656037002802,-0.004997575655579567,0.004702474921941757,-0.006717636249959469,0.005311704706400633,-0.0059351311065256596,0.0006738775409758091,0.0029953191988170147,-0.0025099157355725765,0.004704406019300222,0.0010429215617477894,-0.0017832433804869652,-0.002603953704237938,-0.00579247809946537,0.0017750380793586373,-0.0022097942419350147,-0.002779666567221284,0.0064549995586276054,-0.0032300548627972603,0.005603801924735308,0.007127518765628338,0.005005389917641878,-0.006837737280875444,0.005424058064818382,-0.0038908624555915594,-0.0018296762136742473,0.007354055996984243,-0.001283124671317637,0.002325523877516389,-0.0025190114974975586,-0.0016938109183683991,0.00151548208668828,0.006508473306894302,-0.003001939272508025,-0.003498917678371072,-0.006715292111039162,-0.00421061459928751,-0.0033509694039821625,-0.006163922604173422,0.0010124428663402796,-0.005261335521936417,0.0003160324995405972,-0.004399199970066547,0.006340795196592808,-0.0025930851697921753,-0.00555693544447422,0.005128048360347748,-0.0013330708025023341,0.0046557895839214325,-0.002557492582127452,0.00021672743605449796,-0.000571623386349529,0.0009071942768059671,-0.0013847298687323928,8.200939191738144e-05,0.00272069382481277,-0.001059980713762343,0.002702642697840929,0.00314298621378839,0.0037261913530528545,-0.00026168543263338506,-0.007011824753135443,0.003637363202869892,0.005959152244031429,0.0023459261283278465,0.0005083642899990082,0.0009647271363064647,0.002245452720671892,0.00735012860968709,-0.006119996774941683,-0.006777266040444374,0.006783448625355959,-0.0006876774714328349,0.0017439172370359302,0.00378461298532784,0.0035799508914351463,0.0022531019058078527,-0.000252992263995111,0.0011827830458059907,0.003411602694541216,0.005182136781513691,-0.005241944920271635,-0.0030989355873316526,-0.001444642897695303,0.0024330501910299063,-0.0013909188564866781,-0.0036640139296650887,-0.006634159479290247,0.004944669548422098,-0.0010996052296832204,-0.002317805541679263,0.0006082404870539904,-0.005329785868525505,-0.0013880040496587753,0.0036540154833346605,0.0033721064683049917,0.003881606739014387,-0.00038479696377180517,-0.0018360890680924058,0.004793692845851183,-0.004648551810532808,0.003219878999516368,0.00561623414978385,-0.0030142078176140785,-0.0042877281084656715,0.00023896555649116635,-0.004076055251061916,0.0053725396282970905,-0.003645471530035138,-0.0026898265350610018,0.005602065473794937,-0.0042191967368125916,0.005528429988771677,-0.004228327888995409,0.005856221076101065,-0.0026467908173799515,-0.003654270898550749,-0.00027171644615009427,-0.0018190378323197365,-0.004266589414328337,-0.00215619127266109,0.0032738042064011097,0.004799678456038237,0.004642120562493801,0.00375032308511436,-0.006903972942382097,-0.0008264460484497249,-0.004626002162694931,-0.0060499198734760284,0.0035323628690093756,0.004441406112164259,0.004751985892653465,0.00575619749724865,0.0013739240821450949,0.007255818694829941,-5.557503391173668e-05,0.005696187727153301,-0.0055638263002038,-0.005079707130789757,0.0013142824172973633,-0.005315246060490608,-0.006146081257611513,-0.004426074214279652,0.0040745604783296585,0.0060427626594901085,-0.0025884571950882673,0.00659311143681407,0.004423487465828657,-0.003987673670053482,0.0011206226190552115,0.0067502763122320175,0.0048401872627437115,-0.0019786469638347626,-0.0028521749190986156,0.004512709099799395,0.0005965871387161314,-0.004921950865536928,-0.002477278234437108,0.0022893736604601145,-0.005033253226429224,0.0028045433573424816,0.0030044368468225002,-0.003309535561129451,-0.0015151584520936012,0.0061873784288764,0.003558637574315071,0.004153718706220388,0.0002646524226292968,-0.004118222743272781,0.001176011050119996,0.003614490618929267,-0.007451451383531094,-0.0055919517762959,-0.0004784337361343205,-0.0011380852665752172,0.006593349855393171,-0.006156018935143948,-0.002662880113348365,0.004300868604332209,0.0013291740324348211,0.000565308437217027,0.0031913898419588804,-0.00680117541924119,0.006200518924742937,-0.004675767384469509,-0.006295723840594292,-0.0025836369022727013,0.002784216543659568,-0.004023225978016853,-0.006654837168753147,-0.006567303091287613,-0.0037126855459064245,-0.005236044991761446,-0.001699972664937377,-0.00432923249900341,-0.0016137651400640607,-7.427726086461917e-05,0.0036057003308087587,-0.0037264248821884394,6.541755283251405e-05,0.005260904785245657,0.007762241642922163,0.0009773931233212352,-0.0007152226171456277,0.0024795886129140854,0.0006054866826161742,-0.0041962238028645515,-0.00037518926546908915,0.007266693282872438,0.0025608809664845467,-0.002478395588696003,0.006918635219335556,-0.0014249744126573205,-0.0012960318708792329,0.0020308755338191986,0.0014287010999396443,-0.002661620732396841,-0.0007354225381277502,-0.00265815993770957,0.003189792623743415,-0.005663218442350626,0.003435499267652631,-0.0051664249040186405,-0.0030379784293472767,-0.002706382889300585,0.006821686401963234,0.001081859110854566,0.003767318557947874,0.0005956428358331323,0.0067000132985413074,-0.004781469237059355,0.0013909605331718922,0.004199531860649586,0.0018140559550374746,0.005642402451485395,0.0014929956523701549,0.004751630127429962,-0.004586623050272465,-0.0032700453884899616,-0.0006293597398325801,0.005332238040864468,-0.0007983046234585345,0.0016679384279996157,-0.0016835988499224186,0.0043564713560044765,-0.004156101960688829,0.0016751827206462622,0.0009754728525876999,-0.0015080573502928019,0.0030247727409005165,-0.006570914294570684,0.0052176364697515965,-0.002181676449254155,0.004332561977207661,-0.002500537084415555,-0.004173027351498604,-0.0013170904712751508,0.004540905822068453,0.0033130331430584192,-0.0008878299850039184,0.0066681415773928165,-0.0010746566113084555,-0.0017632624367251992,-0.004620908759534359,-0.005665444303303957,-0.0018759219674393535,-0.005797745194286108,-0.0006201278883963823,0.00500837154686451,-0.0005713950376957655,-0.0006190745625644922,-0.003832899732515216,-0.004930979106575251,-0.004249094985425472,0.0006290688179433346,0.0008862102986313403,-0.004435157403349876,-0.0017410750733688474,0.0005839307559654117,0.003279943484812975,-0.0031414013355970383,-0.003844051156193018,0.0029437618795782328,-0.00023618427803739905,0.004660257138311863,-0.004752533510327339,0.003234983654692769,-0.005193386692553759,0.0008877106592990458,-0.0034987092949450016,-0.0062429881654679775,0.001141655957326293,-9.869867790257558e-05,-0.00042528146877884865,0.0011065544094890356,-0.0020670623052865267,0.00226405868306756,-0.005400440189987421,0.0030230178963392973,0.0010570529848337173,-0.00030551341478712857,-0.0054005649872124195,-0.0032055990304797888,-0.002912650117650628,-0.00382274785079062,0.006576003506779671,0.006078624166548252,0.0005865280400030315,-0.0042498232796788216,0.005961905233561993,0.003705557668581605,-0.006513120606541634,-0.0002826702839229256,0.0014063130365684628,-0.006221689283847809,-0.006356425117701292,-0.00042796824709512293,-0.007262479979544878,-0.006487828679382801,-0.004673890769481659,0.006045403424650431,0.0038875569589436054,-0.0007158412481658161,-0.00019270801567472517,0.0028686528094112873,-0.0001814790302887559,-0.0061601921916007996,0.0035977105144411325,-0.006134895607829094,0.0001101171292248182,0.005453488789498806,-0.005307307932525873,0.0032890040893107653,-0.006174011621624231,0.007427390199154615,0.0028399527072906494,0.006919699255377054,0.0027260619681328535,-0.0034134858287870884,0.006370696239173412,0.0019509999547153711,0.0012024077586829662,-0.001144477049820125,-0.003048025071620941,0.000436741131125018,-0.0019520915811881423,0.0049567208625376225,-0.006859589368104935,0.0005373844760470092,0.004974495153874159,-0.006675513926893473,-0.00319887837395072,-0.006443798076361418,0.001562340883538127,-0.0023878300562500954,0.006765005178749561,0.001616062829270959,0.0009056046255864203,0.006218671333044767,-0.0036992663517594337,0.0010362915927544236,0.0005734365549869835,-0.0059960996732115746,0.006431146524846554,0.003098665038123727,0.005664309952408075,0.006915311794728041,-0.00031139992643147707,0.004326595924794674,0.001096114981919527,0.006883269175887108,-0.0035875500179827213,-0.00692696962505579,-0.004500542301684618,-0.00533283269032836,-0.000879421248100698,-0.00606266176328063,-0.003963458817452192,-0.005799876060336828,-0.0002347633126191795,-0.0033476308453828096,-0.0004336664278525859,-0.0059364428743720055,0.00018950534285977483,-0.005433402955532074,-0.00579596683382988,-0.00272531621158123,0.005263486877083778,0.0040420894511044025,0.006481483578681946,-0.0006017386913299561,-0.002685120329260826,0.006875156424939632,-0.0015579044120386243,-0.006952757481485605,0.004680410027503967,-0.004654756281524897,0.003236618358641863,-0.006865271832793951,-0.005586234387010336,-0.00024323684920091182,-0.006166443694382906,0.005682166200131178,0.003644237294793129,-0.0025366107001900673,0.0013046576641499996,0.0031163066159933805,0.0037397879641503096,-0.0015325186541303992,0.005560578312724829,0.006216518115252256,-0.004422349389642477,0.005952863022685051,0.002972974209114909,0.00537955854088068,-0.001245728344656527,0.0022583676036447287,-0.003574965288862586,0.003713937709107995,0.001179456477984786,-0.0003328981401864439,0.002653250703588128,0.0009700013906694949,0.00390812149271369,0.005108935758471489,0.004232724197208881,-0.0028400816954672337,0.006911184638738632,0.0020687284413725138,-0.0026899895165115595,-0.0066756135784089565,0.0069371978752315044,0.0013800440356135368,-0.004051798488944769,-0.00029900186927989125,-0.001564839738421142,0.006383565254509449,-0.00016819927259348333,-0.0002845944254659116,0.004166857805103064,-0.001606756472028792,-0.004426580388098955,0.003740862710401416,0.0057287318632006645,-0.00667374674230814,0.005059473682194948,-0.0009659446659497917,-0.0031756244134157896,-0.006842279341071844,-0.004430707078427076,-0.0024855888914316893,-0.00625431165099144,-0.004664635751396418,0.003116123378276825,0.0024178035091608763,0.0037296824157238007,-0.004944518208503723,-0.006879123393446207,-0.000836668536067009,-0.0026336745359003544,0.0037303538993000984,0.00029818201437592506,0.005867913831025362,-0.006695787888020277,-0.00234589003957808,-0.0016516807954758406,-0.00565518019720912,0.0012873212108388543,-0.006488272454589605,0.0031737294048070908,-0.006427993066608906,0.005707499571144581,-0.00617686752229929,-0.0005590031505562365,-0.004833918530493975,-0.00502559682354331,0.003566828789189458,0.004047626629471779,0.0035626073367893696,-0.001177884405478835,0.007406418211758137,-0.0018114864360541105,-0.0035100409295409918,0.007192132528871298,0.006994576659053564,0.0016258170362561941,-0.0037043578922748566,-0.0036456878297030926,0.0002827527350746095,0.004040733445435762,-0.005810467526316643,0.0030469594057649374,-0.005973819177597761,0.0046869199723005295,0.00012051672820234671,0.006721114739775658,0.003378479741513729,-9.394038352183998e-05,-0.005215375684201717,0.00046787020983174443,-0.005662263836711645,0.005777089856564999,-0.0038017905317246914,0.0053146579302847385,-0.002792550250887871,-0.003908837214112282,-0.0026404201053082943,0.0032230003271251917,0.0006264263647608459,-0.005409461911767721,-0.0049868556670844555,-0.001508425921201706,-0.0020062315743416548,0.0053818547166883945,0.0012879983987659216,-0.004322729539126158,-0.006655294448137283,-0.005686167627573013,0.0029047257266938686,0.004954967647790909,0.004072852432727814,0.004169083666056395,-0.003417875152081251,0.007012511603534222,-0.006000359542667866,0.0045286547392606735,-0.005821827799081802,-0.0032944793347269297,-6.562777707586065e-05,-0.006482664495706558,-0.0015299011720344424,-0.00216083275154233,0.002205352298915386,0.0031875167042016983,-0.0058148265816271305,-0.006531290709972382,0.004036111757159233,0.0005819756770506501,0.0007135662017390132,0.00719864945858717,-0.000570226286072284,-0.004131338093429804,0.002584087196737528,0.004485610406845808,-3.467902206466533e-05,0.0026626335456967354,9.151334961643443e-05,-0.0013109908904880285,-0.0067163510248064995,-0.004772206302732229,-0.0004159053787589073,-0.0016355522675439715,0.004973243456333876,-0.005666437093168497,-0.006532454863190651,-0.006033077370375395,0.0024357717484235764,0.0013907805550843477,0.0018598530441522598,-0.0050123161636292934,0.00014546309830620885,0.0037467419169843197,0.002655775984749198,-0.0009395909728482366,-0.005785319954156876,0.0052662561647593975,0.0003500452439766377,0.0055987657979130745,-0.0009108167141675949,-0.0037848942447453737,-0.0026601303834468126,-0.0011338585754856467,0.0017872904427349567,0.003945403266698122,-0.0035469471476972103,-0.004253644961863756,-0.004161745309829712,0.006438500247895718,-0.004662135150283575,-0.001970472978428006,0.0001249680353794247,0.0010266363387927413,0.005355862434953451,-0.005330211948603392,-0.005300059914588928,-0.002280796179547906,-0.0009088637889362872,-0.0016477728495374322,-0.0013260318664833903,0.0053524295799434185,0.005162406247109175,0.004740082658827305,0.003897622227668762,-0.006368969101458788,-0.0048109241761267185,0.003501610830426216,0.0013583704130724072,0.002700586337596178,0.0033062996808439493,0.00604638084769249,0.0019548183772712946,-0.003317718394100666,-0.005911567714065313,-0.0009054855909198523,0.0030291841831058264,-0.003209340386092663,-0.005607133265584707,0.007128635887056589,-0.0011679495219141245,-0.004156263545155525,-0.004935160279273987,0.005054894834756851,0.004535251297056675,0.0016091287834569812,0.0005910422769375145,0.006404972169548273,-0.004015960730612278,-0.000915883865673095,-0.006569310091435909,-0.0009480089065618813,-0.0015668671112507582,0.006464316044002771,-0.001825628918595612,0.0050329663790762424,0.0040141199715435505,-0.005005455110222101,0.00665715616196394,0.002067966153845191,0.0015915664844214916,-0.006875048391520977,0.0028932378627359867,-0.006417135242372751,-0.004415987059473991,-0.005630687810480595,-0.001705808681435883,0.004230334889143705,0.0028481679037213326,-0.005648398771882057,0.004308856092393398,-0.0006489154766313732,-0.006894493475556374,-0.004228905308991671,0.004246956203132868,0.0034531813580542803,-0.004456632770597935,-0.006637546233832836,-0.002987369429320097,0.0043656956404447556,0.006361432373523712,0.0010239367838948965,-0.00599681818857789,-9.805931040318683e-05,0.007395266555249691,0.006354236975312233,0.006950882729142904,0.0026596146635711193,-0.0012492567766457796,0.005956904496997595,0.005807680543512106,-0.005148059222847223,0.003936028573662043,0.0060447328723967075,0.006117026321589947,0.00324602541513741,0.0007284260354936123,0.0041978186927735806,0.0005218599108047783,-0.0025332332588732243,-0.003601769683882594,0.00028247100999578834,-0.0008665182976983488,9.785998554434627e-05,-0.003501596860587597,0.0010939573403447866,0.0020434479229152203,0.004234225954860449,0.0011533753713592887,0.003621160052716732,-0.004923684056848288,-0.005692594684660435,-0.004758393857628107,0.00487821688875556,0.0006883694441057742,-0.0008558503468520939,0.0034663821570575237,-0.005632471293210983,-0.007262418512254953,-0.0028443322516977787,-0.0037938302848488092,-0.0030000710394233465,0.006642145570367575,0.0008607283816672862,0.001164139248430729,0.0020645081531256437,-0.0015566160436719656,0.006827585399150848,0.0068069868721067905,0.0037410540971904993,-0.004312623292207718,0.005354556255042553,-0.005843388382345438,0.0017932589398697019,-0.0007506329566240311,-0.0067618670873343945,0.005703949369490147,0.006529178470373154,0.005806842353194952,-0.004619103856384754,-0.0025644151028245687,0.006422137841582298,-0.005728208925575018,0.0010913410224020481,-0.00038860031054355204,-0.005158855114132166,0.005468710325658321,-0.00535823218524456,0.001199273974634707,-0.002562157344073057,-0.0011385682737454772,-0.004029673058539629,0.0019040318438783288,0.007062263321131468,0.004954756703227758,0.002818986540660262,0.003992441110312939,0.0050652665086090565,-0.00031737893004901707,0.0012394918594509363,0.006054984871298075,0.0032476389314979315,-0.004913992248475552,0.00416657654568553,-0.006459920201450586,0.005458169616758823,0.004651607479900122,0.00513390963897109,-0.006635433528572321,0.007138352375477552,0.002026327420026064,0.004644356202334166,0.0011382423108443618,-0.0021672160364687443,-0.0029713509138673544,-0.006223345175385475,0.0005700461915694177,-0.005137947853654623,0.0009862784063443542,0.001612404827028513,-0.0009871836518868804,-0.005083533935248852,-0.0011152646038681269,0.005396630149334669,-0.0009955987334251404,-0.002607095753774047,0.0015309836016967893,0.0013996869092807174,-0.006009984761476517,-0.004320053383708,-0.00064860749989748,-0.0025061604101210833,-0.0031048047821968794,-0.0010510679567232728,-0.003603780409321189,-0.0029115076176822186,0.0031996637117117643,-0.0004546403361018747,0.005010489374399185,0.006424649152904749,0.006035837810486555,-0.003575654933229089,-0.00044777043513022363,0.0004641431733034551,0.005142501555383205,0.000855306803714484,-0.003527672030031681,0.000728663697373122,-0.006509153638035059,0.004924082662910223,0.0009375555091537535,0.002219820860773325,-0.004201697185635567,0.0008666605572216213,0.0006001822766847908,0.001850854605436325,0.005094330757856369,0.003973039332777262,0.0007082636002451181,0.00577672990038991,-0.0019402982434257865,-1.333610725851031e-05,0.0022447530645877123,-0.0008870508754625916,-0.00208907388150692,-0.005708956625312567,0.0018355912761762738,-0.0043931035324931145,-0.005068142432719469,-0.004700968973338604,0.0025592485908418894,-0.005270632449537516,0.006966752931475639,0.0038641628343611956,-0.0017781979404389858,0.001138007384724915,-0.007132778875529766,0.005056324880570173,-0.0031961225904524326,-0.00640068156644702,0.0035575293004512787,-0.002446383237838745,0.001053502201102674,0.00499578844755888,0.0038832819554954767,-0.0022984968964010477,0.00536157563328743,-0.0015276229241862893,3.804732477874495e-05,0.0017976900562644005,-0.006043212953954935,0.0015223878435790539,0.0011446040589362383,0.005345690529793501,-0.0020496284123510122,-0.0036222580820322037,-0.00024621846387162805,0.00271605234593153,0.0008761954377405345,-0.00516181206330657,-0.0021426379680633545,-0.006267881952226162,0.0033393048215657473,0.005436099134385586,-0.006440365221351385,0.00037129581323824823,0.0008343773079104722,-0.0010027562966570258,2.871197648346424e-05,0.003009573556482792,-0.00035947581636719406,0.005840215366333723,0.0005025910213589668,-0.0060993400402367115,0.0065012723207473755,-0.0051408801227808,0.003957273904234171,0.0002563319867476821,0.003262544283643365,5.252665505395271e-05,-0.006439231801778078,-0.0019269069889560342,0.0015849489718675613,0.0017059525707736611,0.0067235794849693775,0.0014932899503037333,-0.0031150474678725004,-0.006646487396210432,0.004071653820574284,0.005636065732687712,0.0016978882486000657,-0.0002480107359588146,0.005215898621827364,-0.0037093174178153276,-0.0012888818746432662,0.0002161313168471679,-0.006366833578795195,0.0028560212813317776,-0.004343469627201557,-0.002204419346526265,-0.000967696774750948,0.0022119733039289713,-0.006226069759577513,-0.0023802495561540127,-0.003069930477067828,-0.007007234264165163,0.0028243460692465305,-0.0039026769809424877,-0.0049276831559836864,0.004325877409428358,-0.006632749456912279,0.00554775120690465,0.0023929697927087545,-0.004949697759002447,-0.002206495963037014,0.0062848362140357494,0.0013376171700656414,0.0012133743148297071,0.001952335238456726,-0.0007175519713200629,-0.005105706863105297,-0.005405408795922995,0.0023752269335091114,0.005324151366949081,-0.0030855992808938026,-0.00011637999705271795,0.006763841025531292,-0.003718531923368573,-0.0016602376708760858,-0.0020629444625228643,-0.006794002838432789,-6.617471808567643e-05,-0.004265316762030125,-0.00533286202698946,0.002979289973154664,0.0038221455179154873,0.005516898352652788,0.006252984516322613,0.005354729946702719,-0.00547301210463047,-0.00402158685028553,-0.0055383131839334965,-0.002144408645108342,-0.00542786018922925,0.0021879428531974554,0.0030656775925308466,-0.0049622394144535065,0.0016899954061955214,-0.0069736456498503685,-0.0006847121403552592,-0.0028573430608958006,0.007393557112663984,0.0061373780481517315,-0.005124982446432114,0.006272654514759779,-0.0009566435473971069,0.0012510138330981135,0.000459811621112749,0.003138070460408926,-0.0020734115969389677,-0.005925552919507027,-0.0010456738527864218,0.000666569743771106,0.0007454856531694531,0.004496536683291197,-0.006294103339314461,0.007139462046325207,0.007076537236571312,-0.005743033718317747,-0.002061055041849613,0.0014038161607459188,-0.0018471612129360437,-0.00036161046591587365,-0.0026439351495355368,0.0031047191005200148,-0.0019671167246997356,-0.0012012458173558116,0.0008338020998053253,0.006470368709415197,0.0020955163054168224,-0.005872461479157209,-0.002841339912265539,-0.0014478338416665792,0.0032193060033023357,-0.0007329318323172629,0.0022508257534354925,0.004642903339117765,-0.005976812914013863,0.003551873844116926,0.0035792230628430843,0.004525584168732166,0.006283946800976992,-0.0031405508052557707,-0.001403283909894526,-0.003463244531303644,-0.0026982924900949,-0.002828235039487481,0.00482163205742836,-0.006772431079298258,-0.004254246596246958,0.0016568020218983293,0.0038822833448648453,0.002903190441429615,-0.006444156169891357,-0.0006024761241860688,-0.004478630144149065,0.007082106079906225,0.007316432427614927,-0.006337903905659914,0.0024808638263493776,0.004558403976261616,-0.002475230023264885,0.0028686216101050377,-0.00439638365060091,-0.005359308794140816,0.006102966610342264,0.002012162934988737,0.004569138865917921,0.0004654810472857207,-0.005065334495157003,-0.001855931943282485,0.005402009934186935,-0.007018203381448984,-0.004246783908456564,-0.003332756692543626,-0.003288237378001213,-0.005847056861966848,0.004858219996094704,-0.005033966153860092,0.004968154709786177,-0.001976465107873082,-0.000669738044962287,-0.0006379602709785104,0.0029509521555155516,0.0035613856744021177,0.002130345907062292,0.003890245920047164,-0.007142416667193174,-1.6573940229136497e-05,0.000496600812766701,-0.0037268707528710365,0.0007199984393082559,-0.0006137954769656062,-0.0005120540736243129,-0.005564457271248102,-0.0011012761387974024,0.0035624078009277582,-0.0015561975305899978,-0.00037543699727393687,0.006907914765179157,0.005564098712056875,0.006414494477212429,-0.005825485102832317,0.0019138980424031615,-0.0036191046237945557,-0.0009234388126060367,0.003074789186939597,0.001605162164196372,0.000526280200574547,0.005019800737500191,0.0032273081596940756,0.005202954635024071,0.006685974542051554,0.003476665122434497,-0.0010061898501589894,-0.0036104728933423758,-0.0028101028874516487,-0.0011089711915701628,0.00381257850676775,-0.006270891986787319,0.00485257850959897,0.003998765721917152,0.00018851897038985044,-0.0012093103723600507,-0.00528009794652462,-0.002770395018160343,-0.005367096979171038,0.004852199926972389,0.0003074095875490457,-0.0035315961576998234,-0.0067941187880933285,0.0003847148909699172,0.0037034708075225353,0.003908351995050907,-0.004075266420841217,0.007157349027693272,0.0010345913469791412,-0.002346147084608674,-0.001419651205651462,-0.005260547623038292,7.9982855822891e-05,0.003881077514961362,-0.0010738321579992771,0.005491537507623434,1.7561798813403584e-05,0.00610125157982111,0.0033217594027519226,-0.006007652264088392,-0.0059249610640108585,0.00446414714679122,-0.0017845837865024805,-0.004205952864140272,0.005564768798649311,0.007127429358661175,0.004770204890519381,0.003635646542534232,-0.006746315862983465,-0.00529898889362812,0.0026132259517908096,-0.0008619889849796891,-0.006396435666829348,0.003999396227300167,-0.000800423207692802,0.002466714708134532,-3.737552833626978e-05,-0.006320130545645952,0.0024240778293460608,0.004387905355542898,-0.004830234218388796,0.005867797415703535,-0.004205174744129181,-0.0007946874247863889,0.0004664304433390498,-0.002745213685557246,0.00015821876877453178,0.0033218213357031345,0.003217867109924555,0.006230061408132315,0.00531463697552681,0.007210347801446915,0.0016529359854757786,-0.0011633323738351464,-0.0034137845505028963,-0.003515404649078846,-0.004820225294679403,0.003465196117758751,0.0023993286304175854,-0.002790476195514202,0.005642314907163382,0.0008121554856188595,-0.006126825697720051,-0.006314284633845091,-0.0051222494803369045,-0.004271663725376129,0.0055630323477089405,0.003968984354287386,-0.004397861659526825,-0.0037510606925934553,0.0017940060934051871,0.005472233518958092,-0.0026299532037228346,0.00021099568402860314,0.005422584246844053,0.0037201012019068003,0.005696525797247887,-0.003186166984960437,0.0025834308471530676,-0.005775833036750555,0.001545272651128471,-0.0027086427435278893,0.0028846771456301212,-0.005355350207537413,0.0021181758493185043,0.0028948774561285973,0.005272228270769119,0.0026506560388952494,0.00010417454177513719,0.0038164297584444284,-0.0031698052771389484,0.0027256710454821587,0.0031492244452238083,-0.001839725417084992,0.006733872462064028,-0.0022049432154744864,-0.006397258024662733,-0.0032000418286770582,-0.006007903255522251,-0.002510371385142207,-0.005404355004429817,-0.0014064278220757842,0.0036426610313355923,-0.006448850501328707,0.000732419197447598,-0.006563755217939615,0.0050153653137385845,0.005779790226370096,-0.0002696692827157676,0.0037723237182945013,0.0013821810716763139,-0.002603315282613039,-0.0037659532390534878,0.0036516389809548855,-0.0009947920916602015,0.006177190225571394,0.006811459548771381,-0.004044199828058481,0.0010158148361369967,0.0007763229659758508,0.005597294308245182,0.0027455633971840143,0.0015865508466959,0.0026429591234773397,-0.0014873093459755182,0.006683774758130312,-0.00629953108727932,-0.006659500300884247,-0.0011125950841233134,-0.0048442864790558815,0.0006650974391959608,-0.007016095798462629,-0.0005158096901141107,-0.002887736540287733,-0.004242300055921078,-0.0009033170063048601,0.004976820200681686,0.002068993402644992,-0.005050350911915302,-0.0002210262173321098,0.005920552182942629,-0.001250027446076274,-0.0008256587898358703,0.005898185074329376,-0.005639111157506704,0.0029070444870740175,-0.0026018510106951,0.005584297701716423,-0.006130703259259462,0.007224309723824263,0.0039009121246635914,-0.002678422722965479,0.004181429278105497,0.00638541579246521,-0.00540796248242259,0.005954748019576073,-0.0015603984938934445,-0.006686787120997906,-0.005354629829525948,0.00557106314226985,0.006868687923997641,0.006017300300300121,-0.0006598577019758523,0.006614668294787407,-0.0015336317010223866,-0.0058323657140135765,-0.002149690641090274,0.007107835728675127,0.0015377753879874945,-0.0027458721306174994,0.001317086280323565,-0.0010057984618470073,-0.0064828782342374325,-0.004347569774836302,-0.006916480138897896,-0.003541103331372142,0.003474014112725854,-0.004389348439872265,0.0003972921404056251,0.0029507032595574856,0.0007733582169748843,-0.006874422077089548,-0.0019280691631138325,-0.0007962054805830121,-0.00216712336987257,0.0008635838748887181,0.0002866348950192332,-0.004453648813068867,0.003706692485138774,-0.0046673547476530075,-0.00031918956665322185,0.0037472920957952738,0.0028513374272733927,-0.0008782556978985667,0.004322635009884834,0.003278999589383602,-0.0019506268436089158,0.0054000490345060825,-0.005379809066653252,-0.0021724244579672813,0.0027419899124652147,0.005053324159234762,-0.0028280040714889765,0.000676493626087904,-0.0071965716779232025,-0.001937342807650566,-0.002714261645451188,0.004741066135466099,-0.006255418062210083,-0.0063791959546506405,-0.000837035768199712,-0.001524473074823618,-0.00496258307248354,-0.0034493261482566595,0.0068336608819663525,0.00026779359905049205,-0.006013802718371153,-0.006488993763923645,-0.006519285496324301,-0.0014876376371830702,0.005386335775256157,0.00511767016723752,-0.0016270979540422559,0.004227841272950172,0.003912496380507946,3.0673319997731596e-05,-0.0010828825179487467,-0.004374536219984293,-0.002937132492661476,-0.002050620038062334,0.004725574515759945,0.0009362347773276269,-0.004181528463959694,-0.005619431380182505,0.00012869146303273737,0.0025640795938670635,0.004575048573315144,0.004273731727153063,0.004736313596367836,-0.0006238583591766655,0.005353566724807024,-0.0008909145835787058,-0.004885953385382891,-0.0014860687078908086,-0.0022754042875021696,-0.001544478232972324,0.0021776831708848476,0.0021957745775580406,-0.003930049017071724,-0.0025997234042733908,0.0013790868688374758,-0.005970778875052929,0.002777298679575324,-0.004449600353837013,0.005236948374658823,-0.001301149488426745,-0.003938098903745413,0.002552957274019718,0.001054594642482698,-0.004396570380777121,0.004942863713949919,-0.0006393420626409352,-0.004870185162872076,0.004527455661445856,-0.004926915280520916,0.007038537412881851,-0.0008891435572877526,0.0033561373129487038,-0.00042783364187926054,-0.004203672520816326,0.004005876835435629,-0.0029446163680404425,0.0026779151521623135,-0.003461178159341216,-0.003761935979127884,-0.0006154312286525965,0.004513840656727552,0.0016535507747903466,-0.006235326174646616,0.0033500678837299347,0.0011539042461663485,0.0017159385606646538,-0.0020861136727035046,0.0008583779563196003,-0.0019078623736277223,-0.006090749986469746,0.004939531907439232,0.0026424818206578493,0.002512410283088684,-0.004479116760194302,0.0022567121777683496,-0.0037503615021705627,0.0028354490641504526,-0.002276452723890543,-0.004906604532152414,0.00589165510609746,-0.0056925504468381405,0.0036804380360990763,-0.005805926863104105,0.0025681424885988235,-0.005619506351649761,3.68108885595575e-05,-0.004634168464690447,0.005152815952897072,-0.0015253915917128325,-0.006951130926609039,0.001675553503446281,-0.0010223544668406248,0.004989491775631905,-0.0010760334553197026,-0.0012669088318943977,-0.0007703295559622347,0.004987495020031929,0.0011535868979990482,0.002356727607548237,0.003156710648909211,0.006200637202709913,0.004691543057560921,0.0060343933291733265,-0.002347035566344857,-0.004133977461606264,-0.004609865602105856,0.004757571965456009,0.0043981680646538734,0.0017760007176548243,-0.006644304376095533,-0.002780310343950987,0.003212099662050605,-0.0037564083468168974,0.0016202226979658008,0.00044419660116545856,-0.003195918630808592,0.00648848433047533,-0.0031840528827160597,0.00593569315969944,0.0008349324925802648,-0.005326845217496157,0.0054065389558672905,0.0048474762588739395,0.005409836303442717,0.002592086559161544,0.003742656670510769,0.006608132738620043,-0.004535336513072252,-0.005221886560320854,-0.004739745985716581,0.0053052701987326145,0.0008480256656184793,-0.004779872950166464,-0.005331062246114016,-0.0009151815320365131,0.004443369340151548,0.0042314897291362286,0.004906562156975269,0.003686716081574559,-0.0064340573735535145,0.003003603545948863,0.00010163380648009479,0.0031094506848603487,-0.0004011132405139506,-0.00044196221278980374,-0.00555811682716012,0.005688539706170559,-0.001923103118315339,0.0009835765231400728,-0.004450710490345955,-0.0020004333928227425,0.005341557320207357,-0.004172909073531628,-0.004319360945373774,-0.003564471611753106,0.0008337991894222796,-3.913162800017744e-05,-0.005100298672914505,0.0023531699553132057,0.005490317475050688,-0.0046014562249183655,0.00211241003125906,0.0007976184715516865,-0.002871249569579959,0.001403121859766543,-0.004463004879653454,0.004467491991817951,-0.007221364416182041,0.0006574738654308021,-0.0027971304953098297,0.005220965016633272,-0.00019706269085872918,0.004154321271926165,0.005887606646865606,-0.0025201996322721243,0.005326219368726015,0.0031996925827115774,-0.00573281804099679,-0.005806134548038244,0.004440346732735634,-0.000125377657241188,0.000482243049191311,0.006241733208298683,0.006211328320205212,-0.0052585965022444725,-0.001345008728094399,0.00634607020765543,0.005328162107616663,0.0037235072813928127,-0.005347142461687326,0.002227277494966984,0.0017404895043000579,-0.00409376947209239,0.004399322904646397,-0.0024273304734379053,0.002203067298978567,-0.0014990444760769606,-0.00550246424973011,0.0006166112725622952,-0.00266012130305171,-0.005815053824335337,-0.004062093328684568,0.0018791949842125177,-0.005719717592000961,-0.006008748430758715,0.006280137225985527,-0.0056930771097540855,-0.0017616626573726535,-0.0051360889337956905,0.006481749936938286,-0.0006579657783731818,-0.005893141962587833,0.0036171218380331993,0.003962810151278973,0.005736949387937784,0.0023493352346122265,-0.006905491463840008,0.0002999961725436151,-0.0018843805883079767,0.003478742204606533,0.0006260849186219275,0.002634603762999177,-0.0051367031410336494,-0.0012080400483682752,-0.0011195960687473416,0.0063468171283602715,-0.007386362180113792,0.0041044107638299465,-0.006023366004228592,-0.006175967399030924,-0.0024453250225633383,0.0029778764583170414,0.0028127420227974653,0.001990513876080513,0.003976170904934406,-0.003724523354321718,0.002100483514368534,0.002223012503236532,0.002266925759613514,0.001266192994080484,-0.0038189732003957033,0.006141665857285261,0.0070510865189135075,0.002742065116763115,-0.0010223512072116137,0.0006471002707257867,-0.005521553102880716,-0.0017941505648195744,0.006868321448564529,0.000458447786513716,0.0009148893295787275,0.006587682291865349,0.005673343315720558,0.0009719548979774117,-0.003550778841599822,-0.005223874934017658,0.00546106044203043,0.006293466314673424,0.00010035627201432362,-0.005603661295026541,0.0018286362756043673,-0.0016109951538965106,-0.0046020494773983955,0.006280158646404743,-0.0035066527780145407,0.0031978734768927097,-0.0008620304870419204,0.004922844935208559,0.0030833487398922443,-0.0052316440269351006,-0.0007798622827976942,-0.003548195119947195,0.003090634010732174,0.0006517861620523036,-0.002201691037043929,-0.002700584940612316,-0.005825783126056194,-0.004270179662853479,0.002920235740020871,0.0015594963915646076,-0.0021703545935451984,0.004796537104994059,-0.0001330192171735689,0.004335283767431974,0.004158324562013149,0.004957293625921011,0.00503036193549633,0.002700761891901493,0.003744560992345214,0.004149353131651878,-0.004778535570949316,-0.0028778051491826773,-0.0055503821931779385,-0.0042389435693621635,0.004214011132717133,0.006409122608602047,0.002464861376211047,0.005611881148070097,-0.002499090041965246,0.005140563473105431,-0.0022452534176409245,0.005649609491229057,0.004238673485815525,0.006975388620048761,0.0048033869825303555,-0.0018171420088037848,-0.005897779483348131,0.005107404198497534,0.0006764468271285295,0.004762992728501558,-0.00197455077432096,-0.007129149045795202,-0.0068416902795434,0.0020491022150963545,-0.005908628925681114,0.003168861847370863,-0.0015673955203965306,0.0005034639616496861,0.0038929590955376625,-0.003951175604015589,-0.0015547008952125907,0.002922863233834505,0.005602856632322073,-0.0034816297702491283,0.0013777604326605797,0.006297392770648003,0.0017726571531966329,0.00524104293435812,0.005879203788936138,0.00580868124961853,0.0034428101498633623,0.0005618516588583589,-0.005890829488635063,-0.004071075469255447,-0.0035405470989644527,-0.007018623407930136,-0.0059326509945094585,-0.003072169842198491,-0.00592274684458971,-0.004703151062130928,-0.006754187401384115,-0.0014536777744069695,0.004469871986657381,0.00441057700663805,0.005855737719684839,0.0031907472293823957,-0.003966279327869415,0.0027117833960801363,0.0035689156502485275,0.0006768559105694294,0.004026577342301607,-0.006493854336440563,0.001150915864855051,-0.0003243978717364371,0.00447028549388051,-0.005377528723329306,-0.004231633152812719,0.0006798257818445563,0.006190396845340729,-0.00629897927865386,0.003460155101493001,-0.004332587122917175,-0.00582533236593008,-0.001695299637503922,0.0009796535596251488,0.004610794130712748,0.0018119580345228314,-0.00021240764181129634,-0.003191772848367691,-0.0031086434610188007,0.0037335092201828957,-0.005685646552592516,-0.0051748063415288925,0.0030152583494782448,0.006476305890828371,-0.005660237744450569,0.0014158413978293538,-0.0038838982582092285,-0.007017086260020733,0.0046034036204218864,8.752616849960759e-05,-0.006902799475938082,0.00556535180658102,0.00038365641376003623,0.003251511137932539,-0.0011445139534771442,-0.00460909865796566,-0.0006284854025579989,-0.0032201092690229416,-0.003098769811913371,0.001983171096071601,-0.005927296355366707,-0.001684048562310636,0.0004415782168507576,0.0028064572252333164,0.001793386647477746,0.005437502637505531,0.006856809835880995,0.006068887654691935,0.003551777685061097,0.0025456214789301157,-0.006831828970462084,0.00022461620392277837,0.0021363901905715466,-0.0014714023564010859,-0.0016268107574433088,0.00048519845586270094,0.005508426111191511,-0.0037293469067662954,-0.001541507663205266,0.0022039376199245453,-0.004690346773713827,0.004534624051302671,0.0022363585885614157,-0.0020735713187605143,0.0031196866184473038,-0.003422244219109416,0.003686456708237529,-0.006268440745770931,-0.0009661330259405077,-0.0035047302953898907,0.004371605813503265,0.003379393834620714,0.004787667188793421,0.00213501020334661,0.0042791832238435745,-0.0008839988731779158,0.002456394722685218,-0.006817332934588194,0.005406477488577366,0.0027723307721316814,0.005383060779422522,0.003914093133062124,-0.0030182120390236378,-0.003106833202764392,0.004417175892740488,-0.004441757686436176,-0.00557711860165,-0.006891273427754641,-0.002732145367190242,-0.005666999612003565,0.004455874674022198,-0.00018998896121047437,-0.0034970748238265514,0.001580311800353229,-0.006128192413598299,0.0032934588380157948,2.143186611647252e-05,-0.007105252705514431,-0.0025779902935028076,0.003579501062631607,-0.004500970244407654,0.006583061534911394,0.005630635656416416,0.003928094170987606,-0.0061660888604819775,-0.002167121507227421,-0.003033676417544484,-0.0054533230140805244,0.006928266491740942,-0.005032294895499945,-0.002626219531521201,0.005332509521394968,-0.005341009236872196,-0.0007312626694329083,0.0070315878838300705,-0.003520216792821884,0.0028187197167426348,-0.00626729940995574,0.0010931376600638032,-0.002064814791083336,0.003027179976925254,-0.0010097711347043514,-0.003120081964880228,0.00032117252703756094,-0.004898373037576675,0.0046774703077971935,0.003527857828885317,0.00036199751775711775,-0.002371271373704076,0.005820430349558592,0.0019686254672706127,-0.003139380132779479,0.0042467620223760605,0.0016879517352208495,-0.005370211787521839,-0.005421729758381844,0.006302819587290287,-0.003176245605573058,0.0020253676921129227,-0.006557125598192215,0.0010214351350441575,-0.003656445536762476,-0.0051556918770074844,0.003753753611817956,0.004696729592978954,0.003378113731741905,-0.006760287098586559,-0.002990784589201212,-0.002050404902547598,0.0031190551817417145,0.004075674805790186,0.002152085769921541,0.004344463348388672,-0.001020092866383493,0.0006194356828927994,-0.006260955706238747,-0.0011189047945663333,-0.001149689662270248,0.0013868066016584635,-0.001847128034569323,-0.003874528920277953,-0.003987929783761501,-0.005550513043999672,0.0026139498222619295,0.001545888721011579,0.000898119353223592,0.00012733561743516475,-0.00222803745418787,0.003534595714882016,0.0057662311010062695,-0.0010972198797389865,-0.0015648959670215845,-0.0051023936830461025,0.0021830229088664055,0.0005643265321850777,0.006825605407357216,0.0010690130293369293,-0.0031298166140913963,0.0007545449770987034,0.006884589791297913,0.0030660436023026705,-0.00551479309797287,-0.0024263784289360046,-0.0030099519062787294,0.005031293723732233,0.0014846245758235455,0.004369489382952452,-0.00472242571413517,0.00579593563452363,-0.006483508739620447,-0.0018476310651749372,-0.007024243474006653,-0.004561849404126406,0.006635929923504591,-0.006182360462844372,-0.0051551819778978825,0.006062415428459644,0.0030145011842250824,-0.0013030344853177667,-0.006267820950597525,0.004039410501718521,-0.00016086100367829204,-0.0025395310949534178,-0.0019443221390247345,-0.0004501555231399834,0.00017157450201921165,0.004008010495454073,0.0034380091819912195,0.0033538327552378178,0.002791676204651594,0.0032156426459550858,0.0020629402715712786,0.004823946859687567,0.000287491362541914,-0.00017706975631881505,0.0024854731746017933,-0.005241032689809799,0.0035268310457468033,0.005784280598163605,-0.003256852738559246,0.0012257058406248689,-0.007114979904145002,0.003438485087826848,0.00045408058213070035,0.00223255786113441,-0.005448308773338795,0.004041649866849184,-0.0039316401816904545,0.00224288203753531,0.00156070024240762,0.00244183954782784,-0.006318910047411919,0.0034915206488221884,0.004060652107000351,-0.00020269874949008226,-0.0012104928027838469,-0.002208053832873702,0.006087312940508127,0.003482256783172488,0.0028216291684657335,0.006049300078302622,-0.002269165823236108,0.0016965994145721197,0.002467734506353736,0.007005428429692984,-0.0012355830986052752,-0.0016621450195088983,-0.006221352145075798,-0.005991826765239239,-1.7153983208118007e-05,-0.004917059559375048,-0.006297991145402193,0.006404368206858635,0.006218495778739452,-0.0025927519891411066,0.004112546797841787,0.005209367722272873,-0.0008637078572064638,-0.0045031295157969,-0.00538059463724494,-0.0052473521791398525,0.004070113878697157,-0.002057594247162342,0.002250916790217161,0.0004917489713989198,-0.001653658808209002,-0.005726653151214123,-0.0028689848259091377,0.004348589573055506,0.004399599973112345,-0.006984132807701826,-0.005557060241699219,0.0031386828050017357,-0.0029267738573253155,0.001948575023561716,0.0005778611521236598,0.001771995797753334,-0.006950292736291885,0.005672936327755451,-0.007052391301840544,-0.007305298466235399,-0.004227165598422289,0.006810386199504137,-0.00640038400888443,0.00509705999866128,-0.005231849383562803,-0.005962728522717953,0.003711869940161705,0.004710555542260408,0.0038291735108941793,-0.0040697017684578896,0.005145338363945484,-0.006412418559193611,-0.002548452001065016,-0.0008869314333423972,-0.006458807270973921,0.0009062227327376604,0.000651972834020853,0.0068277595564723015,0.001477892161346972,-0.0016411873511970043,0.0040718563832342625,-0.002422299236059189,0.00038917886558920145,-0.006405684631317854,-0.0026520839892327785,0.00021687278058379889,0.0028678406961262226,-0.005688332486897707,0.004158523865044117,0.005564037244766951,-0.00339096924290061,0.0037514118012040854,-0.004599087871611118,0.00011285881191724911,0.003976880572736263,-0.0019047120586037636,-0.006884308531880379,0.0005419643130153418,0.00454162759706378,-0.006047439761459827,-0.007062367629259825,0.004354999866336584,-0.003392450511455536,-0.002412796253338456,-0.006392200011759996,-0.006109015084803104,0.0015042924787849188,0.0006324212881736457,-0.0030645071528851986,-0.00078850012505427,-0.0015626137610524893,0.002944754436612129,0.005413702689111233,0.003820117563009262,-0.007090242113918066,-0.005573823116719723,-0.00079934555105865,0.005309336818754673,-0.0037721714470535517,0.0055197677575051785,-0.005434025079011917,-0.005940853618085384,0.006147697102278471,-0.00496193952858448,-0.0005534060765057802,-0.0024271407164633274,-0.004955235403031111,0.0019498970359563828,0.006415261887013912,0.0021495812106877565,-0.0021681757643818855,0.002997447969391942,-0.005214419681578875,0.0007403524941764772,-0.0009025430772453547,-0.002547232201322913,0.0027719144709408283,-0.006231730338186026,0.00013252691132947803,0.004698393866419792,-0.004711227025836706,-0.003908643964678049,0.0016811038367450237,0.003730419324710965,-0.0033939401619136333,-0.00231890263967216,0.0030637774616479874,-0.0035629800986498594,0.002383069135248661,-0.004971447866410017,-0.001416260376572609,0.002414379734545946,-0.0009394262451678514,-0.006713094189763069,-0.0012109309900552034,-0.0030558998696506023,-0.005956570152193308,-0.0073127103969454765,-0.0065656439401209354,0.006257887464016676,0.003431107848882675,0.006273698527365923,-0.005391416605561972,0.0011954315705224872,-0.005942840129137039,-0.006725850515067577,-0.000331674178596586,0.0024081964511424303,-0.0060058156959712505,-0.0017847754061222076,-0.005738651379942894,-0.0017004619585350156,-2.5178635041811503e-05,-0.0022528707049787045,0.0011571237118914723,0.001286461716517806,-0.002169458894059062,-0.0013007415691390634,-0.0009666686528362334,-0.0018583135679364204,0.0037415132392197847,-0.00505659868940711,0.0052529978565871716,-0.002740710973739624,0.002906440058723092,0.005203012842684984,0.0052004624158144,-0.0009784784633666277,-0.003817674471065402,0.001177768805064261,-0.004915461875498295,0.003805472981184721,0.002849700627848506,0.003928944002836943,-0.001274122390896082,0.00044425250962376595,-0.005939446855336428,0.0026561629492789507,-0.0004172490444034338,-7.941368676256388e-05,0.0047497255727648735,0.0038637786637991667,0.0005213759723119438,-0.002159175928682089,-0.0008599756984040141,-0.0022137132473289967,-0.004955510143190622,0.002201562747359276,0.0027378706727176905,0.006791509222239256,-0.0005915550864301622,0.007467488292604685,-0.004097927827388048,0.002258493099361658,0.007171028759330511,0.0021693059243261814,-0.000336086202878505,0.00052733562188223,0.004979235120117664,0.006354805547744036,-0.0005200604209676385,0.004204097669571638,0.006439343094825745,-0.00315120373852551,-7.222267595352605e-05,0.007261063903570175,-0.0018819993129000068,0.001839351374655962,0.002212782157585025,-0.004863120149821043,0.004606121219694614,-0.0010348317446187139,0.00011140433343825862,0.0016928062541410327,-0.0016808186192065477,-0.002910592593252659,0.0002365468826610595,-0.002609878545626998,-0.0012848579790443182,-0.006044358015060425,0.004505931865423918,-0.001708126743324101,-0.006339209154248238,0.0038752402178943157,-0.007288467604666948,0.0010141553357243538,0.0024923549499362707,-0.004719839431345463,-0.005497787147760391,-0.005800681654363871,0.006764237768948078,0.003309165593236685,-0.0029406158719211817,-0.0024438914842903614,0.0020159329287707806,-0.0008090274059213698,-0.0035450486466288567,-0.006572207901626825,0.0038600352127104998,0.005455627106130123,-0.004264429211616516,-0.006259310524910688,-0.0054950895719230175,-0.0016630537575110793,-0.003187444992363453,-0.006338094361126423,-0.0007857346208766103,-0.004382648970931768,-0.0067884125746786594,0.0018062018789350986,0.0006294611957855523,0.004373911302536726,-0.003093250561505556,-0.005682765040546656,-0.002453732071444392,0.003539405995979905,-0.004070925060659647,-0.003874752204865217,-0.005359797738492489,0.006651401985436678,0.006386691238731146,0.0020045330747962,-0.004395986907184124,0.0038468388374894857,0.0010935679310932755,0.0033676375169306993,0.004838849417865276,-0.0029356898739933968,0.0060484763234853745,0.005718244705349207,0.0005528880283236504,0.002343188039958477,-0.0015118197770789266,0.002374042524024844,0.000731116917449981,-0.0026710936799645424,-0.002811507089063525,0.0020382495131343603,0.006773244123905897,-0.004242080729454756,-0.0016921445494517684,0.00412595272064209,-0.00557098351418972,0.007286507170647383,0.0025832445826381445,0.005775690544396639,0.00467276107519865,0.0038609635084867477,-0.0067486995831131935,-0.0012669714633375406,-0.004127714317291975,0.00549034820869565,0.002703092759475112,-0.005724643357098103,-0.001927361125126481,-0.006038219667971134,0.0036206147633492947,-0.0010485508246347308,-0.003910174127668142,0.00038453785236924887,-0.006398539524525404,-0.003266610438004136,-0.0045380666851997375,0.0061616660095751286,-0.0016242810525000095,0.001417606370523572,0.0003104866191279143,0.0023883224930614233,-0.0030598517041653395,-0.0052184308879077435,-0.005747390910983086,-0.004167291335761547,-0.00022930109116714448,-0.0037715162616223097,-0.0010656322119757533,-0.007035552989691496,0.0015229484997689724,0.005215016193687916,-0.006460520904511213,-0.004124172497540712,-0.002772298874333501,-0.0032353615388274193,-0.006747317500412464,-0.005524913780391216,0.005950434599071741,0.002968523418530822,0.0064728450961411,-0.0009602095815353096,0.005543675273656845,0.004555456340312958,0.0052968463860452175,-0.006793329492211342,0.00212688697502017,0.0009974781423807144,0.0005348307895474136,-0.00019672758935485035,0.003948556259274483,0.006558828521519899,0.005022204015403986,0.0054922327399253845,-0.0002503001014702022,0.00271613453514874,-0.0011699945898726583,-0.001813779934309423,0.005770154297351837,0.005792270414531231,0.002605304354801774,0.0049301693215966225,-0.0018857658142223954,-0.0009020832949317992,0.004594942554831505,-0.0014681563479825854,-0.006554112769663334,-0.002094225725159049,-0.00152920326218009,-0.005053585395216942,-0.0022345208562910557,0.006379761267453432,0.0049329958856105804,-0.001048180041834712,0.0027810067404061556,-0.005031998734921217,0.0037290065083652735,-0.0003852020890917629,0.00305115501396358,0.0018503024475649,-0.004051372408866882,0.004554899875074625,0.0010082904482260346,0.0039389245212078094,-0.006033269688487053,0.0014746959786862135,-0.0032097806688398123,0.005108342505991459,0.006283169146627188,-0.006620253436267376,0.0030121002346277237,-0.00592571496963501,0.005040451884269714,-0.005565775092691183,-0.004645812325179577,-0.003841595957055688,0.0030369670130312443,-0.003143483540043235,0.0011638480937108397,0.0007664112490601838,-0.00156305986456573,0.00038832068094052374,-0.005538910627365112,0.005302989389747381,-0.004377970937639475,0.005300147458910942,0.00014940564869903028,0.0017280583269894123,-0.003430683631449938,-0.0039349873550236225,-6.76178460707888e-05,-0.0032480512745678425,-0.0010152667528018355,-0.0007523229578509927,-0.0031358154956251383,-0.002826213836669922,0.006973261944949627,0.0012933535035699606,0.004827143624424934,-0.006427873857319355,-0.007030577398836613,0.0004248865006957203,0.004592037759721279,0.0015049794455990195,0.001665654475800693,-0.005208638496696949,0.006914664525538683,-1.1880111742357258e-05,-0.006027281284332275,-0.001536443829536438,-0.006541846785694361,-0.0016512882430106401,0.0027223301585763693,-0.002721603959798813,-0.0029045480769127607,-9.672663145465776e-05,-0.0004018775944132358,-0.0006282933754846454,0.00015088095096871257,-0.00662404578179121,-0.0005225855275057256,0.006872639060020447,0.0037989099510014057,-0.0030426145531237125,0.002483768155798316,-0.0025875915307551622,-0.004633933771401644,0.004096406511962414,-0.004041899461299181,0.005139805376529694,-0.0018640740308910608,0.003495900658890605,-0.0035841967910528183,0.002050065202638507,-0.004300206899642944,-0.007109296973794699,0.004141084849834442,0.004847938660532236,0.005131739657372236,-0.0071222963742911816,0.0031997165642678738,0.004152911715209484,-0.0030993891414254904,-0.0009278552024625242,-0.0019527145195752382,-0.0015305319102481008,0.0043008397333323956,-0.0016148494323715568,-0.003376963082700968,-0.0059967562556266785,0.0018526597414165735,-0.006605465430766344,-0.006760908756405115,0.0021114612463861704,0.0022605378180742264,-0.004853024613112211,0.0059614600613713264,0.0036675771698355675,0.0024457296822220087,0.0034903278574347496,-0.0014991851057857275,-0.0011249692179262638,0.005067710764706135,-0.006826946046203375,0.004421238787472248,-0.0007786477217450738,-0.000825473282020539,-0.002500443020835519,0.0017277323640882969,0.0027649838011711836,-0.0047837598249316216,0.0007537310593761504,-0.0003466436464805156,0.004325511399656534,0.0008801156072877347,-0.0008965677116066217,0.0003457634011283517,5.684107236447744e-05,0.006444904487580061,-0.002631748327985406,-0.006643764674663544,0.002247052500024438,0.0012116050347685814,0.005610743071883917,-0.005800437647849321,-7.865485531510785e-05,-0.00557773606851697,-0.0007422183407470584,0.0041963160037994385,0.004941688850522041,0.004511142149567604,0.00022269350301939994,0.0019982135854661465,0.0007371882675215602,0.0008009550510905683,0.005356213543564081,-0.004492335021495819,-0.0006515478016808629,0.001732831122353673,0.0038388019893318415,0.0036214597057551146,-0.00577893340960145,-0.003758477047085762,0.00608324958011508,-0.0020122830756008625,-0.007234441582113504,-0.004503806121647358,0.006795923225581646,-0.002933482639491558,0.0012669340940192342,0.0029239372815936804,0.0018352939514443278,-0.0017745489021763206,-0.0011419417569413781,0.004588537383824587,0.0020848510321229696,-0.0070022898726165295,-0.004236177075654268,-0.003121894085779786,-0.0020639270078390837,0.0010156865464523435,-0.001860173768363893,0.0047759669832885265,-0.00028098319307900965,2.1712601665058173e-05,-0.0010060674976557493,-0.002571961609646678,0.003365813521668315,-0.0038013155572116375,0.002733487170189619,0.0004949407302774489,-0.005530576687306166,-0.0068064178340137005,-0.004377106204628944,0.004387825261801481,-0.0007275979733094573,0.005321782547980547,-1.1664879821182694e-05,-0.0064377253875136375,0.005572412628680468,0.007108998019248247,-0.005293736699968576,-0.004345017950981855,0.0032914387993514538,0.007670536637306213,0.006113569252192974,-0.005084816366434097,0.0013853225391358137,0.00257398234680295,0.002378461416810751,0.0016521551879122853,-0.002414560643956065,0.002312562195584178,0.003555968636646867,0.0016227354062721133,0.0006402056897059083,-0.003492501564323902,0.000534555409103632,-0.005379751790314913,-0.006105484906584024,0.004017829895019531,0.0024827453307807446,0.002211508108302951,0.006315638776868582,-0.0014941225526854396,-0.00121755909640342,-0.0010709749767556787,-0.00036538654239848256,0.00036861380795016885,0.004239571746438742,-0.003795948112383485,-0.0006287830183282495,0.000121026583656203,-0.004703145008534193,0.002969080815091729,-0.006260401103645563,0.0014812072040513158,-0.00435222452506423,-0.00713516166433692,-0.0027585290372371674,-0.0010684857843443751,0.004597233608365059,-0.0014312525745481253,0.005832598078995943,0.004684187937527895,-0.004792838357388973,-0.005476192105561495,-0.0037156702019274235,-0.0020213015377521515,0.0011035138741135597,-0.005663393530994654,0.00012073302787030116,0.0012615019222721457,0.0024209334515035152,0.0006974966963753104,0.004573114216327667,0.001921114744618535,0.006307927425950766,0.0030464367009699345,-0.0008842943352647126,-0.004182511009275913,-0.007073548622429371,-0.0056675150990486145,-0.0043074339628219604,-0.004046332556754351,0.0034739498514682055,-0.0016181838000193238,-0.0026310915127396584,-0.006561565212905407,0.0003845693136099726,0.0015029240166768432,0.005263184662908316,-9.744515409693122e-06,-0.007134520914405584,-0.006335622165352106,-0.0033897198736667633,-0.0053424839861691,0.003990793135017157,-0.005578130949288607,-0.004901915788650513,0.0023486195132136345,-0.003846619511023164,0.0069952006451785564,0.0054093641228973866,0.0035972213372588158,-0.0022708559408783913,-0.006484014913439751,-0.002064829459413886,-0.0015193134313449264,-0.00525667192414403,-0.00547401187941432,0.0022672296036034822,-0.004057603422552347,0.0025718947872519493,0.0009310528985224664,0.0062365420162677765,0.004835724364966154,-0.005268418695777655,0.0016106353141367435,0.0024747969582676888,0.005746779032051563,0.00262113637290895,-0.005485167261213064,-0.0035056632477790117,0.002223819028586149,0.006438629236072302,0.006142002530395985,-0.0024260408245027065,0.004646659828722477,0.00034988386323675513,-5.0630282203201205e-05,-0.001659294357523322,0.0021384325809776783,0.001237382530234754,-0.001686319475993514,0.004109189845621586,-0.0013227828312665224,0.0009316317155025899,-0.0019613017793744802,-0.005933572072535753,-0.005241672042757273,0.0018377375090494752,0.00434116693213582,-0.0006962213083170354,-0.002769291400909424,-0.0026600039564073086,0.0010094036115333438,-0.0004887412069365382,-0.007310561370104551,0.0036990742664784193,-0.0054699392057955265,0.002092379378154874,-0.0021829530596733093,0.0010316693224012852,0.004907722119241953,-0.005285352468490601,0.0035290850792080164,-0.006578685250133276,0.005962569732218981,-0.004498055204749107,0.003911568783223629,-0.006716521922498941,-0.0028643955010920763,0.0015245149843394756,0.0019142584642395377,0.0026311029214411974,-0.002337417099624872,0.0020323407370597124,-0.0014354947488754988,0.0006509380182251334,0.0005251116817817092,-0.004865503869950771,0.0047130342572927475,0.00495412852615118,-0.00448101619258523,-0.0013350361259654164,-0.0005766720860265195,0.0005824631080031395,-0.007026832550764084,0.003592216409742832,0.005102731287479401,-0.005216310266405344,0.005689069163054228,0.0050081899389624596,0.00047715267282910645,-0.003338779089972377,-0.004315049387514591,-0.0004004286020062864,-4.184976569376886e-05,0.0020771606359630823,0.004175430163741112,0.006141368765383959,0.0040068733505904675,0.005724921356886625,-0.0001375063875457272,-0.0068266079761087894,-0.006615589838474989,-0.003714656922966242,0.0013110794825479388,-0.0026742846239358187,-0.00511969905346632,0.004751831293106079,0.006533910986036062,-0.007354598958045244,-0.006304147187620401,-0.0004462737706489861,-0.002734298352152109,0.003620665054768324,0.0017878208309412003,-0.0066056447103619576,0.0002575736434664577,-0.0026743595954030752,0.006477257236838341,-0.0006746533326804638,0.005869689863175154,-0.006950688548386097,-0.005828492343425751,-0.00183560058940202,0.005311534274369478,0.000399296433897689,0.004462134558707476,-0.003237392520532012,-0.005723889917135239,-0.0038611667696386576,0.0018382363487035036,0.005169291514903307,-0.000758367998059839,-0.004488283768296242,0.0017877492355182767,-0.004541537258774042,0.0008203928591683507,-0.005916508845984936,0.004408152308315039,0.004292015917599201,0.0005043339915573597,-0.0067836688831448555,-0.0033122580498456955,-0.005905312020331621,-0.0002123311278410256,-0.006260853260755539,0.004688387271016836,0.004402410704642534,-0.0056875054724514484,0.002153815468773246,0.002149714855477214,-0.0022123195230960846,-0.005670417565852404,-0.005955443251878023,0.002801659284159541,-0.004609445575624704,0.0008865480776876211,0.004776558838784695,0.0009328961023129523,0.0064103128388524055,0.0017595551908016205,-0.0029802359640598297,0.004842793568968773,-0.0027747112326323986,0.00670878030359745,-0.0004335738776717335,0.006359335500746965,-0.004623985383659601,-0.007013032678514719,-0.004242842551320791,-0.005607907194644213,0.0034674257040023804,-0.003266726853325963,0.0018835890805348754,0.002466042758896947,0.0028225306887179613,0.00490792328491807,-0.004922913387417793,-0.006689411588013172,-0.006801024079322815,-0.005634884350001812,-0.0016502359649166465,0.006770312320441008,-0.0023897101636976004,-0.0007916114991530776,0.004529112949967384,0.006056522950530052,0.00677504250779748,0.004396851174533367,-0.0001582717231940478,-0.00393745768815279,0.00138423393946141,-0.004391153808683157,-0.006258164066821337,0.0062315925024449825,3.7349742342485115e-05,0.00045077959657646716,0.0018991277320310473,-0.0005326410755515099,-0.0005588061758317053,0.006296760868281126,0.004936146084219217,-0.0037883699405938387,-0.0029122214764356613,0.002486292039975524,0.0013726644683629274,0.004261828027665615,0.003689658362418413,0.002978772157803178,0.005589081905782223,0.0041185589507222176,-0.0032278005965054035,0.005805568769574165,-0.0024870592169463634,0.005972470156848431,0.004890577867627144,-0.005710747558623552,0.004285293165594339,-0.0003559105680324137,0.006306823343038559,-0.0012140872422605753,-0.0068948836997151375,-0.0037846812047064304,-0.001165822148323059,0.0009384813602082431,-0.005470318254083395,-0.00033219793112948537,-0.0008967058965936303,0.0049634636379778385,-0.003001612378284335,-0.0010296509135514498,-0.0020579479169100523,0.0014459359226748347,0.005153906997293234,0.0024628236424177885,-0.0007590623572468758,0.0016556981718167663,-0.002869152929633856,-0.004786223638802767,-0.002643715823069215,-0.0010112258605659008,-0.001202611019834876,0.0030880370177328587,0.006001423578709364,-0.001910687773488462,-0.006260632537305355,-0.007116460241377354,-0.007529181893914938,0.006198383867740631,0.006995692849159241,-0.006632860284298658,-0.002314767800271511,0.002191080478951335,-0.004542087204754353,0.0014179690042510629,0.004510336555540562,0.005081126466393471,0.002987592713907361,-0.00581024307757616,-0.001970867393538356,0.006874279119074345,-0.004285522270947695,-0.0004551684542093426,-0.002180445473641157,-0.004083299543708563,-0.0024532368406653404,-0.00437746150419116,0.0054990677163004875,-0.004610871896147728,0.0018425624584779143,0.006302014458924532,0.006456449162214994,0.001485586166381836,-0.003298493567854166,-0.0037239566445350647,0.0034300079569220543,0.006968477740883827,-0.005822025239467621,0.004044041503220797,-0.005524402484297752,-0.002906563924625516,0.0012067079078406096,-0.002505779266357422,0.001952001010067761,-0.001266775419935584,-0.003931456711143255,0.0007219418184831738,-0.006469773128628731,0.0031309144105762243,0.0001975489576580003,0.006443603429943323,-0.005500243045389652,0.00357061973772943,-0.0032992723863571882,-0.002279077423736453,-0.00261712446808815,-0.0023818914778530598,-0.0012985558714717627,-0.0072556957602500916,0.004621441010385752,0.005109027493745089,-0.006943517830222845,0.003662378527224064,-0.006447755265980959,0.004154493100941181,0.001313749118708074,-0.003022173885256052,0.0014474974013864994,-6.1725229898002e-05,0.0017953282222151756,-0.00055693369358778,0.0037894679699093103,-0.0066643692553043365,-0.002283556153997779,0.0007929306011646986,0.0011624150210991502,-0.004839275497943163,-0.006201352924108505,-0.0070299371145665646,-0.0013842904008924961,-0.002578802639618516,0.0008667341317050159,-0.0008304216898977757,-0.0016904440708458424,0.004791499115526676,0.0015777533408254385,0.0019254618091508746,-0.001886193291284144,0.003765807021409273,-0.0051875668577849865,-0.0016209640307351947,-0.006782152224332094,-0.005747693590819836,-0.0062146480195224285,-0.0010159455705434084,0.0026203959714621305,-0.0029474026523530483,-0.006966897286474705,0.0027956960257142782,-0.004369642119854689,0.003008730709552765,-0.007275308016687632,-0.002883714623749256,0.001889441511593759,0.005343085620552301,0.0035829544067382812,-0.0007422509952448308,0.0030962026212364435,0.0006725784623995423,0.00457788398489356,0.003992584999650717,0.006914775352925062,-0.005734621547162533,-0.0020934666972607374,-0.004271379206329584,0.0019753703381866217,0.002333761425688863,-0.004385699983686209,-0.0009574613068252802,0.0015533094992861152,0.0022577939089387655,-0.005824026186019182,0.005857283249497414,-0.006705426145344973,0.006743848789483309,-0.00279298797249794,-0.0028303160797804594,-0.0010212871711701155,0.00251298607327044,-0.005113997031003237,-0.003644622629508376,0.006573173217475414,0.005523289553821087,-0.0042521958239376545,0.0009417489054612815,-0.004382066894322634,0.0006239035283215344,-0.0018715603509917855,-0.001913891057483852,0.001930229482240975,-0.003774228971451521,-0.0015414409572258592,0.005998940672725439,0.0038265706971287727,-0.001653648796491325,-0.004077886696904898,0.0019697980023920536,0.004186260048300028,0.005397592671215534,0.0009937766008079052,5.79004772589542e-05,0.002823946764692664,-0.004905452020466328,0.004879257176071405,-0.006345267407596111,0.0012506067287176847,0.0010871891863644123,-0.002851818921044469,-0.006951322313398123,0.0028343419544398785,-0.007114543579518795,-0.004805679898709059,0.0005036490620113909,0.006029101554304361,-0.006486406084150076,0.0009053510730154812,-0.002634400734677911,0.0023290393874049187,0.006203973200172186,-0.0035584394354373217,0.006384049542248249,0.00520318141207099,0.001417898340150714,0.003434237791225314,0.005009991582483053,0.00419206777587533,-0.00268202624283731,0.004281478002667427,-0.002847472671419382,0.005146635230630636,-0.003623872296884656,0.0009599562617950141,0.0026847929693758488,-0.0011427871650084853,0.004004592541605234,0.006109058391302824,-0.0045676757581532,-0.006803092546761036,0.0017851092852652073,0.0014421404339373112,-0.0022588069550693035,0.004078987054526806,0.004581760615110397,-0.0024929530918598175,0.0025302735157310963,0.0019862502813339233,-0.0022988952696323395,0.006678932812064886,-0.0023036582861095667,0.001635288936085999,-0.0017386253457516432,-0.0069938586093485355,-0.005857929587364197,-0.003908686805516481,0.004423435777425766,-0.000857474806252867,0.0012314497726038098,0.006345255766063929,-0.00513736205175519,0.005073878914117813,-0.0017943826969712973,-0.0024040418211370707,0.0017295025754719973,0.005645264405757189,-0.0023195825051516294,0.003708289237692952,-0.006920347455888987,0.0017262884648516774,0.0017765359953045845,0.0006685188272967935,0.006282914895564318,0.0063784862868487835,-0.0022330840583890676,-0.0007431443664245307,0.004075006581842899,0.0049563511274755,-0.0010851598344743252,-0.0021774647757411003,0.004158944357186556,-0.0022459879983216524,-0.0017331743147224188,-0.005485896021127701,0.0003963167837355286,-0.003046277677640319,0.0007329486543312669,-0.0012103632325306535,0.003214687341824174,-0.003475601552054286,-0.005244267638772726,0.0024026569444686174,-0.002100997604429722,0.000593970064073801,0.006074841134250164,-0.0006769232568331063,-0.005384415853768587,-0.0012747341534122825,-0.00042555126128718257,0.0037028894294053316,-0.0047868285328149796,-0.0024784239940345287,-0.00658238772302866,0.0028820419684052467,0.0034067193046212196,-0.0003338369424454868,0.0008508520550094545,0.003814400639384985,-0.0032214149832725525,0.0014829508727416396,0.006820142734795809,0.0023892573080956936,-0.005983688402920961,-0.003031216561794281,8.210846863221377e-05,-0.006088456138968468,0.002509261015802622,0.0021482459269464016,0.005286536179482937,-0.00024022647994570434,0.0026687809731811285,-0.004734043963253498,-0.007220250088721514,-0.004813903942704201,-0.006396020296961069,-0.0012282318202778697,-0.0006374823278747499,0.002034271601587534,-0.005097468849271536,-0.003997327759861946,0.004495672415941954,0.0011814847821369767,-0.0066919634118676186,0.00516334967687726,0.00204958813264966,-0.004397861659526825,-0.003551275236532092,0.0008424580446444452,0.0011253750417381525,0.0047140237875282764,-0.002080714562907815,0.0006249586003832519,0.0011719377944245934,0.0009945158381015062,-0.0057892766781151295,-0.0014575535897165537,-0.0025404863990843296,0.006953156087547541,-0.000456212175777182,-0.0006465089390985668,-0.00046601545182056725,0.00577308377251029,0.0014214039547368884,-0.0016446808585897088,0.0060511003248393536,0.006188425235450268,-0.0032712107058614492,-0.001358386012725532,0.006853167898952961,0.0007305360049940646,-0.000831397483125329,-0.0041913678869605064,-0.0014541196869686246,0.0020903595723211765,-0.006501017604023218,-0.0057957046665251255,-0.006936324294656515,-0.003883740631863475,-0.00437483936548233,0.005181719549000263,-0.004463475197553635,0.00230987835675478,-0.005434190854430199,0.00150046416092664,-0.000699073018040508,-0.001439338899217546,0.004988941363990307,-0.004796488676220179,0.0014774983283132315,0.0047800238244235516,0.0029817286413162947,0.006828315556049347,-0.007286545820534229,0.005388150457292795,0.0015141142066568136,-0.007224526721984148,-0.0005947764730080962,0.0037736189551651478,-0.0046526468358933926,0.00249302526935935,-0.005234528798609972,0.004252877086400986,0.0009102927288040519,-0.006743730511516333,-0.005887551698833704,0.005110185127705336,-0.006847144570201635,-0.002952325390651822,0.0009294205228798091,-0.004121298901736736,-0.004127571824938059,0.003798958845436573,-0.003106722142547369,-0.006701071746647358,0.003117575543001294,0.006864719558507204,0.005034887231886387,0.000872856704518199,-0.0010296491673216224,0.006087773479521275,0.004133160226047039,0.0012548681115731597,0.005671950988471508,0.0015316962962970138,0.0068120635114610195,0.005279147531837225,0.0007766763446852565,0.006160775199532509,-0.0022615494672209024,0.00280979392118752,-0.0047791823744773865,0.005577621050179005,-0.0036589517258107662,0.00625722436234355,-0.007280148100107908,0.002546556992456317,-0.005159740801900625,0.0037285592406988144,-0.0004859018372371793,0.0053608613088727,0.0030265613459050655,0.0036086782347410917,-0.00568509241566062,-0.006002463866025209,0.0049084266647696495,-0.003968394361436367,0.005062080919742584,-0.0053740800358355045,-0.003028308041393757,0.005997581873089075,0.004929864779114723,-0.006540130823850632,-0.0009331073379144073,0.005657030735164881,-0.0070668482221663,-0.0055300709791481495,0.002029574941843748,-0.005821124650537968,-0.0008267201483249664,0.00017032514733728021,0.0053709764033555984,0.006650344468653202,0.0002118169068126008,0.0002925998414866626,0.003559461096301675,-0.004434568341821432,0.006314941216260195,-0.007205720990896225,-0.007167953532189131,0.001805687788873911,-0.0023230058141052723,-0.0015736892819404602,-0.004144648555666208,-0.0014553696382790804,0.0046373214572668076,0.002867825096473098,-0.005937639623880386,-0.006599797401577234,-0.0001831000845413655,0.0030851345509290695,0.0024171010591089725,0.005150368437170982,-0.00550282746553421,0.0012354257050901651,0.0035546536091715097,0.006373549345880747,-0.005768729839473963,-0.003878627670928836,-0.0022879820317029953,0.0004357692669145763,-0.0011263880878686905,0.005474977195262909,0.0068279048427939415,-0.005929086823016405,0.0029883862007409334,-0.005150248296558857,0.00619746558368206,-0.004695648793131113,0.007383016403764486,-0.0008896422805264592,-0.0011444042902439833,0.0017133865039795637,-0.0011027102591469884,-0.0035153168719261885,0.0020467492286115885,0.003718725172802806,0.006709306966513395,-0.0010629179887473583,0.0031884817872196436,0.004994339309632778,0.004907951690256596,-0.006664450746029615,-0.0020658227149397135,-0.006923275534063578,0.0009618447511456907,0.0049464222975075245,0.004382743965834379,0.004355119541287422,-0.002257121726870537,-0.006638952065259218,-0.0049166325479745865,0.002324888249859214,-0.005361678544431925,-0.005489877890795469,-0.0022686831653118134,-0.00596613809466362,-0.0026252586394548416,0.0066504343412816525,-0.007021233905106783,0.004515933338552713,0.0069569917395710945,-0.001088325516320765,0.006321508437395096,-0.003498529316857457,0.0067820013500750065,0.00506703881546855,0.005340598523616791,-0.005347736179828644,0.005280164070427418,0.006301102694123983,0.004459758754819632,-0.006064762827008963,-0.0062703099101781845,-0.0023705200292170048,0.0026873794849961996,-0.007222376298159361,0.006149908062070608,-3.589282277971506e-05,-0.0024032050278037786,0.0006152396672405303,0.0028363459277898073,-0.0035887991543859243,-0.0034132886212319136,-0.0007828745292499661,0.0021822757553309202,0.0026320614852011204,-0.0029118284583091736,-0.002900750609114766,-0.0004702900769189,0.00034310942282900214,0.0017796416068449616,0.0013638834934681654,-0.0021013629157096148,-0.003158873412758112,-0.0030133018735796213,0.0025011973921209574,-0.0006740729440934956,-0.005027344450354576,-0.006870587822049856,-0.00645662285387516,0.0055654919706285,-0.00037704527494497597,0.002550737699493766,0.0065411776304244995,-0.0049832649528980255,-0.000623263418674469,0.0007021528435871005,0.005124983843415976,0.007421277929097414,0.00332879601046443,0.0020641323644667864,0.006060699466615915,0.00488994549959898,0.005311325658112764,-0.0071720280684530735,0.00010876281885430217,0.0039483411237597466,-0.0047565302811563015,0.003411228070035577,-0.007359898183494806,0.0006164743681438267,0.004715511109679937,-0.0014237830182537436,0.002939695492386818,-0.0001745644403854385,0.001612201682291925,-0.00021842603746335953,-0.0009442297741770744,0.004210588522255421,-0.006714391056448221,0.0006867661140859127,-0.006061926018446684,0.000263285735854879,0.00589454360306263,-0.007249839603900909,-0.0015540911117568612,0.0038352091796696186,-0.002465047873556614,-0.0003704042173922062,-0.006231959909200668,-0.004298068583011627,0.0023168304469436407,0.004335578065365553,0.0017192419618368149,0.004438590258359909,0.0013156755594536662,0.00428016809746623,0.006898437160998583,-0.005925808567553759,-0.00016913555737119168,-0.004575116094201803,-0.0005439867964014411,0.00010566943092271686,0.0019342401064932346,-0.0005694928113371134,-0.0024776526261121035,-0.006457480601966381,-0.00651114247739315,-0.004467757418751717,-0.00047391827683895826,-0.0010918192565441132,-0.004343991167843342,0.004691372159868479,0.0027159256860613823,-0.0021699927747249603,0.004274801816791296,0.006993685849010944,-0.0036785101983696222,-0.00200282852165401,0.0070593710988759995,-0.0053734867833554745,-0.006179712247103453,0.0001929446152644232,-0.0006950763054192066,-0.0063483091071248055,-0.0031503380741924047,-0.001250118832103908,0.004502640105783939,0.0027243318036198616,0.005710743833333254,-0.002482054755091667,-0.0028107825201004744,-0.0006040812004357576,-0.007271334063261747,-0.004360637627542019,-0.00425243703648448,-0.006386488676071167,-0.0006953630945645273,0.005711477715522051,-0.007219566497951746,0.0017358436016365886,0.005427376367151737,-0.005623252131044865,0.005946179386228323,0.00454255985096097,-0.004052284639328718,0.005957955960184336,0.0045203156769275665,-0.005515942350029945,0.0047271777875721455,0.0007281520520336926,0.004734555725008249,0.001865707221440971,-0.0014842740492895246,0.0013850531540811062,0.0021565775386989117,0.004036455415189266,0.0048549422062933445,0.0022782664746046066,0.006852775812149048,0.004233089275658131,0.006029519718140364,-0.0026330449618399143,-0.0028588969726115465,-0.0022706962190568447,-0.0007474074373021722,0.006587577518075705,-0.006279276218265295,-0.0002698877069633454,-0.005144954659044743,0.004276014864444733,-0.006947538815438747,-0.0008295666775666177,-0.0016719941049814224,-0.0059794653207063675,-0.0018045568140223622,0.004391035996377468,-0.005157829262316227,0.006973264738917351,-0.006332368589937687,-0.0029264765325933695,0.004066169261932373,-0.0018556979484856129,-0.00012976283323951066,-0.0043897563591599464,0.003228776855394244,-0.004458664450794458,0.005213248543441296,0.000721696182154119,0.000762416806537658,0.006335986778140068,0.0040464699268341064,0.0036744428798556328,0.005214512348175049,-0.005890536587685347,0.0030091574881225824,-0.004094306379556656,-0.0033680556807667017,-0.007145026233047247,0.005520472768694162,0.0032192699145525694,-0.005372773390263319,-0.0026593077927827835,-0.0004492608713917434,-0.0003089963865932077,0.0011983392760157585,-0.0005707441014237702,0.0019420242169871926,0.005304866936057806,-0.001760802697390318,0.005201777443289757,-0.004214335232973099,-0.005716870538890362,-0.004029538482427597,-0.00459658307954669,0.006780562456697226,-0.001893873093649745,0.001961886417120695,0.002607045928016305,-0.0010975515469908714,-0.004105401691049337,-0.001024874160066247,-0.0005554416566155851,0.0063774483278393745,0.0009798631072044373,0.006624102592468262,0.0009223240776918828,-0.0052551524713635445,-0.0017004815163090825,0.004306601360440254,-0.0012189376866444945,-0.005873816553503275,-0.005837511736899614,-0.0036469907499849796,0.0011282534105703235,0.004731543827801943,0.00043558076140470803,0.0035973885096609592,0.002265720162540674,0.0005038759554736316,-0.004066514316946268,0.005469390656799078,-0.0031965479720383883,-0.0034869660157710314,-0.0034623953979462385,-0.005666911602020264,0.00016620976384729147,-0.002204267308115959,0.0005970138590782881,-0.000488370016682893,0.0002824366092681885,-0.002806007396429777,0.004682028666138649,0.0006843720329925418,-0.004050510469824076,0.005717823747545481,-0.005629946477711201,0.0033991902600973845,0.0025974411983042955,-0.006145455874502659,0.005774299614131451,-0.002599874511361122,0.0035219478886574507,-0.0032157981768250465,0.000273314886726439,0.006826484110206366,0.0016296792309731245,-0.002901206724345684,-0.0006445129401981831,0.0023806465324014425,-0.001326453872025013,0.005360616371035576,0.004834161605685949,-0.005310309585183859,0.003986003343015909,0.005806236527860165,-0.0031900627072900534,-0.004176767077296972,-0.0072777909226715565,-0.00563422404229641,0.006089555099606514,-0.0021010185591876507,-0.002003067871555686,-0.003600974567234516,-0.004946361295878887,-0.0003319996176287532,0.0027313968166708946,0.0004411095578689128,-0.0068381959572434425,0.004289483651518822,0.005879380274564028,-0.0012197972973808646,-0.0021203034557402134,-0.003924067597836256,-0.0028669144958257675,0.0019419791642576456,0.0038499010261148214,-0.002283284207805991,-0.0022751998621970415,-0.0008296307059936225,-0.004898775834590197,0.006086854264140129,0.0030279550701379776,-0.0009872297523543239,-0.00551234744489193,0.004890163894742727,-0.00023628371127415448,0.004312221892178059,-0.006729015149176121,-0.0033564865589141846,0.001704180147498846,-0.00014469232701230794,-0.0029146955348551273,-0.004375940654426813,-0.00299743446521461,0.0034328976180404425,-0.0045504639856517315,0.0013098417548462749,-0.001219295896589756,0.0035606257151812315,-0.004349200055003166,-0.0033500909339636564,-0.0014850349398329854,-0.004754470661282539,-0.0004757143324241042,-0.0014388870913535357,0.006787477061152458,0.00113532820250839,-0.006293922662734985,-0.000683818303514272,0.005108002107590437,0.004850159399211407,0.006245467346161604,0.0053718374110758305,-0.004994677845388651,-0.007533990778028965,0.00117461325135082,0.0024940846487879753,-0.005675087682902813,-0.0051923939026892185,0.006282793823629618,0.00594719685614109,-0.005291185807436705,-0.00391955254599452,0.0053466809913516045,-0.0005433709011413157,0.004622031003236771,-0.001162762171588838,0.003835985204204917,-0.0009969378588721156,0.005926626268774271,-0.0023716501891613007,0.0004499776696320623,0.0005478624952957034,0.0025129506830126047,-0.0027780195232480764,0.0019802050665020943,-0.00523612555116415,0.005627603270113468,-0.0050374241545796394,0.004775590263307095,0.002540058456361294,