-0.00647266348823905,0.023892177268862724,0.012017597444355488,0.005125239957123995,-0.017953921109437943,-0.018090389668941498,-0.023670759052038193,0.01912282407283783,0.005285683553665876,0.01120310090482235,-0.02593657188117504,0.02446783147752285,0.01728859916329384,-0.015434798784554005,-0.017117049545049667,-0.0176690760999918,-0.011058802716434002,0.000953107897657901,-0.0039567542262375355,-0.011427821591496468,0.005024222657084465,-0.019567299634218216,-0.011251449584960938,-0.007333224173635244,-0.002379865385591984,0.01552299503237009,-0.015904637053608894,0.0005499963299371302,0.00459430692717433,-0.02452070638537407,0.005602192133665085,-0.01754460670053959,-0.023320913314819336,0.023623930290341377,0.024538012221455574,0.015997344627976418,-0.010537305846810341,-0.02157163806259632,0.009682634845376015,-0.003398796310648322,-0.020647084340453148,-0.0004994093324057758,-0.02485949918627739,0.021799322217702866,-0.012809144333004951,0.007912938483059406,-0.010569039732217789,0.0010416951263323426,0.0027039204724133015,-0.016484444960951805,0.024723529815673828,0.014252827502787113,0.022956980392336845,0.020779207348823547,0.005000298842787743,0.022184815257787704,-0.022273527458310127,-0.016589317470788956,-0.024592094123363495,-0.009656458161771297,-0.006411273498088121,-0.01278398372232914,0.016864601522684097,-0.008252727799117565,-0.012369959615170956,0.0016088129486888647,-0.020031262189149857,0.015106989070773125,-0.023594064638018608,0.02491607330739498,0.013778366148471832,-0.017029182985424995,-0.02735893800854683,0.015899086371064186,0.010199346579611301,0.012352065183222294,0.014523698017001152,-0.02286791428923607,-0.008010024204850197,-0.02103341557085514,0.01973590813577175,0.006617127452045679,-0.009259476326406002,-0.023812413215637207,-0.01039690338075161,-0.00884388666599989,0.011986455880105495,0.006475665606558323,0.019633764401078224,-0.002088006353005767,-0.01976362243294716,0.011313669383525848,0.013240961357951164,0.0024814459029585123,0.013966778293251991,0.0004388931847643107,0.0015149483224377036,-0.003955329302698374,-0.025491615757346153,-0.020924078300595284,-0.02462197095155716,0.007482636254280806,-0.010003764182329178,-0.00014223686594050378,0.02066107839345932,-0.01308930292725563,-0.004452961962670088,0.013496139086782932,-0.01508323848247528,-0.0233342032879591,-0.010802210308611393,-0.01758703775703907,0.022900911048054695,0.01575356535613537,0.006426749285310507,0.020243119448423386,0.01676977053284645,-0.016573013737797737,0.0205509252846241,0.0016381271416321397,0.0168169979006052,0.02149099111557007,-0.009655877947807312,-0.021024629473686218,-0.014792718924582005,-0.0026772525161504745,0.01762194186449051,0.019988873973488808,-0.025011003017425537,0.0015688533894717693,-0.003279438940808177,-0.013918225653469563,-0.01921333186328411,-0.007586587220430374,0.024305274710059166,-0.009223036468029022,0.0013407394289970398,0.011462371796369553,-0.006731255445629358,0.025198061019182205,0.02374744974076748,-0.013562265783548355,-0.0002639299782458693,-0.010762759484350681,-0.011994595639407635,-0.02582368813455105,0.005140796769410372,-0.0002958277764264494,-0.024358157068490982,-0.012680452316999435,0.02225339785218239,-0.013191829435527325,-0.01808454841375351,-4.9106420192401856e-05,0.025849955156445503,-0.01302446611225605,0.009959417395293713,0.01451269444078207,-0.013836955651640892,0.011868045665323734,-0.006415575742721558,0.0076151639223098755,0.007351343985646963,0.0018259364878758788,-0.022191451862454414,0.01807810179889202,-0.009254037402570248,-0.016643419861793518,-0.024599483236670494,0.004474529530853033,0.009313873015344143,-0.02593969739973545,0.000440555508248508,-0.01478960644453764,0.007258589379489422,-0.016413208097219467,0.011254047974944115,-0.005180100444704294,0.023816855624318123,-0.018881021067500114,-0.007653319742530584,-0.020051589235663414,0.022959029302001,0.02019091323018074,-0.012950113974511623,0.009148701094090939,0.017201635986566544,0.002905204426497221,0.0014401370426639915,-0.013919441029429436,-0.021136226132512093,0.021482067182660103,0.021329157054424286,0.007048944942653179,-0.0085782241076231,-0.0072996909730136395,0.012461783364415169,0.02121872454881668,0.02065552957355976,0.014863941818475723,0.007167867850512266,-0.022380195558071136,-0.01836269348859787,0.02110856957733631,0.006184082943946123,-0.026352228596806526,-0.021243328228592873,0.008703518658876419,-0.026180563494563103,-0.017197923734784126,0.0024686746764928102,0.010278425179421902,0.008090822026133537,-0.014309383928775787,0.012350219301879406,-0.014212548732757568,-0.009126695804297924,0.013443958014249802,0.00891404040157795,0.01989302597939968,0.008281736634671688,0.003976738080382347,-0.02093685232102871,-0.0057577635161578655,-0.010979261249303818,-0.013896385207772255,0.024870727211236954,-0.005915532819926739,0.02093549259006977,0.007174206897616386,0.01545685064047575,-0.00019554607570171356,0.0038009246345609426,-0.0004682436410803348,-0.016199124976992607,0.011773934587836266,-0.011906296946108341,-0.025627989321947098,0.007670816499739885,-0.017204346135258675,0.023523014038801193,0.02411293238401413,0.02193773351609707,-0.006904331035912037,-0.025693990290164948,0.022826973348855972,-0.00385538162663579,0.024843426421284676,0.024835633113980293,0.019014522433280945,-0.010984702967107296,-0.006308389361947775,0.01856006309390068,-0.010104921646416187,-0.018018623813986778,0.0027555162087082863,0.022991852834820747,0.010163525119423866,0.0033016062807291746,-0.021715106442570686,0.006142864469438791,0.026122314855456352,-0.019288547337055206,0.0006680619553662837,0.02005419135093689,0.012908028438687325,0.01052723079919815,0.01070696022361517,-0.007631230168044567,-0.01092430017888546,0.016512874513864517,0.016529638320207596,0.01943473517894745,0.021928686648607254,0.0007053078734315932,-0.00025535441818647087,0.015046718530356884,0.006946608889847994,0.009783787652850151,0.014940082095563412,0.020586924627423286,-0.009404215961694717,-0.007665859069675207,-0.022443559020757675,0.003587552811950445,-0.02470884658396244,-0.002562307519838214,0.0012021714355796576,-0.012166612781584263,0.004322493448853493,-0.025018954649567604,-0.02540736272931099,0.01602758653461933,-0.008202651515603065,-0.020320624113082886,0.001041872426867485,0.013581289909780025,-0.016156459227204323,0.0059911818243563175,-0.02207193523645401,-0.024198831990361214,0.001833438640460372,0.0026899666991084814,0.008146374486386776,0.01305406354367733,0.024723472073674202,0.0008036774233914912,-0.009145955555140972,0.016128040850162506,-0.011473271064460278,-0.0035416479222476482,-0.02225441485643387,-0.02509450353682041,0.02480132319033146,0.018209747970104218,0.010520542971789837,-0.004623760469257832,-0.017250383272767067,-0.01813899353146553,-0.013324207626283169,0.0029196920804679394,0.01168404147028923,0.008615504950284958,-0.011687730439007282,0.023937584832310677,0.011749230325222015,0.0028475832659751177,0.0060857790522277355,-0.00427095266059041,-0.013445588760077953,-0.00873483158648014,0.013422342948615551,-0.025990521535277367,-0.020490268245339394,-0.024188779294490814,-0.025504527613520622,0.018552981317043304,0.010763116180896759,-0.0013477805769070983,-0.021353166550397873,-0.001601331285201013,-0.001828787848353386,-0.01746618002653122,-0.0034354059025645256,-0.005245395936071873,0.005004946608096361,0.006871011108160019,-0.024137580767273903,-0.006652470678091049,0.006848473567515612,0.000707412080373615,0.01912272535264492,0.008333842270076275,-0.0179078821092844,-0.0228996891528368,0.00820611510425806,-0.024928264319896698,0.004426092840731144,0.02348361723124981,0.0040845624171197414,-0.0051755523309111595,0.007611425127834082,-0.0025638218503445387,0.002349509159103036,0.023642022162675858,-0.005597752518951893,0.024121161550283432,0.021135743707418442,-0.016359742730855942,-0.02293962612748146,-0.021323464810848236,-0.026176031678915024,-0.022014888003468513,0.009582567028701305,-0.023020556196570396,-0.011820509098470211,0.016932057216763496,-0.026246046647429466,0.0162447951734066,-0.01182173565030098,-0.022102022543549538,0.009497069753706455,0.0064563145861029625,0.019869059324264526,0.012443567626178265,0.01520479004830122,-0.011771220713853836,-0.017067275941371918,0.01342406589537859,0.016385504975914955,0.02600267343223095,-0.004478176590055227,-0.006571450270712376,0.014851227402687073,-0.008491330780088902,0.022975491359829903,0.019215989857912064,-0.0036502135917544365,0.01334910187870264,0.013344990089535713,-0.021046344190835953,0.020992126315832138,-0.00021551194367930293,0.016652600839734077,-0.01029132679104805,0.02151823602616787,-0.006055053789168596,-0.02634778991341591,0.021109091117978096,-0.02220471389591694,-0.009089288301765919,0.02412186935544014,0.02407607063651085,0.003908929880708456,0.007184747140854597,-0.0027467599138617516,-0.011295683681964874,-0.00931503251194954,0.008992290124297142,0.013418661430478096,0.014872156083583832,0.014813370071351528,-0.022202273830771446,-0.0007615740178152919,-0.023838743567466736,0.002371883485466242,-0.0034148157574236393,0.020419377833604813,-0.008298798464238644,-0.020967481657862663,-0.019007664173841476,0.013743052259087563,0.0060232849791646,-0.021699778735637665,-0.022732004523277283,0.01049612183123827,-0.023034261539578438,0.016929013654589653,0.010841332376003265,-0.022401200607419014,-0.022524230182170868,0.02550606243312359,-0.006941506639122963,-0.0067833904176950455,0.01689636893570423,0.02343112789094448,0.025531671941280365,0.013599701225757599,-0.006218613591045141,-0.021748492494225502,0.014562762342393398,0.002831048099324107,-0.004221669398248196,0.021430106833577156,-0.02125171199440956,-0.0004952221061103046,-0.026050984859466553,-0.0014940077671781182,-0.023710299283266068,-0.02062883786857128,-0.02035144530236721,0.007976222783327103,0.012991039082407951,0.004116434138268232,0.024289678782224655,-0.006534547079354525,-0.01126182172447443,0.019564051181077957,-0.01488520298153162,0.02466362714767456,-0.025944862514734268,0.025304695591330528,-0.02400585636496544,0.02131565846502781,0.002089191460981965,0.025915293022990227,-0.02289588376879692,0.0027912496589124203,0.024913404136896133,0.001234745024703443,0.00631845835596323,0.010068959556519985,-0.0026860199868679047,0.006606232840567827,0.004501820541918278,0.02040141075849533,-0.024936163797974586,-0.012103842571377754,0.023836776614189148,0.020748576149344444,-0.0039122989401221275,0.005344612989574671,-0.012303855270147324,-0.016708100214600563,-0.00196475931443274,-0.009592613205313683,0.0035868047270923853,-0.022654691711068153,0.025356868281960487,0.026008974760770798,0.01178278960287571,0.0026202427688986063,-0.00995059683918953,0.016758456826210022,0.009951931424438953,-0.01670307293534279,0.02237454429268837,0.017249656841158867,0.023985249921679497,0.012264559976756573,0.006825581658631563,-0.00418664887547493,0.023054730147123337,0.019527412950992584,-0.02393941953778267,-0.02499503642320633,-0.0067518651485443115,0.016477759927511215,0.025990227237343788,-0.01832054741680622,0.004758825991302729,-0.006704225670546293,0.02487190254032612,0.01825089380145073,0.018327096477150917,-0.0012891647638753057,-0.004299857188016176,-0.011584990657866001,-0.022803883999586105,0.020232796669006348,0.016724636778235435,0.026692654937505722,0.026791613548994064,0.0034967921674251556,0.014807546511292458,0.02369522862136364,0.01874728314578533,-0.013100224547088146,-0.002277942607179284,-0.01957164891064167,0.023971837013959885,0.005640801507979631,-0.01429638359695673,0.009273029863834381,0.0062399329617619514,-0.00765048386529088,-0.02046104706823826,0.0094065573066473,0.0013919606572017074,0.01467648521065712,0.0016228952445089817,0.018777349963784218,0.002553023165091872,0.002603287110105157,0.01957298442721367,-0.004938068799674511,-0.019542863592505455,-0.025562813505530357,0.01292449701577425,0.0060323490761220455,0.010663777589797974,-0.01564774289727211,-0.01986186020076275,-0.026317840442061424,-0.008211641572415829,0.004506133962422609,-0.006306649651378393,-0.0038546682335436344,0.02113310620188713,-0.00831056758761406,0.0006092680850997567,0.01463167741894722,-0.005959559231996536,0.00625730911269784,0.019176596775650978,0.02419358864426613,-0.018945280462503433,0.022387180477380753,-0.00042821699753403664,-0.012758450582623482,-0.0019909848924726248,0.025326425209641457,-0.00046379794366657734,-0.008933990262448788,0.0071469820104539394,-0.013930212706327438,-0.022987842559814453,-0.019777504727244377,-0.019779007881879807,-0.018707918003201485,-0.019685417413711548,0.0071109444834291935,-0.017011025920510292,-0.008233081549406052,0.02107546105980873,-0.002144996076822281,0.008233346976339817,-0.017626827582716942,-0.016385022550821304,-0.024394627660512924,-0.017034806311130524,-0.011743775568902493,-0.017234228551387787,-0.02205331064760685,-0.020348019897937775,-0.002291756449267268,-0.015987932682037354,-0.007563374470919371,-0.00026263194740749896,0.009698678739368916,-0.025525376200675964,0.01498805545270443,0.00590929901227355,-0.02317790687084198,0.019124994054436684,0.02144237980246544,-0.02426634170114994,-0.012584414333105087,0.015649445354938507,0.012632587924599648,-0.016938569024205208,-0.015625040978193283,-0.0067994496785104275,-0.0008193280082195997,0.00621451623737812,-0.005191589705646038,-0.0023901411332190037,0.012453468516469002,-0.02495168149471283,-0.013564874418079853,0.011837688274681568,0.019770141690969467,-0.0005955095402896404,0.0012305699056014419,-0.02105148881673813,-0.0026837936602532864,0.0005381744122132659,-0.015065613202750683,-0.012808886356651783,-0.006373320706188679,-0.025850685313344002,-0.010976397432386875,-0.01670343242585659,-0.009495540522038937,-0.019409509375691414,0.020252207294106483,0.0034998231567442417,0.00842297449707985,0.015445008873939514,0.001365584204904735,-0.022281531244516373,0.0015827257884666324,0.004257144872099161,0.012838881462812424,-0.003873053938150406,-0.01976492442190647,-0.011478642001748085,-0.007298987824469805,0.007814982905983925,0.003788797650486231,-0.007505515124648809,0.025917021557688713,0.005572586786001921,-0.013978668488562107,-0.02122875116765499,-0.018508832901716232,-0.0136966397985816,-0.018197650089859962,-0.016698531806468964,-0.011340909637510777,-0.01792541705071926,0.020809881389141083,-0.022319041192531586,0.001826294232159853,-0.003921478055417538,0.025370385497808456,-0.0211959108710289,-0.005966667551547289,0.024820633232593536,0.0197041817009449,0.016637181863188744,-0.013178599998354912,-0.017726358026266098,0.009183763526380062,0.023302562534809113,0.002926204353570938,0.0037784241139888763,-0.011572685092687607,0.014654004015028477,-0.016246801242232323,-0.009455358609557152,-0.0036776321940124035,0.0008043390116654336,-0.013475078158080578,-0.02028942108154297,0.005668744910508394,-0.010923014022409916,0.0046971081756055355,-0.018242033198475838,-0.0008761014323681593,0.0017517394153401256,-0.02429368533194065,-0.00926500279456377,-0.019802827388048172,-0.023617424070835114,0.025766603648662567,-0.009923799894750118,0.016084378585219383,-0.013362945057451725,0.009395561181008816,0.013604112900793552,0.004777663387358189,-0.0018525855848565698,-0.004784238990396261,-0.008092571049928665,0.022794576361775398,0.017459841445088387,0.024786250665783882,-0.019647374749183655,0.012678850442171097,0.023310981690883636,-0.01674010418355465,-0.022391565144062042,0.01369543932378292,0.004693388473242521,0.01746935397386551,-0.02060253545641899,0.013862707652151585,-0.01767500676214695,-0.01933419518172741,-0.01894981972873211,0.015041396021842957,0.0070899478159844875,-0.0001973403268493712,-0.008432245813310146,0.01893274299800396,-0.007044167257845402,0.01586625725030899,-0.0038160316180437803,-0.006907548289746046,-0.002653156640008092,-0.011079452000558376,0.012949767522513866,0.0001787059591151774,-0.014095840975642204,0.021002385765314102,-0.00625772075727582,0.002541167428717017,0.02198970317840576,0.007039723452180624,-0.02046114392578602,0.024014879018068314,0.007671087980270386,-0.008068680763244629,-0.018684284761548042,0.015397877432405949,0.006602366454899311,0.002296820981428027,0.021449014544487,0.015512303449213505,-0.018574874848127365,-0.0098106162622571,-0.013053065165877342,0.01334477961063385,-0.024905450642108917,0.003486048895865679,0.013657821342349052,0.01966721937060356,-0.008940931409597397,0.01664363220334053,-0.020947476848959923,0.018087418749928474,-0.02033931389451027,-0.005860272794961929,0.015774620696902275,-0.01992422714829445,-0.01576736569404602,0.010601291432976723,0.010744775645434856,0.006412033922970295,0.008871211670339108,0.0007793374243192375,-0.0142702367156744,-0.00917776394635439,-0.017977524548768997,0.020434807986021042,0.0033222988713532686,-0.0060716718435287476,-0.0026909434236586094,0.02315797470510006,-0.01906987838447094,0.004174767527729273,0.00020329043036326766,0.006029611453413963,-0.025489751249551773,0.0197517741471529,0.023027172312140465,0.0036260595079511404,0.010723206214606762,0.022875012829899788,0.011289204470813274,-0.017944252118468285,0.004456186201423407,0.005693688988685608,-0.0043457020074129105,0.012376952916383743,0.02304305136203766,0.022350873798131943,-0.0031822684686630964,-0.021394748240709305,0.025734324008226395,0.01791028305888176,-0.020371362566947937,0.021890465170145035,0.018799861893057823,0.0007897392497397959,0.004597468301653862,-0.005777649115771055,-0.02414308674633503,-0.009855297394096851,0.01570182666182518,-0.026929082348942757,-0.009382988326251507,-0.00623584957793355,0.0005766232497990131,0.022627845406532288,-0.008376626297831535,-0.008770633488893509,0.011992835439741611,-0.002808750607073307,-0.01457027904689312,-0.002628545043990016,-0.019528144970536232,-0.017692193388938904,-5.630383748211898e-05,-0.0038487263955175877,0.022169804200530052,-0.007714018691331148,0.0038742695469409227,0.0072185928001999855,-0.02527792565524578,0.008823269978165627,-0.017256930470466614,0.02457619458436966,-0.01825115829706192,-0.0038184893783181906,-0.02171158418059349,0.02669968083500862,0.0005786283873021603,0.005923539865761995,-0.023029841482639313,0.013220574706792831,-0.015469327569007874,0.021191729232668877,-0.015773551538586617,-0.016622357070446014,-0.024742519482970238,-0.001434589154087007,0.0033743714448064566,-0.02337697334587574,0.014338189736008644,-0.002639520214870572,0.0012997217709198594,-0.003342908341437578,-0.005619931034743786,0.0028265847358852625,-0.018479183316230774,-0.017027629539370537,0.018995102494955063,0.023577669635415077,-0.006977318320423365,-0.01214263029396534,0.0075872051529586315,-0.00506820622831583,-0.025243520736694336,-0.018479926511645317,0.011280053295195103,0.008306597359478474,-0.025202225893735886,-0.014537002891302109,-0.014329038560390472,0.009062729775905609,-0.025693396106362343,-0.021078716963529587,0.016178574413061142,-0.016723088920116425,0.008429573848843575,-0.013710221275687218,-0.021124258637428284,-0.013460783287882805,0.01258213259279728,0.019753348082304,0.018250323832035065,-0.0049247038550674915,0.009432755410671234,-0.015046343207359314,-0.010279408656060696,0.021761393174529076,-0.025421952828764915,-0.021653221920132637,-0.015901196748018265,-0.025351423770189285,-0.017324451357126236,0.004089421592652798,-0.004518992733210325,0.02073582075536251,0.016858067363500595,-0.008495038375258446,-0.012751110829412937,-0.00651943264529109,0.004875898361206055,-0.012209668755531311,0.006881379522383213,-0.004498455673456192,0.0027831546030938625,-0.003511429065838456,-0.010985147207975388,0.024196714162826538,0.014335894025862217,-0.01915133185684681,0.019150005653500557,-0.0009907856583595276,0.02098056487739086,0.01583467423915863,-0.004396735690534115,-0.02562725730240345,-0.012531987391412258,0.0019749251659959555,0.00700547406449914,-0.012740269303321838,-0.019087504595518112,0.017875922843813896,0.025736050680279732,0.0014089483302086592,-0.017330145463347435,-0.011762603186070919,-0.02546198107302189,0.022274252027273178,-0.020017221570014954,0.0044837528839707375,-0.01165946014225483,0.0032555481884628534,0.008569174446165562,0.018247542902827263,-0.015013034455478191,-0.025687774643301964,-0.018762953579425812,0.02195647358894348,0.020607441663742065,0.00568766426295042,0.004964126739650965,0.008535888977348804,-0.01732533425092697,0.02217787131667137,-0.004163246136158705,-0.006628710776567459,0.0006563260103575885,-0.02414431981742382,-0.01757550612092018,0.012832446955144405,-0.022598274052143097,0.005320587195456028,-0.013379542157053947,-0.005583236925303936,-0.011256959289312363,-0.008006659336388111,0.011593667790293694,-0.010599653236567974,0.0037634694017469883,-0.00123146316036582,0.008536454290151596,0.02328043058514595,0.012510033324360847,-0.015124843455851078,-0.02490178309381008,-0.013437534682452679,0.0048092929646372795,-0.023966109380126,-0.0001915355387609452,0.005318740848451853,-0.009573818184435368,0.013953457586467266,-0.020964911207556725,-0.022589661180973053,0.012181350961327553,-0.0009692987077869475,0.0097463708370924,-0.00329489610157907,-0.013192440383136272,0.017265798524022102,0.015380015596747398,0.010382438078522682,-0.011733083054423332,0.0054771788418293,-0.006592040881514549,-0.02194422110915184,0.022671405225992203,-0.018487414345145226,0.025095151737332344,-0.0014420305378735065,-0.01705937460064888,0.0020233565010130405,0.01986989937722683,0.012372413650155067,0.01629064418375492,0.008073349483311176,0.010133781470358372,0.018614130094647408,-0.013357000425457954,-0.0006238877540454268,-0.015011642128229141,0.025993650779128075,0.023663273081183434,-0.024567674845457077,0.010921502485871315,0.022634513676166534,-0.01700587198138237,0.0036219628527760506,0.022140907123684883,-0.024888141080737114,0.010499519295990467,-0.010791781358420849,0.022608904168009758,0.025096960365772247,0.02360863983631134,0.000532293226569891,0.020482022315263748,0.01900593191385269,-0.009373909793794155,0.017240533605217934,-0.022391416132450104,0.006324352230876684,-0.013782085850834846,-0.020028555765748024,-0.022830858826637268,0.011592171154916286,-0.008328485302627087,0.011797424405813217,-0.023617124184966087,-0.010243652388453484,0.0017767574172466993,0.0145594896748662,-0.01072413194924593,0.005537580233067274,0.019726742058992386,0.005447430070489645,-0.0151170389726758,-0.026164328679442406,0.01885068602859974,-0.0260753333568573,0.01963195949792862,0.0012089402880519629,0.023166654631495476,0.01570325903594494,0.02630416862666607,-0.00844607688486576,0.01378178782761097,-0.005647444166243076,-0.001458615530282259,0.0065737999975681305,0.019300535321235657,0.025246314704418182,0.013677581213414669,-0.00493302708491683,-0.004361325409263372,0.012235666625201702,-0.014416745863854885,-0.021438026800751686,-0.008335741236805916,-0.011479453183710575,-0.01122310757637024,-0.014596995897591114,-0.025077417492866516,-0.026225844398140907,0.02581697329878807,-0.003823426552116871,-0.006613805424422026,0.00939455907791853,-0.014950333163142204,0.024120895192027092,0.015189070254564285,-0.02192860282957554,-0.004174066241830587,0.02053222618997097,0.024158315733075142,-0.002092176117002964,0.005916281137615442,-0.017294997349381447,0.02689671702682972,-0.013394719921052456,0.022699806839227676,0.007735590450465679,0.0063478522934019566,0.0016618605004623532,-0.013240274041891098,-0.018334804102778435,-0.015031245537102222,-0.015994640067219734,0.015891961753368378,-0.0071174753829836845,-0.023992661386728287,0.02457761950790882,0.020402951166033745,0.02287094108760357,0.026465222239494324,-0.01775587722659111,-0.005433197133243084,0.014050898142158985,0.010695543140172958,-0.01820446364581585,0.01676924154162407,-0.014222679659724236,-0.01432271208614111,0.002293542493134737,0.005254192277789116,0.004525003954768181,-0.021339787170290947,0.020363571122288704,-0.012276919558644295,-0.01944153569638729,0.021161412820219994,0.024563990533351898,0.019367370754480362,0.016636813059449196,0.008378097787499428,0.002035215962678194,-0.022894348949193954,-0.005872684996575117,-0.008028517477214336,-0.0138659393414855,0.011349014937877655,-0.001002960721962154,-0.023271910846233368,-0.015790555626153946,0.009164378978312016,-0.023212119936943054,0.0178611371666193,-0.0012532381806522608,-0.0016657124506309628,0.004711702931672335,0.016374336555600166,-0.009128475561738014,0.00860635843127966,0.0032666234765201807,-0.012429510243237019,0.018990781158208847,0.01474841870367527,0.00787484273314476,0.018671691417694092,0.0195637084543705,0.011188212782144547,0.017956478521227837,0.01052375603467226,0.009404122829437256,0.006022116169333458,0.013937617652118206,-0.017725659534335136,0.02081950567662716,0.020125990733504295,-0.025005992501974106,0.01818935200572014,-0.018926702439785004,-0.007990987971425056,0.013699552044272423,-0.017555003985762596,0.017594484612345695,0.018297752365469933,0.0009962954791262746,-0.025706186890602112,-0.010904601775109768,0.006209630984812975,0.02552795596420765,0.006991130765527487,-0.012785511091351509,0.007261551916599274,0.002014062600210309,0.01489214040338993,-0.020914634689688683,0.013908990658819675,0.0021524166222661734,0.02468213625252247,-0.008352288044989109,0.007124506402760744,0.02308882214128971,-0.02108434960246086,0.02354772761464119,0.010308852419257164,-0.022829480469226837,-0.01051130797713995,0.011114458553493023,-0.022675026208162308,0.004758383147418499,-0.008138296194374561,0.0062753199599683285,-0.024552980437874794,0.01993846893310547,0.025271587073802948,0.0246762465685606,0.012887653894722462,-0.020204458385705948,0.013808902353048325,-0.02507883682847023,-0.025593949481844902,-0.00954284705221653,-0.000565273396205157,0.014330470934510231,0.009682579897344112,-0.0033357723150402308,-0.012476603500545025,0.02641507051885128,-0.004230985417962074,-0.0029479304794222116,-0.01843392476439476,0.015300511382520199,0.01027336809784174,-0.015697063878178596,-0.022983931005001068,0.008876672945916653,0.0076356083154678345,-0.011953672394156456,0.022963203489780426,-0.019389957189559937,-0.004318417515605688,0.023205535486340523,-0.0038232565857470036,0.007932379841804504,-0.00491279736161232,-0.011508728377521038,0.0264978539198637,-0.003939937800168991,0.02123473398387432,-0.014019723050296307,-0.01471028383821249,-0.024286862462759018,0.008867606520652771,-0.007190564647316933,0.019564343616366386,-0.0010243004653602839,0.025312289595603943,-0.016496751457452774,0.01949194073677063,0.01484462060034275,0.014662712812423706,0.018446581438183784,0.013850743882358074,0.006373881828039885,-0.019823385402560234,-0.024951953440904617,0.022344620898365974,0.006113398354500532