0.0043008881621062756,-0.0003114954743068665,-0.005628653801977634,-0.00545372674241662,0.002645341446623206,-0.0010363439796492457,-0.004447320941835642,-0.0003148626128677279,-0.006474407389760017,0.0010197155643254519,-0.003456998150795698,0.0040915352292358875,-0.002957442542538047,-0.0009491478558629751,-0.0073023587465286255,-0.006379859521985054,-0.0017787909600883722,-0.0005561617435887456,0.0011112634092569351,-0.003278876654803753,0.0024288229178637266,0.0049116890877485275,0.003738980507478118,-0.006913901772350073,-0.0005528192850761116,-0.005617251619696617,-0.0036219379398971796,0.0070791058242321014,-0.004967859014868736,8.150940993800759e-05,0.0018075021216645837,0.0030812949407845736,0.001029744278639555,-0.006879156455397606,-0.0024210643023252487,0.00043168035335838795,-0.005691420752555132,-0.0018879648996517062,-0.006556459702551365,-0.005944346077740192,-0.0013685667654499412,-0.005120911169797182,0.0011538901599124074,0.002751278690993786,0.004375461023300886,-0.00438705924898386,-0.00476550217717886,-0.0056764837354421616,0.0019071944989264011,0.003036473412066698,-0.006443544290959835,0.006690666079521179,-0.005974431522190571,0.0008603958413004875,0.00326673686504364,0.005567858926951885,0.003383984323590994,0.004544025752693415,-0.0023100783582776785,0.004484710283577442,-0.005941099487245083,0.0057619898580014706,0.0006392343202605844,0.004428675398230553,-0.0008840678492560983,0.001995912054553628,0.0002888547314796597,0.003162546083331108,-0.00621900986880064,-0.0065736593678593636,-0.0039331503212451935,-0.005147883202880621,0.005117641296237707,-0.004279640037566423,0.006603333633393049,-0.002445490099489689,-0.004735717084258795,0.003883695462718606,0.0019414691487327218,-0.0003688959695864469,0.0008924009162001312,0.0032422211952507496,-0.003876930568367243,0.007091912906616926,0.006674378644675016,0.002346668392419815,-0.0040586767718195915,0.002746406476944685,-0.006150536704808474,-0.006864791736006737,-0.0033446515444666147,-0.0003906584170181304,0.005267451051622629,0.0031533422879874706,0.003425711765885353,-0.0010633685160428286,-0.00234165508300066,-0.002081531099975109,0.006811859086155891,-0.0066985031589865685,0.005116695538163185,0.0008309214608743787,-0.0013404946075752378,0.0028262946289032698,-0.0005061046686023474,0.005228582303971052,0.005556175950914621,-0.0013433553976938128,-0.003239162964746356,0.0014044020790606737,0.005884396377950907,-0.004197069443762302,0.0017955992370843887,0.0020974723156541586,0.0035795848816633224,-0.005265820771455765,0.003179310355335474,0.006108451168984175,-0.004305453971028328,-0.0035210775677114725,0.006866645999252796,-0.004463254474103451,0.00520360330119729,-1.2021439943055157e-05,-0.0035797441378235817,0.005175083409994841,-0.001012625521980226,0.00010251698404317722,-0.002030791947618127,0.0012646297691389918,-0.005020200274884701,-0.0017394055612385273,0.00671278964728117,-0.003471195697784424,0.0021246664691716433,-0.0025792703963816166,0.0039177751168608665,-0.0053010969422757626,0.006673112045973539,-0.0009112055413424969,-0.00387790915556252,-0.006194388493895531,-0.004841460846364498,0.0001382861810270697,-0.002594686346128583,0.0046773916110396385,-0.0010902541689574718,-0.0037435737904161215,0.0016308310441672802,0.0029173928778618574,-0.004688756540417671,-0.0045738606713712215,-0.006444451864808798,0.003460671752691269,0.0022716105449944735,-0.0004535391926765442,0.004855670500546694,0.004249912220984697,0.0010093379532918334,0.0049516246654093266,-0.004452759400010109,-0.00582762761041522,-0.0035925109405070543,-0.006619236897677183,0.00010384059714851901,0.005962346214801073,-0.006915215402841568,-0.0056945872493088245,-0.0008452207548543811,0.0058994051069021225,-0.0029421700164675713,-7.568593719042838e-05,-0.006706839427351952,-0.005115889478474855,0.0067861927673220634,0.0064246635884046555,-0.00747884763404727,0.005918845534324646,0.0015671434812247753,0.005017674528062344,-0.000932827650103718,-0.00015769971651025116,-0.0007335790432989597,0.0020553471986204386,-0.005316649563610554,-0.0069783879444003105,-0.0031006510835140944,0.002537625143304467,-0.004424301441758871,0.002594961551949382,0.006607247982174158,-0.006106248591095209,0.0022395625710487366,-0.0008934252546168864,0.00536759477108717,-0.004809927195310593,0.002524401992559433,0.004665393382310867,0.006242081057280302,0.002540301065891981,-0.000250154611421749,0.0015308787114918232,0.005253385752439499,0.0010235364316031337,-0.006715545896440744,0.006136653944849968,0.00271405465900898,0.0025792380329221487,-0.003959507681429386,0.002423985628411174,-0.0015182840870693326,0.0021867661271244287,-0.0055898805148899555,0.0024485639296472073,0.007343681994825602,-0.006590997334569693,0.006784006953239441,-0.0013707481557503343,0.005488636437803507,0.0041310153901577,0.0007359539740718901,0.0032533102203160524,0.005338225979357958,-0.0013775390107184649,-0.002647889545187354,0.002302522072568536,0.004395235795527697,0.0036402596160769463,0.004174167290329933,-0.0009594219154678285,0.004373044241219759,-0.005577586125582457,0.00045965093886479735,-0.007272535003721714,-0.002633599564433098,-0.0021305547561496496,-0.0016866606893017888,0.002564274473115802,-0.0018581897020339966,-0.0009421190479770303,-0.0038633933290839195,-0.00192643899936229,-0.004094187170267105,-0.006433999631553888,0.0012383933644741774,0.0023922971449792385,0.0016092845471575856,-0.0007168087176978588,-0.0020262461621314287,0.004974992014467716,9.417910041520372e-05,-0.0004409564717207104,-0.00708388676866889,-0.002698586555197835,-0.002097609220072627,-0.0016731934156268835,0.0010401459876447916,0.0002150217187590897,0.001181590254418552,0.0035022306255996227,0.004373741801828146,0.0030606556683778763,0.00640845624729991,-0.007098713424056768,-0.00447525130584836,-0.007143361959606409,0.0020765371154993773,0.005676761269569397,-0.0037308847531676292,0.006197120528668165,-0.006400649901479483,0.006115265190601349,-0.0022560690995305777,-0.005783724598586559,-0.00023434059403371066,-0.003455118276178837,-0.003057986730709672,-0.002659063320606947,0.004557558335363865,0.0007450041593983769,-0.002773114712908864,0.0015105498023331165,0.0030914396047592163,-0.003274056827649474,-0.0013806347269564867,-0.005594795104116201,-0.0047654155641794205,0.0024208673276007175,-0.004885091446340084,-9.281878010369837e-05,0.002808517310768366,-0.005860809236764908,0.0007140582310967147,-0.0038856544997543097,0.006188988219946623,-0.000442108022980392,0.004171090200543404,0.00043406031909398735,-0.006884954869747162,0.0016247538151219487,0.0065000285394489765,0.0015615863958373666,0.004693879745900631,0.005638352129608393,-0.003753825556486845,-0.004290889482945204,0.0015279296785593033,-0.001398943830281496,0.004818360321223736,0.0057260822504758835,-0.002304866211488843,-0.003950515296310186,0.003830862930044532,-0.0034197159111499786,0.004458792041987181,-0.0013185732532292604,0.002240752801299095,-0.005963227245956659,0.0016385081689804792,-0.0007983882678672671,0.001070256344974041,-0.004923797678202391,0.0032591044437140226,0.005183939356356859,-0.004085940308868885,-0.005695778876543045,-0.006635615136474371,0.0020214940886944532,0.0016066733514890075,0.0006607811665162444,-0.003675400046631694,-0.001346986973658204,0.0014221789315342903,5.990111094433814e-05,0.006963999010622501,-0.005102126393467188,0.002968555549159646,-0.0013226779410615563,-0.0010011031990870833,0.0028703883290290833,0.002665797481313348,0.007032437715679407,-0.005504179280251265,-0.00593686243519187,0.0027545669581741095,0.0008640318992547691,-0.0034060850739479065,-0.006290549412369728,-0.006288494914770126,0.005226843059062958,-0.0046197762712836266,-0.0028319249395281076,-0.004294253885746002,-0.0024499106220901012,-0.0065727331675589085,4.457334216567688e-05,-0.0065069980919361115,0.003992285113781691,-0.004216499160975218,0.00012632149446289986,0.005240993574261665,0.002058151876553893,0.0002952941576950252,-0.0028425375930964947,-0.0027641868218779564,0.002328407485038042,0.007098289672285318,0.002231043763458729,0.0006295948987826705,0.0031330634374171495,-0.0006257317727431655,-0.006416709627956152,0.0007550670416094363,0.006491170730441809,-0.00467752804979682,0.0025727911852300167,-0.004455707035958767,0.0002910406328737736,-0.006027553230524063,-0.0008942425483837724,0.0035754949785768986,-0.0023168425541371107,0.00215372652746737,0.00407597329467535,0.006079619750380516,-0.0038346336223185062,-0.001498473808169365,-0.005091753322631121,0.007098477333784103,0.006311218254268169,0.0006961246835999191,0.004996854811906815,0.0003324938006699085,0.001959581393748522,-0.005659950897097588,0.0036416612565517426,-0.005416386760771275,0.004638783633708954,0.004175490699708462,0.003105037147179246,-0.006652529817074537,-0.002900811145082116,-0.0036736938636749983,-0.002290085656568408,-0.006125631742179394,0.006221562158316374,0.0006801299750804901,-0.003056701272726059,-0.0017483378760516644,-0.0009462035377509892,0.0014384036185219884,0.00020531831250991672,0.005814039148390293,-0.00024400810070801526,0.006930138450115919,0.004949373658746481,-0.00428093271329999,0.005990002304315567,-0.005651541519910097,0.004536553286015987,-0.0017687765648588538,0.005362496245652437,0.005153938662260771,0.0043265302665531635,0.004236544482409954,-0.002778421388939023,-0.006125439424067736,-0.001613088883459568,-0.004864115733653307,0.0026935457717627287,-0.002006570342928171,0.00692721176892519,0.0020205804612487555,0.004701792728155851,-0.005158254876732826,0.005503830499947071,0.0062914746813476086,-2.1352112526074052e-05,0.001682726084254682,0.003919538576155901,-0.004539509303867817,0.00010060501517727971,-0.0015003904700279236,-0.005137182306498289,-0.0019841548055410385,-0.006308139767497778,-0.006986070889979601,-0.005534936208277941,0.006406333763152361,0.00035775432479567826,0.006513326894491911,-0.0011443354887887836,-0.0027434348594397306,0.00020532123744487762,-0.0006367567111738026,-0.005659363232553005,0.0021236599422991276,-0.0038819334004074335,0.001996759558096528,0.0025091306306421757,-0.004982848186045885,-0.006151481531560421,0.004263699520379305,-0.00030427868478000164,-0.006119994912296534,0.006936383433640003,-0.006414583884179592,0.0027645735535770655,0.006886649876832962,-0.0038329290691763163,-0.005499997176229954,-0.005755053833127022,-0.0031615004409104586,-0.006075537297874689,0.002467553596943617,-0.006443077232688665,0.00013533674064092338,0.007177465595304966,0.004482184536755085,0.0016326451441273093,-0.0030141558963805437,0.0016967755509540439,0.00030033092480152845,-0.0011595336254686117,-0.0053843543864786625,0.005288072396069765,-0.0008517458918504417,-0.004532151389867067,-0.001993084792047739,-0.001333585474640131,0.004478923510760069,0.0032160209957510233,0.003694515209645033,-0.007122016046196222,-0.001330355298705399,-0.00046503604971803725,-0.007083567325025797,-0.0036431169137358665,0.003667698707431555,-0.0053650871850550175,0.0004441857454366982,-0.004244488198310137,-0.007171729113906622,-0.0036974844988435507,0.006913549266755581,0.00421775272116065,0.0063812569715082645,-0.0003896720882039517,-0.0056896996684372425,0.0006552438135258853,-0.0008227219223044813,0.004695445764809847,-0.006021749693900347,-0.0003262717800680548,-0.005143997259438038,-0.002698771422728896,0.003167025977745652,-0.0005673737614415586,-0.0019714776426553726,-0.001644996227696538,-0.000729232793673873,0.003883219789713621,0.005440806970000267,0.006349629256874323,0.003985448274761438,-0.0027379209641367197,0.002627947833389044,-0.0010206849547103047,-0.003685459028929472,0.004647806286811829,-0.006695814896374941,0.0056907101534307,-0.0006502750911749899,0.0018318196525797248,0.0020783303771167994,0.0056158024817705154,0.0018390618497505784,0.0015513324178755283,-0.006278428714722395,0.00020022607350256294,-0.005007369443774223,0.0034055355936288834,0.00026884133694693446,0.0026888474822044373,-0.006495838053524494,-0.006011263933032751,0.0030367025174200535,-0.00614317599684,-0.00617440789937973,-0.007018063683062792,0.006560022011399269,0.0036638115998357534,-0.0017131301574409008,-0.002410146174952388,-0.0016612089239060879,0.004030957352370024,0.0026009753346443176,-0.004207529127597809,-0.0043048798106610775,-0.005464403890073299,0.002336545381695032,0.003910596948117018,-0.003305805614218116,-0.006856113206595182,-0.0060965875163674355,0.006677430588752031,-0.002982637146487832,0.00372528238222003,0.0015517972642555833,-0.0020020606461912394,-0.004361351486295462,-0.005580812692642212,0.0014205609913915396,0.0036483730655163527,0.0017811786383390427,0.0005098233814351261,-0.00648264167830348,0.006820527371019125,0.004444666672497988,-0.0028867567889392376,0.006971138995140791,0.00154705042950809,0.0012521501630544662,0.0035713305696845055,0.004321828484535217,0.0021341335959732533,-0.005432321690022945,-0.002513088518753648,0.005762938875705004,-0.004471673630177975,-0.0020917828660458326,-0.001212085597217083,-0.001227106200531125,0.0010985038243234158,0.00582208763808012,-0.004069117829203606,-0.005794959608465433,-0.004812904167920351,0.005077348556369543,0.0016873034182935953,-0.0032428062986582518,0.004378410521894693,0.005109907127916813,0.004975757095962763,0.005915350746363401,-0.0036888490431010723,0.0035892464220523834,-0.0005952566862106323,0.004951269831508398,0.003314217086881399,0.0038002750370651484,0.002095951698720455,-0.0047227730974555016,0.0006819985574111342,0.007078717462718487,0.006028145086020231,-0.006793680135160685,-0.004992795642465353,-0.005279650911688805,0.003328656079247594,0.004100525286048651,-0.004532354883849621,-0.0002525362651795149,0.004806442651897669,0.0032581002451479435,0.0008159764111042023,0.0015006483299657702,0.00016401542234234512,-0.0028776328545063734,0.0008632190874777734,0.0029770885594189167,0.00558941625058651,0.0020473443437367678,0.0037463305052369833,-0.005082070827484131,-0.00037197492201812565,-0.006909553427249193,-0.0036617827136069536,0.003101749811321497,0.006730250082910061,-0.00570349395275116,-0.0013713306980207562,0.004210990387946367,-0.004528427962213755,0.00040219054790213704,0.0032011743169277906,0.0014558236580342054,-0.004789797123521566,-0.002484517637640238,0.0036406219005584717,0.0006189317791722715,-0.007316111586987972,0.0034816646948456764,-0.006836403626948595,0.003407473908737302,-0.004439694341272116,0.006409628316760063,-0.0021010953933000565,-0.0025853500701487064,-0.005094395484775305,-0.0029679785948246717,0.005256770644336939,0.006960724480450153,-0.001977435080334544,-0.0007546290871687233,0.003012942150235176,0.005356911104172468,0.0011460056994110346,-0.0016814916161820292,-0.0013039051555097103,0.0026138811372220516,-0.007369727827608585,0.0014730856055393815,-0.0022353832609951496,0.004098828416317701,-0.005623033735901117,0.0015456737019121647,-7.010054105194286e-05,0.002290682401508093,-0.0060377879999578,0.0010544629767537117,0.0007463278016075492,0.0006915678386576474,0.0013725452590733767,0.0024252792354673147,0.004122996237128973,-0.0035270205698907375,0.004440746735781431,-0.00025336668477393687,-0.006338629871606827,-0.006693882867693901,-0.002554528648033738,0.00387608353048563,0.0027231802232563496,0.003946177661418915,6.0244128690101206e-05,-0.0009070453234016895,-0.005165339447557926,-0.0025528992991894484,-0.0009418101981282234,-0.0060507552698254585,-0.0041205319575965405,0.001194220269098878,0.002961638616397977,0.006672310177236795,0.006254561245441437,0.0021079399157315493,-0.0012216579634696245,0.0018344169948250055,0.00399079080671072,-0.005452747456729412,-0.0012409797636792064,0.004903541412204504,-0.001594986766576767,0.0011301913764327765,0.001260116114281118,-0.004506060387939215,-0.0019338441779837012,-0.0022859403397887945,-0.006752952933311462,-0.007034968584775925,0.004652224946767092,-0.003344704397022724,0.00012554122076835483,-0.0030839890241622925,0.006275747902691364,-0.003509287955239415,-0.001177633530460298,0.0050290715880692005,0.004619789309799671,-0.004457852803170681,0.004430140368640423,-0.0005735347513109446,-0.00032211720827035606,-0.005302829667925835,-0.005959328263998032,0.003386958735063672,8.143681770889089e-05,-0.0008188642095774412,0.0033823850098997355,0.0038156709633767605,-0.004830126650631428,0.001634469022974372,-0.005201402585953474,0.0036261475179344416,0.002105474704876542,0.006438482087105513,-0.006293269339948893,-0.006511950399726629,-0.003360412083566189,-0.0035591046325862408,-0.0038792116101831198,0.005517118610441685,-0.00380848185159266,-0.003411542624235153,0.0035445610992610455,-0.0009741405374370515,0.0035825695376843214,-0.006489083636552095,-0.0003788230533245951,-0.007023104000836611,-0.006580132991075516,0.005470833741128445,-0.005405540578067303,0.0002616028068587184,-0.0015450537903234363,-0.0024704698007553816,0.0054602171294391155,-0.007056848611682653,0.0022616905625909567,0.006311565171927214,0.0005070765619166195,0.005908303894102573,-0.006644536275416613,-0.0012645925162360072,-0.003435576567426324,0.00333415437489748,0.0069145094603300095,-0.0034948086831718683,0.0022254118230193853,-0.0043350281193852425,0.0009595390874892473,-0.00046401421423070133,0.006942226085811853,0.0017762113129720092,-0.0020884196273982525,-0.005517907440662384,-0.004966496955603361,-0.003720914712175727,-0.0032334676943719387,0.005077240522950888,0.0008635669364593923,0.0003465963527560234,-0.005398453213274479,0.005438005086034536,0.0031745615415275097,-0.006340648513287306,0.0029232632368803024,0.0006734926137141883,-0.00598915433511138,-0.0005505803856067359,-0.00016818662697914988,-0.0049622999504208565,0.006145148072391748,0.004714481066912413,0.002467524027451873,-0.0005706696538254619,-0.0014191183727234602,0.00193530204705894,0.0003711774479597807,-0.006320181768387556,0.00010869393008761108,0.004286246374249458,-0.000774779065977782,-0.006660166662186384,0.003989029675722122,-0.004349804017692804,-0.0035275453701615334,-0.004942846950143576,-0.002509399550035596,0.003478097729384899,0.00015632339636795223,-0.004289648961275816,0.0053742872551083565,0.0054750703275203705,0.00523720495402813,-0.0037133649457246065,-0.000580672814976424,0.007289292756468058,0.004167039878666401,-0.006865326780825853,-0.006167140789330006,-0.0003451424418017268,0.006249009631574154,0.0008349576382897794,-0.00011432150495238602,-0.005658432841300964,0.002372285583987832,0.004823095630854368,-0.0016058949986472726,0.003710926743224263,0.006473201792687178,-0.0044130668975412846,0.0001821895275497809,-0.0032597780227661133,0.003907862585037947,0.0007775136036798358,0.0016323435120284557,0.003950686659663916,-0.0017750585684552789,0.005781558342278004,0.0003291803295724094,-0.005105493124574423,0.0026786718517541885,0.004095757380127907,-0.002751151332631707,0.005076871253550053,0.005730024538934231,-0.0032512585166841745,0.006953471805900335,-0.005277247633785009,-0.004297018516808748,-0.00460784649476409,0.005688640289008617,0.0023203727323561907,-0.0051617370918393135,-0.0009543082560412586,0.0015684454701840878,-0.005938549060374498,0.005597861483693123,0.0041205608285963535,-0.00014465086860582232,0.006496508605778217,-0.0012493792455643415,0.006859449669718742,0.0022854479029774666,0.0017192603554576635,-0.005069466307759285,0.005294882692396641,-0.0012079257285222411,-0.004877204075455666,-0.007074805907905102,0.0007210103212855756,0.0003200797364115715,0.0031284026335924864,0.005645455792546272,-0.0060338303446769714,0.003286876017227769,-0.004487739410251379,0.005203107837587595,0.004586377181112766,0.0005388458957895637,0.0029892718885093927,-0.0026768469251692295,-0.000389637250918895,0.0044933189637959,-0.0007957932539284229,-0.002235331339761615,-0.00020225581829436123,0.004650244023650885,-0.002686983672901988,-0.005007803440093994,0.0026934819761663675,0.004249617923051119,-0.006113855168223381,-0.003961753565818071,-0.005251194816082716,-0.002212916500866413,-0.0007123620598576963,0.0036289463751018047,0.0021014444064348936,0.0018317067297175527,-0.0020188773050904274,0.005016085226088762,-0.00023448180581908673,0.006889853160828352,0.0020619353745132685,-0.005331333726644516,0.0025300465058535337,-0.002448038198053837,0.002591955242678523,-0.006295592524111271,-0.0049132779240608215,0.004851317033171654,-0.004149862099438906,0.004548859316855669,-0.0033801153767853975,0.0018516116542741656,0.002685760147869587,0.00017096813826356083,-0.002976147923618555,-0.004161719232797623,-0.006734638940542936,-0.0027922154404222965,0.002339575905352831,0.006184677593410015,0.005335141438990831,0.0038147890008985996,0.004232500214129686,0.002585998736321926,-0.003599864663556218,0.005778944585472345,0.0024252203293144703,0.0009214073652401567,-0.005474764388054609,-0.0010920583736151457,-0.0008783528464846313,0.004975592251867056,0.0004873597645200789,-0.0018610694678500295,0.006853355560451746,-0.005601964890956879,-0.0012068283976987004,-0.006520568393170834,0.003561887424439192,0.006067438516765833,-0.00308209378272295,0.005231994204223156,-0.002793023595586419,0.006055935751646757,0.0037556705065071583,0.004542292561382055,-0.006834088359028101,0.00673757353797555,0.0031910627149045467,-0.002802926581352949,0.004747029393911362,-0.0032010257709771395,0.005225521512329578,-0.005939432419836521,0.002903393469750881,0.0005809862050227821,-0.005912093445658684,-0.0039179399609565735,-0.007422795053571463,-0.0008415487827733159,-0.003137873951345682,0.0010835682041943073,-0.003029538318514824,-0.0031253769993782043,0.0033368938602507114,-0.006512241438031197,0.005753897596150637,0.005200736690312624,0.0025116519536823034,0.0013880593469366431,0.005732691381126642,-0.004454129375517368,-0.005816692486405373,-0.003514243755489588,0.0044235968962311745,-0.006550575140863657,0.001285960664972663,0.007348484825342894,0.005310004577040672,0.00042130507063120604,-0.006310506258159876,0.004606903064996004,0.0013865213841199875,-0.005646821111440659,-0.0059396191500127316,0.005764929577708244,0.0022601813543587923,0.004557094536721706,0.005295406095683575,0.0009062395547516644,0.00012318973313085735,-0.0011909744935110211,-0.0028128293342888355,-0.0010656275553628802,0.0038784663192927837,0.0013103458331897855,0.0054415129125118256,-0.0009747329168021679,0.0014409315772354603,0.001846545492298901,0.0011924543650820851,0.0027461100835353136,-0.0038890198338776827,0.00014198878488969058,-0.005702528636902571,-0.0017539876280352473,-0.0002993044618051499,0.0021687964908778667,0.006461092736572027,0.0016030239639803767,0.0037970514968037605,0.00030108788632787764,0.00207860697992146,-0.0061601013876497746,-0.0033335338812321424,-0.0017046474386006594,-0.00024655886227265,-0.006464592181146145,-0.005240982864052057,-0.00303633906878531,0.006890017539262772,-0.0025208962615579367,-0.0004079827049281448,-0.004617384169250727,0.001527726766653359,-0.003368900390341878,-0.004512973129749298,-2.2055668523535132e-05,-0.00743297440931201,-0.007290700916200876,-0.0043416195549070835,-0.006912632845342159,-0.005840053781867027,-0.0025955000892281532,0.0046614077873528,0.001259945915080607,0.000249529373832047,-0.003032594919204712,0.006063471548259258,-0.0013010688126087189,-0.005928025580942631,0.0015846581663936377,-0.00569499796256423,-0.0024106039199978113,3.075962740695104e-05,0.005198102910071611,-0.0002076257806038484,0.002772306324914098,0.006927641574293375,-0.005518287420272827,-0.0034271597396582365,-0.0015814738580957055,-0.0011730683036148548,-0.0013149521546438336,0.005627141334116459,0.003001151606440544,0.0016198044177144766,-0.002631917828693986,0.004797665402293205,0.006284008268266916,0.004285150207579136,-0.007461253087967634,0.0017087553860619664,-0.0066897510550916195,-0.003938325215131044,-0.006758108269423246,0.0011862085666507483,0.0023835808970034122,-0.005749696400016546,-0.002141017699614167,-0.0009438777342438698,-0.0020976176019757986,-0.005624158773571253,-0.0012259832583367825,0.0033054640516638756,-0.00627321470528841,-0.006039790343493223,-0.002081184182316065,0.006415682379156351,0.0023267511278390884,0.002587144263088703,-0.0019386018393561244,0.0014429599978029728,-0.006853068247437477,0.0018844004953280091,0.005842176266014576,0.0015420085983350873,0.005452686455100775,0.0034263625275343657,-0.0055860779248178005,0.0056097256019711494,-0.006421947386115789,0.0004344388726167381,-0.005082919728010893,-0.0070328000001609325,-0.0012384515721350908,-0.0031227448489516973,-0.00029171552159823477,0.0010742675513029099,-0.00656509306281805,-0.0055318414233624935,0.0006636003381572664,-0.00240088882856071,0.0032012274023145437,0.0021487961057573557,0.004764084704220295,0.0025260408874601126,-0.0011273823911324143,0.0023428972344845533,-0.0034337707329541445,-0.0029529130551964045,0.0039858692325651646,-0.0008790239808149636,0.004173607099801302,0.004621749743819237,0.005158842075616121,0.006148520391434431,-0.0007311786175705492,-0.0023254624102264643,0.001240283134393394,-0.0017252016114071012,0.0017015886260196567,0.0032939447555691004,0.0030172085389494896,-0.0017925295978784561,-0.004697585478425026,-0.0008411211310885847,-0.004965551197528839,0.00574966287240386,-0.0023939735256135464,-0.005137502681463957,-0.006950253155082464,0.0019130321452394128,0.0017519344110041857,-0.002334009623154998,-0.00628927955403924,-0.0015202315989881754,-0.0029878837522119284,0.0023627954069525003,0.0013707822654396296,-0.0021665652748197317,-0.004325083456933498,0.006730668246746063,-0.0009083334007300436,0.0025556080508977175,-0.005313748028129339,-0.0003891067754011601,-0.007021899335086346,-0.00019128613348584622,0.006538339424878359,-0.0017135581001639366,-0.006727957166731358,-0.006950773298740387,-0.0019436394795775414,-0.004935199860483408,-0.006877811159938574,0.0035897321067750454,-0.0008197674178518355,-0.0033453230280429125,0.005598197691142559,-0.005676571279764175,0.006347257178276777,-0.0028506785165518522,0.005407580640166998,0.0012037738924846053,0.0044611734338104725,0.006716958712786436,-0.003252757014706731,0.006313275545835495,-0.0017945966683328152,-0.001805436215363443,-0.00251104892231524,0.0003450126387178898,-0.00533082103356719,0.0006509505328722298,0.00047059651114977896,0.003513979259878397,0.004495962057262659,-0.0012069473741576076,-0.0028626499697566032,-0.003581480123102665,-0.0046163941733539104,-0.00662517175078392,-0.0025238061789423227,-0.003646406577900052,0.006544253323227167,0.0007721605943515897,-0.002232989529147744,0.0010731806978583336,-0.005337332375347614,-0.0007208071765489876,0.0020497844088822603,6.805847078794613e-05,-0.0012950716773048043,0.007176518440246582,0.00573519803583622,0.002136202296242118,0.001338682952336967,0.0020073619671165943,-0.004152330104261637,-0.0012367082526907325,-0.0063086263835430145,-0.00011621820158325136,0.0007775621488690376,-0.003932681400328875,0.00672293733805418,0.00593746080994606,0.003121014218777418,0.00040868917130865157,0.00521470932289958,-0.00529499864205718,0.004176605958491564,-0.005409925244748592,0.004189175087958574,-0.003271450288593769,0.005474510136991739,0.0064441063441336155,-0.004923064727336168,-0.0004339486768003553,0.006893650162965059,-0.00016572246386203915,0.0053357454016804695,0.0014446914428845048,-0.0016732299700379372,-0.003165698377415538,-0.004307999275624752,0.003738809609785676,-0.001596388639882207,0.00017666206986177713,-0.00018900801660493016,0.0010432165581732988,0.00518306577578187,0.006855945568531752,-0.0014090085169300437,0.004700174555182457,0.0038721489254385233,0.0011365164536982775,0.0065515050664544106,-0.004479070194065571,-0.005594081711024046,0.005223384592682123,-0.0007354881963692605,0.005052137188613415,0.005552831571549177,-0.006271562539041042,0.005609723273664713,-0.0006437315023504198,0.0001239990524481982,0.0016269463812932372,0.006131316069513559,-0.006909236777573824,-0.0003946041106246412,0.0024561898317188025,0.00286202528513968,0.002680394798517227,-0.005291869398206472,-0.0029858790803700686,-0.002311446238309145,0.004093622788786888,-0.0030685877427458763,-0.0042439051903784275,0.006349419243633747,-0.0074307858012616634,0.006776516791433096,0.002670947927981615,0.0046005393378436565,-0.00324431830085814,-0.007448097225278616,0.002961214864626527,0.004842821042984724,0.003179089864715934,-0.005574433598667383,0.003041706047952175,0.0031839879229664803,0.0020835180766880512,0.0033016609959304333,0.004303479567170143,0.0008020161185413599,-0.006776128895580769,-0.00048421716201119125,-0.006578703410923481,-0.0020494130440056324,-0.002209992380812764,-0.007016124669462442,-0.001965187257155776,-0.0055509102530777454,0.004390794783830643,0.006391994655132294,-0.006314068101346493,0.006795001681894064,0.0004019901098217815,-0.0029108666349202394,-0.006234126165509224,-0.0003050818631891161,0.0043474906124174595,0.002927031135186553,-0.006691336631774902,-0.006468704901635647,-0.0018266033148393035,-0.003063241485506296,-0.004140214063227177,-0.00360870361328125,0.003873863723129034,0.0055856043472886086,-0.001664264826104045,0.0053516412153840065,-0.0031721496488898993,-0.0009539703605696559,-0.0045906128361821175,0.0017709416570141912,0.0065689594484865665,0.0011853433679789305,-0.0023263024631887674,0.0018267285777255893,-0.005638428032398224,0.005228709429502487,-0.0003306433209218085,-0.0011061503319069743,0.0008724954095669091,0.001601282856427133,-0.006581491325050592,0.0021816487424075603,-0.004233820829540491,0.002571627963334322,0.004328740295022726,0.003888944396749139,0.0002638072182890028,-0.00021783860574942082,-0.00560407480224967,0.003694722428917885,-0.0036504825111478567,-0.000465090706711635,-0.0034953851718455553,-0.005605568643659353,0.0014259424060583115,-0.006774428300559521,0.0033293922897428274,-0.0029039212968200445,-0.007532383315265179,-0.0002606552152428776,-0.006770641077309847,-0.0033688105177134275,0.0027313518803566694,-0.006493018474429846,0.004670325666666031,-0.0071939947083592415,-0.0036449027247726917,0.003450453747063875,-0.00265332730486989,-0.005637550260871649,-0.0017644846811890602,-0.002975448267534375,0.005221366882324219,-0.002475356450304389,0.004285619594156742,0.005995057988911867,-0.000575187848880887,0.006173913832753897,-0.0016037801979109645,0.006954692769795656,-0.0056620812974870205,0.0027838009409606457,-0.00020276442228350788,-0.001722085871733725,0.0021757048089057207,0.0031995975878089666,-0.0069894068874418736,-0.004823897033929825,0.002929745241999626,0.002561988541856408,0.00682670995593071,0.0037223449908196926,0.006291625555604696,0.0026014724280685186,-0.0027865790762007236,-0.005609914194792509,0.0039594280533492565,0.0018164514331147075,-0.006874787155538797,-0.0018691223813220859,0.00668746791779995,-1.7475957065471448e-05,-0.0012017140397801995,-0.0009816893143579364,-0.003914310596883297,-0.001790778012946248,-0.0020582550205290318,-0.006794380955398083,0.0033661385532468557,-0.0010273628868162632,0.004558163695037365,0.004687589127570391,-0.004634112119674683,0.001734611694701016,-0.00038916137418709695,0.005203742999583483,-0.004572918638586998,0.001929769292473793,0.0009678869973868132,-0.003075546585023403,-0.00569762010127306,0.001506580738350749,0.002721151802688837,-0.00333199929445982,0.0019582912791520357,-0.0019580957014113665,0.0024926080368459225,-0.004886577371507883,0.00505480170249939,-0.00312617514282465,-0.0017905553104355931,-0.006033508572727442,-0.00530609954148531,0.0002400711819063872,-0.003437863430008292,0.004946521949023008,-0.006623063702136278,-0.001465327339246869,-0.00221378356218338,-0.006932332180440426,-0.005136213265359402,-0.0007359705050475895,0.00037459348095580935,-0.0010714589152485132,0.0006669903523288667,0.0018932909006252885,-0.0063395448960363865,0.0001263548037968576,0.007136152591556311,0.0007049745181575418,0.0032771886326372623,-0.0018860320560634136,0.004575301893055439,0.004489223938435316,0.0003055889974348247,0.006975921802222729,-0.005335901863873005,-0.00711905537173152,0.0035744451452046633,0.004528827033936977,-0.005274996627122164,-0.003333989530801773,-0.007092539221048355,-0.0032805216033011675,0.004107291344553232,0.0004505007527768612,-0.002230424666777253,-0.0021221775095909834,-0.007558878045529127,-0.0026655287947505713,0.0023173298686742783,0.006752737332135439,0.004704198334366083,-0.007195147220045328,0.00589112238958478,0.004213913809508085,0.003949696198105812,-0.0007970028673298657,-0.0017748575191944838,-0.0029291692189872265,-0.0064650666899979115,-0.0040921843610703945,-0.00373352924361825,-0.0003465166373644024,0.0034600317012518644,-0.0005783938686363399,-0.006510504987090826,0.006496133748441935,0.006278689950704575,0.004016350023448467,0.0069527034647762775,0.0006289081065915525,0.006743344943970442,-0.006018098443746567,-0.002013973193243146,-0.004052422475069761,-0.004323870874941349,-0.0049962373450398445,0.0019269074546173215,0.003998524975031614,0.0010955192847177386,-0.005017770454287529,0.004537258762866259,0.0020713871344923973,-0.0016164054395630956,0.0023250074591487646,-0.0035981659311801195,-0.002273884601891041,0.005940662696957588,-0.003117817221209407,-0.0006373848300427198,0.005407126620411873,0.002890756819397211,-0.006395632866770029,-0.005251528695225716,-0.007324489764869213,0.0016685109585523605,-0.0008161462610587478,-0.005356036592274904,0.006441927049309015,0.00028922531055286527,-0.0037792695220559835,7.2286884460481815e-06,0.0025920383632183075,-0.005990772042423487,-0.0031256582587957382,0.004568611271679401,-0.0004086295666638762,0.0009290144662372768,-0.0007001488120295107,-0.006232988554984331,-0.0045501491986215115,-0.000674637034535408,-0.004131200723350048,-0.006032953504472971,0.005390523467212915,0.007245445158332586,0.004367337562143803,0.005154074169695377,-0.0033865415025502443,0.006928812246769667,-0.004194063134491444,0.006471678148955107,0.007046050857752562,0.0031025083735585213,0.006961252074688673,0.000921212078537792,-0.0036739911884069443,-0.0011518944520503283,0.0013028113171458244,-0.006113010924309492,0.0016543806996196508,0.0067247310653328896,-0.004682598635554314,0.004524648655205965,0.006052293349057436,0.00645902194082737,0.006593323778361082,0.00019885762594640255,0.007115734275430441,0.003825090592727065,-0.004885473754256964,-0.00042838967056013644,0.002960242098197341,-0.00354005116969347,0.0019554670434445143,0.002231812570244074,-0.005034555681049824,0.0006305908318608999,0.003884875914081931,-0.00015640136552974582,-0.00716394791379571,-0.0072317905724048615,-0.0023649060167372227,0.006034700199961662,-0.004004956688731909,0.001786357257515192,-0.004197713453322649,-0.002811600686982274,0.004855687264353037,0.0030850397888571024,-0.0060804057866334915,-0.0013262764550745487,-0.007268871646374464,-0.00041378961759619415,0.002116035670042038,-0.005786891095340252,-0.003389907767996192,-0.0020369559060782194,0.005927724298089743,0.006785527803003788,-0.007001269608736038,0.003190139774233103,-0.0025771306827664375,-0.0017856477061286569,0.0031168994028121233,0.005345240700989962,0.005660064984112978,0.00026286268257535994,-0.0024319817312061787,0.0034874058328568935,-0.00431891018524766,0.00015491699741687626,-0.0028473318088799715,0.00262821139767766,-0.0034070650581270456,-0.004290772136300802,0.005997819826006889,-0.005836272146552801,0.0003340783005114645,-0.0038118180818855762,-0.006543273106217384,-0.006754884496331215,-0.004856328945606947,0.005254849791526794,-0.0032352551352232695,0.006315042730420828,0.0008771299035288393,-0.0012925396440550685,0.0011181257432326674,0.00015678881027270108,0.003534950315952301,-0.0034523888025432825,-0.002454684814438224,0.0057886457070708275,0.006569367833435535,0.005653747357428074,-0.0012584151700139046,0.0039029677864164114,-0.0004891377757303417,-0.00021202457719482481,-0.004367845132946968,0.001190149923786521,-0.0046514952555298805,-0.002581428037956357,0.004952566232532263,-0.004279464948922396,-0.006203710101544857,-0.006252889987081289,0.006163937970995903,2.4486221263941843e-06,-0.0013000844046473503,0.004567581228911877,0.004887215327471495,-0.002499987604096532,0.0027765873819589615,0.003973252139985561,0.002333466662093997,-0.004935764241963625,0.005433861631900072,0.0006158424075692892,-0.003007299732416868,-0.0009446050971746445,-0.006508843041956425,-0.005520380102097988,0.0034957025200128555,-0.007410494610667229,-0.0013623397098854184,0.00013677401875611395,-0.006696040742099285,0.006453657988458872,-0.004180029034614563,-0.003021972021088004,-0.003003983059898019,-0.004122916609048843,-0.0074694398790597916,0.0030167268123477697,0.006495899520814419,-0.004103768151253462,0.0021370716858655214,0.003208268666639924,0.0048414552584290504,-0.0011165763717144728,-0.002747434191405773,-0.0026477123610675335,0.003021408338099718,0.0046059307642281055,-0.004388258792459965,-0.0015475195832550526,0.005314230918884277,0.004074166063219309,0.006783402059227228,0.003479484235867858,-0.0017305059591308236,0.0010851435363292694,0.0022068708203732967,-0.00608149915933609,0.0005885225837118924,0.002943817526102066,-0.00468797143548727,0.0040588113479316235,0.0013060481287539005,0.006521389354020357,-0.0066071245819330215,-0.00332533847540617,0.0015077474527060986,-0.0028997824992984533,0.0029640288557857275,0.0036847335286438465,-0.0057403589598834515,0.00019835367857012898,1.2078292002115631e-06,-0.0020579227712005377,0.0061033437959849834,0.004693102091550827,0.0029525067657232285,0.0032260441221296787,-0.0004658998514059931,0.006043280474841595,0.0030054484959691763,0.0036326271947473288,0.005431261379271746,-0.003162473440170288,0.004406062886118889,-0.003879350610077381,-0.001739287399686873,-0.002042169449850917,0.006992522161453962,0.0050237891264259815,0.0034493734128773212,0.003721054643392563,0.0011545438319444656,0.006459603551775217,-0.00028134568128734827,-0.001328150276094675,-0.004551693331450224,0.004165594466030598,0.0031624548137187958,-0.002158814575523138,-0.006475384812802076,0.0051358891651034355,-0.006935532204806805,0.0029170846100896597,0.006657481659203768,-0.0006010464276187122,-0.00360308145172894,0.0029695816338062286,0.004469562787562609,0.0005310365813784301,0.0069549125619232655,-0.006274384446442127,9.099241287913173e-05,0.003053497290238738,0.005070937797427177,-0.004305724985897541,0.004507724661380053,0.0007838009623810649,-0.0015289471484720707,-0.005420906934887171,0.005584231577813625,-0.004776941612362862,-0.002731959568336606,-0.003109205514192581,0.005111302249133587,0.002562473062425852,0.004600122570991516,-0.00314143905416131,0.002147705527022481,0.0012062527239322662,0.004948499146848917,0.006211418192833662,-0.0065569644793868065,0.002858605934306979,-0.006235839333385229,0.0009033941896632314,-0.002666453830897808,-0.002331452677026391,-0.0017761284252628684,0.0019604950211942196,-0.0021752244792878628,0.0037634093314409256,-0.0009279432706534863,-0.0058716279454529285,0.004328475799411535,-0.0028475476428866386,-0.0005173596437089145,0.003136944491416216,-0.002072135219350457,-0.006145421881228685,-0.0018026531906798482,0.006268967408686876,0.0018271517474204302,0.0021964216139167547,0.0016219760291278362,-0.004414267838001251,-0.0013688146136701107,0.003379151225090027,-0.005929827224463224,-0.003395602572709322,-0.0033660554327070713,-0.001207297551445663,0.006711520720273256,-0.006375344470143318,7.4582509114407e-05,-0.004707955289632082,0.006611709017306566,-0.005732560530304909,-0.0016303042648360133,0.003107002004981041,0.0028929610271006823,-0.0012242906959727407,-0.0023376583121716976,-0.0016775476979091763,-0.0036212888080626726,-0.004076197277754545,-0.0001570544991409406,-0.0033235352020710707,-0.0030801722314208746,0.0022566686384379864,0.0071786814369261265,0.0018009856576099992,-0.005895902868360281,-0.005947695579379797,0.006495037581771612,-0.002507472177967429,-0.00559861259534955,0.0015393777284771204,0.0018362818518653512,0.0020063871052116156,-0.0032307410147041082,-0.00703511293977499,0.006524090189486742,-0.0038196109235286713,0.002115944866091013,0.002791052684187889,0.001241382909938693,-0.0030981749296188354,-0.0038052373565733433,0.0007965486729517579,0.00543338293209672,0.00656921835616231,-0.0056555322371423244,-0.005085340701043606,0.006208591163158417,0.003722317051142454,0.005725142080336809,-0.00423411512747407,0.0011425450211390853,0.0026232097297906876,0.0028491755947470665,-0.0012489284854382277,-0.007021443452686071,0.0009179291664622724,-0.003946640528738499,-0.0007342298631556332,0.006415747106075287,-0.001753506949171424,0.004388484172523022,-0.004945690743625164,0.002319931983947754,0.006612143944948912,-0.006130517460405827,-0.0075574168004095554,-0.0014155842363834381,-0.005821376573294401,0.0036567479837685823,0.005904488731175661,-0.0012619915651157498,-0.004034097772091627,-0.0008938866667449474,0.003312410321086645,-0.007118756417185068,0.000910955888684839,0.0009475719998590648,0.0019647448789328337,-0.0036901705898344517,0.0029060167726129293,-0.0063802157528698444,-0.0051384251564741135,0.005399496294558048,0.0034209524746984243,-0.0072316862642765045,-0.004280489403754473,-0.005063677206635475,-0.0032255244441330433,-0.003559268545359373,-0.0065037766471505165,-0.0012093096738681197,0.002529572695493698,0.0016877430025488138,0.0025298716500401497,-0.005971027072519064,0.006512629333883524,0.004728996194899082,0.004482962191104889,0.004546479322016239,0.006063135340809822,0.0004274799721315503,-0.004646784625947475,0.001611923216842115,0.0031324736773967743,0.002982037840411067,-0.00019437087757978588,-0.006771640386432409,-0.002060642931610346,0.005570617970079184,0.000653660565149039,-9.429376950720325e-05,-0.004010328091681004,-0.0022607080172747374,0.005186888389289379,0.0017922240076586604,0.0034793445374816656,-0.0013393955305218697,0.001941310940310359,-0.003557311138138175,0.002972010523080826,-0.0011984530137851834,-0.001156335580162704,0.002206806093454361,0.006365426350384951,-0.006211412604898214,0.0045333984307944775,-0.003284285543486476,-0.0007124152616597712,-0.006729332264512777,-0.0027607206720858812,-4.583559348247945e-05,-0.006636057980358601,-2.582271736173425e-05,0.006295360159128904,-0.005546046886593103,0.0037174243479967117,-0.0015803312417119741,0.002355115255340934,-0.003258469281718135,-0.004830760415643454,-0.005077577196061611,-0.0065207271836698055,-0.0041557615622878075,0.0025434240233153105,0.005402122158557177,0.004230443853884935,0.0022181817330420017,-0.00532893231138587,-0.0030892565846443176,-0.0030853720381855965,-0.0041160257533192635,-0.0003711017780005932,0.00047266276669688523,-0.002398535842075944,-0.0026604640297591686,0.003998604603111744,0.0034804530441761017,-0.0030162653420120478,0.0054375058971345425,0.005889498628675938,-0.0032259912695735693,-0.0026849820278584957,-0.00011793926387326792,0.006006918847560883,0.00499412277713418,-0.006157610099762678,-0.0018532087560743093,0.0008061834378167987,-7.984683179529384e-05,-0.004548092372715473,0.004924142267554998,0.0022264798171818256,0.004807294346392155,0.004995977506041527,0.003343515796586871,-0.0011954803485423326,0.0011853208998218179,-0.004816632252186537,0.0025092714931815863,-0.004750252701342106,0.002511818427592516,-0.004288995172828436,-0.005224110558629036,-0.004657549783587456,-0.007195566315203905,0.002951110014691949,0.0030563408508896828,0.0005065855802968144,-0.004746330436319113,-0.006082344800233841,-0.007121493574231863,-0.005049356259405613,0.005609801039099693,-0.0037922654300928116,-0.002225876087322831,-0.005790193565189838,-0.004092460498213768,0.0002785200485959649,0.0014654051046818495,-0.003834086237475276,-0.006487990263849497,-0.0017400056822225451,-0.0037969776894897223,-0.0041434671729803085,0.006442134268581867,0.0014662633184343576,0.0005837104981765151,-0.0011680345050990582,-0.0011191879166290164,0.00040495640132576227,0.0025494506116956472,0.0026554292999207973,-0.004670742433518171,-0.00011945716687478125,-0.0014915609499439597,0.005038138013333082,0.0016141957603394985,0.00045733715523965657,-0.005361841060221195,0.0018074136460199952,-0.0053581781685352325,-0.0024478042032569647,-0.0052031599916517735,0.0029509493615478277,-0.003955300431698561,-0.0014469277812168002,0.005535666830837727,-0.004323895554989576,0.0002175045810872689,-0.0010088321287184954,-0.00687838438898325,0.0039762211963534355,-0.006258960347622633,-0.00025945910601876676,0.0009889001958072186,0.00179988460149616,0.002453811699524522,-0.0034524784423410892,-0.006749053951352835,0.0034949621185660362,0.0006090542883612216,0.004791184328496456,0.004299275577068329,0.004584567155689001,-0.0004989318549633026,-0.002666664309799671,0.0038791759870946407,-0.0009563375497236848,-0.004767355974763632,0.004865400958806276,0.005208451300859451,-0.0007893047877587378,-0.006251643877476454,-0.001707553630694747,0.004282095935195684,0.005632566753774881,-0.004452452529221773,-0.006357230246067047,0.0053604464046657085,-0.0016067192191258073,0.000505987845826894,0.006567290518432856,-0.006317869760096073,0.002059593563899398,-0.006233190651983023,-0.0019143568351864815,0.004162499215453863,-0.0009259690414182842,0.007000787649303675,0.0005599342985078692,-0.00295261456631124,-0.004432364366948605,-0.0022973129525780678,-0.0021302856039255857,-0.006605968344956636,-0.0022693322971463203,-0.0009473033132962883,0.002947163302451372,0.0018821244593709707,0.002586986171081662,-0.007518223952502012,-0.004524085205048323,0.002220202935859561,-0.0005355103639885783,-0.007510949391871691,0.0039042276330292225,0.0035179154947400093,0.0006336657097563148,-0.0064186351373791695,0.003583559300750494,0.000944114348385483,0.003927861340343952,0.003746835747733712,0.004553051199764013,0.00035909205325879157,-0.005202971398830414,0.0022986396215856075,0.002028377028182149,0.0037566653918474913,-0.0045877909287810326,-0.004455982707440853,0.0054250843822956085,0.003972165286540985,0.006186949089169502,0.003880611388012767,0.001269616768695414,0.0019151931628584862,0.005881058983504772,0.0012970473617315292,0.0019354638643562794,-0.005229767877608538,-0.0008553401567041874,0.0032395285088568926,-0.0032814540900290012,-0.004498673137277365,-0.0032452542800456285,-0.004458521958440542,-0.003991303499788046,-0.001052842941135168,0.005775777623057365,-0.00015382566198240966,-0.0049486611969769,-0.0060399603098630905,0.0027868482284247875,-0.0018143154447898269,0.004331569187343121,0.0018218051409348845,0.0042682066559791565,-0.0033320763614028692,0.002600194187834859,-0.0037281126715242863,0.005803318694233894,0.002053951844573021,-0.002463087672367692,-0.003387175500392914,-0.004747434519231319,0.0023220053408294916,-0.003908516373485327,0.0015118567971512675,-0.0034547364339232445,0.002024579793214798,0.004132548812776804,0.00387801555916667,0.0035651118960231543,-0.00465027429163456,-0.006169365253299475,0.0024872636422514915,-0.0019555222243070602,-0.0010621127439662814,-0.006805827375501394,-0.0036390272434800863,-0.006987972185015678,0.005376943852752447,-0.003762797685340047,0.0007604645215906203,-0.006814249325543642,0.002104103099554777,-0.002636081539094448,0.005661866627633572,0.005495776422321796,-0.0027618114836513996,0.005393111612647772,0.007077626883983612,0.004760241135954857,0.004930729512125254,-0.003817660268396139,0.0008528295438736677,-0.006378608290106058,-0.006051588337868452,0.006861239206045866,-0.002690334804356098,0.003449016949161887,0.004377223551273346,0.005013339687138796,0.006955679040402174,-0.0037285778671503067,-0.006538266781717539,-0.0011400384828448296,-0.005280490964651108,-0.006749982945621014,-0.0018370152683928609,0.004311960656195879,0.0012410538038238883,-0.0025050940457731485,0.002409016713500023,-0.003704020520672202,-0.006772986613214016,0.003986493684351444,0.0019421313190832734,0.0038586952723562717,-0.006644461303949356,0.004889701958745718,0.0016088580014184117,0.0008759688935242593,0.0017705198843032122,0.005142200738191605,0.0009389190236106515,0.001114256796427071,0.007063137833029032,0.0036968428175896406,-0.000982418772764504,0.00262036663480103,-0.0016206875443458557,-0.003842189209535718,0.0013942212099209428,0.006015112157911062,0.005774239543825388,-0.0021711327135562897,0.0005040731630288064,-0.004132393281906843,0.006948656402528286,0.006476360373198986,0.0022985488176345825,0.004506765864789486,0.003088695462793112,0.0010548628633841872,-0.006968279369175434,-0.0007843341445550323,0.002396524418145418,0.0024532179813832045,-0.0017680946039035916,0.006316543091088533,-0.004727290011942387,7.127276330720633e-05,0.0028355210088193417,0.002951793372631073,0.0022441637702286243,-0.003054586471989751,-0.004745029378682375,0.0020820845384150743,0.0014976919628679752,-0.004538046661764383,0.003009198699146509,-0.0005078965332359076,0.0024828417226672173,0.004875571466982365,-0.004665267188102007,-0.007022284436970949,0.003951563034206629,0.0015089265070855618,0.0027998406440019608,0.004776551388204098,0.004240239039063454,0.006555603817105293,0.0005412062164396048,-0.00016816715651657432,-0.001489807735197246,-0.005015290807932615,0.0011491375043988228,-0.0030520062427967787,0.006194653920829296,0.0012384254951030016,0.0014242709148675203,-0.0017852726159617305,-0.006062799599021673,-0.006417175754904747,-0.0009959000162780285,-0.005701557267457247,0.001992621924728155,0.005970967933535576,0.005800907034426928,0.002319426741451025,-0.0038684429600834846,0.005665766540914774,0.005963106639683247,-0.004262919537723064,0.0032560951076447964,-0.0031760234851390123,0.004275051411241293,0.0072149913758039474,-0.006656980607658625,0.005789383314549923,0.0016389128286391497,0.00677931634709239,-0.00042961325380019844,0.005115721840411425,-0.006200553849339485,-0.0024521711748093367,-0.006172988563776016,0.006988200359046459,0.004794305190443993,0.005236994940787554,0.006263528484851122,-0.005844334606081247,-0.0013753871899098158,-0.005865005310624838,-0.0038938517682254314,-0.0038302596658468246,-0.0002445987774990499,-0.00304164900444448,-0.005434137303382158,-0.004475018475204706,-0.0051306686364114285,0.00644829124212265,0.0033817181829363108,0.006352364085614681,-0.0012989346869289875,-0.0032742805778980255,0.003973369020968676,-0.0028093080036342144,-0.003248432418331504,-0.004354177508503199,-0.005492874886840582,-0.003842883510515094,-0.00245943246409297,0.002065494656562805,-0.006856623105704784,-0.004566744435578585,0.003983017057180405,-0.005599794443696737,-0.0028464067727327347,0.004618457052856684,-0.0054327575489878654,-0.006563656032085419,-0.0008512218482792377,-0.0035372960846871138,0.00031991806463338435,0.004436647519469261,-0.005295181646943092,0.00095938122831285,-0.0003066951176151633,-0.005534300114959478,0.0017281577456742525,-0.0035030515864491463,-0.0006370649789460003,-0.006531300954520702,-0.0011216046987101436,-0.0031081766355782747,0.004137401469051838,-0.006981816608458757,-0.0018691560253500938,-0.0013005395885556936,0.0028669475577771664,0.0005120203131809831,0.001694771577604115,0.0032670979853719473,0.004562484100461006,-0.0031076387967914343,-5.935374792898074e-05,0.004209472797811031,0.0064711254090070724,0.005124780815094709,-0.0017084961291402578,-0.004500081297010183,-0.0005677821463905275,0.00292169745080173,-0.0006006161565892398,-0.0002944589941762388,0.0045637693256139755,-0.002495338674634695,0.004593130201101303,-0.0017834262689575553,-0.0025615040212869644,-0.000949765439145267,0.003373393788933754,-0.005788863170892,-0.0045874714851379395,0.006530983839184046,-0.00480548944324255,0.0007387754740193486,0.0008515905938111246,-0.0002870118769351393,0.002211363986134529,-0.003833552123978734,0.0006569254910573363,-0.0019989004358649254,0.002292428631335497,-0.005412672646343708,0.0008700939361006021,-0.004492998123168945,-0.003158597042784095,-0.004145212471485138,-0.004788681399077177,0.0046447389759123325,-0.0029285545460879803,0.006295268423855305,0.00680026039481163,0.0009248804417438805,-0.0050306981429457664,-0.0015091330278664827,0.00459362892434001,-0.001732216333039105,-0.005927794147282839,0.0010118428617715836,0.005305110011249781,0.0045298016630113125,-0.00453568110242486,0.0025597133208066225,-0.0037587678525596857,-0.003729060059413314,0.005602214485406876,-0.0034862440079450607,-0.003670298960059881,-0.00748097151517868,0.0049749682657420635,0.0038577707018703222,0.0015445034950971603,0.003536586184054613,-0.005145915783941746,-0.0007582614198327065,-0.002249200828373432,-0.005951827857643366,-0.0001110279918066226,0.006075276993215084,-0.006586941424757242,-0.0030625828076153994,-0.004264386836439371,-0.0035788249224424362,0.005844490602612495,-0.00058786291629076,-0.0007336191483773291,0.003485834924504161,-0.004897970240563154,-0.0003000619763042778,-0.0013084657257422805,0.0010214283829554915,0.006710654124617577,0.003925444558262825,-0.0014923554845154285,0.004616086836904287,-0.0047539230436086655,-0.006687179673463106,-0.0042040119878947735,-0.002313623670488596,0.00013062333164270967,0.0016929053235799074,0.006068508140742779,0.00022745950263924897,7.71257109590806e-05,-0.0064032734371721745,-0.006514629349112511,0.0010887716198340058,-0.0007100366055965424,0.00498466519638896,-0.004755672998726368,-0.006580979563295841,-0.0003110793768428266,-0.0035965177230536938,-0.006358669605106115,0.003365064738318324,-0.005316728726029396,0.001936624525114894,-0.0029813016299158335,-0.004665165673941374,-0.0017875523772090673,0.004291563294827938,-0.0014781424542889,0.0037600428331643343,-0.005339575000107288,0.003913176245987415,-0.0037486422806978226,0.0027473303489387035,0.001072546117939055,0.006228230427950621,-0.0015227600233629346,-0.006069938186556101,-0.006588600110262632,0.004793163854628801,0.000400408694986254,0.004067068919539452,-0.0035883355885744095,-0.0018936751876026392,-0.006621073465794325,0.006755826994776726,0.002561788074672222,0.006429735105484724,-0.0031557499896734953,0.001818981603719294,0.002631214912980795,-0.0026060326490551233,0.004877473693341017,0.006271811202168465,0.005653378553688526,0.0034158469643443823,-0.0033034791704267263,-0.003314969828352332,0.00650542788207531,-0.0068069822154939175,0.003188289934769273,0.0028568797279149294,0.0015382737619802356,0.006773282773792744,-0.002370156580582261,-0.002210199600085616,-0.00614905497059226,-0.0010246490128338337,-0.003816611599177122,-0.002033764962106943,0.004768878687173128,0.0060228025540709496,-0.004869840573519468,-0.0023421579971909523,0.006000317167490721,-0.0065328083001077175,-0.006173155270516872,-0.005143963266164064,0.0010607742005959153,-0.005192695651203394,0.006461306009441614,-0.0011217795545235276,-0.0003076138091273606,-0.003984813112765551,-0.0005110425408929586,0.0021416780073195696,0.003304049139842391,0.003291546367108822,0.0007317173294723034,0.005798198748379946,0.004464944824576378,0.0035028725396841764,-0.006647991482168436,-0.0073646786622703075,-0.00420550350099802,0.002162497490644455,-0.0014922094997018576,-0.0016334719257429242,0.0053190309554338455,0.005518163088709116,0.005798495840281248,-0.0026523862034082413,0.002710383851081133,-0.0033147577196359634,-0.0047464254312217236,-0.004683671984821558,-0.0023113104980438948,-0.0010393019765615463,0.004751989152282476,-0.005797522608190775,0.003232379676774144,0.00048797117779031396,-0.002986464649438858,-1.9873090423061512e-05,-0.003145895665511489,0.0012660376960411668,-0.0008158721029758453,-0.004688106011599302,-0.005362893454730511,0.0005670753889717162,0.005826209671795368,-0.002070468617603183,0.003471947507932782,0.0024641305208206177,0.005978026427328587,0.004451194312423468,0.0007630863692611456,0.0020179019775241613,0.00569745060056448,-0.001825472223572433,-0.0027463759761303663,-0.007288324646651745,0.004446571227163076,0.004367210436612368,-0.006183639168739319,0.0008003859547898173,-0.0007555524935014546,-0.00560762220993638,0.0071017127484083176,-0.00455960538238287,-0.006535789929330349,0.0012081576278433204,0.0034501152113080025,-0.0064476546831429005,0.002062027808278799,0.00038186460733413696,-0.005641581956297159,-0.0045296810567379,0.001296485192142427,-0.0032046521082520485,0.0060290624387562275,0.0043922592885792255,0.006938653066754341,-0.0033971802331507206,0.006279503460973501,-0.0014307097299024463,-0.002420596079900861,-0.006453078240156174,-0.006384711712598801,0.00223900587297976,-0.0009969989769160748,-0.004042662680149078,0.0016817930154502392,-0.0034664254635572433,0.000653500494081527,-0.0022982473019510508,0.004614976234734058,0.004709458909928799,-0.00017726607620716095,-0.0024441895075142384,-0.0020767669193446636,0.0044970135204494,-0.0022868376690894365,-0.004006535746157169,-0.005943889729678631,-0.0003350728948134929,-0.00015050794172566384,0.005019839853048325,-0.00390643859282136,-0.0018375687068328261,0.004437346011400223,0.00467434898018837,-0.0016045927768573165,-0.0004395921132527292,-0.0029073350597172976,0.006203108467161655,-0.005508854985237122,0.0062354449182748795,0.002712351270020008,0.0005786289111711085,-0.006604111287742853,-0.0002643083571456373,-0.0012802982237190008,-0.004842470865696669,0.0025136100593954325,0.007093547377735376,0.0012190178968012333,0.0032757509034126997,-0.006150892470031977,-0.0009852651273831725,-0.005295047536492348,0.0018169633112847805,0.006360047496855259,0.0022760727442801,-0.006016312632709742,-0.0019775412511080503,0.0008714473806321621,-0.001364850322715938,0.0047055454924702644,0.004526163917034864,0.0016692749923095107,-0.0018186434172093868,-0.0035882398951798677,-0.005875024013221264,-0.001988760195672512,-0.0011712880805134773,0.0024900613352656364,0.002173694781959057,-0.006442755460739136,-0.0014759531477466226,-0.004647240974009037,-0.004993420094251633,0.004591086413711309,-0.006830020807683468,-0.0013377388240769506,-0.004844834562391043,0.0054301051422953606,0.0008478828822262585,-0.003842259058728814,-0.0002891423355322331,0.0031350934877991676,0.006433473434299231,-0.0040191709995269775,0.005647051148116589,0.005908406339585781,0.005688962526619434,0.00178884610068053,0.001984628848731518,-0.0011162436567246914,0.003325333120301366,0.00016513667651452124,0.002480902010574937,-0.0007580051315017045,0.0036833169870078564,0.004491852130740881,-0.005172507371753454,0.004881938453763723,0.0009366130107082427,0.005286624189466238,-0.0012875036336481571,-0.0019340941216796637,0.005929769482463598,-0.0034575993195176125,0.0050882273353636265,-0.0005468925228342414,1.6104266251204535e-05,-0.0027333474718034267,0.0012951975222676992,-0.002230231650173664,-0.006939207669347525,-0.003369089914485812,-0.006940619088709354,0.007304500322788954,0.007145876996219158,-0.0017492319457232952,0.003316140966489911,-0.0019278849940747023,0.0029984263237565756,0.004939024802297354,0.006393320392817259,-0.0012594363652169704,0.0044575962238013744,-0.0028168996796011925,0.007530474569648504,-0.006573097314685583,0.0015739096561446786,0.002224965486675501,0.0025852543767541647,-0.0054648988880217075,0.006506654899567366,-0.004546762444078922,0.0016836491413414478,-0.0041351611725986,-0.002870156429708004,0.000675720046274364,-0.0012338482774794102,-0.005014307331293821,-0.004949473310261965,-0.001389369135722518,0.003611273830756545,0.005607170052826405,-0.0061217076145112514,-0.001787065528333187,-0.005966877099126577,-0.00704223895445466,0.0022203929256647825,0.001374569721519947,-0.005110916215926409,-0.00403353339061141,-0.007004893850535154,0.004690107889473438,0.006827795412391424,-0.005020605865865946,-0.0036782417446374893,0.0049341218546032906,0.005820310674607754,-0.0012695896439254284,-0.0062987045384943485,-0.006461053621023893,0.0006482396856881678,-0.0018809278262779117,-0.00687603373080492,0.0012802446726709604,-0.006926654372364283,0.003777068806812167,-0.002969892928376794,-0.006587357725948095,0.0013855592114850879,-0.0013479136396199465,0.006472292821854353,0.0005133498925715685,-0.0032430137507617474,0.0031648543663322926,-0.003050280036404729,0.005886612460017204,-0.0016705002635717392,0.0007796625141054392,-0.006603107787668705,-0.0011267015943303704,0.004976323340088129,0.0046210503205657005,-0.0038764034397900105,-0.004083004780113697,0.004469654522836208,0.006440205033868551,-0.005530297756195068,-0.0005848993314430118,-0.002350085647776723,0.005332294851541519,-0.005756509490311146,-0.003937208093702793,0.003735485253855586,-0.006418910343199968,-7.233520591398701e-05,-0.0007724608294665813,-0.0023621690925210714,-0.001468356349505484,0.00041273777605965734,-0.004876036662608385,0.001246488420292735,0.004606075119227171,0.0038054578471928835,-0.0051292856223881245,-0.0052280668169260025,-0.003120437264442444,-0.0017698188312351704,-0.001232369220815599,0.0025616271886974573,-0.006439427845180035,-0.006578630302101374,-0.0014630367513746023,0.0028690516483038664,-0.004405488260090351,0.0019777463749051094,-0.0033763975370675325,0.005567087326198816,0.005735767539590597,-0.002934511285275221,-0.0040285359136760235,-0.001188798458315432,-0.003615305293351412,0.002615325152873993,0.004677667748183012,0.0023108283057808876,0.004518846049904823,-0.0015092468820512295,-0.004835852421820164,0.003534853458404541,-0.0019487052923068404,0.0022421125322580338,-0.0033701276406645775,-0.005952015519142151,0.007161169312894344,-0.0048210942186415195,0.006762710865586996,0.006758773233741522,0.0042238556779921055,0.0023880284279584885,0.0013450244441628456,0.0050471993163228035,-0.003119812114164233,-0.00045041783596388996,0.001889808219857514,-0.0009451199439354241,-0.001238010823726654,-0.0025355948600918055,0.001013106550090015,0.00533617427572608,-0.0038544035051018,0.006026622373610735,0.0024712407030165195,0.004395700991153717,0.0005274611175991595,0.003928809426724911,-0.007146067917346954,0.0044782813638448715,-0.006709188222885132,0.005522552877664566,0.007135525345802307,-0.0032043440733104944,-0.004334342200309038,0.003664023010060191,-0.003535569179803133,0.0054038590751588345,-0.006066820118576288,-0.0057203564792871475,0.006693290546536446,0.0026168085169047117,0.005206441041082144,-0.0029300230089575052,0.0021924206521362066,0.0012900837464258075,0.0016858187736943364,0.002931576920673251,0.0008881321991793811,-0.001015059882774949,-0.0032511597964912653,0.0038951626047492027,-0.003916871268302202,0.002434852998703718,-0.0039166901260614395,0.0017594274831935763,0.0035493369214236736,-0.004016852471977472,-0.00661402428522706,-0.005382217932492495,0.001534760813228786,0.005098879337310791,-0.006431941408663988,0.0032059666700661182,-0.0022909364197403193,-0.0002421238023089245,0.00631167646497488,-0.002255039755254984,-0.0005090274498797953,-0.006872035562992096,-0.005798111669719219,-0.0032289018854498863,-0.006559040863066912,0.0017995245289057493,-0.001017391448840499,0.0007564618717879057,-0.004694320727139711,-0.002919199410825968,0.002196627901867032,0.006676102057099342,-0.006415042094886303,0.005655271932482719,0.0012643396621569991,0.0006419208948500454,-0.00010601124085951596,-0.006135966628789902,-0.0057253059931099415,0.0017898785881698132,-0.0024990341626107693,0.005920997355133295,-0.0012602300848811865,-0.004935779608786106,0.0034031053073704243,-0.002887328155338764,0.0005589787033386528,0.0031129217240959406,0.006026468239724636,0.004487017169594765,0.0025980952195823193,0.0025709797628223896,0.006319825071841478,-0.0030546491034328938,-0.007189939264208078,-0.0032270087394863367,-0.004072264302521944,0.002211271319538355,0.0018544181948527694,0.0013074566377326846,-0.007016490213572979,0.0031741841230541468,-0.0027049053460359573,0.002288670977577567,0.0007287113694474101,-0.0023662219755351543,-0.005447832401841879,-0.006004937458783388,0.0046355463564395905,0.005870584398508072,0.0020169937051832676,-0.0058596692979335785,-0.0015453366795554757,0.003119346685707569,0.0037734706420451403,-0.005404386203736067,-0.006973013747483492,0.0031531574204564095,-0.0021856576204299927,-0.0036012122873216867,-0.00695406086742878,0.000784794392529875,0.005123154725879431,0.006512812804430723,0.0009582889615558088,0.00028656196082010865,-0.0057332152500748634,0.0007382045150734484,-0.0018050156068056822,0.001560919568873942,-0.0013291215291246772,-0.003449241630733013,-0.005740680731832981,-0.002666213782504201,-0.005786718335002661,-0.004263469483703375,0.007269482593983412,-0.0006380133563652635,0.0005003552068956196,0.005309973377734423,0.007384820841252804,0.0014256145805120468,0.004637360572814941,-0.002371898852288723,-0.0028440444730222225,-0.0012633689912036061,0.0026254940312355757,0.0027495238464325666,-0.0025888129603117704,-0.005414278712123632,0.0020290387328714132,-0.00516837602481246,0.0012990909162908792,0.0028127997647970915,0.002661162056028843,0.0037422736641019583,0.0055091544054448605,0.00012592721031978726,0.0032222061417996883,0.0014416236663237214,-0.004441940225660801,-0.006631922442466021,-0.0029946656432002783,-0.0009109526290558279,0.0015079284785315394,0.0049473876133561134,-0.004558357875794172,-0.005706398747861385,0.006415046751499176,-0.005779472179710865,-0.0006795150693506002,0.0007563483086414635,0.0001010068881441839,-0.0063828397542238235,-0.006565539166331291,-0.0060820067301392555,0.000722441531252116,7.732093217782676e-05,-0.004268530756235123,0.001706220326013863,0.004193841014057398,-0.007113204337656498,-0.0005656024441123009,0.002323924098163843,-0.0038108897861093283,-0.0031598571222275496,0.001153722871094942,0.005324475932866335,0.004168786574155092,0.0011087420862168074,0.0030823133420199156,-0.0021206296514719725,0.00181979697663337,-0.0006773646455258131,-0.0044994535855948925,0.0026594665832817554,0.0006128844688646495,-0.002260018838569522,0.005758735351264477,-0.006854211911559105,-0.0028934767469763756,-0.006638956256210804,0.003610119689255953,0.002822762355208397,-0.002336441073566675,0.0023045502603054047,-0.0017257005674764514,0.0035441559739410877,-0.0006710808374918997,-0.0011215995764359832,0.006083305925130844,-0.0037495975848287344,-0.0055147637613117695,0.0013315087417140603,0.006886434741318226,-0.0017452522879466414,-0.006353429518640041,-0.0024098039139062166,3.0628540116595104e-05,-0.004955010954290628,0.002273550257086754,0.007068456616252661,-0.0008656420977786183,-0.002245602197945118,-0.001570586347952485,-0.005574454087764025,0.005385998170822859,-0.0014417697675526142,-0.0018406672170385718,0.0021483071614056826,-0.0009379725088365376,0.0019493675790727139,-0.006554094143211842,0.004250480327755213,0.006203148514032364,0.001975330524146557,0.006304637063294649,-0.005285671446472406,-0.0005793676828034222,0.0013742081355303526,0.0010241932468488812,-0.0016020191833376884,-0.0024949440266937017,-0.005454567261040211,-0.0015683415113016963,-0.0049664536491036415,0.0031804151367396116,-0.004340602084994316,-0.006386760622262955,0.0007207097951322794,0.001204684958793223,0.005152790807187557,0.0009652030421420932,-0.002278617350384593,0.00426816288381815,0.0003906292549800128,-0.006216014269739389,0.0008333766018040478,0.005796792451292276,-0.0016440106555819511,-0.003042531432583928,-0.005157872568815947,-0.005012785084545612,-0.000996296526864171,0.0012189160333946347,-0.006276963744312525,0.006133638322353363,0.003502439707517624,0.0010832395637407899,0.004718914162367582,-0.006323629524558783,-0.0005324814119376242,0.001591207692399621,0.004488954786211252,0.004020120948553085,-0.0034704694990068674,0.006139794364571571,-0.005625483114272356,0.0053042881190776825,0.006867832969874144,-0.004993070848286152,0.0028742002323269844,-0.006770455744117498,-0.0012564577627927065,0.0005278629832901061,0.0006800274131819606,0.005912856664508581,0.002413370180875063,-1.5200065718090627e-05,0.0048738885670900345,0.006245808210223913,-0.006918478291481733,0.006943524815142155,-0.005959743168205023,0.0045505790039896965,-0.0034592028241604567,-0.0053817275911569595,-0.0009031224763020873,0.001999198691919446,-0.0016230426263064146,-0.006643654778599739,0.0013351138914003968,0.005766810849308968,-0.0016178367659449577,-0.003859457327052951,-0.001001432305201888,-0.006569217890501022,0.004669041372835636,0.004877692088484764,0.0016030321130529046,-0.00219682976603508,0.004355371464043856,0.0010178412776440382,0.005020004231482744,0.0023357162717729807,0.0038177790120244026,0.0011169053614139557,-0.0015010342467576265,0.006491396576166153,0.000624622218310833,0.001093129045329988,-0.004501445684581995,0.0014240029267966747,0.0009478696156293154,-0.004485806915909052,-0.006897414568811655,0.000919965619686991,0.003428227035328746,0.0002967741747852415,-0.003906660713255405,0.0018452299991622567,-0.006482162047177553,-0.0010105733526870608,-0.004786987788975239,-0.004449619445949793,-0.0046079414896667,-0.0017688593361526728,-0.006370080169290304,-0.0012737271608784795,0.0004170196480117738,-0.0002589124778751284,-0.0015846706228330731,0.004866110626608133,-0.005171043798327446,-3.0014773074071854e-05,-0.00633245287463069,-0.0060963742434978485,0.0010429483372718096,0.0008974336669780314,0.00538580771535635,0.0006580795161426067,0.006552056409418583,-0.006569757591933012,-0.005769191309809685,-0.006513563916087151,-0.004774514585733414,0.00044407881796360016,0.002047708723694086,-0.006410800851881504,0.006568258162587881,0.004767644684761763,-0.0029285429045557976,-0.005849375389516354,-0.004382492508739233,-0.005054876208305359,-0.005497158505022526,0.000263150897808373,-0.0036492871586233377,-0.002060953062027693,0.007119808811694384,0.0024367987643927336,0.006277128588408232,-0.005295207258313894,-0.0017888799775391817,0.0008266563527286053,-0.006411843001842499,-0.0074008251540362835,0.002212059684097767,0.001940807094797492,-0.0012394905788823962,-0.0004952711169607937,-0.0014931322075426579,-0.006989992223680019,-0.002333201002329588,-0.004518311005085707,-0.006056987214833498,0.006421214900910854,0.0014740319456905127,0.003467038506641984,-0.0024243693333119154,-0.001894163666293025,-0.003979542758315802,-0.005926637910306454,-0.004762814845889807,0.004284484777599573,0.0021598294842988253,0.0005630964296869934,-0.0004410726251080632,0.006025648210197687,-0.005950601305812597,-0.0033955813851207495,-0.002135689603164792,0.004084770567715168,0.007185446098446846,-0.0032713182736188173,0.005290116649121046,0.004811982624232769,-0.003862753277644515,-0.001162972068414092,-0.000647154520265758,0.00689698988571763,-0.004477960057556629,0.004454419016838074,-0.0019672601483762264,0.003971016965806484,-0.0010394316632300615,0.0012324858689680696,0.0049284519627690315,0.004573518875986338,0.0053219920955598354,-0.006332854740321636,0.002842959016561508,-0.0049562593922019005,-0.0010271440260112286,0.000706436694599688,-0.0015773822087794542,0.0003563850186765194,0.007385282311588526,-0.005126049742102623,0.0024289602879434824,-0.0015987847000360489,-0.005053892266005278,-0.00461074011400342,0.006539187394082546,0.005311133805662394,0.005956136155873537,0.007424784824252129,-0.0038304778281599283,-0.0019317676778882742,0.002418958116322756,-0.00011201620509382337,-0.000983969890512526,-0.0018743840046226978,0.001361037720926106,0.0009020452271215618,-0.004816084634512663,-0.00026849666028283536,0.0009369957260787487,0.001028499216772616,-0.004354985896497965,0.0034267024602741003,-0.006750438362360001,-0.0019555818289518356,0.003976720850914717,0.0006593816797249019,-0.0034007818903774023,0.0029503938276320696,0.001125415088608861,0.004150224383920431,0.003108102595433593,0.0017250942764803767,9.346790466224775e-05,-0.005105776246637106,-0.003510060254484415,-0.001391159137710929,0.0013176534557715058,-4.584936959872721e-06,-0.0032938425429165363,-0.007290466222912073,-0.00022853276459500194,-0.003257702337577939,0.0031890731770545244,-0.0071172891184687614,0.0009427783079445362,0.00610128790140152,-0.004833928309381008,-0.0005591110675595701,-0.0061766719445586205,0.0015625095693394542,0.0005548774497583508,-0.001463043037801981,4.763009928865358e-05,0.005377326160669327,-0.004617295227944851,-0.00704357773065567,0.005128172691911459,0.0008918606908991933,0.0054336003959178925,0.001160059473477304,0.004316778387874365,-0.000995719339698553,0.0035018979106098413,0.005730338394641876,0.0008604202303104103,-0.004700860474258661,-0.0032868010457605124,-0.004436790477484465,-0.003831758163869381,-0.002974801929667592,0.0006192416767589748,0.0012276689521968365,-0.0012230499414727092,0.0014052079059183598,-0.006269034929573536,-0.006238248664885759,-0.004778009373694658,0.0001074256215360947,-0.0042975228279829025,-0.003308383282274008,-0.0017189241480082273,0.004343491978943348,-0.0071334559470415115,0.002076564822345972,0.0023343113716691732,0.004128687549382448,0.006079827900975943,-0.006906621158123016,-0.004837961867451668,0.005645326804369688,-0.0006068567745387554,0.0007526218541897833,0.0024111962411552668,0.0027710439171642065,0.006380803417414427,0.007214805111289024,0.0030049262568354607,-0.002945658518001437,0.005699523258954287,-0.006317673251032829,-0.003798883641138673,0.0057631065137684345,-0.0032223262824118137,-0.0036726663820445538,-0.0050369868986308575,0.005182819906622171,0.0002695317380130291,0.0030125665944069624,-0.0032753278501331806,0.0039200978353619576,0.0037754096556454897,-0.0029136897064745426,-0.0015291080344468355,-0.004442328121513128,0.006705157458782196,0.002088473178446293,0.005914781242609024,-0.003227244596928358,0.003671743907034397,0.0035973936319351196,0.0027333188336342573,0.00630319444462657,-0.0019427866209298372,-0.005710090044885874,0.0022086843382567167,0.0032841810025274754,0.0007214393117465079,-0.0045771184377372265,-0.00022100201749708503,-0.0028334702365100384,-0.0009107625810429454,0.0017952638445422053,0.0032744326163083315,-0.003973102662712336,-0.0013187468284741044,-0.0029928074218332767,-0.004447061102837324,0.00401480495929718,0.005790126044303179,-0.0019464882789179683,0.0036727692931890488,0.005438275169581175,0.004761196207255125,-0.004726780578494072,0.006508701015263796,-0.0016467239474877715,-0.0026553806383162737,-0.006567811127752066,-0.00037817651173099875,-0.005637830123305321,-0.0034882151521742344,-0.0029155465308576822,0.0042475443333387375,0.005395667627453804,-0.0027192565612494946,0.005327614024281502,0.004988817032426596,0.00382620538584888,-0.00487478356808424,0.0029817766044288874,0.0066561405546963215,0.0026260961312800646,-0.002416659612208605,-5.264554783934727e-05,0.0020656525157392025,0.0001985694543691352,-0.0055743008852005005,-0.0028115275781601667,0.0042137401178479195,0.005128221120685339,-0.005195352714508772,0.006293126381933689,-0.00262333988212049,0.002190883969888091,0.003600031603127718,0.0045237550511956215,0.006208340171724558,-0.0028348537161946297,0.0050925384275615215,-0.005231910385191441,0.0029914379119873047,0.0033807922154664993,0.0025719706900417805,-0.003431093879044056,0.005505640059709549,-0.004660329781472683,-0.006290234159678221,0.0033410366158932447,-0.0002244947972940281,0.004909133538603783,-0.0017702317563816905,-0.004638653248548508,0.005007147789001465,0.0007066482212394476,-0.004676275420933962,0.0029868024867028,0.00019866747607011348,0.0014858611393719912,-0.0007348214858211577,0.004424644634127617,0.004446955863386393,0.0030192530248314142,-0.00573499733582139,0.0047017475590109825,0.0021846413146704435,0.002564384136348963,-0.0020379144698381424,0.005431226920336485,0.0032322967890650034,-0.005624201614409685,-0.0013964686077088118,0.0054578534327447414,-0.00662663159891963,0.006391826085746288,0.002153863897547126,0.0016049836995080113,-0.0034361642319709063,-0.003842474427074194,0.006004620809108019,-0.00332855386659503,0.0037160629872232676,-0.0018188260728493333,-0.005577041767537594,-0.00749613530933857,0.0002129137865267694,0.006570493336766958,-0.002243857132270932,-0.0025258006062358618,-0.0027078581042587757,-8.522228745277971e-05,-0.0010980736697092652,0.005174406338483095,-0.00029579506372101605,-0.00017134413064923137,-0.005410033743828535,0.006800708826631308,-0.003527736524119973,-0.005946317221969366,0.002493353793397546,0.0015900720609351993,-0.0011006848653778434,-0.0011473974445834756,0.004243326373398304,-0.004189629107713699,0.0047826748341321945,0.0022258786484599113,-0.001208984525874257,-0.000437207956565544,-0.0032987454906105995,0.003748104674741626,0.0002527546603232622,-0.0026632214430719614,0.0014809051062911749,0.007232325617223978,-0.0008327553514391184,0.00617525028064847,-0.0023360298946499825,-0.006368966773152351,-0.004191016778349876,-0.0010209322208538651,-0.0037953886203467846,-0.007137807551771402,0.005964272655546665,0.004873246420174837,0.0035951382014900446,-0.004497535061091185,-0.005490771494805813,-0.006375598721206188,0.003009445732459426,0.006220260635018349,-0.0007837492157705128,-0.005673437379300594,-0.00012302662071306258,-0.0024274270981550217,-0.0017801951617002487,0.0018791909096762538,0.0028103748336434364,-0.00592010747641325,-0.00681604677811265,0.007201239001005888,-0.0037643190007656813,-0.006886269897222519,-0.004758231341838837,-0.006658188998699188,-0.0014293824788182974,0.004433059133589268,-0.0022236250806599855,-0.0008058453677222133,0.0024709401186555624,7.366111094597727e-05,0.005166519433259964,0.005320998840034008,-0.007072610780596733,0.003910629544407129,-0.0005898313247598708,0.006991494446992874,-0.00021595627185888588,0.0069288937374949455,0.0035761152394115925,-0.0036152040120214224,0.000526204239577055,0.007027458865195513,0.00499223917722702,-0.005872691981494427,0.00297401356510818,-0.002280185464769602,-0.007215539924800396,-0.0015217787586152554,-0.0038686590269207954,0.004548549652099609,-0.0024604550562798977,0.004546928219497204,-0.007270541042089462,-0.0028186615090817213,-0.0036657294258475304,-0.0036776443012058735,-0.006523553282022476,-0.004734415095299482,0.0006687302375212312,-0.0028458330780267715,-0.0010255174711346626,-0.00201202929019928,0.005241487640887499,0.005855808965861797,0.0001954646286321804,-0.002191657666116953,-0.005730234552174807,0.006542916875332594,-0.006016054656356573,-0.002446661237627268,-0.0026259254664182663,-0.0025717420503497124,-0.004605433903634548,0.004537475295364857,-0.004922604653984308,0.0021384223364293575,-0.0058526890352368355,-0.006594373844563961,0.005642551928758621,-0.004547227639704943,0.004566681571304798,0.0001277105911867693,-0.006448808126151562,0.0063607716001570225,-0.0036828573793172836,0.00518904160708189,-0.0052268486469984055,0.004805875010788441,-0.007099280599504709,0.00018487444322090596,0.003931055776774883,0.005990198813378811,0.005829211790114641,0.004631553310900927,0.00564361410215497,-0.004264474846422672,-0.003023122437298298,-0.0028350723441690207,-0.001604476128704846,-0.0014589906204491854,0.000725062913261354,-0.005196067038923502,0.0025697294622659683,-0.005009088199585676,-0.0030062138102948666,8.561414142604917e-05,0.0040434724651277065,0.0032727536745369434,0.0018817937234416604,-0.005111857783049345,0.0008690296090207994,-0.006084915716201067,-0.0019299921113997698,-0.0013970265863463283,-0.006621130742132664,-0.0029220993164926767,0.006451900117099285,0.006398503202944994,-0.002210119040682912,-0.006432568654417992,-0.0043027629144489765,-0.001561889541335404,0.006339754909276962,-0.005238535348325968,0.003863704390823841,-0.005488884169608355,0.006985906977206469,-0.0016672490164637566,0.003891436383128166,-0.002384193940088153,0.0017584668239578605,-0.0042738416232168674,-0.0050458479672670364,0.006193306762725115,0.005926034413278103,0.005453238729387522,0.0020072264596819878,0.0044701057486236095,-0.006234272848814726,-0.0023580114357173443,-0.0027647288516163826,0.0019703377038240433,-0.00219900393858552,-0.0051615615375339985,0.0013920136261731386,0.004439711570739746,-0.001928369514644146,-0.00557575561106205,-0.004580014850944281,-0.0038947337307035923,-0.003049003193154931,0.002024591900408268,0.0013958796625956893,0.0027125065680593252,-0.0020092681515961885,0.004607379902154207,-0.004366972483694553,-0.0006005127797834575,0.004163389094173908,-0.004728391300886869,-0.005783629138022661,0.005308356136083603,-0.002495318418368697,0.0024092847015708685,-0.007064400240778923,0.0024540890008211136,-0.002802134957164526,-0.006534670479595661,0.0014007975114509463,-0.00392497843131423,-0.0018984504276886582,-0.006154811941087246,-0.005137772299349308,-0.002939509926363826,-0.00592000363394618,0.005837223958224058,-0.006973662879317999,3.590679989429191e-05,-0.0051549323834478855,-0.002704731421545148,0.0060295225121080875,-0.0047034602612257,0.0070734829641878605,-0.0038596317172050476,0.003567140782251954,0.0005340878269635141,0.005704749375581741,0.0011870324378833175,0.0008617534185759723,-0.004285688046365976,-0.004848293494433165,0.006202944554388523,-0.0021473781671375036,-0.0016104307724162936,0.0037520036567002535,-0.0023505829740315676,0.006644775625318289,0.0035816228482872248,0.0014990010531619191,0.005485162138938904,-0.006532358005642891,-0.003348746569827199,-0.0002122995792888105,-0.003691977821290493,0.0034992743749171495,0.005903215613216162,-0.0008578012930229306,-0.00185095751658082,0.006916791200637817,-0.0007648995378986001,-0.0001721363078104332,-0.001802194630727172,0.006295928731560707,0.0012567223748192191,0.003868435276672244,0.004590344615280628,-0.001981313806027174,-0.0006967812078073621,0.0051680272445082664,-0.0018622633069753647,0.004323008470237255,0.006508469581604004,0.0019641555845737457,0.003662033472210169,0.004505197051912546,0.004975180607289076,-0.001605145982466638,-0.006588698364794254,-0.0015088606160134077,0.002456091344356537,-0.0006105328211560845,0.003357199253514409,-0.0022695576772093773,0.0017919904785230756,-0.004530630074441433,0.0037734361831098795,0.00019902692292816937,-0.004658060148358345,-0.0033363495022058487,0.0034560570493340492,-7.306611951207742e-05,-0.004611194133758545,0.006214431021362543,0.002651439281180501,0.006418698467314243,-0.0009524596389383078,-0.0008248036028817296,0.005287188105285168,6.490380474133417e-05,0.0029752650298178196,-0.0033876041416078806,-0.0008952229982241988,-0.005548987537622452,-0.004370063077658415,-0.007289502769708633,-0.006691265385597944,0.006681176368147135,-0.003868117928504944,0.0021915691904723644,0.004766743630170822,0.0006964558269828558,-0.005078232381492853,0.0032029328867793083,0.0013410188257694244,0.0032168386969715357,0.003819784615188837,0.00682145357131958,0.0010693295625969768,-0.0022652028128504753,0.00208072317764163,-0.006269747391343117,0.005736346822232008,-0.0054689934477210045,-0.0024843886494636536,0.004478101618587971,0.0013319855788722634,-0.0016103286761790514,-0.00047301556332968175,0.005034260917454958,-0.0022424699272960424,0.005410636775195599,-0.0058998181484639645,0.003928046673536301,0.0050180344842374325,-0.004430928733199835,-0.0008435111958533525,-0.00479891849681735,0.002941495506092906,0.0005928899627178907,0.0021586797665804625,-0.0041696601547300816,-0.004175943788141012,-0.0066365874372422695,-0.0025022770278155804,0.001099816057831049,0.005410878453403711,0.002303709741681814,-0.0010541650699451566,0.006516666151583195,0.0034222358372062445,0.006420234218239784,0.00022153271129354835,-0.0037073632702231407,-0.006660005077719688,0.0029360968619585037,-0.005858327727764845,-0.003025479381904006,0.00024153233971446753,0.0006431093206629157,0.001097856555134058,-0.005223726388067007,-0.0020023775286972523,0.0014101334381848574,0.006454802583903074,0.0029484648257493973,0.005657850299030542,0.0034664480481296778,0.0010470054112374783,-0.004620297811925411,0.002194000408053398,0.0014741867780685425,0.0011873965850099921,-0.00040189584251493216,0.0002585704205557704,-0.002556559396907687,1.0701264727686066e-05,-0.004528269171714783,0.004167534410953522,-0.0049139102920889854,-0.00646612886339426,-0.0014161542057991028,0.002036220394074917,-0.0011608441127464175,-0.0036107716150581837,0.00039378783549182117,-0.002587029244750738,0.0060193585231900215,0.005885337013751268,-0.00019693818467203528,-0.0027592256665229797,0.003185627516359091,-0.006817283574491739,-0.000497134868055582,-0.0025424144696444273,0.0057727559469640255,-0.0072077796794474125,0.0005635269917547703,0.003287515603005886,-0.0004613666678778827,-0.006208756472915411,0.006632344331592321,0.00024628263781778514,0.001353241503238678,-0.004270777106285095,-0.0007001291960477829,-0.0013112376909703016,-0.0062596420757472515,-0.0060723209753632545,0.0043146745301783085,-0.004146137740463018,-0.0045968457125127316,-0.00024382033734582365,0.003352042520418763,-0.006825651973485947,0.0008466403232887387,-0.005522437859326601,-0.0070204040966928005,-0.006850086618214846,0.004452798515558243,-0.005560706369578838,-0.006410939618945122,-0.0011585959000512958,0.004661473911255598,-0.0036014807410538197,-0.0010571550810709596,-0.006406083237379789,-0.0009058296564035118,0.0011084213620051742,0.0010558851063251495,-0.002241041511297226,-0.0023623064626008272,-0.005822760984301567,-0.0019609674345701933,-0.005723338108509779,0.003991329576820135,0.006810443941503763,0.006656486541032791,0.00521093001589179,0.001473980606533587,0.002998712006956339,-0.003021178301423788,0.0018766368739306927,-0.0005739599000662565,-0.00012590867117978632,0.0038379221223294735,-0.0029972828924655914,-0.0025280462577939034,0.006273071281611919,-0.006168978754431009,3.0675699235871434e-05,0.0061167506501078606,0.0017113357316702604,0.0007817117730155587,-0.0035447448026388884,-0.002200598828494549,0.005093512125313282,0.000919514219276607,0.000210846948903054,-0.0058099692687392235,-0.006983642466366291,0.006634701043367386,-0.0017911542672663927,0.0014229326043277979,-0.006117428187280893,0.002546781674027443,0.0061720870435237885,0.0010077914921566844,-0.0054573132656514645,0.001113501493819058,0.0037793221417814493,-0.0013166225980967283,0.005373814608901739,0.0020870922598987818,0.005704166367650032,0.0017231360543519258,-0.005371352657675743,-0.0027386352885514498,-0.004345390945672989,0.005772367585450411,0.003513068426400423,0.0023427538108080626,-0.0027797312941402197,-0.0044866218231618404,0.0036444230936467648,-0.0005366703262552619,-0.004043116234242916,0.0017623910680413246,-0.006562918424606323,-0.002590337535366416,-0.0006527490331791341,-0.005200761370360851,0.006963470485061407,-0.004204627592116594,-0.0054724449291825294,-0.004493141546845436,0.0037796590477228165,-0.0012558456510305405,0.0007502530934289098,-0.007076048757880926,-0.00688242306932807,-0.000809950812254101,0.004561251029372215,0.005645119119435549,-0.00579995708540082,0.00082750542787835,0.006268432829529047,-0.00154864601790905,0.004865769762545824,-0.005087506491690874,0.006564529146999121,0.0038523206021636724,0.006399222183972597,0.0026663898024708033,-0.001792072202078998,0.006583556067198515,-0.00304768537171185,-0.002277689054608345,0.003023694735020399,0.003991736099123955,0.006438064388930798,-0.0040158662013709545,0.004449744708836079,0.0035668048076331615,-0.006081353407353163,-0.00124544242862612,-0.0027814728673547506,-0.002610953990370035,0.007165651302784681,0.0021363061387091875,0.0031229467131197453,0.006708815228193998,-0.001625241944566369,0.004402196500450373,-0.001017992733977735,0.0051446170546114445,-0.004808164667338133,0.00649515213444829,-0.004081247840076685,-0.0026222760789096355,0.003508110763505101,-0.00170252681709826,0.0015654503367841244,-0.0008420540834777057,0.003397123422473669,-0.004005942493677139,-0.006426465231925249,-0.002933455165475607,-0.00045398183283396065,-0.004861160181462765,-0.002121811034157872,-0.0014678220031782985,-0.006415441632270813,0.001128762261942029,0.005434710998088121,-0.0050569381564855576,0.0014297778252512217,0.002360137877985835,-0.0011846107663586736,0.0028687783051282167,-0.0012059558648616076,0.00017475176719017327,-0.0070356871001422405,0.002807669108733535,0.0023888712748885155,-0.006504682824015617,-0.001777480822056532,0.006982502527534962,-0.0010401164181530476,0.00012836375390179455,0.00601664325222373,0.0032268031500279903,0.0012408229522407055,0.004382893443107605,0.005346030928194523,-0.0004593859484884888,-0.00022902841737959534,-0.0016348965000361204,0.006708590779453516,0.0027569918893277645,-0.006030373275279999,0.0052595436573028564,-0.0002797264896798879,-0.006254618056118488,0.0006721593672409654,-0.0011900869430974126,0.00544862262904644,-0.004310414660722017,0.004597226623445749,0.0007929312996566296,-0.006459401920437813,0.006766369566321373,0.00016884323849808425,-0.0030620391480624676,-0.0004608932649716735,0.00512704998254776,-0.0027771336026489735,-0.004319143481552601,-0.00525287352502346,-0.002885218942537904,0.004098586738109589,-0.00024942794698290527,-0.0037715542130172253,-0.0047393604181706905,-0.0024120397865772247,0.006348266266286373,-0.002205356489866972,0.007134617771953344,-0.00016314678941853344,-0.004613294266164303,0.005732593592256308,-0.00042290586861781776,0.0030916379764676094,0.006988961715251207,-0.006445431150496006,-0.005616914946585894,0.003370497142896056,-0.0031545115634799004,-0.00454025249928236,-0.006539490073919296,-0.006686891429126263,0.004145137500017881,-0.005366561934351921,-0.0005093312938697636,0.0015686571132391691,-0.0009093417320400476,-0.0066815889440476894,0.004007882438600063,-0.006933495402336121,0.003758287988603115,0.005559364799410105,-0.0011035806965082884,0.0005162654560990632,-0.00021241068316157907,-0.0014951833290979266,0.005527097266167402,0.0055504473857581615,-0.002251773839816451,0.0018569414969533682,0.006288600154221058,0.006609548348933458,4.5229815441416577e-05,-0.0006289296434260905,-0.003067823825404048,0.006609281990677118,-0.005288418848067522,0.0009575547883287072,-0.0031209876760840416,-0.0031145699322223663,-0.0014219774166122079,0.006964084692299366,-0.006631482858210802,0.0011903838021680713,-0.006033672951161861,-0.005224927328526974,-0.0012499893782660365,-0.00015409996558446437,-0.00349114160053432,-0.002787501784041524,-0.006273047998547554,-0.0032190282363444567,0.006440131459385157,0.006268278229981661,-0.0025524243246763945,0.0006898675346747041,0.0055875033140182495,-0.007249654270708561,0.00435567507520318,0.006324694026261568,-0.006106494925916195,-0.0049755992367863655,0.00660398555919528,0.00036881741834804416,-0.007139028515666723,-0.003651534905657172,-0.0007678891997784376,0.0027989253867417574,0.003453472862020135,0.007091237232089043,-0.003088689874857664,0.0005711497506126761,0.0004887109971605241,-0.0013188041048124433,-0.004833000712096691,0.006755527574568987,0.005063153337687254,-4.940586950397119e-05,0.0013890217524021864,-0.004086423199623823,0.00047901493962854147,0.002795133739709854,0.00017238485452253371,0.006894045043736696,0.0013823005137965083,-0.001969018252566457,0.003988812677562237,-0.004654183052480221,-0.001780531951226294,-0.0023378583136945963,-0.0009901600424200296,0.004173376131802797,-0.00014930426550563425,0.004059263505041599,0.001011120737530291,-0.0023668776266276836,0.004434177652001381,-0.0037372412625700235,-0.004073586314916611,-8.269887075584847e-06,-0.003479118924587965,-0.007075440604239702,0.0021011854987591505,3.091938924626447e-05,-0.0008736898307688534,0.006672715302556753,0.0009344597929157317,0.005130261182785034,-0.005275997333228588,0.000940955535043031,0.005240726750344038,0.001092593651264906,0.0030589743983000517,-0.0018459736602380872,-0.005846869200468063,-0.0006524652126245201,-0.0015245781978592277,0.0053084976971149445,-0.003947430290281773,0.006434583570808172,0.006299982313066721,-0.0037704899441450834,-0.0020686346106231213,0.0055274758487939835,0.006501494906842709,-0.0010300565045326948,-0.002536781830713153,0.0005312709836289287,0.002559236017987132,-0.0034145922400057316,0.0033682649955153465,-0.0063050673343241215,-0.006273291539400816,-0.001714211655780673,-0.0021304702386260033,-0.002546614734455943,6.364857108565047e-05,-0.0023470057640224695,-0.004472012631595135,-0.0026939567178487778,0.006989120505750179,-0.0010438563767820597,-0.000600789615418762,0.0010149130830541253,0.0067148045636713505,-0.0040036700665950775,0.0024267893750220537,0.0030576554127037525,0.0014242340112105012,-0.006149861495941877,0.0022604113910347223,-0.006420053541660309,0.0013710679486393929,0.0032840892672538757,-0.004382537677884102,0.004667420405894518,-0.00674796849489212,0.005084038712084293,-0.0005966780008748174,-0.004151899833232164,-0.005286607425659895,0.006729292683303356,-0.005839101504534483,-0.004357754718512297,-0.002228468656539917,0.0018180153565481305,0.0009217104525305331,-0.005027731414884329,-0.002881902502849698,-0.00361401098780334,-0.0040343510918319225,-0.0013886276865378022,0.002567423740401864,-0.004024804104119539,-0.0019137515919283032,-0.0016285388264805079,0.00660868501290679,0.006082765758037567,0.00428435206413269,-0.003721860470250249,-0.0062722391448915005,-0.0028193453326821327,-0.003714160993695259,0.00013752438826486468,0.004046166315674782,0.005144994705915451,0.0048288763500750065,-0.0022612647153437138,0.0027873129583895206,-0.0026419442147016525,-0.006345691159367561,0.002812035381793976,-0.007250209338963032,-0.0013533510500565171,-0.0024184156209230423,0.0028083922807127237,0.0036798417568206787,-0.0030914410017430782,0.0044309645891189575,-0.0028801048174500465,-0.0007090453873388469,0.0031748651526868343,0.0025321391876786947,0.00703507661819458,-0.0038228714838624,0.0024118584115058184,0.0014898328809067607,0.005760686472058296,-0.004914497025310993,0.0036883584689348936,0.0009976676665246487,-0.003396606771275401,-0.0005971869104541838,-0.0023917166981846094,0.0011967697646468878,0.00557108037173748,0.0008017057552933693,0.0016668748576194048,0.0002850517048500478,-0.006400657817721367,-0.0037416452541947365,7.930635183583945e-05,-0.0025692747440189123,-0.004556186497211456,0.00011277586600044742,-0.0024422009009867907,-0.003316059010103345,-0.0004357292200438678,-0.005231199786067009,0.006222233176231384,0.005428522825241089,0.0031646955758333206,-0.0056105712428689,0.004009346477687359,0.0045176115818321705,0.0039987992495298386,-0.005368390586227179,0.0020934490021318197,0.004852581303566694,0.0012035713298246264,0.0022435165010392666,-0.0004328453214839101,0.00044620863627642393,-0.006860514171421528,0.0018868802580982447,-0.0061163934879004955,-0.0010653079953044653,-0.003155589336529374,0.000517611566465348,-0.005335080903023481,0.0026785077061504126,0.004117887932807207,-0.00500504020601511,-0.005877518095076084,-0.00523044727742672,0.005259708501398563,0.00016150741430465132,-0.0007387233781628311,-0.005861781537532806,0.0019543797243386507,0.005047291982918978,0.00443284772336483,0.0015537807485088706,-0.006222585216164589,-0.0056514739990234375,-0.006602830719202757,-0.0036746221594512463,-0.005401576403528452,-0.003322269767522812,-0.0014852260937914252,0.00640474446117878,0.001451804768294096,0.004483443219214678,0.0030701642390340567,-0.005527109373360872,0.0033525123726576567,-0.0034332096111029387,0.0016943070804700255,-0.0022283848375082016,0.007214412558823824,-0.003386222291737795,-0.003355014603585005,0.005983587354421616,-0.00681966682896018,0.002918675309047103,0.0032307987567037344,0.004640121944248676,0.006617576815187931,0.006759826093912125,-0.006222133990377188,0.004532217979431152,0.001860803342424333,0.0018564395140856504,-0.0052169319242239,0.002133576199412346,0.0067800539545714855,0.005744255147874355,-0.001023068674840033,-0.006520196329802275,-0.002037404105067253,0.004552711732685566,0.0028127150144428015,-0.0006143508944660425,-0.0063105556182563305,-0.0010834861313924193,-0.0005061283591203392,0.006215135101228952,0.0021108908113092184,-0.002712064888328314,0.0003454354591667652,-0.006230419036000967,0.00691543985158205,-0.0018673448357731104,-0.00038187074824236333,-0.0021545717027038336,0.0025803097523748875,0.0023945176508277655,0.003174676327034831,-0.003330060513690114,-0.002497818786650896,-0.005288350395858288,0.0021824243012815714,-0.00684357201680541,0.001433709287084639,0.005443038884550333,0.005637480411678553,-0.0008761096396483481,-0.0009283306426368654,-0.006038015708327293,0.0025344782043248415,0.004551701247692108,-0.003928160294890404,-0.00153733033221215,0.004951230250298977,0.005457327701151371,-0.003803754225373268,0.0004802183248102665,-0.004733680281788111,-0.005634577013552189,0.005917852278798819,0.004502997267991304,0.003574857022613287,-0.006696901749819517,0.004924829583615065,-0.001055138767696917,-0.0026278074365109205,0.0002664350613486022,-0.006163682788610458,0.0035374138969928026,0.0009109997190535069,-0.004890947137027979,-0.004826411139219999,-0.004743131343275309,-0.00654610525816679,0.0010299681453034282,0.0045951372012495995,-0.007136000785976648,-0.006575490348041058,0.0008964399457909167,0.004411840345710516,-0.0026733053382486105,-0.002227572025731206,0.001390871126204729,-0.0033326447010040283,-0.0068849301896989346,0.003306424245238304,0.0018077656859531999,0.0012936574639752507,0.0034258731175214052,0.0024931442458182573,-0.00429203687235713,-0.0021279584616422653,-0.0053398446179926395,-0.005361586343497038,0.002481006784364581,0.005106004420667887,0.00669854786247015,0.001870559761300683,-0.004605928435921669,-0.005712444428354502,0.00450430391356349,0.0011991331120952964,0.0017401885706931353,0.003978412132710218,0.0028954523149877787,0.004835880361497402,-0.006297648884356022,0.0036523647140711546,0.00493550905957818,-0.0031169934663921595,0.0020293460693210363,-0.002528509823605418,0.006710899528115988,-0.006886941380798817,0.0009445400210097432,-0.005040444433689117,0.0028365475591272116,-0.00484443036839366,-0.0038919749204069376,-0.00023744058853480965,0.005835005547851324,-0.00430187676101923,-0.005251467693597078,0.0036044970620423555,-4.344696571934037e-05,0.0058344509452581406,-0.005203768610954285,0.0019604365807026625,-0.003996528685092926,-0.004986096639186144,0.0025618611834943295,0.0012536038411781192,0.003501403843984008,-0.002977330470457673,-0.0008538787951692939,-0.0014686377253383398,0.006823562551289797,-0.0032083746045827866,-0.0027935707475990057,-0.001989914570003748,0.0008112521027214825,-0.003802625462412834,0.005689809564501047,-0.0032673722598701715,0.005705277435481548,-0.005902319215238094,0.001896347152069211,0.005514801479876041,-0.004639735445380211,0.0066983336582779884,-0.0009269922156818211,0.006048438139259815,0.0023234921973198652,-0.002743955934420228,-0.004473560489714146,-0.0029537503141909838,-0.0060160597786307335,-0.005130581557750702,-0.005523815751075745,-0.0010163771221414208,0.0042516919784247875,-0.005113076418638229,-0.00512245949357748,0.002036753809079528,-0.004421336110681295,-0.005885977763682604,-0.004969271365553141,0.005951729137450457,0.004545351956039667,-0.0021955680567771196,0.0020966697484254837,0.0003494163975119591,0.002382018370553851,0.002542526228353381,0.0016877572052180767,-0.003554032649844885,-0.006762268021702766,-0.0007423193310387433,0.005607547704130411,0.0009021215373650193,0.0046980977058410645,0.007051402237266302,-0.004861038643866777,0.0028343466110527515,0.0025138985365629196,0.006918977480381727,0.007086348719894886,0.0027721161022782326,-0.0038053893949836493,0.004258239176124334,-0.005730798002332449,0.0040208725258708,0.005937558598816395,-0.0017127263126894832,0.001850540516898036,-0.0010417804587632418,-0.000850290001835674,-0.0027146385982632637,0.0037490471731871367,0.006254140753298998,0.006333474535495043,-0.004669530782848597,0.005338114220649004,0.0033922770526260138,-0.0035436709877103567,-0.006210471969097853,-0.003316477406769991,0.00592030119150877,0.001985217211768031,0.0032282196916639805,-0.0034830563236027956,0.003199782921001315,-0.00682520167902112,-0.0020698115695267916,0.001597458147443831,-0.005291027016937733,0.0044432892464101315,-0.003984576091170311,0.0019497568719089031,-0.0015399570111185312,0.0012553398264572024,-0.005788082722574472,-0.0071297287940979,0.005746767390519381,-0.0034083265345543623,0.004477364011108875,0.007011784706264734,-0.004384239204227924,-0.003393580438569188,0.0023288209922611713,0.006655486766248941,0.005853503476828337,-0.00016527394473087043,0.004259116481989622,-0.005191604141145945,0.00683791097253561,0.006577735301107168,-0.004928998649120331,-0.0030246314126998186,-0.005979294888675213,-0.0035983521956950426,0.004230951424688101,-0.0019005219219252467,-0.0059938388876616955,-0.0024044543970376253,