-0.0036426845472306013,0.014423264190554619,0.007424500305205584,0.0031733852811157703,-0.01080321054905653,-0.010766600258648396,-0.013833398930728436,0.01186273992061615,0.0033667993266135454,0.006671158596873283,-0.01511630043387413,0.01489243283867836,0.010580175556242466,-0.008983580395579338,-0.00982725154608488,-0.009876442141830921,-0.006138174328953028,0.0007832283736206591,-0.0021577372681349516,-0.006571114528924227,0.003618185641244054,-0.011267481371760368,-0.006533568259328604,-0.004218653775751591,-0.0014035871718078852,0.009000352583825588,-0.009458998218178749,0.000531340076122433,0.0029949534218758345,-0.014345519244670868,0.0033731122966855764,-0.01045564841479063,-0.013777833431959152,0.014235221780836582,0.01482617948204279,0.009786583483219147,-0.006205570884048939,-0.012774636968970299,0.005756608210504055,-0.0019074598094448447,-0.011856108903884888,2.5550276404828764e-05,-0.014666276052594185,0.012931382283568382,-0.0076505569741129875,0.005131372716277838,-0.00585725624114275,0.0008567381300963461,0.001764922752045095,-0.010177480056881905,0.014673692174255848,0.0085608446970582,0.013788178563117981,0.012426222674548626,0.003081053961068392,0.013342875055968761,-0.013157774694263935,-0.009733237326145172,-0.014472263865172863,-0.005579909775406122,-0.003530619665980339,-0.00720784580335021,0.010436242446303368,-0.004641932435333729,-0.006994214374572039,0.0013091630535200238,-0.011366100050508976,0.009576327167451382,-0.013385137543082237,0.01551384013146162,0.008530896157026291,-0.009517896920442581,-0.015615817159414291,0.009986359626054764,0.006583066191524267,0.00733528845012188,0.008753051050007343,-0.013507750816643238,-0.004447536543011665,-0.012102155946195126,0.011536268517374992,0.003979058936238289,-0.005192379932850599,-0.013576542027294636,-0.006064297165721655,-0.005553044378757477,0.0072804782539606094,0.004422539379447699,0.012371326796710491,-0.0006724349805153906,-0.01178322359919548,0.00658752117305994,0.00815571565181017,0.0019161241361871362,0.008626020513474941,-4.310949952923693e-05,0.0009267529239878058,-0.0020516507793217897,-0.014961606822907925,-0.012225925922393799,-0.014589174650609493,0.004530203994363546,-0.005714938510209322,0.0003313572087790817,0.012865463271737099,-0.007885411381721497,-0.002681359415873885,0.00828307494521141,-0.008408570662140846,-0.013294288888573647,-0.006645859684795141,-0.010764042846858501,0.013607136905193329,0.009861844591796398,0.004360101651400328,0.01182284764945507,0.009586397558450699,-0.009979642927646637,0.01231624186038971,0.0012773210182785988,0.009813711047172546,0.012617956846952438,-0.005717294756323099,-0.012378334999084473,-0.008692665956914425,-0.0024141473695635796,0.010114776901900768,0.011500702239573002,-0.015484312549233437,0.0003855990944430232,-0.0026451933663338423,-0.00886564701795578,-0.012151530012488365,-0.005099559668451548,0.014072427526116371,-0.005501062609255314,0.0006366214947775006,0.006367301102727652,-0.004457881674170494,0.014690376818180084,0.014618176966905594,-0.007801210507750511,-1.079518006008584e-05,-0.006273535080254078,-0.006888916250318289,-0.014849163591861725,0.0032079778611660004,0.0007108266581781209,-0.01347124483436346,-0.006412053015083075,0.013318018056452274,-0.007951418869197369,-0.011157820001244545,-0.000488553021568805,0.015966033563017845,-0.007501545362174511,0.00595796899870038,0.008630132302641869,-0.008089412935078144,0.007207673508673906,-0.004357975907623768,0.004765624646097422,0.004810154438018799,0.0015995190478861332,-0.012649430893361568,0.010693184100091457,-0.0057377927005290985,-0.01009789202362299,-0.013971365988254547,0.003425838192924857,0.006005409639328718,-0.015086940489709377,0.00036293838638812304,-0.008792370557785034,0.004354841075837612,-0.009830234572291374,0.00649668462574482,-0.003301933640614152,0.01384793221950531,-0.011588461697101593,-0.005241634789854288,-0.012479736469686031,0.013825257308781147,0.01230899803340435,-0.007472651079297066,0.0049654110334813595,0.009812346659600735,0.0015174313448369503,0.0006731626926921308,-0.007739740889519453,-0.012491417117416859,0.012649612501263618,0.012505557388067245,0.004003244452178478,-0.0052825394086539745,-0.004995855037122965,0.00717074703425169,0.01260980125516653,0.012355131097137928,0.009026594460010529,0.004690555389970541,-0.012949017807841301,-0.010573118925094604,0.012697689235210419,0.003508030902594328,-0.015311788767576218,-0.012353206984698772,0.005406071897596121,-0.015457822941243649,-0.010640383698046207,0.00170099176466465,0.006258087698370218,0.005025454331189394,-0.00849961768835783,0.006872599944472313,-0.008223126642405987,-0.005541893653571606,0.007975120097398758,0.004906770773231983,0.011197514832019806,0.005105230025947094,0.002205344382673502,-0.012893625535070896,-0.004309272859245539,-0.0072587416507303715,-0.007972645573318005,0.0150288762524724,-0.003345823846757412,0.012348471209406853,0.004016657825559378,0.009154995903372765,0.00019608496222645044,0.002499236026778817,-0.00020882234093733132,-0.009641504846513271,0.00694527942687273,-0.007067529950290918,-0.015167629346251488,0.004718203097581863,-0.010115567594766617,0.013982091099023819,0.014343802817165852,0.013039168901741505,-0.0042008450254797935,-0.015403252094984055,0.013503976166248322,-0.002318332437425852,0.014703914523124695,0.014607448130846024,0.01112706121057272,-0.006514654029160738,-0.0036172650288790464,0.011070248670876026,-0.0058238450437784195,-0.010491432622075081,0.0017529904143884778,0.01375818531960249,0.006183789577335119,0.0022316963877528906,-0.012751040048897266,0.003619394265115261,0.01546474453061819,-0.011406942270696163,0.0005697289598174393,0.011929567903280258,0.0076421108096838,0.00625119311735034,0.006418380420655012,-0.00444814283400774,-0.006525071803480387,0.009802301414310932,0.009838514029979706,0.011674635112285614,0.013105451129376888,0.0003949004167225212,7.367175567196682e-05,0.009472534991800785,0.004817199427634478,0.006479065399616957,0.009441516362130642,0.012360199354588985,-0.005093637388199568,-0.0039056374225765467,-0.012793188914656639,0.0025533547159284353,-0.014591425657272339,-0.001057776273228228,0.0013443049974739552,-0.0067277285270392895,0.002902655629441142,-0.0148093830794096,-0.014584413729608059,0.010214158333837986,-0.004493958782404661,-0.011387620121240616,0.0010436144657433033,0.00885874591767788,-0.00869339145720005,0.00404816959053278,-0.013086328282952309,-0.014229385182261467,0.001360698021017015,0.001616872614249587,0.004707396496087313,0.007437104359269142,0.015163657255470753,0.0004889227566309273,-0.005679604131728411,0.009630728513002396,-0.006899380125105381,-0.001568931620568037,-0.013081295415759087,-0.014966492541134357,0.014549966901540756,0.010508229024708271,0.006424861028790474,-0.002541308756917715,-0.010014429688453674,-0.010700318962335587,-0.007926036603748798,0.0014537980314344168,0.00666535971686244,0.005274307914078236,-0.006644695531576872,0.014638185501098633,0.007627725601196289,0.001681249006651342,0.003465644083917141,-0.0026159165427088737,-0.007733764126896858,-0.004254474304616451,0.008371330797672272,-0.015266657806932926,-0.012128658592700958,-0.014358057640492916,-0.014549685642123222,0.011549657210707664,0.0067443763837218285,-0.0006169704138301313,-0.012646428309381008,-0.0002485194127075374,-0.0008483950514346361,-0.010413429699838161,-0.0018779108067974448,-0.002942062448710203,0.00393464183434844,0.004503039643168449,-0.014268767088651657,-0.004157240968197584,0.003507541259750724,0.000358605437213555,0.011584367603063583,0.005315162241458893,-0.01043052226305008,-0.013548258692026138,0.004132119473069906,-0.015599224716424942,0.002986910752952099,0.01425632368773222,0.00268129026517272,-0.0033534509129822254,0.004409242887049913,-0.001887821708805859,0.0006991571863181889,0.014266964048147202,-0.003253572154790163,0.014858927577733994,0.012916479259729385,-0.00993150845170021,-0.01435970701277256,-0.013433861546218395,-0.014907858334481716,-0.012490177527070045,0.005999885033816099,-0.013608379289507866,-0.006273901090025902,0.010013982653617859,-0.015915602445602417,0.010227507911622524,-0.006617514416575432,-0.0119364308193326,0.005973254796117544,0.003363334806635976,0.010955366306006908,0.00662975711748004,0.009845985099673271,-0.006656975951045752,-0.010158329270780087,0.007537399418652058,0.008893135003745556,0.014548460021615028,-0.0034144101664423943,-0.003845236264169216,0.00876516941934824,-0.005153075326234102,0.013364632613956928,0.011037624441087246,-0.002489715814590454,0.007809588219970465,0.008160908706486225,-0.012562897987663746,0.012525680474936962,-0.00017474370542913675,0.009973248466849327,-0.005946444347500801,0.012407920323312283,-0.003447418101131916,-0.015552804805338383,0.01254863291978836,-0.01330204214900732,-0.006046558264642954,0.014027655124664307,0.014255151152610779,0.002297603990882635,0.003988535143435001,-0.0019510010024532676,-0.006906738039106131,-0.005688212346285582,0.005338807590305805,0.008080928586423397,0.009114359505474567,0.008903751149773598,-0.013278935104608536,-0.0005125047173351049,-0.014208843931555748,0.0015265715774148703,-0.0016982153756543994,0.012098992243409157,-0.004991297610104084,-0.012467727065086365,-0.0115905636921525,0.0080690523609519,0.0037343143485486507,-0.012442182749509811,-0.013307156041264534,0.006094478536397219,-0.013802087865769863,0.009927814826369286,0.006379660218954086,-0.01319777313619852,-0.012893883511424065,0.015558750368654728,-0.003798979101702571,-0.0040010251104831696,0.009896287694573402,0.014116589911282063,0.015332309529185295,0.007985574193298817,-0.0037287299055606127,-0.01299326028674841,0.008819770999252796,0.0018566596554592252,-0.0024283442180603743,0.012805316597223282,-0.01233186200261116,-5.413942926679738e-05,-0.015309094451367855,-0.0009287879220210016,-0.014023421332240105,-0.012102317996323109,-0.012151360511779785,0.004671778064221144,0.007931007072329521,0.0027586526703089476,0.014666927047073841,-0.003984128125011921,-0.006856980267912149,0.011587985791265965,-0.00877231266349554,0.014780144207179546,-0.015303983353078365,0.014892601408064365,-0.014502796344459057,0.012265474535524845,0.0008214969420805573,0.0155681436881423,-0.013308785855770111,0.0018209522822871804,0.014859315939247608,0.000656477059237659,0.003996560350060463,0.00615324079990387,-0.0014430579030886292,0.00421042088419199,0.0027882398571819067,0.012701446190476418,-0.014435505494475365,-0.006997792981564999,0.014222792349755764,0.012350475415587425,-0.0014564928133040667,0.0037595939356833696,-0.007056602276861668,-0.009875518269836903,-0.0011584499152377248,-0.004652485717087984,0.0026246518827974796,-0.013394440524280071,0.014976372011005878,0.015363741666078568,0.006269110832363367,0.0011433408362790942,-0.00602938374504447,0.009909691289067268,0.005826127715408802,-0.010670959018170834,0.01299239881336689,0.010204166173934937,0.014223123900592327,0.007132310885936022,0.003583629848435521,-0.0025768924970179796,0.013681184500455856,0.0115758515894413,-0.014376882463693619,-0.014976097270846367,-0.003908434882760048,0.009816525503993034,0.015415521338582039,-0.011050972156226635,0.0029754620045423508,-0.0037668978329747915,0.014854704961180687,0.01081561017781496,0.010695980861783028,-0.0009811307536438107,-0.0026891608722507954,-0.00716416398063302,-0.014027911238372326,0.011531708762049675,0.009891913272440434,0.015799451619386673,0.015707653015851974,0.0017540419939905405,0.008504307828843594,0.014058439061045647,0.011052767746150494,-0.007990064099431038,-0.0015346346190199256,-0.011294384486973286,0.01459201704710722,0.0034302345011383295,-0.008602852001786232,0.005261742509901524,0.0033980002626776695,-0.00486356858164072,-0.011848552152514458,0.0055741858668625355,0.0006851171492598951,0.008579033426940441,0.0004312722885515541,0.010759328491985798,0.0012692564632743597,0.002239582594484091,0.012021467089653015,-0.002990559907630086,-0.011596010066568851,-0.015139083378016949,0.007683124393224716,0.0034560298081487417,0.0067283473908901215,-0.008944966830313206,-0.011432231403887272,-0.015434292145073414,-0.005011549685150385,0.0024828147143125534,-0.003703570459038019,-0.0017415439942851663,0.01286111120134592,-0.0048131332732737064,0.000249032280407846,0.008647335693240166,-0.003586882259696722,0.0036318947095423937,0.011613205075263977,0.014203054830431938,-0.011284503154456615,0.013213838450610638,-0.0005634459084831178,-0.00789429247379303,-0.0014492709888145328,0.01525459811091423,-0.00031470603425987065,-0.005615929141640663,0.003926610108464956,-0.008478706702589989,-0.01356763206422329,-0.011807862669229507,-0.01172677893191576,-0.010999822057783604,-0.011414018459618092,0.0044567943550646305,-0.01005597785115242,-0.004857257474213839,0.012583419680595398,-0.0008155999821610749,0.0052942149341106415,-0.010360837914049625,-0.009730860590934753,-0.014517121948301792,-0.010443801060318947,-0.006968527100980282,-0.010221799835562706,-0.013014069758355618,-0.012000499293208122,-0.0012416953686624765,-0.009280395694077015,-0.004271913319826126,0.00013033219147473574,0.006012770812958479,-0.01458253338932991,0.00945386290550232,0.004041039384901524,-0.013212451711297035,0.011827192269265652,0.013314233161509037,-0.013886958360671997,-0.007078294642269611,0.009658015333116055,0.007838514633476734,-0.009968433529138565,-0.009182858280837536,-0.004101259168237448,-0.00047836583689786494,0.0037235014606267214,-0.004176987335085869,-0.0012057817075401545,0.007822750136256218,-0.0146395368501544,-0.007840639911592007,0.006774840410798788,0.01248078141361475,0.000335796270519495,0.0009880289435386658,-0.01242898590862751,-0.0016622712137177587,0.0010165198473259807,-0.007923683151602745,-0.007218789309263229,-0.003909031394869089,-0.015248709358274937,-0.005686486605554819,-0.0091285090893507,-0.005368697457015514,-0.011876128613948822,0.012355309911072254,0.0028760707937180996,0.005555626004934311,0.009084788151085377,-2.451854379614815e-05,-0.01293326634913683,0.0012643971713259816,0.002707893028855324,0.007642324082553387,-0.0022736433893442154,-0.011804514564573765,-0.0067786104045808315,-0.0041663311421871185,0.004628465045243502,0.002154385903850198,-0.004675352014601231,0.015277309343218803,0.003323199925944209,-0.00822856929153204,-0.012392183765769005,-0.0110002551227808,-0.008125536143779755,-0.010833526030182838,-0.009991317987442017,-0.006793175358325243,-0.010196804068982601,0.012802047654986382,-0.01329282857477665,0.0006906684138812125,-0.0028949438128620386,0.01522860024124384,-0.012197142466902733,-0.003045861842110753,0.01512562483549118,0.011538849212229252,0.009964965283870697,-0.0076666949316859245,-0.010360859334468842,0.005438829772174358,0.01376763079315424,0.0020743878558278084,0.0023610603529959917,-0.006939407903701067,0.008485190570354462,-0.00994646456092596,-0.005570669192820787,-0.002272229641675949,0.0004002139321528375,-0.008104747161269188,-0.012200189754366875,0.0034039460588246584,-0.006806745659559965,0.002522715600207448,-0.01085040345788002,-0.0004160002281423658,0.0010012021521106362,-0.01423235610127449,-0.005298251751810312,-0.011718429625034332,-0.01386488601565361,0.015576283447444439,-0.005410514771938324,0.009741157293319702,-0.00784151628613472,0.005571871064603329,0.008051334880292416,0.002971367444843054,-0.0007927809492684901,-0.002590901218354702,-0.004842496942728758,0.013468948192894459,0.010262996889650822,0.01453852653503418,-0.011883605271577835,0.007431753911077976,0.014039361849427223,-0.010108438320457935,-0.01378508098423481,0.007502400316298008,0.002282526809722185,0.01086441334336996,-0.011228492483496666,0.009513475932180882,-0.009389109909534454,-0.010637939907610416,-0.010636008344590664,0.00996399112045765,0.00532431248575449,0.0008899013046175241,-0.004288770724087954,0.011813378892838955,-0.0034607239067554474,0.009979406371712685,-0.0019492486026138067,-0.003941861446946859,-0.0013122644741088152,-0.006538406014442444,0.007759870029985905,6.746924918843433e-05,-0.008472864516079426,0.012601740658283234,-0.003765168832615018,0.0011587783228605986,0.012490074150264263,0.0038993707858026028,-0.012108678929507732,0.013883995823562145,0.003981835674494505,-0.005372511688619852,-0.011707872152328491,0.008864994160830975,0.0037809184286743402,0.0010573737090453506,0.012407399713993073,0.009003167040646076,-0.01127657201141119,-0.006353967357426882,-0.008437811397016048,0.007672873791307211,-0.014801946468651295,0.002089164685457945,0.008063902147114277,0.01152221579104662,-0.005487028509378433,0.00962925422936678,-0.012389540672302246,0.010830945335328579,-0.011992664076387882,-0.003603676101192832,0.008907876908779144,-0.011593594215810299,-0.009065981954336166,0.006938168779015541,0.006800600327551365,0.004181019030511379,0.005691154394298792,0.0008414075709879398,-0.008319400250911713,-0.005317260976880789,-0.010074573568999767,0.012907899916172028,0.002606014022603631,-0.003129154909402132,-0.0011729677207767963,0.014176907949149609,-0.010824766010046005,0.002739022020250559,0.00018953873950522393,0.0035031470470130444,-0.01522077713161707,0.01179011445492506,0.013667023740708828,0.002124544931575656,0.006242069415748119,0.013366862200200558,0.006533836014568806,-0.010974746197462082,0.00242206291295588,0.0033577964641153812,-0.0023855092003941536,0.007496281526982784,0.01373955886811018,0.0134435398504138,-0.0015534834237769246,-0.01223508920520544,0.015295409597456455,0.010687785223126411,-0.011860393919050694,0.013302316889166832,0.011669968254864216,0.0005680697504431009,0.0028526107780635357,-0.0032510817982256413,-0.014131870120763779,-0.005238769575953484,0.009537868201732635,-0.01572567969560623,-0.005331120919436216,-0.0032883090898394585,0.0011004726402461529,0.013140262104570866,-0.004956906195729971,-0.0049514491111040115,0.007377419155091047,-0.0016273286892101169,-0.008791996166110039,-0.001610664534382522,-0.011542318388819695,-0.010183867998421192,-6.368674075929448e-05,-0.0025901468470692635,0.013079367578029633,-0.004350903443992138,0.0025668430607765913,0.004174706060439348,-0.015352855436503887,0.005158464889973402,-0.010221756063401699,0.014533642679452896,-0.011114796623587608,-0.002672824775800109,-0.0131077840924263,0.015753278508782387,2.565321665315423e-05,0.0029219321440905333,-0.013754624873399734,0.007877776399254799,-0.009152027778327465,0.012579139322042465,-0.0092973243445158,-0.00986683089286089,-0.014754095114767551,-0.0009439403074793518,0.0020389773417264223,-0.013714209198951721,0.008690864779055119,-0.001484487671405077,0.0006635945755988359,-0.0019557529594749212,-0.0031739529222249985,0.0018882332369685173,-0.010894503444433212,-0.010093986988067627,0.0113897193223238,0.013994092121720314,-0.004072391428053379,-0.0072647519409656525,0.004557991400361061,-0.002881549298763275,-0.015029972419142723,-0.010945442132651806,0.006721208803355694,0.004971429239958525,-0.01495976559817791,-0.008786046877503395,-0.00849100761115551,0.005440038628876209,-0.015062720514833927,-0.012341818772256374,0.009711381047964096,-0.009938143193721771,0.005011023487895727,-0.008172104135155678,-0.01262747310101986,-0.008048252202570438,0.007197302766144276,0.01147931907325983,0.010654481127858162,-0.003110275836661458,0.005365631077438593,-0.009316221810877323,-0.006481208372861147,0.012706469744443893,-0.015169816091656685,-0.012917665764689445,-0.009154977276921272,-0.014949656091630459,-0.010082582011818886,0.002721235854551196,-0.00226636603474617,0.012640153057873249,0.010181128047406673,-0.004964260384440422,-0.0075943986885249615,-0.00383993168361485,0.0030122024472802877,-0.007093131076544523,0.004130139481276274,-0.0027424548752605915,0.0016978863859549165,-0.0019847445655614138,-0.00653639854863286,0.014354974962770939,0.008546718396246433,-0.011213026940822601,0.011746917851269245,-0.0003417203261051327,0.012494140304625034,0.009416433051228523,-0.002214335137978196,-0.014952532015740871,-0.0072106653824448586,0.0013722158037126064,0.004218278918415308,-0.007693921681493521,-0.011516153812408447,0.010816062800586224,0.015441808849573135,0.0008901943219825625,-0.010258874855935574,-0.0069689382798969746,-0.014864791184663773,0.013555017299950123,-0.01183355413377285,0.0025406170170754194,-0.007086648605763912,0.0018068831413984299,0.004975965246558189,0.010758106596767902,-0.008829810656607151,-0.015253812074661255,-0.01142122596502304,0.012647999450564384,0.01186360139399767,0.003220477607101202,0.0035074285697191954,0.005698578432202339,-0.01014738529920578,0.013103614561259747,-0.002601364627480507,-0.0036929950583726168,0.0007283068844117224,-0.01394612155854702,-0.010005263611674309,0.007529457565397024,-0.013247287832200527,0.0031940776389092207,-0.008065678179264069,-0.003332343650981784,-0.006229468155652285,-0.003988222219049931,0.006833310704678297,-0.006515704095363617,0.0019970417488366365,-0.0007705208845436573,0.005403394345194101,0.014311634004116058,0.007965032942593098,-0.009137715213000774,-0.014938382431864738,-0.007615944370627403,0.0030506313778460026,-0.01382735650986433,0.0004955735639669001,0.0037572504952549934,-0.005279189441353083,0.008473504334688187,-0.012476840056478977,-0.013444395735859871,0.007236053701490164,-8.194548718165606e-05,0.006063363049179316,-0.002094623167067766,-0.008087104186415672,0.01004601176828146,0.009455365128815174,0.0061789220198988914,-0.007157755549997091,0.0029311892576515675,-0.004461952950805426,-0.0130075141787529,0.013135088607668877,-0.011498264037072659,0.014246250502765179,-0.0016838132869452238,-0.009915109723806381,0.0012331150937825441,0.011684814468026161,0.00728590739890933,0.009679386392235756,0.005020246375352144,0.006097426172345877,0.011052774265408516,-0.007991217076778412,-0.0004159036325290799,-0.008861398324370384,0.015401585027575493,0.01403099950402975,-0.01454609539359808,0.006485179997980595,0.013398631475865841,-0.010143146850168705,0.0021201944909989834,0.01311785914003849,-0.014744221232831478,0.006249471101909876,-0.006466125603765249,0.013413703069090843,0.014890911057591438,0.014042340219020844,-0.0008158829878084362,0.011455178260803223,0.010885790921747684,-0.005859403405338526,0.010835844092071056,-0.014054813422262669,0.0035864608362317085,-0.008181608282029629,-0.011942457407712936,-0.013601967133581638,0.0058176894672214985,-0.0045639933086931705,0.0076466393657028675,-0.013278154656291008,-0.005610442254692316,0.0011622163001447916,0.008842159062623978,-0.006214422639459372,0.004472826141864061,0.012691926211118698,0.004045196808874607,-0.008358820341527462,-0.015275652520358562,0.011208411306142807,-0.015668587759137154,0.01233003567904234,0.001386099960654974,0.014159183949232101,0.00937674380838871,0.01535914558917284,-0.005316692404448986,0.00792872067540884,-0.002658040029928088,-0.0002455244248267263,0.004158958327025175,0.011608894914388657,0.014796014875173569,0.007860161364078522,-0.0030405742581933737,-0.0021165914367884398,0.007768651470541954,-0.008282999508082867,-0.012632605619728565,-0.005160889588296413,-0.007294879294931889,-0.006769499741494656,-0.008119231089949608,-0.01434486173093319,-0.015384756028652191,0.015039722435176373,-0.0028168053831905127,-0.004118898883461952,0.005493943113833666,-0.009172058664262295,0.013987901620566845,0.008872833102941513,-0.013098896481096745,-0.0026932868640869856,0.011863726191222668,0.013927961699664593,-0.0013784400653094053,0.0033425234723836184,-0.010700495913624763,0.01543792150914669,-0.008550429716706276,0.013888692483305931,0.004605344496667385,0.003080762457102537,0.00020865620172116905,-0.00862472876906395,-0.010287042707204819,-0.008883818052709103,-0.010008002631366253,0.008721093647181988,-0.004957606550306082,-0.014067561365664005,0.014788825064897537,0.012108491733670235,0.013498475775122643,0.015568487346172333,-0.010427863337099552,-0.003387183416634798,0.008150718174874783,0.006192837376147509,-0.010936657898128033,0.009980307891964912,-0.008791177533566952,-0.008867507800459862,0.0011077618692070246,0.002937124576419592,0.0025391466915607452,-0.012907295487821102,0.011912576854228973,-0.007511197589337826,-0.011883876286447048,0.012244672514498234,0.014397162944078445,0.011438103392720222,0.00977278221398592,0.004853963851928711,0.0014672192046418786,-0.013296166434884071,-0.002976157469674945,-0.0040788897313177586,-0.007686436176300049,0.006990476511418819,-0.00018895152607001364,-0.013296002522110939,-0.008908744901418686,0.005734413396567106,-0.013464218005537987,0.011025196872651577,-0.00020967477757949382,-0.000657053547911346,0.0028954928275197744,0.01023514661937952,-0.004862537607550621,0.005574523471295834,0.0020387894473969936,-0.0073815323412418365,0.01196734607219696,0.009403473697602749,0.0050080930814146996,0.011047725565731525,0.011584006249904633,0.006578101310878992,0.010663565248250961,0.006258663721382618,0.005715179722756147,0.0037544395308941603,0.007969737984240055,-0.01080329716205597,0.012037732638418674,0.011754878796637058,-0.014876806177198887,0.010313142091035843,-0.011743946000933647,-0.005232782568782568,0.007683432195335627,-0.010737826116383076,0.010039754211902618,0.010486073791980743,0.00021806983568239957,-0.015663180500268936,-0.006790266837924719,0.003656312357634306,0.015182421542704105,0.004138650838285685,-0.00763533404096961,0.00416962057352066,0.0011447258293628693,0.008751406334340572,-0.01250638160854578,0.008208145387470722,0.0012621041387319565,0.014609347097575665,-0.0049781822599470615,0.004279221873730421,0.013570675626397133,-0.012626583687961102,0.013790552504360676,0.00588621199131012,-0.013692266307771206,-0.006255618296563625,0.0066720107570290565,-0.013741513714194298,0.0025527554098516703,-0.004930817987769842,0.0037324372678995132,-0.014411886222660542,0.011762896552681923,0.015025649219751358,0.014769992791116238,0.007823287509381771,-0.011817282997071743,0.008008865639567375,-0.015122740529477596,-0.015126815065741539,-0.005553727503865957,-0.0004242214490659535,0.00844467431306839,0.005637520458549261,-0.001867815270088613,-0.007238912861794233,0.015709681436419487,-0.002314381767064333,-0.0015946569619700313,-0.01072643045336008,0.0092080133035779,0.006050494033843279,-0.00881569180637598,-0.013151982799172401,0.005753434728831053,0.004844118840992451,-0.0072221639566123486,0.014211813919246197,-0.011011882685124874,-0.002048077993094921,0.01411847211420536,-0.0024374397471547127,0.004210716113448143,-0.0031865197233855724,-0.006996480282396078,0.015445340424776077,-0.002738602226600051,0.012576603330671787,-0.008379949256777763,-0.009140434674918652,-0.014701785519719124,0.004962476901710033,-0.003999978303909302,0.011631838046014309,-0.0007051672437228262,0.014971165917813778,-0.009943692944943905,0.011770856566727161,0.008890699595212936,0.008708794601261616,0.011042790487408638,0.008454414084553719,0.004194548819214106,-0.01162454579025507,-0.014668747782707214,0.013442284427583218,0.003852284047752619,0.009580709971487522,-0.00033642290509305894,-0.011870728805661201,-0.011800553649663925,0.005983845796436071,-0.002041053958237171,-0.009246881119906902,-7.898910553194582e-06,-0.013495191931724548,0.0027719619683921337,-0.007257349789142609,0.009545164182782173,-0.0057725426740944386,-0.0011388713028281927,-0.01516675017774105,-0.013311821036040783,-0.0033656591549515724,-0.000609304232057184,0.0032901412341743708,-0.006373700685799122,0.006378393154591322,0.011517997831106186,0.008857888169586658,-0.014714174903929234,-0.0007332444656640291,-0.01250890176743269,-0.008120276033878326,0.015539190731942654,-0.010956961661577225,0.00035594264045357704,0.003992685582488775,0.0063357665203511715,0.0018801250262185931,-0.015462467446923256,-0.005286300554871559,0.0009441138245165348,-0.012637288309633732,-0.00449915137141943,-0.014780072495341301,-0.01332816295325756,-0.003209357848390937,-0.011362277902662754,0.002528694923967123,0.006351754534989595,0.009688770398497581,-0.00947647262364626,-0.010500443167984486,-0.012409070506691933,0.00457422062754631,0.0069001223891973495,-0.014484943822026253,0.013969695195555687,-0.014162154868245125,0.0013478996697813272,0.006739559583365917,0.011999508365988731,0.007117014843970537,0.009845689870417118,-0.004867143929004669,0.009932618588209152,-0.013239213265478611,0.012637336738407612,0.0017984362784773111,0.010378958657383919,-0.00121777574531734,0.004738141316920519,0.0007733029779046774,0.007309386506676674,-0.013098582625389099,-0.013615894131362438,-0.007661621086299419,-0.010502929799258709,0.011929793283343315,-0.008910924196243286,0.01461079902946949,-0.0057655381970107555,-0.010615547187626362,0.008755840361118317,0.004826241172850132,-0.00010094072786159813,0.001519873389042914,0.0063424305990338326,-0.009278547950088978,0.01512421015650034,0.01468112226575613,0.004631007090210915,-0.009505361318588257,0.005282174795866013,-0.014212260022759438,-0.015539930202066898,-0.008167194202542305,-0.0013919634511694312,0.011604917235672474,0.00721485773101449,0.007172740064561367,-0.003053494496271014,-0.005530804395675659,-0.004486349876970053,0.015301084145903587,-0.014554653316736221,0.011655806563794613,0.001996550476178527,-0.002570764161646366,0.006543455645442009,-0.0007296600379049778,0.011702482588589191,0.012644653208553791,-0.00238939025439322,-0.007494957651942968,0.002366594271734357,0.012553618289530277,-0.009393888525664806,0.003778215032070875,0.004132458008825779,0.00753535982221365,-0.011990634724497795,0.006403541658073664,0.012583235278725624,-0.010293490253388882,-0.008355324156582355,0.014945752918720245,-0.009757687337696552,0.011878706514835358,0.0004850169934798032,-0.007493266370147467,0.011843646876513958,-0.0017531425692141056,0.00046797553659416735,-0.004400876350700855,0.0036889691837131977,-0.009892973117530346,-0.003070530714467168,0.014858211390674114,-0.007685097400099039,0.0049688252620399,-0.005469896364957094,0.00941871851682663,-0.011011500842869282,0.01506874430924654,-0.00149527785833925,-0.00838832650333643,-0.013478263281285763,-0.010425995104014874,0.0013556049671024084,-0.004649276379495859,0.010515213012695312,-0.0022282495629042387,-0.008002598769962788,0.003676127875223756,0.006524483673274517,-0.009911642409861088,-0.010177132673561573,-0.014584667049348354,0.007427552714943886,0.005122487433254719,-0.0008576082182116807,0.010858557187020779,0.01009535975754261,0.0028706849552690983,0.011653033085167408,-0.009344715625047684,-0.01233697310090065,-0.007353438995778561,-0.014021153561770916,0.0013039266923442483,0.013916130177676678,-0.0145359942689538,-0.011966424062848091,-0.001578669878654182,0.013629336841404438,-0.005820220336318016,-2.035920442722272e-05,-0.014719904400408268,-0.011253084987401962,0.015360869467258453,0.014734633266925812,-0.0156107721850276,0.014318740926682949,0.004193824250251055,0.011443084105849266,-0.001540961442515254,0.00047611011541448534,-0.0003383121220394969,0.00529918959364295,-0.01136622205376625,-0.01502974797040224,-0.006225643213838339,0.006397379096597433,-0.00945241004228592,0.005480077583342791,0.014862312003970146,-0.012821700423955917,0.0052855415269732475,-0.00190997205208987,0.01157927792519331,-0.01023957785218954,0.006083240732550621,0.010691585950553417,0.014066483825445175,0.005637245252728462,-0.00018596182053443044,0.003665441647171974,0.01163429580628872,0.0022252299822866917,-0.014843928627669811,0.013637644238770008,0.005872746463865042,0.005516714416444302,-0.009053525514900684,0.004991250112652779,-0.0033599836751818657,0.004789886064827442,-0.012406651861965656,0.004912532400339842,0.015749167650938034,-0.014345254749059677,0.01505107432603836,-0.0029484666883945465,0.011736532673239708,0.00897580198943615,0.0022329625207930803,0.007684595882892609,0.012108542025089264,-0.0029670887161046267,-0.0055160061456263065,0.005070239771157503,0.00943728256970644,0.008433490060269833,0.009600148536264896,-0.0018668151460587978,0.010090784169733524,-0.012079515494406223,0.0011879270896315575,-0.015907494351267815,-0.005378800444304943,-0.004012212157249451,-0.0031399347353726625,0.006167600397020578,-0.003639793489128351,-0.001840246724896133,-0.008582190610468388,-0.0038335896097123623,-0.008433978073298931,-0.013419577851891518,0.0031934697180986404,0.005166105926036835,0.003544765990227461,-0.0014495926443487406,-0.003691368969157338,0.01158567052334547,0.0006137099699117243,-0.000761306204367429,-0.015177473425865173,-0.005287369713187218,-0.004121130332350731,-0.0031416944693773985,0.002606209134683013,0.0010786799248307943,0.0033186050131917,0.008181958459317684,0.00960996001958847,0.006533969659358263,0.014442895539104939,-0.015136837027966976,-0.009570962749421597,-0.015612178482115269,0.004546054173260927,0.012383769266307354,-0.008423319086432457,0.01323326863348484,-0.014173065312206745,0.013529050163924694,-0.004763335455209017,-0.012570979073643684,-0.00037156580947339535,-0.007593745365738869,-0.0070381928235292435,-0.006309527903795242,0.009444225579500198,0.001221383223310113,-0.005920335650444031,0.0035327966324985027,0.006868703290820122,-0.007380207069218159,-0.0028699971735477448,-0.011993957683444023,-0.010039914399385452,0.005774348042905331,-0.010053188540041447,0.0008114661322906613,0.006470178719609976,-0.012488129548728466,0.0021503998432308435,-0.007646957878023386,0.014677402563393116,-0.0005022690165787935,0.009728649631142616,0.0014954913640394807,-0.014455920085310936,0.0042178696021437645,0.01427257526665926,0.0031939123291522264,0.010099339298903942,0.012272082269191742,-0.00867446605116129,-0.00913668517023325,0.003482662606984377,-0.002871283097192645,0.010676995851099491,0.012666059657931328,-0.004453619010746479,-0.008432048372924328,0.008796634152531624,-0.00716876657679677,0.010156555101275444,-0.0024150987155735493,0.005409080535173416,-0.01255566906183958,0.004133406560868025,-0.001466379500925541,0.0026728252414613962,-0.010580874979496002,0.007443411275744438,0.011561566032469273,-0.008707189001142979,-0.012582501396536827,-0.015025810338556767,0.00439688703045249,0.0032912835013121367,0.0014479709789156914,-0.008360031992197037,-0.0031718204263597727,0.003128212410956621,-0.00011581397848203778,0.015289627015590668,-0.011580297723412514,0.0061644879169762135,-0.002874640515074134,-0.001982475398108363,0.006950886454433203,0.006013886537402868,0.015370935201644897,-0.011834267526865005,-0.01249165739864111,0.007281455677002668,0.002790834056213498,-0.007112730294466019,-0.013415227644145489,-0.013267322443425655,0.012379501946270466,-0.009709138423204422,-0.005357041954994202,-0.008285118266940117,-0.0046068220399320126,-0.013741603121161461,0.00046660852967761457,-0.01370939053595066,0.00956777110695839,-0.008155462332069874,0.0016633017221465707,0.011961865238845348,0.004646998830139637,0.0009508560760878026,-0.005548155400902033,-0.0051775430329144,0.0056296829134225845,0.016042809933423996,0.004970434587448835,0.0017808758420869708,0.007331760600209236,-0.0010077622719109058,-0.013801604509353638,0.0019514942541718483,0.014247790910303593,-0.010364260524511337,0.0059826793149113655,-0.009434742853045464,0.001197211560793221,-0.012679832987487316,-0.001632385072298348,0.007843736559152603,-0.004839116707444191,0.005215172655880451,0.009373417124152184,0.013571171090006828,-0.008333935402333736,-0.0032789455726742744,-0.011266320012509823,0.015579428523778915,0.013518430292606354,0.0013061376521363854,0.010868235491216183,0.0006852881633676589,0.003790442831814289,-0.013291249983012676,0.008049356751143932,-0.011759629473090172,0.010320823639631271,0.008916341699659824,0.006568305194377899,-0.014827421866357327,-0.006541716866195202,-0.00750285480171442,-0.0044049848802387714,-0.01304071955382824,0.013786764815449715,0.0016382919857278466,-0.006341178901493549,-0.003569074673578143,-0.0016382845351472497,0.0032309023663401604,0.0005124699091538787,0.013257761485874653,-0.0001501741644460708,0.015371011570096016,0.010823966935276985,-0.008799520321190357,0.013646424748003483,-0.012234200723469257,0.009877038188278675,-0.003941034432500601,0.011782065965235233,0.011506994254887104,0.009948069229722023,0.009077436290681362,-0.006367506459355354,-0.013442479074001312,-0.0032440645154565573,-0.010488121770322323,0.00604433985427022,-0.004655987955629826,0.014856304042041302,0.0041755186393857,0.009950434789061546,-0.011824020184576511,0.01125558465719223,0.013276905752718449,-0.00026412817533127964,0.00314510241150856,0.008076471276581287,-0.010517217218875885,-0.0001575733913341537,-0.003405757946893573,-0.011227660812437534,-0.004088864661753178,-0.013863268308341503,-0.015234746038913727,-0.011750433593988419,0.014397971332073212,0.0013718416448682547,0.014743208885192871,-0.0020625018514692783,-0.006122612860053778,6.2957815316622145e-06,-0.002106744097545743,-0.0126799950376153,0.004343496169894934,-0.008837697096168995,0.0038349006790667772,0.004648941569030285,-0.011110217310488224,-0.014003144577145576,0.008758190087974072,-0.0012411157367751002,-0.013683519326150417,0.015806881710886955,-0.013859203085303307,0.006241729017347097,0.015325499698519707,-0.00823073461651802,-0.011280733160674572,-0.011912657879292965,-0.006084661930799484,-0.012520882301032543,0.0061335754580795765,-0.013796995393931866,0.00031199256773106754,0.01573706418275833,0.01000272762030363,0.003744927467778325,-0.00605046795681119,0.003976656123995781,0.0008872041944414377,-0.0023155047092586756,-0.011633330956101418,0.012317540124058723,-0.0015228528063744307,-0.009605367667973042,-0.004139374475926161,-0.0027012433856725693,0.010358809493482113,0.007420256733894348,0.00862584076821804,-0.015423942357301712,-0.0026262064930051565,-0.0005669413367286325,-0.01519883330911398,-0.00760433916002512,0.00827005971223116,-0.01131631713360548,0.001186848501674831,-0.008939975872635841,-0.015376061201095581,-0.008167208172380924,0.015056828036904335,0.009629662148654461,0.014760235324501991,-0.0002653718111105263,-0.012232046574354172,0.0015935887349769473,-0.001393493846990168,0.010959111154079437,-0.012526550330221653,-7.322600140469149e-05,-0.010890408419072628,-0.005368023179471493,0.00763598782941699,-0.0006769542233087122,-0.0038825394585728645,-0.0033407576847821474,-0.001340908114798367,0.009123577736318111,0.012469038367271423,0.014400212094187737,0.009044026024639606,-0.005883562844246626,0.005888740532100201,-0.002081033308058977,-0.007688244339078665,0.010788996703922749,-0.01461990736424923,0.012649309821426868,-0.0012969295494258404,0.004243254661560059,0.004905240144580603,0.012520319782197475,0.0043006036430597305,0.0035697564017027617,-0.01373661495745182,0.0005196439451538026,-0.011130912229418755,0.0074309189803898335,0.00039155426202341914,0.005668753292411566,-0.014515828341245651,-0.013133969157934189,0.006828070618212223,-0.013523164205253124,-0.013506046496331692,-0.015426871366798878,0.014406559057533741,0.007500138599425554,-0.004626555368304253,-0.006396554410457611,-0.004672572948038578,0.008845752105116844,0.005097568035125732,-0.00997347105294466,-0.010317850857973099,-0.01269871462136507,0.0051128314808011055,0.008486755192279816,-0.0071542770601809025,-0.015552212484180927,-0.01357351616024971,0.01459024753421545,-0.006537327542901039,0.008493993431329727,0.003958875313401222,-0.003677144879475236,-0.00971792358905077,-0.012326675467193127,0.0034897211007773876,0.0086482223123312,0.004526934586465359,0.0009725225972943008,-0.014426342211663723,0.014401818625628948,0.009135418571531773,-0.006647903937846422,0.015157355926930904,0.0032101834658533335,0.0026314265560358763,0.007901845499873161,0.009473876096308231,0.004708305466920137,-0.011827461421489716,-0.005112824495881796,0.013546145521104336,-0.008666426874697208,-0.003984910435974598,-0.0024747950956225395,-0.0020924373529851437,0.0035252824891358614,0.014022710733115673,-0.008169650100171566,-0.011927628889679909,-0.00952612143009901,0.011968731880187988,0.00448427302762866,-0.006792598403990269,0.010014037601649761,0.011460285633802414,0.010983092710375786,0.01325737964361906,-0.00806344859302044,0.007953576743602753,-0.0012712178286165,0.010828647762537003,0.007248292211443186,0.008752025663852692,0.004925045650452375,-0.010013858787715435,0.0014148976188153028,0.015142220072448254,0.013625218532979488,-0.014525835402309895,-0.010530127212405205,-0.011525068432092667,0.007265339605510235,0.009977276436984539,-0.009229966439306736,3.946835931856185e-05,0.01077151671051979,0.007479769643396139,0.0015022462466731668,0.002908094087615609,0.0001781815808499232,-0.0065707676112651825,0.0019533003214746714,0.00601373054087162,0.011952021159231663,0.004495969042181969,0.008279848843812943,-0.010834895074367523,-0.0013788719661533833,-0.015592013485729694,-0.00794538576155901,0.007318917196244001,0.015729567036032677,-0.012666632421314716,-0.00321982242166996,0.009342488832771778,-0.009415766224265099,0.0018170047551393509,0.007518161088228226,0.003813784336671233,-0.0099064065143466,-0.004709592089056969,0.00884325709193945,0.001658339286223054,-0.015562688931822777,0.008390583097934723,-0.01456539798527956,0.007675675675272942,-0.009565495885908604,0.014341077767312527,-0.004251801408827305,-0.005414461717009544,-0.010966968722641468,-0.006031152326613665,0.01183386705815792,0.015445887111127377,-0.004552212078124285,-0.002054715994745493,0.006659213919192553,0.011952975764870644,0.0027999249286949635,-0.0035599740222096443,-0.0030702336225658655,0.0057447017170488834,-0.016127275303006172,0.003471463220193982,-0.0047560497187078,0.009222297929227352,-0.013063407503068447,0.0023902098182588816,-0.0010713658994063735,0.00411334028467536,-0.013992381282150745,0.002398544689640403,0.0019088973058387637,0.0016184593550860882,0.002797712804749608,0.005118497181683779,0.009317681193351746,-0.007461888715624809,0.01018716674298048,-4.485776662477292e-05,-0.01374425832182169,-0.01443435251712799,-0.005629964172840118,0.00878468994051218,0.006433751434087753,0.009086488746106625,0.0006134882569313049,-0.0022659837268292904,-0.011559559963643551,-0.005705969873815775,-0.0022000677417963743,-0.013065380975604057,-0.008817586116492748,0.003205664223060012,0.007081372197717428,0.015416847541928291,0.013526136986911297,0.004435543902218342,-0.0025212280452251434,0.004328202456235886,0.009111420251429081,-0.012004893273115158,-0.002785459393635392,0.010800988413393497,-0.0036156426649540663,0.0023180057760328054,0.0028073620051145554,-0.009952842257916927,-0.004286056850105524,-0.005163617432117462,-0.01491992361843586,-0.014994076453149319,0.010529003106057644,-0.007152765989303589,0.0005762627115473151,-0.006293816491961479,0.013977505266666412,-0.007584780920296907,-0.0022021429613232613,0.011798287741839886,0.01080455631017685,-0.00994662195444107,0.009658058173954487,-0.0012679838109761477,-0.0005238581215962768,-0.011574317701160908,-0.013264437206089497,0.007172898389399052,-0.00016265606973320246,-0.001871456392109394,0.007336458656936884,0.008428302593529224,-0.010754100047051907,0.0034855399280786514,-0.011568575166165829,0.007877766154706478,0.005080255214124918,0.014519497752189636,-0.013581102713942528,-0.0139679666608572,-0.006874686107039452,-0.007558680139482021,-0.008043630048632622,0.01291104219853878,-0.007863986305892467,-0.0071688308380544186,0.008249277248978615,-0.0015633401926606894,0.008749479427933693,-0.013719084672629833,-0.0004062396183144301,-0.014791307970881462,-0.013886046595871449,0.012795818038284779,-0.01142845954746008,0.0010333711979910731,-0.002777527552098036,-0.004826532676815987,0.012619909830391407,-0.015166097320616245,0.005108692217618227,0.014581906609237194,0.0018500742735341191,0.01377603504806757,-0.014170754700899124,-0.002615563338622451,-0.0076660895720124245,0.007186947390437126,0.015086749568581581,-0.007822845131158829,0.004785568919032812,-0.009565640240907669,0.002000314649194479,-0.001229724264703691,0.014819796197116375,0.0032990460749715567,-0.004891034681349993,-0.012287972494959831,-0.011000825092196465,-0.008715440519154072,-0.007935239002108574,0.01101871207356453,0.0018216442549601197,0.0006186479586176574,-0.012273509986698627,0.01147958543151617,0.007078440859913826,-0.013677329756319523,0.006537923589348793,0.0012777800438925624,-0.013347815722227097,-0.0014573575463145971,-0.00033478630939498544,-0.010480547323822975,0.014116804115474224,0.011033880524337292,0.005242364015430212,-0.0013446597149595618,-0.0029685108456760645,0.0044105323031544685,0.001059003989212215,-0.0141356335952878,0.000206091019208543,0.009599920362234116,-0.0012508737854659557,-0.014017101377248764,0.008700639940798283,-0.009768744930624962,-0.007827316410839558,-0.010683605447411537,-0.00533610163256526,0.008217585273087025,0.0007498670020140707,-0.009665369056165218,0.01168054062873125,0.011866637505590916,0.011685281991958618,-0.008203300647437572,-0.0014694157289341092,0.015425770543515682,0.008252285420894623,-0.015187449753284454,-0.013872346840798855,-0.0011756657622754574,0.012950648553669453,0.0012292444007471204,-1.0138652214664035e-05,-0.012807250954210758,0.004730454180389643,0.010054814629256725,-0.0038350322283804417,0.00868916790932417,0.014676005579531193,-0.009291264228522778,0.0004543856775853783,-0.006927490700036287,0.009137740358710289,0.0023855026811361313,0.004231093917042017,0.009423116222023964,-0.0032241311855614185,0.012902234680950642,0.0008721922058612108,-0.010935763828456402,0.006117604672908783,0.009235085919499397,-0.005803953390568495,0.011299693956971169,0.01269503589719534,-0.00720923813059926,0.015098854899406433,-0.011529137380421162,-0.009528521448373795,-0.010010293684899807,0.012467521242797375,0.004701490513980389,-0.011188678443431854,-0.0020738504827022552,0.0035294259432703257,-0.013181600719690323,0.012142855674028397,0.009636972099542618,-6.96403594702133e-06,0.014620649628341198,-0.002720759017392993,0.015274136327207088,0.005348483566194773,0.004327805712819099,-0.010523607954382896,0.011974507942795753,-0.002371276030316949,-0.010713827796280384,-0.015366582199931145,0.0019641071557998657,0.0009316192008554935,0.0069639598950743675,0.012300274334847927,-0.01332995668053627,0.007332689128816128,-0.009809155017137527,0.011396816000342369,0.010123686864972115,0.0012866107281297445,0.0066507067531347275,-0.005862094461917877,-0.0008739515324123204,0.010226807557046413,-0.0012540229363366961,-0.0045068589970469475,-0.0002085581363644451,0.010408102534711361,-0.005187333095818758,-0.010289431549608707,0.006718032993376255,0.010280878283083439,-0.012670459225773811,-0.008184061385691166,-0.01136147789657116,-0.004767589271068573,-0.001579994335770607,0.007844540290534496,0.004769911989569664,0.003794410964474082,-0.004709219094365835,0.010829096660017967,-0.0008897686493583024,0.01511371973901987,0.0042312610894441605,-0.01182528305798769,0.005520262755453587,-0.005612053442746401,0.0059707858599722385,-0.01359555870294571,-0.010286836884915829,0.011247065849602222,-0.008649014867842197,0.010582294315099716,-0.007076646666973829,0.004582387860864401,0.006131585221737623,0.00038466969272121787,-0.006174251437187195,-0.009126675315201283,-0.01485064160078764,-0.006288510747253895,0.004855580627918243,0.013811678625643253,0.011656098999083042,0.00833472516387701,0.009021448902785778,0.0050912881270051,-0.0076727536506950855,0.0128018818795681,0.005260666832327843,0.0017570179188624024,-0.012446233071386814,-0.0018202336505055428,-0.0013959475327283144,0.011437930166721344,0.0013287931215018034,-0.003977237269282341,0.01487003918737173,-0.012488157488405704,-0.0026047637220472097,-0.014584237709641457,0.00755186565220356,0.013282117433845997,-0.006894691381603479,0.011363723315298557,-0.006557130720466375,0.012953756377100945,0.007791369222104549,0.009172223508358002,-0.015184574760496616,0.014660737477242947,0.0071920533664524555,-0.006173382978886366,0.010309393517673016,-0.007280536461621523,0.011250539682805538,-0.012187725864350796,0.006473792251199484,0.001317533547990024,-0.01277093030512333,-0.008339714258909225,-0.015868641436100006,-0.001502139843069017,-0.006222098134458065,0.0031685184221714735,-0.0063649858348071575,-0.006352855823934078,0.007454104255884886,-0.014734657481312752,0.012322535738348961,0.011187603697180748,0.00539511488750577,0.0030254952143877745,0.012368271127343178,-0.01019445899873972,-0.013693000189960003,-0.008540412411093712,0.009408513084053993,-0.014559023082256317,0.00272690923884511,0.01561738085001707,0.01100233942270279,0.0003531395341269672,-0.014046822674572468,0.010626932606101036,0.0033033571671694517,-0.01207998488098383,-0.012927908450365067,0.012675073929131031,0.005019025411456823,0.01015247218310833,0.012122453190386295,0.0023882004898041487,0.0006620766944251955,-0.0021179283503443003,-0.005741927772760391,-0.0021578522864729166,0.008436385542154312,0.0033421118278056383,0.012491214089095592,-0.0017395018367096782,0.003391001606360078,0.004101521335542202,0.0027023463044315577,0.006124386563897133,-0.008214378729462624,0.0004317839629948139,-0.012517064809799194,-0.003696352243423462,-0.0005185800837352872,0.004554995335638523,0.013971379958093166,0.0032264762558043003,0.007707957178354263,0.0001692983933025971,0.004164288751780987,-0.01374054979532957,-0.008027910254895687,-0.004563491325825453,-0.0008316939929500222,-0.014354034326970577,-0.011404186487197876,-0.007148228120058775,0.014711270108819008,-0.005560519639402628,-0.000688543077558279,-0.009554916992783546,0.0035222815349698067,-0.006951967254281044,-0.009363073855638504,0.0003442830638960004,-0.015804121270775795,-0.015614135190844536,-0.008841524831950665,-0.014630966819822788,-0.012402629479765892,-0.0051622758619487286,0.009458684362471104,0.0021984835620969534,0.00044123607221990824,-0.005712571088224649,0.014012235216796398,-0.0031310769263654947,-0.013066439889371395,0.0036360512021929026,-0.012214633636176586,-0.004851465113461018,0.0009416804532520473,0.012094629928469658,-0.00017753498104866594,0.006281351204961538,0.015463200397789478,-0.011657409369945526,-0.007058019749820232,-0.0027236533351242542,-0.0022796650882810354,-0.002871408127248287,0.012730943970382214,0.0066514997743070126,0.0034392494708299637,-0.005931846797466278,0.010733268223702908,0.014511490240693092,0.010059012100100517,-0.015902061015367508,0.004228575155138969,-0.014134553261101246,-0.0075795999728143215,-0.013528790324926376,0.0033587641082704067,0.005777999293059111,-0.012327962554991245,-0.0037242393009364605,-0.001350629492662847,-0.004086771514266729,-0.01166771911084652,-0.0025211216416209936,0.00781862623989582,-0.013666023500263691,-0.013264572247862816,-0.004551371093839407,0.014031377620995045,0.005580967292189598,0.005676769185811281,-0.004456666298210621,0.002907772082835436,-0.015454654581844807,0.004352059215307236,0.013191846199333668,0.0036861866246908903,0.012128797359764576,0.0074729942716658115,-0.011613472364842892,0.01300311554223299,-0.013529839925467968,0.0010833169799298048,-0.011032070964574814,-0.015001513995230198,-0.002023400506004691,-0.006120581645518541,-0.00023856225016061217,0.002475893823429942,-0.014592437073588371,-0.011582392267882824,0.00229583028703928,-0.004530261270701885,0.007540065795183182,0.004899175371974707,0.010792096145451069,0.005721186753362417,-0.00187413499224931,0.005879636853933334,-0.006724654696881771,-0.005887043662369251,0.009164596907794476,-0.001909763552248478,0.008979681879281998,0.010535510256886482,0.011675946414470673,0.013515735976397991,-0.0019503299845382571,-0.0057151420041918755,0.002330243354663253,-0.0045362720265984535,0.0035166125744581223,0.006858204957097769,0.00630438094958663,-0.0037424054462462664,-0.01057374943047762,-0.002515907399356365,-0.01179578062146902,0.012598253786563873,-0.0045224386267364025,-0.01059715636074543,-0.014868081547319889,0.0043832287192344666,0.003843666985630989,-0.005724277347326279,-0.013137043453752995,-0.002528029028326273,-0.005696799140423536,0.005811605136841536,0.00350278802216053,-0.004173889756202698,-0.008874685503542423,0.015779711306095123,-0.0011759278131648898,0.006178598385304213,-0.011198284104466438,-0.000358171557309106,-0.01490100659430027,0.00016132350719999522,0.014910285361111164,-0.0034661677200347185,-0.014421512372791767,-0.014739720150828362,-0.0035079687368124723,-0.010756921954452991,-0.01511786226183176,0.008269832469522953,-0.0011760530760511756,-0.006570312660187483,0.012666686438024044,-0.012159139849245548,0.014359904453158379,-0.005972014740109444,0.01242514792829752,0.0033709919080138206,0.010383506305515766,0.01529224868863821,-0.006739253178238869,0.014511209912598133,-0.003592719556763768,-0.0034440408926457167,-0.004902624059468508,0.001388279371894896,-0.010921658016741276,0.001676468993537128,0.001285585924051702,0.008180457167327404,0.010759780183434486,-0.001705516129732132,-0.006137613672763109,-0.007559377234429121,-0.009641588665544987,-0.014006081968545914,-0.005116330459713936