-0.015923334285616875,0.05275179445743561,0.027683766558766365,0.010907064191997051,-0.04163174331188202,-0.040579698979854584,-0.05322956293821335,0.043190304189920425,0.012529650703072548,0.024886714294552803,-0.05697784572839737,0.05609673634171486,0.03951137885451317,-0.03432270511984825,-0.037520959973335266,-0.03778500482439995,-0.02339888922870159,0.003337330650538206,-0.008160406723618507,-0.025100233033299446,0.012892565689980984,-0.042833562940359116,-0.02474104054272175,-0.015952467918395996,-0.004709739238023758,0.03421378880739212,-0.03561190888285637,0.0013058849144726992,0.010652736760675907,-0.05413929000496864,0.012562678195536137,-0.039367638528347015,-0.05170462280511856,0.05325678735971451,0.05541960522532463,0.03693550080060959,-0.02327953465282917,-0.04797254875302315,0.020725421607494354,-0.0071084266528487206,-0.04528070241212845,-0.0019540663342922926,-0.05548308044672012,0.047954242676496506,-0.030649444088339806,0.019297873601317406,-0.02254367806017399,0.0022127367556095123,0.005531094968318939,-0.03755657747387886,0.05586812272667885,0.03273943439126015,0.05233044549822807,0.04700638726353645,0.011142299510538578,0.04977411776781082,-0.0496942363679409,-0.0361829437315464,-0.05421186238527298,-0.020944150164723396,-0.013874807395040989,-0.027719592675566673,0.03849727287888527,-0.017116285860538483,-0.026553858071565628,0.0049178930930793285,-0.043303266167640686,0.035131338983774185,-0.05138467252254486,0.05714855343103409,0.03141915053129196,-0.03669792413711548,-0.059871334582567215,0.03624063730239868,0.024122390896081924,0.025866391137242317,0.0308530330657959,-0.051029011607170105,-0.01816769875586033,-0.04691433161497116,0.04297362267971039,0.014181426726281643,-0.020915446802973747,-0.052390143275260925,-0.022717291489243507,-0.021519677713513374,0.02692774496972561,0.016025789082050323,0.04528476670384407,-0.0036274443846195936,-0.04490602761507034,0.025887692347168922,0.031080689281225204,0.007422013208270073,0.03232652321457863,-0.0009200885542668402,0.00279168295674026,-0.00845956988632679,-0.05651538446545601,-0.04654212296009064,-0.055763546377420425,0.016320787370204926,-0.022335395216941833,0.0007598603260703385,0.048356253653764725,-0.030102994292974472,-0.010918957181274891,0.03028486669063568,-0.032586853951215744,-0.05081890523433685,-0.025612032040953636,-0.0406818725168705,0.050715986639261246,0.03629631549119949,0.015657568350434303,0.04382959008216858,0.036002933979034424,-0.03702249377965927,0.0467207096517086,0.004576113540679216,0.03622199967503548,0.04682983085513115,-0.021895598620176315,-0.04694506898522377,-0.032690029591321945,-0.008360401727259159,0.038139812648296356,0.04320262372493744,-0.05830346792936325,0.001224811072461307,-0.009993853978812695,-0.03302079439163208,-0.045181699097156525,-0.019405309110879898,0.05266749486327171,-0.02152100019156933,0.0017409626161679626,0.023927981033921242,-0.01616712659597397,0.05617104470729828,0.05496390908956528,-0.029736153781414032,-0.0004928025300614536,-0.024086544290184975,-0.025710292160511017,-0.05516720190644264,0.01281597651541233,-2.281180968566332e-05,-0.05346934497356415,-0.026425296440720558,0.047938425093889236,-0.03152243420481682,-0.042427197098731995,-0.001501052756793797,0.057810958474874496,-0.030693242326378822,0.020457351580262184,0.031067144125699997,-0.031041719019412994,0.02720787189900875,-0.015649205073714256,0.016066301614046097,0.015973929315805435,0.0041314237751066685,-0.048794835805892944,0.0400782972574234,-0.02139529213309288,-0.03722881153225899,-0.05422448739409447,0.011188829317688942,0.02160121500492096,-0.05766048654913902,0.0014174951938912272,-0.032605476677417755,0.01714727282524109,-0.038424573838710785,0.023275986313819885,-0.013354586437344551,0.05289442464709282,-0.04208185896277428,-0.01844445802271366,-0.044975556433200836,0.05171296000480652,0.04489033296704292,-0.02828225865960121,0.019704530015587807,0.03765207156538963,0.006764268968254328,0.0038785815704613924,-0.029697446152567863,-0.04818430542945862,0.04729009047150612,0.04859060421586037,0.016193760558962822,-0.019069897010922432,-0.016916824504733086,0.027042802423238754,0.04732373729348183,0.04631572216749191,0.03337408974766731,0.016633447259664536,-0.04936957731842995,-0.040339548140764236,0.04706454649567604,0.01300524640828371,-0.05841250717639923,-0.04775774106383324,0.019799981266260147,-0.05893588066101074,-0.040510185062885284,0.005094890017062426,0.021860772743821144,0.017314281314611435,-0.03378143906593323,0.024022182449698448,-0.031988561153411865,-0.02056938037276268,0.02944830432534218,0.01813347637653351,0.041580554097890854,0.018604839220643044,0.008222862146794796,-0.04835337772965431,-0.01586056686937809,-0.027692886069417,-0.02988956868648529,0.05634221062064171,-0.012695030309259892,0.046872787177562714,0.015613295137882233,0.03513750806450844,0.00039927728357724845,0.00916664581745863,-0.0008147800690494478,-0.035809870809316635,0.026988442987203598,-0.025954021140933037,-0.05622311308979988,0.01754588447511196,-0.03864925354719162,0.05292714014649391,0.054062023758888245,0.04915605112910271,-0.015515634790062904,-0.05802266672253609,0.051077745854854584,-0.008963721804320812,0.055279482156038284,0.055328160524368286,0.041920360177755356,-0.023933669552206993,-0.012781452387571335,0.04117327928543091,-0.021512188017368317,-0.03802850842475891,0.007047617807984352,0.05378270894289017,0.025621524080634117,0.00928730983287096,-0.045604407787323,0.015791306272149086,0.058352354913949966,-0.04262900352478027,0.0022875911090523005,0.04490584507584572,0.02833286114037037,0.022980503737926483,0.023924630135297775,-0.017427578568458557,-0.02554931491613388,0.0368320532143116,0.03692314773797989,0.04370622709393501,0.04920170456171036,0.0013510147109627724,0.00017512009071651846,0.03552655130624771,0.017856063321232796,0.02403605915606022,0.03458843752741814,0.046000413596630096,-0.019510764628648758,-0.015373539179563522,-0.04882210120558739,0.009191399440169334,-0.055407844483852386,-0.004318664316087961,0.005130762234330177,-0.025347864255309105,0.01088828593492508,-0.056066256016492844,-0.05506272241473198,0.03827619552612305,-0.017094526439905167,-0.044893406331539154,0.0017916247015818954,0.03135070577263832,-0.03334219008684158,0.015081972815096378,-0.049011338502168655,-0.052998706698417664,0.004251539707183838,0.005164987873286009,0.016648313030600548,0.027433844283223152,0.05703878775238991,0.0019202027469873428,-0.021326685324311256,0.034920599311590195,-0.027150655165314674,-0.0072191376239061356,-0.05026812478899956,-0.05633654072880745,0.055259548127651215,0.039986640214920044,0.023600926622748375,-0.010870229452848434,-0.03912165388464928,-0.04036500304937363,-0.029715020209550858,0.0057908655144274235,0.025738399475812912,0.018635330721735954,-0.026381224393844604,0.05408715456724167,0.028212895616889,0.00627388758584857,0.013322029262781143,-0.009736434556543827,-0.030230078846216202,-0.01696060039103031,0.030515067279338837,-0.05785823613405228,-0.04561803117394447,-0.05406899005174637,-0.0546959713101387,0.042147114872932434,0.02408612333238125,-0.0029258718714118004,-0.04809337481856346,-0.00080108642578125,-0.002072429284453392,-0.038923799991607666,-0.007860549725592136,-0.012074590660631657,0.013689559884369373,0.016130220144987106,-0.05397992208600044,-0.014698592014610767,0.015449427999556065,0.0011783289955928922,0.04264993965625763,0.01893298514187336,-0.039659567177295685,-0.0507427379488945,0.0174175463616848,-0.055569473654031754,0.010920478962361813,0.053167372941970825,0.009913193061947823,-0.013763477094471455,0.016274161636829376,-0.005606574006378651,0.005575196351855993,0.052530232816934586,-0.013624552637338638,0.0549517497420311,0.04862046241760254,-0.035480909049510956,-0.05127163603901863,-0.04753456637263298,-0.05736618861556053,-0.04826044291257858,0.021823812276124954,-0.05104827508330345,-0.02157864160835743,0.04106251522898674,-0.05677597224712372,0.03877858817577362,-0.02435246668756008,-0.043959423899650574,0.023919034749269485,0.015976043418049812,0.045280247926712036,0.028033316135406494,0.03631230443716049,-0.026320725679397583,-0.03827976435422897,0.029828906059265137,0.036498282104730606,0.058461036533117294,-0.010397655889391899,-0.015247020870447159,0.032898664474487305,-0.01897597685456276,0.051273949444293976,0.04266774654388428,-0.008478814736008644,0.02986438013613224,0.03028915449976921,-0.04730964079499245,0.04797409474849701,0.0005038125673308969,0.038898855447769165,-0.020868495106697083,0.047811172902584076,-0.012231498025357723,-0.05720542371273041,0.04894395172595978,-0.04797595366835594,-0.021137157455086708,0.05407576635479927,0.05395893007516861,0.008555660024285316,0.01483350619673729,-0.007406568620353937,-0.02610592171549797,-0.020157869905233383,0.020099101588129997,0.029372911900281906,0.034793030470609665,0.03415679559111595,-0.04904446378350258,-0.0006183009245432913,-0.05284037068486214,0.005665456410497427,-0.007047394290566444,0.04599732160568237,-0.01791011169552803,-0.04567301645874977,-0.042550187557935715,0.030960433185100555,0.014168806374073029,-0.04742912948131561,-0.049477290362119675,0.02372288890182972,-0.050919413566589355,0.038332823663949966,0.024133902043104172,-0.050099894404411316,-0.0495351143181324,0.05800580605864525,-0.01487452071160078,-0.015448613092303276,0.037221603095531464,0.05305306240916252,0.0568896159529686,0.030082784593105316,-0.015328530222177505,-0.0508001372218132