-0.012050949037075043,0.039175018668174744,0.019991882145404816,0.008425488136708736,-0.030988281592726707,-0.03103259578347206,-0.03912995383143425,0.03255284205079079,0.009093979373574257,0.01842491887509823,-0.042813725769519806,0.04190564155578613,0.029834575951099396,-0.025466153398156166,-0.027570905163884163,-0.02779591828584671,-0.017249925062060356,0.0025474377907812595,-0.005272899754345417,-0.018058931455016136,0.010187814943492413,-0.03188805654644966,-0.01845044270157814,-0.011926892213523388,-0.003616084111854434,0.025160236284136772,-0.02693828195333481,0.00027418890385888517,0.006885106675326824,-0.041429903358221054,0.00879379827529192,-0.030150793492794037,-0.03917456790804863,0.038898929953575134,0.04063064232468605,0.027201905846595764,-0.017074821516871452,-0.035755883902311325,0.017207950353622437,-0.005267576314508915,-0.03352741524577141,0.000624632288236171,-0.04155678674578667,0.03567717224359512,-0.021473389118909836,0.013658623211085796,-0.01699046790599823,0.002548730233684182,0.0033272933214902878,-0.028297409415245056,0.0417189747095108,0.024332566186785698,0.03902484104037285,0.03505794331431389,0.008775671944022179,0.03678649663925171,-0.03763589262962341,-0.02664908766746521,-0.040488094091415405,-0.01618744060397148,-0.010494043119251728,-0.020761245861649513,0.02826157584786415,-0.012828409671783447,-0.019517358392477036,0.00343983992934227,-0.03166278079152107,0.027271073311567307,-0.03734132647514343,0.043465424329042435,0.024955829605460167,-0.025883233174681664,-0.04278036952018738,0.029626786708831787,0.020050374791026115,0.020650792866945267,0.025231357663869858,-0.03643246740102768,-0.012139360420405865,-0.03326764330267906,0.03294304013252258,0.010646745562553406,-0.014939679764211178,-0.039406631141901016,-0.016100997105240822,-0.015091856010258198,0.019757719710469246,0.012982476502656937,0.034498266875743866,-0.0028266613371670246,-0.033926963806152344,0.018551498651504517,0.022688983008265495,0.005236082710325718,0.023411408066749573,-0.001264524064026773,0.002129162894561887,-0.0066855428740382195,-0.042638011276721954,-0.03501652181148529,-0.04191688820719719,0.011885157786309719,-0.016784612089395523,0.0002604461624287069,0.03566604107618332,-0.02237894758582115,-0.008225762285292149,0.02221606858074665,-0.023953145369887352,-0.03749939426779747,-0.01903446577489376,-0.02961336448788643,0.038401808589696884,0.02703799121081829,0.012169339694082737,0.03326478227972984,0.026983529329299927,-0.02717636339366436,0.03587185963988304,0.0047305249609053135,0.02777693420648575,0.03599892556667328,-0.014893385581672192,-0.03405056893825531,-0.02325292117893696,-0.005024602171033621,0.029026173055171967,0.032362598925828934,-0.043772704899311066,0.0015888640191406012,-0.007121983449906111,-0.02507966198027134,-0.03343238681554794,-0.014763642102479935,0.038494620472192764,-0.014500473625957966,0.002051829593256116,0.018371466547250748,-0.012819421477615833,0.04108858481049538,0.04105476289987564,-0.022939521819353104,-0.0010598072549328208,-0.017823601141572,-0.01920492574572563,-0.041308850049972534,0.009416980668902397,3.116247899015434e-05,-0.03989541530609131,-0.01961795799434185,0.035757169127464294,-0.023478420451283455,-0.031554214656353,-0.001109857577830553,0.0430629700422287,-0.02285928651690483,0.015238109976053238,0.02310428023338318,-0.023104358464479446,0.020394979044795036,-0.011846151202917099,0.011943768709897995,0.00940091721713543,0.0022463968489319086,-0.03634036332368851,0.02719966135919094,-0.01662810705602169,-0.027930233627557755,-0.043438080698251724,0.006921818479895592,0.015173512510955334,-0.042778052389621735,0.0011505944421514869,-0.024725986644625664,0.0131183797493577,-0.029388533905148506,0.015523812733590603,-0.009717821143567562,0.03741888701915741,-0.033712971955537796,-0.013922387734055519,-0.03359919786453247,0.038918327540159225,0.033023204654455185,-0.0216402355581522,0.014363140799105167,0.02782449498772621,0.004361022263765335,0.0017371817957609892,-0.023187877610325813,-0.03557220846414566,0.035439733415842056,0.035958871245384216,0.012525149621069431,-0.013913017697632313,-0.011224587447941303,0.02104952372610569,0.035447705537080765,0.03501956909894943,0.02506636083126068,0.012726199813187122,-0.03599560260772705,-0.029698370024561882,0.035607803612947464,0.009994571097195148,-0.04354536905884743,-0.03539218753576279,0.014178188517689705,-0.043956607580184937,-0.030246654525399208,0.003607344813644886,0.01633388176560402,0.012693301774561405,-0.025932330638170242,0.01778510771691799,-0.024398762732744217,-0.014272462576627731,0.022143466398119926,0.01278348546475172,0.0320466086268425,0.01421427819877863,0.005710224155336618,-0.03525303304195404,-0.011591057293117046,-0.021512312814593315,-0.023186933249235153,0.04190495237708092,-0.01006106473505497,0.0347001738846302,0.011643915437161922,0.026125850155949593,0.00022002492914907634,0.006895713973790407,-0.00035601970739662647,-0.027623381465673447,0.01921307109296322,-0.019205158576369286,-0.042580585926771164,0.01258909236639738,-0.028123732656240463,0.038698215037584305,0.04017874225974083,0.037607382982969284,-0.011749443598091602,-0.04334107041358948,0.03781215101480484,-0.006445261649787426,0.04137974977493286,0.041202835738658905,0.03142748773097992,-0.017781395465135574,-0.009085359051823616,0.03135162219405174,-0.015755925327539444,-0.0283928494900465,0.004879804328083992,0.03911175951361656,0.018378732725977898,0.005726153962314129,-0.035251546651124954,0.011475316248834133,0.043275076895952225,-0.03245117887854576,0.0003856795374304056,0.03352363035082817,0.02108737640082836,0.01652197726070881,0.01897156983613968,-0.01179033238440752,-0.018930954858660698,0.027480972930788994,0.02754165045917034,0.03260231018066406,0.036699701100587845,0.0010073831072077155,0.00013809329539071769,0.02648857608437538,0.013318818993866444,0.017935356125235558,0.025768041610717773,0.03452814370393753,-0.014419644139707088,-0.011537311598658562,-0.03635066747665405,0.005911286920309067,-0.041467491537332535,-0.003418633248656988,0.003037653863430023,-0.01893029734492302,0.008067221380770206,-0.04107483848929405,-0.04110891371965408,0.02910296618938446,-0.011359481140971184,-0.03326307237148285,0.002329655457288027,0.024723604321479797,-0.02411721646785736,0.011531772091984749,-0.03607568517327309,-0.03884042426943779,0.0035434190649539232,0.0044358340092003345,0.013130861334502697,0.02086489088833332,0.04326720908284187,-0.0010847754310816526,-0.017193317413330078,0.02517363242805004,-0.020880497992038727,-0.00611670408397913,-0.03830526024103165,-0.04230324551463127,0.040681663900613785,0.028826259076595306,0.015796225517988205,-0.008564742282032967,-0.02882029488682747,-0.03185040131211281,-0.022526737302541733,0.00426435424014926,0.018232576549053192,0.0142966965213418,-0.01920456439256668,0.040429867804050446,0.021325228735804558,0.005433825310319662,0.009797592647373676,-0.007212488446384668,-0.02220546267926693,-0.013466229662299156,0.022345218807458878,-0.04314054921269417,-0.03429187089204788,-0.04033389315009117,-0.04072035476565361,0.030872944742441177,0.017737355083227158,-0.0021860746201127768,-0.036743272095918655,-0.0016778632998466492,-0.002256364794448018,-0.029207441955804825,-0.0057090045884251595,-0.00909770093858242,0.00991938915103674,0.012222792953252792,-0.04026653990149498,-0.012051116675138474,0.010758982039988041,4.975826232112013e-05,0.03103700838983059,0.014498232863843441,-0.029342137277126312,-0.039061497896909714,0.012660238891839981,-0.0417502261698246,0.0065602269023656845,0.03915323689579964,0.007288460154086351,-0.011248122900724411,0.01235661655664444,-0.002279018983244896,0.00417929096147418,0.03959093615412712,-0.008869740180671215,0.04098409041762352,0.03602663800120354,-0.026446541771292686,-0.03838266432285309,-0.03544550761580467,-0.042760152369737625,-0.0360250286757946,0.016229471191763878,-0.03808337822556496,-0.016041787341237068,0.030504804104566574,-0.04233022779226303,0.02722281590104103,-0.020046256482601166,-0.03398450091481209,0.017292285338044167,0.011313537135720253,0.03390316292643547,0.020943235605955124,0.027177873998880386,-0.018647562712430954,-0.028029531240463257,0.022228486835956573,0.027172643691301346,0.043830253183841705,-0.007749525364488363,-0.011378900147974491,0.024576978757977486,-0.014105674810707569,0.038221150636672974,0.031823188066482544,-0.006330291740596294,0.022273579612374306,0.02259863168001175,-0.03524002060294151,0.03591260313987732,0.0006673616589978337,0.029037537053227425,-0.014909056015312672,0.03482022136449814,-0.00963675882667303,-0.04316934198141098,0.036409687250852585,-0.03538018465042114,-0.01562284491956234,0.04073910787701607,0.04059717059135437,0.0064293756149709225,0.012217932380735874,-0.0040321084670722485,-0.01776343211531639,-0.014551945962011814,0.015888482332229614,0.023383289575576782,0.02614983171224594,0.026494791731238365,-0.03480985015630722,-0.0006061234162189066,-0.040048010647296906,0.003447730327025056,-0.005423211958259344,0.03387958183884621,-0.013630906119942665,-0.034154362976551056,-0.031638745218515396,0.022699881345033646,0.010291440412402153,-0.03555474802851677,-0.036935023963451385,0.01795586198568344,-0.03792564570903778,0.028432626277208328,0.018712017685174942,-0.03679930791258812,-0.036922626197338104,0.04331941530108452,-0.011100441217422485,-0.012345473282039165,0.027842599898576736,0.03968347981572151,0.04219535365700722,0.023047223687171936,-0.010619398206472397,-0.03748936951160431,0.02482040785253048,0.005335576366633177,-0.006401310209184885,0.03638014942407608,-0.034275658428668976,-0.0008405749686062336,-0.04295447841286659,-0.0025520462077111006,-0.039720986038446426,-0.033846065402030945,-0.03418584540486336,0.012952731922268867,0.021781280636787415,0.00731173949316144,0.04094495251774788,-0.01144420262426138,-0.018872909247875214,0.03281141817569733,-0.025105217471718788,0.04049531742930412,-0.043594781309366226,0.04187307506799698,-0.04038567095994949,0.035004936158657074,0.0025627994909882545,0.04396790638566017,-0.03750059753656387,0.004690788686275482,0.04167165607213974,0.001862795790657401,0.011494308710098267,0.017384659498929977,-0.004108943045139313,0.011310294270515442,0.007481362670660019,0.035621896386146545,-0.04034460708498955,-0.019368428736925125,0.039833225309848785,0.03443356230854988,-0.004443519748747349,0.009573889896273613,-0.019957389682531357,-0.028203008696436882,-0.005197676829993725,-0.01123406458646059,0.00837851781398058,-0.037498924881219864,0.04246953874826431,0.043361082673072815,0.017295312136411667,0.004026421345770359,-0.016501927748322487,0.02740631066262722,0.016262201592326164,-0.029981721192598343,0.036512378603219986,0.028643744066357613,0.039949122816324234,0.02004803717136383,0.010107097215950489,-0.007233137730509043,0.038433466106653214,0.03506886214017868,-0.039406709372997284,-0.04256521537899971,-0.008675622753798962,0.028211871162056923,0.04278818145394325,-0.028976591303944588,0.009113030508160591,-0.010160393081605434,0.04152422398328781,0.03041599504649639,0.030123574659228325,-0.002385419560596347,-0.006697655655443668,-0.01916184090077877,-0.03889836370944977,0.033158812671899796,0.02864190563559532,0.04439713805913925,0.04407941922545433,0.004835612140595913,0.02440444380044937,0.03967713564634323,0.031247856095433235,-0.021558064967393875,-0.0038794889114797115,-0.03261323273181915,0.04004054144024849,0.009320585057139397,-0.02409818023443222,0.015702426433563232,0.011528230272233486,-0.010624170303344727,-0.033919744193553925,0.016671197488904,0.0041211326606571674,0.024057388305664062,0.0023786346428096294,0.032874252647161484,0.004190501291304827,0.006345190107822418,0.035149164497852325,-0.009148511104285717,-0.0312865749001503,-0.039978351444005966,0.0227692611515522,0.011040295474231243,0.01798848807811737,-0.02531467005610466,-0.03198610991239548,-0.04334329813718796,-0.013768077827990055,0.007575345225632191,-0.010522414930164814,-0.0053739994764328,0.036010853946208954,-0.01337109412997961,0.0011497177183628082,0.02519393153488636,-0.009243110194802284,0.010772999376058578,0.03218096122145653,0.03989865258336067,-0.032020121812820435,0.03707720711827278,-0.0009143112110905349,-0.022062014788389206,-0.00402457220479846,0.042528580874204636,-0.0009307181462645531,-0.01567809283733368,0.011337034404277802,-0.023109421133995056,-0.03766234591603279,-0.03283396735787392,-0.03286559507250786,-0.03091542422771454,-0.03206132352352142,0.012692451477050781,-0.02833046019077301,-0.013675279915332794,0.035039421170949936,-0.002050644950941205,0.014838115312159061,-0.02926020696759224,-0.027058275416493416,-0.040881939232349396,-0.02981656603515148,-0.019651710987091064,-0.02870406210422516,-0.0362648069858551,-0.03367316350340843,-0.004109395667910576,-0.025912081822752953,-0.01184979546815157,0.0005122494767419994,0.018058335408568382,-0.039812177419662476,0.02763497456908226,0.009242920204997063,-0.039179958403110504,0.031191369518637657,0.03626616299152374,-0.039967529475688934,-0.020712509751319885,0.026980910450220108,0.021954145282506943,-0.02793523482978344,-0.026264434680342674,-0.011346730403602123,-0.0007438213215209544,0.009964175522327423,-0.011585420928895473,-0.0029235503170639277,0.021299144253134727,-0.04129381850361824,-0.02197244018316269,0.01907433569431305,0.035401955246925354,0.0017346907407045364,0.0032734968699514866,-0.034574251621961594,-0.004086208529770374,0.003478365484625101,-0.02256130427122116,-0.020390482619404793,-0.01071840152144432,-0.042552582919597626,-0.015941154211759567,-0.025350548326969147,-0.015195575542747974,-0.0339927114546299,0.03495471179485321,0.008324078284204006,0.015624587424099445,0.024455847218632698,-0.0013485465897247195,-0.03804735094308853,0.0027785750571638346,0.007397214882075787,0.021256305277347565,-0.005833483301103115,-0.03287982568144798,-0.019674530252814293,-0.011624649167060852,0.013550822623074055,0.006336684338748455,-0.012220430187880993,0.04330071434378624,0.009144791401922703,-0.02292731963098049,-0.03536175936460495,-0.031101232394576073,-0.022789645940065384,-0.03012709878385067,-0.028175894170999527,-0.019040318205952644,-0.029092276468873024,0.03495629504323006,-0.03731602057814598,0.0018237198237329721,-0.008148600347340107,0.042775094509124756,-0.03453989699482918,-0.009295936673879623,0.04160921275615692,0.03240742161870003,0.028242241591215134,-0.0217051450163126,-0.029340684413909912,0.014893741346895695,0.03819331154227257,0.004058351274579763,0.004519383888691664,-0.019297359511256218,0.023111771792173386,-0.02911420539021492,-0.015337507240474224,-0.006995477247983217,-1.2530081221484579e-05,-0.02276393584907055,-0.034087829291820526,0.010318751446902752,-0.018599437549710274,0.007265464402735233,-0.030562611296772957,-0.000868109695147723,0.0034610177390277386,-0.03969735652208328,-0.01598539762198925,-0.03245745599269867,-0.038429878652095795,0.04280322790145874,-0.015731096267700195,0.02782261371612549,-0.022071607410907745,0.01628948748111725,0.023441335186362267,0.007405008655041456,-0.003615129739046097,-0.008592785336077213,-0.013685782440006733,0.03813999518752098,0.029353005811572075,0.04124532267451286,-0.033454179763793945,0.02048230916261673,0.03922916576266289,-0.02799229510128498,-0.03873882070183754,0.022344740107655525,0.007176137994974852,0.02989588864147663,-0.03074624575674534,0.027441104874014854,-0.025578945875167847,-0.027186023071408272,-0.02687300741672516,0.029233919456601143,0.01659933105111122,0.004243111237883568,-0.0108492998406291,0.035253167152404785,-0.00724413339048624,0.02998405322432518,-0.006615941878408194,-0.011945117264986038,-0.0026988910976797342,-0.01868879795074463,0.021128661930561066,0.0009975782595574856,-0.024886179715394974,0.03434382379055023,-0.008907952345907688,0.0036433865316212177,0.03589016944169998,0.011002021841704845,-0.03413388505578041,0.039176516234874725,0.011542747728526592,-0.014470400288701057,-0.03180011734366417,0.026438666507601738,0.009771956130862236,0.0019614684861153364,0.03448159992694855,0.024881836026906967,-0.0317959263920784,-0.017168069258332253,-0.02297258749604225,0.0210105087608099,-0.0418422557413578,0.005823821295052767,0.023227199912071228,0.0335376150906086,-0.014260916970670223,0.02863040752708912,-0.034425344318151474,0.03083580732345581,-0.032962583005428314,-0.009153454564511776,0.02604191191494465,-0.03128327801823616,-0.024601513519883156,0.019608590751886368,0.019309254363179207,0.012558144517242908,0.017091063782572746,0.0039046083111315966,-0.021872475743293762,-0.014130227267742157,-0.027502967044711113,0.036718204617500305,0.007856103591620922,-0.007520084269344807,-0.0027212423738092184,0.04068206995725632,-0.029493197798728943,0.008155588991940022,0.0008054997306317091,0.009894042275846004,-0.04304831847548485,0.033067017793655396,0.03821796923875809,0.005424126982688904,0.017451448366045952,0.037511058151721954,0.018298929557204247,-0.030279267579317093,0.007022674661129713,0.009410486556589603,-0.0059517985209822655,0.021465342491865158,0.03889303281903267,0.03838106989860535,-0.0036487362813204527,-0.03378719463944435,0.043095506727695465,0.029795292764902115,-0.03376813977956772,0.03753788024187088,0.03293614089488983,0.0016781669110059738,0.008517150767147541,-0.008465488441288471,-0.03919534757733345,-0.015085779130458832,0.026225633919239044,-0.04431243985891342,-0.01408673357218504,-0.008348853327333927,0.0039406693540513515,0.0379011407494545,-0.012780518271028996,-0.013271053321659565,0.021262330934405327,-0.004122184123843908,-0.024243297055363655,-0.004153152462095022,-0.031842831522226334,-0.02891985885798931,0.00014718824240844697,-0.006998296361416578,0.036674849689006805,-0.014982828870415688,0.005359779577702284,0.0111192986369133,-0.043375831097364426,0.014200780540704727,-0.02831186354160309,0.04032865911722183,-0.03177258372306824,-0.007521042134612799,-0.035629499703645706,0.045237764716148376,0.000939478981308639,0.008729839697480202,-0.03765382617712021,0.02296716347336769,-0.02579118125140667,0.03542780876159668,-0.025825761258602142,-0.02767731435596943,-0.041262563318014145,-0.002808895893394947,0.005789631977677345,-0.03888067603111267,0.023319236934185028,-0.004041685722768307,0.001495838863775134,-0.007078506983816624,-0.008697503246366978,0.004530094098299742,-0.03100443258881569,-0.028832964599132538,0.03128160163760185,0.03884531557559967,-0.01189045887440443,-0.021436892449855804,0.012090949341654778,-0.007806994020938873,-0.04205311834812164,-0.030583368614315987,0.018552275374531746,0.014174475334584713,-0.042031824588775635,-0.025388432666659355,-0.024020850658416748,0.014897526241838932,-0.0426308698952198,-0.03490593656897545,0.02702377736568451,-0.028544830158352852,0.013825508765876293,-0.02275821380317211,-0.03554801270365715,-0.0224471352994442,0.02022121474146843,0.0313907116651535,0.02916206791996956,-0.009123890660703182,0.014720860868692398,-0.026303837075829506,-0.018394311890006065,0.03470795229077339,-0.04368807002902031,-0.036959074437618256