-0.007458433508872986,-0.012144969776272774,-0.008116940967738628,0.0020327528472989798,-0.002093486487865448,0.009920932352542877,0.008001290261745453,-0.004144764039665461,-0.00621643103659153,-0.003172453958541155,0.0022997206542640924,-0.00598228070884943,0.003037272486835718,-0.002371157519519329,0.001175407669506967,-0.001764189568348229,-0.0053893267177045345,0.011235029436647892,0.00661960756406188,-0.009218685328960419,0.009378182701766491,-0.0004498773196246475,0.00992842298001051,0.007482289336621761,-0.0020451692398637533,-0.01233624666929245,-0.00607025483623147,0.001110177836380899,0.003507937304675579,-0.006056161597371101,-0.009104778990149498,0.008630012162029743,0.01245434395968914,0.0007839363534003496,-0.008272659033536911,-0.00578159699216485,-0.012399770319461823,0.010459833778440952,-0.009769999422132969,0.0018183020874857903,-0.0058376602828502655,0.001298157381825149,0.0037409502547234297,0.00830455869436264,-0.007533819880336523,-0.0124131478369236,-0.009193642064929008,0.010210958309471607,0.00957439560443163,0.0025214627385139465,0.0026085900608450174,0.004293614067137241,-0.008156798779964447,0.010634711012244225,-0.0020809797570109367,-0.0029812660068273544,0.0005320654017850757,-0.01154815498739481,-0.008489214815199375,0.0060534351505339146,-0.010702994652092457,0.002589980373159051,-0.006578248925507069,-0.002796381479129195,-0.005299610551446676,-0.003537004580721259,0.005583479534834623,-0.0051809209398925304,0.0016938988119363785,-0.0006387927569448948,0.004070410504937172,0.01103369239717722,0.0058284904807806015,-0.007376959081739187,-0.01192711666226387,-0.006112757604569197,0.002375858835875988,-0.011469298042356968,-9.016304829856381e-05,0.002479009795933962,-0.004234615713357925,0.007032722234725952,-0.009841827675700188,-0.010677386075258255,0.005963730160146952,3.195230237906799e-05,0.004943163599818945,-0.0015663678059354424,-0.006373940035700798,0.008126574568450451,0.007455982267856598,0.004731933586299419,-0.005872344598174095,0.00217524915933609,-0.0037526143714785576,-0.01058166567236185,0.010600968264043331,-0.009327729232609272,0.011435434222221375,-0.0015196885215118527,-0.008121024817228317,0.0011108710896223783,0.009437290020287037,0.0059175086207687855,0.00789247453212738,0.003985310904681683,0.00492590619251132,0.008935960941016674,-0.006320845801383257,-0.00019565432739909738,-0.00687780836597085,0.01254914328455925,0.011497425846755505,-0.011470403522253036,0.005439048167318106,0.011057287454605103,-0.007936808280646801,0.001686088740825653,0.010385634377598763,-0.01197323203086853,0.004952962510287762,-0.0052649774588644505,0.010690332390367985,0.011942214332520962,0.011254639364778996,-0.0006883381283842027,0.009352486580610275,0.00875306036323309,-0.004644628148525953,0.008379553444683552,-0.011775015853345394,0.0023829203564673662,-0.0069488584995269775,-0.009718654677271843,-0.010913255624473095,0.004931407514959574,-0.004158554598689079,0.00567986536771059,-0.011030048131942749,-0.004625642206519842,0.0010498646879568696,0.007485933136194944,-0.004469346720725298,0.0033804280683398247,0.009764382615685463,0.002958142664283514,-0.006790918298065662,-0.012182080186903477,0.009347128681838512,-0.012341663241386414,0.009507255628705025,0.0006265544798225164,0.011008081026375294,0.0077565438114106655,0.012800753116607666,-0.0036987431813031435,0.00692646112293005,-0.0024035153910517693,-0.00046412553638219833,0.0033241899218410254,0.009571448899805546,0.012334232218563557,0.00681352848187089,-0.002091619884595275,-0.002048573922365904,0.005975016858428717,-0.006671509239822626,-0.009952000342309475,-0.003813892835751176,-0.005495239049196243,-0.005284928251057863,-0.006833439692854881,-0.011686814948916435,-0.012146951630711555,0.012336008250713348,-0.0019095633178949356,-0.0029573366045951843,0.004505083430558443,-0.007271649315953255,0.011380811221897602,0.0072813499718904495,-0.01038768794387579,-0.002001266460865736,0.009668407030403614,0.011393067426979542,-0.0007502022781409323,0.0030370191670954227,-0.008338101208209991,0.012611683458089828,-0.006815184373408556,0.011409420520067215,0.003963264171034098,0.0028134307358413935,0.0005065579898655415,-0.006656588986515999,-0.008042320609092712,-0.006913171149790287,-0.0078103067353367805,0.007007446140050888,-0.003955772612243891,-0.011434250511229038,0.011813899502158165,0.009551674127578735,0.010578429326415062,0.01237416546791792,-0.008528277277946472,-0.0028765560127794743,0.0065421294420957565,0.005016258452087641,-0.008855380117893219,0.007980069145560265,-0.007017003837972879,-0.007049876265227795,0.0008375000325031579,0.0022821060847491026,0.0019601816311478615,-0.01050247810781002,0.009393466636538506,-0.006149150896817446,-0.009541035629808903,0.009755316190421581,0.011460559442639351,0.009149708785116673,0.007805293891578913,0.003944362513720989,0.0013635464711114764,-0.010489478707313538,-0.0022440108004957438,-0.0031741189304739237,-0.006049111485481262,0.005799892824143171,-2.1420894427137682e-06,-0.010547749698162079,-0.007015518844127655,0.004753309767693281,-0.010710851289331913,0.009171340614557266,6.500424206024036e-05,-0.0002776643668767065,0.002616788260638714,0.008540699258446693,-0.0036205588839948177,0.004716329742223024,0.0016846582293510437,-0.005845219362527132,0.00971892848610878,0.007644749712198973,0.004116583615541458,0.008982296101748943,0.009487985633313656,0.005435919854789972,0.008663483895361423,0.00507633201777935,0.0046197762712836266,0.002987020183354616,0.006525525823235512,-0.008574206382036209,0.009764104150235653,0.009569146670401096,-0.011799164116382599,0.008435475639998913,-0.009413367137312889,-0.0041535766795277596,0.006140034645795822,-0.008601642213761806,0.008108935318887234,0.008434966206550598,0.00020842114463448524,-0.012539828196167946,-0.005364551208913326,0.003030612366273999,0.012307410128414631,0.003400087356567383,-0.006068077404052019,0.0034617383498698473,0.0010638913372531533,0.007174048572778702,-0.009967542253434658,0.00669268099591136,0.001091502490453422,0.011711258441209793,-0.004114783369004726,0.0033210283145308495,0.010909895412623882,-0.010288347490131855,0.01097386609762907,0.004626038018614054,-0.011214064434170723,-0.0051351189613342285,0.005235449876636267,-0.010980994440615177,0.0020291826222091913,-0.003937165718525648,0.003089528065174818,-0.011605781503021717,0.009479241445660591,0.0120368842035532,0.011979810893535614,0.006403758656233549,-0.009196244180202484,0.006706216372549534,-0.01193269994109869,-0.011952504515647888,-0.004336411599069834,-0.0001133087498601526,0.006995983421802521,0.004631944932043552,-0.0013629590393975377,-0.005674357060343027,0.012645130045711994,-0.0018502111779525876,-0.001180933672003448,-0.008652383461594582,0.007436173502355814,0.004862008150666952,-0.007099404465407133,-0.01055390015244484,0.004641436971724033,0.003885267535224557,-0.005830494686961174,0.01138781663030386,-0.008993379771709442,-0.001841031713411212,0.011137763038277626,-0.0020025826524943113,0.0035319309681653976,-0.00272341794334352,-0.005771607626229525,0.012263955548405647,-0.002483884571120143,0.00998532585799694,-0.006959044840186834,-0.007413762155920267,-0.012035306543111801,0.003812305862084031,-0.003329705446958542,0.009221316315233707,-0.0006912369281053543,0.01195535995066166,-0.00804983638226986,0.009401435032486916,0.007020145189017057,0.00686319125816226,0.008808152750134468,0.006812897976487875,0.003111652098596096,-0.009448434226214886,-0.011930110864341259,0.010604167357087135,0.002861307468265295,0.007419411558657885,-0.0003529010573402047,-0.009649119339883327,-0.009409431368112564,0.0048095849342644215,-0.0017110278131440282,-0.007574681658297777,-0.0002512341598048806,-0.011161373928189278,0.0020528999157249928,-0.005759331863373518,0.007632025517523289,-0.004776132293045521,-0.001082893810234964,-0.012406818568706512,-0.01088247261941433,-0.0027014201041311026,-0.0005158669664524496,0.002592280972748995,-0.005404189229011536,0.004872848279774189,0.00917089357972145,0.007047123275697231,-0.011798779480159283,-0.0005605220794677734,-0.010115459561347961,-0.006597840692847967,0.01233995147049427,-0.009042879566550255,2.1361393010010943e-05,0.003013110952451825,0.0052175214514136314,0.0015979836462065578,-0.012406387366354465,-0.004297283012419939,0.0005745328962802887,-0.01032435242086649,-0.0037274726200848818,-0.01183929480612278,-0.010617343708872795,-0.002563400426879525,-0.009278192184865475,0.001817001379095018,0.004930811934173107,0.007768083363771439,-0.007532417308539152,-0.008410132490098476,-0.010017902590334415,0.00349687272682786,0.005301006603986025,-0.011890956200659275,0.011143234558403492,-0.011374984867870808,0.0010739244753494859,0.005362342577427626,0.009502662345767021,0.005559271201491356,0.007800134364515543,-0.004030456766486168,0.008139489218592644,-0.01054317131638527,0.010168605484068394,0.0013370160013437271,0.008169115521013737,-0.0011339910561218858,0.003704754402860999,0.0006405905587598681,0.005956735461950302,-0.010642382316291332,-0.011210163123905659,-0.006383896339684725,-0.008620066568255424,0.009583713486790657,-0.0073068286292254925,0.012051049619913101,-0.004185149911791086,-0.008215838111937046,0.007353133987635374,0.004002050030976534,-0.00014545854355674237,0.001376712927594781,0.0055127572268247604,-0.006985036190599203,0.012610678561031818,0.011978600174188614,0.003775085788220167,-0.007772116921842098,0.004400000907480717,-0.010919777676463127,-0.01208081841468811,-0.00637794891372323,-0.000921868602745235,0.009358836337924004,0.005685085896402597,0.006218177266418934,-0.0019125918624922633,-0.003968932665884495,-0.0032452282030135393,0.01245722733438015,-0.01165479514747858,0.009297683835029602,0.0019277794053778052,-0.0017207172932103276,0.005580055061727762,-0.00048872793558985,0.009297280572354794,0.010007153265178204,-0.0021841966081410646,-0.0058572483249008656,0.0023662701714783907,0.010549587197601795,-0.007246198132634163,0.0031965950038284063,0.003496652701869607,0.006099518854171038,-0.009280851110816002,0.005666929297149181,0.010559502057731152,-0.008090609684586525,-0.006663646083325148,0.012086978182196617,-0.008098521269857883,0.009075989946722984,-8.583848102716729e-05,-0.006299748085439205,0.009580178186297417,-0.0012403930304571986,0.0004318265710026026,-0.003531986614689231,0.002414387185126543,-0.008513957262039185,-0.002722372068092227,0.01200982928276062,-0.006105480249971151,0.004041268024593592,-0.004400715231895447,0.006813374813646078,-0.009538381360471249,0.0118847182020545,-0.001312133390456438,-0.006812248844653368,-0.010972493328154087,-0.008445915766060352,0.0005119266570545733,-0.004197483882308006,0.008426481857895851,-0.0017237591091543436,-0.006314754020422697,0.0030612268019467592,0.005374243017286062,-0.00833513867110014,-0.008288977667689323,-0.011591175571084023,0.0062104519456624985,0.004226097837090492,-0.0005872679757885635,0.008810961619019508,0.007827263325452805,0.002219818765297532,0.009419322945177555,-0.007443420588970184,-0.009840929880738258,-0.005813905969262123,-0.011211413890123367,0.0008252232801169157,0.011015940457582474,-0.011679981835186481,-0.009560322389006615,-0.0011605945182964206,0.010957153514027596,-0.004648484289646149,0.0002549641067162156,-0.01165887899696827,-0.008954139426350594,0.0123545341193676,0.011822283267974854,-0.012578773312270641,0.011544114910066128,0.0035103338304907084,0.00943151768296957,-0.0010665409499779344,0.00039990246295928955,-0.0003246679261792451,0.004116677679121494,-0.009140034206211567,-0.011962017975747585,-0.004919036757200956,0.0052416049875319,-0.007549815811216831,0.004512751009315252,0.012057356536388397,-0.010266094468533993,0.004368115682154894,-0.0013674069195985794,0.009467163123190403,-0.008183681406080723,0.004919304978102446,0.008717630989849567,0.011412975378334522,0.004554292187094688,-0.00022791513765696436,0.002755409572273493,0.009334924630820751,0.0016994609031826258,-0.012127750553190708,0.010951003059744835,0.004803444724529982,0.00449736975133419,-0.007286477833986282,0.0040036155842244625,-0.002773955464363098,0.0037410645745694637,-0.010139714926481247,0.003832066198810935,0.01249709539115429,-0.011744008399546146,0.011900125071406364,-0.0022828890942037106,0.00949766393750906,0.007287205196917057,0.0018042185110971332,0.006163204554468393,0.009751023724675179,-0.002333476208150387,-0.004283364862203598,0.004371889401227236,0.007842013612389565,0.006639901548624039,0.007629497908055782,-0.0015365388244390488,0.008184841834008694,-0.009587152861058712,0.0012418478727340698,-0.012422051280736923,-0.004337545018643141,-0.003459681523963809,-0.0027192276902496815,0.004985579289495945,-0.0028767315670847893,-0.0013725680764764547,-0.006769589148461819,-0.0032327782828360796,-0.006972871255129576,-0.010960482060909271,0.0025822834577411413,0.004225879907608032,0.002930844435468316,-0.0010309881763532758,-0.0031756372191011906,0.009077241644263268,0.00026399485068395734,-0.0007671074126847088,-0.01232422236353159,-0.004144571255892515,-0.0030870214104652405,-0.0024817446246743202,0.0019825014751404524,0.0008212363463826478,0.002754237735643983,0.0067236172035336494,0.007973209954798222,0.005497995764017105,0.01155279390513897,-0.012150619179010391,-0.007663605269044638,-0.012617124244570732,0.0037367737386375666,0.010137970559298992,-0.006560750305652618,0.01082809641957283,-0.011236503720283508,0.010994737967848778,-0.003785793436691165,-0.010159327648580074,-0.0004063646774739027,-0.006253605708479881,-0.0056017423048615456,-0.0049092951230704784,0.007644559256732464,0.0008538045221939683,-0.004858815111219883,0.00271248328499496,0.005339411552995443,-0.00589744234457612,-0.0024005945306271315,-0.009933286346495152,-0.008272416889667511,0.004414822440594435,-0.008347079157829285,0.0006672919262200594,0.00546039454638958,-0.00976414792239666,0.0016917635221034288,-0.006170319858938456,0.01181995589286089,-0.0004759441362693906,0.007729654666036367,0.001161581021733582,-0.011632264591753483,0.0032982942648231983,0.011338172480463982,0.002526385709643364,0.0080648735165596,0.009610838256776333,-0.007019940763711929,-0.007410089485347271,0.0027380725368857384,-0.0023358166217803955,0.008512211963534355,0.010094822384417057,-0.003876363392919302,-0.006878479849547148,0.006928019225597382,-0.005993340630084276,0.008013688959181309,-0.0020772647112607956,0.0041352529078722,-0.010411694645881653,0.0031285204458981752,-0.0013132555177435279,0.0021767443977296352,-0.008471987210214138,0.006014004349708557,0.009289078414440155,-0.007192166987806559,-0.010289590805768967,-0.012128903530538082,0.0035418954212218523,0.002787855686619878,0.0012965346686542034,-0.006764262914657593,-0.0026935264468193054,0.0025924176443368196,0.00011860462109325454,0.012465925887227058,-0.00928700901567936,0.004832208622246981,-0.00242671649903059,-0.0018626699456945062,0.005366261582821608,0.004832160659134388,0.012456058524549007,-0.009563086554408073,-0.010165242478251457,0.005632059648633003,0.001969490433111787,-0.005831181537359953,-0.010800226591527462,-0.010669841431081295,0.009955840185284615,-0.007949452847242355,-0.004626719746738672,-0.006889516953378916,-0.0034878861624747515,-0.010751291178166866,0.0005299404729157686,-0.010810564272105694,0.007864299230277538,-0.006753357592970133,0.001130376011133194,0.00974229909479618,0.003912909887731075,0.0008927297312766314,-0.004433473106473684,-0.004189775791019201,0.004369199275970459,0.012637733481824398,0.004201001487672329,0.0015673211310058832,0.005978132598102093,-0.0007797634461894631,-0.011137407273054123,0.0015864187153056264,0.011671449057757854,-0.008161666803061962,0.004926454275846481,-0.007641369942575693,0.0009863018058240414,-0.010121784172952175,-0.0013396086869761348,0.006620408967137337,-0.0037072142586112022,0.004254049155861139,0.007658825721591711,0.011089470237493515,-0.006567728240042925,-0.002349686110392213,-0.008685518056154251,0.012587611563503742,0.010914130136370659,0.0010947281261906028,0.008726563304662704,0.0005908507737331092,0.0032387918327003717,-0.010500108823180199,0.006474661640822887,-0.009419815614819527,0.008231669664382935,0.007046182174235582,0.005242434795945883,-0.011811926029622555,-0.004991258028894663,-0.006010596640408039,-0.0035161657724529505,-0.010393542237579823,0.011262820102274418,0.0012656246544793248,-0.005040301941335201,-0.0027982364408671856,-0.001546938787214458,0.0023358454927802086,0.00013526745897252113,0.010456159710884094,-0.00030450092162936926,0.012359115295112133,0.008960308507084846,-0.007489786949008703,0.010831575840711594,-0.009767797775566578,0.007965155877172947,-0.0032765837386250496,0.00966110173612833,0.009289644658565521,0.007680519018322229,0.007452202960848808,-0.004883849062025547,-0.010641601867973804,-0.0024707093834877014,-0.0082523999735713,0.005009859334677458,-0.0038875616155564785,0.012167545035481453,0.003676596563309431,0.00805274210870266,-0.009291507303714752,0.009336468763649464,0.010749624110758305,-0.00025979577912949026,0.0028015137650072575,0.006867852993309498,-0.008117686957120895,0.0001426485541742295,-0.0025370765943080187,-0.008960542269051075,-0.0033239529002457857,-0.010919868014752865,-0.011960400268435478,-0.009168745949864388,0.0119377626106143,0.0014479052042588592,0.012037224136292934,-0.0017304959474131465,-0.004815732594579458,0.00019175639317836612,-0.0015140585601329803,-0.010052542202174664,0.0036081597208976746,-0.007143874187022448,0.003113646525889635,0.003908473066985607,-0.00873006321489811,-0.011117737740278244,0.0071203699335455894,-0.0009189145057462156,-0.011212742887437344,0.01254904456436634,-0.011173829436302185,0.005016248673200607,0.01233744341880083,-0.006584176328033209,-0.009088555350899696,-0.009500349871814251,-0.005015398375689983,-0.01018467079848051,0.004898275248706341,-0.011180030182003975,0.0001633807987673208,0.012553608044981956,0.008013932034373283,0.003011927241459489,-0.004885279107838869,0.0031177280470728874,0.0006999509641900659,-0.0019077728502452374,-0.009481137618422508,0.00979587435722351,-0.0014488311717286706,-0.007794021163135767,-0.0033622169867157936,-0.0021256485488265753,0.008287516422569752,0.00584446219727397,0.006706024054437876,-0.012552700005471706,-0.002319623716175556,-0.0006985368672758341,-0.01234880555421114,-0.006315942388027906,0.006550950929522514,-0.009358979761600494,0.0007549626752734184,-0.0073739392682909966,-0.012455661781132221,-0.006638547405600548,0.012091879732906818,0.007515728939324617,0.011599423363804817,-0.0002877693623304367,-0.010041823610663414,0.0011489941971376538,-0.001200118102133274,0.008734663017094135,-0.010259323753416538,-0.00034086775849573314,-0.00889888871461153,-0.004560920409858227,0.006045419257134199,-0.0005256109870970249,-0.0030827431473881006,-0.0026371520943939686,-0.0009807070018723607,0.007383443880826235,0.010117909871041775,0.011484172195196152,0.007258143275976181,-0.00471598282456398,0.004711342044174671,-0.0016145932022482157,-0.006324186455458403,0.00864113587886095,-0.011776079423725605,0.01013765949755907,-0.0011458214139565825,0.003386980853974819,0.004037041682749987,0.009949619881808758,0.0034343048464506865,0.0028820522129535675,-0.011115978471934795,0.0004606644797604531,-0.008945867419242859,0.006005440838634968,0.00024035380920395255,0.0044961972162127495,-0.011755021288990974,-0.010727125220000744,0.005280525889247656,-0.010991785675287247,-0.011066938750445843,-0.012593461200594902,0.011892078444361687,0.0062612504698336124,-0.0037597715854644775,-0.00491956016048789,-0.003517275443300605,0.007110546808689833,0.0043082027696073055,-0.007747762370854616,-0.008198453113436699,-0.010048666037619114,0.003958073910325766,0.006550254765897989,-0.005886881146579981,-0.012272507883608341,-0.010719806887209415,0.011935765855014324,-0.0052502830512821674,0.006879578810185194,0.0036075557582080364,-0.0027941311709582806,-0.007563482038676739,-0.009212752804160118,0.0031939055770635605,0.0070125637575984,0.003914583940058947,0.0009634902817197144,-0.011604038067162037,0.011789483949542046,0.007464673835784197,-0.005442039109766483,0.012089158408343792,0.002422607969492674,0.0019434690475463867,0.006132649723440409,0.007850934751331806,0.003946864046156406,-0.008958294987678528,-0.003800136037170887,0.010973598808050156,-0.006544492207467556,-0.002886976581066847,-0.0016324581811204553,-0.0012259195791557431,0.0030986217316240072,0.011395811103284359,-0.0066207884810864925,-0.00964342150837183,-0.007706181611865759,0.009887488558888435,0.003728907322511077,-0.0054226890206336975,0.008056503720581532,0.009197494946420193,0.008842290379106998,0.010854646563529968,-0.006305844057351351,0.006262006238102913,-0.0009641837095841765,0.008605878800153732,0.005599070340394974,0.006939586251974106,0.0038539739325642586,-0.008436772972345352,0.0013256157981231809,0.012522068805992603,0.011240888386964798,-0.011355867609381676,-0.00830075889825821,-0.009242098778486252,0.00586249865591526,0.008225489407777786,-0.007222254294902086,0.0004782336181961,0.009054315276443958,0.006073912605643272,0.0015726234996691346,0.0027743137907236814,0.0004052678996231407,-0.00478469580411911,0.0020040874369442463,0.004920216742902994,0.009623855352401733,0.0034793387167155743,0.006562292110174894,-0.008597197011113167,-0.0011067742016166449,-0.012676773592829704,-0.006531970109790564,0.005614133086055517,0.012394940480589867,-0.010008598677814007,-0.0021935016848146915,0.007801479659974575,-0.007202859967947006,0.0018453944940119982,0.006156777497380972,0.0032619829289615154,-0.007624886464327574,-0.0035568992607295513,0.0077370526269078255,0.001756868907250464,-0.012484361417591572,0.007182787172496319,-0.011518037877976894,0.006317257881164551,-0.007229149341583252,0.011825737543404102,-0.0033428282476961613,-0.004079185891896486,-0.008635062724351883,-0.0048644351772964,0.010058820247650146,0.012961380183696747,-0.003350945422425866,-0.000991460052318871,0.005850986577570438,0.009804945439100266,0.0025789281353354454,-0.00243540876545012,-0.002044652821496129,0.0052287643775343895,-0.012209675274789333,0.0033172378316521645,-0.0034561967477202415,0.007852260023355484,-0.010172189213335514,0.00230187620036304,-0.0005165557959116995,0.0035533697810024023,-0.011109438724815845,0.001972304191440344,0.001506564556621015,0.0014107099268585443,0.002569291740655899,0.004494179505854845,0.00823513139039278,-0.005364301148802042,0.008560984395444393,0.00038022338412702084,-0.010330595076084137,-0.011067346669733524,-0.003950279671698809,0.007533778436481953,0.0053855180740356445,0.0077887591905891895,0.0006440043216571212,-0.0015293564647436142,-0.00849242601543665,-0.004074486903846264,-0.0016055621672421694,-0.010112893767654896,-0.006870273966342211,0.0026267983485013247,0.0058297873474657536,0.012571880593895912,0.010904110036790371,0.0034909071400761604,-0.0021228559780865908,0.0033729805145412683,0.007130874320864677,-0.009769750759005547,-0.002410935005173087,0.008678454905748367,-0.0031090176198631525,0.0015843311557546258,0.0021994931157678366,-0.008215926587581635,-0.0037121314089745283,-0.004348394460976124,-0.012182722799479961,-0.012237714603543282,0.008789824321866035,-0.005595131777226925,0.00038412294816225767,-0.004708690103143454,0.011471412144601345,-0.006158287171274424,-0.0014735462609678507,0.009676200337707996,0.008660874329507351,-0.007838467136025429,0.007839787751436234,-0.0009413745137862861,-0.00011127964535262436,-0.009092328138649464,-0.010485872626304626,0.006036269944161177,5.247787703410722e-05,-0.0014507846208289266,0.0060741291381418705,0.006979730445891619,-0.008570478297770023,0.0031533241271972656,-0.009034990333020687,0.006482068449258804,0.004206979181617498,0.011762715876102448,-0.010909988544881344,-0.011240433901548386,-0.005692338105291128,-0.006170075852423906,-0.006474008318036795,0.010240774601697922,-0.006359986495226622,-0.0057687340304255486,0.0065947421826422215,-0.0012519709998741746,0.007263433653861284,-0.011057236231863499,-0.00043014995753765106,-0.011716675944626331,-0.011178867891430855,0.010185688734054565,-0.009094808250665665,0.0008399871876463294,-0.0023427854757755995,-0.0037565568927675486,0.01038467325270176,-0.012027081102132797,0.004349070135504007,0.012146218679845333,0.0017948673339560628,0.011358537711203098,-0.011068575084209442,-0.0018651935970410705,-0.0060743712820112705,0.0059828502126038074,0.012372273951768875,-0.0061039128340780735,0.004070845898240805,-0.00756368413567543,0.0018027989426627755,-0.0008173541282303631,0.012075262144207954,0.0030932596419006586,-0.0035078406799584627,-0.009708253666758537,-0.00844292901456356,-0.006633310113102198,-0.006270016543567181,0.009188235737383366,0.001774756470695138,0.0006430606008507311,-0.009477268904447556,0.00950999278575182,0.005940592382103205,-0.010549047030508518,0.005673104431480169,0.001330888131633401,-0.010306652635335922,-0.0008268957608379424,-0.00022102909861132503,-0.0086687495931983,0.011201184242963791,0.008883104659616947,0.00416527921333909,-0.0011190122459083796,-0.0023406180553138256,0.003721928456798196,0.00108881457708776,-0.01117374561727047,0.00018529605586081743,0.007720283232629299,-0.0010244406294077635,-0.011549888178706169,0.007244891487061977,-0.007582416757941246,-0.006215585861355066,-0.008496520109474659,-0.00426194304600358,0.006476331502199173,0.0004513088788371533,-0.0075248428620398045,0.009553216397762299,0.009619586169719696,0.009420918300747871,-0.0066935536451637745,-0.0012700323713943362,0.012346620671451092,0.007130897603929043,-0.01198978815227747,-0.011184776201844215,-0.0008669607923366129,0.010359141044318676,0.0008676198776811361,-4.920332139590755e-05,-0.01007804088294506,0.003936420194804668,0.008638331666588783,-0.002778641413897276,0.006977497600018978,0.012284675613045692,-0.007292213384062052,0.0005260562757030129,-0.005192651879042387,0.007564593572169542,0.0019005731446668506,0.0038249236531555653,0.00787425972521305,-0.002646736102178693,0.011093187145888805,0.0011250708485022187,-0.008764788508415222,0.005296343006193638,0.00759644340723753,-0.004796941764652729,0.009628690779209137,0.010613897815346718,-0.005712292157113552,0.012744138948619366,-0.00891038030385971,-0.007609350606799126,-0.007893932983279228,0.010098984465003014,0.0038485396653413773,-0.008729050867259502,-0.001596303191035986,0.0027354347985237837,-0.010488039813935757,0.009649652056396008,0.0075898487120866776,0.00017499901878181845,0.011837834492325783,-0.002214724663645029,0.012311589904129505,0.004234654828906059,0.0034050652757287025,-0.008589721284806728,0.00976479146629572,-0.0017480867682024837,-0.008672011084854603,-0.012296699918806553,0.001681639812886715,0.00111890840344131,0.005835446994751692,0.00992385484278202,-0.010251777246594429,0.0061423806473612785,-0.007982132956385612,0.009402086958289146,0.008296605199575424,0.0010219842661172152,0.005701100919395685,-0.004572116769850254,-0.0008540713461115956,0.008636516518890858,-0.000799326691776514,-0.0036586285568773746,0.0001468574337195605,0.00853662472218275,-0.004236279521137476,-0.008415247313678265,0.005280079320073128,0.00811100285500288,-0.01030021347105503,-0.0067156897857785225,-0.00921798124909401,-0.003993913531303406,-0.0012313865590840578,0.006313754711300135,0.003816678887233138,0.0031456202268600464,-0.003722143592312932,0.008715544827282429,-0.0005927466554567218,0.012236980721354485,0.0034453454427421093,-0.009412070736289024,0.00446136062964797,-0.004005484748631716,0.005014362279325724,-0.010949625633656979,-0.007752486504614353,0.009388013742864132,-0.006860805209726095,0.008914249017834663,-0.00541082676500082,0.003656658809632063,0.004721279256045818,0.00019857454753946513,-0.0050648897886276245,-0.007442106958478689,-0.011974690482020378,-0.00514620216563344,0.0038037491030991077,0.01108566951006651,0.009277764707803726,0.006866574287414551,0.007482013665139675,0.004335703793913126,-0.005931975785642862,0.010584799572825432,0.004504895769059658,0.0017217537388205528,-0.009763116016983986,-0.0012301662936806679,-0.001067935023456812,0.00925331749022007,0.001198938931338489,-0.0031144972890615463,0.012114499695599079,-0.009914754889905453,-0.002005158457905054,-0.011679967865347862,0.00611465610563755,0.01032612007111311,-0.005920276511460543,0.008833498694002628,-0.005604040343314409,0.010137105360627174,0.006198956165462732,0.0074102492071688175,-0.012537071481347084,0.011573869735002518,0.005619863048195839,-0.004991340916603804,0.008365907706320286,-0.0056596980430185795,0.009462344460189342,-0.009930524975061417,0.00514200096949935,0.001068601617589593,-0.010364420711994171,-0.006108666304498911,-0.012219496071338654,-0.0007966536795720458,-0.004596306011080742,0.002712107729166746,-0.005170916207134724,-0.0048332600854337215,0.006333452649414539,-0.01144136767834425,0.010426216758787632,0.008901472203433514,0.0041573792695999146,0.002587033435702324,0.00999422837048769,-0.0080574294552207,-0.010526477359235287,-0.006538895424455404,0.0075403666123747826,-0.011985476128757,0.0020577728282660246,0.012641612440347672,0.0089557571336627,0.0005305554950609803,-0.011071313172578812,0.008459904231131077,0.0026250272057950497,-0.009760836139321327,-0.010234303772449493,0.010351953096687794,0.004195829853415489,0.00838403683155775,0.009577799588441849,0.0017715339781716466,0.00040142968646250665,-0.0018045097822323442,-0.004702982492744923,-0.0011751350248232484,0.007370693143457174,0.0027363586705178022,0.010505196638405323,-0.0011100536212325096,0.0027566878125071526,0.00369643303565681,0.002530110767111182,0.005166437942534685,-0.006844819523394108,0.0003110152902081609,-0.010106486268341541,-0.002976367250084877,-0.00024885035236366093,0.0038817226886749268,0.011461736634373665,0.002598479622974992,0.006143087986856699,9.954484266927466e-05,0.003379981266334653,-0.010930618271231651,-0.0063165114261209965,-0.003558396827429533,-0.00071369344368577,-0.011609102599322796,-0.009197224862873554,-0.005694366991519928,0.012552167288959026,-0.003886208403855562,-0.00023069234157446772,-0.007129400968551636,0.0032371797133237123,-0.0053820181638002396,-0.007015002891421318,0.0006552827544510365,-0.012452478520572186,-0.012681654654443264,-0.007236247416585684,-0.0118048544973135,-0.009906136430799961,-0.004086760804057121,0.007700351998209953,0.0019366610795259476,0.00036585601628758013,-0.005281670019030571,0.010922715067863464,-0.0026802727952599525,-0.010534719564020634,0.002926527289673686,-0.009869971312582493,-0.003957739099860191,0.0001689088239800185,0.009514681994915009,-0.00015586751396767795,0.005456943064928055,0.012699565850198269,-0.00937633216381073,-0.005600393749773502,-0.0027236882597208023,-0.0021860755514353514,-0.0022043483331799507,0.010349048301577568,0.005312649998813868,0.002762255957350135,-0.004801662173122168,0.008328316733241081,0.011558552272617817,0.00820641964673996,-0.01261758990585804,0.0033569829538464546,-0.011478469707071781,-0.006162692792713642,-0.011187748983502388,0.0027061786968261003,0.004889426287263632,-0.0098592359572649,-0.0029026828706264496,-0.000990052241832018,-0.0033302553929388523,-0.009540255181491375,-0.0019257564563304186,0.006363268941640854,-0.011007605120539665,-0.010787240229547024,-0.0038154020439833403,0.01118847168982029,0.004227153491228819,0.0044060805812478065,-0.003525310195982456,0.0023818963672965765,-0.012403744272887707,0.0034939227625727654,0.010652455501258373,0.0029949736781418324,0.009661702439188957,0.005915140267461538,-0.009482407942414284,0.01044718362390995,-0.010853071697056293,0.0010943637462332845,-0.009123725816607475,-0.012666957452893257,-0.0019383028848096728,-0.005223346408456564,-0.0004721657605841756,0.0019167641876265407,-0.01163677778095007,-0.009652619250118732,0.0014475713251158595,-0.004004955757409334,0.005851685535162687,0.003881260985508561,0.008798959665000439,0.0048902095295488834,-0.0017927621956914663,0.004383801482617855,-0.005787921603769064,-0.004396210424602032,0.007875417359173298,-0.0011266780784353614,0.008063583634793758,0.008625734597444534,0.009219770319759846,0.010911354795098305,-0.0015525760827586055,-0.004620696883648634,0.0025163921527564526,-0.003042620373889804,0.0025674127973616123,0.00571853993460536,0.005108178593218327,-0.003133459948003292,-0.008161100558936596,-0.0015597883611917496,-0.009068318642675877,0.010212505236268044,-0.0038919332437217236,-0.008991816081106663,-0.012010683305561543,0.0037440743762999773,0.003392825135961175,-0.004092488903552294,-0.010906152427196503,-0.0023626440670341253,-0.004375123418867588,0.004740077070891857,0.0027033439837396145,-0.0029084987472742796,-0.006884317379444838,0.01248579565435648,-0.0008030763710848987,0.004954956937581301,-0.009121379815042019,-0.0005911523476243019,-0.012322726659476757,-5.675655120285228e-05,0.011650982312858105,-0.0030809263698756695,-0.011773588135838509,-0.012143001891672611,-0.003020027419552207,-0.008694912306964397,-0.011688018217682838,0.006752151995897293,-0.0010378125589340925,-0.0048788501881062984,0.01051038783043623,-0.009683228097856045,0.011984458193182945,-0.004467511549592018,0.01003588829189539,0.002621306339278817,0.008217855356633663,0.012262479402124882,-0.005498186219483614,0.011667117476463318,-0.002749853767454624,-0.0029584350995719433,-0.004066875670105219,0.0011609182693064213,-0.008535917848348618,0.0014323407085612416,0.0008800069335848093,0.006996304262429476,0.008583654649555683,-0.0016629588790237904,-0.0048479484394192696,-0.0060915229842066765,-0.007905552163720131,-0.011272748932242393,-0.004138575401157141,-0.005943517200648785,0.011824213899672031,0.001309955958276987,-0.004008846823126078,0.0020180048886686563,-0.009244932793080807,-0.0014992643846198916,0.003510290291160345,-3.0902887374395505e-05,-0.002439814154058695,0.01279496494680643,0.00993034802377224,0.0032390719279646873,0.0019303079461678863,0.003253593109548092,-0.0076077524572610855,-0.002180551877245307,-0.011408599093556404,-0.0005501805571839213,0.0016115412581712008,-0.006611274555325508,0.011880304664373398,0.01075661089271307,0.005828270222991705,0.0008715040166862309,0.00937261525541544,-0.009442861191928387,0.0074694035574793816,-0.009626463055610657,0.007418105844408274,-0.005704591050744057,0.009563238359987736,0.011311015114188194,-0.008886230178177357,-0.000882213469594717,0.01224485319107771,-0.00046157921315170825,0.009225878864526749,0.00230482779443264,-0.003075301181524992,-0.005533026996999979,-0.007426483556628227,0.006845074240118265,-0.002407609950751066,0.0005628146464005113,-0.0001877259201137349,0.0024781213141977787,0.009668399579823017,0.012330861762166023,-0.002030391013249755,0.008591406047344208,0.006833821069449186,0.0022006898652762175,0.011723857372999191,-0.00762176001444459,-0.00961850956082344,0.0090558473020792,-0.0016691061900928617,0.009013110771775246,0.00994968879967928,-0.0112858135253191,0.009652869775891304,-0.001368604600429535,0.0002645058848429471,0.003188468748703599,0.010814979672431946,-0.012246117927134037,-0.0005693052662536502,0.004788361955434084,0.00568374153226614,0.00483078183606267,-0.00939840730279684,-0.005187246948480606,-0.003807742614299059,0.0075808377005159855,-0.005826329346746206,-0.007544752210378647,0.011552316136658192,-0.012554315850138664,0.012984282337129116,0.004730903543531895,0.008493533357977867,-0.004777922760695219,-0.012057770043611526,0.006215451285243034,0.008797930553555489,0.006284739822149277,-0.008977093733847141,0.006792769767343998,0.00715163117274642,0.004070162773132324,0.007141625043004751,0.00906285922974348,0.002833349397405982,-0.010248604230582714,-0.0001234455412486568,-0.010797606781125069,-0.0022065623197704554,-0.0021506843622773886,-0.01097764354199171,-0.0037884225603193045,-0.009773777797818184,0.007856159470975399,0.011365333572030067,-0.0108156967908144,0.011563063599169254,0.0005128568154759705,-0.00520286662504077,-0.010807286016643047,-0.0001187524976558052,0.007459564600139856,0.005366479512304068,-0.011527515016496181,-0.0108670424669981,-0.0023498693481087685,-0.005273164249956608,-0.00681060878559947,-0.005537651013582945,0.007670472376048565,0.01099483110010624,-0.002275689272210002,0.010362775065004826,-0.0043910532258450985,-0.0004154169000685215,-0.007261777296662331,0.0033235789742320776,0.012051587924361229,0.0024160167668014765,-0.003840438788756728,0.0036025862209498882,-0.009824324399232864,0.009741724468767643,-4.7813977289479226e-05,-0.001039288705214858,0.0022972156293690205,0.003245521569624543,-0.01049936842173338,0.004813489969819784,-0.006446244660764933,0.005712470039725304,0.008239666931331158,0.007758806925266981,0.0011149996425956488,0.00034297228557989,-0.009219068102538586,0.006942089181393385,-0.005950425285845995,-0.00024621415650472045,-0.005566534120589495,-0.009419926442205906,0.003136965213343501,-0.01102392841130495,0.006713791750371456,-0.004300966858863831,-0.012248734012246132,0.0007593277841806412,-0.011211680248379707,-0.005274058785289526,0.005625629797577858,-0.01090586930513382,0.008500420488417149,-0.01273048110306263,-0.006495319306850433,0.005994705483317375,-0.004738241899758577,-0.010165650397539139,-0.0036277633626013994,-0.005795516073703766,0.008747055195271969,-0.004612572956830263,0.007414191961288452,0.00998905673623085,-0.001465837936848402,0.010543407872319221,-0.0030922547448426485,0.011989639140665531,-0.010376767255365849,0.004788301419466734,-9.606125968275592e-05,-0.0030305874533951283,0.0031084788497537374,0.00518143130466342,-0.01283021830022335,-0.008701312355697155,0.005327194929122925,0.004035993479192257,0.011703052558004856,0.007122082635760307,0.01174940075725317,0.005145082715898752,-0.0047262925654649734,-0.009747419506311417,0.007239068858325481,0.003948319237679243,-0.011303777806460857,-0.003519011428579688,0.012085478752851486,0.00045720874913968146,-0.0015091641107574105,-0.0006015436956658959,-0.006909762974828482,-0.0031342317815870047,-0.0029367010574787855,-0.011104932986199856,0.006890838500112295,-0.0016533995512872934,0.008482047356665134,0.008980873040854931,-0.006813110318034887,0.004314966965466738,-0.0006518292939290404,0.010050923563539982,-0.007050519809126854,0.004589938558638096,0.0032819758635014296,-0.0047607519663870335,-0.009035428054630756,0.004356175195425749,0.006345344707369804,-0.004674730822443962,0.004041249863803387,-0.0024529944639652967,0.0054209185764193535,-0.007291849702596664,0.010080330073833466,-0.005514048505574465,-0.0029802690260112286,-0.011102707125246525,-0.00994654931128025,0.0005984377930872142,-0.005809471011161804,0.008513608016073704,-0.011757446452975273,-0.0027113265823572874,-0.004015408456325531,-0.011611386202275753,-0.009159160777926445,-0.0020257083233445883,0.0002500241680536419,-0.0021959838923066854,0.0009570841793902218,0.002356019103899598,-0.012639811262488365,-0.0010161318350583315,0.011704311706125736,0.0004019738407805562,0.004537051543593407,-0.004859537817537785,0.006951101124286652,0.0069613223895430565,0.0005422956310212612,0.012053955346345901,-0.009568464942276478,-0.012247597798705101,0.006792374420911074,0.00776242557913065,-0.009735858999192715,-0.00609339727088809,-0.012454553507268429,-0.005356463138014078,0.006972843781113625,0.0005437807412818074,-0.003947472665458918,-0.0032689194194972515,-0.0127334576100111,-0.00527358241379261,0.0035540899261832237,0.01179144624620676,0.008833776228129864,-0.012231767177581787,0.01007383968681097,0.007164984475821257,0.007001602556556463,-0.0011495343642309308,-0.0027688199188560247,-0.00528511730954051,-0.011284840293228626,-0.006934856064617634,-0.006407834589481354,-0.00036581107997335494,0.00636339234188199,-0.0005501298583112657,-0.011116208508610725,0.011774502694606781,0.011419812217354774,0.0074182250536978245,0.012467988766729832,0.0009869106579571962,0.01165799330919981,-0.010845134034752846,-0.00358996307477355,-0.007094933185726404,-0.007932433858513832,-0.00942326057702303,0.0028990923892706633,0.007141374982893467,0.002009669318795204,-0.008990537375211716,0.007949868217110634,0.0035336571745574474,-0.002816244727000594,0.004519678186625242,-0.006027047522366047,-0.003848011838272214,0.01057389471679926,-0.005350192543119192,-0.0006608326802961528,0.009965196251869202,0.005292393267154694,-0.01110178604722023,-0.008969709277153015,-0.012567081488668919,0.003208095906302333,-0.0012737734941765666,-0.00938344094902277,0.011543207801878452,0.0007500402862206101,-0.006687949411571026,-1.963391332537867e-05,0.004415255039930344,-0.010970928706228733,-0.005765968933701515,0.007831290364265442,-0.0010321730514988303,0.0011199552100151777,-0.001681782421655953,-0.011768925003707409,-0.008657456375658512,-0.0014718384481966496,-0.007633313070982695,-0.01171924453228712,0.008649783208966255,0.012189955450594425,0.007511364296078682,0.00893630925565958,-0.00651035038754344,0.011906659230589867,-0.007714036386460066,0.011621757410466671,0.012808547355234623,0.005470787174999714,0.012179259210824966,0.0016081994399428368,-0.006146325264126062,-0.0019068713299930096,0.0021118479780852795,-0.011125738732516766,0.0026643865276128054,0.01193828321993351,-0.007975961081683636,0.007265784312039614,0.010254470631480217,0.011279684491455555,0.011617797426879406,0.0005518755642697215,0.012103050015866756,0.006481650285422802,-0.008614902384579182,-0.0005436805658973753,0.005481468979269266,-0.006511505227535963,0.003675146959722042,0.004264655523002148,-0.00843091495335102,0.0017715798458084464,0.007051374763250351,0.0002381087397225201,-0.012385777197778225,-0.012536254711449146,-0.0037636866327375174,0.01093000452965498,-0.007098698988556862,0.0031634022016078234,-0.007244574837386608,-0.0049290903843939304,0.008501129224896431,0.005666885059326887,-0.01036248542368412,-0.00180208426900208,-0.011977524496614933,-0.00046420717262662947,0.004152577370405197,-0.00971064530313015,-0.005399346351623535,-0.0027702408842742443,0.010708820074796677,0.01239057071506977,-0.011758018285036087,0.0065892040729522705,-0.0035291744861751795,-0.0028977615293115377,0.006296280771493912,0.010395467281341553,0.011304911226034164,0.001956637017428875,-0.0036989273503422737,0.007247884292155504,-0.00642608106136322,0.0015022429870441556,-0.0036740938667207956,0.003698379499837756,-0.00694675138220191,-0.008045520633459091,0.010666804388165474,-0.01010110229253769,0.00020614208187907934,-0.007057898212224245,-0.01168918702751398,-0.011781907640397549,-0.008223773911595345,0.009373253211379051,-0.005526631139218807,0.011375855654478073,0.0020334783475846052,-0.001573244808241725,0.0020934036001563072,0.0004748731153085828,0.006612031254917383,-0.005548314191401005,-0.003759643528610468,0.009909278713166714,0.011407557874917984,0.009911049157381058,-0.0021351666655391455,0.007176685146987438,-0.0006998098688200116,-6.445524923037738e-05,-0.007658673916012049,0.0021483192685991526,-0.008043239824473858,-0.0042844186536967754,0.009026410058140755,-0.007497997023165226,-0.010953960008919239,-0.010976581834256649,0.0112526286393404,0.0001670126075623557,-0.00226982100866735,0.00797205325216055,0.008647925220429897,-0.004317455925047398,0.004885937087237835,0.0069267358630895615,0.003935995511710644,-0.008806644938886166,0.009540980681777,0.001047623693011701,-0.0054238890297710896,-0.0019559108186513186,-0.011788269504904747,-0.009516621008515358,0.006705164909362793,-0.012863868847489357,-0.002335808938369155,0.0003830345522146672,-0.01166753564029932,0.011642838828265667,-0.007026377599686384,-0.0050684004090726376,-0.00501256575807929,-0.006896096281707287,-0.012763828970491886,0.00582839036360383,0.011731542646884918,-0.00718538137152791,0.003996449988335371,0.006230521015822887,0.00887990277260542,-0.002043631859123707,-0.0049203806556761265,-0.004578880034387112,0.00521024689078331,0.007915173657238483,-0.008423480205237865,-0.0036160447634756565,0.010264704003930092,0.007806397974491119,0.01230949442833662,0.006523336283862591,-0.002745759906247258,0.0023012508172541857,0.004113033413887024,-0.01072667632251978,0.0012098297011107206,0.005380607210099697,-0.008539625443518162,0.007110337261110544,0.0022100654896348715,0.011517242528498173,-0.011480184271931648,-0.005885457620024681,0.0026652414817363024,-0.004939647391438484,0.005484508816152811,0.006522003095597029,-0.01023111306130886,0.0002628216752782464,9.584118379279971e-05,-0.00336817791685462,0.010845990851521492,0.008194133639335632,0.005029112566262484,0.005446090828627348,-0.0009389425977133214,0.010758304968476295,0.004976324271410704,0.005882947240024805,0.00924307107925415,-0.005745578091591597,0.00782062392681837,-0.00779277179390192,-0.00388781214132905,-0.004154284950345755,0.01212223432958126,0.00909988209605217,0.005094608757644892,0.005669470876455307,0.0015016220277175307,0.011273660697042942,-0.00019000485190190375,-0.003022979013621807,-0.00854458473622799,0.007326521445065737,0.005984531249850988,-0.0029059932567179203,-0.01205839216709137,0.008675445802509785,-0.012388892471790314,0.005233182106167078,0.01187187246978283,-0.0016574319452047348,-0.006733590736985207,0.005200590007007122,0.00800780113786459,0.0011015994241461158,0.011834989301860332,-0.01153930090367794,-0.00018242392980027944,0.005465094465762377,0.009096760302782059,-0.008187682367861271,0.007630985230207443,0.0012426176108419895,-0.002597757847979665,-0.009434523060917854,0.009216063655912876,-0.008783416822552681,-0.004869663156569004,-0.005463914014399052,0.009396451525390148,0.004475974012166262,0.007571806665509939,-0.006200488191097975,0.003326818812638521,0.0019817117135971785,0.0087213646620512,0.010320533998310566,-0.012494111433625221,0.004481867887079716,-0.011408979073166847,0.001259776297956705,-0.0053022559732198715,-0.0048928773030638695,-0.0037115104496479034,0.0031032764818519354,-0.004264757968485355,0.005891620181500912,-0.002399369142949581,-0.011024023406207561,0.007257872261106968,-0.005374742206186056,-0.0018403971334919333,0.004597129300236702,-0.004293679725378752,-0.011224551126360893,-0.0031687391456216574,0.011353440582752228,0.003608135972172022,0.004265574272722006,0.0032195060048252344,-0.007893545553088188,-0.002380832564085722,0.006069761700928211,-0.01021093875169754,-0.005774814635515213,-0.005772997625172138,-0.0017519901739433408,0.012105120345950127,-0.011091451160609722,0.00034250441240146756,-0.008375267498195171,0.011812090873718262,-0.009829524904489517,-0.0025176184717565775,0.006035847123712301,0.005265565123409033,-0.002036313759163022,-0.003928253892809153,-0.0026786718517541885,-0.006142929662019014,-0.007598531432449818,-0.00042205306817777455,-0.005868375767022371,-0.005350580904632807,0.004127556923776865,0.012055067345499992,0.0028086313977837563,-0.01061027031391859,-0.010707509703934193,0.011578082107007504,-0.005114360712468624,-0.01039083581417799,0.0024360427632927895,0.0031705338042229414,0.003680035239085555,-0.005998929031193256,-0.012440335936844349,0.011682440526783466,-0.006346768233925104,0.004450337961316109,0.00511010829359293,0.0026669728104025126,-0.004740125499665737,-0.005985104478895664,0.0024018322583287954,0.009153240360319614,0.011139355599880219,-0.010205667465925217,-0.008777015842497349,0.011320210061967373,0.0059745735488832,0.009797449223697186,-0.007542849518358707,0.0022818702273070812,0.00513645401224494,0.004641295876353979,-0.002181776100769639,-0.012330517172813416,0.002098610159009695,-0.006331480573862791,-0.0012430791975930333,0.01162073202431202,-0.002577811712399125,0.00866028107702732,-0.007931013591587543,0.004438413772732019,0.012190816923975945,-0.010102996602654457,-0.012504243291914463,-0.0016774444375187159,-0.010360416024923325,0.006355045363306999,0.010549213737249374,-0.001658536377362907,-0.006101498380303383,-0.0016379870939999819,0.005741907749325037,-0.01244492270052433,0.0023718124721199274,0.003017912618815899,0.003642372554168105,-0.006422726437449455,0.005618509370833635,-0.010243593715131283,-0.007639394141733646,0.009571998380124569,0.005987729877233505,-0.01236498448997736,-0.0064631435088813305,-0.007334561087191105,-0.005911404732614756,-0.006524743977934122,-0.011106380261480808,-0.0011192192323505878,0.005829621572047472,0.0027448683977127075,0.004367399960756302,-0.01070448849350214,0.011502483859658241,0.00851683970540762,0.0076409196481108665,0.00803776178508997,0.01094586867839098,0.0011512946803122759,-0.007614326663315296,0.00289134681224823,0.006184222176671028,0.0060401801019907,0.00032685959013178945,-0.011199875734746456,-0.00345476227812469,0.010774585418403149,0.0021707850974053144,0.0008996804244816303,-0.0058472901582717896,-0.0034058825112879276,0.009965152479708195,0.004162916913628578,0.007207391783595085,-0.0012172890128567815,0.0032102204859256744,-0.006464045494794846,0.005232170689851046,-0.001930961268953979,-0.0015928971115499735,0.0036525088362395763,0.010834823362529278,-0.011435913853347301,0.007895976305007935,-0.005295868497341871,-0.001517565455287695,-0.012315386906266212,-0.005088616628199816,-5.132369551574811e-06,-0.011314942501485348,-0.000244934723014012,0.010879019275307655,-0.010003000497817993,0.006771738175302744,-0.0023015732876956463,0.003825616789981723,-0.0060108560137450695,-0.008719310164451599,-0.008659730665385723,-0.010991017334163189,-0.008061020635068417,0.004245210904628038,0.009740598499774933,0.00803831685334444,0.00474770599976182,-0.00990400742739439,-0.005327204708009958,-0.004809332080185413,-0.006321886088699102,0.0004399811150506139,0.0009574805735610425,-0.003648977493867278,-0.0038221816066652536,0.008282539434731007,0.007268259767442942,-0.005092924926429987,0.0103527270257473,0.011232228949666023,-0.0047573912888765335,-0.003980270586907864,0.00014160640421323478,0.011229067109525204,0.009540525265038013,-0.01002239529043436,-0.0026555568911135197,0.0014636059058830142,0.00017856090562418103,-0.007656254805624485,0.009332094341516495,0.0045126923359930515,0.008631875738501549,0.009164505638182163,0.006330921780318022,-0.0015049478970468044,0.0028483413625508547,-0.008600766770541668,0.004488534759730101,-0.008114644326269627,0.0048438552767038345,-0.007024061866104603,-0.009791283868253231,-0.008573728613555431,-0.01276228204369545,0.005585918202996254,0.005829197354614735,0.00032741896575316787,-0.008665838278830051,-0.010646684095263481,-0.012307463213801384,-0.00852517131716013,0.009990572929382324,-0.006598278880119324,-0.003734012134373188,-0.010003938339650631,-0.007046941667795181,0.00045141958980821073,0.0027975812554359436,-0.006478472147136927,-0.011310768313705921,-0.0027873958460986614,-0.00688358535990119,-0.007280675228685141,0.01154166180640459,0.0027412553317844868,0.0012575833825394511,-0.00220867688767612,-0.0018285888945683837,0.0010917172767221928,0.005049297120422125,0.005152111407369375,-0.008376656100153923,6.122914783190936e-06,-0.0022898809984326363,0.00930087175220251,0.0033787572756409645,0.0008627466158941388,-0.009815016761422157,0.002681529149413109,-0.009833830408751965,-0.004284881055355072,-0.009336994029581547,0.004591820295900106,-0.0077922106720507145,-0.002809664234519005,0.01004472840577364,-0.007475892081856728,0.00015411445929203182,-0.0021741173695772886,-0.012394549325108528,0.007316083647310734,-0.011261802166700363,-0.0010115646291524172,0.0015656754840165377,0.0033013916108757257,0.004838437307626009,-0.006239050999283791,-0.01243854034692049,0.0057565984316170216,0.0009626516839489341,0.00863416027277708,0.008298116736114025,0.00868283025920391,-0.0005342125077731907,-0.00434483215212822,0.007357747294008732,-0.001408612122759223,-0.008126233704388142,0.008947676047682762,0.009603985585272312,-0.0009109095553867519,-0.010855130851268768,-0.002960714278742671,0.007622136734426022,0.010217339731752872,-0.007690381724387407,-0.011100862175226212,0.009456168860197067,-0.003088603029027581,0.0008886207360774279,0.011852597817778587,-0.011104073375463486,0.0038109715096652508,-0.010904613882303238,-0.00332800205796957,0.007577789481729269,-0.0019035545410588384,0.01233388390392065,0.0011263947235420346,-0.004608410410583019,-0.007196611724793911,-0.0038160751573741436,-0.0032411920838057995,-0.011014212854206562,-0.0032607915345579386,-0.0009599454933777452,0.005559373646974564,0.003918289672583342,0.005388645455241203,-0.012425282970070839,-0.007165849674493074,0.0041559915989637375,-0.00037510774563997984,-0.012601030990481377,0.007727377582341433,0.006870106793940067,0.0011829272843897343,-0.011052611283957958,0.0067495196126401424,0.002064068801701069,0.007083801552653313,0.006274770013988018,0.007634940557181835,0.0001645099400775507,-0.009514683857560158,0.004137858748435974,0.003028600476682186,0.006184499245136976,-0.008412694558501244,-0.007856689393520355,0.00982268713414669,0.00616189232096076,0.010166589170694351,0.006231097038835287,0.0020679179579019547,0.003872527042403817,0.009841829538345337,0.0020005092956125736,0.0033531635999679565,-0.008760628290474415,-0.0005635198904201388,0.005485420115292072,-0.005850173067301512,-0.007549669593572617,-0.004837740212678909,-0.006622638087719679,-0.00728873023763299,-0.0019504334777593613,0.010334921069443226,0.00010412442497909069,-0.008147738873958588,-0.011011702008545399,0.004751088097691536,-0.002957533346489072,0.008030299097299576,0.0038978869561105967,0.007520020008087158,-0.006115271244198084,0.004617311991751194,-0.0062507931143045425,0.010747113265097141,0.003052727784961462,-0.004544115159660578,-0.005999751389026642,-0.00792431179434061,0.004927596542984247,-0.007306484505534172,0.0023976799566298723,-0.006158370058983564,0.003932614345103502,0.007871409878134727,0.007028026506304741,0.006594166159629822,-0.00797867588698864,-0.010470574721693993,0.005055457819253206,-0.0033777549397200346,-0.0017284221248701215,-0.011956430971622467,-0.006171432789415121,-0.011907799169421196,0.009642289020121098,-0.006485052406787872,0.001471877796575427,-0.011779040098190308,0.004166060127317905,-0.004598033614456654,0.009900221601128578,0.009568502195179462,-0.004464020486921072,0.010088191367685795,0.012512813322246075,0.008262663148343563,0.008613384328782558,-0.006501983385533094,0.0017575277015566826,-0.011339512653648853,-0.010555506683886051,0.012639769352972507,-0.00448673265054822,0.006335807964205742,0.007807987276464701,0.009155463427305222,0.012798533774912357,-0.00661338260397315,-0.011575554497539997,-0.002096208743751049,-0.009419135749340057,-0.012174749746918678,-0.0035706255584955215,0.0072695184499025345,0.0017236024141311646,-0.004743362311273813,0.003996937070041895,-0.006760647986084223,-0.012280687689781189,0.006718905176967382,0.00308226328343153,0.006634412799030542,-0.011715095490217209,0.00856627058237791,0.0030716690234839916,0.0015107512008398771,0.0031154826283454895,0.009249703027307987,0.0022625133860856295,0.0020244133193045855,0.01245033834129572,0.0065357377752661705,-0.0014800331555306911,0.005358363967388868,-0.002837623003870249,-0.00688954209908843,0.0026085958816111088,0.01089223101735115,0.010785698890686035,-0.0041252486407756805,0.0007237177924253047,-0.0074401553720235825,0.012678764760494232,0.012244908139109612,0.003785923356190324,0.007842454127967358,0.005481266882270575,0.0023010242730379105,-0.011437085457146168,-0.0011396234622225165,0.004303652793169022,0.004405677318572998,-0.003216593060642481,0.011106486432254314,-0.008620730601251125,3.264009501435794e-05,0.00484810583293438,0.0050107394345104694,0.0037466748617589474,-0.005880453623831272,-0.008969493210315704,0.0031581197399646044,0.002150813350453973,-0.008587206713855267,0.005296689458191395,-0.00105685752350837,0.004263102076947689,0.008615298196673393,-0.00845335517078638,-0.012370087206363678,0.006974280811846256,0.0025287093594670296,0.004839963745325804,0.008674505166709423,0.0077195800840854645,0.011674154549837112,0.000974419352132827,-0.00026544160209596157,-0.0025033396668732166,-0.008847600780427456,0.001806415617465973,-0.00565215852111578,0.010766502469778061,0.0020941332913935184,0.002325112698599696,-0.003747326787561178,-0.011494475416839123,-0.011963367462158203,-0.0020555222872644663,-0.010666297748684883,0.0027082215528935194,0.009716635569930077,0.009760566987097263,0.004050660878419876,-0.007269252557307482,0.009344869293272495,0.009962193667888641,-0.007614617235958576,0.006191836204379797,-0.0052238465286791325,0.007786003407090902,0.012607835233211517,-0.012123700231313705,0.010066229850053787,0.0029494224581867456,0.011946235783398151,-0.0010947895934805274,0.008578689768910408,-0.011198884807527065,-0.004169311840087175,-0.0109955333173275,0.012079224921762943,0.00809499155730009,0.008909973315894604,0.011037860065698624,-0.010705449618399143,-0.003088061697781086,-0.011090287007391453,-0.0073171756230294704,-0.0068489438854157925,-0.0008093023207038641,-0.005842313636094332,-0.01014589425176382,-0.008406754583120346,-0.009069640189409256,0.011876345612108707,0.006576187908649445,0.01178126223385334,-0.001537417178042233,-0.005560964345932007,0.007600582670420408,-0.004299044143408537,-0.004976434633135796,-0.006786534562706947,-0.009357023052871227,-0.00618412671610713,-0.0036338926292955875,0.004428277723491192,-0.011163105256855488,-0.007442844100296497,0.00768307875841856,-0.009112967178225517,-0.004191231448203325,0.008935472927987576,-0.009050318971276283,-0.010666088201105595,-0.0005343683296814561,-0.005162193439900875,0.0015799206448718905,0.0074728140607476234,-0.009401467628777027,0.0018169513205066323,-0.0001751483214320615,-0.009279532358050346,0.0031133675947785378,-0.005860809702426195,-0.0003558722382877022,-0.010674008168280125,-0.0011169820791110396,-0.004907471127808094,0.008086568675935268,-0.011424683034420013,-0.002144467318430543,-0.001169267576187849,0.005532341077923775,0.001729137497022748,0.0042150611989200115,0.006930146366357803,0.009196216240525246,-0.004795909859240055,0.0009104498312808573,0.00864175520837307,0.01236544456332922,0.009821617044508457,-0.0032857058104127645,-0.007793842349201441,-0.0003341996343806386,0.006131679285317659,-0.0003161524364259094,-0.0005791851435787976,0.008438844233751297,-0.0035615868400782347,0.009061476215720177,-0.0023972380440682173,-0.00437884172424674,-0.001287221908569336,0.006637389771640301,-0.009653395041823387,-0.007961366325616837,0.011285519227385521,-0.008250731974840164,0.0017862840322777629,0.0021082875318825245,-0.00030059434357099235,0.003600460710003972,-0.007002446334809065,0.0011192549718543887,-0.003578823059797287,0.00380779430270195,-0.00950084999203682,0.0014714064309373498,-0.008150815963745117,-0.0059791868552565575,-0.00756807578727603,-0.008341807872056961,0.007962297648191452,-0.005848139990121126,0.010543785989284515,0.011438783258199692,0.0016169312875717878,-0.009109596721827984,-0.003647741163149476,0.007397993002086878,-0.003376619890332222,-0.011072606779634953,0.0012375719379633665,0.008693554438650608,0.006971775554120541,-0.008594016544520855,0.004251775331795216,-0.00768644642084837,-0.007581687998026609,0.009242860600352287,-0.0069698309525847435,-0.006453677546232939,-0.012948602437973022,0.009521623142063618,0.0075616491958498955,0.0034293471835553646,0.006502990610897541,-0.008559669367969036,-0.0007867521489970386,-0.003608100349083543,-0.009906727820634842,4.006872768513858e-05,0.010129581205546856,-0.012107007205486298,-0.00553870340809226,-0.007911210879683495,-0.007056387607008219,0.010145778767764568,-0.0013676472008228302,-0.0013372331159189343,0.006410020869225264,-0.008572922088205814,-0.0001345641358057037,-0.0016181962564587593,0.0026671525556594133,0.012887370772659779,0.007009378634393215,-0.00238807057030499,0.00854783970862627,-0.00820195209234953,-0.012600846588611603,-0.007951801642775536,-0.004137806594371796,-0.00039620359893888235,0.0025210583116859198,0.010307573713362217,-0.0003772455675061792,-0.0003314807254355401,-0.011590010486543179,-0.011745477095246315,0.0015289755538105965,-0.0014041528338566422,0.008764637634158134,-0.008386505767703056,-0.011977184563875198,-0.0011927729938179255,-0.0065402439795434475,-0.011408262886106968,0.005165918730199337,-0.010309860110282898,0.002559499116614461,-0.00605270080268383,-0.008705531246960163,-0.0031916035804897547,0.007277105003595352,-0.003126457566395402,0.006184370256960392,-0.009363659657537937,0.007180070038884878,-0.006524162832647562,0.004743770696222782,0.0019037259044125676,0.011088061146438122,-0.0027598103042691946,-0.010876973159611225,-0.01208876259624958,0.007873931899666786,0.00038642523577436805,0.006852856371551752,-0.00721713388338685,-0.004318947903811932,-0.012290955521166325,0.01134281512349844,0.0037627520505338907,0.010644400492310524,-0.0066377162002027035,0.002435842528939247,0.0044256094843149185,-0.005037359893321991,0.008511272259056568,0.011323098093271255,0.00941567774862051,0.005655976943671703,-0.0057822661474347115,-0.005706203170120716,0.01162595022469759,-0.012449267320334911,0.0053815413266420364,0.005101409275084734,0.003101055510342121,0.01239089947193861,-0.004886610899120569,-0.0040232352912425995,-0.011061374098062515,-0.0018816094379872084,-0.006347534712404013,-0.004225010983645916,0.008200258016586304,0.010812834836542606,-0.008227881044149399,-0.0035244880709797144,0.010675947181880474,-0.01121584139764309,-0.010525394231081009,-0.008668974973261356,0.0024164861533790827,-0.009006313048303127,0.011752426624298096,-0.0014471035683527589,-2.2272655769484118e-05,-0.006558871362358332,-0.0012134744320064783,0.0036072861403226852,0.006092048715800047,0.006214088760316372,0.001596673158928752,0.010082505643367767,0.007834941148757935,0.006196141242980957,-0.011433997191488743,-0.012794080190360546,-0.007286709267646074,0.004213354550302029,-0.002580088097602129,-0.002584476489573717,0.00970603059977293,0.0096482178196311,0.010197202675044537,-0.0048696803860366344,0.005050122272223234,-0.005621176678687334,-0.0076878732070326805,-0.007900768890976906,-0.003771509975194931,-0.0016462625935673714,0.008602386340498924,-0.00938345491886139,0.006134664639830589,0.0004177924420218915,-0.005651813931763172,-0.0002767005644273013,-0.005391695071011782,0.002331190975382924,-0.0018173516727983952,-0.008868019096553326,-0.009831721894443035,0.0011590109206736088,0.009791562333703041,-0.004215602297335863,0.005889108404517174,0.0035062634851783514,0.010679574683308601,0.007937498390674591,0.0011171128135174513,0.003574695438146591,0.009919409640133381,-0.002384031657129526,-0.004230717197060585,-0.012337927706539631,0.008530250750482082,0.007829699665307999,-0.009941191412508488,0.002171394880861044,-0.0007027719402685761,-0.009492326527833939,0.012358962558209896,-0.007211723364889622,-0.011024905368685722,0.0026305806823074818,0.006178844254463911,-0.011797272600233555,0.004194421693682671,0.0009309323504567146,-0.009958378970623016,-0.008706319145858288,0.0015786265721544623,-0.0052067493088543415,0.010741296224296093,0.007842641323804855,0.012078467756509781,-0.006591341458261013,0.011629048734903336,-0.0019837573636323214,-0.004281156696379185,-0.01168065331876278,-0.011488315649330616,0.004619262181222439,-0.0011254306882619858,-0.007051112130284309,0.002503659576177597,-0.006406070198863745,0.001908321282826364,-0.0039604054763913155,0.0077944593504071236,0.007888279855251312,-0.0008099823608063161,-0.004118235781788826,-0.0037693092599511147,0.007596601266413927,-0.00457421038299799,-0.007554003037512302,-0.010367314331233501,-0.0006843172595836222,-0.0002998399140778929,0.008903900161385536,-0.006931849755346775,-0.002922292100265622,0.008064355701208115,0.008374934084713459,-0.0028279523830860853,-0.0010257322574034333,-0.005056305322796106,0.011026142165064812,-0.009589924477040768,0.011075958609580994,0.004728269297629595,0.0009694898617453873,-0.011799837462604046,-0.00043643018580041826,-0.0021640269551426172,-0.008480165153741837,0.0040669566951692104,0.012227317318320274,0.0017566807800903916,0.0056286160834133625,-0.01080198772251606,-0.0019476076122373343,-0.009587330743670464,0.002916014287620783,0.01115187257528305,0.004086953122168779,-0.010716589167714119,-0.0036209539975970984,0.0013293969677761197,-0.0024835423100739717,0.008676866069436073,0.008211457170546055,0.0029884655959904194,-0.0030637625604867935,-0.006197647657245398,-0.009943594224750996,-0.003547545988112688,-0.0021748151630163193,0.004533941391855478,0.004172465763986111,-0.010845182463526726,-0.00247021671384573,-0.007930409163236618,-0.008592651225626469,0.00851902924478054,-0.01149833481758833,-0.0018996016588062048,-0.008268320932984352,0.009824084118008614,0.0015983558259904385,-0.007288414519280195,-0.00032772013219073415,0.005808373913168907,0.011254595592617989,-0.007492083124816418,0.00963436346501112,0.010517444461584091,0.010179916396737099,0.0032472037710249424,0.0027032357174903154,-0.002931303111836314,0.006251639220863581,0.0002934460062533617,0.004079592414200306,-0.0020381282083690166,0.005345696583390236,0.007843163795769215,-0.009177431464195251,0.008028124459087849,0.0007623704732395709,0.008730431087315083,-0.0020368308760225773,-0.0033156750723719597,0.0104118837043643,-0.006502512842416763,0.008592775091528893,-0.000486328499391675,-9.238319034921005e-05,-0.0052291289903223515,0.0016698925755918026,-0.00476478785276413,-0.012060179375112057,-0.0059117102064192295,-0.012867912650108337,0.011816472746431828,0.011718007735908031,-0.0028902320191264153,0.005880239885300398,-0.0037874835543334484,0.0039739906787872314,0.007728153839707375,0.011334768496453762,-0.0028865716885775328,0.007144333329051733,-0.005995095707476139,0.01281878724694252,-0.011923487298190594,0.0025825754273682833,0.004236574750393629,0.004895044490695,-0.009790542535483837,0.011165956035256386,-0.008042966015636921,0.003117328742519021,-0.007681191433221102,-0.005377061199396849,0.0009930484229698777,-0.002661758800968528,-0.009021923877298832,-0.008564600721001625,-0.00271051237359643,0.006169687490910292,0.009928550571203232,-0.011032412759959698,-0.0029559475369751453,-0.010203389450907707,-0.012828698381781578,0.003816368291154504,0.002466827165335417,-0.009183217771351337,-0.007177851162850857,-0.012388392351567745,0.008741889148950577,0.012266423553228378,-0.009132623672485352,-0.00667176116257906,0.009546265006065369,0.010947942733764648,-0.0018987503135576844,-0.011251482181251049,-0.011565097607672215,0.002120050834491849,-0.002449123188853264,-0.011870223097503185,0.002392036374658346,-0.012143401429057121,0.0073448047041893005,-0.004637282807379961,-0.011471085250377655,0.0023056548088788986,-0.0032680274453014135,0.011606629006564617,0.0008820624789223075,-0.0063110277988016605,0.004884497728198767,-0.006224697455763817,0.009728818200528622,-0.0035926555283367634,0.0010087394621223211,-0.011359907686710358,-0.0017792924772948027,0.008491777814924717,0.007925400510430336,-0.006826814264059067,-0.006983348634094,0.008354385383427143,0.011275926604866982,-0.01009555533528328,-0.0010306050535291433,-0.003926113713532686,0.009612472727894783,-0.01034123171120882,-0.007152174599468708,0.006561070680618286,-0.011173988692462444,-4.139288648730144e-05,-0.0013507060939446092,-0.00401133531704545,-0.0025285419542342424,0.0008767443941906095,-0.008417926728725433,0.0020168800838291645,0.007883741520345211,0.006838880479335785,-0.008646123111248016,-0.008802524767816067,-0.00577264279127121,-0.003407962853088975,-0.002210893202573061,0.0046272664330899715,-0.011060334742069244,-0.011656532064080238,-0.0026470599696040154,0.005430034827440977,-0.007472012657672167,0.003706666175276041,-0.005928426049649715,0.009921271353960037,0.010218076407909393,-0.004927023779600859,-0.006862524896860123,-0.002006682800129056,-0.0062997606582939625,0.004523460753262043,0.007646047510206699,0.003909403923898935,0.008005272597074509,-0.0032071934547275305,-0.009206662885844707,0.005924819502979517,-0.004237855784595013,0.0039051263593137264,-0.005931905470788479,-0.010927851311862469,0.012544912286102772,-0.008716534823179245,0.012180783785879612,0.012147502042353153,0.007422316819429398,0.0037654030602425337,0.001995295053347945,0.00930733047425747,-0.005199044942855835,-0.0007126003038138151,0.003041393356397748,-0.00214182585477829,-0.0017495460342615843,-0.004418110009282827,0.0017262857872992754,0.009031170979142189,-0.0075996555387973785,0.010582933202385902,0.004625576548278332,0.008115178905427456,0.0010247448226436973,0.0069997915998101234,-0.012495500035583973,0.007680878043174744,-0.011857974343001842,0.009762881323695183,0.012106197886168957,-0.005538272671401501,-0.007419017609208822,0.0064909737557172775,-0.006471295841038227,0.00934851635247469,-0.010353033430874348,-0.009722533635795116,0.01216326653957367,0.00449016597121954,0.008915425278246403,-0.0043874867260456085,0.004596719518303871,0.0026422645896673203,0.0026224968023598194,0.004841093439608812,0.0022391523234546185,-0.0016246703453361988,-0.00551479309797287,0.007008017040789127,-0.006827329285442829,0.005079915747046471,-0.006627579219639301,0.0033458939287811518,0.006481129210442305,-0.006999022327363491,-0.011068405583500862,-0.01002870686352253,0.002256948733702302,0.00868845172226429,-0.01210581511259079,0.005511884111911058,-0.004271229263395071,-0.001134668942540884,0.010385083965957165,-0.00456124497577548,-0.0007387634250335395,-0.012278949841856956,-0.010600048117339611,-0.005935716442763805,-0.01184330228716135,0.0034152893349528313,-0.0015430799685418606,0.0015324088744819164,-0.008071732707321644,-0.004991572815924883,0.0043533253483474255,0.012006388045847416,-0.011260466650128365,0.010106557980179787,0.0021167176309973,0.0018209055997431278,0.00018076221749652177,-0.01082276739180088,-0.010713648051023483,0.0023071663454174995,-0.004197322763502598,0.010592184960842133,-0.002419213531538844,-0.009174855425953865,0.005259156692773104,-0.005330843850970268,0.0006536718574352562,0.005002949386835098,0.010066691786050797,0.007341946940869093,0.004605363123118877,0.004621688276529312,0.011402438394725323,-0.005018037278205156,-0.012548970989882946,-0.005642454139888287,-0.007114503998309374,0.004120502155274153,0.0032822603825479746,0.0026223810855299234,-0.012197565287351608,0.00577184883877635,-0.004313082434237003,0.004343395587056875,0.0014635379193350673,-0.0038896009791642427,-0.009379340335726738,-0.010434645228087902,0.008537232875823975,0.010669766925275326,0.0037362626753747463,-0.010115087032318115,-0.002387160202488303,0.005891213659197092,0.006921014748513699,-0.009904035367071629,-0.012885990552604198,0.005309683736413717,-0.00369460042566061,-0.006376384757459164,-0.012398889288306236,0.0010810729581862688,0.008959385566413403,0.011051899753510952,0.001368989935144782,0.00027564147603698075,-0.011144694872200489,0.0009221522486768663,-0.0032223169691860676,0.0020851795561611652,-0.003202684922143817,-0.006833571474999189,-0.010139080695807934,-0.004583877045661211,-0.01012621633708477,-0.008069277741014957,0.012564604170620441,-0.0013290590140968561,0.0010075990576297045,0.00968871358782053,0.012743641622364521,0.0015904889442026615,0.007561519742012024,-0.004516922403126955,-0.005363219417631626,-0.002822072943672538,0.00432536331936717,0.0043379440903663635,-0.005045646335929632,-0.009397679008543491,0.002816674765199423,-0.00978665892034769,0.0018867852631956339,0.004364999942481518,0.004716863855719566,0.006151491776108742,0.008935777470469475,-0.00039504305459558964,0.00562353665009141,0.0024122155737131834,-0.008348768576979637,-0.012251807376742363,-0.006075671873986721,-0.001787519664503634,0.0027963435277342796,0.008250250481069088,-0.008112756535410881,-0.009742358699440956,0.011281721293926239,-0.010246225632727146,-0.0005098936380818486,0.0015871007926762104,0.0006756047368980944,-0.010587368160486221,-0.011881796643137932,-0.01046923827379942,0.0020910981111228466,0.001168245100416243,-0.006673621945083141,0.003603836288675666,0.008074023760855198,-0.011509568430483341,9.403815784025937e-05,0.004767212085425854,-0.00605727406218648,-0.004667485132813454,0.0026090170722454786,0.010105953551828861,0.00791077222675085,0.0017909379675984383,0.005739225540310144,-0.0035338804591447115,0.0031480498146265745,-0.0011003740364685655,-0.00806607399135828,0.005031299777328968,0.001500586629845202,-0.00355346011929214,0.010299280285835266,-0.012262566946446896,-0.004787642043083906,-0.011526069603860378,0.006643272005021572,0.005002958234399557,-0.004488126374781132,0.004524440970271826,-0.002413686364889145,0.0061399247497320175,-0.0012569543905556202,-0.002169296843931079,0.010569402948021889,-0.0065710172057151794,-0.009700682945549488,0.0017896388890221715,0.011856310069561005,-0.003120513167232275,-0.011443324387073517,-0.004145937506109476,-2.010617208725307e-06,-0.008879054337739944,0.003961661364883184,0.012565162032842636,-0.0017631176160648465,-0.004068430047482252,-0.002694707363843918,-0.010345444083213806,0.009247342124581337,-0.0025611247401684523,-0.003569514723494649,0.003364121774211526,-0.001971765886992216,0.0031278817914426327,-0.011691438965499401,0.007724244613200426,0.010637981817126274,0.0033137197606265545,0.01130950078368187,-0.00953463464975357,-0.0010552508756518364,0.0024607754312455654,0.00210188259370625,-0.0025610472075641155,-0.004193862900137901,-0.009379103779792786,-0.0027160518802702427,-0.008559389039874077,0.006018221378326416,-0.007315244525671005,-0.01109685841947794,0.0014998553087934852,0.002444122452288866,0.009342889301478863,0.00213701487518847,-0.0039607807993888855,0.007574255112558603,0.001045085722580552,-0.01068826299160719,0.0016089938580989838,0.009824619628489017,-0.002961021149531007,-0.005369006656110287,-0.00959731824696064,-0.00925634428858757,-0.002023334614932537,0.0018839144613593817,-0.01110548060387373,0.010941550135612488,0.006368654780089855,0.0022346011828631163,0.008432774804532528,-0.010670553892850876,-0.0004390011017676443,0.003505486762151122,0.00821925513446331,0.007317868527024984,-0.005481877829879522,0.011412006802856922,-0.009412072598934174,0.009704971686005592,0.012149300426244736,-0.008099150843918324,0.005767371505498886,-0.011507721617817879,-0.002248315839096904,0.0005671090329997241,0.0021543807815760374,0.01103224791586399,0.004350926727056503,-0.00030141451861709356,0.007979032583534718,0.01139919739216566,-0.012183671817183495,0.012365014292299747,-0.010430224239826202,0.008086537942290306,-0.005473557859659195,-0.00929173082113266,-0.0014034006744623184,0.0038107363507151604,-0.002845027483999729,-0.011192675679922104,0.0027135179843753576,0.010461385361850262,-0.003322422504425049,-0.007459104992449284,-0.0015869074268266559,-0.011605092324316502,0.00806362833827734,0.008189968764781952,0.002162833698093891,-0.003883764147758484,0.007567571941763163,0.000959014636464417,0.007867662236094475,0.0031424611806869507,0.006949367467314005,0.0021147257648408413,-0.0023196362890303135,0.011419961228966713,0.0007321901503019035,0.002598042134195566,-0.007193435914814472,0.003243454033508897,0.001793614006601274,-0.008153180591762066,-0.011209030635654926,0.002583869034424424,0.006473108194768429,0.00048063910799100995,-0.007033750414848328,0.004397822078317404,-0.010554146021604538,-0.0014589409111067653,-0.008510149084031582,-0.007952818647027016,-0.0076386649161577225,-0.002800875576213002,-0.011341827921569347,-0.0026227484922856092,0.0003867376653943211,-0.0003386958851478994,-0.002908495720475912,0.008665361441671848,-0.00883253663778305,0.00022426342184189707,-0.011075353249907494,-0.010575143620371819,0.0021016818936914206,0.0014420670922845602,0.009596514515578747,0.0015245007816702127,0.011466097086668015,-0.011445228010416031,-0.010034427978098392,-0.011719666421413422,-0.007849232293665409,0.0013389078667387366,0.0038129291497170925,-0.011499769054353237,0.011364239268004894,0.008859504945576191,-0.005027971230447292,-0.010722290724515915,-0.008113018237054348,-0.009202048182487488,-0.009382846765220165,0.0006082989275455475,-0.006324088666588068,-0.003582712495699525,0.012661132961511612,0.004833720158785582,0.011469355784356594,-0.008936301805078983,-0.0029382931534200907,0.0014463308034464717,-0.010584336705505848,-0.012489196844398975,0.004365522414445877,0.003699206281453371,-0.0021100505255162716,-0.0003548643144313246,-0.0021664430387318134,-0.01194090023636818,-0.004147629253566265,-0.008232099935412407,-0.010063943453133106,0.01180138997733593,0.002453492721542716,0.005926585290580988,-0.004685814026743174,-0.0028085398953408003,-0.006686544511467218,-0.010252448730170727,-0.008415546268224716,0.007560681086033583,0.004700876772403717,0.0008692653500474989,-0.0006361473351716995,0.01084065716713667,-0.01116956491023302,-0.005553053691983223,-0.0037214590702205896,0.0068399799056351185,0.012493503279983997,-0.006530399899929762,0.009064344689249992,0.008214372210204601,-0.007043648976832628,-0.0030947106424719095,-0.0026332458946853876,0.011983608826994896,-0.008667906746268272,0.0071897078305482864,-0.004438027739524841,0.005404076538980007,-0.002403549151495099,0.001621468341909349,0.008049757219851017,0.0072127594612538815,0.00898631103336811,-0.01172069925814867,0.004590421915054321,-0.009242224507033825,-0.002711850218474865,0.0008436081698164344,-0.002595451194792986,-0.00014616904081776738,0.012146654538810253,-0.009390586987137794,0.0039128875359892845,-0.0030341772362589836,-0.009511479176580906,-0.008954225108027458,0.01111013162881136,0.00945587083697319,0.010075823403894901,0.01215545553714037,-0.0075735715217888355,-0.004297567531466484,0.003901747055351734,-0.0006063780747354031,-0.002592653501778841,-0.0039457231760025024,0.0022327641490846872,0.0013696046080440283,-0.008875181898474693,-0.000803869916126132,0.0007463297224603593,0.0013213015627115965,-0.0076210107654333115,0.00563777144998312,-0.012569578364491463,-0.003875548020005226,0.006486357655376196,0.0011019323719665408,-0.006268498953431845,0.004957724828273058,0.001843758742325008,0.007577271666377783,0.005845524370670319,0.002806316129863262,-0.00042515614768490195,-0.009561995975673199,-0.006146264728158712,-0.0021484659519046545,0.002511103404685855,0.00036387972068041563,-0.0052482569590210915,-0.012461843900382519,-0.00011149772763019428,-0.005377898924052715,0.006148495711386204,-0.012093070894479752,0.002137506380677223,0.01154128834605217,-0.008075999096035957,-0.0005386085249483585,-0.010095985606312752,0.0033675546292215586,0.0013806151691824198,-0.002149589592590928,0.0006224876851774752,0.010075020603835583,-0.007440421264618635,-0.011973951943218708,0.009433604776859283,0.002345258602872491,0.010209553875029087,0.0027182784397155046,0.00818258710205555,-0.0015840529231354594,0.006575493142008781,0.010567438788712025,0.0018027599435299635,-0.008246221579611301,-0.005839117337018251,-0.007776993792504072,-0.0065817395225167274,-0.00495880376547575,0.0012615201994776726,0.002143723424524069,-0.0016671986086294055,0.0030136294662952423,-0.01050698570907116,-0.010223953053355217,-0.008195511996746063,0.0005551913054659963,-0.007057464215904474,-0.0054064588621258736,-0.0025194406043738127,0.007807426154613495,-0.012491569854319096,0.003710951656103134,0.004185407422482967,0.0074758268892765045,0.01088474690914154,-0.012322877533733845,-0.008932781405746937,0.009747021831572056,-0.0006184207159094512,0.0020675186533480883,0.00444366130977869,0.004994879011064768,0.011277204379439354,0.012840383686125278,0.006040154956281185,-0.005244963802397251,0.009737061336636543,-0.01138783898204565,-0.0068273055367171764,0.010141123086214066,-0.006065766327083111,-0.007039650343358517,-0.009192313067615032,0.009225640445947647,0.00013018460595048964,0.004623640328645706,-0.006696723401546478,0.006554916966706514,0.006633624900132418,-0.004747518338263035,-0.002349637681618333,-0.007386920973658562,0.012178203091025352,0.0036255219019949436,0.010933119803667068,-0.004950016271322966,0.007216285448521376,0.006792058236896992,0.004976559896022081,0.01196280401200056,-0.0026167917530983686,-0.00923827849328518,0.004545142408460379,0.006042192690074444,0.0019622999243438244,-0.007485604379326105,0.0001356830762233585,-0.0047240592539310455,-0.0018630772829055786,0.003764266613870859,0.0061502293683588505,-0.006927382200956345,-0.0024129042867571115,-0.005861480254679918,-0.007542358245700598,0.007365784142166376,0.01050505880266428,-0.0031769725028425455,0.006518078502267599,0.01022060215473175,0.008935359306633472,-0.008070294745266438,0.011506064794957638,-0.0032553477212786674,-0.004217816982418299,-0.011113262735307217,-0.00041027637780644,-0.010005609132349491,-0.006303616799414158,-0.004650532267987728,0.00789799727499485,0.0095779774710536,-0.005098486784845591,0.009059390984475613,0.009182707406580448,0.006601054687052965,-0.009121756069362164,0.004830570891499519,0.01114911213517189,0.004450748674571514,-0.004161337856203318,0.00013378258154261857,0.0036983266472816467,0.0004975503543391824,-0.00965784303843975,-0.004811082500964403,0.008011515252292156,0.009225498884916306,-0.009374120272696018,0.011455239728093147,-0.004511544480919838,0.004012068267911673,0.006397855933755636,0.0077939447946846485,0.011148951947689056,-0.0048014456406235695,0.008937030099332333,-0.009616549126803875,0.005270118359476328,0.006187718361616135,0.004633251111954451,-0.006156792864203453,0.009614727459847927,-0.008248578757047653,-0.011303877457976341,0.005617197602987289,-0.0004559199442155659,0.008996894583106041,-0.0029068724252283573,-0.00847696140408516,0.008714379742741585,0.0012114103883504868,-0.007923736236989498,0.005703815259039402,0.0002442828263156116,0.002681529615074396,-0.0007271846407093108,0.008592840284109116,0.00855887122452259,0.005630985368043184,-0.009965664707124233,0.008695955388247967,0.0045881858095526695,0.005041805561631918,-0.0035900489892810583,0.009925552643835545,0.005964028649032116,-0.009640853852033615,-0.0019592856988310814,0.010085942223668098,-0.011286797001957893,0.012101701460778713,0.004835629835724831,0.0036518205888569355,-0.006109976209700108,-0.006616451311856508,0.011034218594431877,-0.005269298329949379,0.0068696108646690845,-0.0028957072645425797,-0.009320179000496864,-0.012586208060383797,0.0010059240739792585,0.011892146430909634,-0.0035556505899876356,-0.003842817386612296,-0.004048198461532593,0.00039195039425976574,-0.00166413898114115,0.009662174619734287,0.00011084838479291648,0.00015384494327008724,-0.008873856626451015,0.012563402764499187,-0.006083459127694368,-0.010636123828589916,0.004365767817944288,0.0026121947448700666,-0.002055603079497814,-0.001979057677090168,0.0072375270538032055,-0.007493946235626936,0.008334394544363022,0.003972608130425215,-0.0018388021271675825,-0.0009756835061125457,-0.006113630253821611,0.006616012193262577,0.00036209108657203615,-0.004525115713477135,0.0025110978167504072,0.01258743554353714,-0.0016807448118925095,0.010767675004899502,-0.004110357724130154,-0.011478441767394543,-0.007624013815075159,-0.002347405767068267,-0.007436956744641066,-0.012885211035609245,0.010445384308695793,0.008622185327112675,0.006065460853278637,-0.008549953810870647,-0.009761718101799488,-0.011091846041381359,0.005654678680002689,0.01087251678109169,-0.0019943173974752426,-0.009907182306051254,0.00010495563765289262,-0.003950190264731646,-0.003360886825248599,0.0029022174421697855,0.005549420602619648,-0.01001700945198536,-0.0119170518592,0.012263426557183266,-0.007106773555278778,-0.011617127805948257,-0.00815416220575571,-0.011957650072872639,-0.002963984850794077,0.00749565102159977,-0.004212182480841875,-0.001495548291131854,0.004495880100876093,0.00019805027113761753,0.009138643741607666,0.0093460688367486,-0.01263067964464426,0.0069167762994766235,-0.001005328493192792,0.012172667309641838,-0.000728052924387157,0.012537827715277672,0.006426149979233742,-0.006438464857637882,0.0010142134269699454,0.012405005283653736,0.009012040682137012,-0.01035288255661726,0.005071382503956556,-0.004050144925713539,-0.012623065151274204,-0.0025067669339478016,-0.006796927656978369,0.008050383068621159,-0.004186325706541538,0.008307266980409622,-0.01278065238147974,-0.004928299225866795,-0.006619404070079327,-0.0065801022574305534,-0.010731675662100315,-0.007791345473378897,0.0017169771017506719,-0.005156127270311117,-0.001977755920961499,-0.0027879716362804174,0.009626692160964012,0.010287539102137089,-1.1967870705120731e-05,-0.00410237954929471,-0.009851009584963322,0.011840207502245903,-0.011014754883944988,-0.005065892357379198,-0.004754485562443733,-0.004388019908219576,-0.008543452247977257,0.00714933592826128,-0.009666629135608673,0.0034166828263550997,-0.009548619389533997,-0.010969107039272785,0.010493511334061623,-0.007727175951004028,0.008268826641142368,0.0012635138118639588,-0.010720111429691315,0.01161964051425457,-0.006325747352093458,0.009257573634386063,-0.00838062260299921,0.009068240411579609,-0.012136808596551418,0.0005347355618141592,0.00696947705000639,0.011422882787883282,0.010767171159386635,0.008483432233333588,0.010217527858912945,-0.007354310248047113,-0.005173524841666222,-0.005132697056978941,-0.0029100661631673574,-0.0023891236633062363,0.0012609633849933743,-0.008708066307008266,0.004818279296159744,-0.008317738771438599,-0.0048716869205236435,-2.5130861104116775e-05,0.007549297995865345,0.0059732478111982346,0.003563846694305539,-0.008558782748878002,0.001366313430480659,-0.010377895087003708,-0.002848741365596652,-0.0021249789278954268,-0.011678445152938366,-0.005479544401168823,0.01165947038680315,0.011535554192960262,-0.0034977076575160027,-0.01140589639544487,-0.007921620272099972,-0.0023347879759967327,0.011649958789348602,-0.008916220627725124,0.007124246563762426,-0.00965872686356306,0.01253009494394064,-0.002835653256624937,0.00705351959913969,-0.003948424942791462,0.0034541378263384104,-0.007774326950311661,-0.009032011032104492,0.011355181224644184,0.010703014209866524,0.00981296505779028,0.0032098793890327215,0.007734386716037989,-0.01102763693779707,-0.0042293076403439045,-0.004827233962714672,0.0034861492458730936,-0.0037214758340269327,-0.008943150751292706,0.002577441046014428,0.008244941011071205,-0.002856878563761711,-0.009249231778085232,-0.00742148794233799,-0.006550394464284182,-0.005001308396458626,0.003850173205137253,0.0026322016492486,0.005032215733081102,-0.003456065896898508,0.008206451311707497,-0.007543591316789389,-0.0008430817979387939,0.007511745672672987,-0.00824966374784708,-0.009992105886340141,0.009622344747185707,-0.004100695718079805,0.004467451479285955,-0.012271069921553135,0.004670664202421904,-0.004784660413861275,-0.011417584493756294,0.002691788598895073,-0.0066619934514164925,-0.0029225985053926706,-0.010737404227256775,-0.00902805756777525,-0.005199807230383158,-0.010485108941793442,0.010364529676735401,-0.012646123766899109,-0.0004493631131481379,-0.009686286561191082,-0.0049506970681250095,0.010848215781152248,-0.008409801870584488,0.011925501748919487,-0.0075281052850186825,0.006348793860524893,0.001149868476204574,0.009666676633059978,0.001494540716521442,0.0008232760010287166,-0.007848111912608147,-0.008408641442656517,0.010539231821894646,-0.0043861279264092445,-0.003268854459747672,0.006475190166383982,-0.004153796937316656,0.011376903392374516,0.005916500464081764,0.0024558042641729116,0.009835534729063511,-0.011304833926260471,-0.006021231412887573,-0.0006660226499661803,-0.006834561936557293,0.006249784957617521,0.010888846591114998,-0.001927612000145018,-0.004162370692938566,0.011837391182780266,-0.0012991970870643854,-0.00013458104513119906,-0.003722124733030796,0.01045803353190422,0.0018442466389387846,0.006601395551115274,0.00780209805816412,-0.004052400588989258,-0.0016644051065668464,0.008802513591945171,-0.0035422341898083687,0.00735529325902462,0.01107477955520153,0.003042492549866438,0.005905652418732643,0.007538248784840107,0.008655628189444542,-0.0023131798952817917,-0.011164314113557339,-0.0022761416621506214,0.00470903143286705,-0.0011155850952491164,0.00648912787437439,-0.0035093273036181927,0.0034704972058534622,-0.007975475862622261,0.006268965546041727,0.0011069998145103455,-0.007600522134453058,-0.005259539466351271,0.006233766674995422,-0.0005025546415708959,-0.007128383964300156,0.011908975429832935,0.005539312493056059,0.01174472738057375,-0.0019073579460382462,-0.000719966774340719,0.010267994366586208,0.0005196545389480889,0.005198572762310505,-0.006308740004897118,-0.0014257081784307957,-0.009606217965483665,-0.007557945791631937,-0.012761153280735016,-0.011783317662775517,0.012079240754246712,-0.006608864758163691,0.004117609933018684,0.008575556799769402,0.001251491135917604,-0.008866057731211185,0.005812865681946278,0.0026176744140684605,0.005902445875108242,0.006942328065633774,0.012182753533124924,0.0019525939133018255,-0.00399420689791441,0.0037823314778506756,-0.01099841482937336,0.009923769161105156,-0.009824535809457302,-0.004515462089329958,0.007883409038186073,0.0022590437438338995,-0.00291363219730556,-0.0007989426958374679,0.008792361244559288,-0.004328214097768068,0.00932619534432888,-0.01055456604808569,0.006991274654865265,0.008765099570155144,-0.00816752016544342,-0.0018334256019443274,-0.008583362214267254,0.005205740686506033,0.0008372322772629559,0.003626893972977996,-0.007586756255477667,-0.007166027557104826,-0.011485818773508072,-0.004407046362757683,0.0015604086220264435,0.009355291724205017,0.0042854174971580505,-0.0017078480450436473,0.011533993296325207,0.005503728520125151,0.01082224864512682,0.0006870856741443276,-0.006274472922086716,-0.011609610170125961,0.005738385953009129,-0.00976431556046009,-0.005263489671051502,0.0007791906245984137,0.001450916170142591,0.002411097986623645,-0.008683457039296627,-0.0033166848588734865,0.0027375267818570137,0.011674020439386368,0.005480223800987005,0.010463621467351913,0.006825982127338648,0.002368977991864085,-0.007875069044530392,0.004418062511831522,0.003074965439736843,0.0024203427601605654,-6.364840373862535e-05,0.0005937107489444315,-0.004490313120186329,0.0005059472750872374,-0.007714822888374329,0.007756467908620834,-0.008097685873508453,-0.010754282586276531,-0.0018147670198231936,0.003750518197193742,-0.0019935278687626123,-0.006089154165238142,0.0019550903234630823,-0.003576474729925394,0.01132143009454012,0.011210057884454727,0.00033406310831196606,-0.0041426182724535465,0.006354468874633312,-0.011624651961028576,-0.0005038147792220116,-0.004258662927895784,0.01066145021468401,-0.012505320832133293,0.0012462575687095523,0.0060388073325157166,-0.0004567138385027647,-0.010614357888698578,0.01194997038692236,0.00040024699410423636,0.002887988928705454,-0.006715142168104649,-0.0004473513108678162,-0.001692826161161065,-0.01078047975897789,-0.010007780976593494,0.008722621947526932,-0.006604083348065615,-0.007715403567999601,0.0003217937774024904,0.006966950371861458,-0.011034749448299408,0.002209876198321581,-0.009583338163793087,-0.01169873122125864,-0.011198615655303001,0.008523610420525074,-0.009695269167423248,-0.011140263639390469,-0.0013024721993133426,0.00902238767594099,-0.00566519983112812,-0.001777494908310473,-0.011534466408193111,-0.001012794440612197,0.00211045378819108,0.0019207699224352837,-0.004138363525271416,-0.0045062764547765255,-0.009812746196985245,-0.003114684484899044,-0.009983844123780727,0.006939146667718887,0.012194415554404259,0.01214306615293026,0.009383843280375004,0.002878987928852439,0.005237949546426535,-0.005438307300209999,0.0035652541555464268,-0.0010388045338913798,-0.0005575569230131805,0.006656778510659933,-0.005540614947676659,-0.0046701678074896336,0.010875451378524303,-0.0112654659897089,-0.00025865575298666954,0.010665927082300186,0.002904212335124612,0.0013270288472995162,-0.006319466512650251,-0.003956804051995277,0.009070414118468761,0.0017449924489483237,0.000542936846613884,-0.010008364915847778,-0.012172811664640903,0.011927997693419456,-0.003019464435055852,0.0026159039698541164,-0.010751859284937382,0.0046171946451067924,0.011245678178966045,0.002208698308095336,-0.00925610214471817,0.0024572275578975677,0.007103452458977699,-0.0020582140423357487,0.010068523697555065,0.004143614321947098,0.01054863166064024,0.0034107870887964964,-0.009162805043160915,-0.0046730851754546165,-0.007435297593474388,0.01048690639436245,0.0067207240499556065,0.004533597733825445,-0.005160050932317972,-0.008163416758179665,0.006881059147417545,-0.00037600903306156397,-0.006736396811902523,0.003336443332955241,-0.01142466813325882,-0.004207330755889416,-0.0005315219168551266,-0.00876488909125328,0.01248684898018837,-0.007264318875968456,-0.009282320737838745,-0.007457897998392582,0.007095900364220142,-0.0017838382627815008,0.0016483101062476635,-0.011924625374376774,-0.011835194192826748,-0.0015055492985993624,0.007960173301398754,0.009679628536105156,-0.010683647356927395,0.0008379705250263214,0.010282843373715878,-0.003148910589516163,0.00823840219527483,-0.009635989554226398,0.010658352635800838,0.006518593989312649,0.011168311350047588,0.004445585422217846,-0.003314316039904952,0.011108744889497757,-0.005852485075592995,-0.004211902152746916,0.004931421019136906,0.006442339159548283,0.011131185106933117,-0.007415694184601307,0.007721652276813984,0.006364971864968538,-0.010966640897095203,-0.0027247779071331024,-0.005326085723936558,-0.004889289848506451,0.012393888086080551,0.003676903434097767,0.005601935554295778,0.01219059806317091,-0.0029854485765099525,0.007802396081387997,-0.0015793177299201488,0.00966329500079155,-0.007884429767727852,0.011564761400222778,-0.007245386950671673,-0.0044767106883227825,0.006476766429841518,-0.002823124174028635,0.002649485832080245,-0.001515379874035716,0.006065067369490862,-0.007041129749268293,-0.011374861933290958,-0.004821463953703642,-0.0005326125537976623,-0.008422395214438438,-0.0034502861090004444,-0.0024919123388826847,-0.011348842643201351,0.002315129619091749,0.009771563112735748,-0.009040514007210732,0.0022784406319260597,0.003975954372435808,-0.0022839433513581753,0.00498155178502202,-0.002403387101367116,-6.59045617794618e-05,-0.012690365314483643,0.004792594350874424,0.00401683896780014,-0.01174363773316145,-0.003326521022245288,0.012324444018304348,-0.0019017179729416966,5.741017957916483e-05,0.010503371246159077,0.005698680877685547,0.002188778715208173,0.007671088445931673,0.009399456903338432,-0.0010983350221067667,-0.0006757504888810217,-0.0028091042768210173,0.011833625845611095,0.004885862581431866,-0.010575957596302032,0.00906831119209528,-0.0008135867537930608,-0.010709901340305805,0.0014659058069810271,-0.0019258518004789948,0.009828395210206509,-0.007412557024508715,0.008333133533596992,0.0014747753739356995,-0.011395502835512161,0.011889884248375893,0.0002667217922862619,-0.00547416415065527,-0.0009328167070634663,0.009012266993522644,-0.005118004512041807,-0.007919359020888805,-0.009701146744191647,-0.005423043854534626,0.006977502256631851,-0.00040449973312206566,-0.006841090973466635,-0.00851113349199295,-0.0040236786007881165,0.011198610067367554,-0.00409363117069006,0.012526694685220718,-0.000459598726592958,-0.008263828232884407,0.009923658333718777,-0.001008588238619268,0.005290718749165535,0.012296650558710098,-0.011476300656795502,-0.010352501645684242,0.005474749021232128,-0.005627498961985111,-0.008098884485661983,-0.011826569214463234,-0.012215878814458847,0.006934711709618568,-0.009441443718969822,-0.0009605471859686077,0.002568997908383608,-0.0019091166323050857,-0.012214300222694874,0.007041238714009523,-0.012678597122430801,0.006422858219593763,0.009830933064222336,-0.001906207180581987,0.0007715723477303982,-0.0007073868182487786,-0.003080784110352397,0.009722663089632988,0.010004160925745964,-0.004007491283118725,0.0029328796081244946,0.010814943350851536,0.011876992881298065,0.00010867960372706875,-0.0012688374845311046,-0.005665359552949667,0.011442617513239384,-0.009217699058353901,0.0022121649235486984,-0.0053027840331196785,-0.0054414779879152775,-0.0021908858325332403,0.01291780173778534,-0.011105302721261978,0.002101270016282797,-0.010476769879460335,-0.008561177179217339,-0.0013206391595304012,0.0005498938262462616,-0.00597624434158206,-0.004424086306244135,-0.010326005518436432,-0.00483434833586216,0.012135735712945461,0.01147632859647274,-0.004057601559907198,0.0020270957611501217,0.01056787371635437,-0.012374312616884708,0.008208751678466797,0.011653687804937363,-0.010169625282287598,-0.008380761370062828,0.011939995922148228,0.0012294063344597816,-0.012443160638213158,-0.0062296041287481785,-0.0012698783539235592,0.0049302708357572556,0.005901241675019264,0.01265114825218916,-0.005392920225858688,0.0009486125782132149,0.000875063065905124,-0.0023115624208003283,-0.008316988125443459,0.012307671830058098,0.00920188706368208,0.00013203584239818156,0.0027386450674384832,-0.006728011649101973,0.0012424405431374907,0.004994195420295,0.00034185461117886007,0.012499638833105564,0.002861893968656659,-0.0032462042290717363,0.006901880726218224,-0.008344979956746101,-0.00288865203037858,-0.003965340089052916,-0.0018098090076819062,0.007350933738052845,-0.00026742767659015954,0.00759349949657917,0.0022226686123758554,-0.003970305435359478,0.007920012809336185,-0.006468293257057667,-0.007059154566377401,2.3567668904433958e-05,-0.005996149033308029,-0.012379663996398449,0.003886894090101123,0.0005073870997875929,-0.0012076370185241103,0.011934442445635796,0.002010243246331811,0.009324509650468826,-0.009296842850744724,0.0020014105830341578,0.009497408755123615,0.002265211893245578,0.0057004233822226524,-0.003147865179926157,-0.010268799029290676,-0.001045338110998273,-0.002707806881517172,0.009333708323538303,-0.006541650742292404,0.011787313036620617,0.011469019576907158,-0.006346636917442083,-0.003855680115520954,0.00996852945536375,0.012093118391931057,-0.0013840558240190148,-0.004647955298423767,0.0003964319184888154,0.0045850686728954315,-0.005955405067652464,0.005829581059515476,-0.011596393771469593,-0.011688638478517532,-0.0029770773835480213,-0.0038492693565785885,-0.004881616216152906,-0.0001840830809669569,-0.004540900234133005,-0.007755042985081673,-0.004927626810967922,0.011989451944828033,-0.002307465998455882,-0.001462533138692379,0.0017985234735533595,0.012184647843241692,-0.006612447556108236,0.004818001762032509,0.005870640277862549,0.0024845555890351534,-0.010467351414263248,0.004672884941101074,-0.011405732482671738,0.002365750726312399,0.006119852885603905,-0.00732440548017621,0.00861787423491478,-0.011941282078623772,0.008742773905396461,-0.0011408956488594413,-0.007244033273309469,-0.009319256991147995,0.011381956748664379,-0.011002679355442524,-0.007551983930170536,-0.0037487195804715157,0.003171576652675867,0.0012252852320671082,-0.009458933025598526,-0.005279518663883209,-0.006630260497331619,-0.007255206815898418,-0.0022222790867090225,0.004980896133929491,-0.007418717723339796,-0.0035505921114236116,-0.003070238744840026,0.011799979023635387,0.011253159493207932,0.007414258550852537,-0.006880621891468763,-0.011294061318039894,-0.004509713500738144,-0.005709249060600996,0.000614216725807637,0.006975242402404547,0.009138958528637886,0.00904212798923254,-0.0038094280753284693,0.004623070824891329,-0.00471064168959856,-0.0111730070784688,0.005045682657510042,-0.012614835053682327,-0.002241739770397544,-0.004235232248902321,0.0048555345274508,0.0068773021921515465,-0.0049406783655285835,0.007882514037191868,-0.005074928980320692,-0.001087609096430242,0.006163542624562979,0.00490955263376236,0.012386856600642204,-0.00691075436770916,0.003924778196960688,0.0025683704297989607,0.010488213039934635,-0.008805719204246998,0.006334871985018253,0.001803521066904068,-0.005706090945750475,-0.0006315824575722218,-0.004143879283219576,0.0021833344362676144,0.009971466846764088,0.0018676199251785874,0.0034978401381522417,0.0004625194997061044,-0.011434926651418209,-0.006703010760247707,-0.0003699228400364518,-0.004935281351208687,-0.00802419800311327,-0.00013453034625854343,-0.004662531893700361,-0.005879170726984739,-0.0006108107045292854,-0.009054436348378658,0.011068642139434814,0.009596466086804867,0.005395390558987856,-0.010046393610537052,0.007054938469082117,