0.3729441165924072,0.15671661496162415,-0.190895676612854,-0.7129486799240112,-0.3911968171596527,-0.1872761994600296,0.02956690452992916,0.6946690082550049,-0.01912834122776985,-0.13615502417087555,-0.7451021075248718,-0.5522875189781189,0.3641427159309387,-0.7333517074584961,-0.23124119639396667,-0.25506967306137085,-0.7097641825675964,-0.3170984089374542,-0.627713680267334,-0.34227117896080017,-0.13543888926506042,-0.5987882018089294,0.23521649837493896,-0.3709184229373932,0.12688152492046356,0.5733848214149475,0.4129852056503296,0.6446618437767029,0.19997264444828033,-0.13550026714801788,0.26402604579925537,0.5337845087051392,0.19505679607391357,-0.7112709879875183,-0.6927831172943115,0.628248393535614,-0.034221187233924866,-0.1886472851037979,0.6213140487670898,-0.43199464678764343,-0.6156460046768188,0.25108256936073303,-0.6357222199440002,-0.11470101773738861,-0.1351519078016281,-0.42137426137924194,0.26153892278671265,0.10232478380203247,0.14900006353855133,0.07273580878973007,0.0838431864976883,-0.09796080738306046,-0.045283932238817215,-0.3662937879562378,0.2434254139661789,-0.5072091221809387,-0.6386349201202393,0.3600941300392151,0.29181626439094543,0.3664647042751312,0.4209071099758148,0.030073264613747597,0.4286845624446869,-0.0934549942612648,0.1805022656917572,-0.4542446434497833,0.7159464955329895,0.31122541427612305,0.4757382571697235,-0.5386287569999695,0.07533619552850723,0.41640064120292664,-0.4593898057937622,0.4923798739910126,0.18592435121536255,0.5047058463096619,-0.03302525728940964,0.26265397667884827,-0.12328489124774933,0.09334023296833038,0.5297680497169495,-0.5167283415794373,-0.10176094621419907,-0.5629862546920776,0.19169507920742035,0.224810391664505,-0.6759849786758423,0.21674217283725739,-0.012871509417891502,0.06063195690512657,-0.6396698951721191,0.03112303465604782,-0.2802579998970032,-0.18687814474105835,-0.31714004278182983,0.2216818630695343,-0.25271761417388916,0.3547210991382599,0.497050940990448,-0.3714652359485626,0.034336116164922714,0.4857628047466278,-0.5180407166481018,-0.6002762913703918,-0.14682061970233917,0.6830585598945618,-0.6319473385810852,0.061296578496694565,0.01965537667274475,0.38040363788604736,0.43487459421157837,-0.35456180572509766,0.41412508487701416,0.21278788149356842,-0.5465731024742126,0.6110659837722778,-0.5231007933616638,-0.3644733428955078,0.05334493890404701,0.14475801587104797,0.49866506457328796,0.44163069128990173,0.13988348841667175,0.097427599132061,0.7229725122451782,-0.2255331426858902,-0.10028663277626038,0.20115382969379425,-0.5140761137008667,0.1657523363828659,-0.38550931215286255,0.5787143111228943,0.5711219310760498,0.7496562004089355,-0.24284957349300385,-0.3203366994857788,0.08714047074317932,0.04028204083442688,-0.6312054395675659,0.08916239440441132,-0.515445351600647,0.05481376126408577,-0.04455116391181946,0.5315194725990295,-0.19968025386333466,0.3771395981311798,-0.34761202335357666,0.5129222869873047,0.6276965141296387,-0.7289959788322449,0.5488260388374329,-0.275873064994812,-0.48027563095092773,-0.5710381269454956,0.5122061371803284,-0.6348314881324768,0.4681124985218048,-0.39608925580978394,-0.5552759766578674,-0.7440285682678223,-0.32778963446617126,0.396511971950531,0.3440150022506714,0.614051103591919,0.6797457933425903,-0.35370582342147827,-0.42957836389541626,0.2995375096797943,0.38345617055892944,0.22719357907772064,-0.3274119198322296,-0.439274400472641,-0.16003507375717163,-0.5092684030532837,-0.47376003861427307,0.5141693353652954,-0.3220890760421753,-0.47333014011383057,0.03795953094959259,0.37546858191490173,0.695961594581604,0.5792246460914612,0.5269150137901306,0.2955804169178009,-0.5623934864997864,-0.23296664655208588,-0.5169764161109924,-0.26107674837112427,-0.48666512966156006,-0.001141439308412373,0.560964822769165,0.6165925860404968,0.6244885325431824,0.3860359787940979,0.691315770149231,-0.10013774037361145,-0.6405687928199768,0.028832966461777687,0.12144772708415985,-0.36157652735710144,-0.05356302112340927,-0.3355351984500885,-0.3158363997936249,0.08716423064470291,-0.593195378780365,-0.39612701535224915,-0.13334114849567413,0.2651746869087219,-0.41547706723213196,0.7121995687484741,0.7212881445884705,-0.33825430274009705,-0.2427605539560318,0.04885087162256241,-0.47635817527770996,-0.20510317385196686,0.3323652744293213,-0.6267093420028687,0.147491917014122,0.5725688338279724,-0.2485674023628235,0.06045059114694595,0.3816574215888977,-0.03441443666815758,-0.517183780670166,0.30633482336997986,0.7115689516067505,-0.4368332326412201,0.14268846809864044,-0.7221817374229431,0.7104032039642334,0.6789168119430542,0.6432231068611145,0.2773036062717438,-0.286406934261322,0.22713345289230347,-0.1255764216184616,0.2943556010723114,0.19709376990795135,-0.03320753201842308,0.1355779469013214,0.43787407875061035,-0.5616518259048462,-0.18688014149665833,0.6939401626586914,-0.7061439156532288,0.16730400919914246,-0.5694620013237,-0.5180938243865967,0.10760858654975891,0.5051388740539551,0.38442665338516235,-0.5037150979042053,-0.6436905264854431,0.5204460620880127,-0.1907854676246643,0.19328443706035614,-0.10711957514286041,-0.24665610492229462,0.29082247614860535,0.7482277750968933,0.2264753133058548,-0.029139520600438118,0.04013450816273689,0.48475706577301025,-0.6601332426071167,-0.5531615614891052,0.5690475106239319,-0.4769037663936615,-0.412198543548584,-0.4182298183441162,-0.14323976635932922,-0.3633129596710205,-0.10065324604511261,0.20851999521255493,0.20939259231090546,0.11356589943170547,0.010160724632441998,-0.3776169717311859,0.6714609861373901,0.3433697819709778,0.17904140055179596,-0.3900231122970581,-0.667670488357544,-0.26431921124458313,0.29566895961761475,-0.40860217809677124,0.6826451420783997,0.11114094406366348,-0.6690900325775146,-0.0774228498339653,-0.5943194627761841,0.014884049072861671,-0.7317812442779541,-0.33975252509117126,0.6370773911476135,0.7199408411979675,0.3373604118824005,0.5949326157569885,-0.21680748462677002,-0.30604419112205505,0.0036464466247707605,0.6340832710266113,-0.3984520435333252,0.29441606998443604,-0.6946128606796265,0.2967003285884857,0.022073721513152122,-0.5078389644622803,-0.10449011623859406,0.6511270999908447,-0.1658751368522644,0.39916449785232544,-0.14377455413341522,-0.5125114321708679,0.274181067943573,-0.1069827526807785,-0.1948666125535965,0.10895008593797684,-0.013223866000771523,-0.40735673904418945,0.4073582589626312,0.48681628704071045,0.23315997421741486,-0.21979227662086487,-0.29299741983413696,0.7342883348464966,0.2945643365383148,0.38507702946662903,0.7042391896247864,0.07441157102584839,-0.512004554271698,0.547178328037262,-0.19733546674251556,-0.5451332926750183,0.082584910094738,-0.28529369831085205,0.24725393950939178,0.6800258159637451,-0.1047317162156105,0.12027395516633987,0.7486864924430847,0.43967559933662415,-0.3294457197189331,0.7203887701034546,0.19419658184051514,0.04494374617934227,-0.7137219309806824,0.18552805483341217,-0.09617679566144943,0.11714500188827515,0.44291481375694275,-0.40688252449035645,0.3715090751647949,-0.6522866487503052,0.011103807017207146,-0.26140227913856506,-0.5428240895271301,0.1680804342031479,-0.13518214225769043,0.42789822816848755,0.472528874874115,0.21964281797409058,0.7137961983680725,0.2694275379180908,0.18981535732746124,0.3143881559371948,-0.5432626008987427,0.16846391558647156,-0.5695904493331909,-0.3913050591945648,0.08475624024868011,0.32063281536102295,-0.6144809126853943,-0.6020413637161255,0.32004639506340027,0.08096349984407425,0.01914939098060131,0.47798505425453186,-0.16782037913799286,0.017164161428809166,0.35991019010543823,-0.03888503834605217,-0.5874526500701904,0.038016028702259064,0.02367178350687027,-0.6186342239379883,0.3638175129890442,0.20716631412506104,0.28118279576301575,0.6916408538818359,0.5103088617324829,-0.7184256911277771,0.21944211423397064,0.500281035900116,0.02571994438767433,0.29347872734069824,0.2916908264160156,-0.6222726702690125,-0.45972079038619995,0.6303823590278625,0.7123396992683411,-0.08672299981117249,-0.24907754361629486,-0.6438596844673157,0.6241683959960938,0.48479360342025757,-0.13744594156742096,0.4251960515975952,-0.32864683866500854,-0.3993924856185913,-0.09174220263957977,-0.021141016855835915,-0.15342053771018982,0.3514511287212372,0.0886126458644867,0.4320153594017029,0.5156761407852173,0.33425092697143555,-0.12807832658290863,0.7159450650215149,-0.5695714950561523,-0.5408803820610046,-0.21235612034797668,-0.004052640404552221,0.6173606514930725,0.6606365442276001,-0.6794211268424988,-0.6820612549781799,0.1675345003604889,0.7205803990364075,-0.5848026275634766,-0.002900170860812068,-0.5902361273765564,0.5302979350090027,-0.10164576768875122,-0.6330891251564026,0.18399108946323395,0.2995876967906952,-0.6335315108299255,-0.022354278713464737,0.6947351694107056,0.43262115120887756,-0.11715199053287506,-0.3477778434753418,0.1597367525100708,-0.05370447039604187,0.5586879849433899,0.5509846210479736,-0.37923580408096313,-0.4426274597644806,-0.2757593095302582,0.5357725620269775,-0.07989689707756042,-0.04699070751667023,0.7374659180641174,-0.02583315409719944,-0.5352794528007507,0.7334598898887634,0.19740527868270874,0.10404253005981445,0.7364400029182434,0.6669673323631287,0.14696165919303894,-0.19241708517074585,0.49633923172950745,-0.45429256558418274,0.3565976321697235,0.37311267852783203,0.0015091941459104419,-0.5738720297813416,0.3603646755218506,0.16447623074054718,0.11390400677919388,0.1628313958644867,-0.46739688515663147,0.6727356314659119,0.3344385325908661,-0.3684280812740326,-0.6737158298492432,-0.0345601961016655,-0.23383256793022156,0.5751507878303528,-0.6534463763237,-0.18160365521907806,0.5068427920341492,-0.364938348531723,0.4056101441383362,0.6083351969718933,-0.19482040405273438,0.44394564628601074,-0.6064073443412781,0.6429585814476013,-0.2817620635032654,-0.10658933222293854,0.3567032814025879,0.1259804666042328,0.4381965398788452,-0.06290970742702484,-0.7303460836410522,-0.4876718819141388,-0.5888860821723938,-0.20749345421791077,-0.3269585072994232,-0.2670701742172241,0.3959278166294098,-0.44713926315307617,-0.030087102204561234,-0.019119292497634888,-0.15113213658332825,0.36869457364082336,-0.5688775181770325,-0.39795929193496704,-0.4022320806980133,-0.032394889742136,0.10245451331138611,0.16388988494873047,0.20312601327896118,0.2168162316083908,-0.6305343508720398,-0.37005797028541565,0.7256413102149963,-0.4132849872112274,0.6876234412193298,-0.1463458091020584,0.6331912279129028,0.283358633518219,-0.7275828123092651,0.23128487169742584,0.3939136862754822,0.4269421100616455,0.4990610182285309,-0.6948605179786682,0.09924439340829849,0.26913827657699585,-0.6919389367103577,-0.6725900769233704,0.6182558536529541,-0.10861529409885406,-0.2584361732006073,-0.03481711074709892,0.5895904302597046,-0.5806485414505005,-0.7017797231674194,0.3307388722896576,-0.6581829786300659,-0.3674546778202057,-0.09151140600442886,0.3566187918186188,-0.47806185483932495,0.48994681239128113,-0.19589349627494812,-0.1276765763759613,0.6300746202468872,0.13585461676120758,-0.11064019799232483,0.4721125662326813,-0.08847581595182419,-0.4085841178894043,0.22916658222675323,0.3777451813220978,-0.5539978742599487,-0.1833498775959015,0.13150325417518616,0.42838770151138306,0.4554551839828491,0.5585378408432007,-0.18728621304035187,-0.544869065284729,-0.026054035872220993,-0.28932493925094604,0.2966934144496918,0.2995761036872864,0.009592382237315178,-0.5709547996520996,-0.27746838331222534,0.42511942982673645,-0.3274349272251129,0.11020110547542572,-0.6921803951263428,0.2889007031917572,0.41834506392478943,0.7452240586280823,0.04422434791922569,0.12428371608257294,-0.3567081093788147,-0.024561265483498573,-0.25844478607177734,0.6089449524879456,-0.34638896584510803,-0.538082480430603,-0.3524845540523529,0.7278929352760315,0.26193249225616455,-0.2905159592628479,0.7336084842681885,-0.6313170194625854,-0.2765333950519562,0.502136766910553,0.7253018021583557,0.5225991606712341,0.5157846212387085,-0.5109013915061951,0.015497785061597824,0.5402212738990784,-0.6644324660301208,-0.34072282910346985,-0.5665304660797119,-0.647780179977417,0.6103323101997375,-0.25779297947883606,-0.3116287291049957,0.3563518524169922,0.07003922760486603,-0.14371761679649353,0.6390159726142883,0.5205799341201782,0.678078830242157,0.6458673477172852,-0.7111425399780273,0.19022279977798462,-0.5586698651313782,-0.12829576432704926,-0.7403945922851562,0.2836325764656067,0.23821447789669037,0.1370978206396103,-0.05893724784255028,-0.3556733727455139,-0.23577360808849335,0.5720322132110596,0.34853941202163696,-0.25026044249534607,0.19442898035049438,0.0015361523255705833,0.07788630574941635,0.6827456951141357,0.15451520681381226,0.38435035943984985,0.2587220072746277,-0.5909030437469482,0.46488863229751587,-0.06331463903188705,-0.0476284995675087,-0.3700806796550751,-0.21329502761363983,0.6850076913833618,0.4518689811229706,-0.5963457822799683,0.3721226453781128,0.11047035455703735,0.39934539794921875,-0.6196389198303223,-0.7182022929191589,0.09946776926517487,0.3865973651409149,-0.27661773562431335,-0.4325602650642395,-0.6329190731048584,-0.5207049250602722,-0.7204475402832031,0.2046489417552948,-0.3425057530403137,-0.7032055854797363,-0.11311253160238266,0.12260118126869202,-0.2625720202922821,0.12949703633785248,-0.334758460521698,0.6070663332939148,-0.6170691251754761,0.01205636840313673,0.3917023241519928,-0.6763080358505249,0.7134910225868225,-0.5570266246795654,-0.01943119429051876,-0.53550785779953,-0.34215247631073,-0.740346372127533,0.41410812735557556,-0.4703209698200226,0.6654177904129028,0.3782939612865448,0.17487378418445587,0.22702717781066895,-0.4544484615325928,-0.4833034873008728,0.5382428765296936,0.21118751168251038,-0.647053062915802,-0.6137824058532715,0.6466325521469116,-0.6118512749671936,-0.4160316288471222,-0.25529614090919495,-0.1520722210407257,0.5295029878616333,-0.3148600459098816,-0.25563934445381165,0.6745519638061523,-0.5826624035835266,0.000549680320546031,0.40116846561431885,-0.4351266622543335,-0.5921118855476379,0.06318876147270203,0.664586067199707,-0.007979964837431908,0.24899667501449585,-0.025879597291350365,-0.20258305966854095,-0.3465101718902588,0.6904879212379456,0.7136906385421753,0.2320987433195114,0.11907133460044861,-0.6117719411849976,-0.17280244827270508,-0.2596580982208252,-0.36537739634513855,0.3694623112678528,0.039397358894348145,0.4467771053314209,-0.03218572214245796,-0.29415518045425415,-0.6649850010871887,0.013586215674877167,0.45884478092193604,0.5141676664352417,0.7387872338294983,-0.7096790075302124,0.5486701726913452,-0.5435592532157898,-0.5120304822921753,-0.620500922203064,-0.7071895599365234,0.6761952042579651,-0.6158114671707153,-0.6432655453681946,0.45633241534233093,-0.717661440372467,0.5862418413162231,0.17410865426063538,0.6954199075698853,0.07244553416967392,0.7533497214317322,-0.2584724724292755,-0.27562931180000305,-0.7434276938438416,-0.29811182618141174,0.47870710492134094,0.5570145845413208,-0.1573391556739807,0.07654522359371185,-0.3757700026035309,0.4707251489162445,-0.5752205848693848,-0.37680891156196594,-0.43822893500328064,0.2975896894931793,-0.06897436082363129,0.3589959442615509,0.5975141525268555,0.1621062457561493,0.5326194167137146,-0.3544665277004242,-0.11385976523160934,-0.7002035975456238,-0.49136507511138916,0.23926928639411926,-0.42183929681777954,0.017218589782714844,-0.16051924228668213,-0.27338796854019165,-0.3066490888595581,0.5174189209938049,-0.5996910333633423,0.25013890862464905,-0.001586000551469624,-0.24521192908287048,-0.36094990372657776,0.7039568424224854,0.3643767833709717,0.5789088606834412,-0.17700859904289246,-0.25172337889671326,0.3936595320701599,-0.70689857006073,0.1179247498512268,-0.5772234797477722,0.1602598875761032,-0.2705037295818329,0.41831180453300476,0.15927326679229736,0.2467089593410492,-0.3766011893749237,-0.7152270674705505,-0.6531935930252075,0.0068586645647883415,0.3628216087818146,-0.4447415769100189,0.27081170678138733,0.09006135910749435,0.600132167339325,0.036779291927814484,0.4535242021083832,-0.3093864917755127,-0.09244144707918167,0.6268486976623535,0.21324171125888824,-0.1448492705821991,0.575679361820221,-0.49402934312820435,-0.41747602820396423,0.6070005297660828,-0.23230011761188507,-0.06007793918251991,-0.5078526735305786,-0.1449030190706253,-0.18749873340129852,-0.06427693367004395,-0.011890854686498642,0.5538952350616455,0.1655164211988449,-0.29510724544525146,0.24489760398864746,0.7287349700927734,-0.47138088941574097,0.614295244216919,-0.07189007103443146,0.04076974466443062,0.5834652185440063,0.7287135720252991,0.5473787784576416,0.1806136667728424,-0.257902592420578,0.1915856897830963,-0.11595499515533447,0.13718855381011963,0.22413770854473114,0.060112278908491135,0.47757968306541443,0.512061595916748,-0.6133711338043213,-0.6444886922836304,-0.5307577848434448,-0.542628824710846,-0.06824992597103119,-0.6896037459373474,0.34143882989883423,-0.4423387944698334,-0.5126890540122986,-0.521730899810791,-0.36127686500549316,-0.2591930627822876,-0.7345978617668152,0.27678772807121277,-0.6781831979751587,0.3815518915653229,0.31672292947769165,0.23133908212184906,-0.06285690516233444,0.144073486328125,0.7476043701171875,-0.25974732637405396,0.6871607303619385,-0.2933965027332306,0.1555788815021515,0.6825965642929077,-0.2380770742893219,0.36249279975891113,0.328646719455719,0.619962751865387,-0.655490517616272,0.20047028362751007,0.3635503649711609,-0.1517447531223297,0.5906686186790466,-0.43045368790626526,-0.024991191923618317,-0.11151276528835297,0.2766724228858948,0.1923421025276184,-0.07425453513860703,-0.6385888457298279,0.018402494490146637,-0.5046824812889099,0.5352334380149841,0.18475623428821564,0.31569355726242065,0.44474828243255615,0.08379743248224258,-0.37475061416625977,-0.2948964834213257,0.6750935316085815,-0.13951316475868225,0.23665611445903778,-0.3662143647670746,0.36920878291130066,0.7291558384895325,-0.6010585427284241,-0.6577511429786682,0.053183745592832565,0.5592288374900818,0.42550230026245117,0.356500506401062,0.4687645435333252,0.6279619932174683,0.05261151120066643,-0.38072705268859863,0.5706872940063477,0.005425892770290375,-0.37594255805015564,-0.4414801597595215,0.24700330197811127,0.3144744038581848,0.6329115033149719,-0.4806700646877289,0.24632811546325684,0.7264887094497681,-0.24570468068122864,-0.6502471566200256,-0.1995553970336914,-0.17122893035411835,-0.11673293262720108,0.5440776348114014,-0.4699453115463257,0.5409201979637146,-0.1028309017419815,-0.6632733345031738,0.15794949233531952,-0.09428195655345917,0.465419739484787,0.5442813634872437,0.5268157720565796,0.26023203134536743,0.6131554841995239,0.6159514784812927,-0.439919114112854,-0.6625115871429443,0.4128584861755371,-0.7360337972640991,0.34532755613327026,-0.4556984007358551,-0.33017605543136597,-0.28753042221069336,-0.3832177221775055,-0.5859352946281433,-0.24886223673820496,0.6489795446395874,-0.04609524458646774,0.5736287236213684,0.34296801686286926,0.39156827330589294,-0.4352838397026062,0.48576977849006653,0.16142712533473969,0.16818340122699738,-0.028589509427547455,-0.05672992393374443,0.3124192953109741,-0.6123495697975159,-0.2611486613750458,0.6926915645599365,0.39343225955963135,-0.23812627792358398,-0.17146611213684082,-0.3269147276878357,0.2620672583580017,0.21394465863704681,0.6435102224349976,0.13385027647018433,0.39278361201286316,0.1542092263698578,0.728632926940918,0.18596774339675903,0.44652220606803894,0.36412835121154785,-0.5484375357627869,-0.4628920257091522,-0.5774546265602112,0.4027840793132782,0.04759380221366882,0.3352552652359009,0.5389527678489685,0.716193675994873,-0.1007763147354126,-0.01640086993575096,0.5999194383621216,-0.008796965703368187,-0.22389931976795197,-0.2841029167175293,-0.17375753819942474,-0.4738480746746063,0.47783803939819336,-0.30878445506095886,0.2452840805053711,-0.2140703946352005,-0.6109246611595154,-0.636216938495636,0.14158938825130463,0.2989009916782379,0.16855452954769135,0.4868859648704529,0.1818677932024002,-0.013258285820484161,-0.31149452924728394,-0.24268987774848938,0.5413477420806885,0.34627270698547363,-0.285311222076416,0.10379951447248459,-0.4241459369659424,-0.35939282178878784,0.26068115234375,-0.13446226716041565,0.3476647436618805,-0.34995803236961365,0.10634858906269073,0.19906485080718994,-0.6737846732139587,0.6214239001274109,0.16848783195018768,-0.6069647669792175,-0.1917722374200821,-0.23479382693767548,0.6445417404174805,0.5601654052734375,0.12572260200977325,0.4032662808895111,-0.42615363001823425,-0.22359704971313477,0.14910273253917694,0.4064819812774658,0.08642299473285675,-0.06540748476982117,-0.609080970287323,0.501764714717865,-0.5784220099449158,0.40917661786079407,-0.44712668657302856,0.2796533703804016,0.6388383507728577,-0.11406386643648148,0.3857770562171936,0.29399141669273376,-0.3613477647304535,0.28606805205345154,0.7078102231025696,-0.45202064514160156,-0.5410611033439636,-0.1374237984418869,-0.724212646484375,-0.4254419505596161,-0.6306600570678711,0.37522390484809875,0.35827797651290894,0.06287716329097748,0.4146016836166382,0.3084773123264313,0.7460200190544128,0.7401006817817688,0.5936158299446106,0.30267971754074097,0.05024078115820885,-0.28765609860420227,0.5866159200668335,0.20918115973472595,-0.6395185589790344,0.5499886870384216,-0.1863897740840912,-0.24345619976520538,0.2598128020763397,0.3838898241519928,0.29705971479415894,-0.7157363295555115,0.2722700238227844,0.16856153309345245,0.6563793420791626,0.39054617285728455,-0.6687262058258057,-0.07430583983659744,0.3005233407020569,0.5797497034072876,-0.723693311214447,-0.4359781742095947,0.09897516667842865,-0.3160828948020935,-0.5073326826095581,-0.1915597766637802,-0.3423692286014557,0.6436948180198669,-0.557245135307312,-0.3517879843711853,-0.5543875098228455,0.689910352230072,-0.3510949909687042,-0.6115841865539551,0.5058141350746155,-0.7473190426826477,-0.5660350322723389,0.05033884197473526,-0.5964964032173157,-0.5720581412315369,-0.0816044956445694,-0.5854076743125916,-0.25249648094177246,-0.5178542137145996,0.22211244702339172,0.34599316120147705,-0.19864289462566376,-0.3269239664077759,-0.5833684802055359,0.5503513216972351,0.5172628164291382,0.11777546256780624,-0.7486454248428345,0.28231823444366455,-0.12951801717281342,0.6203050017356873,0.5365731120109558,0.6500170230865479,0.02570776455104351,-0.23838791251182556,0.582800567150116,0.6861902475357056,-0.08925314992666245,-0.3801805078983307,0.26847168803215027,0.6833266615867615,-0.694728434085846,0.5988771319389343,0.6779580116271973,-0.6407884359359741,0.44384104013442993,0.02607365883886814,0.5809392333030701,0.6247525811195374,-0.18245583772659302,-0.7146521806716919,0.4964272081851959,-0.11432437598705292,0.6201801896095276,-0.3195191025733948,-0.2926037013530731,0.37475594878196716,0.17285148799419403,0.671201229095459,-0.18329279124736786,-0.4605613052845001,-0.5442997813224792,-0.6086855530738831,0.5190246105194092,-0.7193273305892944,-0.1707349270582199,0.0597052164375782,-0.09208906441926956,-0.6725404858589172,-0.6661403775215149,-0.6747936010360718,-0.4900906980037689,0.26597779989242554,-0.4574592113494873,-0.0819835215806961,0.00891747698187828,0.5321832299232483,0.10956926643848419,-0.3989647328853607,0.19776475429534912,0.3731916546821594,0.37891316413879395,0.12715210020542145,-0.6285021305084229,0.017889175564050674,-0.745984673500061,-0.20865315198898315,0.33772554993629456,-0.2886578440666199,-0.24955636262893677,-0.13543151319026947,-0.4146336317062378,0.43129095435142517,0.3636823296546936,0.10348854213953018,-0.07741329818964005,-0.022631749510765076,-0.3341148793697357,-0.4173394739627838,-0.41233697533607483,0.4292376935482025,-0.3151816427707672,0.5207571387290955,-0.4607335329055786,0.3769650459289551,-0.09482365101575851,-0.09003946930170059,0.05841575562953949,-0.3797077536582947,0.16721183061599731,-0.2829832434654236,0.6586467027664185,-0.41675490140914917,-0.46817368268966675,0.5063424110412598,-0.3705734610557556,0.6651706099510193,0.4040725529193878,0.6872186064720154,-0.45475950837135315,0.38585278391838074,-0.5901837348937988,0.10165919363498688,0.5166623592376709,0.5119075775146484,-0.47393864393234253,0.5924548506736755,-0.15591104328632355,0.7154893279075623,-0.6138608455657959,0.467470645904541,-0.37889859080314636,0.2120683640241623,-0.3372345268726349,-0.23773019015789032,-0.6255978941917419,-0.6160691976547241,-0.5443514585494995,0.5452358722686768,0.14453010261058807,0.33266234397888184,-0.2632727026939392,0.5076379179954529,-0.2587524950504303,-0.5401915311813354,-0.7328876852989197,-0.35630688071250916,0.22836311161518097,0.05826411023736,-0.23058918118476868,0.08857492357492447,-0.38018524646759033,-0.2734125256538391,-0.41623014211654663,-0.14961054921150208,0.3408800959587097,-0.1950269490480423,-0.3210596442222595,0.03180820122361183,-0.010312981903553009,-0.5284525156021118,-0.26465001702308655,-0.7151671648025513,-0.15392030775547028,0.3536114990711212,0.6974277496337891,-0.23200085759162903,-0.060042716562747955,-0.2767462730407715,-0.011397261172533035,-0.3934386074542999,-0.49187561869621277,0.07505480200052261,0.18690983951091766,-0.2513972222805023,-0.24132433533668518,0.5971946716308594,-0.19263547658920288,-0.1912313550710678,-0.28078803420066833,-0.3962073028087616,0.4615936279296875,0.13219211995601654,-0.23853947222232819,-0.22022414207458496,0.16114278137683868,-0.6586506962776184,-0.39544057846069336,0.25547847151756287,-0.42417871952056885,-0.6432344317436218,0.7284504771232605,0.2639492452144623,-0.4275226294994354,0.04119227081537247,-0.11984703689813614,0.36781516671180725,-0.6237950921058655,-0.4394230246543884,-0.1685589849948883,-0.5020207166671753,0.127569779753685,0.40110522508621216,-0.4594278633594513,0.33620166778564453,0.0829688012599945,-0.291938841342926,0.2735350430011749,-0.044990576803684235,0.07659539580345154,0.5647841691970825,-0.31902822852134705,-0.5123750567436218,-0.1941550225019455,-0.6446580290794373,-0.5948806405067444,0.533913791179657,-0.31296899914741516,0.19979660212993622,-0.42881646752357483,-0.4492715001106262,0.20646682381629944,0.2445443868637085,-0.24575483798980713,0.7003470659255981,0.5731080174446106,-0.5015488266944885,-0.53392094373703,-0.05229199305176735,-0.6477097272872925,-0.7358992695808411,0.39800673723220825,0.17941254377365112,-0.0692778155207634,-0.06689908355474472,-0.327863484621048,0.6794041991233826,0.037200674414634705,0.23016567528247833,0.029722310602664948,0.716367781162262,0.4586295485496521,-0.20381641387939453,0.0026239310391247272,0.5122581124305725,-0.6692606806755066,0.5859032273292542,0.38471052050590515,0.05144616216421127,0.264171838760376,-0.32077881693840027,0.109188511967659,-0.0026205747853964567,0.581378161907196,-0.5454849600791931,0.5774229168891907,-0.4830072522163391,-0.10637150704860687,-0.19760917127132416,0.44784602522850037,-0.6153839230537415,-0.6205286979675293,-0.20275360345840454,-0.3475540280342102,0.34851187467575073,-0.521708071231842,0.5667857527732849,0.3238898813724518,-0.7156720161437988,0.5708103179931641,-0.340523362159729,0.45604342222213745,0.12334506213665009,-0.4978525936603546,-0.5744844675064087,-0.16442319750785828,0.06672059744596481,-0.48640942573547363,-0.4617420732975006,-0.5305432677268982,-0.6125333309173584,-0.43335676193237305,-0.48407062888145447,-0.26865875720977783,0.7261815667152405,-0.4501230716705322,0.48576462268829346,0.5996333360671997,-0.2990323007106781,0.5608336925506592,-0.580245852470398,0.6902357935905457,-0.45357367396354675,-0.1977284699678421,0.6425384283065796,-0.30661875009536743,-0.37878847122192383,-0.4017104208469391,-0.18832820653915405,-0.29953131079673767,0.6664069294929504,0.6937875747680664,0.013650305569171906,-0.7451345324516296,-0.7114056944847107,0.17218561470508575,0.5225168466567993,-0.25328895449638367,0.4516270160675049,0.449152410030365,0.19476541876792908,-0.012675408273935318,-0.6834249496459961,-0.6315436363220215,-0.22402897477149963,0.12563225626945496,-0.02155642956495285,0.7015497088432312,-0.38661542534828186,-0.49301791191101074,0.6052659153938293,-0.07095178216695786,-0.3450652062892914,-0.281825453042984,0.6156418323516846,-0.26796936988830566,-0.5225784182548523,0.5552027821540833,0.48096776008605957,0.6327983140945435,-0.7128883600234985,0.3070599436759949,-0.6194069981575012,-0.3024018704891205,-0.15120723843574524,-0.2735128700733185,0.0732293501496315,-0.12220949679613113,0.24078214168548584,0.45422863960266113,-0.6854925155639648,-0.6474997401237488,-0.6595983505249023,-0.09635044634342194,0.07159937173128128,-0.024977754801511765,-0.5312657356262207,0.4797803461551666,-0.051982417702674866,-0.20418405532836914,0.4829242527484894,0.37830913066864014,0.32481881976127625,0.7146424651145935,-0.7479496598243713,-0.4034530818462372,-0.6442388892173767,0.057678237557411194,-0.10788070410490036,0.507718026638031,-0.635789155960083,0.04987950623035431,-0.09981459379196167,-0.37048444151878357,-0.543030321598053,0.2835124135017395,-0.04067922756075859,-0.6934714317321777,0.434551864862442,0.6671331524848938,0.40322816371917725,-0.6810197830200195,0.3477507531642914,0.126959428191185,-0.27782490849494934,0.542631208896637,-0.5581557154655457,0.018312938511371613,-0.030743014067411423,0.04109889641404152,0.5553848147392273,0.14471830427646637,-0.02481003664433956,-0.06154780834913254,0.43756240606307983,0.23363642394542694,-0.20513048768043518,0.44885730743408203,-0.44267356395721436,0.6212441325187683,0.41543081402778625,-0.2093489170074463,-0.7019572257995605,-0.0017920276150107384,0.26641032099723816,0.09508674591779709,0.4809837341308594,0.40147438645362854,-0.25448232889175415,-0.22736743092536926,-0.7164379358291626,0.1592753678560257,0.559355616569519,-0.6463781595230103,0.7468618154525757,-0.6772662401199341,-0.028001712635159492,-0.3073873817920685,-0.17186565697193146,0.13663680851459503,-0.36703091859817505,-0.10664587467908859,0.24093979597091675,-0.6079427003860474,0.2859521210193634,-0.588846743106842,-0.2946295738220215,0.7010123133659363,0.1763553023338318,-0.18040522933006287,0.3168940842151642,0.285897433757782,0.09966830164194107,-0.19899548590183258,0.3618506193161011,-0.6015154719352722,-0.6411687135696411,-0.3143804669380188,0.24489469826221466,-0.46646612882614136,0.4024107754230499,0.2782443165779114,0.32262253761291504,0.3056509792804718,0.5290033221244812,0.320331871509552,0.5460767149925232,-0.6175225377082825,-0.4606507420539856,-0.07344352453947067,0.43041104078292847,-0.356410950422287,0.28671127557754517,0.37818214297294617,-0.5878885388374329,0.49532046914100647,0.4515434503555298,-0.38267090916633606,-0.2554689943790436,-0.394045352935791,-0.42485764622688293,0.31701505184173584,0.6925708055496216,0.18365544080734253,0.15930259227752686,0.18416692316532135,0.22265416383743286,-0.3037903904914856,-0.5471434593200684,-0.2384917140007019,-0.22387687861919403,0.3547230064868927,-0.08776988834142685,0.40623679757118225,0.11344017088413239,-0.690737783908844,-0.1862628012895584,0.18816405534744263,0.27119290828704834,-0.14176544547080994,-0.10394379496574402,-0.7303096652030945,0.5565202832221985,-0.6611242294311523,-0.33971917629241943,0.6315405964851379,0.5435228943824768,-0.4529414176940918,0.4036359488964081,0.13544830679893494,0.6801802515983582,-0.20684853196144104,0.2460133135318756,-0.6200676560401917,-0.42076972126960754,-0.3787635564804077,0.6145626306533813,0.6815553307533264,-0.3795543611049652,-0.7355234026908875,0.32790493965148926,-0.42229047417640686,-0.25995275378227234,-0.35663020610809326,-0.04299163818359375,-0.46802520751953125,-0.08058637380599976,0.038496244698762894,-0.7394144535064697,0.3750941753387451,-0.6939358115196228,-0.5933504700660706,-0.2944498360157013,0.3978915512561798,0.5967810153961182,-0.47944194078445435,0.5154744982719421,0.2567337453365326,-0.20693527162075043,-0.22746899724006653,-0.6905292272567749,0.749672532081604,0.3880643844604492,0.6825463175773621,0.07383403927087784,0.44202736020088196,-0.46032896637916565,0.6684587597846985,0.6785231232643127,-0.5662297606468201,-0.19121570885181427,-0.44155049324035645,0.750105082988739,-0.3414376676082611,0.505220890045166,0.6430036425590515,-0.010012186132371426,0.13626062870025635,-0.06433986127376556,0.08654433488845825,0.22584371268749237,0.14129748940467834,0.14070232212543488,-0.41427841782569885,-0.35734477639198303,-0.6610428690910339,-0.24841777980327606,-0.06994111835956573,0.39958441257476807,0.15823793411254883,0.1353316307067871,0.09810537099838257,-0.07354701310396194,0.5700252056121826,0.18542510271072388,-0.5402252078056335,0.16071946918964386,0.46425381302833557,-0.2718602418899536,0.2087697833776474,-0.2382841557264328,-0.714207112789154,-0.2727801501750946,0.20737700164318085,-0.19171011447906494,0.24508702754974365,0.05835660174489021,0.4309292137622833,0.10430589318275452,-0.3069635033607483,0.530748724937439,0.06240365281701088,-0.32350319623947144,-0.6927284002304077,-0.6983120441436768,0.3799089193344116,0.2504722476005554,-0.03200151026248932,-0.5659430623054504,0.18572783470153809,0.12656356394290924,0.21420827507972717,-0.09182087332010269,-0.06697416305541992,0.021057652309536934,-0.05063384771347046,-0.299593061208725,0.04377828538417816,0.2576693296432495,0.06739994138479233,0.07276139408349991,-0.13065335154533386,0.355633407831192,-0.19504663348197937,-0.32762303948402405,-0.024578090757131577,0.6168205738067627,-0.5005807876586914,-0.1169833093881607,-0.2736126482486725,-0.2232780158519745,0.253427118062973,-0.2576252520084381,0.20002049207687378,0.24574443697929382,0.575070321559906,-0.4736558496952057,0.21768531203269958,0.7083989381790161,0.7095279097557068,0.6845572590827942,0.7241246700286865,-0.12536947429180145,-0.3808373808860779,0.2775214612483978,-0.3924919664859772,-0.7163459062576294,-0.2734600007534027,-0.6926077008247375,-0.5865577459335327,-0.07463143765926361,0.21692071855068207,-0.5717512369155884,0.14840762317180634,-0.32322075963020325,-0.014285429380834103,0.6893826723098755,0.018234698101878166,0.6151264905929565,-0.5333640575408936,0.0992206558585167,-0.5352491140365601,0.13595543801784515,0.5709371566772461,-0.05734263360500336,0.6710118055343628,-0.667772114276886,0.2688634991645813,0.19053900241851807,-0.5480615496635437,0.22653548419475555,0.34190812706947327,-0.32572057843208313,-0.6481131911277771,0.6901872754096985,-0.5019881129264832,0.30668359994888306,-0.4448678195476532,-0.3414967656135559,0.0026013583410531282,-0.45255640149116516,0.49648505449295044,-0.7140848636627197,-0.18718741834163666,-0.1328696459531784,-0.05999017506837845,-0.3857012391090393,0.3871789276599884,-0.0351843424141407,0.3831596076488495,-0.4857560992240906,-0.7364180088043213,0.28177040815353394,-0.3526647984981537,0.19067098200321198,-0.1777147650718689,0.6525378823280334,-0.6401023268699646,0.7462188005447388,-0.22907298803329468,-0.670706033706665,-0.4443739056587219,-0.6132702231407166,-0.5451304316520691,-0.3263533413410187,0.013502350077033043,0.5194146037101746,0.07180127501487732,0.2473410665988922,0.7063130736351013,-0.4399500787258148,-0.5892018675804138,0.2924446165561676,-0.5904120802879333,-0.035240236669778824,-0.02234734781086445,-0.3386363387107849,0.004092822317034006,0.3429200053215027,0.15119224786758423,0.09957145899534225,0.23884496092796326,0.06859829276800156,-0.5129144787788391,-0.28285497426986694,-0.13367952406406403,0.020472152158617973,0.2769736647605896,0.6081044673919678,0.4015505313873291,-0.40217703580856323,0.15664705634117126,-0.4028405547142029,0.14537332952022552,-0.5346556901931763,0.14625464379787445,-0.4204697906970978,0.025450928136706352,-0.6541852951049805,-0.2619648277759552,-0.4721907377243042,0.16782546043395996,-0.2804752290248871,0.14768998324871063,0.23549784719944,-0.14476662874221802,0.23335908353328705,-0.7416228652000427,0.34258612990379333,0.5678965449333191,-0.2919091284275055,-0.10317440330982208,-0.4298747479915619,-0.05883925035595894,0.5379898548126221,0.02367875725030899,-0.22121661901474,0.46115443110466003,0.05226863920688629,0.36254191398620605,-0.1581193506717682,0.5418497323989868,-0.4672403633594513,0.39516201615333557,0.22027359902858734,-0.3169185221195221,-0.6662033200263977,-0.16615386307239532,0.44709551334381104,-0.3312808871269226,0.3083875775337219,0.21958181262016296,-0.47744429111480713,-0.23281005024909973,0.36577165126800537,-0.4444199800491333,-0.13940754532814026,-0.6319219470024109,-0.47688746452331543,-0.4951649308204651,0.19821520149707794,0.1374746859073639,0.6576729416847229,-0.20107047259807587,-0.3575228750705719,-0.5258663296699524,-0.13551902770996094,-0.5994226336479187,0.25147515535354614,-0.1008802279829979,-0.34537532925605774,-0.06784716248512268,-0.3846909701824188,0.34914469718933105,-0.3791112005710602,-0.06330469250679016,0.5760439038276672,-0.45995691418647766,0.08082982152700424,0.5755031108856201,-0.2606399655342102,0.11660659313201904,0.07280644029378891,-0.510738730430603,0.20799262821674347,-0.5927382707595825,-0.4695819318294525,-0.5452907085418701,-0.25859707593917847,0.314161479473114,0.6838823556900024,-0.1685069501399994,-0.019625568762421608,0.38597145676612854,0.029022902250289917,0.5798971652984619,0.3110925853252411,0.5771203637123108,-0.4365162253379822,-0.18041732907295227,-0.06184647977352142,-0.5696474313735962,0.6125133633613586,-0.1338997632265091,0.07479570060968399,0.39707645773887634,0.20066480338573456,-0.519898533821106,0.10948184132575989,0.38870424032211304,0.6554675698280334,-0.21750175952911377,0.32303109765052795,0.2855849266052246,-0.06353285908699036,0.1273033618927002,-0.14020851254463196,-0.12459877878427505,0.19589346647262573,-0.2589470446109772,-0.3628884553909302,0.054261464625597,0.257318377494812,-0.041561368852853775,0.34484612941741943,-0.12326988577842712,-0.024701455608010292,-0.24517112970352173,-0.6230232119560242,-0.7016618847846985,0.1491663008928299,0.052357494831085205,-0.08023025840520859,0.5622888803482056,0.07455559074878693,0.38260161876678467,-0.5620908737182617,0.3199025094509125,0.41608506441116333,0.3277745544910431,0.5182347297668457,-0.20287904143333435,-0.04021279513835907,0.6342098116874695,0.38538235425949097,-0.40801578760147095,-0.14372283220291138,0.13337047398090363,0.4726928472518921,0.19064824283123016,0.6821641325950623,0.11220770329236984,0.436857670545578,0.5830315947532654,-0.0625181645154953,-0.7474852204322815,0.7280275225639343,-0.12334258109331131,0.20560282468795776,0.6178346872329712,0.18776944279670715,-0.7179826498031616,-0.46816542744636536,-0.4623812735080719,0.49472251534461975,0.37216562032699585,-0.42023545503616333,0.23587839305400848,0.08449146151542664,0.41226646304130554,0.5961134433746338,0.10348206013441086,-0.6436966061592102,0.690554678440094,-0.1672639548778534,0.423242449760437,-0.6298706531524658,0.22912755608558655,0.703729510307312,0.29185420274734497,0.19596338272094727,0.5532512068748474,-0.5757046937942505,-0.0014946964802220464,0.47093531489372253,0.04849857836961746,0.016847476363182068,0.35865774750709534,-0.31416866183280945,-0.2458699643611908,0.17983007431030273,0.5919254422187805,0.4201939105987549,-0.48817679286003113,0.49719521403312683,0.11256328970193863,0.21821264922618866,0.07411239296197891,0.6985365152359009,0.27373504638671875,0.1259448379278183,-0.2773546278476715,0.6107722520828247,0.6305652260780334,-0.020651891827583313,-0.6579149961471558,-0.34951186180114746,0.5416325330734253,-0.32980844378471375,0.535983145236969,0.5308444499969482,-0.637199342250824,0.660994291305542,0.4950433373451233,-0.25043538212776184,0.25187426805496216,-0.13449865579605103,0.3572699725627899,-0.07260143756866455,-0.17483392357826233,0.6884745955467224,-0.4860280454158783,0.12541233003139496,-0.6625784635543823,0.03751562535762787,-0.1566789448261261,0.05585780739784241,0.16847346723079681,-0.6893669366836548,-0.14689569175243378,-0.043947696685791016,-0.12796218693256378,-0.6844311952590942,0.02733371965587139,-0.6960066556930542,0.08883430063724518,0.04119154438376427,0.3577033281326294,0.5116961002349854,-0.2828379273414612,-0.2909504175186157,0.4881255626678467,0.2868165671825409,-0.48558855056762695,0.17768895626068115,-0.25974398851394653,-0.21770702302455902,-0.570948600769043,0.5777117609977722,0.1476215273141861,-0.3788473606109619,0.7185913920402527,0.10943639278411865,0.746959924697876,0.06767749786376953,-0.47924312949180603,-0.2540131211280823,-0.3886847496032715,0.6828473210334778,-0.14735442399978638,0.3078152537345886,-0.1584671437740326,-0.6985604763031006,0.22031281888484955,0.5739894509315491,-0.6048301458358765,-0.33752647042274475,0.27766045928001404,-0.7338628768920898,-0.27842453122138977,0.4581068456172943,-0.5599696636199951,-0.3134737014770508,-0.6619266271591187,0.19299805164337158,-0.28480929136276245,0.5220966339111328,0.031091155484318733,0.7102606892585754,0.5274317264556885,-0.35119664669036865,-0.41193315386772156,0.5248759984970093,-0.7212767004966736,-0.382617324590683,-0.22565484046936035,0.5996222496032715,-0.532085120677948,0.4664362072944641,0.7041501402854919,0.6034448742866516,-0.24527612328529358,0.022088494151830673,0.6578251123428345,0.5270775556564331,0.06278777867555618,0.3417551517486572,-0.2613111436367035,-0.5911223292350769,0.632053554058075,-0.23987431824207306,-0.725658118724823,-0.5661372542381287,-0.46028241515159607,0.08542662858963013,0.6016796827316284,0.6827666759490967,-0.3517935872077942,-0.3021552562713623,0.11662118881940842,-0.40953344106674194,0.6713447570800781,0.3645205497741699,0.3440730571746826,-0.7025351524353027,0.3655857443809509,-0.06600575149059296,-0.25573936104774475,-0.4314327538013458,-0.05752430111169815,0.20622193813323975,0.5115595459938049,0.026956012472510338,0.2964881360530853,0.27738431096076965,0.176301971077919,-0.041344836354255676,-0.29466232657432556,0.27308234572410583,-0.16282959282398224,-0.2652254104614258,-0.5787650942802429,-0.4194836914539337,-0.6536561846733093,-0.5466978549957275,0.4606785774230957,-0.29470664262771606,0.603897750377655,-0.319635808467865,-0.1423470377922058,0.4287901818752289,-0.6097651720046997,-0.39157551527023315,-0.05082636699080467,0.15195021033287048,0.39181041717529297,0.4797436594963074,0.5336753129959106,-0.508228063583374,0.6718661189079285,-0.1347266435623169,-0.6568553447723389,0.364536851644516,0.4885247051715851,-0.38866719603538513,-0.07646290212869644,-0.008651663549244404,-0.6368529200553894,0.18385009467601776,0.3081210255622864,-0.23130148649215698,-0.5852264165878296,-0.6133672595024109,0.07004264742136002,0.08339580148458481,-0.2874769866466522,-0.1183992549777031,0.6788544058799744,0.7276358604431152,0.5006744265556335,0.2843097150325775,-0.12560777366161346,-0.1854720562696457,-0.35466617345809937,-0.2934480309486389,-0.12449324131011963,-0.16272810101509094,-0.10282191634178162,-0.11195924878120422,-0.2343316227197647,-0.3906210958957672,-0.005981672555208206,0.6084321141242981,0.25590530037879944,0.003179681021720171,-0.2958110272884369,0.742341935634613,0.6727265119552612,0.5704741477966309,-0.43228843808174133,-0.0295525211840868,-0.7256661057472229,-0.5048617720603943,-0.6517037749290466,0.6516270041465759,0.6098678708076477,0.5333433747291565,0.705256462097168,-0.7258858680725098,0.16923628747463226,0.6722878813743591,-0.5570964813232422,-0.7477894425392151,0.6494958400726318,0.2568259537220001,0.15705689787864685,0.08188566565513611,0.6774868369102478,0.36122873425483704,0.5408342480659485,-0.680060863494873,-0.07138983905315399,-0.47481003403663635,0.691184937953949,0.13989488780498505,-0.4854564070701599,0.46094828844070435,0.4159056544303894,-0.48525893688201904,-0.38664916157722473,-0.6451700329780579,-0.6504448056221008,-0.3709166347980499,-0.26220008730888367,0.13403728604316711,-0.1703794300556183,0.020818687975406647,-0.6000634431838989,-0.6950432658195496,0.3058387041091919,-0.7307977080345154,0.2772960364818573,0.6822967529296875,-0.24816790223121643,-0.4498887360095978,0.49857160449028015,0.5664724707603455,0.0520952008664608,-0.04491038620471954,-0.3120073080062866,0.27776092290878296,-0.5490393042564392,-0.6605284810066223,0.6693596243858337,0.03843652456998825,-0.3292044699192047,-0.5622200965881348,-0.570787250995636,0.5218929648399353,0.1749597042798996,-0.41189002990722656,-0.530807614326477,0.5273386240005493,0.6854704022407532,0.5699386596679688,-0.06572474539279938,-0.5944947004318237,-0.46218544244766235,-0.7359528541564941,-0.5314514636993408,-0.3643733263015747,-0.3812801241874695,-0.2914058566093445,-0.16529032588005066,0.221483513712883,0.31063082814216614,0.7322359681129456,0.7388138175010681,-0.09493373334407806,-0.3198688328266144,0.692401647567749,0.05809402093291283,0.07009884715080261,-0.09829355031251907,-0.5826908946037292,0.4492669999599457,-0.24706044793128967,0.14645332098007202,-0.5253392457962036,-0.1625937819480896,0.4530397653579712,0.08587975800037384,-0.44652554392814636,-0.08055146038532257,0.3175821304321289,0.25301510095596313,-0.405877947807312,-0.6384423971176147,-0.7460281848907471,0.5123080611228943,-0.31862473487854004,-0.12514038383960724,-0.26800933480262756,0.6539168953895569,0.6625761985778809,0.5913095474243164,-0.4834318459033966,-0.0071426755748689175,-0.2727847099304199,0.44465968012809753,0.745286762714386,0.030535738915205002,-0.5782698392868042,-0.2988068163394928,0.1000351756811142,-0.396314412355423,-0.34969401359558105,-0.3659611642360687,0.6698410511016846,-0.5660924315452576,0.6247870326042175,-0.3465854823589325,-0.16118496656417847,-0.6757819056510925,-0.08399971574544907,-0.6470779776573181,0.15603800117969513,-0.3751559853553772,-0.5006898641586304,-0.49909937381744385,0.5316396951675415,0.22815890610218048,0.14832161366939545,-0.6577346324920654,-0.5305183529853821,-0.15085949003696442,0.4568774402141571,0.13992655277252197,-0.5776227712631226,0.5831550359725952,0.15019676089286804,-0.24853606522083282,0.08208813518285751,0.01660611666738987,-0.1727646440267563,0.2506906986236572,-0.04136979207396507,-0.06257713586091995,-0.5950089693069458,0.24771268665790558,0.7444316744804382,-0.26818373799324036,-0.4663228690624237,-0.6276853680610657,0.012712636962532997,0.20912255346775055,0.06926869601011276,0.1793479323387146,-0.1967148333787918,0.6891093850135803,0.463733971118927,0.13896843791007996,0.6538163423538208,-0.22010134160518646,0.7151254415512085,-0.6818926930427551,-0.7327136397361755,-0.1176571398973465,0.5850293040275574,-0.014855069108307362,-0.4314657747745514,0.2648526132106781,0.1989668756723404,-0.6835032105445862,-0.17704281210899353,-0.65036940574646,-0.39845699071884155,-0.727938175201416,-0.37442320585250854,-0.6830639243125916,0.653904378414154,-0.38892608880996704,0.5378136038780212,0.4661136865615845,-0.2854396104812622,0.14801383018493652,0.5030192136764526,0.0638747438788414,-0.25218456983566284,-0.4594116806983948,-0.28272807598114014,-0.7069993019104004,-0.07918794453144073,-0.6934274435043335,-0.18844403326511383,-0.7158975005149841,0.7139618992805481,-0.33024343848228455,-0.43146321177482605,0.1338987499475479,-0.32718390226364136,0.5158982872962952,0.2519404888153076,-0.5315629243850708,0.3553820550441742,-0.4930531084537506,0.5428152084350586,0.12322675436735153,-0.08248203992843628,0.5843140482902527,0.27417221665382385,-0.4399404525756836,0.16643185913562775,0.10145524889230728,0.2600271999835968,0.5166295170783997,0.7332531213760376,0.17306821048259735,-0.4974651038646698,0.49072253704071045,-0.11297627538442612,-0.659050464630127,0.07970800995826721,0.09656251221895218,0.48341360688209534,-0.6356329917907715,0.026776209473609924,0.6186987161636353,0.31109026074409485,0.17986901104450226,0.08020371198654175,-0.2609904110431671,-0.6668689250946045,0.6025776267051697,0.10650497674942017,0.09987998753786087,0.6661329865455627,-0.07416993379592896,0.412163108587265,0.026686670258641243,-0.45361167192459106,-0.5288408398628235,0.0222763791680336,-0.3031094968318939,-0.33101239800453186,-0.49222567677497864,0.5139768719673157,-0.33467626571655273,-0.743259847164154,0.4294655919075012,-0.48985645174980164,0.11208558827638626,-0.3830195963382721,0.3823543190956116,-0.35110458731651306,-0.6299318671226501,0.30894532799720764,0.6985333561897278,0.683455228805542,-0.27825164794921875,0.44744646549224854,0.5744289755821228,-0.5398993492126465,0.4176054298877716,-0.038514189422130585,0.07517722249031067,-0.04359652101993561,0.658123254776001,0.03525044769048691,0.34960442781448364,-0.195054292678833,0.6619231700897217,0.669623851776123,0.6204414963722229,0.023179298266768456,-0.3462785482406616,-0.05062604323029518,-0.47615858912467957,-0.7002812027931213,0.20690277218818665,0.6567515730857849,-0.09852215647697449,0.04506070166826248,-0.45998743176460266,0.1120549812912941,0.00037361885188147426,0.1551826000213623,0.1612265557050705,-0.5940902829170227,-0.45712369680404663,0.20097783207893372,0.5754250288009644,0.0601821169257164,-0.46407151222229004,-0.6010140180587769,-0.08676229417324066,0.6120201945304871,-0.054309528321027756,0.33380305767059326,0.5588335990905762,-0.6905967593193054,-0.1802513599395752,-0.6993463039398193,0.0838741660118103,-0.7006898522377014,-0.0198807530105114,0.42973610758781433,0.7102416157722473,0.47537800669670105,-0.40519922971725464,0.18897370994091034,-0.7144220471382141,0.3577885329723358,-0.4933023750782013,-0.3107788562774658,0.42340287566185,-0.5121771097183228,0.5855888724327087,0.44110023975372314,0.20401595532894135,-0.26467859745025635,0.6719910502433777,-0.17234298586845398,0.1613951176404953,0.25890684127807617,-0.6933285593986511,0.17674633860588074,0.7410925626754761,-0.20730775594711304,-0.5901404023170471,-0.5733350515365601,0.6231396198272705,0.38221338391304016,0.06832123547792435,0.437164843082428,0.5598171353340149,0.3668864071369171,-0.03918670862913132,0.40416207909584045,0.2022831290960312,-0.6565226316452026,0.09037826955318451,-0.2511731684207916,-0.38035452365875244,0.1535106599330902,-0.36179283261299133,0.4698013961315155,0.5128498077392578,0.5388215184211731,-0.7082759141921997,-0.19639454782009125,0.49357038736343384,0.6466847658157349,0.08990239351987839,0.5910658836364746,-0.747632622718811,0.6576837301254272,0.22238503396511078,-0.3171435296535492,0.6520148515701294,0.48490580916404724,0.7480234503746033,0.40531790256500244,-0.39268845319747925,-0.1798800528049469,-0.1574339121580124,-0.09543539583683014,-0.01805139146745205,0.22771157324314117,0.09609378129243851,0.4124033749103546,0.4154593050479889,0.4778338074684143,0.1716477870941162,0.17654913663864136,-0.41475167870521545,-0.7123769521713257,-0.12065212428569794,0.6856169700622559,-0.28150424361228943,0.0017058050725609064,-0.4075658321380615,-0.7055522203445435,-0.6244626641273499,-0.39705079793930054,-0.40711188316345215,0.10351388901472092,0.7279622554779053,0.47531265020370483,-0.4951169192790985,-0.7270762324333191,-0.08998313546180725,-0.03271181881427765,-0.7285600304603577,0.21227425336837769,0.5740748643875122,-0.6949236392974854,0.5102118849754333,0.358980655670166,-0.4649614691734314,0.23679393529891968,0.7204921841621399,0.4232582449913025,-0.08090319484472275,-0.3710511326789856,0.3326289653778076,-0.2560131549835205,0.31591925024986267,0.5018526315689087,0.3977007567882538,-0.5890493392944336,0.2249649465084076,0.663695216178894,0.6716021299362183,0.22147206962108612,0.07039356231689453,0.41930240392684937,0.2518559992313385,-0.13312554359436035,-0.11718284338712692,-0.00356579408980906,-0.47888004779815674,-0.08336818218231201,0.03904593363404274,-0.42153021693229675,-0.07352226227521896,-0.6803141236305237,0.4812854826450348,-0.3028746545314789,0.2929416596889496,0.3490011692047119,0.21182607114315033,0.24496369063854218,0.6175528764724731,-0.3368161916732788,0.31251630187034607,-0.009536562487483025,0.4059973955154419,-0.6150197386741638,0.6345566511154175,-0.179982528090477,0.019258027896285057,-0.6207813620567322,-0.5048967003822327,0.7375123500823975,-0.6569389700889587,-0.05588090047240257,0.5253450274467468,-0.7279287576675415,-0.0413699597120285,0.5884543061256409,-0.5089312791824341,-0.5256345868110657,0.4998195469379425,-0.058536380529403687,-0.4155409038066864,0.06447338312864304,-0.6734485626220703,0.3734718859195709,-0.6355746388435364,0.3997403383255005,-0.3924659788608551,-0.1737523078918457,-0.31832727789878845,-0.43030327558517456,-0.7135581374168396,0.0295857023447752,0.6071662306785583,-0.08693055063486099,0.6925728917121887,0.4574384391307831,0.5278395414352417,-0.6690179705619812,0.5637952089309692,-0.14857546985149384,-0.584274411201477,-0.11451452225446701,0.32440462708473206,-0.7166779637336731,0.3148097097873688,0.18015994131565094,0.10847246646881104,0.1376725435256958,-0.3416900634765625,0.6595213413238525,0.39438286423683167,0.14336667954921722,-0.3869842290878296,-0.03514063358306885,-0.26832228899002075,0.006778149399906397,-0.38776394724845886,0.19828729331493378,-0.6497641801834106,0.30472224950790405,0.5419168472290039,-0.7427403330802917,-0.22844788432121277,-0.12714700400829315,-0.6779550313949585,-0.6662640571594238,0.19027842581272125,0.00915704108774662,-0.686013400554657,-0.6558579206466675,0.3542134463787079,0.5034066438674927,0.0849115252494812,-0.2365090250968933,-0.5605651140213013,-0.6595368385314941,0.2237413078546524,0.6329416632652283,0.7067530155181885,-0.1979925036430359,-0.7018236517906189,0.15853340923786163,-0.22248679399490356,-0.16366788744926453,0.7184430360794067,-0.13539162278175354,-0.5452319383621216,-0.5114725828170776,0.5185670256614685,0.03119053691625595,0.30584657192230225,-0.708552360534668,-0.06291307508945465,0.2950707972049713,-0.5771796703338623,-0.05325045809149742,-0.6249134540557861,0.6641520857810974,-0.6107341647148132,0.07502122968435287,-0.22349536418914795,-0.5096580386161804,-0.7258090376853943,0.11165900528430939,-0.7420294880867004,-0.7093310356140137,-0.19882799685001373,-0.5607380270957947,-0.39778053760528564,-0.008499170653522015,-0.11754162609577179,-0.03695449233055115,0.03260872885584831,-0.437113881111145,0.7325184941291809,0.0978902280330658,0.13276322185993195,-0.1871594935655594,0.5757706165313721,0.6992195248603821,0.14418095350265503,0.22067949175834656,-0.6089078783988953,0.4190548360347748,-0.425923228263855,-0.3289441764354706,-0.12263147532939911,0.17480160295963287,-0.6613907814025879,-0.15316754579544067,-0.7101730108261108,0.09531862288713455,0.030582411214709282,0.16071853041648865,-0.6151197552680969,0.08068327605724335,0.49229636788368225,0.25420457124710083,0.6761951446533203,0.5258089303970337,0.6030889749526978,-0.2576175630092621,-0.4590369164943695,-0.6009526252746582,0.19813095033168793,0.0510384738445282,0.04644705727696419,-0.09381432831287384,-0.22781728208065033,-0.5398202538490295,-0.44314566254615784,-0.06778141856193542,0.21914373338222504,-0.5744208097457886,0.3842460513114929,0.6599331498146057,-0.06046019867062569,0.03207622095942497,-0.40441349148750305,0.012751131318509579,0.28821420669555664,0.5066169500350952,-0.4370061457157135,0.5555869340896606,0.6734714508056641,0.6058666706085205,-0.276624858379364,0.1736140251159668,-0.21747681498527527,-0.36985599994659424,0.10601529479026794,0.16016462445259094,0.4429113268852234,-0.243702694773674,-0.6885437965393066,-0.5622169971466064,-0.35117340087890625,-0.2869566082954407,0.3886021673679352,0.49623996019363403,0.35050100088119507,0.5906631350517273,-0.34485986828804016,-0.4582202434539795,0.4568510353565216,-0.4278029501438141,0.6467388868331909,-0.5104900598526001,-0.1900387704372406,-0.5391411185264587,0.07032962143421173,0.1238878071308136,0.3493154048919678,0.16368837654590607,-0.6921882629394531,0.18006664514541626,-0.023576734587550163,0.09932035207748413,0.1229562982916832,-0.3122802972793579,-0.7411412000656128,-0.09616871178150177,-0.45949459075927734,0.3609103262424469,-0.5882001519203186,0.17615188658237457,-0.004304308909922838,-0.4615316092967987,0.5810531973838806,0.4692891538143158,0.5020596385002136,0.03228685259819031,-0.1457030326128006,-0.6581541895866394,-0.20639711618423462,0.37502190470695496,-0.5365978479385376,0.3786698877811432,0.3937433660030365,-0.14715035259723663,0.04913654923439026,0.38733798265457153,-0.5107426047325134,0.48695454001426697,0.45662611722946167,-0.4811133146286011,0.40861228108406067,-0.6494196057319641,-0.4081362187862396,-0.5081109404563904,0.12709948420524597,-0.12728053331375122,0.3986256420612335,-0.5584011673927307,-0.5615541338920593,-0.5884293913841248,-0.7405094504356384,-0.3944920599460602,0.08255688846111298,0.02429904229938984,-0.10444959253072739,-0.42588162422180176,0.22520096600055695,0.48046377301216125,0.5314323306083679,-0.15505419671535492,0.48866552114486694,-0.5325270295143127,0.6678113341331482,0.23969346284866333,0.6507923007011414,0.11954307556152344,0.7382539510726929,-0.1476001888513565,0.24335500597953796,0.5751798152923584,-0.6384968161582947,0.27464398741722107,-0.3504958748817444,0.2170780748128891,-0.6021445393562317,0.1246471181511879,0.28003573417663574,0.6896008253097534,-0.3714330792427063,-0.11611011624336243,0.22614750266075134,-0.49876946210861206,-0.5561402440071106,0.18387334048748016,0.09551259130239487,-0.44521456956863403,-0.36809241771698,0.4945520758628845,0.20648150146007538,0.31049516797065735,0.19902586936950684,0.47824540734291077,0.6439286470413208,-0.40008777379989624,0.023020513355731964,0.6861398220062256,-0.26193767786026,-0.611704409122467,-0.003030656836926937,0.461385577917099,0.31961920857429504,0.293497234582901,0.09233544021844864,-0.6073784828186035,-0.3765694499015808,-0.16865859925746918,0.1556140035390854,0.44009485840797424,0.350600004196167,-0.04893855005502701,0.5224838256835938,-0.18754054605960846,-0.5804735422134399,0.70472651720047,-0.3374403715133667,0.6998580694198608,0.2768890857696533,0.20856526494026184,-0.11901858448982239,0.2923850119113922,0.16535985469818115,0.24385659396648407,0.6312881708145142,0.14500989019870758,-0.18426254391670227,0.28221648931503296,-0.3834023177623749,0.5269288420677185,0.31072521209716797,-0.04563147574663162,0.3913612365722656,0.6458287835121155,0.4105663597583771,0.37017297744750977,-0.6270437836647034,0.3631691038608551,0.4295101761817932,0.7279028296470642,0.49558451771736145,0.07822345942258835,-0.00691020954400301,-0.06187748536467552,0.011101950891315937,-0.7234795093536377,0.1447674036026001,-0.1651083081960678,0.6983042359352112,0.05701049044728279,0.6524558663368225,-0.41801249980926514,-0.24559490382671356,-0.7030053734779358,-0.3658615052700043,0.0779985710978508,-0.01718808524310589,-0.4793987274169922,-0.22389204800128937,-0.2703700065612793,0.5542541742324829,-0.6998845338821411,-0.48445430397987366,0.42024192214012146,0.4473492503166199,0.48808056116104126,0.5283783078193665,0.49703681468963623,0.22595468163490295,-0.051012009382247925,-0.038140587508678436,-0.6862279176712036,-0.6459895372390747,0.6242294907569885,-0.07781804352998734,-0.11445561796426773,0.6579003930091858,0.3068900406360626,0.03459111601114273,-0.05390945449471474,0.6346906423568726,0.6034030318260193,0.02784644439816475,-0.10000011324882507,-0.6079069375991821,0.6788811087608337,-0.6069515347480774,0.7246489524841309,0.2298295944929123,0.5289165377616882,-0.15911340713500977,-0.4893481135368347,0.22377102077007294,0.060593727976083755,0.5711272358894348,0.43533027172088623,-0.004929182585328817,0.40610334277153015,-0.3795073330402374,-0.004413851071149111,0.1343633383512497,0.5338181853294373,-0.16458232700824738,-0.4977131187915802,-0.021125134080648422,0.7191742658615112,-0.09836914390325546,0.39484503865242004,-0.13627518713474274,-0.5125783085823059,0.46367377042770386,0.18458518385887146,0.6085966229438782,0.5048145651817322,-0.4853198826313019,-0.6314464211463928,-0.10468932241201401,0.24515001475811005,-0.4938550591468811,0.4248678982257843,0.22432222962379456,-0.2777218222618103,0.022596342489123344,0.4480983316898346,-0.1417173445224762,-0.24083726108074188,0.11061467975378036,-0.6718199849128723,-0.6126610636711121,0.3238134980201721,0.4492736756801605,-0.7221793532371521,0.2893534004688263,-0.5218468904495239,0.159474179148674,-0.25617045164108276,-0.607936441898346,-0.2365192323923111,0.07439664751291275,-0.35644322633743286,-0.728701651096344,0.596954882144928,-0.3421831429004669,-0.37275823950767517,-0.5989874005317688,-0.42687058448791504,0.6636873483657837,0.41751447319984436,0.16005626320838928,0.6390915513038635,0.038331903517246246,0.3261791169643402,0.3451623320579529,-0.49326181411743164,0.5137519836425781,0.6842106580734253,0.22513875365257263,-0.1368246227502823,0.34534740447998047,0.519899845123291,0.5437275171279907,0.6567230820655823,-5.5860350585135166e-06,-0.4512538015842438,0.6662880182266235,-0.3762812912464142,0.3050197958946228,0.08849141001701355,0.002645059721544385,-0.3270891308784485,0.30655914545059204,0.5839851498603821,0.2940899431705475,0.24650779366493225,-0.6823654174804688,0.5172109603881836,0.7544663548469543,-0.40541404485702515,0.7097089886665344,0.3030736446380615,-0.330988347530365,0.4298986494541168,-0.2235632836818695,0.32708442211151123,0.2509380280971527,0.19691050052642822,0.22463151812553406,-0.45809000730514526,-0.2103116810321808,-0.14518475532531738,-0.3694024682044983,0.6566533446311951,0.5738580822944641,-0.26237720251083374,0.719618022441864,-0.04091038182377815,0.7035549879074097,0.41910818219184875,-0.6138017773628235,-0.5994951128959656,-0.29940611124038696,-0.5303021669387817,0.310808002948761,0.28461313247680664,0.14322666823863983,0.05401143431663513,0.1554332822561264,0.5051493048667908,0.5842636227607727,-0.021538645029067993,-0.599581241607666,0.4554530084133148,-0.26678046584129333,0.4912923276424408,0.18400610983371735,0.07931248843669891,-0.2055736780166626,0.5993470549583435,-0.29243478178977966,0.3430805206298828,0.44664904475212097,-0.1586257815361023,0.4468088150024414,-0.6592210531234741,0.01270873099565506,-0.4867022931575775,0.6872230172157288,-0.3602803349494934,-0.22723086178302765,0.32320600748062134,-0.14040623605251312,-0.4478893280029297,0.5483016967773438,-0.6078474521636963,-0.48088932037353516,0.7271458506584167,0.33488115668296814,-0.2182985544204712,0.35815364122390747,0.009992586448788643,-0.5451716184616089,0.3447687327861786,-0.5815777778625488,0.46930742263793945,0.28971225023269653,-0.20865026116371155,-0.372978538274765,-0.6981022357940674,0.2865414023399353,0.4302312731742859,-0.3757738769054413,0.5758724808692932,0.6229954957962036,-0.2636602520942688,0.06661475449800491,0.2685777246952057,0.34806111454963684,-0.0991910845041275,0.4935702681541443,-0.016376039013266563,-0.5448755621910095,-0.4370487928390503,0.7477908730506897,-0.6328103542327881,-0.47190210223197937,-0.3534860610961914,-0.6188948750495911,-0.32085663080215454,-0.4652327597141266,0.4272457957267761,-0.5927199721336365,0.12211892008781433,-0.2741999626159668,-0.64435875415802,-0.1983572542667389,-0.5003772974014282,0.28827348351478577,-0.48297032713890076,-0.5725371837615967,-0.22655746340751648,0.5300143957138062,0.017778590321540833,-0.169573575258255,-0.0399799719452858,0.3667868673801422,-0.5294813513755798,0.1310255378484726,0.6119391918182373,0.421130508184433,-0.2996688485145569,0.5276152491569519,-0.5884091258049011,-0.10500435531139374,0.7335658669471741,0.17106525599956512,-0.5754463076591492,0.7297571897506714,-0.6934394240379333,-0.5413215160369873,0.31852275133132935,-0.05442254990339279,0.15363809466362,-0.43122175335884094,-0.4815157651901245,0.6161117553710938,0.5450897216796875,0.045440081506967545,0.6626656651496887,-0.5756158232688904,0.17539291083812714,0.5481933355331421,0.5279078483581543,-0.542813241481781,0.6692276000976562,-0.7413256168365479,0.280538946390152,-0.18454468250274658,-0.5686335563659668,-0.01229909062385559,0.6983956098556519,-0.3476138412952423,0.13942009210586548,0.25087839365005493,0.307777464389801,0.012606274336576462,0.709905207157135,0.4396052658557892,0.5933717489242554,-0.3138732612133026,0.6572458148002625,0.7297892570495605,0.39250680804252625,-0.6553513407707214,0.5435650944709778,-0.27185043692588806,-0.5380610227584839,0.6502009630203247,-0.7490477561950684,0.31919845938682556,-0.6441854238510132,0.7369454503059387,0.38223153352737427,-0.2111479789018631,0.44573351740837097,0.36069366335868835,0.49515435099601746,0.04391055181622505,0.4049244821071625,-0.597147524356842,0.0836973711848259,-0.5013850331306458,0.3051065504550934,-0.47782546281814575,0.1285683810710907,0.5760851502418518,-0.22570307552814484,-0.6597387790679932,0.10106410831212997,-0.2591458261013031,0.15853755176067352,-0.5846959948539734,0.4713207483291626,-0.1236393079161644,-0.11216568946838379,-0.39312979578971863,0.36272934079170227,0.3569478988647461,-0.730563759803772,0.5895695686340332,0.6742597222328186,-0.29971247911453247,-0.3456190824508667,0.5629823803901672,0.555509090423584,-0.36731070280075073,-0.5497422218322754,-0.439516544342041,-0.45625048875808716,0.2343541383743286,0.7016456127166748,0.44688764214515686,0.5441834926605225,-0.676887571811676,0.044582683593034744,0.553338885307312,0.12693998217582703,0.5490818619728088,-0.5194586515426636,-0.17316824197769165,0.5764790773391724,-0.37167662382125854,-0.5855729579925537,0.43939831852912903,0.17545312643051147,-0.020196374505758286,0.7353957891464233,-0.04631967470049858,-0.5375336408615112,-0.7254943251609802,0.2927558720111847,-0.24875730276107788,0.24658183753490448,0.006570311728864908,-0.16053912043571472,-0.03480399772524834,0.37569713592529297,0.527618944644928,0.40015721321105957,0.33837541937828064,0.5850585103034973,-0.4782613217830658,-0.26930296421051025,0.05871954560279846,-0.1898777335882187,-0.22156216204166412,-0.2633662223815918,-0.3119469881057739,-0.49958688020706177,0.3552541434764862,0.23457768559455872,-0.6610630750656128,0.002190833445638418,-0.08929281681776047,-0.4911403954029083,0.6735257506370544,0.06888067722320557,-0.6005995273590088,-0.19400383532047272,0.5035553574562073,-0.04061715304851532,0.18247617781162262,0.4899110496044159,0.3859108090400696,0.3257434666156769,0.26933372020721436,0.45173799991607666,0.07794862985610962,0.06561191380023956,0.2822943329811096,-0.07137272506952286,-0.14636027812957764,-0.17434248328208923,0.07159557193517685,-0.45125073194503784,0.17257657647132874,-0.6561208963394165,0.1328807920217514,0.21969307959079742,-0.5442586541175842,0.5798846483230591,0.24837908148765564,-0.2721741199493408,0.7211623191833496,0.43147966265678406,-0.14854785799980164,0.4349184036254883,-0.4613208472728729,0.5796629786491394,0.5369367599487305,-0.6392145752906799,-0.7461689710617065,0.21017558872699738,-0.3860336244106293,-0.6619975566864014,0.6844078898429871,0.022645678371191025,-0.02709098719060421,0.10353702306747437,-0.447610080242157,0.45273295044898987,-0.434379905462265,-0.6553479433059692,0.047863833606243134,-0.7298483848571777,0.456831157207489,0.361697793006897,-0.6966403722763062,0.5746738314628601,-0.3586387038230896,0.3198953866958618,0.04308891296386719,-0.5161690711975098,-0.03185964748263359,0.14583025872707367,-0.7291879057884216,-0.714362382888794,0.3117079734802246,-0.33756887912750244,-0.5015219449996948,0.36672505736351013,-0.6558523774147034,0.13098980486392975,-0.46776726841926575,0.24793297052383423,-0.4586103558540344,-0.32184943556785583,0.635162353515625,-0.3251626491546631,-0.6934467554092407,0.5144124031066895,0.544817328453064,0.09584306180477142,0.46588248014450073,0.27976277470588684,0.1091090589761734,0.3296246826648712,-0.7406160235404968,0.4248955547809601,0.0787285566329956,0.48592516779899597,0.011358020827174187,-0.12407111376523972,0.6467116475105286,0.05963045731186867,-0.702441930770874,-0.029980454593896866,0.025993438437581062,-0.5036957859992981,-0.3080965578556061,-0.5132930278778076,-0.2623591721057892,0.06436251103878021,0.24327298998832703,-0.594266951084137,-0.6824496388435364,0.5156753063201904,0.32942304015159607,-0.3053417205810547,-0.602073073387146,0.2150043547153473,0.6271823644638062,0.15885372459888458,-0.6911349892616272,0.4671071469783783,-0.5095714330673218,-0.07181742787361145,-0.3003429174423218,-0.007657086942344904,-0.009442786686122417,0.10973364114761353,0.6143758296966553,0.3500418961048126,0.0035076525527983904,0.47903192043304443,0.035042066127061844,-0.3014445900917053,0.4082857370376587,0.3540010452270508,-0.7250687479972839,0.5772164463996887,0.22090555727481842,-0.42487582564353943,-0.37617912888526917,0.5547902584075928,0.619265615940094,-0.0590263269841671,0.4768749177455902,-0.3771480321884155,-0.4079616963863373,-0.37902820110321045,0.7403720617294312,-0.5674676895141602,0.7165435552597046,-0.5403114557266235,-0.739030122756958,0.34659990668296814,-0.3405334949493408,-0.24078042805194855,0.6756576895713806,0.7180622816085815,0.7355512380599976,-0.35676124691963196,0.3284245431423187,0.4531343877315521,-0.307271808385849,0.7483555674552917,-0.24031642079353333,-0.7089953422546387,0.6555737257003784,-0.11338348686695099,-0.10807938128709793,0.7327569723129272,-0.5977052450180054,0.29354628920555115,0.2259078472852707,-0.6173175573348999,0.6108198761940002,-0.7047767639160156,-0.14287033677101135,0.23820647597312927,-0.7129595279693604,0.47113627195358276,-0.7328494191169739,-0.03622768819332123,0.42727258801460266,-0.5848582983016968,0.3167210519313812,0.5147947669029236,0.44931551814079285,0.2712167501449585,-0.49119627475738525,0.742817223072052,-0.6598438620567322,-0.15168681740760803,-0.6093595623970032,0.3454435169696808,-0.2988436222076416,0.6390412449836731,0.11719807237386703,-0.721114456653595,0.6238412261009216,-0.04583565518260002,-0.016949525102972984,0.1156330332159996,-0.4703386723995209,0.05448009818792343,-0.649770975112915,0.6035534739494324,-0.5598847270011902,-0.25092166662216187,0.1894501894712448,-0.1957205832004547,-0.2844891846179962,-0.07929135113954544,0.5391508340835571,-0.6772607564926147,0.3971066176891327,0.24796773493289948,-0.4425230026245117,0.6860302090644836,0.7369987368583679,0.35772940516471863,0.19826819002628326,0.1701372116804123,0.5214863419532776,-0.49627456068992615,-0.7362368702888489,-0.3643050491809845,-0.39383018016815186,-0.3731168210506439,0.2608943581581116,-0.333027184009552,-0.25819528102874756,0.5324369072914124,-0.27985891699790955,-0.4026041626930237,0.18133260309696198,-0.4627387523651123,-0.36455780267715454,-0.03739502280950546,-0.05353768169879913,0.5388538241386414,0.22237592935562134,0.021786704659461975,0.6465139985084534,-0.25352802872657776,-0.4647521674633026,0.06902256608009338,0.695080041885376,0.4549895226955414,0.2774721086025238,0.7230251431465149,-0.5155444145202637,0.4454626441001892,-0.6226780414581299,-0.34866419434547424,-0.7152708172798157,-0.42364251613616943,0.5733172297477722,-0.4305664896965027,-0.6306145191192627,0.3567807376384735,0.42528441548347473,0.05673767626285553,-0.37946048378944397,0.3510816991329193,0.2153235524892807,0.6863188743591309,0.4590863287448883,-0.7180089950561523,0.6603825688362122,-0.28740453720092773,0.30057069659233093,-0.19286075234413147,0.5491952300071716,0.571493923664093,0.17568513751029968,-0.43485409021377563,-0.32225120067596436,0.42276623845100403,-0.4558236598968506,-0.5169461369514465,-0.6673203706741333,0.3741748034954071,-0.3039439022541046,-0.13894709944725037,-0.5256497263908386,-0.7023685574531555,-0.5074540376663208,0.22286540269851685,-0.20683559775352478,0.5434373021125793,0.7076689600944519,0.7028439044952393,-0.44501617550849915,0.6672363877296448,-0.01107687596231699,-0.625477135181427,-0.4731505513191223,0.35134157538414,-0.3152380883693695,-0.3290734589099884,-0.016834823414683342,0.4643310308456421,0.3533645272254944,-0.7233176231384277,-0.11801233887672424,-0.6511059403419495,-0.5495741367340088,-0.4194476306438446,0.6080499291419983,0.43437665700912476,0.2944314181804657,-0.1336134374141693,0.09018127620220184,-0.009341306053102016,-0.2542983889579773,0.23658804595470428,0.6395536065101624,0.3163397014141083,0.27597853541374207,0.6106479167938232,0.6304171085357666,0.3892180025577545,-0.4831477105617523,-0.5950961112976074,0.5964932441711426,-0.058251578360795975,-0.20102910697460175,-0.686927855014801,0.12745574116706848,0.10016953945159912,-0.21159741282463074,-0.4764476418495178,-0.132991224527359,-0.009451811201870441,0.1459718942642212,-0.10796575248241425,0.5987005233764648,0.03998471051454544,0.7397626638412476,-0.18693757057189941,0.3868560791015625,-0.17482389509677887,0.06518857926130295,0.43381014466285706,-0.3835829496383667,-0.7113526463508606,-0.36688846349716187,-0.6404390335083008,0.03474204242229462,0.5294473767280579,0.04384694620966911,-0.02162419632077217,0.3688369691371918,0.5211346745491028,0.17392659187316895,0.6366222500801086,-0.10106809437274933,0.6536908149719238,-0.4355841279029846,0.736476480960846,0.18377605080604553,0.1936769187450409,0.12264112383127213,0.49261078238487244,0.730072557926178,-0.5373895764350891,-0.593482255935669,-0.6515436768531799,-0.28277701139450073,-0.5225244164466858,-0.6607319116592407,-0.2815268635749817,0.11151845008134842,0.6688048839569092,-0.03872520849108696,0.1910528987646103,0.041745059192180634,0.02966371178627014,-0.027145931497216225,-0.3961030840873718,0.6358663439750671,-0.1744723916053772,-0.29792964458465576,0.37302064895629883,0.2746206820011139,0.46981939673423767,0.11955056339502335,-0.08273858577013016,0.40054649114608765,0.023158365860581398,-0.7143076658248901,0.05630146339535713,0.033403173089027405,0.5155256986618042,-0.23681063950061798,0.7181278467178345,-0.4995885491371155,-0.08018288016319275,-0.44236066937446594,-0.5228919386863708,-0.40194907784461975,-0.20603595674037933,-0.4687468409538269,-0.1483253836631775,0.47186505794525146,0.39723122119903564,0.08217579871416092,-0.26227831840515137,0.7117077708244324,0.4659403860569,0.25571951270103455,0.4332868754863739,0.3325226902961731,0.6099907159805298,0.6629176735877991,0.025326089933514595,0.6433415412902832,-0.6103143095970154,-0.6731389164924622,0.4844217896461487,-0.09425937384366989,-0.18569281697273254,0.3719721734523773,-0.06726521998643875,0.2844976782798767,0.40685510635375977,-0.41660261154174805,0.5122502446174622,-0.1864330768585205,0.4184702932834625,-0.6933216452598572,-0.5842525362968445,0.6041934490203857,-0.15895548462867737,0.21390628814697266,0.19374194741249084,0.52950519323349,0.4748464822769165,0.4780389070510864,0.5009208917617798,-0.5519368052482605,-0.3793475925922394,-0.6940671801567078,0.599040687084198,-0.3927900195121765,-0.3041972517967224,-0.5811175107955933,-0.45842260122299194,-0.5796380043029785,0.5509279370307922,-0.5857152342796326,-0.1914840042591095,0.10873347520828247,0.6455230712890625,0.5646029114723206,0.47896578907966614,-0.5499541759490967,0.30187126994132996,-0.15051956474781036,-0.10596798360347748,-0.6832184791564941,-0.3533325791358948,-0.0005916246445849538,-0.6225837469100952,0.459968626499176,0.6960556507110596,-0.6430764198303223,-0.38758498430252075,0.4964781403541565,-0.08627404272556305,0.16908060014247894,-0.6283242106437683,-0.035374611616134644,0.7266867160797119,-0.18404409289360046,-0.2659222185611725,-0.6688911318778992,0.7186249494552612,-0.5834367871284485,-0.3907996118068695,-0.0943039208650589,-0.20665878057479858,-0.5478441715240479,-0.4188278913497925,-0.5527514815330505,-0.554723858833313,0.3449021279811859,-0.5079949498176575,-0.250895619392395,-0.24641487002372742,0.12758177518844604,0.27401620149612427,0.43629080057144165,-0.4165656864643097,-0.018143054097890854,0.08138589560985565,0.2533864378929138,-0.5046977996826172,-0.13680008053779602,0.06281210482120514,0.6239311695098877,0.7204274535179138,-0.7490046620368958,0.050426702946424484,-0.2720590829849243,-0.5618879795074463,-0.4750550091266632,0.7405031323432922,-0.14280202984809875,0.5473809838294983,0.017623096704483032,0.25200116634368896,-0.715427041053772,0.5509650707244873,0.7144598364830017,-0.7031210064888,-0.24676141142845154,-0.1429118514060974,0.5079164505004883,0.49673977494239807,-0.10846400260925293,0.46048662066459656,0.4510842561721802,-0.39915457367897034,-0.40000155568122864,-0.18139269948005676,-0.6917115449905396,0.020686183124780655,-0.43326032161712646,0.5150091052055359,0.44122615456581116,0.3491474986076355,-0.005777467042207718,-0.6653963327407837,0.34549424052238464,-0.48935794830322266,0.4637254774570465,-0.22551915049552917,0.24841929972171783,-0.7472224235534668,0.3106510639190674,-0.42765137553215027,0.5665344595909119,0.12132536619901657,-0.5226649641990662,0.41690394282341003,-0.09711993485689163,0.6211284399032593,0.20221419632434845,-0.7320470809936523,-0.23803865909576416,0.008101272396743298,-0.4022667407989502,-0.34695252776145935,-0.20360997319221497,0.47924384474754333,-0.13271090388298035,0.7406138777732849,0.6891645789146423,0.5877851843833923,-0.24342767894268036,0.13054406642913818,0.7390970587730408,0.07622727006673813,0.5966723561286926,0.4415075182914734,0.09707458317279816,0.07742149382829666,-0.38382577896118164,-0.48121780157089233,-0.2790873050689697,-0.3021199703216553,0.09096403419971466,0.6352059841156006,-0.11591288447380066,0.0042000398971140385,-0.5279032588005066,-0.4489237070083618,0.3924671411514282,0.6279094219207764,-0.5179197788238525,-0.43235084414482117,0.24804630875587463,-0.18970076739788055,0.4354710578918457,-0.6447017192840576,-0.41084450483322144,-0.07133446633815765,0.5126218795776367,-0.04460781812667847,0.5100681781768799,0.19492030143737793,0.24872325360774994,-0.3135276734828949,0.013565653003752232,-0.6489166617393494,0.5331029295921326,0.6042869091033936,0.06460152566432953,-0.6839869022369385,0.28765296936035156,0.630927562713623,0.04775049537420273,0.7144644856452942,-0.21813973784446716,-0.0036668621469289064,0.7491050958633423,-0.21252819895744324,0.6858543753623962,-0.05788899585604668,0.08211608976125717,0.36383306980133057,-0.4614071249961853,0.3117862045764923,0.26820504665374756,-0.3434670567512512,-0.1688348650932312,0.19388307631015778,-0.6360090970993042,-0.684295117855072,0.16016283631324768,-0.5735850930213928,0.03443301096558571,0.06678049266338348,-0.5184683799743652,0.4740132987499237,-0.37185537815093994,0.5094014406204224,-0.11044424772262573,0.17740151286125183,0.503859281539917,0.4895944893360138,0.4822351634502411,0.3718751072883606,0.3630804419517517,0.004023085813969374,0.42946168780326843,0.03222622349858284,-0.5294464826583862,0.7369329929351807,0.6020491123199463,0.4196997582912445,-0.37267056107521057,0.3343196213245392,0.3575887382030487,-0.5958815217018127,-0.030123194679617882,-0.23905211687088013,-0.573739230632782,-0.08333487063646317,0.24765200912952423,-0.08844471722841263,0.3932061195373535,-0.170846089720726,-0.3815630376338959,0.31495580077171326,0.45679885149002075,-0.17075267434120178,0.7269769906997681,-0.07862412929534912,0.744705080986023,-0.7398181557655334,0.06819456070661545,0.465219110250473,0.32420647144317627,-0.4908802807331085,-0.6017624139785767,0.2049945592880249,-0.2882429361343384,0.16113543510437012,0.29849937558174133,-0.5760665535926819,0.02532140351831913,-0.3606223464012146,-0.44951045513153076,0.7053358554840088,-0.4255007207393646,-0.22973254323005676,-0.37804004549980164,0.05627548694610596,-0.5952609777450562,-0.20887871086597443,0.4526360034942627,-0.013522443361580372,-0.25163114070892334,-0.13589777052402496,0.5803003907203674,-0.33416736125946045,-0.5823023319244385,-0.09970963001251221,-0.17058831453323364,-0.07544134557247162,-0.35776135325431824,-0.4416426718235016,-0.40464383363723755,0.2080298364162445,-0.464382141828537,-0.3722480833530426,-0.2503490447998047,-0.6286661624908447,0.6916543841362,0.6338257193565369,-0.29775816202163696,0.11145557463169098,0.3351019322872162,-0.41471409797668457,-0.4015319347381592,-0.06493457406759262,0.6515278816223145,0.37098589539527893,-0.13289493322372437,-0.33442389965057373,-0.5485349297523499,0.3353547751903534,0.6015467047691345,-0.29156583547592163,0.0027532787062227726,-0.3037070333957672,-0.3548060953617096,-0.5767431855201721,0.4551857113838196,0.07825000584125519,0.5918448567390442,0.6704607009887695,-0.11681937426328659,0.7464604377746582,0.024822846055030823,-0.18204772472381592,-0.22464676201343536,0.29809704422950745,0.49559199810028076,-0.49656254053115845,0.5087279081344604,-0.07542771100997925,0.5420677065849304,-0.7279726266860962,-0.7103580236434937,0.714421272277832,-0.7099062204360962,0.0729270651936531,0.26274916529655457,0.2531921863555908,-0.2637307941913605,-0.5018463134765625,0.06963670253753662,0.710774838924408,-0.627169132232666,-0.2038315236568451,-0.5138349533081055,0.38080957531929016,0.5191210508346558,-0.08608309924602509,-0.7456910610198975,-0.09277815371751785,-0.21387295424938202,0.16107583045959473,0.5861875414848328,-0.30067360401153564,-0.061055008322000504,0.1069088876247406,-0.25792452692985535,-0.44826018810272217,0.6061263084411621,0.7038266658782959,0.20899808406829834,0.67000412940979,0.3010287284851074,-0.7336539030075073,0.14400352537631989,-0.029429521411657333,0.7353416085243225,-0.5571954250335693,-0.5847532749176025,-0.6967633366584778,-0.40139108896255493,0.46434587240219116,0.7420320510864258,-0.06295297294855118,0.07265941798686981,-0.10472448170185089,-0.15848663449287415,0.3105684220790863,-0.37302669882774353,-0.35564351081848145,-0.33566340804100037,0.33069324493408203,0.5267046093940735,-0.3271836042404175,-0.6870854496955872,0.4212404191493988,0.4199618101119995,0.0556582473218441,-0.6876139640808105,0.1774052232503891,0.06005913019180298,-0.059602003544569016,0.2694491744041443,-0.4095514118671417,-0.35580796003341675,0.3042971193790436,-0.0030596989672631025,0.05388034135103226,0.4811430275440216,0.07780841737985611,0.6133230924606323,-0.3133062422275543,-0.44264858961105347,-0.271446168422699,-0.7437004446983337,-0.526081383228302,-0.6707999110221863,-0.40990325808525085,0.6387932896614075,0.3384958505630493,0.41853150725364685,-0.5598993301391602,-0.4790164530277252,0.005473070312291384,0.5846748948097229,-0.3757532835006714,-0.367353618144989,0.39143067598342896,0.6091524958610535,-0.7432910799980164,-0.5631131529808044,-0.6488180756568909,-0.30531349778175354,0.40497592091560364,-0.22658227384090424,0.17778606712818146,-0.08498696237802505,0.03963463008403778,-0.0473017655313015,0.7170103788375854,0.5646042823791504,0.22445881366729736,0.026623237878084183,0.40874266624450684,-0.5216988325119019,-0.6956302523612976,0.37395763397216797,0.5678188800811768,0.3308137059211731,-0.6854975819587708,-0.5843169689178467,-0.024695605039596558,-0.6190286874771118,0.471998006105423,-0.33799320459365845,-0.333249032497406,-0.3974955081939697,0.13109919428825378,-0.2908179759979248,0.05100426450371742,0.5695297122001648,0.019200710579752922,-0.5128304362297058,-0.2420337051153183,-0.4180545508861542,0.19912248849868774,0.2876233160495758,-0.024568267166614532,-0.07704257220029831,-0.1077137291431427,-0.47743672132492065,-0.23757582902908325,-0.5644293427467346,0.5169422626495361,0.5281000137329102,-0.08251403272151947,0.17525534331798553,0.3820110261440277,-0.05979223921895027,0.057969678193330765,-0.11920022964477539,0.5670018792152405,0.5393421649932861,-0.25293776392936707,0.6022825241088867,-0.35499945282936096,-0.6916348934173584,0.01680992729961872,-0.21440096199512482,0.5904458165168762,-0.3770771026611328,0.17866112291812897,-0.1389419287443161,-0.23687373101711273,-0.656383216381073,-0.7414278984069824,-0.4546649754047394,0.312529593706131,-0.5469151735305786,-0.43555012345314026,-0.2632676959037781,0.5419036149978638,0.44557398557662964,-0.7406966090202332,-0.5228599309921265,0.3858558237552643,0.482471764087677,-0.4877728819847107,0.05478833615779877,-0.702624499797821,0.7413316965103149,0.45318758487701416,-0.2753119468688965,0.5054810643196106,-0.623077392578125,-0.06068217754364014,-0.7391669750213623,0.25242647528648376,-0.5054588317871094,0.21412324905395508,0.6311786770820618,-0.11983884871006012,0.012038742192089558,-0.7151745557785034,-0.3620069622993469,-0.7474663853645325,-0.3672791123390198,0.5954285860061646,-0.17316538095474243,0.1436627209186554,0.11691579222679138,-0.5807434320449829,-0.4418782889842987,0.625852644443512,0.46615615487098694,0.3085130453109741,-0.10491013526916504,-0.4396446645259857,0.27382826805114746,0.03268582746386528,0.5240010619163513,0.015370648354291916,-0.6884355545043945,-0.3450607657432556,-0.3113517761230469,-0.40836501121520996,-0.20571349561214447,0.1538434624671936,0.7170615196228027,-0.20514684915542603,0.00983517523854971,-0.32998746633529663,-0.5163506269454956,0.4111500382423401,0.6752613186836243,-0.43180182576179504,0.7027227878570557,0.6517978310585022,0.32269611954689026,0.5319909453392029,0.03560810536146164,0.3445507884025574,0.4462408721446991,0.7200297117233276,0.5926980376243591,0.6061713695526123,-0.09222535789012909,-0.24742060899734497,-0.5646675825119019,0.34537768363952637,0.02429277077317238,0.4874366223812103,0.4554397463798523,0.3023976683616638,0.39495009183883667,0.43734684586524963,0.3767779767513275,-0.027676627039909363,0.692085325717926,0.06624944508075714,-0.4056766629219055,-0.71237713098526,-0.12813416123390198,-0.5,-0.5319454073905945,0.2736336588859558,0.7332869172096252,0.1229289248585701,-0.6366792917251587,-0.0656704530119896,0.6702483892440796,0.29073068499565125,-0.06544043123722076,0.369073748588562,-0.30251359939575195,-0.10424342751502991,0.5750536918640137,-0.6512783765792847,-0.5448115468025208,-0.2002710998058319,-0.04705093428492546,-0.32904085516929626,0.014516130089759827,0.45640358328819275,0.11100008338689804,-0.3795684576034546,-0.5454656481742859,-0.47890496253967285,-0.6818618774414062,-0.07515475153923035,0.6122593879699707,-0.15841680765151978,-0.04953721538186073,-0.43208077549934387,-0.6917129755020142,0.07430461049079895,0.28071027994155884,0.5248813033103943,-0.4217950999736786,0.6893923878669739,0.5829954743385315,0.7052047252655029,0.013986734673380852,-0.3440294563770294,-0.2946417033672333,-0.4530228078365326,0.6777600646018982,0.26344025135040283,0.7470300793647766,0.483433336019516,-0.6473160982131958,0.3771378993988037,0.35702016949653625,0.6849667429924011,-0.6658922433853149,-0.18485583364963531,-0.49662426114082336,-0.7423969507217407,0.20357248187065125,-0.34396326541900635,-0.13499291241168976,-0.23312456905841827,0.598979651927948,0.6680038571357727,0.24582912027835846,-0.06946131587028503,-0.6625308394432068,-0.5556483268737793,-0.14454416930675507,0.4528229534626007,-0.27878454327583313,0.2464573234319687,0.31856295466423035,-0.5140518546104431,-0.4949965178966522,-0.5843811631202698,-0.6123031377792358,-0.17509692907333374,-0.39587101340293884,0.4034585654735565,-0.7007750868797302,0.741813063621521,0.7061065435409546,-0.3609822392463684,0.3081381618976593,-0.3604647219181061,-0.6628588438034058,-0.7420350313186646,-0.37177738547325134,-0.22276818752288818,0.5217940211296082,0.2136409729719162,0.6283628344535828,-0.19915804266929626,0.29608526825904846,0.19024883210659027,-0.5176187753677368,-0.568132758140564,0.3377370238304138,-0.5320665836334229,0.18150492012500763,-0.19330932199954987,-0.3318626284599304,0.6264698505401611,0.4951813220977783,-0.385854035615921,-0.3640724718570709,0.37675124406814575,0.023627540096640587,0.610560417175293,0.6612280011177063,-0.7201827168464661,0.5776787996292114,-0.5247078537940979,0.662468671798706,0.6299085021018982,-0.3947926461696625,0.24226447939872742,0.1100887805223465,0.2683080732822418,-0.6321051120758057,-0.35463592410087585,0.4494103789329529,0.5593283176422119,0.5613300204277039,0.737238347530365,0.15797297656536102,0.238298237323761,0.5421041250228882,-0.5049593448638916,0.39175039529800415,0.17900708317756653,-0.052860938012599945,-0.3153615891933441,-0.4770701825618744,0.194407656788826,-0.5041367411613464,0.41886743903160095,0.6928014159202576,-0.5022530555725098,-0.2751859426498413,0.4658028781414032,0.593544065952301,-0.4326765835285187,-0.6411539912223816,-0.13160060346126556,-0.18694336712360382,-0.13826078176498413,0.09931817650794983,-0.5590976476669312,0.10328264534473419,0.4343113601207733,-0.0122762992978096,0.4453727602958679,-0.7359116673469543,-0.25228527188301086,0.11636755615472794,5.0225564336869866e-05,-0.33394256234169006,0.17770381271839142,-0.6345928907394409,-0.2510834336280823,-0.025540102273225784,0.20898054540157318,0.21444712579250336,0.22207222878932953,-0.6934186220169067,-0.5162102580070496,0.03804970160126686,-0.0696803405880928,0.2961115539073944,-0.2156999111175537,0.694999635219574,0.22120241820812225,-0.11264976859092712,-0.3275880217552185,-0.02387046068906784,-0.17619957029819489,-0.08940592408180237,0.2550164759159088,0.24379080533981323,0.5699930787086487,-0.03241388499736786,0.5252279043197632,0.13637851178646088,-0.20866572856903076,-0.5101634860038757,0.013306683860719204,0.7454270124435425,0.11060994118452072,0.7197026610374451,-0.5462915301322937,-0.04373617842793465,0.6631956100463867,0.19139081239700317,0.5236638188362122,0.22753065824508667,0.6478649377822876,-0.13936962187290192,0.6008313894271851,0.3358680009841919,0.13116386532783508,0.4960032105445862,0.13311177492141724,-0.051643725484609604,-0.2943830192089081,-4.895234451396391e-05,-0.07382937520742416,-0.5259310603141785,0.5872887372970581,0.4301181733608246,0.36921927332878113,0.3006967306137085,-0.5819944739341736,-0.25532403588294983,-0.12878422439098358,0.42664578557014465,-0.1378137618303299,-0.12541869282722473,0.015527420677244663,0.44288769364356995,-0.4872274398803711,0.12569603323936462,-0.3592376708984375,-0.1190948635339737,0.40899643301963806,-0.04645102098584175,0.6300389170646667,-0.3030945360660553,-0.030458929017186165,-0.0014734717551618814,-0.23170936107635498,-0.29228511452674866,-0.39446237683296204,-0.432918906211853,-0.5755264759063721,-0.15556786954402924,0.10413973778486252,-0.48938503861427307,0.0569460503757,0.6411256194114685,0.7281794548034668,-0.2831069231033325,0.22851687669754028,0.39441612362861633,0.3255258798599243,-0.7408401370048523,-0.5673139095306396,-0.19902227818965912,-0.3499831557273865,0.07173150777816772,-0.3147346079349518,-0.35389411449432373,0.19713151454925537,0.4043472111225128,0.2810007631778717,-0.6554914116859436,0.2845921218395233,0.442753404378891,0.7243022322654724,0.6226468086242676,-0.49578776955604553,-0.6569884419441223,-0.37892550230026245,-0.6374221444129944,-0.6593649387359619,-0.6700285077095032,0.4295583665370941,0.4810236096382141,-0.5447836518287659,-0.49918121099472046,0.6274471879005432,-0.29023274779319763,0.3257911801338196,-0.5269839763641357,-0.37051063776016235,-0.6946112513542175,0.6661763191223145,0.39472976326942444,0.16871599853038788,0.49754461646080017,-0.12263178825378418,0.4983135759830475,0.07939605414867401,-0.3704792559146881,0.4069942831993103,-0.10122928768396378,-0.5471280217170715,0.31613457202911377,-0.5168930292129517,0.5962731838226318,-0.23048695921897888,-0.6374460458755493,0.5571130514144897,-0.3084618151187897,-0.3912351727485657,-0.03938662260770798,-0.13474436104297638,-0.31281542778015137,-0.725751519203186,0.1926765888929367,0.3511943519115448,-0.5006672143936157,-0.1785864233970642,-0.7228016257286072,0.2317420244216919,-0.6081370711326599,-0.23322591185569763,0.43543487787246704,-0.33740559220314026,0.20073384046554565,0.3805274963378906,0.6255688667297363,-0.17385058104991913,-0.4733791947364807,-0.1252068728208542,0.6977064609527588,0.6062913537025452,-0.551802396774292,-0.2762068808078766,0.08911941200494766,-0.060024090111255646,0.03871043026447296,-0.45483720302581787,-0.7168626189231873,-0.543825626373291,-0.26688018441200256,-0.031874604523181915,0.046795789152383804,0.1693635880947113,0.7350404262542725,0.6058536171913147,-0.21320553123950958,-0.12418682128190994,-0.25301241874694824,-0.6724698543548584,-0.29010647535324097,0.13656304776668549,0.3148498833179474,0.1908150166273117,0.33889827132225037,0.535976767539978,0.5824543237686157,-0.6072540283203125,-0.07608018815517426,0.4099869430065155,0.47014153003692627,0.23227474093437195,-0.003274267539381981,0.42739611864089966,0.22450149059295654,-0.7049056887626648,-0.1107681468129158,0.21603776514530182,-0.3419554531574249,0.2501589357852936,-0.3283407688140869,-0.2525824010372162,-0.11837733536958694,-0.15069043636322021,-0.35015782713890076,-0.6598287224769592,-0.7215330600738525,-0.48150214552879333,0.3974173665046692,0.47506678104400635,-0.7055271863937378,0.4857221245765686,0.26073768734931946,0.44351261854171753,-0.18821686506271362,0.2939341068267822,-0.1768859475851059,0.5649417638778687,-0.6883710622787476,-0.16166678071022034,-0.5135506391525269,0.3418150842189789,-0.5894832015037537,0.6342793703079224,-0.4299272298812866,0.3335816562175751,0.37532615661621094,0.11543380469083786,0.13950257003307343,-0.05709346383810043,-0.07557116448879242,-0.7070834040641785,-0.35198214650154114,-0.5106122493743896,0.07850003987550735,0.7460200190544128,0.37846821546554565,-0.5399373769760132,0.05236227437853813,-0.7113325595855713,-0.3864724934101105,0.5686074495315552,-0.16046953201293945,-0.4279285967350006,0.2248183786869049,0.745936930179596,-0.26243311166763306,-0.0966058000922203,0.23027904331684113,0.1964254379272461,-0.6848092079162598,-0.6315017938613892,-0.60206538438797,0.10569000989198685,0.16172948479652405,-0.36837998032569885,0.43752536177635193,0.14639535546302795,0.7267187237739563,0.17544612288475037,-0.396819144487381,0.6755390763282776,0.4505596458911896,-0.36964863538742065,-0.6001689434051514,-0.49341458082199097,0.23275414109230042,-0.6142560243606567,0.40745121240615845,-0.4681449234485626,-0.39243006706237793,0.28816622495651245,0.280549556016922,-0.02314015105366707,0.28543105721473694,-0.18828019499778748,-0.5600873827934265,0.2909380793571472,-0.5907339453697205,0.025991298258304596,-0.3444250524044037,0.6821216344833374,0.5731596946716309,0.06996981054544449,0.2326030433177948,0.040497615933418274,0.4963427186012268,0.21772289276123047,0.3354472219944,-0.5016311407089233,0.2519572675228119,-0.562046229839325,0.013458452187478542,-0.009355010464787483,0.6721208691596985,0.10911392420530319,0.2952719032764435,0.0026948563754558563,-0.2696136236190796,-0.2802075147628784,0.01525472104549408,0.26558229327201843,0.6810979247093201,0.5177656412124634,-0.6658951044082642,0.5686066150665283,-0.2564395070075989,0.6255530118942261,0.5436384677886963,0.34517142176628113,0.5940355062484741,0.25672057271003723,0.35717537999153137,-0.2005220651626587,0.27489012479782104,0.23554889857769012,-0.45676112174987793,0.12821310758590698,-0.1033121645450592,0.11810906231403351,-0.18219371140003204,0.3040388524532318,-0.38227567076683044,-0.1523318886756897,-0.11291036754846573,-0.20131319761276245,-0.6116675138473511,-0.09587281942367554,-0.6142535209655762,0.47643107175827026,0.5657366514205933,-0.05623599514365196,-0.33115464448928833,-0.4498293399810791,-0.7081449627876282,-0.5903517007827759,-0.5809616446495056,-0.19748932123184204,0.041056208312511444,-0.5470894575119019,0.25841981172561646,0.33441269397735596,-0.7188757061958313,-0.06841251254081726,0.2958744466304779,0.14983069896697998,-0.1573728621006012,-0.12607678771018982,0.4637594223022461,-0.3380815088748932,-0.6499067544937134,0.28982672095298767,0.5465489625930786,0.5651881098747253,0.010310043580830097,0.26891350746154785,0.051408931612968445,-0.10161609947681427,0.6302024722099304,-0.09830567985773087,-0.4925991892814636,0.22386370599269867,0.008028463460505009,0.7149338722229004,0.3542919158935547,-0.7435612082481384,-0.6808469295501709,0.21202600002288818,-0.1283053755760193,-0.049755699932575226,-0.7109385132789612,-0.14969921112060547,-0.23350411653518677,-0.36813437938690186,-0.4681628942489624,0.4073203504085541,-0.6662415266036987,-0.7493343949317932,-0.653907299041748,-0.6756368279457092,0.44638651609420776,-0.17713117599487305,-0.46250277757644653,-0.16828475892543793,-0.13709576427936554,0.58658367395401,-0.6205098628997803,0.5981917977333069,-0.5725160241127014,-0.3944580554962158,0.24985231459140778,-0.3527911901473999,0.552873969078064,0.43967899680137634,0.487624853849411,-0.4311855435371399,-0.09151129424571991,-0.1299244910478592,-0.227498859167099,0.7000830173492432,0.6936075091362,0.23640626668930054,0.4027462303638458,0.31382960081100464,0.6201476454734802,0.5970684289932251,-0.03227938711643219,0.41788411140441895,0.7431896328926086,0.2267279475927353,-0.5675732493400574,0.00028385320911183953,0.1669972538948059,-0.6289466023445129,0.3674788475036621,-0.2666495442390442,-0.7317111492156982,-0.2515770196914673,-0.7249824404716492,-0.713638424873352,-0.35935544967651367,-0.6206784844398499,0.4466366469860077,-0.09716686606407166,0.29078781604766846,0.023444602265954018,-0.3786798417568207,-0.4243481159210205,-0.6289576292037964,-0.6707997918128967,-0.26123642921447754,-0.48334911465644836,-0.24457354843616486,0.47726646065711975,-0.15605401992797852,0.04758295789361,0.6714081168174744,-0.1097383052110672,0.04714752361178398,-0.17908865213394165,0.054703883826732635,0.037221841514110565,0.486219584941864,0.20712780952453613,-0.29134923219680786,-0.4988383948802948,0.40220949053764343,0.18475937843322754,-0.5002116560935974,0.12115556001663208,-0.6142557263374329,-0.6454534530639648,0.34946608543395996,-0.3178311586380005,0.5320694446563721,0.5865725874900818,0.5867787003517151,-0.41493380069732666,0.41660481691360474,-0.14374636113643646,0.17645688354969025,-0.6432172656059265,0.06203673407435417,0.32351088523864746,-0.6907643675804138,0.625339150428772,0.33188024163246155,-0.5357734560966492,-0.5358847379684448,0.7337962985038757,-0.35272887349128723,-0.6661273241043091,0.5925604104995728,-0.15071681141853333,-0.39520588517189026,-0.05243813619017601,0.5606085062026978,0.16246530413627625,-0.4779014587402344,0.6230642795562744,-0.23604004085063934,-0.061631832271814346,0.3816951811313629,-0.48573389649391174,0.2835802733898163,0.07148104906082153,-0.17079640924930573,-0.3907748758792877,0.46633490920066833,0.5738753080368042,0.6150169372558594,0.6746750473976135,0.05000600591301918,-0.30009540915489197,0.021088002249598503,0.21988163888454437,0.6001789569854736,0.17481501400470734,0.10447021573781967,0.44817402958869934,0.044910985976457596,-0.4892302453517914,-0.04141218215227127,0.44536590576171875,0.22801080346107483,-0.677840530872345,0.16247785091400146,-0.16835296154022217,-0.3828776478767395,-0.505357027053833,-0.21991752088069916,0.036378130316734314,-0.46665531396865845,-0.2058887779712677,-0.4461227059364319,0.4542030990123749,0.0516342967748642,-0.4050014317035675,-0.5214963555335999,0.6605907082557678,-0.687649130821228,-0.17319786548614502,0.22571517527103424,0.5123341679573059,-0.38287246227264404,-0.5748022198677063,-0.19579868018627167,-0.18412618339061737,-0.25751495361328125,-0.21731843054294586,0.10387737303972244,-0.25576987862586975,-0.6329050660133362,0.006257129833102226,-0.14948555827140808,-0.2553058862686157,-0.5636295676231384,0.5580006241798401,-0.20607320964336395,-0.20632688701152802,-0.4539496898651123,-0.7406405806541443,0.6943497657775879,0.3448029160499573,-0.09302578121423721,-0.2622602581977844,-0.3227943778038025,-0.650029718875885,-0.28974536061286926,-0.637213408946991,0.2827353775501251,-0.0019481944618746638,0.43979156017303467,0.12723898887634277,0.6017835140228271,0.5148739814758301,-0.2223140299320221,-0.5086114406585693,0.16931457817554474,0.6355066895484924,-0.7083039283752441,0.2339884340763092,0.6701443791389465,0.12807442247867584,-0.013200857676565647,-0.534050464630127,0.6775573492050171,0.29524728655815125,-0.28711825609207153,0.680604100227356,0.31447190046310425,-0.2092122584581375,-0.4549003839492798,0.492607057094574,0.49068590998649597,-0.3347321152687073,-0.6068890690803528,-0.24727977812290192,-0.19032816588878632,0.09318334609270096,0.2075246423482895,0.6443877816200256,0.04411495476961136,-0.3306679129600525,-0.11019289493560791,-0.03481224179267883,0.6593979597091675,-0.7430943250656128,-0.5778969526290894,0.5764647126197815,-0.6617806553840637,-0.33886605501174927,0.5578570365905762,0.08113137632608414,0.23572029173374176,-0.48940104246139526,0.5427277088165283,0.28115519881248474,-0.6084791421890259,0.39352673292160034,-0.05920906737446785,0.2922880947589874,