-0.008941483683884144,0.032122258096933365,0.01653413102030754,0.007031356915831566,-0.024515436962246895,-0.024517154321074486,-0.03149523213505745,0.0260972511023283,0.0072064329870045185,0.014829263091087341,-0.034167781472206116,0.033490318804979324,0.02369307540357113,-0.02050149440765381,-0.02267622761428356,-0.02256365492939949,-0.013951589353382587,0.001764382584951818,-0.004850255791097879,-0.014879029244184494,0.007971717976033688,-0.025693152099847794,-0.014813780784606934,-0.009524346329271793,-0.0031308773905038834,0.02032439596951008,-0.021404149010777473,0.0010144836269319057,0.006586355157196522,-0.032324325293302536,0.007664685603231192,-0.023481635376811028,-0.030998626723885536,0.03199192136526108,0.0331854373216629,0.021979374811053276,-0.013925110921263695,-0.028673773631453514,0.01313022617250681,-0.004265311639755964,-0.02693720906972885,-0.00034373998641967773,-0.03318397328257561,0.029172128066420555,-0.01719166897237301,0.011582908220589161,-0.013419288210570812,0.0014302411582320929,0.00332902604714036,-0.022460317239165306,0.033467140048742294,0.019608624279499054,0.031322941184043884,0.028139213100075722,0.006977298762649298,0.03006683476269245,-0.0293280016630888,-0.021667199209332466,-0.032411497086286545,-0.012448648922145367,-0.007933932356536388,-0.01629587821662426,0.023429011926054955,-0.010209142230451107,-0.015612724237143993,0.0030429356265813112,-0.025591209530830383,0.021537477150559425,-0.03032163344323635,0.034700267016887665,0.019402792677283287,-0.02147243171930313,-0.035241272300481796,0.02248283103108406,0.0147426538169384,0.01632126420736313,0.01933334581553936,-0.030357694253325462,-0.010087099857628345,-0.02737688273191452,0.025878259912133217,0.00878741592168808,-0.012051841244101524,-0.031105050817131996,-0.013471226207911968,-0.01245912630110979,0.016363956034183502,0.00980367511510849,0.027596522122621536,-0.0019802330061793327,-0.027111390605568886,0.015197884291410446,0.018586063757538795,0.004367205314338207,0.01931173913180828,-0.0004421857593115419,0.0016201611142605543,-0.005164127331227064,-0.03382321819663048,-0.027945445850491524,-0.03339488431811333,0.009721924550831318,-0.01323078665882349,0.0006108302623033524,0.029047125950455666,-0.017867859452962875,-0.006386979017406702,0.018213042989373207,-0.019328463822603226,-0.030148500576615334,-0.014984343200922012,-0.024144645780324936,0.030624408274888992,0.021959636360406876,0.009507641196250916,0.026473872363567352,0.02164260670542717,-0.02233804762363434,0.02797754853963852,0.0028039084281772375,0.02191115729510784,0.02822929434478283,-0.012970831245183945,-0.027791468426585197,-0.01938997022807598,-0.005195003468543291,0.022664805874228477,0.02570914849638939,-0.035139355808496475,0.0007659566472284496,-0.005886089988052845,-0.01980528235435486,-0.027092067524790764,-0.011573112569749355,0.03156602755188942,-0.012600267305970192,0.0013392013497650623,0.014469092711806297,-0.009719072841107845,0.03362375125288963,0.032958462834358215,-0.017690392211079597,-0.00019609805895015597,-0.014191335998475552,-0.015334345400333405,-0.033005911856889725,0.007808613125234842,0.0001909330894704908,-0.0319659598171711,-0.01577579230070114,0.029096972197294235,-0.018561337143182755,-0.02530822344124317,-0.0007516982150264084,0.03461214527487755,-0.018383633345365524,0.012268043123185635,0.01864554174244404,-0.01869848370552063,0.01626490242779255,-0.009423051960766315,0.009429392404854298,0.00951661728322506,0.0025496496818959713,-0.029199911281466484,0.023896897211670876,-0.012772944755852222,-0.022341720759868622,-0.03272880241274834,0.006477909628301859,0.012654952704906464,-0.03445262461900711,0.0008618682040832937,-0.019492553547024727,0.010346416383981705,-0.02320779487490654,0.013608068227767944,-0.00807233341038227,0.031125599518418312,-0.02583376131951809,-0.011327147483825684,-0.02754761278629303,0.03026777133345604,0.026892848312854767,-0.01725141890347004,0.011402009055018425,0.0226083192974329,0.003934143111109734,0.002113186754286289,-0.0183981005102396,-0.02899942919611931,0.02830943465232849,0.028537660837173462,0.009486095979809761,-0.011472293175756931,-0.010746782645583153,0.01610378548502922,0.028301915153861046,0.027587519958615303,0.019946636632084846,0.01012254785746336,-0.029638204723596573,-0.024115607142448425,0.028404822573065758,0.007585163228213787,-0.03497936204075813,-0.028402989730238914,0.011652716435492039,-0.035274095833301544,-0.024174096062779427,0.0034732408821582794,0.01367630623281002,0.010830228216946125,-0.01965123414993286,0.01512194238603115,-0.0187261700630188,-0.012443704530596733,0.017567358911037445,0.010664286091923714,0.024889035150408745,0.011233017779886723,0.004868331365287304,-0.02895866334438324,-0.009427850134670734,-0.01673394814133644,-0.018245771527290344,0.033711303025484085,-0.007618889212608337,0.0279410257935524,0.009346205741167068,0.021011102944612503,0.00018794473726302385,0.005480913911014795,-0.0005332614528015256,-0.021719930693507195,0.015854086726903915,-0.015624280087649822,-0.03390184044837952,0.010367761366069317,-0.02301221340894699,0.03139133378863335,0.03235133737325668,0.02956724539399147,-0.009253745898604393,-0.034533243626356125,0.030526120215654373,-0.005118291825056076,0.033258333802223206,0.03304203972220421,0.025158865377306938,-0.014649558812379837,-0.008189046755433083,0.025025391951203346,-0.013047907501459122,-0.02355514094233513,0.004048206843435764,0.031084604561328888,0.013970977626740932,0.004993236158043146,-0.02870909683406353,0.00819652620702982,0.034925974905490875,-0.02565109170973301,0.0013063481310382485,0.026895252987742424,0.01715949922800064,0.01404124591499567,0.014430972747504711,-0.010014018975198269,-0.014710639603435993,0.022048065438866615,0.02210167795419693,0.02616112120449543,0.029451515525579453,0.0008083689608611166,0.00010806581121869385,0.021259397268295288,0.010687879286706448,0.014394111931324005,0.021081043407320976,0.027795549482107162,-0.011546030640602112,-0.008867161348462105,-0.02893677167594433,0.005578999407589436,-0.03307323902845383,-0.00245181773789227,0.0030392687767744064,-0.0152131337672472,0.006473655812442303,-0.03346109017729759,-0.0329730398952961,0.022991633042693138,-0.009964166209101677,-0.026579272001981735,0.0015852696960791945,0.01924235001206398,-0.020253339782357216,0.00875836331397295,-0.029552146792411804,-0.03195149451494217,0.0022346340119838715,0.0028960513882339,0.009794582612812519,0.01611345261335373,0.03391381725668907,0.0011617203708738089,-0.012617832981050014,0.021037820726633072,-0.016332708299160004,-0.0043494864366948605,-0.03004327230155468,-0.033828094601631165,0.0329727977514267,0.023945190012454987,0.013967015780508518,-0.0064888931810855865,-0.023284204304218292,-0.024485616013407707,-0.0178001057356596,0.003508367808535695,0.015294179320335388,0.011417212896049023,-0.015684036538004875,0.03241809457540512,0.016954833641648293,0.003873795038089156,0.007962300442159176,-0.005730076692998409,-0.017979128286242485,-0.010264778509736061,0.018376605585217476,-0.03460901230573654,-0.02736237458884716,-0.03235623985528946,-0.032732103019952774,0.025333557277917862,0.014514626935124397,-0.0018406225135549903,-0.028662225231528282,-0.0005975337699055672,-0.0018906580517068505,-0.023290792480111122,-0.004714370705187321,-0.007233533542603254,0.008256597444415092,0.009628078900277615,-0.0324060320854187,-0.008936316706240177,0.008969994261860847,0.00022352009546011686,0.025406911969184875,0.011310041882097721,-0.024022549390792847,-0.030605420470237732,0.010150174610316753,-0.033745378255844116,0.006113196723163128,0.031375061720609665,0.005379019305109978,-0.007970091886818409,0.01021210290491581,-0.002975302515551448,0.0032510932069271803,0.03146304935216904,-0.008117427118122578,0.032868895679712296,0.028889203444123268,-0.021680863574147224,-0.03069147653877735,-0.028452418744564056,-0.03433616831898689,-0.028903914615511894,0.013042831793427467,-0.030561240389943123,-0.012901546433568,0.02457914687693119,-0.033976249396800995,0.02241206355392933,-0.015547136776149273,-0.027213264256715775,0.014021391980350018,0.00918971374630928,0.026902303099632263,0.016753435134887695,0.021628983318805695,-0.015534322708845139,-0.022988775745034218,0.017861228436231613,0.021868009120225906,0.0349581353366375,-0.006227708887308836,-0.009121228009462357,0.019699858501553535,-0.01134587824344635,0.03069992922246456,0.025543956086039543,-0.00506057171151042,0.01787949725985527,0.018141185864806175,-0.028285229578614235,0.028689811006188393,0.00037433483521454036,0.023266514763236046,-0.012825004756450653,0.028188807889819145,-0.007896559312939644,-0.03486243635416031,0.028891436755657196,-0.02912886068224907,-0.012877456843852997,0.03207576647400856,0.03211462125182152,0.005233893636614084,0.009395994246006012,-0.0036742703523486853,-0.01473779883235693,-0.012211020104587078,0.012295332737267017,0.01798664778470993,0.020780740305781364,0.020640987902879715,-0.029134603217244148,-0.00039766301051713526,-0.031532637774944305,0.003529906738549471,-0.0041671013459563255,0.027631547302007675,-0.010625236667692661,-0.02729150466620922,-0.02544386312365532,0.018637774512171745,0.008425361476838589,-0.02842785231769085,-0.029640568420290947,0.01432300265878439,-0.0304490365087986,0.022938858717679977,0.0146988146007061,-0.02983713150024414,-0.029588477686047554,0.03468263894319534,-0.008960678242146969,-0.009219290688633919,0.022293120622634888,0.031875256448984146,0.03463713452219963,0.018058178946375847,-0.008818937465548515,-0.029683765023946762