-0.005717136897146702,0.0034682543482631445,-0.003946196287870407,0.004974504467099905,-0.0008802244556136429,0.004438347183167934,-0.0009768258314579725,0.0003590818087104708,-0.0021794945932924747,0.0018776769284158945,-0.002159455791115761,-0.0032882611267268658,-0.004976434633135796,-0.005254124756902456,-0.002304689260199666,0.0028088970575481653,-0.003496725345030427,-0.00238483096472919,0.004812739323824644,0.001652952516451478,0.004985579755157232,0.004884657915681601,-0.0051859281957149506,0.005404727999120951,-0.005331231746822596,0.005055620335042477,0.0005551142385229468,0.0003942365001421422,0.0025332109071314335,0.0045043774880468845,0.001389813725836575,-0.0008861197275109589,-0.004610084928572178,0.003435309510678053,-0.0044152322225272655,0.002688837703317404,0.0003317016817163676,-0.001356071443296969,0.0013420848408713937,0.0032351224217563868,0.005239979829639196,-0.002794994506984949,0.005311137065291405,0.005475269630551338,0.00372539134696126,0.004530817735940218,0.0022857084404677153,-0.0054747299291193485,0.0008918052772060037,0.0029363655485212803,0.005246673244982958,0.000836848106700927,0.003494598437100649,0.0024355079513043165,-0.0026036829221993685,-0.004101234953850508,0.0029803242068737745,-0.0031623721588402987,-0.0030326233245432377,0.001709834556095302,0.0034336366225034,0.0009779646061360836,0.004572937730699778,-0.0034275557845830917,-0.0029408889822661877,0.0016267966711893678,0.003912327811121941,0.00046743304119445384,-0.005815822631120682,0.0021017808467149734,0.003724820213392377,-0.0026542756240814924,-0.005295356269925833,0.000213236766285263,-0.005438406486064196,-0.000997575232759118,-0.005727492272853851,-0.0032669203355908394,-0.0013205965515226126,-0.004612264223396778,-0.004583162255585194,0.0038849313277751207,-0.0054470933973789215,0.0022445947397500277,0.003735506208613515,-0.00438638124614954,-0.0036184696946293116,0.0016806978965178132,-0.0021897994447499514,-0.0002800518414005637,0.003991134464740753,-0.004300135187804699,0.00142126705031842,0.005254923831671476,-0.005256533157080412,-0.005226360633969307,0.0006502466276288033,0.005464908666908741,-0.0033202904742211103,-0.0020098986569792032,-0.004767369944602251,-0.0016362644964829087,-0.005412544123828411,-0.0013173711486160755,0.0006591007113456726,0.005642239935696125,0.003781901905313134,0.0038255834951996803,-0.003229175927117467,-0.004902939777821302,0.0012243511155247688,0.0002510867780074477,0.00019603598047979176,-0.004644310567528009,-7.263523002620786e-05,-0.004153170622885227,-0.0009251429582946002,-0.00520075298845768,0.004239270463585854,-0.0057825809344649315,0.005218402948230505,0.004310530610382557,0.0030005499720573425,0.005731870420277119,-0.005299848970025778,0.0016819308511912823,0.0041491081938147545,-0.004435144830495119,0.001006981823593378,-0.0012600237969309092,-0.0007622618577443063,0.004900076426565647,0.00045911408960819244,-0.004831345286220312,0.0051933759823441505,-0.003739147912710905,0.0046638501808047295,0.005593727808445692,0.004488059319555759,0.002104045357555151,0.002892977325245738,0.002374079776927829,-0.0004689008346758783,-0.0026795039884746075,-0.002553796162828803,0.0027458772528916597,0.0014970970805734396,0.0010082772932946682,0.001812731265090406,0.003263988299295306,0.002949863439425826,-0.004687209613621235,-0.0016269065672531724,-0.002803662559017539,0.0004542107926681638,-0.005209620576351881,0.0031176218762993813,-0.0046737766824662685,-0.0027153489645570517,0.00335848331451416,-0.005326693877577782,0.0019029139075428247,0.005042071454226971,0.0013973357854411006,0.002526005730032921,0.003471628064289689,-0.0032992339693009853,0.000961713376455009,-0.0022680761758238077,-0.002975562121719122,-0.003653086954727769,0.0010147696593776345,0.0034985330421477556,0.0044649154879152775,-0.0008482744451612234,-0.0015097397845238447,0.0022248844616115093,0.0033301860094070435,-0.002930140122771263,-0.0024078339338302612,0.0003966564836446196,-0.0006606007227674127,0.002444404875859618,5.328018596628681e-05,-0.004613532684743404,-0.003967899829149246,0.004773985594511032,-0.0032380367629230022,-0.005344201344996691,0.0027492826338857412,0.0021857365500181913,0.001188731868751347,2.6805008019437082e-05,0.0055778068490326405,-0.004515736363828182,0.00012071849778294563,0.0007607451407238841,-0.0056719607673585415,-0.0010453772265464067,0.003359203226864338,-0.00034329554182477295,0.004457662347704172,0.001719963038340211,0.0031606368720531464,0.0036167006473988295,0.0022509375121444464,0.0029622139409184456,0.0023199538700282574,0.0005994238890707493,0.0007902985089458525,-0.003683633403852582,0.003889415180310607,-0.0022314840462058783,0.00042449403554201126,-0.002974966075271368,0.0023265397176146507,0.0056441896595060825,0.003586531151086092,0.0014146503526717424,0.0008018628577701747,-0.00012149763642810285,-0.003504429943859577,-0.001805377658456564,-0.0011118759866803885,0.005280715879052877,-0.0008839459624141455,0.0010237940587103367,0.00501767685636878,0.00021887219918426126,-0.0029523472767323256,-0.001413441263139248,-0.0014783787773922086,0.002550475997850299,-0.00242173345759511,0.002735432703047991,0.004623533692210913,-0.0019471690757200122,-0.004331518430262804,0.0016457882011309266,-0.0016528080450370908,0.00040369847556576133,0.0015936577692627907,-0.0010958537459373474,0.005044639576226473,-0.0011924038408324122,-0.0022880600299686193,0.004581158049404621,-0.004320107866078615,-0.004463749472051859,0.005175345111638308,-0.0034569527488201857,-0.004175957292318344,0.000417740287957713,-0.005383371375501156,0.0014255726709961891,-0.0005590995424427092,0.001667853444814682,-0.0025664563290774822,0.004816312342882156,-0.0027251048013567924,0.0016340326983481646,0.005286925472319126,-0.0011782136280089617,-0.004021668806672096,-0.005126871634274721,0.005499857012182474,0.00313232047483325,0.004976429510861635,0.002361795399338007,-0.0018714391626417637,-0.004477912560105324,0.005099426954984665,-0.00012330924801062793,-0.0012292936444282532,0.0009240371873602271,-0.004673396702855825,-0.0022663287818431854,0.0016377317951992154,-0.004749849438667297,-0.004332686308771372,0.00012576339941006154,0.0014664593618363142,-0.0037178792990744114,-0.005546148866415024,0.005444610491394997,-0.005612571723759174,-0.005914762616157532,-0.002098408527672291,-0.0032967771403491497,0.0008740808116272092,0.004682523664087057,-0.00022441029432229698,0.0032463488169014454,0.004860913846641779,-0.0036893959622830153,-0.00013884849613532424,0.0016875480068847537,-0.0019969362765550613,0.002847843337804079,0.002438789466395974,-0.0009372624917887151,-0.004894398618489504,-0.005801720544695854,-0.001551900990307331,-0.004964301362633705,0.0033452145289629698,-0.0019679232500493526,0.001972962636500597,-0.001824751845560968,0.003515239804983139,0.004613672383129597,0.004009087570011616,-0.00018442916916683316,-0.004941937047988176,-0.0015238499036058784,-0.0008973311632871628,0.005467025563120842,0.0007779966690577567,0.0016730118077248335,0.003349717939272523,0.0008101293351501226,0.0011698286980390549,-0.0030250658746808767,-0.005239903926849365,0.0026296840514987707,0.004141774494200945,-0.0010452850256115198,0.0005810209549963474,-0.00228911847807467,-0.0005912921042181551,-0.0034578873310238123,0.003087008837610483,-9.607188258087263e-05,0.0005601401207968593,-0.00549859507009387,0.001453883247449994,-0.0035319356247782707,-0.0013850695686414838,-0.0010367860086262226,-0.0006089669186621904,-0.0032375850714743137,0.004158707335591316,-0.0008570143254473805,0.0013319655554369092,0.0013533831806853414,0.0012707950081676245,0.0007045973325148225,0.00383223919197917,0.0037133623845875263,-0.000984178390353918,0.0016136184567585588,-0.004717703443020582,-0.0048609147779643536,-0.0002385596017120406,0.0047537353821098804,0.0017817392945289612,0.0020100008696317673,-0.004066250286996365,-0.0005546613247133791,-0.0011784315574914217,0.003361296374350786,-0.004302024841308594,0.0004655231023207307,0.004886148031800985,0.004661748185753822,0.004185158759355545,-0.0014849579893052578,0.0052395174279809,0.003626445308327675,0.004170955158770084,0.005135619081556797,0.0051908232271671295,-0.003087579272687435,-0.004422427620738745,0.002267266623675823,0.0007508744020015001,-0.002049874747171998,0.0021909435745328665,-0.0052027213387191296,-0.005378383677452803,-0.0017305380897596478,-0.003636573674157262,0.002596070524305105,0.0053217289969325066,0.0019198564114049077,0.0018385727889835835,-0.005860793404281139,0.00014582742005586624,0.0037666186690330505,0.0018306856509298086,-0.0032334751449525356,0.00413928646594286,0.005515996366739273,-0.0026251832023262978,-0.0034792134538292885,-0.0019180210074409842,-0.005188926123082638,0.004435737617313862,0.005099339410662651,0.0015834117075428367,0.0031398434657603502,0.0020032806787639856,-0.0014568193582817912,0.0015684369718655944,0.003994905389845371,0.003681167261675,-0.004976314026862383,-0.0004442347271833569,-0.001219642930664122,0.002993430942296982,1.6349296856787987e-05,-0.0017852907767519355,0.0024510808289051056,-0.00031384025351144373,-0.002890886040404439,0.004637481644749641,-0.004596324171870947,-0.005724287126213312,-0.004229722544550896,-0.00399533798918128,0.00045187718933448195,0.0014831882435828447,-0.0006104097119532526,-0.003513934789225459,-0.004368937574326992,-9.321941615780815e-05,0.0007778278086334467,-0.002328600035980344,-0.0033206907100975513,-0.0049818349070847034,-0.005627398379147053,-0.004683170933276415,0.0028754875529557467,-0.001852788613177836,-0.0056134480983018875,9.69916072790511e-05,0.00042841845424845815,-0.0008470529573969543,-0.004624416586011648,0.0030285746324807405,0.002245964715257287,-0.0012504353653639555,-0.0014157070545479655,-0.004086896777153015,0.003011730732396245,0.0011827676789835095,-0.004920058883726597,-0.0014483948471024632,0.0047936104238033295,-0.0005657061119563878,-0.002079559722915292,0.0017079064855352044,-0.003528176574036479,0.0002827520074788481,0.0020136383827775717,0.004215344320982695,0.002286619506776333,-0.001373013248667121,0.0031810046639293432,0.004732304718345404,-0.0002641194441821426,-0.005885676946491003,0.004524650052189827,-0.003973972983658314,-0.004438609350472689,-0.002284447429701686,-0.0014255872229114175,0.003556079464033246,-0.0013163111871108413,-0.005359227303415537,0.00161498982924968,0.002033810829743743,0.0037324032746255398,-0.0012012975057587028,-0.004916762467473745,0.0006302878609858453,-0.004501898307353258,-0.005736313294619322,0.0033090917859226465,-0.001147316419519484,0.00029702787287533283,0.0019343673484399915,-0.0011756215244531631,-0.005331783555448055,-0.0029369795229285955,-0.0036307000555098057,0.005670618731528521,0.0028449122328311205,-0.0005755031597800553,-0.005186443217098713,-0.004563034046441317,0.0037167079281061888,0.005291168112307787,-0.005566752515733242,0.004874811042100191,-0.0014186979969963431,-0.0034015506971627474,-0.0047247945331037045,0.00322790932841599,-0.00036928130430169404,0.003948621917515993,-0.003252781229093671,0.00212108064442873,-0.00453605642542243,-0.004873055033385754,-0.004354578442871571,0.003669215366244316,0.0018484937027096748,-0.003967773634940386,-0.0013687083264812827,0.003132135607302189,-0.002545819152146578,0.005003887228667736,0.004924767185002565,0.0006283700931817293,0.0015676262555643916,0.0018199693877249956,-0.0028689787723124027,-0.001599750597961247,-0.004324392415583134,0.005046739708632231,0.0026589457411319017,-0.005388506222516298,0.0005866372375749052,-0.0018640144262462854,0.003745076945051551,-0.0018553865374997258,0.0017122544813901186,-0.0039704288356006145,0.0006979134050197899,-0.0024482824373990297,-0.003980548121035099,0.0014165925094857812,0.0016468178946524858,0.005741410423070192,0.002008688636124134,0.0001866075035650283,0.004901224747300148,0.0038994105998426676,0.0005790212308056653,0.00013481035421136767,0.005249832756817341,0.0013912668218836188,0.0025393282994627953,-0.004909540992230177,0.002593094715848565,-0.00279517425224185,-0.0045667472295463085,0.004153430927544832,0.002271020784974098,-0.0010979773942381144,-0.0008146517793647945,-0.0035977198276668787,-0.0058256895281374454,-0.0017893546028062701,-0.004176231566816568,-0.0009297514916397631,0.003965266980230808,-0.004576054401695728,-0.004849263932555914,0.004776281770318747,0.002911835676059127,-0.005308760330080986,-0.004993978422135115,0.0021965813357383013,-0.0015400882111862302,0.002662792569026351,-0.0011349217966198921,0.0055565000511705875,0.0023093344643712044,-0.005385423544794321,-0.002013346878811717,0.000755531364120543,-0.004253924358636141,-0.005909201689064503,-0.004997094627469778,0.00028821727028116584,0.0015709619037806988,-0.004835606552660465,0.0019617751240730286,0.0013912324793636799,0.005225218366831541,0.0040466380305588245,0.005264949984848499,0.005536555778235197,-0.0007030931883491576,-0.0001435984013369307,-0.0025939547922462225,0.00010015739098889753,-0.004148907493799925,0.002036304445937276,-0.005642983131110668,-0.003140286775305867,-0.003467605449259281,0.005201367661356926,-0.004217955283820629,0.004641739185899496,-0.004461977165192366,0.0017900316743180156,-0.002139444462954998,-0.0021855749655514956,0.005918602459132671,-0.0032541388645768166,-0.0035330739337950945,0.0010611421894282103,0.0028597237542271614,0.005731322802603245,0.002392448717728257,0.0007349210791289806,-0.0010793593246489763,0.0011297756573185325,0.0011977453250437975,-0.0033531012013554573,0.002033662749454379,-0.003510936163365841,-0.00011932467896258458,-0.0028523365035653114,-0.002223601331934333,0.0013526621041819453,-0.005173166748136282,-0.005796185694634914,-0.004387598019093275,-0.003935190383344889,-0.0035887486301362514,0.003253829199820757,-0.0006312364130280912,-0.0003570974222384393,0.0017144405283033848,0.002721417462453246,-0.005897465627640486,0.004237282555550337,0.005801764782518148,-0.004492276348173618,0.0017945764120668173,-0.005910467356443405,-0.0053567527793347836,-0.0025538175832480192,0.0041146837174892426,0.0018114473205059767,-0.0006435546092689037,-0.0007293449598364532,-0.00040321581764146686,-0.00224460125900805,0.0044865976087749004,0.000806167779956013,-0.00019064574735239148,-0.0004148205043748021,0.005176867824047804,0.002656718483194709,-0.004218991380184889,-0.0007486863760277629,-0.0025137735065072775,0.005783161148428917,-0.0010049539851024747,-0.005132958758622408,-0.001054649124853313,-0.0021220508497208357,0.00118286965880543,-0.003253719536587596,-0.005511833820492029,-0.00480024516582489,-0.0025758331175893545,-0.001801666570827365,0.003972696140408516,-0.0027311760932207108,-0.005565055646002293,0.0033346302807331085,0.004382105078548193,-9.139398753177375e-05,-0.0025546939577907324,0.0032325529027730227,-0.00583344092592597,0.005036724731326103,0.004341886378824711,0.0005325406673364341,-0.0026419523637741804,-0.00554899824783206,0.005937044974416494,0.0031129843555390835,-0.0019158495124429464,-0.005710220895707607,0.0016545450780540705,0.005783580709248781,0.002459667157381773,-0.00494475569576025,-0.0011607652995735407,-0.004642227198928595,0.004895757418125868,-0.0020143839064985514,0.002772111212834716,-0.004933163058012724,-0.004413793329149485,0.002132004126906395,0.004079950042068958,-0.0035462602972984314,-0.000970013439655304,0.0014184679603204131,0.0035192526411265135,0.0015227542025968432,-0.0048056431114673615,0.0005086192977614701,0.004568465054035187,0.0043714880011975765,0.0010098383063450456,0.005888016894459724,-0.0046904501505196095,-0.00025424198247492313,0.003267994849011302,-0.004263848997652531,0.005615452770143747,-0.0017336762975901365,-0.0017800822388380766,-0.0034067577216774225,-0.0025179872754961252,0.0009216218604706228,-0.000839149986859411,-0.0036421390250325203,0.003672050079330802,-0.00519984308630228,0.003975098021328449,-0.0026733402628451586,-4.866653762292117e-05,-0.001412749057635665,0.0008386308327317238,0.003515851218253374,0.005812276154756546,-0.0023036831989884377,0.0006391031201928854,-0.000403764599468559,0.005926406942307949,0.0036693618167191744,-0.0012224672827869654,-0.00027462627622298896,-0.0030175980646163225,0.003031898522749543,0.004100521560758352,0.005523242522031069,0.0007819333695806563,0.0020274200942367315,-0.0006407287437468767,0.0012962579494342208,-0.0017966018058359623,0.0028233372140675783,-0.0056694974191486835,-0.005601120181381702,0.002567143877968192,0.005115769803524017,0.0015708887949585915,0.002690766006708145,0.0038477813359349966,-0.0016430721152573824,-0.0046549346297979355,0.005144390277564526,0.005209462717175484,-0.0006908345967531204,-0.0033595373388379812,0.004660494159907103,0.0024757501669228077,-0.005841400008648634,-0.004659614060074091,0.005739579442888498,-0.005486241541802883,-0.0025828718207776546,0.0005760524072684348,-0.0037493116687983274,-0.0031827359925955534,-0.001746493624523282,-0.0027372983749955893,0.0036033494397997856,3.2545497106184484e-06,-0.0026296114083379507,-0.002220097230747342,-0.005465611815452576,-0.005352445878088474,0.002588366623967886,-0.004597952589392662,-0.00028748332988470793,0.004066714085638523,-0.0015625464729964733,-0.0018321985844522715,0.004431170877069235,0.004333794116973877,0.004515370354056358,0.0008542133728042245,0.0053725955076515675,0.0037887422367930412,-0.0010021183406934142,0.0015388912288472056,-0.004492494277656078,0.0006097373552620411,-0.0028133809100836515,-0.0025710861664265394,-0.0044458224438130856,-0.0016843497287482023,-0.00022105210518930107,0.0011920371325686574,-0.002317816251888871,0.0034714057110249996,0.000248979456955567,0.0016398204024881124,-0.00263527175411582,0.0037313930224627256,0.0014761658385396004,0.004304078873246908,-0.00403918931260705,-0.0014175154501572251,-0.004596700891852379,-0.003379045519977808,-0.0012525945203378797,0.004686953499913216,0.000677544332575053,-0.002014813246205449,0.002932736650109291,-0.005705342162400484,-0.0015430814819410443,0.0011977062094956636,0.0009887150954455137,0.0012776016956195235,-0.003426874056458473,-0.0019352197414264083,0.005126254167407751,0.005630013067275286,-0.0022326605394482613,0.001716454396955669,-0.0030729486607015133,-0.0015616536838933825,0.003472432726994157,1.3995785593579058e-05,0.004152526613324881,0.0015292115276679397,0.0015313607873395085,-0.005536702461540699,0.002965653780847788,0.005676231347024441,-0.00032036437187343836,-0.004055481404066086,0.005665672942996025,-0.0024929430801421404,-0.00107857258990407,-0.00502015883103013,-0.004622587468475103,-0.003366711549460888,0.0005756928003393114,0.000686435610987246,0.00126199284568429,0.000995600363239646,-5.65821464988403e-05,0.0035884117241948843,0.005153981037437916,-0.0027348387520760298,-0.004392662085592747,-0.0008898345404304564,-0.005625286605209112,0.0045531680807471275,-0.0030918412376195192,0.0005855584749951959,-0.004572008270770311,0.0006326048751361668,-0.005475963465869427,0.0031929605174809694,0.005409622564911842,-0.002292791847139597,-0.0028719939291477203,-0.000617730722296983,0.0014250797685235739,-0.0036945901811122894,0.0036027764435857534,-0.0035808871034532785,-0.005874114576727152,0.00028806316549889743,-0.004571358673274517,0.0023547345772385597,-0.003949883859604597,0.0037699323147535324,-0.0003519668825902045,0.0007872667629271746,-0.003722828347235918,-0.004196736961603165,0.0015595275908708572,-0.002904706634581089,-0.0013550084549933672,-0.00024410677724517882,-0.0032114870846271515,0.003509125905111432,0.005219604820013046,-0.0008089924813248217,0.004959755577147007,0.0045456127263605595,-0.0039667836390435696,-0.0038796598091721535,-0.00026837937184609473,0.000307148729916662,-0.001887105987407267,-0.002222176408395171,-0.0008152389782480896,0.0022625657729804516,-0.004936687648296356,0.0025013515260070562,0.00506300013512373,0.003130005905404687,-0.0036623477935791016,-0.004900013096630573,-0.00011426523269619793,0.0054213181138038635,0.0037898747250437737,0.0007451714482158422,-0.004240765701979399,0.002540012588724494,0.0037178799975663424,0.005167871713638306,0.001331747742369771,0.0001718274870654568,0.0014156773686408997,0.00526507617905736,0.001521929050795734,-0.0028793911915272474,0.0016172442119568586,0.004510711412876844,0.0007958728238008916,3.205564644304104e-05,0.0027720245998352766,0.0019122683443129063,-0.005265787709504366,0.0026763081550598145,-0.0010981535306200385,0.005237112287431955,0.005592328496277332,-0.0006088893860578537,0.005568475462496281,-0.002247126307338476,0.0021695010364055634,-0.005047617945820093,-0.004216914996504784,0.004329939838498831,0.004677475895732641,0.0003873853129334748,-0.0019032156560570002,-0.000581746397074312,0.0043905023485422134,-0.0034329004120081663,-0.0024365882854908705,0.003390570404008031,0.005170251242816448,-0.00483532203361392,0.0036082917358726263,0.001723161549307406,-0.0031979703344404697,0.003038667608052492,0.0027072501834481955,-0.004252069164067507,2.6737156076706015e-05,0.003068053163588047,-0.0036639245226979256,-0.0004422549100127071,-0.004504942335188389,-0.0022944684606045485,-0.003350328654050827,6.023460446158424e-05,-0.004261743742972612,-0.0013879677280783653,-0.0026706773787736893,0.002922637155279517,0.0023717328440397978,-0.004811527673155069,0.005386607255786657,0.0029064116533845663,0.001377389533445239,-0.0002648473309818655,-0.003825726918876171,0.005487953778356314,-0.005845794919878244,0.002286344300955534,8.842474926495925e-05,0.004781979601830244,-0.0014171107904985547,0.00022146182891447097,0.0028785744216293097,-0.005374130327254534,-0.005292066838592291,-0.0034248309675604105,-0.00419986667111516,-0.005862601567059755,0.001460907282307744,0.0035152332857251167,0.005429738666862249,-0.000701997138094157,-0.002616539131850004,0.004322534427046776,0.004090826492756605,0.001482922350987792,-0.0026945986319333315,0.004852485377341509,-0.003820038167759776,-0.005420693662017584,0.0035233143717050552,0.000756162975449115,-0.003011525608599186,0.0020299460738897324,0.0031681328546255827,0.00409261230379343,-0.0025879675522446632,-0.005635203793644905,0.00011924256978090852,0.004229600541293621,-0.0034705791622400284,-0.0009368907194584608,-0.002893302123993635,-0.005780413281172514,0.004733779933303595,-0.004334939178079367,0.0031687337905168533,-0.001822089310735464,-0.002640755847096443,0.005238663405179977,0.0018672591540962458,0.0022203191183507442,0.0030842293053865433,-0.0018894380191341043,0.0007562285754829645,-0.002729350933805108,0.003973776940256357,0.0011796006001532078,-0.0030478849075734615,0.004748441278934479,0.0009602441568858922,-5.903078636038117e-05,-0.005529485642910004,0.004867741838097572,0.005372235085815191,0.0007435681181959808,-0.0006828380865044892,-0.001668125158175826,-0.0027551904786378145,0.0008852843893691897,-0.004417590331286192,0.004979060497134924,-0.0038490518927574158,0.002916274592280388,-0.002293840516358614,-0.0032538038212805986,0.0006873900420032442,0.0031492281705141068,0.0026932409964501858,-0.003162515815347433,-0.002013340126723051,0.004381090868264437,0.0026517510414123535,0.0025264371652156115,-0.0027450097259134054,0.003468508133664727,-0.001681752735748887,-0.0011713107815012336,-0.0025234082713723183,-0.00449723144993186,-0.0009455827530473471,-0.005737926810979843,-0.0005237057921476662,0.002672688802704215,0.005472857505083084,-0.00500534987077117,-0.002597889630123973,-6.971423863433301e-05,-0.00391522329300642,-0.00455141719430685,-0.000566373928450048,0.0009589444962330163,0.003803516272455454,0.00591304711997509,0.003257864387705922,-0.003309995401650667,0.002945552347227931,0.00044134145718999207,-0.000584292458370328,0.005175704136490822,0.0024005118757486343,0.0021582008339464664,-0.005799497943371534,0.004336420446634293,0.0034839045256376266,-0.0023882242385298014,-0.0024693345185369253,-0.0053039067424833775,-0.005335052032023668,0.002002612454816699,-0.003726956667378545,0.0050310189835727215,0.0040671746246516705,-0.0017949839821085334,-0.0014245790662243962,-0.0020516568329185247,-0.004841646179556847,-0.005565802566707134,-0.0005685709766112268,0.005262553226202726,0.004956203047186136,0.0036803504917770624,0.0015274862525984645,0.004231308586895466,0.00017898624355439097,-0.0037991467397660017,0.00218762643635273,0.004996550269424915,-0.005706263706088066,-0.0029524164274334908,-0.0027861902490258217,-0.004762719385325909,-0.0032606557942926884,-0.0013780930312350392,0.005224487278610468,0.004279336892068386,0.005297785624861717,-0.004506953526288271,-0.0056059714406728745,-0.004633916076272726,0.004921118263155222,-0.004068444948643446,0.0008628038340248168,-0.003235852112993598,-0.005694025196135044,-0.004933983087539673,0.002492027124390006,-0.003772939322516322,-0.003217359771952033,-0.0014579812996089458,0.0018677589250728488,-0.0003637827467173338,0.005281203426420689,-0.0007817979785613716,-0.0035738064907491207,0.00042933522490784526,-0.0005833425675518811,0.0034107088577002287,0.005168490577489138,0.003994607832282782,-0.0013180169044062495,-0.0033720515202730894,0.004923414438962936,-0.001354840467683971,0.003209589282050729,0.005814741365611553,0.0009198901825584471,-0.0002389871224295348,0.002374120522290468,-0.003635572735220194,-0.00013969359861221164,-0.0022291874047368765,-0.0039883945137262344,0.0013082324294373393,0.0008992622024379671,0.0031026487704366446,0.0044302428141236305,-0.003321451600641012,0.0033223857171833515,-0.001575235859490931,0.0015299887163564563,0.0041602482087910175,-0.0028961007483303547,0.0011992461513727903,-0.0002337795594939962,0.003451557597145438,0.002342886757105589,0.0032027617562562227,-0.0025188704021275043,0.0024274007882922888,0.0012567915255203843,-0.0005145566537976265,-0.001445067347958684,-0.0020003016106784344,-0.005824224092066288,-0.00392507528886199,-0.005238579120486975,0.004137887619435787,0.004277235362678766,0.004112180322408676,0.003776339115574956,-0.0033101141452789307,-9.75673901848495e-05,0.0048444815911352634,0.0030857601668685675,-0.005917517002671957,-0.0004819230525754392,-0.0058123948983848095,-0.002605368848890066,-0.0007630249601788819,0.00466696685180068,0.001833819318562746,-0.0016334464307874441,-0.00011100513802375644,0.003770040348172188,-0.0023797464091330767,0.001366414944641292,-0.002824097406119108,-0.00023800155031494796,-0.005646238103508949,0.004184423945844173,-0.005364838056266308,-0.0032741224858909845,-0.001977592008188367,0.0014866985147818923,0.00261361850425601,-0.004983518738299608,-0.005422843620181084,0.0035514847841113806,0.002520172856748104,0.003938246984034777,0.0020969705656170845,0.0029815933667123318,-0.0014368155971169472,0.001071234350092709,0.003627534955739975,-0.00389467878267169,-0.0009167255484499037,0.002856604289263487,0.0003876863920595497,0.0021577775478363037,-0.002460357267409563,-0.005554966162890196,-0.0055929371155798435,0.005259477533400059,0.005280369892716408,-0.0034294684883207083,-0.004187500569969416,-0.0057236687280237675,-0.0031922056805342436,-0.001967619638890028,-0.0030735917389392853,0.0035324112977832556,0.0029628046322613955,-0.004976830445230007,0.0023438408970832825,0.0002445358841214329,-0.004369232803583145,0.0028452682308852673,-0.004917065612971783,-0.0038348939269781113,-0.0041665853932499886,0.005214960779994726,0.0023537520319223404,-0.0010537703055888414,0.003827230306342244,-0.003373913001269102,0.005120645742863417,0.002339988714084029,0.0007077233167365193,0.0034999160561710596,0.0017197487177327275,0.004598191473633051,0.003909766674041748,-0.0035892531741410494,-0.0030923455487936735,-0.005165893584489822,-0.0033235549926757812,-0.001859082723967731,-0.005596719216555357,-0.002197926165536046,0.0032254967372864485,0.004042505752295256,-0.005833739414811134,-0.005854244343936443,-0.004201262257993221,0.004425573628395796,-0.00036490370985120535,0.005736044608056545,0.004600830376148224,0.004634050186723471,-0.004413059912621975,-0.0002942125138361007,0.005863006226718426,-0.004168749786913395,0.0008817703346721828,-0.0018496854463592172,-0.0013320521684363484,0.004641941748559475,0.0010441311169415712,0.003073817817494273,0.002057726262137294,0.00034467660589143634,0.003465026617050171,0.005591495893895626,0.005545012187212706,0.003438191255554557,-0.00015050233923830092,-0.004001091234385967,-0.005410905461758375,-0.0031899712048470974,-0.0018974598497152328,-0.0043967487290501595,-0.003269313834607601,-0.0049467626959085464,0.00028126168763265014,-0.004438695963472128,0.0028836731798946857,-0.0019878323655575514,0.00204380857758224,0.004543671850115061,-0.00491741020232439,0.005808487068861723,0.001725240726955235,-0.005305243190377951,-0.0022093330044299364,0.004587926901876926,0.0011430894955992699,-0.002527431817725301,0.00523231690749526,0.0034120657946914434,0.002797791501507163,0.004613845143467188,0.0032045210245996714,-0.002533181104809046,0.0009964220225811005,0.00406577019020915,-0.0037909746170043945,-0.004002702888101339,-0.0040507749654352665,-0.0036317205522209406,-0.004712934605777264,0.004010451026260853,0.003781072096899152,-0.004141135606914759,0.002441427670419216,0.001508250948973,-0.0026584265287965536,-0.00323839345946908,-0.002962610451504588,0.0027394944336265326,-0.0021462019067257643,-0.002637461293488741,-0.005672101862728596,0.004849146120250225,0.003001689910888672,-0.00032326224027201533,0.005261208862066269,-0.002452481770887971,0.0020751950796693563,-0.002314477926120162,-0.002202560193836689,0.00409455131739378,0.003409326309338212,-0.0024456491228193045,-0.004972371272742748,-0.001691655139438808,0.00308903562836349,-0.004744844976812601,0.002044261898845434,0.0046297162771224976,-0.003810228779911995,0.0043023633770644665,-0.00532902404665947,0.001982250018045306,0.0034570409916341305,-0.0006560825277119875,-0.0035191928036510944,0.005045054946094751,-0.005701942835003138,0.0006541521870531142,-0.0015103298937901855,-0.0004625615547411144,0.0004343417822383344,0.0004127657157368958,-0.003520440310239792,0.002134554088115692,-0.005711690057069063,-0.005687508266419172,-0.00025552077568136156,0.0004977358039468527,-0.002673925133422017,0.0006138180615380406,0.00019135093316435814,-0.001791000016964972,0.0018028214108198881,0.005439505446702242,-0.00010925084643531591,0.0033977902494370937,-0.002998118055984378,0.00311152171343565,0.0017687462968751788,0.001659369096159935,0.004668582696467638,-0.003167339600622654,-0.0015625859377905726,-0.00495244050398469,0.0026859159115701914,0.004084551241248846,-0.00111853564158082,-0.001700650667771697,0.001884510857053101,-0.005041254218667746,-0.00244880304671824,-0.0015891613438725471,0.00022082135546952486,-0.00027830497128888965,-0.0034603746607899666,0.00048450203030370176,0.005058586597442627,-0.005617381073534489,0.00214173155836761,0.0014813285088166595,0.00504146097227931,0.0017264476045966148,0.0014829165302217007,0.0032048264984041452,-0.002758065238595009,0.0011371345026418567,0.0002306909009348601,-0.0007308396743610501,-0.004994967952370644,-0.002463212003931403,-0.002613438293337822,0.0026637150440365076,0.004996670410037041,-0.0031977840699255466,-0.005052734632045031,0.005938627291470766,0.0022711900528520346,0.004590607713907957,-0.004230099264532328,0.003572606248781085,0.0037217463832348585,-0.004139711149036884,-0.004021935164928436,-0.0024296871852129698,-0.003364077303558588,0.005647050682455301,-0.0016279910923913121,0.003103869967162609,0.00362347811460495,-0.001354825682938099,0.002168801845982671,-0.0046586585231125355,-0.0012239132774993777,0.00555084552615881,-0.003937284927815199,-0.0013575527118518949,0.003450895193964243,0.0019649432506412268,0.0015622145729139447,0.004196090158075094,-0.005593554116785526,0.0032209656201303005,0.004544023424386978,-0.005747013725340366,0.0007003791397437453,-0.0017985078739002347,-0.005336164962500334,-0.0009770105825737119,0.001710830139927566,0.004977160133421421,0.001431694719940424,0.004237493500113487,-0.004495078697800636,-0.0034385097678750753,0.005586269311606884,0.004601652733981609,-0.0031450476963073015,0.0014369614655151963,-0.001631686114706099,-0.00037298412644304335,0.00428661098703742,0.0027998597361147404,-0.003106851829215884,-0.0021856853272765875,-0.002497877459973097,0.0033337902277708054,-0.00011773519509006292,0.005353828426450491,0.0037616982590407133,-0.003430512733757496,0.0033965078182518482,7.220909174066037e-05,-0.002925499342381954,-0.001623383373953402,0.005608045030385256,-0.00019050900300499052,0.002608539303764701,-0.0002721752389334142,-0.0015256782062351704,0.0035209592897444963,0.0041374932043254375,-0.0050852191634476185,-0.0026253655087202787,9.349176980322227e-05,-0.0021796906366944313,0.0033684775698930025,-0.004576303996145725,0.0035373305436223745,0.0014002877287566662,-0.0025019487366080284,-0.0018476102268323302,-0.0037666119169443846,-0.002939001889899373,0.0025807798374444246,-0.0014742824714630842,0.0022269885521382093,0.00016757450066506863,-0.004213251639157534,-1.104228704207344e-05,0.0030464199371635914,-0.0024032664950937033,0.0017589551862329245,-0.0035749736707657576,-0.004327268805354834,-0.0016602727118879557,-0.0013160703238099813,0.0031003449112176895,-0.00047418332542292774,-0.004974208306521177,0.0015916833654046059,-0.0003652060404419899,-0.001999788684770465,0.003589838743209839,-0.004105313215404749,0.004908250644803047,-0.001971063669770956,-0.00046393609954975545,0.0050985487177968025,0.0031030792742967606,-0.005056553985923529,0.0009300328674726188,-0.0022525624372065067,0.00010082322842208669,0.002886053640395403,-4.546248965198174e-05,-0.005095520988106728,0.00035612916690297425,-0.005652519874274731,-0.0018006355967372656,-0.0002609472721815109,0.0017184728058055043,7.372318214038387e-05,-0.00413427222520113,0.005133999977260828,0.0017853013705462217,-0.0021741073578596115,0.005534560885280371,0.0045443628914654255,-0.004234723746776581,0.00184623000677675,0.0007135226624086499,-0.003648900892585516,-0.003165856236591935,0.0007575236377306283,-0.002122787293046713,0.003977220505475998,-0.004778164904564619,0.004917972255498171,0.0040451777167618275,0.0028344360180199146,-0.0028202920220792294,0.0025533291045576334,-0.000727308273781091,0.0015888134948909283,-0.002226530574262142,0.0039894129149615765,-0.005457164719700813,0.002274211961776018,0.0039035731460899115,0.0017393139423802495,-0.0036586071364581585,-0.00255405786447227,0.00017705072241369635,-0.0020258512813597918,-0.005880740005522966,-0.005455952603369951,0.0031806277111172676,-0.004944841377437115,0.00508416211232543,-0.0006801913259550929,0.0030668124090880156,-0.004448360297828913,0.005066173616796732,-0.00553754810243845,-0.005438621621578932,-0.005290753673762083,-0.004710827954113483,-0.00015641647041775286,0.0034242274705320597,-0.002554449252784252,0.002919405233114958,0.0032553724013268948,0.0048496313393116,-0.004165095277130604,-0.00432922225445509,-0.0044888597913086414,-0.001671147532761097,-0.0001257581461686641,-0.00045600245357491076,-0.002885842463001609,0.0014489078894257545,-0.0019210305763408542,-0.001590703264810145,-0.004685623571276665,0.0010955495527014136,0.0018444635206833482,0.0030640042386949062,0.004798933397978544,0.0031596748158335686,-0.003138910047709942,-0.003139961278066039,0.00493052089586854,0.0034462870098650455,0.0033526013139635324,0.002609819872304797,-0.002765239216387272,0.004126636311411858,-0.004241914954036474,-0.0017815323080867529,-0.0018236178439110518,0.0007142670801840723,-0.00043421596637926996,-0.0004773985710926354,0.0006363490247167647,-0.0010046829702332616,-0.0029697685968130827,0.0019494715379551053,0.0034522239584475756,-0.0002494804502930492,0.0017756029265001416,0.0004200671974103898,-0.005238362587988377,-0.0009136206936091185,-0.005822108127176762,0.0019228471210226417,9.694157779449597e-05,-0.00443259859457612,0.0005011635948903859,0.004732614383101463,-0.0018946948694065213,0.005729710217565298,0.005456641782075167,0.003388989483937621,0.003727403236553073,-0.0010625668801367283,-0.0011576437391340733,0.005397458095103502,-0.0015893579693511128,-0.004788455553352833,-0.004125312902033329,0.0024991773534566164,-0.0013899848563596606,-0.003571289125829935,0.0037272386252880096,-0.0001345382770523429,0.0008034623460844159,-0.004110485780984163,-0.003649550722911954,-0.004444185644388199,0.0001727444032439962,0.0032743304036557674,0.0027591485995799303,-0.002836166648194194,0.004175810609012842,-0.004684069659560919,-0.004584421403706074,0.004149133339524269,-0.003035855246707797,0.002472057705745101,-0.005831288639456034,-0.004827319178730249,0.0012981616891920567,-0.003772351425141096,-0.005604008678346872,-0.0003926033969037235,-0.0020131245255470276,0.0035902915988117456,0.0037871391978114843,0.0013591496972367167,-0.002458402654156089,-0.00045579683501273394,0.0024024532176554203,-0.005115872714668512,-0.001989646116271615,0.0038291967939585447,-0.001116218976676464,0.0014808413106948137,-0.004794852342456579,0.0032908290158957243,-0.004745781887322664,0.004294297192245722,-0.004672901704907417,0.004643132910132408,-0.0016181791434064507,0.0014792106812819839,0.004116423428058624,-0.0058174883015453815,-0.002783161588013172,0.004850355908274651,-0.0013282756553962827,0.0024513904936611652,-0.004276036750525236,0.0021187474485486746,-0.005070112179964781,0.002581448294222355,-0.0020928937010467052,-0.0004056583275087178,-0.003964254166930914,0.001518626231700182,-0.0019294166704639792,-0.0013853039126843214,0.0018077899003401399,-0.0038145703729242086,0.00418125931173563,0.0028423103503882885,0.0009232992306351662,-0.004414762835949659,0.0022225407883524895,-0.005724149290472269,0.0036156978458166122,-0.002330545336008072,-0.0045468672178685665,-0.003985293209552765,0.0055012390948832035,0.0032526336144655943,-0.0031136295292526484,0.005505180452018976,-0.004274782259017229,0.002773900981992483,0.0018617968307808042,0.0038185901939868927,-0.0014052153564989567,-0.0011660255258902907,0.001479641767218709,-0.0012091401731595397,-0.005447961390018463,0.002728535793721676,0.0016741965664550662,-0.0009061593445949256,-0.00234204507432878,-0.002129468135535717,0.0028630048036575317,0.0027220365591347218,0.0037882013712078333,0.003114251885563135,0.0030639327596873045,-0.0029485065024346113,-0.00473215663805604,0.00310916593298316,-0.004767726641148329,0.005726653151214123,0.004455414600670338,0.0003974785504397005,-0.0017558045219630003,0.0003188613918609917,0.0027831022161990404,0.003044758690521121,-0.0050641135312616825,0.0036211414262652397,0.0016807416686788201,-0.005457122810184956,-0.002219323068857193,0.00012640203931368887,-0.0037006596103310585,-0.004095148760825396,-0.005769503302872181,0.004888512659817934,-0.005272672977298498,-0.001591553445905447,-0.00349492602981627,0.0028630581218749285,0.0024609968531876802,0.003637394867837429,0.001387481577694416,0.0010886817472055554,-0.0011033646296709776,0.001619706628844142,-0.004570694640278816,0.0021916949190199375,-0.004705012310296297,0.004296846687793732,6.749954627593979e-05,0.0003605993988458067,0.0010079622734338045,0.0032790282275527716,-0.000255720253335312,-0.0008601281442679465,-0.002514233812689781,-0.004418251570314169,-0.0036781972739845514,-0.0059328689239919186,0.004388093017041683,0.0031472493428736925,-0.0033415681682527065,-0.005910748615860939,-9.364728612126783e-05,-0.0010384796187281609,0.003278483171015978,-0.0011534340446814895,0.004325033165514469,-0.004800745751708746,-0.0015933747636154294,0.005154470447450876,-0.005799810867756605,-0.0012972333934158087,-0.0028543113730847836,0.00037846295163035393,-0.0026278693694621325,0.00439387047663331,0.005192449316382408,0.004147114232182503,-0.0012048392090946436,0.00581956934183836,0.002791826846078038,-0.0017151158535853028,-0.004826229531317949,0.0019842239562422037,0.0027149878442287445,-0.0044845351949334145,0.0005907833692617714,0.005785766057670116,-0.002063944237306714,-0.002353145508095622,0.004790535196661949,-0.004544438328593969,0.005149560049176216,0.00331982527859509,-0.0012966266367584467,-0.0049467370845377445,-0.005711378064006567,-0.001474910182878375,0.0024392472114413977,-0.00014812320296186954,0.0028347738552838564,0.0020260883029550314,0.000866012996993959,0.005553083959966898,0.002712814137339592,0.004924893379211426,-0.0030626878142356873,0.0025376712437719107,0.0011617308482527733,0.005039906594902277,0.0001241723948623985,-0.002617480466142297,-0.0013679134426638484,-0.0033398170489817858,-0.003326237900182605,-0.0003513380652293563,0.004663041327148676,-0.0036600609309971333,-0.002519738394767046,0.00419289106503129,-0.001909357262775302,0.0054926746524870396,-0.0027448285836726427,-0.0006872350932098925,-0.004803457297384739,0.0058462005108594894,0.004634215496480465,0.0037720927502959967,-0.0040701813995838165,0.005575165152549744,0.005097577814012766,-0.0007641112897545099,0.00215753517113626,0.005849557928740978,-0.0010720700956881046,-0.004596350714564323,0.004368581343442202,-0.00027931397198699415,0.005784358363598585,0.0006045207264833152,-0.005588995758444071,-9.826685709413141e-05,0.002590202959254384,-0.005629946943372488,-0.0010280789574608207,-0.004091351293027401,0.0016997450729832053,0.005432480946183205,0.0014798553893342614,0.0023148120380938053,-0.0012286532437428832,0.0007500059437006712,0.0005209551891312003,0.003083676565438509,0.004239495377987623,0.0019348057685419917,0.005699302069842815,0.003899501170963049,-0.004458549898117781,8.879753295332193e-05,0.004789750091731548,0.005273181479424238,-0.0014229457592591643,0.0026809759438037872,-0.001062564318999648,-0.004470274318009615,0.004568520002067089,0.005130859091877937,5.642921678372659e-05,-0.005721678026020527,0.0037539664190262556,-0.00027366913855075836,-0.005047930870205164,-0.0036894939839839935,-0.0041322228498756886,0.00221267226152122,-0.0023826693650335073,-0.0044223954901099205,0.004960948601365089,0.005422802641987801,-0.004293096251785755,-0.0032043331302702427,0.0010942366207018495,-0.004151364788413048,-0.004055342637002468,-0.001941193942911923,0.005335369613021612,0.005493016913533211,0.004059855826199055,0.0023247324861586094,0.002621219726279378,-0.0003614199813455343,0.00035818727337755263,0.0015970672247931361,0.002747287042438984,-0.004788773134350777,-0.0032678681891411543,0.005498967599123716,-0.0019582253880798817,-0.002750127110630274,-0.0009275579359382391,-0.0024835008662194014,-0.004856075160205364,-0.0034689181484282017,0.0016648581949993968,-0.0032881139777600765,0.0017540332628414035,-0.004750350024551153,-0.00544171966612339,0.004294801037758589,0.003088663797825575,0.001972123282030225,-0.005572109017521143,-0.0030960259027779102,0.0037097567692399025,-0.004220736213028431,0.0037161600776016712,0.0010005508083850145,0.0028551623690873384,0.0017164964228868484,-0.000986019498668611,-0.002470950596034527,0.002051725285127759,0.0036455965600907803,-0.005407792050391436,-0.0014264737255871296,-0.0017730717081576586,0.000706412538420409,-0.0045859054662287235,0.005148276221007109,0.0005762198125012219,0.005033453460782766,0.0037647127173841,-0.003662798786535859,-0.004367179237306118,0.004291030578315258,0.0004288108029868454,-0.005704628769308329,0.005157865583896637,-0.00032037380151450634,-0.002364533254876733,0.000197162531549111,0.003835714654996991,-0.004629050847142935,-0.001675632782280445,-0.0021515514235943556,0.004034451209008694,0.0033077120315283537,-0.001186590758152306,0.001953838160261512,-0.0012538045411929488,0.0008470869506709278,0.0058347913436591625,0.0004225659358780831,0.0058034262619912624,0.0029363001231104136,-0.0045051658526062965,0.003515568794682622,-0.004023343324661255,0.0003840107237920165,0.0013451596023514867,0.004659022204577923,-0.0034396611154079437,0.004465544130653143,0.005161037668585777,-0.004876183345913887,0.004576523322612047,-0.0028605256229639053,-0.004976986907422543,0.005447073373943567,-0.0012804355937987566,0.0014608334749937057,0.0006280428497120738,-0.003406904172152281,0.0020141492132097483,-0.00539137190207839,-0.0035267204511910677,0.005281839519739151,0.005386888049542904,-0.00020601788128260523,-0.0039308578707277775,-0.0009310172754339874,0.004478951916098595,-0.00510440394282341,-0.004420280456542969,0.0046996744349598885,-0.0010050981072708964,-0.004947794135659933,-0.0042855748906731606,0.004542825743556023,-0.00011755229206755757,-0.00400304701179266,0.0046807508915662766,0.004101318307220936,-0.005665660835802555,0.0009620242053642869,-0.0030368396546691656,0.00039359877700917423,-0.0026219114661216736,-0.00218707206659019,0.0012098338920623064,0.00046158250188454986,-0.0012449325295165181,-0.004661416634917259,0.005575947463512421,-0.003865125123411417,0.0015812048222869635,-0.00495627336204052,0.002236832631751895,-0.004812605679035187,-0.0032129744067788124,0.0017459322698414326,-0.0025783556047827005,0.0003902133903466165,-0.004460229072719812,-0.003534968476742506,0.0027768556028604507,-0.00552174961194396,-0.00461114477366209,-0.0033858311362564564,-0.005699309520423412,-0.004806204233318567,-0.002596692182123661,-0.004835439380258322,0.004348868038505316,-0.005154295824468136,0.004287864547222853,0.0038350222166627645,-0.004742264747619629,-0.00563990930095315,-0.005345319863408804,0.0010735370451584458,0.0020235078409314156,0.001433155732229352,0.0004926746478304267,-0.0038641924038529396,0.004049945157021284,-0.0020483501721173525,0.005774959456175566,-0.001367689692415297,-0.0028150940779596567,0.0046830205246806145,0.0008007654687389731,0.0026352014392614365,-0.0010880633490160108,0.004595889709889889,0.004961856175214052,-0.0007510748109780252,-0.0030797538347542286,0.0017540829721838236,0.005399678833782673,0.0014544541481882334,0.005395380314439535,-0.0018552911933511496,0.004930424503982067,-0.0046020387671887875,-0.0016768027562648058,-6.566972297150642e-05,0.0018186882371082902,-0.0024452705401927233,0.005039232317358255,0.004792839754372835,0.003555604023858905,-0.004580708686262369,-0.005009177140891552,-2.219402631453704e-05,0.0031518274918198586,-0.004475308582186699,0.001680034794844687,0.00033087661722674966,0.0026843654923141003,-0.0007676295936107635,0.0022960309870541096,-0.004043262451887131,-0.0033901280257850885,0.00479091377928853,-0.002026729751378298,0.005766972899436951,-0.005390307866036892,-4.898726547253318e-05,-0.0020788507536053658,0.005891210399568081,0.005820768885314465,-0.0031448532827198505,-0.0027645870577543974,0.0029656761325895786,0.004628661088645458,0.001944439485669136,0.004332114011049271,-0.005187333561480045,0.0016692376229912043,0.00237768585793674,-0.003678475506603718,0.003301807679235935,0.005277105141431093,0.004727156367152929,-0.0030293473973870277,-0.002090663881972432,-4.615317266143393e-06,-0.004058080725371838,0.005392181687057018,-0.004019649233669043,0.0031052548438310623,-0.0018835591617971659,0.0008756773895584047,-0.005378794856369495,-0.003503950545564294,-0.0006605350063182414,0.002104726852849126,0.0032969580497592688,-0.005581121426075697,-0.004127817694097757,0.002729530446231365,0.0037185593973845243,-0.003129076212644577,-0.003211255883798003,-0.0048935008235275745,-0.0041539049707353115,-0.005843923892825842,0.001067041652277112,0.004797533620148897,-0.004162432160228491,0.002986718202009797,0.0008749397238716483,0.0052255140617489815,0.003541182726621628,0.004189813043922186,0.0016527703264728189,0.003698137588799,-0.0017714120913296938,-0.0034563690423965454,0.004900026600807905,0.002783506875857711,-0.004861744586378336,0.004358252976089716,-0.0017947597661986947,-0.002396112075075507,0.0014647538773715496,0.0008148347260430455,0.0004544258117675781,-0.002911636373028159,0.0054613202810287476,0.0053466614335775375,-0.00588969886302948,-0.0019263271242380142,-0.005398098845034838,0.004160352051258087,0.004591170698404312,0.00021736072085332125,0.004034789744764566,0.0024155706632882357,-5.059983777755406e-06,-0.0016176847275346518,-0.0027768434956669807,-0.0028575670439749956,0.0007372192339971662,-0.003957737237215042,-0.0038629118353128433,-0.005815683864057064,0.0013461434282362461,0.005871957167983055,0.00462325569242239,0.0024432409554719925,0.0033915492240339518,-0.0009876452386379242,-0.0023984666913747787,-0.0015604684595018625,-0.004971984773874283,0.0015892577357590199,-0.003862042911350727,0.0031225408893078566,-0.003682545153424144,-0.0032294178381562233,0.005432003177702427,-0.0046872165985405445,-1.3747922821494285e-05,-0.005194530822336674,-0.004865449387580156,0.0015857556136325002,0.0015528160147368908,-0.003645201912149787,0.004424497950822115,0.0024016336537897587,-0.002368402434512973,-0.0029887338168919086,0.0030204709619283676,0.002775050001218915,-0.004171271808445454,-0.0017913873307406902,-0.0033653860446065664,-0.002445212099701166,-0.002523374045267701,0.0056543415412306786,0.002972080372273922,0.0033265361562371254,-0.0026438292115926743,-0.005932877771556377,-0.005248333793133497,0.0006295470520853996,-0.0025481143966317177,-0.0036471702624112368,-0.005349489860236645,0.004464827477931976,0.0011893416522070765,-0.004663730040192604,0.0031644210685044527,0.0030387674923986197,-0.002501521725207567,-0.0037009515799582005,0.0037295641377568245,-0.0020244771149009466,0.004126847255975008,-0.0054206326603889465,-8.445306775684003e-06,-0.003805855754762888,0.0020435964688658714,0.005906043108552694,-0.0010392169933766127,-0.0047476221807301044,-0.0021657287143170834,0.004650422837585211,0.003156783524900675,-0.0031808638013899326,0.005387971643358469,0.0014513834612444043,-0.003943001385778189,0.0008590638753958046,-0.0005787455011159182,0.003797458251938224,-0.0018511090893298388,0.0044540963135659695,0.0037056710571050644,0.002073988551273942,-0.0028673300985246897,0.005586705170571804,0.000578079023398459,0.004840563982725143,-0.0033766389824450016,0.00574170146137476,0.0037542397622019053,0.005336041562259197,-0.003416599240154028,-0.0008236607536673546,-0.004779415670782328,-0.004312175791710615,-0.0025661983527243137,0.0053645349107682705,0.001985949696972966,-0.0022018486633896828,0.005399547982960939,0.0028475963044911623,0.004834209568798542,0.005074647255241871,0.002978712785989046,-0.003051132196560502,0.005898621398955584,-0.0020776193123310804,0.002039568731561303,0.0040957690216600895,-0.0038586463779211044,0.0012952287215739489,-0.0014827309641987085,-0.003037405200302601,-0.005799309816211462,0.0044184112921357155,-0.0043251002207398415,0.004491380415856838,0.0011960322735831141,0.0014379328349605203,0.0039038173854351044,0.0001121487221098505,-0.0016952120931819081,-0.004290354438126087,0.0008364149834960699,0.0006315346108749509,-0.00244815438054502,0.0011885053245350718,-0.0007202154374681413,0.003629172220826149,0.0007065957761369646,0.0051513547077775,0.00021360538084991276,0.00460277684032917,0.00024380206014029682,0.000689355016220361,-0.0015820901608094573,-0.0011858174111694098,0.005144499707967043,-0.0032869281712919474,-0.004496430046856403,0.003922336734831333,0.0009135693544521928,-0.0025580187793821096,-0.0008029674063436687,0.0002958328987006098,0.001094468985684216,0.0038135333452373743,-0.001254910952411592,0.002096553100273013,0.003976454958319664,0.004083436448127031,-0.002919143298640847,-0.0017796847969293594,0.0011273216223344207,0.004582311492413282,0.0034499994944781065,0.0009973359992727637,0.005745922215282917,-0.0007247250759974122,0.004067722707986832,0.0037822858430445194,0.0048467922024428844,0.005792778916656971,-5.110947313369252e-05,-0.003615395165979862,-0.00046449428191408515,0.004203542601317167,0.003992368001490831,-0.0019483935320749879,-0.0053772153332829475,0.00011691063264152035,-0.0003076345892623067,-0.004920410457998514,0.0035027849953621626,-0.002570574637502432,0.0017312851268798113,-0.004733637906610966,0.0042845322750508785,0.0028421692550182343,-0.001325344666838646,0.0015381070552393794,-0.003712509060278535,0.005765982903540134,0.003517253790050745,0.0034321097191423178,-0.00411724578589201,-0.005728494841605425,0.0010140661615878344,-0.004227234050631523,0.0033310665749013424,-0.0009968695230782032,-0.0019172208849340677,-0.005064312368631363,0.00589239876717329,0.005416622385382652,-0.0043759942054748535,-0.0019859098829329014,-0.0012972545810043812,-0.0024136528372764587,0.005160738248378038,0.002629159949719906,0.0054155015386641026,0.004448479041457176,0.0030235149897634983,0.0023396301548928022,0.004349379800260067,0.0021873838268220425,-0.0036974723916500807,0.0017594892997294664,0.00017819239292293787,0.005724078509956598,0.0001183774511446245,-0.005482359789311886,-0.002801022259518504,0.004957776516675949,0.0054919966496527195,0.002714169677346945,-0.005263693630695343,-0.005659507587552071,-0.00024237745674327016,0.005935246124863625,0.004386608954519033,0.005144572351127863,0.0014674616977572441,0.004265783354640007,-0.0021416721865534782,-0.00561410142108798,0.0049680969677865505,-0.003344558645039797,0.002714024856686592,0.0018882593140006065,-0.004060428123921156,-0.0036136209964752197,-0.0020303241908550262,0.003051893785595894,-0.005472984630614519,-0.0011038618395105004,0.001961260801181197,-0.0039023589342832565,-0.004520667251199484,-0.0013040880439803004,-0.002535308478400111,0.0017710010288283229,0.005577665288001299,-0.005886055529117584,0.004779580049216747,-0.0007931936997920275,0.0019481306662783027,0.00416959635913372,0.0008725639199838042,-0.004783242009580135,-0.0042691100388765335,0.003436148865148425,-0.003217846155166626,0.0008200495503842831,-0.0008542780415154994,-0.0023324303328990936,0.00340868066996336,0.0027464558370411396,0.0017355232266709208,-0.0015124434139579535,-0.0032490610610693693,0.0001888035039883107,0.0037666507996618748,0.0008987710461951792,0.005584449041634798,-0.005755768157541752,0.005919501185417175,0.002273610094562173,0.003951594233512878,-0.001960481284186244,9.908471838571131e-05,0.0035277209244668484,0.0030960668809711933,-0.0019713849760591984,-0.00208570365794003,0.0019339179852977395,0.005151124205440283,-0.0007271153735928237,-0.0017467966536059976,0.004688201937824488,0.002174390945583582,-0.001327087520621717,-0.00525879580527544,0.0026309113018214703,-0.0017474537016823888,-0.005100933834910393,0.0013338023563846946,-0.002102373167872429,-0.0019188569858670235,-0.0002474212378729135,0.002583225956186652,-0.0026568083558231592,-0.004977640695869923,-0.0008976907120086253,-0.005286719184368849,0.002343210391700268,0.005455021280795336,0.0018857825780287385,-0.002667974215000868,-0.003780827159062028,-0.0031740707345306873,-0.0033067932818084955,-0.0022113726008683443,-0.004782828036695719,0.004700460936874151,0.004574568010866642,0.0013688096078112721,-0.005203631240874529,0.003611005377024412,-0.0052051967941224575,-0.004675037693232298,-0.0020751776173710823,-0.000814013066701591,-0.0017355461604893208,-0.0039764936082065105,-0.004607230890542269,0.004269233904778957,-0.00162516999989748,-0.0033425544388592243,-0.0001545214036013931,-0.005501740146428347,0.0011911691399291158,-0.0029875102918595076,0.0011664056219160557,0.0013556117191910744,0.00367305101826787,-0.003208266105502844,-0.0004339754523243755,0.005486425943672657,0.0026978522073477507,0.0056462655775249004,0.00507636833935976,0.0013155039632692933,-0.002804100513458252,0.0030518167186528444,0.002353315707296133,0.0010558628709986806,0.0023498707450926304,0.0013492123689502478,0.00023018792853690684,-0.0009983027121052146,-0.005408080294728279,0.0043437425047159195,0.004341992549598217,0.0011171215446665883,-0.0027571343816816807,-0.005604990292340517,-0.005922167096287012,-0.005073124542832375,-0.0016643076669424772,-0.00370131921954453,-0.002790705068036914,0.0023716215509921312,0.00545390835031867,-0.003482997650280595,-0.0004080891376361251,0.005837928503751755,0.005127548240125179,-0.0017542265122756362,-0.0021417830139398575,-0.003062568139284849,-0.004093220457434654,-0.00047451097634620965,-0.0018872132059186697,0.0029082493856549263,-0.0031255721114575863,0.002807220444083214,-0.00251645315438509,0.0011014596093446016,0.0016443125205114484,0.0020404679235070944,-0.0038564130663871765,-0.0025810140650719404,-0.0030157079454511404,0.0009046562481671572,-0.005039401818066835,0.00021685361571144313,-0.004900180734694004,-0.0019354927353560925,0.0022177470382303,-0.0010385870700702071,-0.0026091602630913258,0.0013761851005256176,0.0028539833147078753,-0.002915108110755682,-0.0023827834520488977,0.0016664514550939202,0.005526050925254822,-0.003398712957277894,0.0018321976531296968,0.004829586949199438,-0.00045176767162047327,-0.002175574889406562,0.001982141053304076,-0.005565783008933067,-0.0016610503662377596,-0.0028748514596372843,-0.0032710195519030094,-0.0038039081264287233,0.002815903862938285,0.005405801814049482,-0.0013687248574569821,-0.005355875939130783,0.0026002954691648483,0.00045380330993793905,0.0026565128937363625,0.001756848068907857,0.004815881140530109,-0.004270951263606548,-0.003929787315428257,-0.0018818833632394671,-0.00010228189785266295,0.005056746304035187,0.004834034014493227,0.004417200107127428,-0.003295901929959655,0.0027281600050628185,-0.0013839160092175007,0.005121710244566202,-0.0033908223267644644,-0.004261237569153309,0.004066945984959602,0.0025764890015125275,0.0038179364055395126,-0.004063043277710676,0.004570674151182175,0.0021098244469612837,0.0018002826254814863,0.0009809554321691394,0.0031462768092751503,-0.00100242649205029,-0.0043614511378109455,0.0004664006410166621,0.0029470238368958235,-0.00411407183855772,-0.0032781590707600117,0.0023346233647316694,-0.0027361500542610884,-0.003920534159988165,0.004625306930392981,-0.004027978982776403,-0.0018512450624257326,-0.000850123236887157,-0.00028341429424472153,-0.0016473977593705058,0.004900246858596802,0.0018841958371922374,-0.0016689600888639688,-0.0016900432528927922,3.507684596115723e-05,-0.005539278034120798,0.005067782010883093,-0.0032866077963262796,0.0023470595479011536,0.0032988679595291615,0.003888746490702033,-0.003971593454480171,0.00043585195089690387,-0.004945231601595879,0.0036204082425683737,-0.0001609336759429425,-0.00405656173825264,0.0025975294411182404,-0.0020054110791534185,-0.004578997381031513,-0.00046237444621510804,-0.0031448141671717167,0.005347860045731068,-0.0016467833193019032,0.0008606172632426023,0.005325756501406431,-0.001262407866306603,-0.0016852070111781359,-0.004010039381682873,0.005206291563808918,0.0035723301116377115,-0.0033139085862785578,-0.001987539231777191,0.004928437061607838,0.0004428190004546195,0.0006691557937301695,0.0017597026890143752,0.0031140546780079603,0.005217955447733402,0.0035899134818464518,0.00516169611364603,0.0038082918617874384,-0.005387581884860992,-0.0045430297031998634,0.004571864847093821,-0.005610152613371611,0.003494288306683302,0.004155540838837624,-0.0010041339555755258,-0.0017240741290152073,-0.003629951272159815,-0.005358066875487566,0.0029147269669920206,-0.005063388030976057,0.005281909368932247,-0.002414337359368801,0.0034951157867908478,-0.005230211652815342,0.00043093005660921335,-0.001792436116375029,-0.005582777317613363,0.00185062934178859,0.005264009814709425,-0.005811414215713739,-0.002726813545450568,0.002418485702946782,0.004409854765981436,-0.003673010505735874,-0.005099145229905844,-0.00583649380132556,-0.003382856957614422,-0.005092012230306864,-0.0016702971188351512,-0.0007112010498531163,-0.00023847183911129832,-0.004248511511832476,-0.0004277585248928517,-0.005831620655953884,-0.003095228224992752,-0.0015550308162346482,-0.0045333257876336575,0.003729834221303463,-0.003549081739038229,0.0030276512261480093,-0.00031011636019684374,-0.00024061978911049664,0.0017246585339307785,-0.005413195583969355,-0.005003613419830799,-0.0020568009931594133,-0.0009880055440589786,-0.0008321836940012872,0.002101114485412836,-0.005930764600634575,0.0054533774964511395,-0.003866528859362006,-0.0029858227353543043,0.004818152170628309,-0.005873910151422024,0.005835869815200567,-0.005512027535587549,-0.004507265519350767,-0.0030870845075696707,-0.0007278825505636632,0.0002191698586102575,-0.0046952636912465096,-0.005064019933342934,-0.005560708232223988,-0.002889382652938366,0.005007085390388966,-0.0013084812089800835,0.0031359530985355377,-0.003680030582472682,-0.005170860793441534,0.0006447491468861699,0.0038259029388427734,0.004733017645776272,0.0005488298484124243,-0.0024465415626764297,-0.00463832775130868,0.0019934463780373335,-0.0026080324314534664,0.004085680935531855,0.0012486577033996582,0.004262859001755714,0.0007917217444628477,0.003227831097319722,-0.002443300560116768,3.633530286606401e-05,-0.005708624608814716,0.0012808552710339427,0.0004007546231150627,0.003032314358279109,0.002719602547585964,0.0015158699825406075,-0.005265813786536455,0.004787060897797346,-0.005725101567804813,0.0036022975109517574,-0.0002453405468259007,0.0037772157229483128,-0.000414920476032421,0.0017453678883612156,-0.0016241703415289521,0.0028944837395101786,-0.00291996356099844,0.0026055704802274704,-0.003642085939645767,0.002638969337567687,-0.0024508293718099594,-0.0026294731069356203,0.003700011409819126,0.0037261282559484243,0.0022735304664820433,0.005035304464399815,-0.004083826672285795,-0.002740065334364772,-0.002446757862344384,-0.0023128630127757788,-0.0020426837727427483,0.00234012957662344,-0.002722998382523656,-0.0025428759399801493,0.000836402818094939,-0.003642368596047163,-0.001604903838597238,-0.0052509065717458725,0.005375480279326439,-0.0021700700744986534,0.004157897550612688,0.0003556915035005659,-0.003228371497243643,-0.0036415522918105125,0.002315797843039036,0.0055218408815562725,-0.0037645858246833086,-0.004568133503198624,-0.0013410653918981552,-0.0012613479048013687,0.0036377578508108854,-0.0003695516788866371,-0.005197207443416119,0.004996807314455509,-0.0015063094906508923,0.0020018666982650757,0.0019894721917808056,-0.005269892048090696,-0.005896321497857571,-0.004893410485237837,0.005422803573310375,0.003492129733785987,-0.004371060058474541,0.0013644560240209103,0.0013300551800057292,-0.005932497791945934,-0.00084259535651654,0.0025155278854072094,-0.0037203615065664053,0.0041681332513689995,0.0019041459308937192,-0.005856889765709639,0.004215769004076719,-0.005708699580281973,0.004607926122844219,-0.0019751335494220257,0.0023596228566020727,0.0034141847863793373,-0.0025981497019529343,-0.0017052831826731563,0.00011334015289321542,0.0009822328574955463,-0.0024701838847249746,0.0058488086797297,0.0028152072336524725,-0.0026826851535588503,0.0016680924454703927,-0.0007676799432374537,0.0042800866067409515,-0.0020317784510552883,-0.0037077569868415594,-0.005391119513660669,0.0057527595199644566,-0.0016722041182219982,-0.003319759154692292,-9.777563536772504e-05,-0.0024749659933149815,-0.0031726874876767397,0.001382447313517332,-0.005050068721175194,0.00010682138963602483,-0.001337122404947877,0.0003863811434712261,-0.0021328560542315245,0.0008352901786565781,-0.00496727554127574,-0.0014710184186697006,-0.0031180642545223236,-0.0007353887776844203,-0.0012075920822098851,0.0015582358464598656,0.0015294199110940099,-0.001029077684506774,-0.0037817684933543205,0.0009729918092489243,0.005541399121284485,-0.00373639864847064,-0.005118834786117077,-0.002796607557684183,-0.0010343565372750163,-0.0023021476808935404,0.003975774627178907,-8.281834016088396e-05,-0.0030155633576214314,0.005347589496523142,-0.004453607834875584,-0.004479162395000458,-0.0030255771707743406,-0.005027218256145716,0.002989200409501791,-0.002223484916612506,0.002730079460889101,0.003120868466794491,-0.0031178274657577276,0.0002181260206270963,0.00023271871032193303,0.0044111693277955055,-0.005634688306599855,-0.0021760964300483465,0.004543315153568983,-0.003126324387267232,-0.004313240293413401,0.000904400076251477,-0.002305849688127637,-0.0003884958568960428,0.003801200306043029,0.00024583368212915957,0.0001887408143375069,-0.0026348077226430178,0.0034787384793162346,0.002848584670573473,-0.0031581902876496315,-0.0021380363032221794,0.003428405849263072,-0.001690067583695054,-0.0011455457424744964,-0.0016105488175526261,-0.004019222687929869,-0.0018898751586675644,0.0035983496345579624,-0.00010600865789456293,-0.000496305525302887,-0.00408195611089468,-0.0038299148436635733,-0.005428964737802744,-0.005773371085524559,-0.00014237509458325803,-0.0010781633900478482,-0.002668127417564392,0.005820908583700657,-0.0012116295984014869,0.0034310035407543182,-0.0034382196608930826,-0.0030047146137803793,0.000812370388302952,-0.0058912900276482105,-0.005732154008001089,-0.004249825142323971,-0.0032888450659811497,0.0003307937877252698,0.0022120848298072815,-0.0022345574107021093,-0.0030993877444416285,0.003834440838545561,-0.004005628637969494,0.002118212403729558,0.005123463459312916,-0.003180873114615679,-0.004906139802187681,0.005698709283024073,-0.0027228123508393764,-0.002664734609425068,-0.00019275971862953156,-0.003194571705535054,0.005854474380612373,-0.0054287780076265335,-0.0005764174275100231,0.0005742746870964766,-0.0003925776691175997,0.00024377497902605683,0.005791600327938795,0.004476941656321287,-0.0022753591183573008,0.0006114575080573559,-0.005935444496572018,-0.0010741646401584148,-0.0039925952441990376,0.0025105997920036316,-0.003312975401058793,0.002956451615318656,-0.0022193393670022488,0.0050581106916069984,-0.0006483576144091785,0.004032885655760765,0.0015223912196233869,0.0056706685572862625,0.002883128123357892,0.00270472327247262,-0.0027929870411753654,5.77274477109313e-05,-0.002493087900802493,-0.005709965713322163,0.0025013911072164774,-0.003137807361781597,-0.0012196137104183435,-0.0025581202935427427,-0.0035678085405379534,-0.005141876637935638,-0.001925588701851666,-0.004968150053173304,0.0004789118829648942,-0.005706038326025009,0.005226678214967251,0.005540919490158558,-0.002320375759154558,-0.0028484745416790247,-0.004698984790593386,0.004809739533811808,0.0010317936539649963,0.0013080942444503307,0.004702093079686165,0.00487943971529603,0.003900133538991213,0.003248014720156789,0.004480975680053234,0.004465883132070303,-0.001560272998176515,0.005623072385787964,0.0024841304402798414,-0.0015416884562000632,-0.0006883531459607184,0.002222794573754072,-0.0016499058110639453,0.003878943156450987,-0.004180397838354111,0.004841518122702837,-0.0023614310193806887,-0.004125173669308424,0.0042527117766439915,-0.00309472787193954,0.004078949801623821,-0.0024200279731303453,0.005153560545295477,-0.003336873836815357,-0.005111816804856062,0.0051852380856871605,-0.003971789963543415,0.005275529343634844,0.003848292864859104,-0.004966006148606539,-0.0006517005385830998,-0.005067277234047651,-0.0020218424033373594,-0.0017638877034187317,0.0011834722245112062,0.005652819760143757,-0.003922641277313232,-0.00202939216978848,0.0010346274357289076,-0.0039029542822390795,0.0025028677191585302,-0.0011443567927926779,0.005340144503861666,0.0015426429454237223,-0.0016263654688373208,0.002606962574645877,0.004023820627480745,0.0035691820085048676,-0.0028179504442960024,-0.000986094935797155,-0.0005680478061549366,-0.0013258131220936775,-0.0022466147784143686,0.003002208424732089,-0.005793935619294643,-0.0024523388128727674,-0.0042569697834551334,-0.004409580957144499,-0.0026493468321859837,0.003113927086815238,0.005575923249125481,0.00017364067025482655,-0.0019127374980598688,0.003909978084266186,-0.005142065696418285,-0.004832464270293713,-0.0018367819720879197,-0.0006128188688308001,0.0035378008615225554,0.0050514028407633305,0.000371501810150221,-5.1731938583543524e-05,-0.003408934688195586,-0.0005798798520117998,0.005032163579016924,-0.0012721691746264696,-0.003436593571677804,-0.0019326548790559173,0.00017335642769467086,0.0011710202088579535,-0.0008026178693398833,0.003070964477956295,0.0010031606070697308,0.0019604875706136227,0.004310851451009512,0.004343750420957804,-0.003521810518577695,0.0014651230303570628,0.0025733201764523983,-0.0042066569440066814,0.004071515053510666,-0.0037954675499349833,0.003554923925548792,-0.004021203611046076,0.0028719124384224415,-0.0041793957352638245,-0.001439299201592803,-0.004234414082020521,-0.00272350967861712,0.005755200982093811,-0.004660137463361025,-0.00111103686504066,0.0021014970261603594,-0.004815470427274704,-0.004644014406949282,-0.0042374227195978165,0.0017221883172169328,0.004862217698246241,0.0038721931632608175,0.005737863946706057,0.0009281422244384885,0.005481555592268705,-0.002317046048119664,-0.0009323914418928325,-0.0012348495656624436,-0.005376613233238459,0.003916330635547638,-0.005645529367029667,0.0027305339463055134,-0.0011039103846997023,-0.005864926613867283,-0.002495069056749344,-0.0018277380149811506,0.005519865080714226,0.001913342042826116,0.000517554406542331,-0.004429996944963932,-0.0012934929691255093,-0.005514319986104965,0.0031083719804883003,-0.004005631897598505,0.0011217333376407623,0.0023684280458837748,-0.0015856417594477534,0.0015749781159684062,0.003138631349429488,-0.003752065123990178,0.0011980468407273293,0.00277812872081995,-0.001698022591881454,-0.004009023774415255,-0.0025405732449144125,0.005144181195646524,-0.001693272846750915,-0.004659841302782297,-0.004956490360200405,-0.0037951681297272444,-0.004424511920660734,-5.887051156605594e-05,-0.0018108263611793518,0.004055310972034931,0.004526556469500065,-0.00031740529811941087,0.004615032579749823,-0.0005884316051378846,0.0016862653428688645,-0.004008505027741194,-0.005314548499882221,-0.0040376028046011925,-0.002947651082649827,0.0029812324792146683,-0.0038781953044235706,-0.004387185908854008,0.005079262889921665,0.0022426475770771503,-0.00031708343885838985,-0.00481107784435153,0.004178670234978199,-0.004653214942663908,0.0013190414756536484,0.00199170783162117,-0.0011861789971590042,0.004884546156972647,-0.005336902569979429,0.0037786809261888266,0.0006389849586412311,0.0013209086610004306,0.005782648921012878,0.0009817135287448764,0.0035281807649880648,-0.004115457646548748,0.0036738275084644556,0.003101096488535404,0.005560341291129589,0.0051754917949438095,-0.0033973471727222204,-0.0004165337886661291,0.004887711256742477,0.0016720464918762445,-0.0004311765660531819,-0.0046451338566839695,-0.0017608647467568517,0.0019627660512924194,0.0032892669551074505,-0.0006275658961385489,-0.005275802221149206,0.0015818561660125852,0.005007720086723566,-4.2633007979020476e-05,0.005088947247713804,-0.0017330320551991463,0.004589359741657972,0.0034012231044471264,0.0054846941493451595,0.0034568309783935547,-0.002120513003319502,0.004758052062243223,0.002016112906858325,-0.004014034289866686,-0.005393152590841055,-0.001593523076735437,0.0034074520226567984,0.0014041857793927193,0.00032222416484728456,-0.005894860718399286,-0.0007661403506062925,-0.004065656568855047,-0.0005396608612500131,0.0058413841761648655,0.004508267622441053,-0.0022493822034448385,0.0011107067111879587,2.4888538973755203e-05,-0.004394404124468565,0.005818057805299759,-0.0008887900621630251,6.721624231431633e-05,0.0017532255733385682,-0.003663919633254409,-0.0032994693610817194,-0.0036518762353807688,-0.0013723503798246384,-0.003567320527508855,0.005064849741756916,0.002545681782066822,0.0047256010584533215,0.004139391239732504,0.0024130952078849077,-0.0030557322315871716,0.0013697894755750895,-0.0037262290716171265,-0.00436555128544569,0.0015747655415907502,0.001480337348766625,-0.004078737460076809,-0.0017529047327116132,-0.005151832476258278,0.0025625377893447876,0.00579060846939683,0.002849671756848693,0.004087934736162424,-0.0002810013247653842,-0.004803764633834362,0.0026916952338069677,-0.002892120508477092,-0.0013268754119053483,0.0024124691262841225,0.004808142781257629,-0.00016334008250851184,0.005483079236000776,0.00023641723964828998,-0.004483925644308329,0.0002189587539760396,0.004283635877072811,0.0004519109206739813,0.002942906692624092,0.0005696539883501828,0.0005470490432344377,-0.002556669758632779,-0.0035485108382999897,-0.0026260637678205967,-0.000702743767760694,0.0036773972678929567,0.003907847683876753,-0.0039984919130802155,0.0006278255023062229,-0.0009974460117518902,0.0008425944251939654,0.0017535114893689752,-0.0026178299449384212,0.004979877267032862,0.005172374192625284,-0.004687670152634382,0.0024115098640322685,-0.005544398911297321,-0.005386041011661291,0.005437874235212803,0.002314519602805376,-0.002084143226966262,0.0020178540144115686,0.004107924643903971,0.004405694548040628,-0.005695398896932602,0.0037800006102770567,0.004195439629256725,0.0011352094588801265,-0.0002387107815593481,-0.0046206628903746605,-0.0030929390341043472,-0.00011302380153210834,0.004336518235504627,0.0036007140297442675,-4.8348600103054196e-05,0.0033927569165825844,0.0031564547680318356,0.0009385664598084986,-0.003322051838040352,-0.0018054534448310733,-0.0039903344586491585,-0.005854202900081873,-0.0049826353788375854,0.003083905205130577,-0.00554138096049428,-0.001189578091725707,0.0057702334597706795,0.0035069333389401436,0.0029769055545330048,-0.0026760718319565058,0.0016835108399391174,-1.5300211089197546e-05,0.0014708206290379167,-0.0007623937563039362,0.00036778778303414583,0.00580130610615015,-0.0020274692215025425,-0.003368052653968334,-0.000611797149758786,0.0002888859889935702,-0.004922015592455864,0.003634420456364751,-0.0009258784120902419,-0.0010311908554285765,0.0018867437029257417,0.0032456719782203436,0.005772133357822895,-0.0038780237082391977,-0.0018345324788242579,-0.003940531983971596,0.004523901734501123,0.0005760163185186684,0.004186381120234728,0.0057636406272649765,0.0005963690346106887,-0.004535698797553778,-0.0016479004407301545,-0.005509272217750549,0.004149093758314848,-0.00572667270898819,0.0010949989082291722,-0.004678457975387573,-0.0058493646793067455,-0.0028965126257389784,0.0006159149343147874,-0.0050472235307097435,0.00136467011179775,0.002042971318587661,0.005579204298555851,0.004745812155306339,0.0007933634333312511,0.0034846686758100986,-0.0016197090735659003,0.0010181134566664696,-0.0011479859240353107,-0.001935663167387247,0.0027039649430662394,-0.002415203722193837,-0.001418833271600306,-0.0015777728985995054,0.004399754572659731,-0.003915027249604464,-0.001407863455824554,0.004607224836945534,-0.005757348611950874,0.005319888237863779,0.004738249816000462,-0.0009758223313838243,0.001817676704376936,0.005833026021718979,0.0006526922225020826,-0.004788149148225784,0.004200646188110113,-0.00434564845636487,-0.002883194712921977,0.004436718765646219,-0.0028979526832699776,0.00291119865141809,-0.0006215464090928435,0.0030853699427098036,-0.0031791941728442907,-0.0009554228163324296,-0.0021599300671368837,-0.002980924444273114,-0.0022042535711079836,-0.0021025477908551693,0.005409108474850655,0.0003947193326894194,-0.0004507543926592916,3.941982504329644e-05,0.0058931815437972546,0.0018243739614263177,0.0024170707911252975,-0.002213851548731327,-0.00033808278385549784,-0.0037527589593082666,0.002199731767177582,-0.0018471371149644256,0.0029492380563169718,-0.003407149575650692,-0.0011462178081274033,-0.00034228016738779843,-0.003961104433983564,-0.005112516228109598,-0.0021729206200689077,0.0005332414875738323,0.0018135629361495376,-0.0008876475621946156,3.2984924018819584e-06,0.0005130583303980529,0.00014147732872515917,-0.0048661911860108376,-0.0011284240754321218,-0.003512033261358738,0.000400725519284606,0.0030655013397336006,0.0009441605070605874,-0.003304277313873172,-0.0034713447093963623,-0.005499664694070816,-0.0008744681254029274,-0.0007974891341291368,-0.0031306822784245014,0.0031389354262501,-0.001348342513665557,0.002012196695432067,0.0016637942753732204,0.0012441362487152219,0.00484712328761816,-0.005750391632318497,-0.00513097271323204,0.0026386482641100883,-0.001739859813824296,0.005779047962278128,-0.003368528326973319,-0.003760436549782753,0.0010479233460500836,-0.0026200476568192244,-0.0018946685595437884,0.005001043900847435,-0.005627421196550131,0.0003713082696776837,-0.0019611103925853968,-0.0018293500179424882,-0.0029955969657748938,-0.004337351769208908,-0.005529555957764387,0.0057929824106395245,0.0019048721296712756,0.003292721463367343,-0.005167023278772831,-0.005762895569205284,0.0011912568006664515,0.0026587313041090965,-0.0012488076463341713,-0.0013332759262993932,-0.0013721842551603913,-0.00412466237321496,0.0030160550959408283,-0.003383019706234336,-0.0020857008639723063,0.0020342706702649593,-0.005937894806265831,0.003162676701322198,0.004740558099001646,-0.005326013080775738,0.001088332966901362,-0.0010873497230932117,-0.005007128696888685,0.002164590172469616,0.0013341517187654972,0.0016945588868111372,0.003723784815520048,-0.0025310355704277754,0.002103263745084405,0.0028901949990540743,-0.003933907952159643,0.005429167300462723,-0.0019007495138794184,0.002538485685363412,0.0030173214618116617,4.788132355315611e-05,-0.004410198889672756,-0.002664737869054079,-0.003156688529998064,0.00022143551905173808,-0.002835714491084218,0.0005555528914555907,-0.00251573882997036,-0.005927508231252432,-0.0016242744168266654,0.0012692040763795376,0.003251046175137162,-0.005602217745035887,-0.002870825119316578,0.0057664536871016026,-0.0028292229399085045,0.003292630659416318,0.0001113388134399429,-0.004487922415137291,0.0017033464973792434,0.005539325997233391,0.004594862461090088,0.0022603506222367287,0.00014429559814743698,-0.0021460126154124737,-0.0016989901196211576,-0.0018267990089952946,0.0050136069767177105,-0.0034291106276214123,-0.0014487954322248697,-0.0008081594132818282,-0.001082099275663495,-0.005889270920306444,-0.002720439340919256,-1.7002405002131127e-05,0.003094211919233203,0.0008252314291894436,-0.0013676410308107734,0.001961589092388749,0.001970525598153472,-0.002994220471009612,-0.004706480540335178,0.0036012977361679077,0.0003537635784596205,-0.0038423286750912666,-0.0028261858969926834,0.0031646641436964273,0.0018206118838861585,0.00528781209141016,-0.00041636411333456635,-0.005319251213222742,0.002380678430199623,-0.0029112379997968674,-0.0020923044066876173,-0.003603296121582389,-0.0022695183288306,0.003913660533726215,0.0009112220723181963,-0.004642580170184374,0.0010287024779245257,0.0015865025343373418,0.004571042489260435,0.004271968267858028,-0.005192290525883436,0.004355741664767265,-0.005334715824574232,-0.00410843500867486,-0.004614116623997688,-0.003780888393521309,0.003602229990065098,0.0022107772529125214,0.0022207917645573616,0.005014149006456137,-0.001284623402170837,-0.005900089628994465,0.0016602084506303072,0.004372089635580778,0.005657150410115719,-0.0016167198773473501,0.0038266130723059177,0.004148223903030157,-0.004223465919494629,0.001561976270750165,-0.003882532473653555,-0.0006339337560348213,0.004505037795752287,0.003438370767980814,0.0008355117752216756,0.003666933160275221,-0.0041238111443817616,-0.003623832482844591,-0.0034581846557557583,0.0032785655930638313,0.004643996711820364,0.0007463874062523246,0.005439913831651211,0.002708606654778123,0.0007564544212073088,0.0013255032245069742,0.004151863511651754,-0.004867947194725275,-0.003943380434066057,-0.0027760129887610674,0.004689257126301527,0.005285179708153009,-0.0017084460705518723,0.005034693516790867,0.0005564713501371443,-0.00031746167223900557,0.003952671308070421,0.0005473920027725399,-0.0005406716954894364,-0.005749519914388657,-0.005785936489701271,0.0015155660221353173,-0.005067071877419949,0.0028145022224634886,0.0014532058266922832,-0.0005021001561544836,0.002492105821147561,0.0058568380773067474,-0.003012844594195485,0.0006777236121706665,0.004072537645697594,-0.005738693755120039,-0.0035218102857470512,0.00024895454407669604,0.000620594306383282,-0.004913648124784231,-0.0010995763586834073,0.00023501038958784193,-0.0009149144752882421,0.002382739447057247,0.003223337000235915,-0.00047202169662341475,-0.000883032800629735,0.002439368050545454,0.0006568983080796897,0.004400182515382767,-0.00022394982806872576,0.0008828839636407793,-0.004409154877066612,0.0039910683408379555,-0.0009230340365320444,0.0026020959485322237,-0.0008376219775527716,-0.005927115213125944,-0.0011829532450065017,-0.004187066573649645,-0.0012042768066748977,-0.0021221248898655176,-0.0035332234110683203,-0.004468939267098904,0.002714914968237281,0.0030273026786744595,-0.002791423350572586,-5.7127221225528046e-05,-0.0004267734184395522,-0.001719408086501062,-0.0026412857696413994,-0.0037294006906449795,0.004429322201758623,0.003959177993237972,-0.0009837645338848233,0.0026274912524968386,-1.980607157747727e-05,-0.00492493249475956,0.0038294452242553234,-0.0033345690462738276,0.0024566370993852615,0.00032544246641919017,0.002263288013637066,-0.00034205630072392523,0.0024060788564383984,-0.0055493819527328014,-0.005453876219689846,0.004707836080342531,0.00296593620441854,0.0039016297087073326,-0.0005156893166713417,-0.0004793239349965006,0.0004039111954625696,-0.0030448518227785826,0.0027736087795346975,0.003913350868970156,0.00483712088316679,0.0002023342385655269,-0.001014682580716908,0.0039309170097112656,0.003001235658302903,0.004362573381513357,0.001849818043410778,0.00455310195684433,-0.004881476983428001,0.0021328835282474756,-0.004884405992925167,0.002956595504656434,0.0015256933402270079,-0.005749180912971497,0.001179050887003541,-0.0042015863582491875,-0.004247536417096853,-0.004151897504925728,-0.00019214628264307976,-0.004566957242786884,-0.004446564707905054,-0.0028963028453290462,-0.005928944330662489,-0.0026632300578057766,0.00140648172236979,0.0012064847396686673,0.005577250849455595,-0.0045181396417319775,0.004342357628047466,-0.001292476779781282,-0.001341812894679606,-0.0017958648968487978,-0.004457483533769846,-0.0002553213853389025,0.0034135563764721155,0.004459490068256855,0.0054979706183075905,0.003388784360140562,0.001462118816561997,-2.928895628429018e-05,0.004453133326023817,0.002845010021701455,-0.00402366928756237,0.0021683862432837486,-0.0008191413944587111,0.0011379364877939224,0.004731748253107071,0.0018122766632586718,0.005211288575083017,0.004351840820163488,-0.004408014006912708,-0.005800734274089336,-0.0013729919446632266,0.0043394910171628,-0.0032056369818747044,0.0022735027596354485,-0.00028513185679912567,0.0029229812789708376,-0.003979497589170933,-0.0030991476960480213,-0.0030583643820136786,0.0005756918690167367,-0.002498897723853588,0.0037027262151241302,-0.0018198193283751607,0.001910635968670249,0.005327429622411728,0.0012700710212811828,-0.003062770701944828,0.003925255965441465,-0.005790155380964279,-0.0028919177129864693,-0.0013364177430048585,-0.0036112461239099503,0.0012355571379885077,0.0006889489595778286,-0.0011106582824140787,-0.002442416502162814,-0.0007850665715523064,-0.00248015602119267,-0.003310967469587922,-0.0017666532658040524,0.0012155718868598342,0.0017626291373744607,-0.0024071652442216873,0.005314317997545004,-0.002827512798830867,0.00251976540312171,-0.004971296060830355,0.001958070555701852,-0.00047573805204592645,0.000820883666165173,-0.003752671182155609,-0.0007891440764069557,0.0031629237346351147,0.003172509139403701,-0.0031173815950751305,-0.001750865252688527,-0.005893840454518795,-0.004870543256402016,-0.004433800466358662,-0.0024510654620826244,0.003076659282669425,0.00012175384472357109,0.0034756821114569902,0.0030278421472758055,0.0010350531665608287,-1.654719426369411e-06,0.005123348906636238,0.0008228124352172017,-0.00020402000518515706,0.004384519532322884,-0.005090569611638784,0.0018533252878114581,-0.004596569575369358,0.003798931371420622,0.0034763715229928493,4.276673644199036e-05,0.0019129285356029868,0.0032382775098085403,-0.00019831974350381643,0.004822080489248037,-0.0007479735068045557,0.004656552337110043,0.0009828581241890788,-0.0008761014323681593,-0.005890467204153538,-0.002428442006930709,0.004370273556560278,-0.0008467677398584783,-0.0009328171145170927,-0.00012578141468111426,-0.0025383385363966227,-0.00010035635932581499,-0.001475718803703785,0.004863472189754248,0.0007598165539093316,0.0039691380225121975,0.0022197437938302755,-0.003413780126720667,0.00436723418533802,-0.004902511835098267,-0.0006100922473706305,-0.0030983828473836184,0.0004460955678950995,-0.002375065116211772,0.0026467936113476753,0.005189841613173485,0.0024836300872266293,-0.0017186622135341167,0.0011886601569131017,0.004615020472556353,-0.0027316652704030275,-0.004535069689154625,-0.004385887645184994,-6.113739073043689e-05,0.002757380250841379,0.001867952523753047,-0.0005477117956615984,0.00272366707213223,0.0015913336537778378,0.0015231618890538812,-0.003535254392772913,-0.0022261845879256725,-0.00184796960093081,0.0036607766523957253,0.003267840016633272,-0.0029378202743828297,-0.005284024868160486,0.003180811880156398,-0.0010706331813707948,-0.0033282542135566473,-0.004549179691821337,-0.005786922760307789,-0.0008584459428675473,-0.0019033284625038505,0.002333728363737464,0.005661964416503906,-0.0034829159267246723,-0.003052286570891738,-0.0019325637258589268,-0.0004046004032716155,0.002348321257159114,-0.0017576091922819614,-0.004701415542513132,0.0027360632084310055,0.0034998368937522173,-0.002997497795149684,-0.004314709920436144,0.00033023039577528834,-0.0034647223073989153,-0.001494720228947699,0.0032945750281214714,-0.003330583916977048,0.0036378337536007166,0.0020670590456575155,-0.003329172497615218,0.000313642987748608,0.0013549656141549349,-0.003560202894732356,-0.004217390436679125,0.00037022316246293485,0.0023025006521493196,-0.0004149201849941164,-0.005107193253934383,0.0050507946871221066,0.0023158551193773746,0.001439604558981955,0.0017060429090633988,-0.0012043893802911043,0.005753843579441309,-0.0043631382286548615,0.002840588567778468,-0.0009398559341207147,0.004526764620095491,0.002580690663307905,0.0007394505082629621,0.005199046339839697,0.004899116698652506,-0.005317500792443752,-0.003651523031294346,0.0020911316387355328,0.0050107259303331375,-0.0008275579893961549,-0.005484138149768114,0.0017021259991452098,-0.003626591060310602,0.000621493614744395,-0.001369762816466391,0.0006892627570778131,0.005136598367244005,-0.00016866307123564184,-0.005528995767235756,0.000961167796049267,-0.002069841604679823,0.003303764620795846,-0.00035719614243134856,0.0028670700266957283,0.0048560891300439835,-0.0016359463334083557,0.005812966730445623,-0.004159620031714439,0.001709661795757711,-0.0055261594243347645,-0.003408391261473298,0.0015890606446191669,-0.005390460602939129,-0.004730083514004946,-0.0024824326392263174,0.0008984404266811907,-0.005749293603003025,-0.00020959958783350885,0.0014936205698177218,-0.0011578599223867059,-0.005135694518685341,0.0013170010643079877,0.001257143565453589,7.177273801062256e-05,0.0022942370269447565,-0.0034708105958998203,0.0021207579411566257,-0.004021334461867809,-0.001274613430723548,-0.005136563442647457,0.003790684277191758,0.00045414900523610413,0.005595253314822912,0.0052540781907737255,0.005922047421336174,-0.004736271221190691,0.0012659926433116198,-0.00109784584492445,0.0003880008589476347,-0.0022715129889547825,-0.00536816380918026,0.0024677165783941746,0.005533104296773672,0.00038464213139377534,-0.0020242955069988966,0.005205990746617317,-0.0016075271414592862,0.0049238926731050014,0.00422499468550086,0.0003410393255762756,0.0021009440533816814,0.0023794276639819145,0.0016759277787059546,-0.004029706120491028,0.0022898507304489613,-0.005900913383811712,0.0024948769714683294,0.0006513604312203825,-0.002853631740435958,0.003608197905123234,-0.001125121838413179,-0.00016894082364160568,-0.005610412452369928,-0.0011721509508788586,-0.0039511569775640965,-0.0026590311899781227,-0.002944155130535364,-0.005392490886151791,-0.0004692549118772149,0.0002683607744984329,0.0008441031095571816,-0.00044876220636069775,0.004389342851936817,-0.005491568241268396,0.0013518516207113862,0.004349013790488243,-0.00545165129005909,-4.38619390479289e-05,0.001057491055689752,-0.003671505954116583,-0.002939871046692133,0.003392358310520649,0.0008005710551515222,-0.002188230399042368,0.003144837450236082,0.002930557355284691,-0.0018363590352237225,-0.000134845104184933,0.0019542030058801174,-0.0018619279144331813,0.0015324109699577093,-0.0029568138998001814,-0.0024704330135136843,-0.002248881384730339,0.005179579369723797,0.003963450435549021,0.0007740610744804144,0.0007586933206766844,-0.005272214766591787,0.0017758996691554785,-0.002041638595983386,0.0013339243596419692,0.004041390959173441,-0.005398697219789028,0.0012717313366010785,0.0007625942234881222,-0.0034831068478524685,0.0017393726157024503,0.0006513496628031135,0.003175304038450122,-0.00462518073618412,-0.0006698459619656205,0.005914585664868355,0.002248331904411316,0.0021891468204557896,-0.0021633761934936047,-0.004823909606784582,0.005339218769222498,-0.004686320200562477,0.005852502305060625,-0.004445077385753393,-0.00390905374661088,-0.0022762692533433437,0.0001469974813517183,0.003449472598731518,0.005594767164438963,-0.0016769157955422997,-0.005696666426956654,0.0013859531609341502,0.00250382162630558,-0.001218184712342918,-0.003759757848456502,-0.0023041991516947746,0.0018506335327401757,-6.909752119099721e-05,0.0028914595022797585,-0.0033476506359875202,0.004062199965119362,-0.004087494220584631,-0.002020310377702117,0.001083390903659165,0.002813528059050441,-0.002777359914034605,0.005322890356183052,0.0024482484441250563,-0.0033535328693687916,0.0026817070320248604,0.0023321073967963457,0.0030014528892934322,0.004939946811646223,0.0025148368440568447,-0.0017590492498129606,0.003450848627835512,0.002326501766219735,0.0008820727234706283,-0.0017362120561301708,0.005001339130103588,0.00015150058607105166,0.0015216468600556254,-0.001005341298878193,0.0033356021158397198,-0.0018881774740293622,0.0036898015532642603,-0.004656980279833078,0.002482107374817133,-0.0002746062236838043,0.0023608498740941286,0.00037291887565515935,-0.004343810956925154,-0.0002733081055339426,0.005518160294741392,0.0030270672868937254,-0.0023734071291983128,0.0052753109484910965,0.003313401248306036,-0.0016101353103294969,0.0012302796822041273,-0.0008708495297469199,-0.00479062320664525,0.0036351021844893694,-0.0036694598384201527,-0.0004984335973858833,0.002406991785392165,0.0051339538767933846,-0.00519406097009778,-0.0012682020897045732,0.0013618167722597718,0.0033177135046571493,0.004999937489628792,-0.005933231674134731,0.0015176081797108054,-0.0058567398227751255,0.0034120979253202677,-0.004161357413977385,0.004687413573265076,-0.00409652991220355,0.003139772918075323,-0.002502706367522478,0.0006800765986554325,0.0012880113208666444,-0.0034831783268600702,-0.0023911341559141874,-0.004662131424993277,-0.005876314360648394,-0.0030946708284318447,0.00019007668015547097,0.0025371673982590437,0.0034869827795773745,-0.005110439378768206,-0.0027033428195863962,0.0032097953371703625,-0.0002272483689012006,-0.003775071119889617,-0.0012803125428035855,-0.002731597749516368,-0.005337462294846773,0.0031314364168792963,-0.002474320586770773,0.00528739346191287,0.0046102567575871944,0.002569003961980343,-0.002059284830465913,-0.002614129101857543,-0.00029373844154179096,-0.00172707240562886,0.004765070043504238,-0.004472229164093733,0.0026662880554795265,0.0013172623002901673,0.003638330614194274,0.0005046754376962781,0.001538719516247511,0.005496561527252197,-0.004846794065088034,-0.004693515133112669,-0.0012637580512091517,-0.00032389364787377417,-0.003565003164112568,-0.004957187455147505,-0.005675722844898701,0.0031429000664502382,-0.00017749608377926052,0.004079041071236134,-0.0016530146822333336,0.002416589530184865,-0.00013636010407935828,0.0013311977963894606,-0.0015418385155498981,-0.0049749817699193954,0.005314027424901724,0.003992168698459864,-0.002234401647001505,0.005448600742965937,-0.0023698501754552126,-0.0006771811167709529,0.003030572086572647,-0.0022687006276100874,-0.0020845429971814156,-0.0010680695995688438,-0.00037548496038652956,-0.004470790736377239,-0.005731367971748114,0.004978865385055542,-0.0017438667127862573,-0.004731253255158663,0.003078509820625186,-0.0024343261029571295,-0.0037812823429703712,0.005495022051036358,0.004995325114578009,-0.004683060105890036,0.004742820281535387,0.004642833024263382,0.001596137648448348,0.0003532300179358572,-0.003356343600898981,-0.004497302696108818,0.0012634805170819163,0.00382429757155478,0.0022407639771699905,-0.0037915410939604044,-0.0024942168965935707,0.0005513601354323328,0.0014846952399238944,-0.0050809020176529884,0.0013547363923862576,0.0028070672415196896,-0.0037849198561161757,-0.0030144844204187393,-0.002863893285393715,0.005224188324064016,-0.0011044888524338603,0.0003631302679423243,0.0026644680183380842,-0.0015268311835825443,-0.004685320425778627,0.001833077403716743,0.001986917108297348,-0.0028442793991416693,-0.005520679987967014,0.0019641106482595205,0.0024163450580090284,-0.005629532504826784,0.0022946845274418592,0.005213715136051178,-0.003815477481111884,0.0002532824582885951,0.002337365411221981,-0.0032061918172985315,0.0029879675712436438,0.004372256342321634,0.0037363236770033836,-0.00286386557854712,0.0036135672125965357,-0.0010293335653841496,-0.0027740122750401497,-0.0039439271204173565,0.004857995081692934,-0.0008683321066200733,0.004344256594777107,-0.004044019151479006,0.0031714225187897682,-0.004632369615137577,-0.005730497185140848,0.005880333017557859,-0.0050656418316066265,-0.00045683979988098145,0.004494566470384598,0.0037936789449304342,-0.0003423895104788244,0.001316688721999526,0.0015406850725412369,-0.004634607117623091,-0.0025549689307808876,-0.0023639772552996874,-0.0014476282522082329,-0.002685470273718238,-0.0029517703223973513,-0.0017248985823243856,-0.0014345815870910883,-0.00015175985754467547,-0.0038778369780629873,0.003424942959100008,0.004284110851585865,-0.0029913673643022776,-0.004474538378417492,0.002640683436766267,0.005039301235228777,-0.005521636921912432,-0.005767663940787315,-0.0037603601813316345,0.0021950164809823036,0.005520797800272703,0.002974094357341528,0.0008675006683915854,0.002382181352004409,-0.0031988401897251606,0.0022396722342818975,-0.0021209262777119875,-0.003297146875411272,-0.0031292608473449945,0.0019930293783545494,0.003174181329086423,0.0009716672939248383,-0.005180648062378168,-0.005487653426826,-0.0033595706336200237,-0.0025363839231431484,-0.0011305762454867363,-0.005036056041717529,0.002674498362466693,0.0025122337974607944,-0.0018212066497653723,0.0007483605877496302,-0.004740430973470211,-0.0010070570278912783,0.00424725329503417,0.0019079175544902682,-0.004704465623944998,0.00412862841039896,0.0021463599987328053,-0.0005576112307608128,0.0022817107383161783,-0.0038863318040966988,0.0005996914696879685,0.0014007691061124206,0.005080871749669313,-0.005144580267369747,-0.0014873662730678916,0.005188606213778257,-0.0033589268568903208,0.0037202804815024137,-0.005920067895203829,-0.005631680600345135,-0.002047543181106448,0.0031893616542220116,-0.004702093545347452,-0.0013914975570514798,-0.004377523437142372,-0.003283232217654586,3.5565932194003835e-05,-0.002148320199921727,-0.0034219815861433744,-0.001265072962269187,0.002388186752796173,-0.00452065747231245,-0.00024238639161922038,-0.002675941912457347,-0.0014417754719033837,0.003819521516561508,0.005104451905936003,-0.0030529797077178955,0.0015438304981216788,0.0020986218005418777,0.004068143665790558,0.004739937372505665,-0.0003802082210313529,0.005732167512178421,0.005592637229710817,7.682796422159299e-05,0.0004992682952433825,0.001992579083889723,-0.0014988473849371076,0.0019248019671067595,0.00016968220006674528,-0.005518211051821709,0.004189812112599611,0.005231737624853849,-0.005627582315355539,0.0034359320998191833,-0.0013563423417508602,0.0010171576868742704,-5.999977048531946e-08,0.0006094814161770046,-5.7178171118721366e-05,0.004197490867227316,0.002179743256419897,-0.0010377197759225965,0.0022398699074983597,0.00552396709099412,-0.004985214676707983,-0.001329299178905785,0.004400355741381645,0.002839562948793173,0.005166206043213606,-0.005466265603899956,0.004309149459004402,0.0034660666715353727,0.0037421209271997213,0.0011553129879757762,-0.005322453565895557,0.0004647891619242728,-0.0010957582853734493,0.00032120244577527046,0.002854302292689681,0.001139846513979137,-0.0024639954790472984,0.0011819752398878336,-0.004951597191393375,-0.005875399801880121,-0.001169677940197289,0.0030549310613423586,0.0038323388434946537,0.0005920043913647532,0.004371287766844034,-0.004443487152457237,0.005512778181582689,0.0050097862258553505,0.001178767066448927,-0.005241620820015669,-0.0005439919186756015,-0.003809684654697776,0.0015254702884703875,-0.003682679496705532,-0.00021621606720145792,-0.0034966450184583664,-0.003779131919145584,-0.0029942337423563004,-0.005592335015535355,0.0025670730974525213,-0.00229575764387846,0.002353182528167963,0.0018230562563985586,-0.005153834354132414,-0.0022327033802866936,0.0007941871299408376,0.0049698855727910995,-0.0011721524642780423,5.6915370805654675e-05,0.0029714556876569986,0.0036026276648044586,0.005028556101024151,-3.33844764099922e-05,-0.0036366779822856188,0.003140868619084358,-0.004447520710527897,-0.0009699534275569022,0.0015229495475068688,0.0022789209615439177,0.0027679677587002516,-0.0036403073463588953,0.0057211630046367645,-0.0038198332767933607,-0.004797952249646187,0.0019486352102831006,0.004870093893259764,0.0007053752196952701,0.0011341659119352698,0.00045712816063314676,-0.005431363824754953,0.002153669251129031,-0.0016843507764860988,0.00517505407333374,-0.003720394801348448,-0.002350523602217436,5.766608228441328e-05,-0.0002689874672796577,-0.0011842086678370833,-0.002204573480412364,-0.004190837498754263,0.0038119989912956953,-0.0006085275672376156,0.0008665974019095302,0.000552966957911849,0.0008966777822934091,0.0024331507738679647,0.0015368227614089847,-0.0026856439653784037,0.0006379805272445083,-0.0030347465071827173,0.001055223518051207,-0.0008085003355517983,-0.005470916163176298,0.002779346890747547,-0.002676574746146798,0.0049911849200725555,-0.002606601919978857,0.005899022798985243,-0.00044008318218402565,-0.005625465419143438,-0.005033194553107023,-0.004964074585586786,-0.00527140824124217,-0.0027582619804888964,-0.0020835825707763433,-0.004617254249751568,-0.0007348922663368285,-0.0015994008863344789,0.0016192937036976218,-0.003612605156376958,0.00491743441671133,0.0001899393246276304,0.0014697348233312368,-0.005469704978168011,0.0007018711185082793,-0.0015667428961023688,0.005038433242589235,0.004580778069794178,0.0016350288642570376,0.0031816125847399235,0.0017175170360133052,-0.0057375868782401085,0.0024127934593707323,-0.0038356054574251175,0.0021686283871531487,-0.0058143362402915955,-0.002246101386845112,0.00020107143791392446,-0.0019816458225250244,0.0023042343091219664,0.00026974419597536325,0.005460056476294994,-0.0016889440594241023,0.002635306678712368,0.003989220596849918,-0.0029265962075442076,0.0030186441726982594,-0.0012672464363276958,-0.004410082008689642,-0.005895817652344704,0.002895419718697667,-0.003726879833266139,-0.005331046413630247,-3.315103458589874e-05,-0.0018209638074040413,0.0022783332969993353,-0.004663835745304823,-0.004363447427749634,-0.0011390357976779342,0.00024241030041594058,0.0038508654106408358,0.0010170791065320373,0.004782164003700018,-0.003352432046085596,0.0011429213918745518,0.0018439642153680325,0.0026821750216186047,0.005804328713566065,-0.0003797100798692554,-0.001552258967421949,0.004183608572930098,-0.0038391673006117344,-0.005499308928847313,-0.0006700657540932298,-0.0030027590692043304,-0.001229100744239986,0.005773832555860281,-0.0017996986862272024,0.0024702728260308504,-0.0029647957999259233,-0.002334998454898596,-0.003050875384360552,0.0008571784128434956,-0.0032533598132431507,0.0025937878526747227,0.002141345292329788,-0.000935147050768137,-0.005635329056531191,-0.005670083686709404,0.00038967441651038826,0.004029096569865942,0.001174450502730906,-0.0007643279968760908,0.004538912326097488,-0.003599173855036497,-0.001669795485213399,0.0007757953717373312,-0.0024746095295995474,0.005911965388804674,-0.0005663137417286634,-0.005324769299477339,-0.0038475727196782827,0.00038580482942052186,0.0005946130841039121,0.005750798620283604,0.001187429646961391,0.001979243941605091,-0.003400482004508376,-0.004669769201427698,0.0012117039877921343,0.004334144294261932,0.0010378409642726183,-0.0006796041270717978,0.0009289926383644342,-0.0003709527663886547,-0.004253831226378679,0.0028648539446294308,0.00039242362254299223,-0.0011958699906244874,0.0007084351382218301,