0.003292027860879898,0.0006937418947927654,-0.0009001119760796428,0.004826790187507868,-0.004618304315954447,-8.760105993133038e-05,-0.005804277025163174,-0.00037225757841952145,-0.005270352587103844,-0.004527786746621132,-0.004543129354715347,0.0017723613418638706,0.002922589424997568,0.0009902772726491094,0.005489813629537821,-0.001486322027631104,-0.002545371185988188,0.004378322511911392,-0.003283205209299922,0.005502285901457071,-0.005794764496386051,0.00558135099709034,-0.0054264734499156475,0.004646106623113155,0.00032904144609346986,0.005855572409927845,-0.00506256241351366,0.0006396961398422718,0.005574505776166916,0.00027436259551905096,0.0015370328910648823,0.002325157169252634,-0.0005399738438427448,0.0015151702100411057,0.0010015087900683284,0.00476506631821394,-0.005399314220994711,-0.0026017799973487854,0.005350112449377775,0.0046356613747775555,-0.0005267214146442711,0.0014269683742895722,-0.0026443281676620245,-0.0037045832723379135,-0.0004312004311941564,-0.001741922926157713,0.0009936904534697533,-0.005015785340219736,0.005634993314743042,0.005775345955044031,0.0023538197856396437,0.00042876266525126994,-0.0022624838165938854,0.0037273443304002285,0.0021942881867289543,-0.004007529467344284,0.004881107248365879,0.0038311867974698544,0.0053428481332957745,0.002681158948689699,0.0013471771962940693,-0.0009711318998597562,0.00514006894081831,0.004348208662122488,-0.005402018781751394,-0.005625944584608078,-0.0014674024423584342,0.003688838565722108,0.005788001231849194,-0.004152445122599602,0.0011181107256561518,-0.001414811471477151,0.005581773351877928,0.0040637836791574955,0.004018762148916721,-0.00037187134148553014,-0.0010117975762113929,-0.002691533649340272,-0.005269494839012623,0.004332273732870817,0.0037167249247431755,0.005935785360634327,0.005899189971387386,0.000658433185890317,0.003195107216015458,0.005283050704747438,0.0041532088071107864,-0.0030010694172233343,-0.0005874504568055272,-0.0044049471616744995,0.005393343977630138,0.0012611717684194446,-0.0032232559751719236,0.002039508428424597,0.0014031600439921021,-0.0016847825609147549,-0.004590270109474659,0.002037994097918272,0.00024122050672303885,0.0032346732914447784,0.0002395076589891687,0.004183309618383646,0.0006165638333186507,0.0007238381076604128,0.004473995883017778,-0.0011464572744444013,-0.004347268491983414,-0.005597250070422888,0.0030305911786854267,0.0014290702529251575,0.00242411601357162,-0.0034094913862645626,-0.004319280385971069,-0.005766373127698898,-0.0017747624078765512,0.0010680672712624073,-0.0012799551477655768,-0.0007426902302540839,0.004800708964467049,-0.001802463666535914,0.00016617102664895356,0.003369309240952134,-0.001228893524967134,0.0014501797268167138,0.00430425675585866,0.005339530762284994,-0.004192159045487642,0.005067126359790564,-9.364485595142469e-05,-0.00287164025940001,-0.00048539682757109404,0.005701960064470768,-8.76843259902671e-05,-0.0020341358613222837,0.0015845723683014512,-0.0030866223387420177,-0.005038013216108084,-0.00440826965495944,-0.004418174736201763,-0.004134796559810638,-0.004290110897272825,0.0016733492957428098,-0.0037787165492773056,-0.0018332068575546145,0.004713162779808044,-0.00030929085914976895,0.001990297343581915,-0.0038922755047678947,-0.003655076492577791,-0.005453689955174923,-0.003932481165975332,-0.0026299653109163046,-0.0038365591317415237,-0.004885505419224501,-0.004506192170083523,-0.0004658806719817221,-0.003488249611109495,-0.0016122402157634497,4.0591290598968044e-05,0.002261562505736947,-0.005472178105264902,0.003556479699909687,0.001519236364401877,-0.004967982415109873,0.004437470342963934,0.00499923899769783,-0.005213637836277485,-0.002650309121236205,0.0036371436435729265,0.002948897425085306,-0.0037473468109965324,-0.0034524293150752783,-0.0015385682927444577,-0.0001838402822613716,0.0014046629657968879,-0.0015570801915600896,-0.00044502303353510797,0.002939528552815318,-0.005503405351191759,-0.0029406226240098476,0.002534225583076477,0.004694376606494188,0.00013870789553038776,0.00038145287544466555,-0.004666119813919067,-0.0006246505072340369,0.000387436943128705,-0.0030590067617595196,-0.002740992931649089,-0.0014576527755707502,-0.005700727459043264,-0.0021133930422365665,-0.0034275006037205458,-0.0020490342285484076,-0.004516570828855038,0.004638791549950838,0.0011117170797660947,0.002127427142113447,0.003434856189414859,-1.8503993487684056e-05,-0.004906675312668085,0.0004407617961987853,0.0010315228719264269,0.0029153982177376747,-0.0008117668912746012,-0.0044237044639885426,-0.0025683697313070297,-0.001626346493139863,0.001733245444484055,0.0008407243294641376,-0.0017093230271711946,0.005778963211923838,0.0012564226053655148,-0.0031212931498885155,-0.004730138462036848,-0.004123435355722904,-0.0030175845604389906,-0.004030520562082529,-0.0037230439484119415,-0.0025526992976665497,-0.00387975899502635,0.004712889902293682,-0.004986099898815155,0.0002911530900746584,-0.0010643313871696591,0.005729827098548412,-0.0046083093620836735,-0.0012132995761930943,0.005576500203460455,0.004341594874858856,0.0037662701215595007,-0.002875697333365679,-0.003909288439899683,0.002003191038966179,0.005100246984511614,0.0006742454133927822,0.0008506354060955346,-0.002613469259813428,0.0032011119183152914,-0.0037173812743276358,-0.0020943868439644575,-0.0008856866625137627,9.039819269673899e-05,-0.0030597287695854902,-0.00457507511600852,0.0013139755465090275,-0.002510705031454563,0.0009649701532907784,-0.004105575382709503,-0.0002240230969619006,0.00038710632361471653,-0.005323564168065786,-0.0019408597145229578,-0.004342523869127035,-0.0051863533444702625,0.0058198836632072926,-0.002110130386427045,0.0036807747092097998,-0.0029144464060664177,0.0021559395827353,0.0030910586938261986,0.0011360234348103404,-0.00033762591192498803,-0.0010471780551597476,-0.001795184682123363,0.005102066323161125,0.00392718892544508,0.005523718427866697,-0.0044627017341554165,0.002742307959124446,0.005206729751080275,-0.003786402055993676,-0.00514927739277482,0.0028640979435294867,0.0008846123237162828,0.004060336854308844,-0.004278883803635836,0.0035072669852524996,-0.0035441534128040075,-0.003995188046246767,-0.003987944219261408,0.003736605867743492,0.001962258480489254,0.0002739775227382779,-0.0016768507193773985,0.004480492789298296,-0.0012775668874382973,0.003760655876249075,-0.0007229724433273077,-0.001461688196286559,-0.0004432998539414257,-0.0023592887446284294,0.0029411728028208017,3.231354639865458e-05,-0.0031808519270271063,0.004746257793158293,-0.0013791723176836967,0.0005173329846002162,0.004828188568353653,0.0014757333556190133,-0.004550591576844454,0.005224448163062334,0.0015169517137110233,-0.001961036818102002,-0.004284826572984457,0.0034925127401947975,0.001426257542334497,0.00039746012771502137,0.004678765311837196,0.0034280377440154552,-0.004137502517551184,-0.00223641749471426,-0.0029875158797949553,0.0028976616449654102,-0.005540831014513969,0.0008301690686494112,0.0031175571493804455,0.004475326742976904,-0.0018757968209683895,0.003815983422100544,-0.004625024273991585,0.004115256480872631,-0.004424793180078268,-0.001220050035044551,0.003531356807798147,-0.00415837811306119,-0.0032160270493477583,0.002639977727085352,0.0026136550586670637,0.001676590763963759,0.0023037735372781754,0.0005074928048998117,-0.0029481996316462755,-0.0018328657606616616,-0.0037820707075297832,0.004851689096540213,0.0009905508486554027,-0.001177714322693646,-0.0004513055901043117,0.0053129554726183414,-0.004117588046938181,0.0010242618154734373,6.994736031629145e-05,0.0013238843530416489,-0.005724020767956972,0.004420191049575806,0.005132820922881365,0.0007736700354143977,0.0023358729667961597,0.005018564872443676,0.002461638068780303,-0.004127237480133772,0.0009061743039637804,0.0012675909092649817,-0.0009011969086714089,0.002808550139889121,0.005159531719982624,0.005055021028965712,-0.0005839435616508126,-0.004594065714627504,0.005759078077971935,0.004025525413453579,-0.004458360839635134,0.004998876713216305,0.004393731709569693,0.00022376366541720927,0.0010841949842870235,-0.0011996738612651825,-0.0052886647172272205,-0.0019575729966163635,0.003597377333790064,-0.005884118378162384,-0.0019777431152760983,-0.0012095804559066892,0.0004441953497007489,0.004987161606550217,-0.0018251448636874557,-0.001817932352423668,0.0028211057651787996,-0.000567568582482636,-0.003271220251917839,-0.0005649366066791117,-0.004265999887138605,-0.0038439652416855097,-1.9388047803658992e-05,-0.0009630260174162686,0.004927654750645161,-0.001634523388929665,0.0009572507697157562,0.0015710719162598252,-0.0057835993357002735,0.0019425422651693225,-0.0038243781309574842,0.005476721096783876,-0.004173281602561474,-0.0010141183156520128,-0.004925331566482782,0.005902010016143322,2.6072941182064824e-05,0.0011330096749588847,-0.005142385605722666,0.0029690999072045088,-0.003445821814239025,0.004728199448436499,-0.0035024331882596016,-0.003674097126349807,-0.005504991393536329,-0.000331796589307487,0.0007702009752392769,-0.005158633459359407,0.0032727934885770082,-0.0005548481713049114,0.0002897143713198602,-0.0007036364986561239,-0.0011787639232352376,0.000708424428012222,-0.004095152020454407,-0.00377814588136971,0.00429739011451602,0.005299083422869444,-0.0015048671048134565,-0.002723158337175846,0.0017104665748775005,-0.0010840807808563113,-0.005637592636048794,-0.004084314685314894,0.002565378090366721,0.0018877426628023386,-0.005617285147309303,-0.0033024917356669903,-0.0031943682115525007,0.0020417897030711174,-0.005705011542886496,-0.004702507983893156,0.0035624864976853132,-0.003818335710093379,0.0018143606139346957,-0.003109937533736229,-0.004757946357131004,-0.0030506718903779984,0.0026401483919471502,0.004225061275064945,0.003922443371266127,-0.0012212825240567327,0.001996561884880066,-0.0035042783711105585,-0.0024570487439632416,0.004707786720246077,-0.00578469829633832,-0.004923444706946611,-0.0034698080271482468,-0.005623981822282076,-0.0037839983124285936,0.0009863907471299171,-0.0009333409834653139,0.004664263688027859,0.003770682727918029,-0.0018789373571053147,-0.002857635263353586,-0.0014290469698607922,0.0010725483298301697,-0.002755004446953535,0.0014746751403436065,-0.0010760335717350245,0.0006182308425195515,-0.0007587068248540163,-0.002441392745822668,0.005326852668076754,0.0031311828643083572,-0.004274835344403982,0.004376764874905348,-0.00014929570897947997,0.004686600994318724,0.0035617640241980553,-0.00088833476183936,-0.005672242026776075,-0.0027477145195007324,0.0004945427644997835,0.001585491350851953,-0.0028758773114532232,-0.0042838286608457565,0.003978394437581301,0.005753863602876663,0.0003051551175303757,-0.003899884410202503,-0.002704596845433116,-0.005720688961446285,0.004921155981719494,-0.004540458787232637,0.0009088839287869632,-0.002683834871277213,0.0006435413379222155,0.00179861334618181,0.003916764631867409,-0.0034872095566242933,-0.005808527115732431,-0.004313173238188028,0.0047515323385596275,0.004441170021891594,0.0011570998467504978,0.0011939671821892262,0.001960351364687085,-0.003856030059978366,0.004922499880194664,-0.0009648662526160479,-0.0013881130144000053,0.00022470975818578154,-0.005381263792514801,-0.003963978495448828,0.0028274294454604387,-0.004955633077770472,0.0012252693995833397,-0.0030248139519244432,-0.00131497741676867,-0.002509954385459423,-0.0017143595032393932,0.002601888030767441,-0.002409844659268856,0.0007887727115303278,-0.0002844799601007253,0.001944131450727582,0.0051887850277125835,0.002762555843219161,-0.003386017167940736,-0.00556873669847846,-0.002823893679305911,0.0011293620336800814,-0.005328288767486811,-4.316272315918468e-05,0.0011503262212499976,-0.001968896947801113,0.0032179702538996935,-0.0046729352325201035,-0.005046631209552288,0.002710489323362708,-5.355539542506449e-05,0.002237895969301462,-0.0007741389563307166,-0.0030123069882392883,0.003790385788306594,0.00355654489248991,0.0023126585874706507,-0.002706523286178708,0.0010717848781496286,-0.001651390572078526,-0.004851301666349173,0.004956966266036034,-0.004313969053328037,0.005348043981939554,-0.0006413584342226386,-0.0037400785367935896,0.0004977110656909645,0.0044299541041255,0.00275843171402812,0.0036414184141904116,0.0018860729178413749,0.002283914480358362,0.004147842992097139,-0.0029735127463936806,-0.00012561320909298956,-0.0033115516416728497,0.005792655982077122,0.00527465995401144,-0.005470816045999527,0.0024418788962066174,0.005051217507570982,-0.0037942146882414818,0.0008070722687989473,0.004935285076498985,-0.00553591875359416,0.0023450127337127924,-0.0024071447551250458,0.005041095893830061,0.005595360416918993,0.005277120508253574,-0.00030629069078713655,0.004300442989915609,0.004092653281986713,-0.0021487746853381395,0.003906949423253536,-0.005499551538378,0.0011435203487053514,-0.0032070300076156855,-0.004507011733949184,-0.005025067366659641,0.0023315725848078728,-0.0019020095933228731,0.002669841982424259,-0.005162817891687155,-0.0021940325386822224,0.00046908852527849376,0.0034532903227955103,-0.0021529081277549267,0.001495372736826539,0.0045847506262362,0.0013762550661340356,-0.003171981545165181,-0.00564929936081171,0.004396137315779924,-0.005686494521796703,0.004450810607522726,0.000343723309924826,0.005215367767959833,0.003549030050635338,0.005914599634706974,-0.0017732864944264293,0.003173736622557044,-0.0011648917570710182,-0.00023904295812826604,0.0015145452925935388,0.004438640549778938,0.005750077776610851,0.0031866261269897223,-0.0009767889278009534,-0.0009341433178633451,0.0028220685198903084,-0.0031028776429593563,-0.004626896698027849,-0.001726838294416666,-0.0025272343773394823,-0.002419508760794997,-0.0031642811372876167,-0.005439144093543291,-0.005726827308535576,0.005793301854282618,-0.0008579307468608022,-0.0013740002177655697,0.002133900299668312,-0.003346658544614911,0.0053447638638317585,0.0034012855030596256,-0.004877089988440275,-0.0009789983741939068,0.004503272473812103,0.005282650236040354,-0.0003872138913720846,0.0013471319107338786,-0.003955062944442034,0.005834237206727266,-0.003187278052791953,0.005258890800178051,0.0017775443848222494,0.0012797275558114052,0.00015071764937601984,-0.0031991787254810333,-0.0038422897923737764,-0.0033201423939317465,-0.003724573412910104,0.0033209819812327623,-0.0017802537186071277,-0.005252067465335131,0.005572131369262934,0.004558715038001537,0.005080960225313902,0.005878652445971966,-0.0038735626731067896,-0.001232466078363359,0.00306742824614048,0.002328387228772044,-0.004111120477318764,0.003751553362235427,-0.0032731713727116585,-0.003280570963397622,0.0004391924594528973,0.001103966380469501,0.0009512861724942923,-0.004852432757616043,0.004483584780246019,-0.0027842677664011717,-0.004400724545121193,0.004617657512426376,0.005412355065345764,0.004301452077925205,0.003676517866551876,0.0018440072890371084,0.0006040979642421007,-0.0049058860167860985,-0.0010874181753024459,-0.0015122410841286182,-0.002853711135685444,0.002653846051543951,-4.898916449747048e-05,-0.004976449068635702,-0.003323741490021348,0.002176798414438963,-0.005034835077822208,0.004171733278781176,-5.765089736087248e-05,-0.00023059801605995744,0.0010976452613249421,0.0038566505536437035,-0.0018077644053846598,0.0021145252976566553,0.0007807824877090752,-0.002767302794381976,0.004497472196817398,0.003532908856868744,0.0018821348203346133,0.004164306912571192,0.004362822510302067,0.002474993234500289,0.004003137815743685,0.0023456208873540163,0.002139762043952942,0.0014088988536968827,0.003001838456839323,-0.004055183380842209,0.004524088464677334,0.004416860640048981,-0.005591731518507004,0.0038701416924595833,-0.0044083865359425545,-0.0019585040863603354,0.002892458578571677,-0.004029587842524052,0.0037769004702568054,0.003945182077586651,8.870381134329364e-05,-0.00586328562349081,-0.0025296201929450035,0.0013888903195038438,0.005715663079172373,0.001565717626363039,-0.002853119745850563,0.0015917569398880005,0.00047495742910541594,0.003324081189930439,-0.004668393172323704,0.003100561909377575,0.0004901758511550725,0.0054995473474264145,-0.0018782862462103367,0.0015753196785226464,0.005131749901920557,-0.004721499513834715,0.0051935212686657906,0.00223175878636539,-0.005133351311087608,-0.0023642098531126976,0.0024727259296923876,-0.00513912970200181,0.0009760435204952955,-0.0018306438578292727,0.001436268095858395,-0.005395802203565836,0.004413217306137085,0.005624233279377222,0.005569461267441511,0.002965433755889535,-0.004393938463181257,0.0030677218455821276,-0.005647088401019573,-0.00567634915933013,-0.002095206640660763,-0.00013489933917298913,0.003211974399164319,0.0021772333420813084,-0.0006425826577469707,-0.0026889252476394176,0.005904982797801495,-0.0008768389816395938,-0.0005774383898824453,-0.003995569422841072,0.0035018296912312508,0.0023006112314760685,-0.003316775895655155,-0.004960593767464161,0.002144020749256015,0.0018353270133957267,-0.0026932861655950546,0.005355482455343008,-0.004144831094890833,-0.0008037459920160472,0.0052693928591907024,-0.0009535012068226933,0.0016454496653750539,-0.001216402160935104,-0.00268193450756371,0.005748820956796408,-0.0010769558139145374,0.0046812198124825954,-0.003207674017176032,-0.0034078219905495644,-0.005569319240748882,0.0018015406094491482,-0.0015616805758327246,0.004327948205173016,-0.0003182201471645385,0.005561331287026405,-0.0037354151718318462,0.004378608427941799,0.003285494167357683,0.003218084806576371,0.004095430951565504,0.003100515343248844,0.0014992799842730165,-0.004380175843834877,-0.0055527836084365845,0.0049989474937319756,0.001385604846291244,0.0035223523154854774,-0.00021948263747617602,-0.004545719362795353,-0.004452147055417299,0.002204196061939001,-0.0008278459426946938,-0.0035572503693401814,-9.984230564441532e-05,-0.005176447331905365,0.0009736790671013296,-0.0027439603582024574,0.00353448954410851,-0.002252573147416115,-0.0005319074844010174,-0.005801106803119183,-0.005078594665974379,-0.001276991330087185,-0.0002382920793024823,0.0011880717938765883,-0.0024746896233409643,0.0023160488344728947,0.004277633968740702,0.003324147779494524,-0.005468535237014294,-0.0002315438905498013,-0.004692749120295048,-0.003064060816541314,0.00578071316704154,-0.004246537107974291,-1.3206821677158587e-05,0.0014034865889698267,0.0024049351923167706,0.0007085236138664186,-0.005823078099638224,-0.0020613407250493765,0.000210383819648996,-0.0048954361118376255,-0.0017742947675287724,-0.005544743034988642,-0.00500576151534915,-0.001224373932927847,-0.004362704232335091,0.0008022689144127071,0.002250517485663295,0.0035704520996659994,-0.0035616985987871885,-0.003949733916670084,-0.004697052761912346,0.0016205563442781568,0.0024525760672986507,-0.005563949700444937,0.005181449931114912,-0.005321809556335211,0.0004905293462797999,0.0024832787457853556,0.004406474065035582,0.0025429839733988047,0.0035840098280459642,-0.0019070551497861743,0.0037395800463855267,-0.004987512249499559,0.004689741879701614,0.0005653154221363366,0.0037689509335905313,-0.0005663766642101109,0.0017054557101801038,0.00031361813307739794,0.00275088450871408,-0.004969514906406403,-0.005222260020673275,-0.0030039779376238585,-0.004044022876769304,0.0044161481782794,-0.003335254266858101,0.005652459338307381,-0.0019373970571905375,-0.003775891615077853,0.003441119333729148,0.0018851750064641237,-2.1431780623970553e-05,0.0006576236337423325,0.0026037395000457764,-0.0032254899851977825,0.005895591806620359,0.005639724899083376,0.0017856102203950286,-0.0035689182113856077,0.002140801167115569,-0.005081546027213335,-0.005575039889663458,-0.002878309926018119,-0.00044397488818503916,0.0043744430877268314,0.00269837724044919,0.0028829353395849466,-0.0008850108715705574,-0.00183002685662359,-0.001531837391667068,0.0057924366556108,-0.0054627107456326485,0.004359702114015818,0.0009345283033326268,-0.0007291430956684053,0.0026756729930639267,-0.00015835001249797642,0.004435624927282333,0.004759647883474827,-0.0009298205259256065,-0.0026509014423936605,0.0010969628347083926,0.004898166283965111,-0.0034368347842246294,0.0014606311451643705,0.0015627087559551,0.0027689810376614332,-0.004376341123133898,0.0025636288337409496,0.004858601838350296,-0.0038048129063099623,-0.003117533167824149,0.005599361844360828,-0.0037894442211836576,0.004209484439343214,-9.17257639230229e-05,-0.003002459416165948,0.004403870087116957,-0.0006496793357655406,0.00017600464343558997,-0.0016720651183277369,0.0011040959507226944,-0.003996756859123707,-0.0012937637511640787,0.0055758096277713776,-0.002872958080843091,0.0018617615569382906,-0.002076440956443548,0.0032483895774930716,-0.004384585190564394,0.005580664612352848,-0.0005489006289280951,-0.0031352657824754715,-0.00506612379103899,-0.00392270740121603,0.0002348804409848526,-0.0019361214945092797,0.003906568046659231,-0.0008209371590055525,-0.002984841587021947,0.001391480676829815,0.002456157235428691,-0.00395496841520071,-0.0039481110870838165,-0.005503545515239239,0.0028080486226826906,0.001945715630427003,-0.0003013414971064776,0.004088152199983597,0.0036308348644524813,0.0010138627840206027,0.004374428652226925,-0.0034940997138619423,-0.004609726369380951,-0.002734977984800935,-0.005261045414954424,0.00037024030461907387,0.0051861233077943325,-0.005471805110573769,-0.004488683305680752,-0.000567793205846101,0.005153687670826912,-0.0021837488748133183,8.593706297688186e-05,-0.005445324815809727,-0.004177077207714319,0.005780327599495649,0.005524809006601572,-0.005880460143089294,0.005366745870560408,0.001652505248785019,0.004370235372334719,-0.0005376125336624682,0.00018525395717006177,-0.00013248341565486044,0.0019820600282400846,-0.004280322231352329,-0.005583104211837053,-0.002281461376696825,0.0024312548339366913,-0.0035414674784988165,0.002060078550130129,0.005581745877861977,-0.004823760129511356,0.002050215844064951,-0.000668150489218533,0.004372895695269108,-0.0038349044043570757,0.0022880644537508488,0.004016227088868618,0.005281250923871994,0.0021766708232462406,-3.3558935683686286e-05,0.0013998221838846803,0.004381955601274967,0.000838722160551697,-0.005578192882239819,0.005118928384035826,0.002251251367852092,0.002096674870699644,-0.0033772895112633705,0.0018872857326641679,-0.0012607080861926079,0.0017963872523978353,-0.004672997165471315,0.0018749303417280316,0.005932174623012543,-0.0053664627484977245,0.005668007303029299,-0.0011057730298489332,0.004403912462294102,0.003354253014549613,0.0007960377261042595,0.002832365920767188,0.004496112931519747,-0.0011386479018256068,-0.0020545481238514185,0.0019907206296920776,0.003656679531559348,0.003115495666861534,0.003537513082846999,-0.000765159260481596,0.0037753230426460505,-0.0045112622901797295,0.0005284538492560387,-0.005870735738426447,-0.0020836181938648224,-0.0015862069558352232,-0.0012332896003499627,0.0023218137212097645,-0.0013237377861514688,-0.000609431357588619,-0.0031175236217677593,-0.0015055503463372588,-0.0032395669259130955,-0.00506969727575779,0.0012287910794839263,0.0019980783108621836,0.0014193394454196095,-0.00043362786527723074,-0.001427937881089747,0.0043157776817679405,0.0002266587398480624,-0.00024728343123570085,-0.005634555127471685,-0.0018857023678719997,-0.0014230696251615882,-0.0012018111301586032,0.0009523096377961338,0.00039914037915878,0.0012817266397178173,0.0031463569030165672,0.003717731451615691,0.0025909263640642166,0.005410837009549141,-0.005722566973417997,-0.003613633569329977,-0.005849304609000683,0.0017517455853521824,0.00472791725769639,-0.003046988509595394,0.005072434898465872,-0.00522326584905386,0.005160351749509573,-0.001762466854415834,-0.004734434187412262,-0.00016781916201580316,-0.002889075316488743,-0.002555339364334941,-0.002289063297212124,0.0035994257777929306,0.00046516850125044584,-0.002241339534521103,0.0013105752877891064,0.002567497780546546,-0.002700835233554244,-0.0010268877958878875,-0.004491341765969992,-0.003787396475672722,0.0021513681858778,-0.003783963620662689,0.0002988976484630257,0.002483109477907419,-0.004669624846428633,0.0007995532359927893,-0.0028916148003190756,0.005498773884028196,-0.00019544937822502106,0.0036346644628793,0.0005966047756373882,-0.0054234727285802364,0.0015816090162843466,0.005361894145607948,0.001206973334774375,0.0037914137355983257,0.004563711117953062,-0.0032299438025802374,-0.0034204113762825727,0.0013182630063965917,-0.001056828536093235,0.00403696671128273,0.004751585423946381,-0.001741101499646902,-0.0031255243811756372,0.003332159947603941,-0.0026749162934720516,0.0038321022875607014,-0.0009058581781573594,0.0019902042113244534,-0.004804343916475773,0.001471235416829586,-0.0005729168769903481,0.0010287594050168991,-0.003943419549614191,0.0028136521577835083,0.0043094041757285595,-0.0033646433148533106,-0.0048022144474089146,-0.005658353213220835,0.0016863768687471747,0.0012720926897600293,0.0005546848406083882,-0.0031840067822486162,-0.001295848865993321,0.0011222161119803786,-3.840414865408093e-05,0.005794051568955183,-0.0043184696696698666,0.002317981095984578,-0.001136528211645782,-0.0008528648759238422,0.0025846867356449366,0.0022858099546283484,0.005835275165736675,-0.004414035938680172,-0.004702495411038399,0.0026647585909813643,0.0009311015601269901,-0.0026825822424143553,-0.004995773546397686,-0.004921666346490383,0.004682308528572321,-0.003660085378214717,-0.0020980415865778923,-0.003246851032599807,-0.0017223941395059228,-0.00511450320482254,0.00022639748931396753,-0.00513601815328002,0.003567717969417572,-0.003163041779771447,0.00047527262358926237,0.004514684900641441,0.0017921632388606668,0.00039148173527792096,-0.002086612395942211,-0.0019836495630443096,0.002013213001191616,0.0058695245534181595,0.0019223707495257258,0.0006863674498163164,0.0027397307567298412,-0.0004132973845116794,-0.005224751308560371,0.0007399788592010736,0.005435800179839134,-0.0038568417076021433,0.0022569308057427406,-0.003552392590790987,0.000425571168307215,-0.004790788982063532,-0.0005895078065805137,0.003042779164388776,-0.0018105877097696066,0.0019588673021644354,0.0035094365011900663,0.005074136424809694,-0.0031519948970526457,-0.0011959534604102373,-0.004128699190914631,0.005849855486303568,0.005072035826742649,0.00047462189104408026,0.004062766209244728,0.0002489446778781712,0.001467985101044178,-0.004880493972450495,0.0030321727972477674,-0.004422122612595558,0.003873121691867709,0.003350007813423872,0.0024795273784548044,-0.005509615875780582,-0.0023384960368275642,-0.0028138146735727787,-0.001661338610574603,-0.004898093640804291,0.005190306343138218,0.0006390779162757099,-0.002310036215931177,-0.0012236820766702294,-0.0006271428428590298,0.001194887445308268,0.00018624459335114807,0.004981654230505228,-3.60685917257797e-05,0.005845989566296339,0.004174323286861181,-0.003462393069639802,0.005114729516208172,-0.004556906409561634,0.0037707556039094925,-0.0014179896097630262,0.004489684011787176,0.004371879622340202,0.003633866785094142,0.0034450620878487825,-0.0023200754076242447,-0.004977956879884005,-0.0011524283327162266,-0.003877966431900859,0.0023156830575317144,-0.0018280701478943229,0.0056494297459721565,0.001674505416303873,0.003830513684079051,-0.0043649738654494286,0.004300108645111322,0.005021627061069012,-0.00015368212189059705,0.0012621019268408418,0.0031454842537641525,-0.003862356999889016,3.0480568966595456e-05,-0.0012037086999043822,-0.004200467839837074,-0.0015734628541395068,-0.0051293689757585526,-0.005632537882775068,-0.004333596210926771,0.005501009989529848,0.0005883255507797003,0.005533164832741022,-0.000801808899268508,-0.002235300140455365,7.295475370483473e-05,-0.0007184969144873321,-0.00468402449041605,0.0016727740876376629,-0.003372977254912257,0.0014204989420250058,0.0017841302324086428,-0.0041333455592393875,-0.005210410803556442,0.0033349639270454645,-0.00047750171506777406,-0.005248253233730793,0.005878159310668707,-0.005252805072814226,0.0023166825994849205,0.005745272617787123,-0.00309809111058712,-0.0042494614608585835,-0.004497294779866934,-0.0023367523681372404,-0.004738888703286648,0.002282545669004321,-0.005199219565838575,0.0001119186490541324,0.0058999028988182545,0.0037294260691851377,0.0013686084421351552,-0.0023013732861727476,0.0014716690639033914,0.0003212059964425862,-0.0008780020871199667,-0.004386524669826031,0.004592191893607378,-0.0005964718875475228,-0.0036273584701120853,-0.0015707911225035787,-0.001019990653730929,0.0038905860856175423,0.002774936379864812,0.003198878141120076,-0.005808106157928705,-0.000995946116745472,-0.00022159934451337904,-0.005711167585104704,-0.002853005426004529,0.0030917946714907885,-0.004310511518269777,0.00041942353709600866,-0.003382911207154393,-0.005795164965093136,-0.003074080916121602,0.0056525603868067265,0.0035817413590848446,0.005458978936076164,-0.000144273042678833,-0.004635661840438843,0.0005696761072613299,-0.0005419186782091856,0.004090368747711182,-0.004774086643010378,-0.00013967503036838025,-0.004156819079071283,-0.0020825478713959455,0.0028193932957947254,-0.0002848633157555014,-0.0014742333441972733,-0.0012534400448203087,-0.00048170253285206854,0.0033855056390166283,0.004657290875911713,0.005408591590821743,0.0034079179167747498,-0.0021926481276750565,0.0022347162012010813,-0.0007411674014292657,-0.002914090408012271,0.004048967268317938,-0.0054826997220516205,0.004772240296006203,-0.000457581365481019,0.00162971718236804,0.0018928501522168517,0.004693318158388138,0.0016234003705903888,0.0013533347519114614,-0.005147427320480347,0.00021865559392608702,-0.004155389498919249,0.0028203041292726994,0.00014517536328639835,0.0021407955791801214,-0.005444136448204517,-0.004931955598294735,0.0025695492513477802,-0.0050829011015594006,-0.005092731676995754,-0.005795310717076063,0.005422450136393309,0.002821190282702446,-0.0017431204905733466,-0.002416806761175394,-0.0017852666787803173,0.0032624108716845512,0.00191680493298918,-0.003739334410056472,-0.003871019696816802,-0.004770367871969938,0.0019041202031075954,0.0031402918975800276,-0.002790843602269888,-0.0056903488002717495,-0.0049630808643996716,0.00555737130343914,-0.002429763786494732,0.0031979072373360395,0.0014807884581387043,-0.0014023537514731288,-0.0034959283657372,-0.004497277084738016,0.0013661559205502272,0.003262176178395748,0.0017093346687033772,0.00035993714118376374,-0.005440830253064632,0.005564839579164982,0.003548210021108389,-0.0024609172251075506,0.005701220594346523,0.0012101777829229832,0.000979039235971868,0.0029466820415109396,0.003703288035467267,0.0018586963415145874,-0.00441758194938302,-0.0019211034523323178,0.005084896460175514,-0.0032710921950638294,-0.0015184355434030294,-0.0008068096358329058,-0.0007197643280960619,0.00134152767714113,0.005262977909296751,-0.0030801238026469946,-0.00449591176584363,-0.0035935293417423964,0.004596001468598843,0.0017319812905043364,-0.002543058479204774,0.003752905409783125,0.004292453173547983,0.004115993622690439,0.004976125434041023,-0.0029429499991238117,0.0030294586904346943,-0.00046872280654497445,0.004062353633344173,0.0027140756137669086,0.0032837195321917534,0.001854933681897819,-0.00383159052580595,0.0005348422564566135,0.0057570417411625385,0.00519541697576642,-0.005426309071481228,-0.003981422632932663,-0.00437442772090435,0.002684252103790641,0.0037747423630207777,-0.0034029914531856775,6.95199123583734e-05,0.004046964924782515,0.0027652813587337732,0.0005017052171751857,0.0010731748770922422,9.930889791576192e-05,-0.0024047757033258677,0.0007723492453806102,0.002243631985038519,0.004434433300048113,0.0016189065063372254,0.0031016741413623095,-0.004037763457745314,-0.0004566309798974544,-0.0058282953687012196,-0.0030090187210589647,0.002689975081011653,0.005841854959726334,-0.004761073738336563,-0.0011700778268277645,0.003564326325431466,-0.0035155469086021185,0.0006543142953887582,0.002768485574051738,0.0013777073472738266,-0.0037057287991046906,-0.001717782230116427,0.00337095744907856,0.0006441175937652588,-0.005877019837498665,0.003100120695307851,-0.005519700702279806,0.002918893937021494,-0.0035340185277163982,0.005441124085336924,-0.001568636391311884,-0.0020557541865855455,-0.004170604981482029,-0.0023090869653970003,0.004473962355405092,0.00589559692889452,-0.00156425591558218,-0.0006104171625338495,0.002637820318341255,0.004587340634316206,0.0011052064364776015,-0.001288487808778882,-0.0010379019659012556,0.0023236065171658993,-0.005900911055505276,0.0014205153565853834,-0.001716494094580412,0.003494557458907366,-0.004834569990634918,0.001047690981067717,-0.00022600928787142038,0.0016905820230022073,-0.005168789532035589,0.0009500696323812008,0.0007303309976123273,0.0007205374422483146,0.0012292552273720503,0.0020961351692676544,0.0036227439995855093,-0.0027341332752257586,0.0038610270712524652,-2.0719489839393646e-05,-0.005023818928748369,-0.005243654362857342,-0.0019689633045345545,0.0033840853720903397,0.002466891659423709,0.0034282486885786057,0.0002051266492344439,-0.0007103328825905919,-0.004187656566500664,-0.0020407740958034992,-0.00078373629366979,-0.00488671800121665,-0.003318648785352707,0.0011667473008856177,0.0027992718387395144,0.005919510032981634,0.00514464033767581,0.001693428959697485,-0.0009354374487884343,0.0016175524797290564,0.00339304911904037,-0.004533508792519569,-0.0010701747378334403,0.004036265891045332,-0.0013798644067719579,0.0008537187823094428,0.0010425487998872995,-0.003747878596186638,-0.001636405591852963,-0.0019657209049910307,-0.0056279669515788555,-0.005651782266795635,0.003939989488571882,-0.002695527859032154,0.00021474460663739592,-0.002390793524682522,0.00523451017215848,-0.0028591398149728775,-0.000835555896628648,0.0044273934327065945,0.004061581566929817,-0.003728574374690652,0.0035948811564594507,-0.0004966677515767515,-0.00020230046357028186,-0.004353626631200314,-0.004981731530278921,0.002707526320591569,-4.2035415390273556e-05,-0.0007501048967242241,0.0027261623181402683,0.003153835888952017,-0.004051583353430033,0.0013092849403619766,-0.00433136522769928,0.002985903061926365,0.0018643569201231003,0.005423794966191053,-0.005120036192238331,-0.005261426791548729,-0.0025872422847896814,-0.002830526093021035,-0.003005455946549773,0.004825604613870382,-0.0029749597888439894,-0.0027088443748652935,0.003081204602494836,-0.0005970040801912546,0.0032868448179215193,-0.005162701476365328,-0.00014763280341867357,-0.005539867095649242,-0.005194926634430885,0.004827776923775673,-0.004285143688321114,0.0003851018554996699,-0.0010560310911387205,-0.001813298324123025,0.004749331623315811,-0.005679914262145758,0.001945539377629757,0.005504327826201916,0.000714694382622838,0.005188698414713144,-0.005318405106663704,-0.0009645954705774784,-0.002848912263289094,0.0027417554520070553,0.005716980434954166,-0.002892003394663334,0.0018313287291675806,-0.0035860801581293344,0.0007760109147056937,-0.00042841993854381144,0.005606610327959061,0.0012891170335933566,-0.001787605113349855,-0.004583877511322498,-0.004142587073147297,-0.0032627617474645376,-0.0029580870177596807,0.004164714831858873,0.0007272212533280253,0.00027784373378381133,-0.0045758821070194244,0.004277839325368404,0.0026466501876711845,-0.0051353550516068935,0.0024687228724360466,0.0005171590019017458,-0.00496838241815567,-0.0004953165771439672,-0.0001817817537812516,-0.003970022778958082,0.005294126458466053,0.004157104529440403,0.0020076942164450884,-0.00044786380021832883,-0.0010480734053999186,0.0017933046910911798,0.0005396523629315197,-0.005199441686272621,0.00014850993466097862,0.0036395471543073654,-0.0004841600311920047,-0.005321984179317951,0.0034004917833954096,-0.003547283820807934,-0.0028671687468886375,-0.0039827111177146435,-0.002016752492636442,0.0030497657135128975,0.00023027061251923442,-0.0035055021289736032,0.004487970378249884,0.00450877845287323,0.004401833284646273,-0.003102651098743081,-0.0005791925941593945,0.00576084153726697,0.003231039736419916,-0.005616436712443829,-0.005164620466530323,-0.00042843312257900834,0.004860830958932638,0.00045971068902872503,-2.5983636078308336e-05,-0.004686292726546526,0.0018622776260599494,0.0038260307628661394,-0.0014204042963683605,0.003273793961852789,0.005517182406038046,-0.0035187441390007734,0.00027711581788025796,-0.0025284343864768744,0.0034786059986799955,0.000921675527933985,0.0015986072830855846,0.003538707038387656,-0.0012356915976852179,0.004930554889142513,0.0003923260373994708,-0.004062907304614782,0.0023269441444426775,0.00348343956284225,-0.002176555572077632,0.004242674447596073,0.004824282135814428,-0.002649990376085043,0.0057434020563960075,-0.004267727956175804,-0.003539540572091937,-0.0037508648820221424,0.004679919220507145,0.0018327297875657678,-0.004132401663810015,-0.000708854990079999,0.0013695419766008854,-0.00494772894307971,0.004542447626590729,0.0036062870640307665,6.184750236570835e-05,0.005548659712076187,-0.000976857845671475,0.005750396754592657,0.001994600286707282,0.0015996627043932676,-0.003967880271375179,0.004536644089967012,-0.000861297594383359,-0.004012085497379303,-0.005789383314549923,0.0007097945781424642,0.00032546030706726015,0.002605543239042163,0.0046355933882296085,-0.004995925351977348,0.0027497794944792986,-0.003713007550686598,0.00425452645868063,0.003789925016462803,0.00048455953947268426,0.002497322391718626,-0.002205200958997011,-0.00034247568692080677,0.003820492187514901,-0.00048385930131189525,-0.001689111697487533,-6.874615792185068e-05,0.003899035742506385,-0.0019574444741010666,-0.0038751503452658653,0.002518361434340477,0.003872059751302004,-0.004743739031255245,-0.003089847508817911,-0.004252756014466286,-0.0018061940791085362,-0.0005897448281757534,0.002955628326162696,0.0017953729256987572,0.0014364230446517467,-0.0017535312799736857,0.004055808763951063,-0.00034105899976566434,0.005690941587090492,0.0015933775575831532,-0.004439331125468016,0.002092686016112566,-0.0020774630829691887,0.002213246189057827,-0.0051119220443069935,-0.003861848497763276,0.004225546028465033,-0.0032406370155513287,0.004003467969596386,-0.0026218199636787176,0.0016971909208223224,0.002306174486875534,0.0001503166713519022,-0.0023125738371163607,-0.003413289785385132,-0.005544906482100487,-0.0023287790827453136,0.0018193101277574897,0.0052063059993088245,0.004409269895404577,0.0031603912357240915,0.0034262575209140778,0.0019597364589571953,-0.002847379306331277,0.004836775362491608,0.002028005663305521,0.0007179305539466441,-0.004620775114744902,-0.000628888956271112,-0.0004708754422608763,0.004330387804657221,0.0005541004939004779,-0.0014206354971975088,0.005663566756993532,-0.004623968619853258,-0.0009199912310577929,-0.005439958069473505,0.0028496477752923965,0.004966029431670904,-0.0026127775199711323,0.004256481770426035,-0.002468089573085308,0.004879241809248924,0.0030166299548000097,0.0036217672750353813,-0.005725251976400614,0.005497389938682318,0.0026924610137939453,-0.0023192206863313913,0.003912641201168299,-0.002595151774585247,0.004427673295140266,-0.004601877648383379,0.0024194384459406137,0.0004834278079215437,-0.0047924756072461605,-0.0030658566392958164,-0.00579180009663105,-0.0003709827724378556,-0.002360626356676221,0.0011683175107464194,-0.002408465603366494,-0.002376616233959794,0.0028887162916362286,-0.005367284640669823,0.004785698372870684,0.00418428797274828,0.0019932305440306664,0.0011073116911575198,0.0046598780900239944,-0.003737735329195857,-0.005001121200621128,-0.0030941704753786325,0.0034990825224667788,-0.00552731566131115,0.000983602600172162,0.005884944461286068,0.0042250570841133595,0.00025473785353824496,-0.005183194298297167,0.0039361463859677315,0.0011756941676139832,-0.004573932848870754,-0.004824275616556406,0.004865660797804594,0.0020098076201975346,0.003911360166966915,0.004501616582274437,0.0008525319281034172,0.00020723260240629315,-0.0008264025091193616,-0.002174359280616045,-0.0007768873474560678,0.003253218485042453,0.0012106747599318624,0.004662500694394112,-0.0006725479033775628,0.001272039720788598,0.0015597075689584017,0.0010892043355852365,0.002406940096989274,-0.003118838183581829,0.00014686037320643663,-0.004701127763837576,-0.001371806487441063,-0.0001464939850848168,0.0018081619637086987,0.005351532716304064,0.0011955612571910024,0.0028934760484844446,7.442999049089849e-05,0.0015929249348118901,-0.0050965859554708,-0.0029174049850553274,-0.0016409473028033972,-0.0003267315623816103,-0.005396910477429628,-0.004275893792510033,-0.0026510616298764944,0.0056009963154792786,-0.0020033069886267185,-0.00021332129836082458,-0.003609835635870695,0.0013158763758838177,-0.0026051055174320936,-0.0034804234746843576,0.00019685427832882851,-0.005873739253729582,-0.005848103202879429,-0.0033369786106050014,-0.005502952262759209,-0.0046559786424040794,-0.00191405788064003,0.0035941966343671083,0.0008558137924410403,0.00015047076158225536,-0.002452997025102377,0.005128490272909403,-0.0012232839362695813,-0.004904626868665218,0.0013905485393479466,-0.004586934577673674,-0.0018384824506938457,8.804106619209051e-05,0.0044451188296079636,-7.665550947422162e-05,0.002402485813945532,0.005853815004229546,-0.0043772743083536625,-0.0026758015155792236,-0.001252254587598145,-0.0009285465930588543,-0.0010569163132458925,0.00484171649441123,0.0025423390325158834,0.0012817280367016792,-0.0022643236443400383,0.00384607189334929,0.0054053352214396,0.003815282369032502,-0.005920547991991043,0.0016202132683247328,-0.005331738386303186,-0.002879208652302623,-0.005232087802141905,0.0012329111341387033,0.00221636681817472,-0.00457922276109457,-0.0013797939755022526,-0.0005198348662815988,-0.001555424532853067,-0.004501570016145706,-0.0009627606486901641,0.002983562648296356,-0.00509569002315402,-0.004986738320440054,-0.0017250669188797474,0.0052469405345618725,0.0020023526158183813,0.00212229136377573,-0.0016401526518166065,0.001112528843805194,-0.005818797741085291,0.0016165865818038583,0.004909136798232794,0.001337178866378963,0.004438895732164383,0.002660413971170783,-0.004507112316787243,0.004780452232807875,-0.005149900447577238,0.00040347507456317544,-0.0042507946491241455,-0.005800084210932255,-0.0009260986698791385,-0.0024345633573830128,-0.0001662900176597759,0.0009170016855932772,-0.005419593770056963,-0.004478071350604296,0.0006965706706978381,-0.0018629017286002636,0.002722186269238591,0.0018089624354615808,0.004105184692889452,0.0022864833008497953,-0.0008322981302626431,0.0020545455627143383,-0.0026680848095566034,-0.002300661988556385,0.0034326459281146526,-0.0006364438449963927,0.003544244449585676,0.0038298224098980427,0.004247224424034357,0.004948908928781748,-0.0008197766728699207,-0.0021515502594411373,0.0009763794951140881,-0.0015302497195079923,0.001200587023049593,0.0024420060217380524,0.002237927168607712,-0.001490095630288124,-0.003957126755267382,-0.0008251917897723615,-0.004245365969836712,0.004633680917322636,-0.001830710330978036,-0.0041044228710234165,-0.0056368629448115826,0.001732118776999414,0.0016261637210845947,-0.0018933479441329837,-0.005087324883788824,-0.0010734531097114086,-0.002242411021143198,0.0021038881968706846,0.0012564752250909805,-0.0016083932714536786,-0.0033509505447000265,0.005797026678919792,-0.0005463815177790821,0.0022363734897226095,-0.004269611556082964,-0.00017116955132223666,-0.005612049717456102,6.479740113718435e-05,0.005511727649718523,-0.0013754247920587659,-0.005475933197885752,-0.005571437068283558,-0.0013305243337526917,-0.004038318060338497,-0.005661755800247192,0.003043376374989748,-0.0004926752299070358,-0.0025034090504050255,0.004752298817038536,-0.004559607710689306,0.005415530409663916,-0.0022097548935562372,0.004613566678017378,0.0012227840488776565,0.0038807205855846405,0.0057492428459227085,-0.002513378858566284,0.005477495025843382,-0.0013127647107467055,-0.0013599214144051075,-0.0018959263106808066,0.000491851067636162,-0.004108161199837923,0.0006379999103955925,0.0004953813040629029,0.003110942430794239,0.003963186871260405,-0.0007074541645124555,-0.00234794057905674,-0.0028586869593709707,-0.0036273428704589605,-0.005254384595900774,-0.0018714466132223606,-0.00272906175814569,0.0055402349680662155,0.0006854814710095525,-0.0018140856409445405,0.0009558164747431874,-0.0042857215739786625,-0.0006646638503298163,0.0014994463417679071,-0.0001318746362812817,-0.001166698639281094,0.005866067949682474,0.0045174844563007355,0.0014658501604571939,0.0008240835159085691,0.0014332386199384928,-0.0035478975623846054,-0.0012455829419195652,-0.005470427218824625,-0.00029047095449641347,0.0005110579659231007,-0.0032338642049580812,0.00551186315715313,0.0048636156134307384,0.0026386789977550507,0.0003965756332036108,0.004394596442580223,-0.004387213848531246,0.003450755961239338,-0.004456482362002134,0.0034947157837450504,-0.0026634950190782547,0.004479186609387398,0.005274455063045025,-0.004171698819845915,-0.00044334950507618487,0.005713301710784435,-0.00019709108164533973,0.0043183183297514915,0.0010539776412770152,-0.001480865990743041,-0.0025445222854614258,-0.0035251984372735023,0.003109711455181241,-0.001347703393548727,0.00013393306289799511,-9.116008004639298e-05,0.0009179417393170297,0.004342426545917988,0.005710355471819639,-0.0010977403726428747,0.0038903607055544853,0.0031421345192939043,0.0008733972790651023,0.005417054519057274,-0.0035578468814492226,-0.004641267936676741,0.004204458557069302,-0.0007227953756228089,0.004121392499655485,0.004669234622269869,-0.005197250284254551,0.0045549008063972,-0.0006138805765658617,0.00012391999189276248,0.0015037009725347161,0.005064690951257944,-0.005712072364985943,-0.0002750597195699811,0.0022298144176602364,0.0026453749742358923,0.002286953618749976,-0.0043422807939350605,-0.0023828349076211452,-0.0016782161546871066,0.003616189584136009,-0.0026279515586793423,-0.0034363267477601767,0.005433694459497929,-0.005833858158439398,0.005913254339247942,0.0021003324072808027,0.003901649499312043,-0.002439567819237709,-0.005769097711890936,0.0028254801873117685,0.003969062119722366,0.0028564422391355038,-0.004242323338985443,0.003010287182405591,0.0031943393405526876,0.0018831882625818253,0.003160998923704028,0.004108950961381197,0.0013494212180376053,-0.0048866672441363335,-0.00014696031576022506,-0.00501679815351963,-0.0010982295498251915,-0.0011034149210900068,-0.005155055318027735,-0.0017957516247406602,-0.004620672669261694,0.0036613033153116703,0.005317762494087219,-0.005080143455415964,0.005405984818935394,0.00026817110483534634,-0.002380814403295517,-0.0050261495634913445,7.415229447360616e-06,0.0034983372315764427,0.002459830604493618,-0.005342540331184864,-0.005073190666735172,-0.001153698074631393,-0.0024315963964909315,-0.003178813261911273,-0.0026012894231826067,0.0036048521287739277,0.005098490044474602,-0.001127216499298811,0.004823899362236261,-0.0021203234791755676,-0.00027988801593892276,-0.00325430347584188,0.0016686134040355682,0.005689470563083887,0.0012293197214603424,-0.0016889238031581044,0.0017558166291564703,-0.0044790529645979404,0.004616600461304188,3.6632023693528026e-05,-0.000601637817453593,0.0010199258103966713,0.001482217339798808,-0.0050865658558905125,0.0021691781003028154,-0.003065407043322921,0.0025413886178284883,0.0038311576936393976,0.0036105033941566944,0.0006236210465431213,0.0002395835763309151,-0.0042420183308422565,0.0032706379424780607,-0.0027152628172188997,-3.925268538296223e-05,-0.002562452107667923,-0.00434948829934001,0.0015389223117381334,-0.005293767899274826,0.002953476971015334,-0.0021667545661330223,-0.005937538575381041,0.0001321949966950342,-0.0053826188668608665,-0.002658720128238201,0.002458524191752076,-0.005194494035094976,0.004030756652355194,-0.005893764551728964,-0.0030072962399572134,0.0028615251649171114,-0.0021823940332978964,-0.004728832747787237,-0.001660180278122425,-0.002727332292124629,0.004070827271789312,-0.0022171051241457462,0.003432020079344511,0.00465476606041193,-0.000786135031376034,0.00486941821873188,-0.0014572502113878727,0.005512452218681574,-0.004878533072769642,0.002221466740593314,-7.347854261752218e-05,-0.00133453868329525,0.0015763884875923395,0.002421471057459712,-0.005887310486286879,-0.00395602360367775,0.002530620200559497,0.0019763722084462643,0.005535841453820467,0.0031006792560219765,0.005354403052479029,0.002405832288786769,-0.002398791955783963,-0.004687584936618805,0.0033475819509476423,0.0017122444696724415,-0.005366771947592497,-0.0016623593401163816,0.005425994750112295,4.764920049638022e-06,-0.0007990619633346796,-0.0005024558049626648,-0.0034579718485474586,-0.0015595325967296958,-0.0015463943127542734,-0.005317251197993755,0.0031782425940036774,-0.000991783570498228,0.0038269420620054007,0.004161530639976263,-0.0034210144076496363,0.0018690882716327906,-0.0003292444162070751,0.004515607375651598,-0.0033765111584216356,0.002112114569172263,0.0012799096293747425,-0.0024314657784998417,-0.0043165553361177444,0.001801219186745584,0.0028341268189251423,-0.0021900294814258814,0.00172036187723279,-0.0012456641998142004,0.002532530575990677,-0.0035728043876588345,0.004635082092136145,-0.002525207819417119,-0.001570474705658853,-0.005249106325209141,-0.004614565521478653,0.00018841208657249808,-0.0027605986688286066,0.003984927199780941,-0.005764606408774853,-0.001436154474504292,-0.0019320547580718994,-0.00570955965667963,-0.004461856558918953,-0.001025776262395084,-8.475644426653162e-05,-0.0011368729174137115,0.000367486325558275,0.0011300004553049803,-0.0058212606236338615,-0.0004264876479282975,0.005505572538822889,0.0002260706969536841,0.0021088963840156794,-0.002234733197838068,0.00325454561971128,0.0032418370246887207,0.0002529603661969304,0.005654224194586277,-0.0044478182680904865,-0.005737829487770796,0.0032090141903609037,0.0036484787706285715,-0.004511283710598946,-0.0027844721917062998,-0.005730646662414074,-0.0024551376700401306,0.003244454972445965,0.0002133401285391301,-0.001804362633265555,-0.0015235162572935224,-0.005923059768974781,-0.0023780248593539,0.001739677507430315,0.005632613319903612,0.004122484941035509,-0.005658871028572321,0.004734213463962078,0.0033639094326645136,0.003330385312438011,-0.0004989380249753594,-0.0012115214485675097,-0.0023410215508192778,-0.0051587969064712524,-0.0032280958257615566,-0.0030099123250693083,-0.00018913699022959918,0.0029392133001238108,-0.00031109413248486817,-0.005252046510577202,0.0054377540946006775,0.0052588023245334625,0.0033875606022775173,0.005836129188537598,0.0005283734644763172,0.005496890749782324,-0.005041080992668867,-0.0015954812988638878,-0.0032619975972920656,-0.003612979082390666,-0.0042666420340538025,0.0014540632255375385,0.0033416191581636667,0.0009300500969402492,-0.004193475004285574,0.003695614403113723,0.001614907756447792,-0.0013283988228067756,0.0020683680195361376,-0.0028519153129309416,-0.0018388498574495316,0.004959012847393751,-0.0024884454905986786,-0.0003564876678865403,0.004634204786270857,0.002467371756210923,-0.0052002714946866035,-0.004189432132989168,-0.005845994222909212,0.0015551253454759717,-0.0006215495523065329,-0.004344184882938862,0.005439468659460545,0.0003523064369801432,-0.0030658631585538387,7.1693857535137795e-06,0.002133580157533288,-0.00503354799002409,-0.0026761305052787066,0.0036462212447077036,-0.0004791118553839624,0.000553256191778928,-0.0007980301743373275,-0.005417683161795139,-0.003970316611230373,-0.0006468715146183968,-0.0034543757792562246,-0.005345473997294903,0.0040819658897817135,0.005715738516300917,0.003482032334432006,0.00420235563069582,-0.003064867341890931,0.005471454933285713,-0.003600000636652112,0.005362208466976881,0.005877600982785225,0.0025149022694677114,0.0057151587679982185,0.000826012808829546,-0.002856229431927204,-0.0007483803201466799,0.0011113426880910993,-0.005071055609732866,0.0014532272471114993,0.005715563893318176,-0.0036809872835874557,0.0034755258820950985,0.004845134913921356,0.005270410794764757,0.005465618334710598,0.00025490354164503515,0.0056695956736803055,0.0030564020853489637,-0.004018760751932859,-0.00027438695542514324,0.0025933983270078897,-0.003001161850988865,0.0016702661523595452,0.001978926593437791,-0.00400654599070549,0.000773101404774934,0.003226459724828601,-1.3117602975398768e-05,-0.005795374512672424,-0.0058317771181464195,-0.0016982450615614653,0.005062451586127281,-0.0032228524796664715,0.0015960091259330511,-0.0033012598287314177,-0.002118253381922841,0.004134140443056822,0.0027184796053916216,-0.004805959761142731,-0.0008468971936963499,-0.005592652130872011,-0.0002269921387778595,0.0019294362282380462,-0.004531531594693661,-0.0025076833553612232,-0.0012135249562561512,0.004983305931091309,0.005859019700437784,-0.005405670031905174,0.003100324422121048,-0.0015236971667036414,-0.0012774114729836583,0.003020229982212186,0.004970185458660126,0.005356254987418652,0.0009160834597423673,-0.0016971544828265905,0.0034155878238379955,-0.0029576746746897697,0.0007610890897922218,-0.0016798442229628563,0.0018605072982609272,-0.0030836137011647224,-0.0036633445415645838,0.004967960063368082,-0.004729886539280415,7.076968176988885e-05,-0.003315787995234132,-0.005476717837154865,-0.005511297378689051,-0.003857805859297514,0.0043565998785197735,-0.002583777764812112,0.005350679159164429,0.0009695322369225323,-0.0007529142312705517,0.0009513173718005419,0.0001983480469789356,0.0030738161876797676,-0.0025835721753537655,-0.001745508168824017,0.004681161604821682,0.005303134210407734,0.004662915598601103,-0.0009568191017024219,0.0033302591182291508,-0.0002810907317325473,-2.922231942648068e-05,-0.003507891669869423,0.0010824709897860885,-0.0037281648255884647,-0.0020007211714982986,0.00421714736148715,-0.0034794348757714033,-0.005093900952488184,-0.005119447596371174,0.005235760938376188,8.220288145821542e-05,-0.001076028565876186,0.0036927019245922565,0.003989033401012421,-0.0019932815339416265,0.0022998489439487457,0.0032204720191657543,0.0018369837198406458,-0.004138450138270855,0.004464843310415745,0.00046437594573944807,-0.002583852969110012,-0.0008881603716872633,-0.005492859054356813,-0.004420301411300898,0.003154237987473607,-0.0059390002861619,-0.0009910542285069823,0.00026738218730315566,-0.005290175788104534,0.005619353614747524,-0.0032531593460589647,-0.0023257818538695574,-0.002328825183212757,-0.003202185733243823,-0.0059216320514678955,0.0027242209762334824,0.005545320454984903,-0.003274918533861637,0.0019367197528481483,0.0028733117505908012,0.00413869321346283,-0.0009190318523906171,-0.0023408413399010897,-0.00207519275136292,0.002525575226172805,0.0037627944257110357,-0.003781877690926194,-0.0015329985180869699,0.004774357192218304,0.003642990719527006,0.005759282503277063,0.003020031377673149,-0.0012686570407822728,0.0010766213526949286,0.001912571955472231,-0.005007218569517136,0.0005285472143441439,0.0024863709695637226,-0.003951649647206068,0.0033334214240312576,0.000995076377876103,0.005371615756303072,-0.005435234867036343,-0.002787521341815591,0.001206285203807056,-0.0024165178183466196,0.002546989591792226,0.0030765365809202194,-0.004721425473690033,0.00016456717276014388,0.00010560448572505265,-0.0015527192736044526,0.005142401438206434,0.003890210995450616,0.0023425077088177204,0.002545831259340048,-0.0004547462740447372,0.005000689532607794,0.0023114585783332586,0.002719900570809841,0.004296265076845884,-0.0026836402248591185,0.003647473407909274,-0.003620016621425748,-0.0018370711477473378,-0.0019526645774021745,0.005684058181941509,0.004235047847032547,0.0023895513731986284,0.0026970431208610535,0.0007373178959824145,0.005310666747391224,-4.443957004696131e-05,-0.0014192437520250678,-0.004002559930086136,0.0033996300771832466,0.0027847900055348873,-0.001373662962578237,-0.005639884155243635,0.004026704467833042,-0.005803512874990702,0.0024196025915443897,0.005585844628512859,-0.0007404760108329356,-0.0031480593606829643,0.0024335146881639957,0.0037669360172003508,0.0005515121738426387,0.00554757472127676,-0.005325403530150652,5.696344669559039e-05,0.002594856545329094,0.004307544324547052,-0.0038098907098174095,0.003563524689525366,0.0006260692607611418,-0.0012287640711292624,-0.004374591168016195,0.00433908449485898,-0.004071003757417202,-0.002259392524138093,-0.0024938974529504776,0.004411758854985237,0.0020514139905571938,0.003524063853546977,-0.002964011626318097,0.0014832891756668687,0.0008522187126800418,0.003953451756387949,0.004823614843189716,-0.0057947370223701,0.0020670569501817226,-0.005323418881744146,0.0005803568055853248,-0.0025225572753697634,-0.0022951611317694187,-0.0017465996788814664,0.0014407453127205372,-0.0019712005741894245,0.002764063887298107,-0.0011340501951053739,-0.005127220414578915,0.0033705781679600477,-0.002544822171330452,-0.0007986136479303241,0.002202753908932209,-0.0019901322666555643,-0.005266998428851366,-0.0014976008096709847,0.005279283504933119,0.0016835604328662157,0.0020368769764900208,0.0015712841413915157,-0.00357545493170619,-0.0009700530208647251,0.0029807325918227434,-0.004735003225505352,-0.0026387262623757124,-0.002656943630427122,-0.0008074980578385293,0.005705953110009432,-0.005137324798852205,0.00022213559714145958,-0.0038085952401161194,0.005590826738625765,-0.0045932880602777,-0.0011450540041550994,0.0028256638906896114,0.002429754240438342,-0.000917850702535361,-0.0018230285495519638,-0.0012161885388195515,-0.0027999919839203358,-0.003500137012451887,-0.0002014591736951843,-0.0027494202367961407,-0.0025245894212275743,0.001861992059275508,0.005565416533499956,0.0012310313759371638,-0.005024755373597145,-0.0050413357093930244,0.005362130235880613,-0.0024078362621366978,-0.004845541436225176,0.0011764790397137403,0.001468734466470778,0.0017639814177528024,-0.002762863179668784,-0.005759649910032749,0.005523581523448229,-0.0029589615296572447,0.0020908890292048454,0.002454406814649701,0.0013066986575722694,-0.0022223377600312233,-0.0027189822867512703,0.0011601309524849057,0.00434858538210392,0.005306427367031574,-0.00468116020783782,-0.004100041463971138,0.005282700527459383,0.002809631172567606,0.004549306817352772,-0.003532211994752288,0.0010403692722320557,0.002389191882684827,0.002139418851584196,-0.0010909996926784515,-0.005756273865699768,0.0009850186761468649,-0.002932728501036763,-0.0005908938474021852,0.005435274448245764,-0.0011992865474894643,0.004036257974803448,-0.003699601162225008,0.0020485336426645517,0.005666020791977644,-0.004728824365884066,-0.005840312223881483,-0.0007889220141805708,-0.00483890762552619,0.0029503782279789448,0.004924124106764793,-0.0007837172015570104,-0.002866090042516589,-0.0007791755488142371,0.0026541752740740776,-0.005831590853631496,0.0010625593131408095,0.0013457100139930844,0.0016354991821572185,-0.003064333228394389,0.0025425776839256287,-0.0048535652458667755,-0.0035721503663808107,0.004483693744987249,0.002835619729012251,-0.005775865167379379,-0.0029888565186411142,-0.00339235900901258,-0.0027224260848015547,-0.002998555079102516,-0.0051964339800179005,-0.0004877159371972084,0.0027644727379083633,0.0012677890481427312,0.002053417731076479,-0.004975226242095232,0.005362932104617357,0.004020699765533209,0.003623947501182556,0.003836491145193577,0.005139855667948723,0.0005256608710624278,-0.0035601332783699036,0.0013871880946680903,0.0028850138187408447,0.0028260487597435713,0.0002547774638514966,-0.005125966854393482,-0.00153095624409616,0.004997982643544674,0.0010031075216829777,0.0004553174658212811,-0.002745622070506215,-0.0015626002568751574,0.004696030635386705,0.0019772942177951336,0.0034136627800762653,-0.0005422977264970541,0.0015471125952899456,-0.002988769207149744,0.0024405207950621843,-0.0008599714492447674,-0.0006824603187851608,0.0017736919689923525,0.005182262044399977,-0.005178853403776884,0.003857390256598592,-0.0024661310017108917,-0.0006661402876488864,-0.005678846035152674,-0.0023632298689335585,3.1254628993337974e-05,-0.005271863657981157,-0.00010576739441603422,0.005073338747024536,-0.004687248729169369,0.003141100285574794,-0.0010729522909969091,0.0018431964563205838,-0.0028479762841016054,-0.004044645465910435,-0.0040331194177269936,-0.005101815797388554,-0.0037339755799621344,0.0019506433745846152,0.004533826839178801,0.0037312719505280256,0.00219907658174634,-0.00462739821523428,-0.002504090080037713,-0.0022591666784137487,-0.0029700808227062225,0.00017824138922151178,0.00042231808765791357,-0.0016999481013044715,-0.0017367328982800245,0.003902674652636051,0.0034363006707280874,-0.002283054403960705,0.004915094003081322,0.0053786626085639,-0.0020580000709742308,-0.0017291808035224676,6.692403985653073e-05,0.005239755380898714,0.004470026586204767,-0.004720808006823063,-0.0012741739628836513,0.0006339577957987785,3.7208377761999145e-05,-0.0036363794934004545,0.004262125119566917,0.0021017517428845167,0.004013769328594208,0.004261501599103212,0.002950039692223072,-0.0007220733677968383,0.0013131049927324057,-0.0040342737920582294,0.002062608487904072,-0.0038099188823252916,0.0023037870414555073,-0.0032119080424308777,-0.004542831797152758,-0.003975843545049429,-0.0059154755435884,0.0025982498191297054,0.0027605241630226374,0.00017738247697707266,-0.004022426437586546,-0.004946656990796328,-0.005711919628083706,-0.003970335703343153,0.004642690531909466,-0.0030700971838086843,-0.0017310056136921048,-0.00468781590461731,-0.00329786934889853,0.00022835478011984378,0.0012799162650480866,-0.003024775767698884,-0.005253380164504051,-0.0012943417532369494,-0.0031572061125189066,-0.003331216285005212,0.0054623777978122234,0.0013814494013786316,0.0006756179500371218,-0.0010004467330873013,-0.0008440189412795007,0.0004858809697907418,0.0023332478012889624,0.0024011475034058094,-0.003899710951372981,1.339300752078998e-06,-0.0010457861935719848,0.004401221871376038,0.0015610303962603211,0.00038609231705777347,-0.004568449221551418,0.0012547961669042706,-0.0045469580218195915,-0.0019337054109200835,-0.004242422059178352,0.0022815039847046137,-0.0034892188850790262,-0.0012845243327319622,0.0046999347396194935,-0.003512212075293064,9.271071758121252e-05,-0.0009589135879650712,-0.0057238563895225525,0.003477462101727724,-0.005118992179632187,-0.0003058059955947101,0.0007207536255009472,0.0015254850732162595,0.002240618923678994,-0.002930699149146676,-0.005820608232170343,0.002654125913977623,0.00042353899334557354,0.003992499317973852,0.0038175401277840137,0.00407812325283885,-0.00017704976198729128,-0.0019762080628424883,0.003463209141045809,-0.0005785420653410256,-0.003760161343961954,0.004216480068862438,0.004544152412563562,-0.0004001820634584874,-0.005039956420660019,-0.0013324328465387225,0.003605504520237446,0.004772383254021406,-0.0035222331061959267,-0.005143607500940561,0.004482273478060961,-0.0013136788038536906,0.0004960483056493104,0.005559815559536219,-0.005148464348167181,0.0017617624253034592,-0.00505889393389225,-0.001479214639402926,0.0036087934859097004,-0.0007902352954261005,0.005905670113861561,0.0007015225710347295,-0.0021242855582386255,-0.0033245952799916267,-0.0017755585722625256,-0.0015140851028263569,-0.00512293865904212,-0.0015492337988689542,-0.00042478478280827403,0.0026457407511770725,0.0018616763409227133,0.0024797762744128704,-0.005839792545884848,-0.003353624837473035,0.0019205308053642511,-0.0001901787327369675,-0.005876023788005114,0.003616871777921915,0.0032405077945441008,0.0005751362768933177,-0.005149669013917446,0.0031657395884394646,0.0009943732293322682,0.003349198726937175,0.0029903205577284098,0.0035991426557302475,0.00021390481560956687,-0.004272324964404106,0.002033055992797017,0.0014310210244730115,0.0028775506652891636,-0.0039212447591125965,-0.0036231691483408213,0.004637392703443766,0.002969305729493499,0.004849051125347614,0.0030730923172086477,0.0011540376581251621,0.001830831402912736,0.004622169304639101,0.0009360885014757514,0.001572580891661346,-0.004080465063452721,-0.0003097709850408137,0.0025704249273985624,-0.0027208062820136547,-0.0035367074888199568,-0.0022114168386906385,-0.003070527222007513,-0.0033863468561321497,-0.000892642536200583,0.004844419192522764,8.38564446894452e-05,-0.0037069683894515038,-0.005024848040193319,0.002329997019842267,-0.0013921487843617797,0.0038227972108870745,0.0018947131466120481,0.0035188382025808096,-0.0027088881470263004,0.002284892601892352,-0.00280253728851676,0.005215377081185579,0.0016198914963752031,-0.002084497595205903,-0.0027378019876778126,-0.0036712598521262407,0.002311999211087823,-0.0033411739859730005,0.0011320386547595263,-0.002795730484649539,0.0019239120883867145,0.003740941407158971,0.003302461002022028,0.003098464570939541,-0.003709319978952408,-0.004889277741312981,0.0023631693329662085,-0.0015638082986697555,-0.000803610309958458,-0.005569141358137131,-0.0028558175545185804,-0.005539121106266975,0.00450407387688756,-0.0030480052810162306,0.0006810668273828924,-0.005476131569594145,0.0019818595610558987,-0.002102130325511098,0.004726594313979149,0.004610175732523203,-0.002075246535241604,0.004762724973261356,0.005893498659133911,0.003865377511829138,0.004096477758139372,-0.002981343772262335,0.0009110923856496811,-0.005140254274010658,-0.004811677150428295,0.005925985053181648,-0.0020592270884662867,0.0029479973018169403,0.0036426526494324207,0.0042526996694505215,0.005910967011004686,-0.003070576349273324,-0.0054598404094576836,-0.0010548917343840003,-0.004394004587084055,-0.005672757979482412,-0.0016578888753429055,0.003370321588590741,0.0007861126214265823,-0.002223874907940626,0.0018333171028643847,-0.0031831623055040836,-0.0057683116756379604,0.003140062792226672,0.0014698547311127186,0.0031157033517956734,-0.005476622376590967,0.004004400689154863,0.0014197654090821743,0.0007530275615863502,0.0014802002115175128,0.004328839015215635,0.0010326559422537684,0.0009615510934963822,0.005828422959893942,0.0030495121609419584,-0.000685450213495642,0.0024635191075503826,-0.0013157512294128537,-0.003220492508262396,0.0011504334397614002,0.005086065735667944,0.0050974381156265736,-0.0018778929952532053,0.00032876062323339283,-0.0034252686891704798,0.005887243896722794,0.005714851897209883,0.0017759085167199373,0.003615914611145854,0.0025550194550305605,0.0011065591825172305,-0.005305456463247538,-0.0005373216699808836,0.0020761601626873016,0.0021087697241455317,-0.0015070847002789378,0.005246540065854788,-0.003951225429773331,4.269601959094871e-06,0.0022673727944493294,0.0023416338954120874,0.0017655747942626476,-0.00266918889246881,-0.004083673935383558,0.0016147368587553501,0.0011795380851253867,-0.0038086981512606144,0.002436699578538537,-0.0005324794910848141,0.001992706907913089,0.00400733994320035,-0.0039230575785040855,-0.005711730569601059,0.003315257839858532,0.0013030164409428835,0.002371374284848571,0.004016698803752661,0.0035968723241239786,0.0054749371483922005,0.0004268468474037945,-0.00013665207370650023,-0.0011654110858216882,-0.004113554023206234,0.0008624488837085664,-0.002648707013577223,0.005004407372325659,0.0009881634032353759,0.0011027813889086246,-0.0017232451355084777,-0.005321594886481762,-0.005562077276408672,-0.0009106463985517621,-0.004934647586196661,0.0012691577430814505,0.004525302909314632,0.004548368509858847,0.0018891855143010616,-0.0034300684928894043,0.00431177718564868,0.0045861247926950455,-0.003603232791647315,0.002820212859660387,-0.0025357799604535103,0.0035948455333709717,0.005906329490244389,-0.005582481622695923,0.004720021970570087,0.0014566394966095686,0.005622969940304756,-0.0004156266513746232,0.004126370418816805,-0.0051980046555399895,-0.0019566011615097523,-0.005143097601830959,0.005646257661283016,0.003765104105696082,0.0041876561008393764,0.005202272441238165,-0.004928255919367075,-0.0013589034788310528,-0.005095366388559341,-0.003435279708355665,-0.003214668482542038,-0.00036695311428047717,-0.002749082865193486,-0.004739692900329828,-0.003949632868170738,-0.004189758561551571,0.0056193373166024685,0.0030799482483416796,0.005556200630962849,-0.0007157791987992823,-0.0026326007209718227,0.003543209284543991,-0.0020638040732592344,-0.0023829799611121416,-0.0031773680821061134,-0.00439877575263381,-0.002892799209803343,-0.0017185522010549903,0.0020667514763772488,-0.005195976234972477,-0.003438678802922368,0.00367066846229136,-0.004193959292024374,-0.0018691045697778463,0.004331519827246666,-0.00409889267757535,-0.004956367425620556,-0.00018366197764407843,-0.002346915891394019,0.0007531821611337364,0.003608678700402379,-0.00431005097925663,0.0009585660882294178,6.543458584928885e-05,-0.0042277309112250805,0.0014728883979842067,-0.0026887618005275726,-0.00014450734306592494,-0.004961885046213865,-0.00048007178702391684,-0.0022988806013017893,0.0038293334655463696,-0.005262329708784819,-0.0009668053826317191,-0.0004937630728818476,0.0026726846117526293,0.0008824084070511162,0.00198619463481009,0.003290868364274502,0.004302347544580698,-0.0022108384873718023,0.00045164424227550626,0.004039898049086332,0.005813836120069027,0.0046268184669315815,-0.0015267474809661508,-0.0036208967212587595,-0.0001259983837371692,0.00287028425373137,-8.826664270600304e-05,-0.0001997823710553348,0.004017594736069441,-0.001646284363232553,0.004273741040378809,-0.0011069984175264835,-0.0020402949303388596,-0.0005465205758810043,0.003117417683824897,-0.004442451521754265,-0.0036060167476534843,0.00536238681524992,-0.003854600479826331,0.0008044838905334473,0.000942119222600013,-0.0001232435170095414,0.0017193242674693465,-0.00320919300429523,0.000625537009909749,-0.0015183615032583475,0.0019203285919502378,-0.004261646419763565,0.0008419016376137733,-0.0037384459283202887,-0.0026293389964848757,-0.0033412431366741657,-0.003767340909689665,0.0038688851054757833,-0.002545424969866872,0.005073494743555784,0.005581917706876993,0.0008464516140520573,-0.004240531474351883,-0.00149015081115067,0.0035365463700145483,-0.0015751697355881333,-0.00490552419796586,0.0006745069404132664,0.004099441226571798,0.0035150956828147173,-0.0038589774630963802,0.0020521460101008415,-0.0033199279569089413,-0.0033472091890871525,0.004443328361958265,-0.002973501570522785,-0.0028122137300670147,-0.005931377410888672,0.004402909427881241,0.0034755223896354437,0.001512448419816792,0.002972726244479418,-0.004133063834160566,-0.0004950439324602485,-0.0017672573449090123,-0.004825235344469547,-0.00016474594303872436,0.004997662268579006,-0.0054633053950965405,-0.002477085217833519,-0.003473909804597497,-0.003110366640612483,0.004851499106734991,-0.0003792846400756389,-0.00040030491072684526,0.003095189807936549,-0.004104037303477526,-0.0001512656599516049,-0.0008316550520248711,0.0011511320481076837,0.005933884996920824,0.003200588747859001,-0.0012131795519962907,0.0038907660637050867,-0.003911417443305254,-0.005577282514423132,-0.003510644193738699,-0.0018956358544528484,0.00012568116653710604,0.0013675359077751637,0.004877288825809956,0.00011704865755746141,1.5152460946410429e-05,-0.0053423382341861725,-0.0055244495160877705,0.0006076922290958464,-0.00073433161014691,0.004028878640383482,-0.004030541982501745,-0.005642518401145935,-0.0006053316756151617,-0.0031183024402707815,-0.005349805578589439,0.002667840803042054,-0.004613606259226799,0.0012866490287706256,-0.00260075181722641,-0.0038783045019954443,-0.001428344752639532,0.003580656601116061,-0.0012817424722015858,0.002978711389005184,-0.0044485777616500854,0.0032400547061115503,-0.0031247788574546576,0.002107124775648117,0.0007813715492375195,0.0050975000485777855,-0.0013384143821895123,-0.0051532103680074215,-0.0057116043753921986,0.0038825166411697865,0.00029381675994955003,0.0032694251276552677,-0.0031545665115118027,-0.0018401382258161902,-0.005581556353718042,0.005481733940541744,0.0019939816556870937,0.00514572998508811,-0.0027854987420141697,0.0013239956460893154,0.0021202722564339638,-0.002167195314541459,0.00413493812084198,0.005311507731676102,0.004571415949612856,0.0028397038113325834,-0.002643336309120059,-0.0025940253399312496,0.005503922235220671,-0.00581697653979063,0.0025663014966994524,0.0024498491548001766,0.0014573404332622886,0.005821648985147476,-0.002234548330307007,-0.0019008585950359702,-0.005001474637538195,-0.0006794595974497497,-0.002838331973180175,-0.001860296237282455,0.003974136430770159,0.0051728058606386185,-0.0037329497281461954,-0.001514374278485775,0.0050913929007947445,-0.0052049607038497925,-0.0048420545645058155,-0.004005462396889925,0.0011309644905850291,-0.004151787143200636,0.005559941288083792,-0.0006329396273940802,1.8030754290521145e-05,-0.003009259235113859,-0.00034494217834435403,0.0019232550403103232,0.0029835517052561045,0.0030155156273394823,0.0009252122254110873,0.004803097806870937,0.0037702585104852915,0.003053288906812668,-0.005278640892356634,-0.005857440177351236,-0.0034156308975070715,0.0019423785852268338,-0.0010548208374530077,-0.00115924549754709,0.004568229895085096,0.00469860527664423,0.0048602973110973835,-0.00221080775372684,0.002269414020702243,-0.00271260435692966,-0.0036750221624970436,-0.00374602316878736,-0.0018754894845187664,-0.0008319828193634748,0.0039311060681939125,-0.0045150392688810825,0.0027905143797397614,0.0003736302023753524,-0.0025188440922647715,-8.529096521669999e-05,-0.0023763435892760754,0.0011412880849093199,-0.000785820244345814,-0.003986284136772156,-0.004554332699626684,0.0005546642933040857,0.004779973533004522,-0.0018535138806328177,0.002767639933153987,0.0018846235470846295,0.005126128904521465,0.0038127016741782427,0.0007911557331681252,0.001865251804701984,0.004732144996523857,-0.0011935437796637416,-0.002057380508631468,-0.005810721777379513,0.003878864226862788,0.003575132228434086,-0.0046983989886939526,0.0009129333193413913,-0.00042783538810908794,-0.004529078956693411,0.005708322860300541,-0.003388921497389674,-0.005140512250363827,0.0011266234796494246,0.002837324747815728,-0.005553766619414091,0.0018852921202778816,0.0003835718671325594,-0.004712528083473444,-0.0038898522034287453,0.000807417556643486,-0.002418920863419771,0.005206435918807983,0.0037860849406570196,0.005743945483118296,-0.002854696474969387,0.005579507444053888,-0.0008168231579475105,-0.0018112140242010355,-0.005341073032468557,-0.005312378518283367,0.0022807628847658634,-0.0004997311043553054,-0.003248451976105571,0.0013537709601223469,-0.002935619791969657,0.0009221315267495811,-0.0016723575536161661,0.0038432430010288954,0.003809317946434021,-0.0002690382534638047,-0.001772011979483068,-0.0016325528267771006,0.0036313619930297136,-0.002040931722149253,-0.00345587357878685,-0.004933187272399664,-0.000395628361729905,-0.00021223988733254373,0.004049408249557018,-0.0033112040255218744,-0.0014136186800897121,0.003663328941911459,0.0038440909702330828,-0.0013706216122955084,-0.0004855361767113209,-0.002336624776944518,0.005138006992638111,-0.004529855214059353,0.005152196157723665,0.00218401663005352,0.00037502279155887663,-0.0055512054823338985,-0.00028987519908696413,-0.0010957935592159629,-0.004024136811494827,0.001857876661233604,0.0055964612402021885,0.0007386959623545408,0.002550899051129818,-0.005126065108925104,-0.0009779742686077952,-0.00455700047314167,0.0013398202136158943,0.005208412650972605,0.001921640825457871,-0.00502685084939003,-0.0017263151239603758,0.0006017936975695193,-0.0011497251689434052,0.003963116090744734,0.00373774953186512,0.0013283598236739635,-0.001503101666457951,-0.0029061823152005672,-0.004681534133851528,-0.0017235656268894672,-0.0010313609382137656,0.0020884734112769365,0.0018786662258207798,-0.005106374621391296,-0.001244138926267624,-0.003779918886721134,-0.004076473880559206,0.003887785831466317,-0.005441258195787668,-0.0009599681943655014,-0.003941169008612633,0.004505789373070002,0.0006775430520065129,-0.0031907353550195694,2.883198976633139e-05,0.0027496591210365295,0.005441652610898018,-0.0033206199295818806,0.004587174393236637,0.0051587847992777824,0.004946358967572451,0.0016084893140941858,0.00154204573482275,-0.001149690942838788,0.002998052164912224,0.00037171904114075005,0.0021076586563140154,-0.0008497968665324152,0.002749779261648655,0.003854162758216262,-0.00419972836971283,0.003954631742089987,0.00047865338274277747,0.004094037227332592,-0.0008160173892974854,-0.0014367906842380762,0.004930206574499607,-0.0029556804802268744,0.0040886495262384415,-0.00018980806635227054,0.00016742957814130932,-0.002275066915899515,0.0008676155121065676,-0.0020761899650096893,-0.0054726856760680676,-0.0027082639280706644,-0.005863366648554802,0.005682030692696571,0.00553227448835969,-0.0012453744420781732,0.0027126523200422525,-0.0018315579509362578,0.0020322920754551888,0.0036279826890677214,0.005306694656610489,-0.0011853062314912677,0.0033650919795036316,-0.002780366688966751,0.00582430325448513,-0.005633040331304073,0.0012297439388930798,0.0018946563359349966,0.0022336572874337435,-0.00450914166867733,0.005208978429436684,-0.003786993445828557,0.0014580989954993129,-0.003294130554422736,-0.002289936877787113,0.0005518474499695003,-0.0009835995733737946,-0.004035934340208769,-0.003908708691596985,-0.0009722989052534103,0.0030560786835849285,0.004727134481072426,-0.004939847160130739,-0.0012697414495050907,-0.004748394247144461,-0.005742048844695091,0.0019209394231438637,0.0012169228866696358,-0.004002752248197794,-0.0031618450302630663,-0.005657531321048737,0.003978595603257418,0.005638506729155779,-0.004330112598836422,-0.0031896119471639395,0.004376070573925972,0.0050656553357839584,-0.0009546882356517017,-0.005337831098586321,-0.0054712314158678055,0.0008783970260992646,-0.0012722215615212917,-0.005598796997219324,0.0009888949571177363,-0.005804884247481823,0.0034134837333112955,-0.0022992445155978203,-0.005460943095386028,0.0010494721354916692,-0.0012153328862041235,0.005627932958304882,0.0005250039976090193,-0.002669771434739232,0.0024877728428691626,-0.0027142814360558987,0.004801713861525059,-0.0014880872331559658,0.0005923526477999985,-0.005338417366147041,-0.0008775524329394102,0.003947906196117401,0.003630581311881542,-0.003274620743468404,-0.003253708826377988,0.003769040573388338,0.005112391896545887,-0.004806415177881718,-0.0005932173226028681,-0.0019307631300762296,0.0044031403958797455,-0.004947006702423096,-0.0034313262440264225,0.002998888958245516,-0.0053298561833798885,-8.866682037478313e-05,-0.0006876686820760369,-0.0019670287147164345,-0.0012522992910817266,0.0003556426090653986,-0.004022372420877218,0.0008551870123483241,0.003628009930253029,0.0030902638100087643,-0.004111072979867458,-0.004166312050074339,-0.0027536891866475344,-0.0016501928912475705,-0.0010873900027945638,0.0021344933193176985,-0.005265872925519943,-0.0055272867903113365,-0.0012839162955060601,0.0023419649805873632,-0.0036414600908756256,0.0016808294458314776,-0.0028528280090540648,0.004586037714034319,0.004700114950537682,-0.0024078788701444864,-0.0032072090543806553,-0.001053555984981358,-0.003082037903368473,0.0020476230420172215,0.003873086767271161,0.002056036377325654,0.003852724563330412,-0.0012235556496307254,-0.004082362167537212,0.0028264473658055067,-0.0016573225148022175,0.0020344024524092674,-0.0027243548538535833,-0.0049742707051336765,0.005851023364812136,-0.004083734005689621,0.0058015999384224415,0.005669263657182455,0.0034900528844445944,0.0018936701817438006,0.0009242137311957777,0.0043486556969583035,-0.0025010958779603243,-0.0003838915145024657,0.001418147119693458,-0.0010549041908234358,-0.0008613360114395618,-0.0020159257110208273,0.0007629633182659745,0.0041642216965556145,-0.0035453287418931723,0.005160316359251738,0.002246035495772958,0.003839928889647126,0.0006674486212432384,0.0033201768528670073,-0.005746705923229456,0.003781811101362109,-0.0054623582400381565,0.004631499294191599,0.005843670107424259,-0.0024461238645017147,-0.0034409165382385254,0.0031520596239715815,-0.0029336216393858194,0.00434225145727396,-0.004717546049505472,-0.004443007986992598,0.005691495258361101,0.002064906759187579,0.004120422527194023,-0.002086664317175746,0.0020963228307664394,0.0011194305261597037,0.0012252457672730088,0.0021681711077690125,0.0008951371419243515,-0.0008426168351434171,-0.002661652397364378,0.003190283663570881,-0.0032514119520783424,0.0022848378866910934,-0.003167546819895506,0.001488706562668085,0.002934864256531,-0.003341194475069642,-0.005227115470916033,-0.004383396357297897,0.0012590613914653659,0.00415082136169076,-0.005404653958976269,0.0027813136111944914,-0.0018848611507564783,-0.0002550459757912904,0.005094112828373909,-0.0019958890043199062,-0.00041173750651068985,-0.005776615347713232,-0.004969886504113674,-0.002867516130208969,-0.00560830207541585,0.001560512580908835,-0.0008742607315070927,0.0005718820611946285,-0.0038646310567855835,-0.002423976082354784,0.0019459525356069207,0.0055269948206841946,-0.005340274423360825,0.004637093283236027,0.0009132162085734308,0.0007592543261125684,3.3085184441006277e-06,-0.005114856641739607,-0.004871556535363197,0.0011986608151346445,-0.0018891382496804,0.004956425633281469,-0.001109543489292264,-0.004237201996147633,0.002550489967688918,-0.002454605419188738,0.0003025433688890189,0.002349912654608488,0.004754448309540749,0.003470728173851967,0.0020948657765984535,0.0021337326616048813,0.00529681658372283,-0.0024252580478787422,-0.005925929173827171,-0.0027087870985269547,-0.0033509645145386457,0.001922316150739789,0.001588263432495296,0.001110160257667303,-0.005746194627135992,0.002717489143833518,-0.0020961547270417213,0.001960580935701728,0.0006720542442053556,-0.001868085702881217,-0.004340604413300753,-0.004817605018615723,0.003937866538763046,0.00496984226629138,0.0017792240250855684,-0.004710519686341286,-0.0011637478601187468,0.0027194032445549965,0.0033237901516258717,-0.004534905310720205,-0.005938773974776268,0.0025198226794600487,-0.0017033903859555721,-0.0029163388535380363,-0.005785938818007708,0.0004786875215359032,0.004171065986156464,0.005435875616967678,0.0007809367380104959,0.0001717756676953286,-0.0049288151785731316,0.0005805246764793992,-0.0014256418216973543,0.001272582565434277,-0.0013217392843216658,-0.0030847990419715643,-0.004811114631593227,-0.0021984500344842672,-0.004791164770722389,-0.003837907686829567,0.005788714159280062,-0.0006639534840360284,0.0003785816952586174,0.004437944386154413,0.005886504892259836,0.0009825051529332995,0.0037116508465260267,-0.0020556424278765917,-0.002307427115738392,-0.0011557121761143208,0.00204908917658031,0.00216412334702909,-0.0021946371998637915,-0.004356834106147289,0.001572639448568225,-0.004414848517626524,0.0009323557605966926,0.0022975218016654253,0.0023829189594835043,0.003010811982676387,0.0044289277866482735,-4.87103875457251e-07,0.002734963782131672,0.001415566774085164,-0.003722177818417549,-0.005633989814668894,-0.002559277229011059,-0.0006766614387743175,0.0013910168781876564,0.004156914073973894,-0.0036080775316804647,-0.004447823390364647,0.005505343433469534,-0.004655755590647459,-0.00025548902340233326,0.0010163497645407915,0.0004914568271487951,-0.004917224869132042,-0.0052617574110627174,-0.004686177242547274,0.0010166342835873365,0.0005267408560030162,-0.0031627006828784943,0.0016365194460377097,0.003801850602030754,-0.005445252172648907,-2.2213049305719323e-05,0.002248681616038084,-0.002942107617855072,-0.0022833505645394325,0.0013498225016519427,0.004726785700768232,0.0036813681945204735,0.0009874438401311636,0.002734637353569269,-0.0016056762542575598,0.0016744276508688927,-0.0004017044557258487,-0.003683024551719427,0.002396303229033947,0.000670702604111284,-0.0016793321119621396,0.004886000882834196,-0.005690477322787046,-0.002188297687098384,-0.0052634854800999165,0.003165885340422392,0.002400688361376524,-0.0020032450556755066,0.0020865725819021463,-0.0012360864784568548,0.0030438536778092384,-0.0005442191613838077,-0.0010419656755402684,0.005163842346519232,-0.0029591270722448826,-0.004508432000875473,0.0010042265057563782,0.005574734881520271,-0.0014510597102344036,-0.005202248692512512,-0.0019087765831500292,7.045783422654495e-05,-0.004015772137790918,0.001877982052974403,0.00591240543872118,-0.000573251920286566,-0.0017255744896829128,-0.0011794634629040956,-0.004571400582790375,0.004552630241960287,-0.0010117244673892856,-0.0013389858650043607,0.0018968454096466303,-0.00068854313576594,0.00176075822673738,-0.005209262482821941,0.0037264928687363863,0.005232428200542927,0.001767076551914215,0.0053994604386389256,-0.004140383563935757,-0.0002682567574083805,0.001209288602694869,0.000970890570897609,-0.00117046432569623,-0.0019232783233746886,-0.0044326880015432835,-0.0012859131675213575,-0.004007008392363787,0.002783860545605421,-0.003458586987107992,-0.005243483930826187,0.0006220195209607482,0.0011311651905998588,0.004417686723172665,0.0009144089417532086,-0.0018354213098064065,0.003599259303882718,0.00047844386426731944,-0.004997425712645054,0.000782191229518503,0.004846557509154081,-0.0012316274223849177,-0.0024192985147237778,-0.004234968684613705,-0.004140226636081934,-0.0007985589327290654,0.001136511447839439,-0.004981566686183214,0.005221317522227764,0.003030547872185707,0.0010289428755640984,0.003901285585016012,-0.004986658226698637,-0.00027511423104442656,0.0015452821971848607,0.003903830423951149,0.0033671301789581776,-0.0026480332016944885,0.005236897151917219,-0.004462124314159155,0.004455941263586283,0.005593958776444197,-0.003834859933704138,0.0026377623435109854,-0.005460616201162338,-0.001123413909226656,0.00019341753795742989,0.0009579263860359788,0.0051781837828457355,0.0020460414234548807,-0.0002223856863565743,0.0036784058902412653,0.005351553671061993,-0.005677030887454748,0.005731521639972925,-0.004916037432849407,0.003734373487532139,-0.002609244780614972,-0.004369072150439024,-0.0007144113769754767,0.0017099562101066113,-0.001414087018929422,-0.005290995817631483,0.0011814270401373506,0.004779857583343983,-0.0013872003182768822,-0.003369478043168783,-0.0006820822018198669,-0.005364673212170601,0.0038068403955549,0.003876366652548313,0.0010452938731759787,-0.001744884648360312,0.003560910001397133,0.0006495876586996019,0.0038715144619345665,0.0015615039737895131,0.003378247143700719,0.0011707586236298084,-0.0010198561940342188,0.00543960789218545,0.0004883614019490778,0.00124828249681741,-0.0033201253972947598,0.0014925149735063314,0.0008505755104124546,-0.0037435770500451326,-0.005231346469372511,0.0012396089732646942,0.0031322098802775145,0.0002779679780360311,-0.003245470579713583,0.0019779943395406008,-0.004987620748579502,-0.0006909153889864683,-0.003998623229563236,-0.003748083021491766,-0.003536235075443983,-0.0013457250315696,-0.005331562366336584,-0.0012140378821641207,0.00013906430103816092,-0.00019843511108774692,-0.0013923229416832328,0.00402847770601511,-0.0042129079811275005,6.76675044815056e-05,-0.00520219374448061,-0.005093931686133146,0.0008773990557529032,0.0007841851911507547,0.004490387160331011,0.0006874395767226815,0.005461525171995163,-0.005360727664083242,-0.004774976056069136,-0.005415712017565966,-0.0037383688613772392,0.0004902178188785911,0.0017291468102484941,-0.0053976657800376415,0.005297366064041853,0.004064335487782955,-0.00241589336656034,-0.005022283643484116,-0.003921173047274351,-0.004431257955729961,-0.004474740009754896,0.00022048088430892676,-0.003018894698470831,-0.0016850557876750827,0.0058144801296293736,0.0021893358789384365,0.005333116743713617,-0.00424581253901124,-0.0013999800430610776,0.0006501195603050292,-0.005027384962886572,-0.005889398977160454,0.0020244664046913385,0.0016845716163516045,-0.001059675239957869,-0.00012301054084673524,-0.001004391466267407,-0.005654000211507082,-0.0019555017352104187,-0.0038357065059244633,-0.004770028870552778,0.005425051786005497,0.0011802223743870854,0.00271604279987514,-0.0021931605879217386,-0.001269228057935834,-0.003124889684841037,-0.004787353798747063,-0.0038125512655824423,0.0035339542664587498,0.002108938293531537,0.0005574342212639749,-0.0002958893892355263,0.005017791409045458,-0.005075172986835241,-0.0026060843374580145,-0.0017824798123911023,0.0033547321800142527,0.00585022522136569,-0.0030803875997662544,0.0044461265206336975,0.003927228972315788,-0.0032705958001315594,-0.0011957555543631315,-0.0010729307541623712,0.005680437665432692,-0.003790454473346472,0.0035534813068807125,-0.0019695048686116934,0.0027423419523984194,-0.0009501315071247518,0.0009307790314778686,0.003950854763388634,0.003612963017076254,0.0043524764478206635,-0.005230987444519997,0.0022812297102063894,-0.004276329651474953,-0.0009999304311349988,0.000577146653085947,-0.0011552873766049743,0.0002329529233975336,0.005897877272218466,-0.0043329899199306965,0.002084115520119667,-0.0012353294296190143,-0.004359211307018995,-0.004053619224578142,0.005336590576916933,0.004509011749178171,0.004834957420825958,0.005838562734425068,-0.0034647106658667326,-0.001717131701298058,0.002010030671954155,-0.0001923979289131239,-0.0009693917818367481,-0.0016889574471861124,0.0011139523703604937,0.0008979197009466588,-0.004021297674626112,-0.00033568203798495233,0.0006351525662466884,0.0008348877308890224,-0.003443427151069045,0.0028777667321264744,-0.005639817100018263,-0.001724347472190857,0.003328443504869938,0.0007589378510601819,-0.002836978994309902,0.0023157072719186544,0.0008004883420653641,0.0035188638139516115,0.002791694365441799,0.0013078924966976047,-0.0001404288486810401,-0.0043571642599999905,-0.0028349526692181826,-0.0009609588887542486,0.0011795044410973787,0.00016282570140901953,-0.0025160028599202633,-0.00586235336959362,-4.4671563955489546e-05,-0.0025463940110057592,0.0027867425233125687,-0.005654698237776756,0.0010076082544401288,0.005243953317403793,-0.003867457155138254,-0.00033675521262921393,-0.00485320296138525,0.001492884592153132,0.0006002293084748089,-0.0011003379477187991,0.00025392218958586454,0.004710623994469643,-0.0036075005773454905,-0.005671111401170492,0.004295955877751112,0.0009160180925391614,0.00464034965261817,0.0011515422957018018,0.0036841793917119503,-0.0008353592711500823,0.0029679054860025644,0.00490622129291296,0.0008566965698264539,-0.0037917224690318108,-0.002746286103501916,-0.003579583251848817,-0.0030069025233387947,-0.0022994510363787413,0.0006548943929374218,0.0010451889829710126,-0.0008730564150027931,0.0013710000785067677,-0.00497016916051507,-0.004896365571767092,-0.003898100694641471,0.00021472953085321933,-0.003397250548005104,-0.0025742079596966505,-0.0011841118102893233,0.003704432398080826,-0.005774480290710926,0.0017743631033226848,0.0020059621892869473,0.0035475161857903004,0.00514035951346159,-0.005699935834854841,-0.0041124531999230385,0.004587049596011639,-0.0004927280242554843,0.0007672255160287023,0.0019364823820069432,0.002127002691850066,0.0051283324137330055,0.005902903154492378,0.0026150913909077644,-0.0025274455547332764,0.004510804545134306,-0.00535447895526886,-0.0031942962668836117,0.004720257595181465,-0.0028960248455405235,-0.0033181842882186174,-0.004298448096960783,0.004265629220753908,6.920184887349023e-07,0.00207743002101779,-0.0030994419939816,0.0030650757253170013,0.0030884179286658764,-0.002226012758910656,-0.001060936483554542,-0.003448379458859563,0.005660723894834518,0.0017295078141614795,0.005161632783710957,-0.002335441065952182,0.003348378464579582,0.0031579427886754274,0.0022765391040593386,0.005530988797545433,-0.0012643792433664203,-0.004386442247778177,0.0020396055188030005,0.00272380537353456,0.0008915903163142502,-0.003482498461380601,5.292891000863165e-05,-0.0022308623883873224,-0.000861572683788836,0.0017249465454369783,0.002912728814408183,-0.00318070943467319,-0.0011245716596022248,-0.002741962904110551,-0.0035797373857349157,0.0033661520574241877,0.004861216992139816,-0.001541418139822781,0.002984760794788599,0.004715620074421167,0.004111359361559153,-0.0037676305510103703,0.005419961642473936,-0.0014648714568465948,-0.0019095439929515123,-0.005197562277317047,-0.0001642331772018224,-0.004644244909286499,-0.0029869137797504663,-0.002174406312406063,0.00366832478903234,0.004460158292204142,-0.0023463598918169737,0.004260715562850237,0.004243288189172745,0.0031435973942279816,-0.004196653608232737,0.00226070755161345,0.005286119412630796,0.002168266335502267,-0.0020001018419861794,6.881293302285485e-06,0.0017309625400230289,0.00012555824650917202,-0.004514304455369711,-0.002232355298474431,0.003591943997889757,0.004293023608624935,-0.004308250732719898,0.005373575259000063,-0.0020332925487309694,0.001928007579408586,0.0029912488535046577,0.003705383976921439,0.005294738803058863,-0.002222193405032158,0.004258438944816589,-0.004374925047159195,0.0024355328641831875,0.0028742786962538958,0.002111045876517892,-0.0029420743230730295,0.0044311098754405975,-0.003933391068130732,-0.005302049685269594,0.0025831095408648252,-0.0002913062635343522,0.004146683029830456,-0.001385041163302958,-0.003940279129892588,0.003996353596448898,0.0005809621652588248,-0.0036918185651302338,0.002617782214656472,0.0001320108858635649,0.0012390585616230965,-0.00046446037595160306,0.0039044965524226427,0.003914637491106987,0.0024871784262359142,-0.004687151871621609,0.004025000147521496,0.0020313395652920008,0.002340307692065835,-0.0016275278758257627,0.0045051877386868,0.0026770264375954866,-0.004601757973432541,-0.0010954381432384253,0.004589532967656851,-0.005378523375838995,0.005480834748595953,0.0021281426306813955,0.0015605202643200755,-0.0027253609150648117,-0.002983920741826296,0.005250890273600817,-0.0023961756378412247,0.0032725282944738865,-0.0012695288751274347,-0.004285040311515331,-0.005811859387904406,0.0005257009179331362,0.005651433020830154,-0.0015544366324320436,-0.0016963090747594833,-0.0018519230652600527,0.0002440254029352218,-0.0007047989638522267,0.004512731451541185,6.557749293278903e-05,9.214975580107421e-05,-0.0042955223470926285,0.005734113976359367,-0.0029698912985622883,-0.005067700054496527,0.0019378963625058532,0.0011327882530167699,-0.0010079235071316361,-0.000924222229514271,0.0033860683906823397,-0.0036144095938652754,0.0038040578365325928,0.0017668594373390079,-0.0009624995291233063,-0.0004985477426089346,-0.0028906119987368584,0.002994684036821127,0.00015292975876946002,-0.0021279393695294857,0.001140909967944026,0.005888471379876137,-0.00076897261897102,0.00499708903953433,-0.0018409329932183027,-0.005289008375257254,-0.0035130942706018686,-0.0009657616610638797,-0.0033302539959549904,-0.005936441943049431,0.004929503425955772,0.004084695130586624,0.0028780142311006784,-0.003945790231227875,-0.004509426653385162,-0.005136110819876194,0.0026610807981342077,0.005093500018119812,-0.000825114781036973,-0.004523952957242727,0.00014720535546075553,-0.001795616582967341,-0.0014868642902001739,0.001441198866814375,0.002597994403913617,-0.004625358618795872,-0.005516387987881899,0.005871792323887348,-0.003174726851284504,-0.005299724638462067,-0.0036837467923760414,-0.0054763867519795895,-0.00128510023932904,0.0035920122172683477,-0.0018857424147427082,-0.0006630049902014434,0.0020856685005128384,0.00010564623516984284,0.004293351899832487,0.0043478733859956264,-0.00582141662016511,0.0033027110621333122,-0.000466417201096192,0.005806583445519209,-0.0001991740573430434,0.005783485248684883,0.003023845609277487,-0.002986141014844179,0.00045606622006744146,0.005845723673701286,0.004246847704052925,-0.004782587755471468,0.0024513439275324345,-0.001834248541854322,-0.005856201518326998,-0.0011464798590168357,-0.0031506605446338654,0.003787617664784193,-0.0019322321750223637,0.003890417283400893,-0.005932036321610212,-0.0022827773354947567,-0.003074511419981718,-0.0031647607684135437,-0.005129199009388685,-0.0037164248060435057,0.0006598331965506077,-0.002478271024301648,-0.0009812077041715384,-0.0014626093907281756,0.0044651031494140625,0.004814254119992256,-8.36590479593724e-05,-0.0020174547098577023,-0.004670530091971159,0.0053856451995670795,-0.005223746411502361,-0.002403566148132086,-0.0023986257147043943,-0.002133323345333338,-0.003987694159150124,0.0033634700812399387,-0.004484075121581554,0.001602458767592907,-0.004468061029911041,-0.005101297050714493,0.004863317124545574,-0.0036807365249842405,0.0038158984389156103,0.0005301378550939262,-0.005014337599277496,0.005409940145909786,-0.0030056654941290617,0.004271967336535454,-0.003933966625481844,0.004204231780022383,-0.005782003048807383,0.00013993153697811067,0.0032005137763917446,0.005164621863514185,0.004860616289079189,0.0037965928204357624,0.004611044656485319,-0.0035727520007640123,-0.0025635187048465014,-0.0025066903326660395,-0.0014603874878957868,-0.0012671666918322444,0.0005292405257932842,-0.004040042404085398,0.002271680859848857,-0.003948736935853958,-0.0022532085422426462,3.973439015680924e-05,0.0035212032962590456,0.002844481961801648,0.0017286974471062422,-0.004088820889592171,0.0005588176427409053,-0.004900424741208553,-0.0014567142352461815,-0.0010272746440023184,-0.005466247443109751,-0.002684632083401084,0.005412330850958824,0.005388373974710703,-0.001754100201651454,-0.005427183583378792,-0.0038117992226034403,-0.0012802669079974294,0.005318851675838232,-0.004261936992406845,0.0031301144044846296,-0.004648177418857813,0.00571651104837656,-0.0014061920810490847,0.0032693122047930956,-0.0018697468331083655,0.0015164862852543592,-0.0036583184264600277,-0.004204660654067993,0.005203447304666042,0.004960930440574884,0.004602463450282812,0.0014899333473294973,0.0036616954021155834,-0.00511909881606698,-0.0019624216947704554,-0.0022128860000520945,0.0016112327575683594,-0.0017109735636040568,-0.004175134003162384,0.001145862741395831,0.0037343394942581654,-0.0014001698000356555,-0.004368014167994261,-0.003602821845561266,-0.0031182460952550173,-0.002376871882006526,0.0016961594810709357,0.0011990584898740053,0.00232909107580781,-0.0016332395607605577,0.0038485340774059296,-0.0035149287432432175,-0.0003677425847854465,0.0035746335051953793,-0.0037991642020642757,-0.00463415402919054,0.0045575047843158245,-0.0018657250329852104,0.002184060402214527,-0.005638041067868471,0.002257429761812091,-0.002184399636462331,-0.005277033429592848,0.0013043864164501429,-0.0030788041185587645,-0.0013445350341498852,-0.00498197739943862,-0.0041910926811397076,-0.0023996825329959393,-0.004872950259596109,0.004879908170551062,-0.005867310333997011,-0.00019171279564034194,-0.004475171212106943,-0.0022844411432743073,0.005060853436589241,-0.004018486011773348,0.005533285439014435,-0.0034946559462696314,0.0028693892527371645,0.000554445490706712,0.004566945135593414,0.0006413468508981168,0.0004105039988644421,-0.003617434296756983,-0.003964620176702738,0.004947173874825239,-0.0020449855364859104,-0.0015194424195215106,0.003086257493123412,-0.0019144994439557195,0.005369723308831453,0.002826172159984708,0.0011572915827855468,0.0045243785716593266,-0.005349906161427498,-0.0028856766875833273,-0.00041530810995027423,-0.003243024693801999,0.002897173399105668,0.00497946934774518,-0.0009054796537384391,-0.0018751927418634295,0.005482427775859833,-0.0006550580728799105,-0.00013008613314013928,-0.001762143918313086,0.004864730406552553,0.0008190723601728678,0.0031141825020313263,0.003703726688399911,-0.0018785609863698483,-0.0007875971496105194,0.004139244556427002,-0.001624290831387043,0.0034914431162178516,0.005238228943198919,0.0014635269762948155,0.0028701159171760082,0.0036240306217223406,0.004098476842045784,-0.0012465855106711388,-0.005330217070877552,-0.0011655408889055252,0.002063924679532647,-0.0005897518713027239,0.0029572534840554,-0.0016988023417070508,0.001600528252311051,-0.003724792506545782,0.0029620793648064137,0.0005427894066087902,-0.0035152053460478783,-0.002471736865118146,0.002953043207526207,-0.00020666734781116247,-0.003373057348653674,0.005550376605242491,0.0025553146842867136,0.005429974291473627,-0.0008658664883114398,-0.00029576505767181516,0.004727022256702185,0.000297543010674417,0.002462116302922368,-0.0029437593184411526,-0.000632797775324434,-0.004472767002880573,-0.0034924508072435856,-0.005927932448685169,-0.005472737364470959,0.0056693097576498985,-0.003060394199565053,0.001939849928021431,0.004027920309454203,0.0006017590058036149,-0.004120045807212591,0.002709630411118269,0.0011908140731975436,0.002746858634054661,0.00320412521250546,0.005647056270390749,0.0008738050237298012,-0.0018810307374224067,0.0017635031836107373,-0.005126181058585644,0.004720395430922508,-0.0045210979878902435,