-0.0033673562575131655,0.014224504120647907,0.0072927046567201614,0.0029086777940392494,-0.011435848660767078,-0.01142401248216629,-0.014262288808822632,0.011802257969975471,0.0032333352137356997,0.006467812694609165,-0.015638872981071472,0.01410530973225832,0.009735753759741783,-0.009430804289877415,-0.009734291583299637,-0.009607365354895592,-0.0063158003613352776,9.417889668839052e-05,-0.003197566606104374,-0.007724249269813299,0.002822257811203599,-0.011053050868213177,-0.006307821720838547,-0.0046514482237398624,-0.0023274081759154797,0.007700880523771048,-0.010866883210837841,-0.0008895780192688107,0.0029581980779767036,-0.01443369872868061,0.002965585794299841,-0.011284437961876392,-0.01501379068940878,0.012664394453167915,0.013109092600643635,0.009563127532601357,-0.006405230611562729,-0.013068201020359993,0.0051105390302836895,-0.0027960340958088636,-0.012952324002981186,-0.001028301427140832,-0.014752266928553581,0.012482324615120888,-0.008266697637736797,0.004412106238305569,-0.006493412423878908,0.00020975728693883866,0.0014431382296606898,-0.009772981517016888,0.015182692557573318,0.008924529887735844,0.013966086320579052,0.01239342987537384,0.00291098072193563,0.013111687265336514,-0.012868176214396954,-0.009400551207363605,-0.014258992858231068,-0.005656966473907232,-0.0038127561565488577,-0.007471095304936171,0.010305759496986866,-0.004320092964917421,-0.0067613874562084675,0.0012163125211372972,-0.011772283352911472,0.008952955715358257,-0.01388641819357872,0.015280747786164284,0.00882995780557394,-0.009453099220991135,-0.01592688262462616,0.0095735564827919,0.006041881162673235,0.006876288913190365,0.008581438101828098,-0.013298174366354942,-0.0044149793684482574,-0.012221308425068855,0.011508151888847351,0.0037544595543295145,-0.0052892062813043594,-0.013454237021505833,-0.005755941849201918,-0.0052325050346553326,0.007683169096708298,0.004866433795541525,0.012443642131984234,-0.0005023306584917009,-0.011371481232345104,0.007171333767473698,0.008885855786502361,0.0028202892281115055,0.009303610771894455,0.0002420231030555442,0.0013005302753299475,-0.0012492530513554811,-0.01533847488462925,-0.012712722644209862,-0.015007519163191319,0.004294545389711857,-0.005756249651312828,0.00031354909879155457,0.012896869331598282,-0.00834711454808712,-0.0034224833361804485,0.007592341862618923,-0.00879928283393383,-0.013606803491711617,-0.0070226420648396015,-0.011200700886547565,0.012872523628175259,0.008834309875965118,0.0036852818448096514,0.011438935995101929,0.009156109765172005,-0.010551230981945992,0.011545960791409016,0.0003950289683416486,0.008699614554643631,0.012076487764716148,-0.005979916546493769,-0.01271830778568983,-0.009156620129942894,-0.003129085758700967,0.009004902094602585,0.010330957360565662,-0.016095254570245743,-1.7789274352253415e-05,-0.0031486533116549253,-0.009398262947797775,-0.012963865883648396,-0.00620209751650691,0.01296838279813528,-0.006276135798543692,-0.00016676628729328513,0.0054349591955542564,-0.005448213312774897,0.013320423662662506,0.01384709682315588,-0.008609317243099213,-0.0009373545763082802,-0.007508761715143919,-0.008233334869146347,-0.016405504196882248,0.0014110426418483257,0.00032002091757021844,-0.013720610179007053,-0.007609883323311806,0.01127245556563139,-0.009188010357320309,-0.011461121030151844,-0.0005707316449843347,0.01586754433810711,-0.007801660802215338,0.004701904021203518,0.006893693469464779,-0.009395727887749672,0.006144403479993343,-0.0051397462375462055,0.006097631528973579,0.005221063271164894,0.0010210812324658036,-0.01321109663695097,0.009730187244713306,-0.007063447032123804,-0.011200103908777237,-0.011219494044780731,0.004700039979070425,0.006423653103411198,-0.014757041819393635,-7.863051723688841e-05,-0.009836903773248196,0.0034539217595010996,-0.006970163434743881,0.007716646883636713,-0.0026882996316999197,0.014072977937757969,-0.011803871020674706,-0.005782896652817726,-0.01264603529125452,0.015870237722992897,0.01324089989066124,-0.007142474874854088,0.005169556010514498,0.009878291748464108,0.001768919755704701,0.0013987665297463536,-0.005531975533813238,-0.011012147180736065,0.013286426663398743,0.013222373090684414,0.005191914737224579,-0.0034739503171294928,-0.0030089481733739376,0.008532864041626453,0.013721158728003502,0.013105658814311028,0.009492026641964912,0.005058474838733673,-0.012533663772046566,-0.010288190096616745,0.014182375743985176,0.00482820812612772,-0.014230754226446152,-0.011483924463391304,0.006165185011923313,-0.014729049056768417,-0.010121402330696583,0.0028109773993492126,0.0073743243701756,0.006010955665260553,-0.0076423087157309055,0.007527874782681465,-0.0077471258118748665,-0.005207204259932041,0.008424952626228333,0.005344607401639223,0.011589903384447098,0.005442275665700436,0.0022876739967614412,-0.013112915679812431,-0.0044875917956233025,-0.007300498429685831,-0.008072822354733944,0.014869817532598972,-0.0035911411978304386,0.011858840472996235,0.0033773742616176605,0.008877169340848923,-0.00041951017919927835,0.0018746299901977181,-0.0007819998427294195,-0.010190963745117188,0.006399692036211491,-0.007340473588556051,-0.014917009510099888,0.003562071593478322,-0.011251245625317097,0.01302681677043438,0.013573712669312954,0.012632165104150772,-0.003983746748417616,-0.014933793805539608,0.01320677064359188,-0.002465283963829279,0.014591005630791187,0.014325875788927078,0.010515970177948475,-0.00702721206471324,-0.0038280102889984846,0.01073249988257885,-0.005959002301096916,-0.010459575802087784,0.0016904270742088556,0.013398760929703712,0.005951498169451952,0.002316824859008193,-0.013210645876824856,0.0034279797691851854,0.01549907773733139,-0.011354916729032993,0.00034919282188639045,0.011841769330203533,0.007840178906917572,0.005660672206431627,0.0060197110287845135,-0.004559903871268034,-0.006638174410909414,0.009417439810931683,0.009701593779027462,0.01171095296740532,0.012341579422354698,-0.0002876586513593793,-0.00040374542004428804,0.008945913054049015,0.004110017791390419,0.005936461966484785,0.008800710551440716,0.011254764162003994,-0.006066579837352037,-0.00477801077067852,-0.013698793947696686,0.0014316908782348037,-0.015707971528172493,-0.0025114177260547876,5.7638077123556286e-05,-0.007753187790513039,0.0020204724278301,-0.01579473912715912,-0.015974879264831543,0.008595866151154041,-0.006585944443941116,-0.008363207802176476,0.0034114341251552105,0.010577489621937275,-0.007117418106645346,0.0054643466137349606,-0.011672286316752434,-0.012775524519383907,0.0030584053602069616,0.0025342328008264303,0.0052383653819561005,0.008079727180302143,0.01584695093333721,0.0011140763526782393,-0.005109597463160753,0.009730436839163303,-0.0071036298759281635,-0.0018760784296318889,-0.013343810103833675,-0.015203307382762432,0.014260212890803814,0.010141823440790176,0.005559183191508055,-0.003659939393401146,-0.011273540556430817,-0.011865021660923958,-0.008814111351966858,0.0006051032105460763,0.005733720026910305,0.0036070954520255327,-0.00869121216237545,0.012288464233279228,0.0059450604021549225,0.0008710480760782957,0.0028319084085524082,-0.003380813868716359,-0.009985544718801975,-0.006959105841815472,0.0058708637952804565,-0.016551563516259193,-0.012492085807025433,-0.014539959840476513,-0.014771617017686367,0.008925506845116615,0.004103867337107658,-0.002610436175018549,-0.013632404617965221,-0.0007270766072906554,-0.0012825147714465857,-0.010741110891103745,-0.0027146614156663418,-0.004536084830760956,0.0020727752707898617,0.003112663049250841,-0.014988924376666546,-0.0045783743262290955,0.002561303786933422,-0.0005925370496697724,0.010118859820067883,0.00386338890530169,-0.011416896246373653,-0.013866141438484192,0.0036601386964321136,-0.016824470832943916,0.0019738981500267982,0.013157323934137821,0.0017801945796236396,-0.003800391685217619,0.004345657769590616,-0.002630095463246107,-0.0006745572900399566,0.013693668879568577,-0.0037138154730200768,0.014399911276996136,0.012870710343122482,-0.009862910024821758,-0.015259966254234314,-0.0147771080955863,-0.015147505328059196,-0.012578151188790798,0.00599704822525382,-0.013135376386344433,-0.006141966674476862,0.00927720032632351,-0.01689733751118183,0.010363845154643059,-0.006197263486683369,-0.011295583099126816,0.0065673040226101875,0.0034827881027013063,0.010592998936772346,0.006166761741042137,0.01009619515389204,-0.006041033659130335,-0.009369827806949615,0.007990045472979546,0.008990652859210968,0.01451129000633955,-0.0033803745172917843,-0.002444754121825099,0.01070542261004448,-0.003102847607806325,0.01470930315554142,0.012273765169084072,-0.0013144435361027718,0.008512801490724087,0.008457424119114876,-0.011544354259967804,0.01296479906886816,0.0003867873747367412,0.010776789858937263,-0.005060501396656036,0.013040822930634022,-0.003831885987892747,-0.01571015827357769,0.012165774591267109,-0.013239403255283833,-0.0060936096124351025,0.013787059113383293,0.01425203587859869,0.0011932756751775742,0.002896658144891262,-0.0023479266092181206,-0.007226769346743822,-0.006560200359672308,0.00423798430711031,0.007626993115991354,0.007671681698411703,0.007800400722771883,-0.013413304463028908,-0.0008564561139792204,-0.015239676460623741,0.000475180393550545,-0.0019039860926568508,0.010904946364462376,-0.00574127770960331,-0.012468543834984303,-0.01202721893787384,0.007208618335425854,0.003279892262071371,-0.012080561369657516,-0.014122162014245987,0.0055537717416882515,-0.014087159186601639,0.009200401604175568,0.00567363016307354,-0.013135780580341816,-0.012279082089662552,0.014650389552116394,-0.004805353470146656,-0.004970785696059465,0.009006361477077007,0.013613146729767323,0.015079785138368607,0.008083337917923927,-0.0047904253005981445,-0.014254600740969181,0.007624651305377483,0.00094907998573035,-0.0030414757784456015,0.012318995781242847,-0.01238479744642973,-0.0013208622112870216,-0.016707587987184525,-0.002002854598686099,-0.014730740338563919,-0.012660808861255646,-0.012564580887556076,0.004506062250584364,0.006488137878477573,0.0016541689401492476,0.014058640226721764,-0.004338512197136879,-0.007121810223907232,0.011331362649798393,-0.008887430652976036,0.013514859601855278,-0.01581704430282116,0.014816629700362682,-0.01450774073600769,0.012123814783990383,0.0006779893301427364,0.015521631576120853,-0.01403558999300003,0.0017068972811102867,0.014973846264183521,0.0008418053621426225,0.004066115245223045,0.006165043450891972,-0.0014108699979260564,0.003886051243171096,0.002964397892355919,0.012984106317162514,-0.014122911728918552,-0.006875092163681984,0.014224105514585972,0.012286406010389328,-0.0021146724466234446,0.0030927357729524374,-0.007647654507309198,-0.01038164459168911,-0.0018492478411644697,-0.005448524374514818,0.0019513914594426751,-0.013472792692482471,0.014817359857261181,0.015211685560643673,0.005995543207973242,0.0007032919093035161,-0.006461458746343851,0.009695912711322308,0.005831660237163305,-0.010665887035429478,0.012965322472155094,0.010052899830043316,0.014046067371964455,0.0070398966781795025,0.003670724108815193,-0.0025560667272657156,0.013743222691118717,0.011570452712476254,-0.014433310367166996,-0.014988940209150314,-0.0038593641947954893,0.00988142192363739,0.015578588470816612,-0.010824049822986126,0.00314665911719203,-0.0037037136498838663,0.014889456331729889,0.010839003138244152,0.010692271403968334,-0.0007186230504885316,-0.002410991583019495,-0.0069891405291855335,-0.013973241671919823,0.011534638702869415,0.00989233423024416,0.015763940289616585,0.01585986092686653,0.001837126910686493,0.008511077612638474,0.01406789943575859,0.011092080734670162,-0.00795472040772438,-0.0015704522375017405,-0.012037680484354496,0.013990855775773525,0.002916729310527444,-0.008950799703598022,0.004850026685744524,0.0029083620756864548,-0.004958843346685171,-0.012493306770920753,0.0048444210551679134,1.4052124015506706e-06,0.008102651685476303,-9.24713458516635e-05,0.010103074833750725,0.0009190382552333176,0.0015153686981648207,0.011172197759151459,-0.003585680155083537,-0.012024941854178905,-0.015630237758159637,0.0070425053127110004,0.00295302364975214,0.006058264058083296,-0.00953467097133398,-0.012012979947030544,-0.01618407666683197,-0.00590003514662385,0.00155360484495759,-0.004544930998235941,-0.0020294571295380592,0.012509804219007492,-0.005305028520524502,-0.0004951326991431415,0.007708743680268526,-0.004431170877069235,0.0026711912360042334,0.011593629606068134,0.014054575935006142,-0.011458690278232098,0.012736668810248375,-0.001084864721633494,-0.008276530541479588,-0.0022181363310664892,0.01531962864100933,-0.0002620327868498862,-0.005656015127897263,0.003756953403353691,-0.008434292860329151,-0.01338167954236269,-0.012188109569251537,-0.011557690799236298,-0.010729591362178326,-0.011251026764512062,0.004494689870625734,-0.009951390326023102,-0.004865126218646765,0.012457532808184624,-0.0008810821454972029,0.005349148530513048,-0.010451946407556534,-0.009923877194523811,-0.014516167342662811,-0.010486351326107979,-0.007170084398239851,-0.01012325193732977,-0.012845956720411777,-0.011933587491512299,-0.001186779816634953,-0.0091515202075243,-0.004480982664972544,-0.00046358382678590715,0.006552429404109716,-0.014119870029389858,0.009672367013990879,0.004131955560296774,-0.013260751962661743,0.0111541161313653,0.012141323648393154,-0.013018541038036346,-0.006642129737883806,0.00972889643162489,0.007861139252781868,-0.010072801262140274,-0.009813005104660988,-0.005149493925273418,0.0002714997681323439,0.004110403824597597,-0.003988930024206638,-0.0010084572713822126,0.007843374274671078,-0.015092797577381134,-0.008555134758353233,0.007462046574801207,0.012942302972078323,0.000784322211984545,0.0014130868948996067,-0.012369540520012379,-0.0020455324556678534,0.0007179799140430987,-0.007236468605697155,-0.006685068365186453,-0.0031977330800145864,-0.014050887897610664,-0.0048917680978775024,-0.00906477589160204,-0.0052964938804507256,-0.011153834871947765,0.012856265529990196,0.003440065309405327,0.006328272167593241,0.009355651214718819,-0.0004130042507313192,-0.013035282492637634,0.0020333549473434687,0.0032833085861057043,0.008028917014598846,-0.0020258089061826468,-0.012023299932479858,-0.00738078448921442,-0.004228726029396057,0.0055242846719920635,0.002641748171299696,-0.004658435005694628,0.014913285151124,0.0025522499345242977,-0.009043446741998196,-0.012567232362926006,-0.010228483937680721,-0.008071713149547577,-0.011195840314030647,-0.01050537172704935,-0.0075612254440784454,-0.010982596315443516,0.01227465271949768,-0.013030050322413445,0.0002559784916229546,-0.003275748807936907,0.015069382265210152,-0.012527809478342533,-0.003670881036669016,0.014562049880623817,0.012168805114924908,0.010203314945101738,-0.007190903648734093,-0.009747505187988281,0.0057674250565469265,0.013724901713430882,0.0023328650277107954,0.0018027176847681403,-0.00688529247418046,0.008444040082395077,-0.010424081236124039,-0.006162202917039394,-0.0026811969000846148,0.00010770851076813415,-0.008419306017458439,-0.011765288189053535,0.003507055342197418,-0.007340270560234785,0.0018326755380257964,-0.0114033417776227,-0.0008549371268600225,0.0013292890507727861,-0.013274299912154675,-0.0048123630695044994,-0.01202515047043562,-0.014283359982073307,0.015371874906122684,-0.0055474089458584785,0.010496832430362701,-0.0066672381944954395,0.0063620335422456264,0.007967162877321243,0.0030409423634409904,-0.00037338814581744373,-0.00221803761087358,-0.0036901843268424273,0.014868325553834438,0.01135814655572176,0.014768027700483799,-0.011560498736798763,0.008137788623571396,0.014703513123095036,-0.008906734175980091,-0.0124721210449934,0.008342227898538113,0.0023356457240879536,0.01097310520708561,-0.010794115252792835,0.010239644907414913,-0.00813165120780468,-0.00947481393814087,-0.01000085100531578,0.009888296015560627,0.005183194763958454,0.0011321542551741004,-0.0032941189128905535,0.01252618245780468,-0.0022676275111734867,0.01134205237030983,-0.0006474418332800269,-0.0024907561019062996,5.0598431698745117e-05,-0.0055854348465800285,0.008565121330320835,0.0012723045656457543,-0.007323236204683781,0.013509116135537624,-0.002661852864548564,0.002166812540963292,0.01335289515554905,0.004671495407819748,-0.011084924452006817,0.014739759266376495,0.004599414300173521,-0.0044668009504675865,-0.010768251493573189,0.009991027414798737,0.0042129806242883205,0.0015100142918527126,0.01287693902850151,0.00944968406111002,-0.010586063377559185,-0.0055269505828619,-0.007134832441806793,0.007579618599265814,-0.014972487464547157,0.0019435303984209895,0.008066920563578606,0.011645596474409103,-0.004980428609997034,0.010552090592682362,-0.013104548677802086,0.01001298613846302,-0.012867848388850689,-0.004434100817888975,0.008337403647601604,-0.011551967822015285,-0.008779018186032772,0.005749774165451527,0.005314467009156942,0.002463245764374733,0.004015544429421425,-0.0003326183359604329,-0.008873668499290943,-0.006189463660120964,-0.010015384294092655,0.012287206947803497,0.0019709051121026278,-0.00304542388767004,-0.0007492665317840874,0.014793336391448975,-0.0102117033675313,0.002390476642176509,-0.0004776604182552546,0.0034596924670040607,-0.014465517364442348,0.012663282454013824,0.01426737755537033,0.0023066001012921333,0.005744517780840397,0.012943705543875694,0.006854040082544088,-0.009834709577262402,0.0035285449121147394,0.0038895485922694206,-0.0024782491382211447,0.006561941932886839,0.013063175603747368,0.013344042003154755,-0.0009265818516723812,-0.011617414653301239,0.015304144471883774,0.010245201177895069,-0.013459528796374798,0.011773303151130676,0.010842796415090561,0.0004883534857071936,0.0027408527676016092,-0.0035841071512550116,-0.014811869710683823,-0.0074413614347577095,0.007493245415389538,-0.016989242285490036,-0.006079591810703278,-0.0038447892293334007,0.000535380095243454,0.011627968400716782,-0.008022982627153397,-0.007617560215294361,0.005395716521888971,-0.002931517781689763,-0.00962065253406763,-0.002692664507776499,-0.01369181927293539,-0.010671916417777538,-0.0006709934677928686,-0.003259923541918397,0.012387705035507679,-0.004608054179698229,0.002325209556147456,0.00385727034881711,-0.01615825854241848,0.0045084645971655846,-0.010898725129663944,0.013791675679385662,-0.01155775599181652,-0.003112255595624447,-0.013816564343869686,0.015257436782121658,-0.00034001091262325644,0.002486298093572259,-0.014262231066823006,0.007483263034373522,-0.009816168807446957,0.01154183316975832,-0.008873842656612396,-0.009653921239078045,-0.014989475719630718,-0.001340610207989812,0.0016859074821695685,-0.014260421507060528,0.007875580340623856,-0.0010521135991439223,0.0005096847889944911,-0.0022799738217145205,-0.003428637282922864,0.0016627421136945486,-0.011114528402686119,-0.010381865315139294,0.011152593418955803,0.013332498259842396,-0.004494615364819765,-0.007332559674978256,0.004504391923546791,-0.0029578902758657932,-0.014898091554641724,-0.011476797051727772,0.00598587840795517,0.004607663489878178,-0.015146078541874886,-0.009076722897589207,-0.008628319948911667,0.005810132250189781,-0.014194267801940441,-0.012138132005929947,0.00871127750724554,-0.01155915204435587,0.0035444970708340406,-0.008569964207708836,-0.012334369122982025,-0.006951984018087387,0.007241877261549234,0.010525692254304886,0.009283016435801983,-0.004400873091071844,0.004736305680125952,-0.00964273326098919,-0.005454464815557003,0.013134961947798729,-0.01487859059125185,-0.012982683256268501,-0.009635384194552898,-0.015365827828645706,-0.010659788735210896,0.003749378025531769,-0.0011201855959370732,0.013941706158220768,0.011027874425053596,-0.004640740808099508,-0.007594893220812082,-0.004264877177774906,0.00441594747826457,-0.005064953118562698,0.006254957057535648,-0.0012468582717701793,0.002545673865824938,-0.0014412010787054896,-0.006448713131248951,0.016238419339060783,0.011273707263171673,-0.00840365793555975,0.01365891844034195,0.001088746008463204,0.013699487783014774,0.0102773392572999,-6.98186267982237e-05,-0.011695543304085732,-0.004050361458212137,0.003548608161509037,0.006047094240784645,-0.00590900331735611,-0.010189235210418701,0.012371486984193325,0.017252575606107712,0.003238775534555316,-0.00790463387966156,-0.004838256165385246,-0.012691994197666645,0.01576235145330429,-0.010073200799524784,0.004613300785422325,-0.004811613354831934,0.003945433534681797,0.0069923968985676765,0.01261933520436287,-0.0069348933175206184,-0.013513881713151932,-0.009759505279362202,0.014135641977190971,0.01334947906434536,0.004529295023530722,0.004635023884475231,0.0068543460220098495,-0.00901829730719328,0.013823325745761395,-0.0019773358944803476,-0.0030926011968404055,0.0012857039691880345,-0.013464542105793953,-0.009543857537209988,0.007530669216066599,-0.013261142186820507,0.0029881440568715334,-0.008231370709836483,-0.003516863565891981,-0.006603148300200701,-0.004233106970787048,0.006369792390614748,-0.006640919949859381,0.0017907898873090744,-0.0011966634774580598,0.004577775485813618,0.013266894966363907,0.007440146058797836,-0.009533303789794445,-0.014603090472519398,-0.007193230092525482,0.0029879845678806305,-0.014290859922766685,-7.605538121424615e-05,0.0038849273696541786,-0.009007269516587257,0.00605018762871623,-0.01439580973237753,-0.015330236405134201,0.005561960395425558,-0.0015510653611272573,0.004373720847070217,-0.0037801461294293404,-0.009237879887223244,0.008368988521397114,0.00798823218792677,0.0051920171827077866,-0.007848010398447514,0.0018762623658403754,-0.004734244663268328,-0.013515900820493698,0.011956810019910336,-0.012226779945194721,0.014030947349965572,-0.0017255482962355018,-0.010314187966287136,0.001371279009617865,0.011468764394521713,0.006857569329440594,0.009543933905661106,0.005179837811738253,0.006324556190520525,0.011020882986485958,-0.008031530305743217,-0.00025519970222376287,-0.008511480875313282,0.015716733410954475,0.014390647411346436,-0.014169984497129917,0.006571234669536352,0.01303943246603012,-0.009672878310084343,0.0028318907134234905,0.013630717061460018,-0.014333495870232582,0.0066381171345710754,-0.006205009296536446,0.013169240206480026,0.015217117965221405,0.014464106410741806,-0.0006209326675161719,0.011540836654603481,0.010908463038504124,-0.005881848745048046,0.010160072706639767,-0.01502943318337202,0.002628400456160307,-0.008682171814143658,-0.011861827224493027,-0.013356087729334831,0.005996983032673597,-0.0048017241060733795,0.0073492079973220825,-0.013087432831525803,-0.00508484011515975,0.0017515200888738036,0.009235134348273277,-0.005938002374023199,0.004384023603051901,0.012780347838997841,0.0048444573767483234,-0.007424168288707733,-0.014683526940643787,0.011497813276946545,-0.015396680682897568,0.012409678660333157,0.0018221221398562193,0.01511330809444189,0.009952050633728504,0.015429161489009857,-0.005312254186719656,0.007912654429674149,-0.0022288395557552576,0.00025042553897947073,0.0046997698955237865,0.011657914146780968,0.014561097137629986,0.007793983910232782,-0.0028405131306499243,-0.0015415579546242952,0.008052042685449123,-0.00822468101978302,-0.013145597651600838,-0.005604633130133152,-0.00715943519026041,-0.006405782885849476,-0.007636837661266327,-0.014396972954273224,-0.016089079901576042,0.013850845396518707,-0.003269101493060589,-0.0039618853479623795,0.0058810096234083176,-0.008963343687355518,0.013852137140929699,0.008417066186666489,-0.013594236224889755,-0.003207434667274356,0.011522491462528706,0.013904052786529064,-0.0016426204238086939,0.0026341460179537535,-0.011503977701067924,0.01473686657845974,-0.009071442298591137,0.01345334853976965,0.00442270003259182,0.002392259193584323,-0.0008209669613279402,-0.00977033469825983,-0.01117275096476078,-0.009569932706654072,-0.010577806271612644,0.008414377458393574,-0.005656290799379349,-0.015130971558392048,0.013362494297325611,0.011019580066204071,0.01269068568944931,0.01494080200791359,-0.0107773058116436,-0.0037604565732181072,0.007271224167197943,0.005239978898316622,-0.011436069384217262,0.009667150676250458,-0.00901325885206461,-0.009040002711117268,0.0013421352487057447,0.0027518272399902344,0.002432458335533738,-0.012781508266925812,0.012000435963273048,-0.007418993394821882,-0.01190469041466713,0.012967881746590137,0.014703452587127686,0.01169560756534338,0.009986018761992455,0.004980513826012611,0.0014975204830989242,-0.013526085764169693,-0.005530438851565123,-0.005995710846036673,-0.009696616791188717,0.0054008872248232365,-0.0010681875282898545,-0.013915411196649075,-0.010028453543782234,0.004294569604098797,-0.014462563209235668,0.009782008826732635,-0.0009067076025530696,-0.001024157158099115,0.0024831744376569986,0.009172187186777592,-0.005441637709736824,0.004889697767794132,0.0015622543869540095,-0.007570616900920868,0.011968583799898624,0.009179296903312206,0.004118757788091898,0.01080283708870411,0.011365417391061783,0.0063570295460522175,0.010824214667081833,0.006659725680947304,0.005683166440576315,0.0031674045603722334,0.007993693463504314,-0.010763922706246376,0.012060781009495258,0.012095676735043526,-0.014396566897630692,0.010631498880684376,-0.011561096645891666,-0.0045762392692267895,0.008062098175287247,-0.010250733233988285,0.010606780648231506,0.011020222678780556,0.0007827518275007606,-0.015156225301325321,-0.005563435144722462,0.004463552497327328,0.016015922650694847,0.0050045521929860115,-0.006905718706548214,0.004443657584488392,0.0009549289825372398,0.008948828093707561,-0.012569477781653404,0.007828901521861553,0.0008576681138947606,0.0141309117898345,-0.005329558160156012,0.004013242665678263,0.013719689100980759,-0.012396973557770252,0.013871636241674423,0.005923608783632517,-0.013469704426825047,-0.006091240327805281,0.006810426712036133,-0.013290551491081715,0.003249288536608219,-0.004315485712140799,0.004180617164820433,-0.013945630751550198,0.012218914926052094,0.015708770602941513,0.01509930845350027,0.008505040779709816,-0.011219721287488937,0.00832506362348795,-0.014948830008506775,-0.014708011411130428,-0.004826584365218878,0.0002528082113713026,0.009158123284578323,0.006144535727798939,-0.0017299925675615668,-0.007465394679456949,0.015532637014985085,-0.0020959232933819294,-0.00035504522384144366,-0.009510104544460773,0.009846514090895653,0.006210339721292257,-0.008971896953880787,-0.013314698822796345,0.0057527776807546616,0.006098057143390179,-0.005987196695059538,0.01499088853597641,-0.010600472800433636,-0.0021749737206846476,0.013922612182796001,-0.0024316441267728806,0.0062672230415046215,-0.0014556882670149207,-0.00589462136849761,0.016009094193577766,-0.0023047171998769045,0.013546081259846687,-0.006642290856689215,-0.007425172254443169,-0.013376936316490173,0.00597038958221674,-0.0032272133976221085,0.012482651509344578,0.000760580413043499,0.016810094937682152,-0.008943342603743076,0.012294323183596134,0.009305804967880249,0.009309642016887665,0.01205883827060461,0.010119637474417686,0.006119437050074339,-0.011165078729391098,-0.014595124870538712,0.013459553010761738,0.004287951160222292,0.010528831742703915,0.0012554049026221037,-0.010090664960443974,-0.01172060240060091,0.0057396781630814075,-0.00210345140658319,-0.008792570792138577,0.000794285093434155,-0.012076078914105892,0.004331981763243675,-0.007416893262416124,0.009157600812613964,-0.0058241900987923145,-0.0008132521179504693,-0.01466913241893053,-0.012249002233147621,-0.002191124949604273,-0.0008196663693524897,0.0032073073089122772,-0.0061494773253798485,0.006628480739891529,0.011838563717901707,0.009583543054759502,-0.013967808336019516,-0.0007694743108004332,-0.012872003018856049,-0.00855849776417017,0.01524288859218359,-0.01113948691636324,6.542254413943738e-05,0.0034913744311779737,0.006271912716329098,0.001559948781505227,-0.015673961490392685,-0.0053094918839633465,0.0009618791518732905,-0.012789557687938213,-0.005027272272855043,-0.015076661482453346,-0.01375759206712246,-0.003470852505415678,-0.01142470445483923,0.0025076724123209715,0.006089505739510059,0.00895493570715189,-0.010145194828510284,-0.0110939247533679,-0.013008937239646912,0.0041397809982299805,0.006678185425698757,-0.014773155562579632,0.013195313513278961,-0.014733446761965752,0.0008369045099243522,0.005900949705392122,0.011269479990005493,0.0067365881986916065,0.009445885196328163,-0.005560454446822405,0.009655536152422428,-0.013618433848023415,0.011757174506783485,0.0009811348281800747,0.009947658516466618,-0.001549761276692152,0.00398308364674449,0.0005392702878452837,0.006837579887360334,-0.013959759846329689,-0.014232310466468334,-0.007784863002598286,-0.010688366368412971,0.011141601018607616,-0.00892509426921606,0.014982780441641808,-0.005043295212090015,-0.009780495427548885,0.009483144618570805,0.005320345982909203,0.00011026598804164678,0.001007898012176156,0.006304570008069277,-0.008937167003750801,0.01547169964760542,0.015240421518683434,0.005093963351100683,-0.009398203343153,0.004712218418717384,-0.01408068835735321,-0.015305937267839909,-0.00779660465195775,-0.000944165454711765,0.011994597502052784,0.0073111457750201225,0.006572067737579346,-0.0030996371060609818,-0.005511055234819651,-0.004358397331088781,0.015450377017259598,-0.014290092512965202,0.011812643148005009,0.0013817236758768559,-0.0027526658959686756,0.006405931897461414,-0.0007719736313447356,0.011743204668164253,0.012859835289418697,-0.0021580643951892853,-0.007900130935013294,0.002354453783482313,0.012649178504943848,-0.009043829515576363,0.0042072259820997715,0.004519069567322731,0.008127200417220592,-0.012150190770626068,0.006460927426815033,0.012770959176123142,-0.009645817801356316,-0.007515723817050457,0.015696806833148003,-0.008446441031992435,0.01168675534427166,0.001083965296857059,-0.006356056313961744,0.012653159908950329,-0.0010992393363267183,0.0010410038521513343,-0.0043028960935771465,0.0036919638514518738,-0.009519679471850395,-0.0030912254005670547,0.014335219748318195,-0.007904844358563423,0.004767460748553276,-0.005951561965048313,0.00945401843637228,-0.011160803958773613,0.013925320468842983,-0.002962220925837755,-0.009579915553331375,-0.01417999155819416,-0.010932333767414093,0.0013656176161020994,-0.005249057896435261,0.008848607540130615,-0.004534491337835789,-0.010085584595799446,0.002431006170809269,0.005681220907717943,-0.009959205985069275,-0.01100112497806549,-0.016120968386530876,0.005217408761382103,0.0036152596585452557,-0.001791681512258947,0.010229911655187607,0.009905084036290646,0.0020540915429592133,0.01064751110970974,-0.010213779285550117,-0.012346441857516766,-0.007231941446661949,-0.013668867759406567,0.0013406669022515416,0.013470365665853024,-0.014823129400610924,-0.011583688668906689,-0.0008408678113482893,0.0142520098015666,-0.0047634197399020195,-0.0011223636101931334,-0.015330932103097439,-0.011742981150746346,0.014731084927916527,0.014435355551540852,-0.015735825523734093,0.014200874604284763,0.003200679551810026,0.010871789418160915,-0.0020102541893720627,0.0002570094366092235,-0.0006717366632074118,0.004837871994823217,-0.01185156311839819,-0.015517824329435825,-0.00656970776617527,0.00636406010016799,-0.009158791042864323,0.005370591767132282,0.014461309649050236,-0.013365022838115692,0.005141866859048605,-0.0019091838039457798,0.011979611590504646,-0.009612847119569778,0.006401385180652142,0.010646467097103596,0.013898625038564205,0.005559831857681274,-7.735832332400605e-05,0.004118553828448057,0.012282241135835648,0.0027508707717061043,-0.014551006257534027,0.013866460882127285,0.0057702758349478245,0.005594555754214525,-0.00863741897046566,0.0055402363650500774,-0.0028674041386693716,0.005159215535968542,-0.012065446935594082,0.004870172124356031,0.015861811116337776,-0.014099415391683578,0.01532750017940998,-0.002732128370553255,0.011858220212161541,0.00910865142941475,0.0017054114723578095,0.006618579849600792,0.01122292410582304,-0.0027592696715146303,-0.004275760147720575,0.0059700156562030315,0.009776359423995018,0.007716664113104343,0.00849542673677206,-0.002943157684057951,0.009780537337064743,-0.01132279820740223,0.0018005197634920478,-0.015948142856359482,-0.005714030470699072,-0.005179131403565407,-0.004836936015635729,0.004768465645611286,-0.0038330829702317715,-0.0021290909498929977,-0.009399213828146458,-0.004007762297987938,-0.009930730797350407,-0.01616016775369644,0.0009799114195629954,0.0042254868894815445,0.0024471483193337917,-0.0030980100855231285,-0.0034329022746533155,0.010246806778013706,-0.0015783796552568674,-0.00162529107183218,-0.015213023871183395,-0.006041134241968393,-0.005452345125377178,-0.002429078333079815,0.0022589839063584805,0.0008434049668721855,0.004258184228092432,0.009130371734499931,0.009683000855147839,0.005945832468569279,0.015445306897163391,-0.01416974887251854,-0.00820215418934822,-0.013986306264996529,0.005919929593801498,0.013199744746088982,-0.008048206567764282,0.012821028009057045,-0.014306323602795601,0.01311645656824112,-0.005276317708194256,-0.013087018392980099,-0.0012343829730525613,-0.008710003457963467,-0.006972611416131258,-0.005983775481581688,0.009395650587975979,0.0008360431529581547,-0.006311716511845589,0.0029028335120528936,0.006105368956923485,-0.007258185185492039,-0.002615411300212145,-0.012117531150579453,-0.010406341403722763,0.005428704433143139,-0.010330970399081707,0.0005553807714022696,0.006397257559001446,-0.012386106885969639,0.0020324289798736572,-0.007818140089511871,0.014451469294726849,-0.0006211309228092432,0.009773733094334602,0.0015814361395314336,-0.014211799949407578,0.004414252936840057,0.014545203186571598,0.003350395243614912,0.010131393559277058,0.012728206813335419,-0.008349917829036713,-0.008529424667358398,0.004151868633925915,-0.0020671600941568613,0.011343814432621002,0.013253504410386086,-0.0032356062438338995,-0.008199484087526798,0.009508236311376095,-0.006342791486531496,0.010950159281492233,-0.0016976641491055489,0.006302955560386181,-0.011103940196335316,0.006020526401698589,0.0006454511312767863,0.0046821772120893,-0.007903176359832287,0.010058260522782803,0.014225301332771778,-0.005537405610084534,-0.010866297408938408,-0.013446370139718056,0.005570877809077501,0.005056391470134258,0.0032459984067827463,-0.006455854047089815,-0.0010543572716414928,0.0036345478147268295,0.0002514487714506686,0.01498326938599348,-0.011006451211869717,0.006898945197463036,-0.0020682387985289097,-0.0009544736240059137,0.00668437359854579,0.005326862912625074,0.014117926359176636,-0.012202522717416286,-0.01265944354236126,0.0071421777829527855,0.0029456475749611855,-0.007714732084423304,-0.014110666699707508,-0.014156706631183624,0.011724451556801796,-0.01035618968307972,-0.005889351014047861,-0.008278234861791134,-0.005244731437414885,-0.013828986324369907,0.0005390019505284727,-0.01363431941717863,0.009402631781995296,-0.008361921645700932,0.0018210791749879718,0.011589606292545795,0.005087689962238073,0.00209687277674675,-0.00415074871852994,-0.004271100275218487,0.006116142496466637,0.016665630042552948,0.005959439091384411,0.0018813536735251546,0.0065843756310641766,-0.002014794619753957,-0.014767849817872047,0.001150390482507646,0.013602662831544876,-0.009159678593277931,0.005820450838655233,-0.01019283477216959,0.0001788648369256407,-0.013462856411933899,-0.002066568937152624,0.007406775839626789,-0.00424373522400856,0.00471437769010663,0.00858025811612606,0.012827031314373016,-0.008686144836246967,-0.003421974368393421,-0.01183153036981821,0.015403162688016891,0.013088527135550976,0.0010281221475452185,0.01091946754604578,0.001004178891889751,0.003811319125816226,-0.014062589965760708,0.007873265072703362,-0.011654399335384369,0.010780880227684975,0.009802545420825481,0.007364324294030666,-0.014687196351587772,-0.007436512969434261,-0.007641296833753586,-0.0042077586986124516,-0.012385529465973377,0.014672315679490566,0.0022657152730971575,-0.00652767438441515,-0.00463526276871562,-0.001980474917218089,0.002982311649248004,0.0005637953290715814,0.013343997299671173,-0.00042312536970712245,0.014522424899041653,0.009444397874176502,-0.006972662638872862,0.013768111355602741,-0.01096765510737896,0.01155866589397192,-0.00248939311131835,0.01308692991733551,0.012600274756550789,0.010320170782506466,0.008831310085952282,-0.005371847189962864,-0.012290459126234055,-0.002611881121993065,-0.009787004441022873,0.006570873782038689,-0.004738121759146452,0.014423918910324574,0.004262699279934168,0.009893658570945263,-0.012191071175038815,0.011049151420593262,0.012952562421560287,-0.0001608794555068016,0.0028458386659622192,0.007667609490454197,-0.011194625869393349,-0.0009955721907317638,-0.004343822132796049,-0.012274487875401974,-0.003802062477916479,-0.013738570734858513,-0.015662427991628647,-0.012420843355357647,0.013340111821889877,-0.00012537431030068547,0.013197321444749832,-0.002144797705113888,-0.006401950493454933,-0.0005212357500568032,-0.0026701181195676327,-0.013575044460594654,0.0030206681694835424,-0.009927013888955116,0.0032389326952397823,0.003751956857740879,-0.011713877320289612,-0.014301753602921963,0.008093288168311119,-0.001913822372443974,-0.013953305780887604,0.01516716554760933,-0.014171122573316097,0.006035652942955494,0.015072375535964966,-0.008630476891994476,-0.01170221995562315,-0.011961218900978565,-0.006834177765995264,-0.013068314641714096,0.005378912203013897,-0.014824186451733112,-0.0007574366754852235,0.014863911084830761,0.009383756667375565,0.0028191134333610535,-0.006997527088969946,0.0024538978468626738,-0.0009980479953810573,-0.003989504650235176,-0.01288903970271349,0.01126517541706562,-0.002140176948159933,-0.01025387179106474,-0.005407419987022877,-0.004393171984702349,0.008771673776209354,0.00608097342774272,0.00749247195199132,-0.01563473604619503,-0.002827361924573779,-0.0010281862923875451,-0.01602892205119133,-0.008666729554533958,0.007191504817456007,-0.012358867563307285,0.000709163025021553,-0.009511986747384071,-0.015995020046830177,-0.00906215887516737,0.01388977374881506,0.008383545093238354,0.013680721633136272,-0.0009480134467594326,-0.013160567730665207,0.0006635170429944992,-0.0023783736396580935,0.0098522137850523,-0.01332883257418871,-0.0004238375404383987,-0.010853119194507599,-0.006136431358754635,0.007007938344031572,-0.0010383439948782325,-0.0041556465439498425,-0.00368435843847692,-0.002114222152158618,0.009738856926560402,0.012620195746421814,0.014768941327929497,0.009369522333145142,-0.0055484347976744175,0.006018190179020166,-0.0025350588839501143,-0.006751809734851122,0.011740870773792267,-0.013618520461022854,0.013467870652675629,-0.000595620134845376,0.004778646398335695,0.0044812997803092,0.01362715195864439,0.005590690299868584,0.004782306496053934,-0.012798813171684742,0.0013101332588121295,-0.01043626293540001,0.0067853303626179695,0.001061196206137538,0.006562116090208292,-0.01364158745855093,-0.012374265119433403,0.007571948692202568,-0.013030283153057098,-0.014539355412125587,-0.015649843961000443,0.014399722218513489,0.007748802658170462,-0.0040590050630271435,-0.0058386740274727345,-0.0047101168893277645,0.007703396491706371,0.00439709797501564,-0.010333498008549213,-0.010193029418587685,-0.012229783460497856,0.0052411784417927265,0.00791445653885603,-0.008358174003660679,-0.01537404302507639,-0.013164912350475788,0.014448652043938637,-0.007054318208247423,0.00794755294919014,0.003532533999532461,-0.004014754202216864,-0.009409165009856224,-0.011691199615597725,0.003492157207801938,0.008055141195654869,0.003753135446459055,0.00031636838684789836,-0.014829976484179497,0.014888236299157143,0.009907105006277561,-0.006398034747689962,0.014795294031500816,0.0025112340226769447,0.001889962935820222,0.007343851495534182,0.010411146096885204,0.005734101869165897,-0.0111948037520051,-0.005030967760831118,0.013212070800364017,-0.009020581841468811,-0.004251438658684492,-0.0011023544939234853,-0.0008653688710182905,0.004345643799751997,0.014319607987999916,-0.008251016959547997,-0.012040792964398861,-0.00956269446760416,0.013523516245186329,0.005678907036781311,-0.006033350247889757,0.010227466002106667,0.011369628831744194,0.010855297558009624,0.013237507082521915,-0.006586181465536356,0.008894827216863632,-0.000851613818667829,0.01078022737056017,0.007054468151181936,0.008616134524345398,0.004948917776346207,-0.0083922753110528,0.0024309437721967697,0.01596347987651825,0.01432956662029028,-0.013822870329022408,-0.00990032497793436,-0.010995735414326191,0.008107278496026993,0.010769435204565525,-0.008068924769759178,0.0012357719242572784,0.011866990476846695,0.008565828204154968,0.0024506680201739073,0.003341250354424119,0.0010544557590037584,-0.0051493034698069096,0.0034714573994278908,0.007316386327147484,0.013028280809521675,0.0055033257231116295,0.008812354877591133,-0.009797446429729462,-0.00014945738075766712,-0.014285841025412083,-0.0070088510401546955,0.007801382336765528,0.01621220074594021,-0.011861740611493587,-0.0022441500332206488,0.009805910289287567,-0.008995733223855495,0.00198193802498281,0.007453113328665495,0.003781907958909869,-0.00889830943197012,-0.004161996301263571,0.008648395538330078,0.0014540349366143346,-0.01563097909092903,0.008260943926870823,-0.014725285582244396,0.008335652761161327,-0.009422939270734787,0.013970919884741306,-0.004514031577855349,-0.0054784310050308704,-0.011086611077189445,-0.006375123746693134,0.011644123122096062,0.01550837978720665,-0.0037012093234807253,-0.0006002505542710423,0.008060348220169544,0.012597952969372272,0.002900542691349983,-0.0038533415645360947,-0.0033002207055687904,0.006240439601242542,-0.015045884996652603,0.004508781246840954,-0.004474614281207323,0.008897010236978531,-0.013494175858795643,0.0019823035690933466,-0.000864081084728241,0.00494788633659482,-0.013268813490867615,0.0023902796674519777,0.001339560723863542,0.000663498358335346,0.0020176328253000975,0.0047693210653960705,0.009648534469306469,-0.007202756125479937,0.009974072687327862,-0.0005955303786322474,-0.014951097778975964,-0.015293058939278126,-0.006157351657748222,0.008643551729619503,0.006474542431533337,0.00900154747068882,0.00043603431549854577,-0.00337311252951622,-0.012521754018962383,-0.006283631548285484,-0.0022116524633020163,-0.012599177658557892,-0.008466189727187157,0.0033122331369668245,0.0060579837299883366,0.014334450475871563,0.013009200803935528,0.0047879088670015335,-0.0018083739560097456,0.004675145726650953,0.00922118779271841,-0.012031422927975655,-0.0024932785890996456,0.011106019839644432,-0.00356049626134336,0.0020674357656389475,0.0023768688552081585,-0.010510374791920185,-0.00438634492456913,-0.005109144374728203,-0.014992483891546726,-0.015584374777972698,0.009510686621069908,-0.008244963362812996,-0.0004178033268544823,-0.006775789428502321,0.013515383005142212,-0.008320490829646587,-0.003446565940976143,0.01031543593853712,0.00942623894661665,-0.010986516252160072,0.008852037601172924,-0.0019683553837239742,-0.0014283665223047137,-0.012754648923873901,-0.014378060586750507,0.006324541289359331,-0.0008274303399957716,-0.0027205885853618383,0.0067610363475978374,0.007928176783025265,-0.011281297542154789,0.003062791656702757,-0.011893900111317635,0.00764890480786562,0.004354889504611492,0.014204435981810093,-0.01361394114792347,-0.013988172635436058,-0.006994759198278189,-0.007673835847526789,-0.008141889236867428,0.012431276962161064,-0.008075782097876072,-0.007239838596433401,0.008029977791011333,-0.0018362589180469513,0.008531344123184681,-0.013872415758669376,-0.0008742829668335617,-0.01477373018860817,-0.013888344168663025,0.01273399405181408,-0.01152730267494917,0.0010169848101213574,-0.002652285620570183,-0.004999546799808741,0.01265247818082571,-0.015103884041309357,0.005292883142828941,0.014972732402384281,0.0026137325912714005,0.014477645978331566,-0.014091480523347855,-0.002681307727470994,-0.007711960934102535,0.00732509745284915,0.015703445300459862,-0.006868054624646902,0.005402662791311741,-0.009533779695630074,0.0019294614903628826,-0.0012476890115067363,0.015131166204810143,0.0038017111364752054,-0.0043657985515892506,-0.011984963901340961,-0.010825583711266518,-0.008511428721249104,-0.007718980778008699,0.011196260340511799,0.0017357924953103065,0.0005775706958957016,-0.01237371377646923,0.011680463328957558,0.007159701082855463,-0.013894939795136452,0.006019623018801212,0.0006220917566679418,-0.01371186412870884,-0.0021867400500923395,-0.00017337931785732508,-0.010707196779549122,0.0134011534973979,0.010006722062826157,0.004429156426340342,-0.0019022783963009715,-0.004325089044868946,0.0015806880546733737,-0.0006498383590951562,-0.014106419868767262,-0.0005186572670936584,0.008032935671508312,-0.002810321981087327,-0.015030033886432648,0.006393725052475929,-0.010555167682468891,-0.00782217551022768,-0.011779316700994968,-0.006993952207267284,0.0067241983488202095,-0.00029045785777270794,-0.010893592610955238,0.011440067552030087,0.0115696731954813,0.010619550943374634,-0.009319665841758251,-0.0022995288018137217,0.014800919219851494,0.008389738388359547,-0.014679011888802052,-0.013505474664270878,-0.001176303718239069,0.012852616608142853,0.0012309401063248515,2.3714634153293446e-05,-0.01197951752692461,0.005569254048168659,0.010799367912113667,-0.0033163337502628565,0.008960810489952564,0.014978306367993355,-0.008764255791902542,0.0011673244880512357,-0.006286806892603636,0.009710215032100677,0.003027305006980896,0.004759916104376316,0.01000768318772316,-0.0024752882309257984,0.013139319606125355,0.001118841697461903,-0.010237174108624458,0.007126461714506149,0.010288435965776443,-0.004770016763359308,0.012160206213593483,0.013292406685650349,-0.006628994829952717,0.015066271647810936,-0.01195938978344202,-0.010219327174127102,-0.01073313970118761,0.011989603750407696,0.0051688263192772865,-0.011090652085840702,-0.0025945003144443035,0.00258279568515718,-0.01394560281187296,0.011734019964933395,0.009657718241214752,0.00011221932072658092,0.01406721118837595,-0.0035251511726528406,0.014393174089491367,0.005055615678429604,0.004537962377071381,-0.01008650567382574,0.011814147233963013,-0.002838074928149581,-0.011085444130003452,-0.015371217392385006,0.0021975908894091845,0.001456867321394384,0.00719047337770462,0.012295715510845184,-0.013335891999304295,0.007355567533522844,-0.009575823321938515,0.011726652272045612,0.010707538574934006,0.0017203976167365909,0.006981573533266783,-0.005446891766041517,-0.0005048734019510448,0.010627072304487228,-0.000282389170024544,-0.003039893927052617,0.0009375057998113334,0.011148149147629738,-0.004214881453663111,-0.009279916062951088,0.007846426218748093,0.011959684081375599,-0.01079679373651743,-0.006927154492586851,-0.01154493447393179,-0.005030385218560696,-0.0021091767121106386,0.007408507168292999,0.004426634404808283,0.003557071555405855,-0.004644570406526327,0.010995525866746902,-0.0012075045378878713,0.014627237804234028,0.003918125759810209,-0.012245019897818565,0.004982003476470709,-0.006153301801532507,0.0060689267702400684,-0.01403895765542984,-0.010585770942270756,0.010851076804101467,-0.009363392367959023,0.009628894738852978,-0.008217301219701767,0.004339358303695917,0.00567154586315155,0.00023008183052297682,-0.006457932759076357,-0.009804004803299904,-0.015880007296800613,-0.007751708850264549,0.004196865484118462,0.013201217167079449,0.011490646749734879,0.008213282562792301,0.008629660122096539,0.004573107697069645,-0.008543248288333416,0.01231431681662798,0.005029983352869749,0.0020690446253865957,-0.011974758468568325,-0.001367135439068079,-0.0008677730220369995,0.011657959781587124,0.0015208461554720998,-0.0034059707541018724,0.015735123306512833,-0.011479586362838745,-0.0015807060990482569,-0.013581329956650734,0.008337688632309437,0.013532854616641998,-0.006759884301573038,0.011210579425096512,-0.006414814852178097,0.013173390179872513,0.008288145065307617,0.0097435237839818,-0.015085696242749691,0.014303828589618206,0.006835688836872578,-0.0059904796071350574,0.010668539442121983,-0.006870631128549576,0.011483447626233101,-0.012535256333649158,0.00577919278293848,0.0009735401254147291,-0.012726726941764355,-0.008261830545961857,-0.015985624864697456,-0.0018470141803845763,-0.006959067191928625,0.002302212407812476,-0.007086519151926041,-0.00710210669785738,0.00647431705147028,-0.015823448076844215,0.011284922249615192,0.009635050781071186,0.003726964583620429,0.0012491293018683791,0.010405942797660828,-0.012276599183678627,-0.015542205423116684,-0.010018188506364822,0.007291621528565884,-0.016817988827824593,0.00034504689392633736,0.013218766078352928,0.008676094934344292,-0.001525352941825986,-0.015383073128759861,0.008531472645699978,0.0009892747038975358,-0.014454638585448265,-0.015049772337079048,0.010864926502108574,0.003704833099618554,0.009399402886629105,0.012692611664533615,0.0028631987515836954,0.0015355031937360764,-0.0014721129555255175,-0.00522990245372057,-0.0015809248434379697,0.009192298166453838,0.0037929918617010117,0.012610090896487236,-0.0016826799837872386,0.0029591848142445087,0.0036995387636125088,0.0027975160628557205,0.006827423814684153,-0.00805756263434887,-0.00014541580458171666,-0.0133992163464427,-0.0047191171906888485,-0.0010028245160356164,0.0047397306188941,0.014732967130839825,0.0027175734285265207,0.006570340599864721,-0.0010760287987068295,0.003347508842125535,-0.013795736245810986,-0.00745987705886364,-0.0035128220915794373,-0.001430522883310914,-0.015325106680393219,-0.011912382207810879,-0.007312539964914322,0.015164331533014774,-0.004410765133798122,0.0009354718495160341,-0.009711427614092827,0.0032701860181987286,-0.006804009433835745,-0.009014656767249107,0.0011073437053710222,-0.01418174896389246,-0.013372324407100677,-0.008827530778944492,-0.01449971366673708,-0.012025638483464718,-0.0047499206848442554,0.010094822384417057,0.0036478072870522738,0.002650367096066475,-0.00569960055872798,0.012838605791330338,-0.004011028446257114,-0.013434336520731449,0.0033196061849594116,-0.012513367459177971,-0.005196758080273867,0.00030478922417387366,0.01094483956694603,-0.0006966752116568387,0.00609851349145174,0.015066639520227909,-0.012186369858682156,-0.007678212132304907,-0.003994468599557877,-0.003555937670171261,-0.00349742965772748,0.012335489504039288,0.006050905678421259,0.0025988672859966755,-0.006567043252289295,0.009193127043545246,0.012923916801810265,0.008853979408740997,-0.016759216785430908,0.003309252904728055,-0.015128286555409431,-0.008234521374106407,-0.014805602841079235,0.0018510886002331972,0.004467520397156477,-0.013264717534184456,-0.004644500557333231,-0.002173767425119877,-0.004865494091063738,-0.012845429591834545,-0.0037358650006353855,0.006767738610506058,-0.014492307789623737,-0.014114470221102238,-0.00545666366815567,0.012941660359501839,0.004287749528884888,0.004285828676074743,-0.0057459427043795586,0.0016928878612816334,-0.016615796834230423,0.003124087583273649,0.011891498230397701,0.0030673558358103037,0.011531795375049114,0.006912394426763058,-0.012491310946643353,0.011655946262180805,-0.014648373238742352,0.0006390836788341403,-0.0119051868095994,-0.015672849491238594,-0.0023432071320712566,-0.006431695073843002,-0.0007470800774171948,0.002446400700137019,-0.013900211080908775,-0.012407578527927399,0.0018353508785367012,-0.0045153070241212845,0.007643698249012232,0.005015052855014801,0.011385084129869938,0.006822161842137575,-0.0026401337236166,0.005553261376917362,-0.006472082808613777,-0.005433871876448393,0.009553967043757439,-0.0013220758410170674,0.009870232082903385,0.009868181310594082,0.011302025057375431,0.013613439165055752,-0.0012793533969670534,-0.005144972819834948,0.002665689680725336,-0.003983956761658192,0.003068150021135807,0.006606381852179766,0.006494792178273201,-0.0031246005091816187,-0.010396799072623253,-0.002822437323629856,-0.012039641849696636,0.012137634679675102,-0.004650050774216652,-0.010420611128211021,-0.01464938186109066,0.003640908980742097,0.0024296785704791546,-0.007797641679644585,-0.012843121774494648,-0.0029394684825092554,-0.006327563431113958,0.005306969862431288,0.003421434201300144,-0.0038928340654820204,-0.008518937043845654,0.015412474051117897,-0.0019575657788664103,0.005447392351925373,-0.011649062857031822,-0.0005514324875548482,-0.014817237854003906,0.0004305807233322412,0.01416974887251854,-0.004221594426780939,-0.015045585110783577,-0.01503866259008646,-0.003470012452453375,-0.010502452962100506,-0.014788317494094372,0.007641751319169998,-0.001956063788384199,-0.007418113294988871,0.01217695139348507,-0.01204970944672823,0.014651616103947163,-0.005614668596535921,0.011849606409668922,0.0024552782997488976,0.009229911491274834,0.01458541490137577,-0.00679398188367486,0.014706630259752274,-0.003393199760466814,-0.004370575770735741,-0.006246018223464489,-6.514213600894436e-05,-0.011881421320140362,0.00124513974878937,0.0011746396776288748,0.007858116179704666,0.009311729110777378,-0.003473837859928608,-0.007806804496794939,-0.008737756870687008,-0.010373889468610287,-0.014485230669379234,-0.005994992330670357