0.010103884153068066,0.00218488578684628,-0.0025661971885710955,0.014917333610355854,-0.013811693526804447,-4.01767210860271e-05,-0.01731938309967518,-0.0008115996024571359,-0.015733715146780014,-0.013585763052105904,-0.013893382623791695,0.005034414120018482,0.009091050364077091,0.0029122389387339354,0.016394060105085373,-0.004308346658945084,-0.007673288695514202,0.013084230944514275,-0.010225143283605576,0.016208041459321976,-0.018107319250702858,0.01686062105000019,-0.016665559262037277,0.013666797429323196,0.0013222100678831339,0.017830727621912956,-0.015665922313928604,0.0018457882106304169,0.016625115647912025,0.0005694758729077876,0.004458250943571329,0.006717483978718519,-0.0018767997389659286,0.004361524246633053,0.002700184239074588,0.014209975488483906,-0.01646396517753601,-0.00815507024526596,0.01587691530585289,0.01413722150027752,-0.0016267510363832116,0.004080271814018488,-0.007697532419115305,-0.011076899245381355,-0.0015275946352630854,-0.005394988693296909,0.0030047812033444643,-0.01515832170844078,0.01701219566166401,0.017506249248981476,0.007248068694025278,0.0011920068645849824,-0.006896146573126316,0.011370031163096428,0.007167356554418802,-0.011948165483772755,0.014635139144957066,0.012122426182031631,0.016262583434581757,0.007901562377810478,0.004469564184546471,-0.0029666952323168516,0.015359622426331043,0.01246657595038414,-0.017043525353074074,-0.017482895404100418,-0.004915083292871714,0.010814879089593887,0.017253398895263672,-0.01272003073245287,0.00316436355933547,-0.004730688873678446,0.01689438708126545,0.012356464751064777,0.012225051410496235,-0.0010225166333839297,-0.002940610982477665,-0.008010744117200375,-0.015742652118206024,0.01341874711215496,0.011407054960727692,0.017995601519942284,0.017753034830093384,0.0015124424826353788,0.009733395650982857,0.015770820900797844,0.012087346985936165,-0.009145411662757397,-0.0021716696210205555,-0.013944694772362709,0.015995759516954422,0.003485939698293805,-0.009844794869422913,0.0059908009134233,0.004212559666484594,-0.005098356865346432,-0.013764474540948868,0.006419297773391008,0.0007768068462610245,0.009821373037993908,0.000791855389252305,0.012536128051578999,0.0021184792276471853,0.002376045100390911,0.013578332960605621,-0.0031305463053286076,-0.012941964901983738,-0.01697598397731781,0.00908869318664074,0.004388082772493362,0.007488163188099861,-0.010362706147134304,-0.013004881329834461,-0.01735544763505459,-0.005243499763309956,0.003343172138556838,-0.003863738151267171,-0.00240721320733428,0.014202143996953964,-0.0055312179028987885,0.00036388414446264505,0.010145659558475018,-0.0036262820940464735,0.004415875766426325,0.013228303752839565,0.01631070300936699,-0.012184454128146172,0.015494701452553272,-0.0004732628003694117,-0.008319158107042313,-0.001467972993850708,0.01716417819261551,-0.00013200403191149235,-0.006348091643303633,0.004644680768251419,-0.009254444390535355,-0.015141922049224377,-0.01319107972085476,-0.013166463933885098,-0.012219058349728584,-0.012875714339315891,0.005412166938185692,-0.011156706139445305,-0.005504595581442118,0.013777959160506725,-0.001608019694685936,0.0053787254728376865,-0.012147298082709312,-0.011486970819532871,-0.017070705071091652,-0.011935904622077942,-0.008110501803457737,-0.012078193947672844,-0.014998108148574829,-0.014010166749358177,-0.0017336338059976697,-0.010842048563063145,-0.00525769405066967,-9.706693526823074e-05,0.006550071761012077,-0.016930634155869484,0.010524210520088673,0.004909493029117584,-0.015075313858687878,0.013189638033509254,0.015437525697052479,-0.015865091234445572,-0.008160174824297428,0.011135002598166466,0.008829226717352867,-0.011538849212229252,-0.010765807703137398,-0.005185248795896769,-0.0011467727599665523,0.004160052165389061,-0.005004401318728924,-0.0018415919039398432,0.009035506285727024,-0.016819607466459274,-0.009481776505708694,0.0074002607725560665,0.013998324051499367,0.0002634665579535067,0.0008530826889909804,-0.01438581757247448,-0.002048877067863941,0.0008966539171524346,-0.009431343525648117,-0.008466922678053379,-0.004606251604855061,-0.017380166798830032,-0.006416600197553635,-0.01055884175002575,-0.006278959568589926,-0.013657240197062492,0.013916928321123123,0.003400583751499653,0.006463566794991493,0.010480263270437717,-0.00024758779909461737,-0.015210450626909733,0.0015201857313513756,0.003143054200336337,0.00867694802582264,-0.0021507132332772017,-0.013262506574392319,-0.007798185106366873,-0.005015416070818901,0.004977687727659941,0.002163755940273404,-0.005100489594042301,0.017393385991454124,0.0034983917139470577,-0.009347421117126942,-0.014479031786322594,-0.01291238609701395,-0.009293286129832268,-0.012442816980183125,-0.011200067587196827,-0.007776984013617039,-0.011657923460006714,0.01456321869045496,-0.015001463703811169,0.0011815900215879083,-0.0029760205652564764,0.01734856702387333,-0.014016767963767052,-0.0036926469765603542,0.0168134905397892,0.013104664161801338,0.011422066949307919,-0.0088348388671875,-0.011880720965564251,0.006068498361855745,0.015272734686732292,0.0019660654943436384,0.0026559734251350164,-0.008130012080073357,0.00959859974682331,-0.01126613188534975,-0.006462047807872295,-0.0027942683082073927,0.00012791386689059436,-0.009659395553171635,-0.014159830287098885,0.003856923431158066,-0.007901874370872974,0.0028258718084543943,-0.012531652115285397,-0.0008111868519335985,0.0011549306800588965,-0.016220785677433014,-0.005656503606587648,-0.013128955848515034,-0.01580488122999668,0.01770004816353321,-0.006439011078327894,0.011191480793058872,-0.009014860726892948,0.006316834129393101,0.009271244518458843,0.0033610197715461254,-0.0011259426828473806,-0.003144505200907588,-0.005462386645376682,0.015551489777863026,0.01203941460698843,0.016816258430480957,-0.013433324173092842,0.00832246895879507,0.01580849289894104,-0.011429168283939362,-0.015550749376416206,0.008686080574989319,0.002707098610699177,0.01235908642411232,-0.012986969202756882,0.010647215880453587,-0.010686133988201618,-0.011626462452113628,-0.011937832459807396,0.01108900923281908,0.006525625940412283,0.0009488708456046879,-0.005245499312877655,0.013947826810181141,-0.003830602392554283,0.011346152052283287,-0.001960317837074399,-0.004515510983765125,-0.0016996868653222919,-0.006927507929503918,0.008835550397634506,-0.0001928644924191758,-0.009458932094275951,0.014247575774788857,-0.0045122248120605946,0.0015650966670364141,0.01473458856344223,0.00449504004791379,-0.01364383939653635,0.015956688672304153,0.004589513409882784,-0.005749102681875229,-0.012972158379852772,0.010445485822856426,0.004555524326860905,0.0014827363193035126,0.014302050694823265,0.01080277282744646,-0.012286657467484474,-0.0067218029871582985,-0.008560900576412678,0.00904472079128027,-0.016846392303705215,0.002231624675914645,0.00903061032295227,0.013079287484288216,-0.005774595774710178,0.011337118223309517,-0.014457812532782555,0.012530872598290443,-0.013587632216513157,-0.004184362478554249,0.010579382069408894,-0.013056216761469841,-0.010097464546561241,0.007801005616784096,0.00760065158829093,0.004828029312193394,0.006773616187274456,0.0013223832938820124,-0.00918434839695692,-0.005591247230768204,-0.011830772273242474,0.014140360988676548,0.003039401490241289,-0.0038249455392360687,-0.0017319147009402514,0.016156144440174103,-0.012672312557697296,0.0026625965256243944,-4.9142410716740415e-05,0.0035038322675973177,-0.017944740131497383,0.01324226800352335,0.015184516087174416,0.0018859051633626223,0.007139577995985746,0.015051650814712048,0.006978864315897226,-0.01268146000802517,0.0022659057285636663,0.0033611785620450974,-0.0029423346277326345,0.008038220927119255,0.015282368287444115,0.015115141868591309,-0.0021738866344094276,-0.014227521605789661,0.0170455165207386,0.011722815223038197,-0.013800033368170261,0.014742082916200161,0.01301348116248846,0.00038929173024371266,0.0030423752032220364,-0.00388046121224761,-0.01643253304064274,-0.00606050668284297,0.010562927462160587,-0.018262086436152458,-0.005968416575342417,-0.003801113460212946,0.001032990519888699,0.01531711220741272,-0.00553973950445652,-0.005897775758057833,0.008609608747065067,-0.0016375044360756874,-0.009714889340102673,-0.0016949557466432452,-0.01284969225525856,-0.011561475694179535,-0.0001672016951488331,-0.003080642083659768,0.014758292585611343,-0.005061725620180368,0.002736430848017335,0.0046370141208171844,-0.017752045765519142,0.005712933838367462,-0.011675468645989895,0.016419053077697754,-0.012741167098283768,-0.0031071032863110304,-0.014999303966760635,0.017928533256053925,0.00019863057241309434,0.0034183815587311983,-0.01550144050270319,0.009067181497812271,-0.010422944091260433,0.014397785067558289,-0.010572494007647038,-0.011135815642774105,-0.016866328194737434,-0.0011715671280398965,0.0021468426566570997,-0.01593570038676262,0.00973354373127222,-0.001916431705467403,0.0005557860131375492,-0.0024167229421436787,-0.003895512782037258,0.0018511781236156821,-0.012523164972662926,-0.011672346852719784,0.012892303988337517,0.015952719375491142,-0.004693632945418358,-0.008405315689742565,0.0049156011082232,-0.0030427209567278624,-0.01700981706380844,-0.012557845562696457,0.00810721330344677,0.005861104000359774,-0.017087796702980995,-0.009630473330616951,-0.009566382504999638,0.006128688808530569,-0.017591217532753944,-0.014679976738989353,0.010337772779166698,-0.011710559017956257,0.005276416428387165,-0.009828404523432255,-0.01446471456438303,-0.009469782933592796,0.0075782411731779575,0.012692130170762539,0.0119038550183177,-0.003467877395451069,0.006064807064831257,-0.010377013124525547,-0.0071448758244514465,0.014355714432895184,-0.017356272786855698,-0.0147935152053833,-0.009850895963609219,-0.01658092997968197,-0.011099157854914665,0.0032786184456199408,-0.0026535068172961473,0.014086727052927017,0.011054698377847672,-0.006219500210136175,-0.009261101484298706,-0.004014953970909119,0.0033769032452255487,-0.008238909766077995,0.00435270369052887,-0.003622857853770256,0.0015282523818314075,-0.003127261996269226,-0.008284968324005604,0.015446875244379044,0.01000493299216032,-0.01267959550023079,0.01342804729938507,-0.00039266544627025723,0.014143724925816059,0.010833845473825932,-0.0030894007068127394,-0.017597025260329247,-0.00846668891608715,0.0015212538419291377,0.0048070866614580154,-0.008796321228146553,-0.01260846946388483,0.012488575652241707,0.017840219661593437,0.0015444630989804864,-0.011157267726957798,-0.007563762366771698,-0.016772884875535965,0.015202575363218784,-0.013569856062531471,0.0028594504110515118,-0.008197532966732979,0.00180551887024194,0.00516094034537673,0.011445499956607819,-0.010868947021663189,-0.017650118097662926,-0.013068693690001965,0.014397924765944481,0.013505207374691963,0.0035955708008259535,0.003770517185330391,0.006225802469998598,-0.011362784542143345,0.015252799727022648,-0.0022690745536237955,-0.003911270759999752,0.0006891399389132857,-0.01586245931684971,-0.011857524514198303,0.00845365971326828,-0.01513581071048975,0.0033247515093535185,-0.00967355351895094,-0.00394108472391963,-0.0076764835976064205,-0.005346548743546009,0.008032056502997875,-0.007135821972042322,0.002727193757891655,-0.0008109426707960665,0.006047499366104603,0.016267679631710052,0.008827337995171547,-0.009944356977939606,-0.016737075522542,-0.00840187817811966,0.003391054691746831,-0.016503464430570602,-0.0003403348964639008,0.003117786953225732,-0.006470796652138233,0.009719434194266796,-0.014333768747746944,-0.01566915400326252,0.008560027927160263,-4.723576421383768e-05,0.006814766209572554,-0.0020142123103141785,-0.008885295130312443,0.011752291582524776,0.010986204259097576,0.007225661538541317,-0.007841380313038826,0.002743224846199155,-0.0053666760213673115,-0.014822598546743393,0.014284714125096798,-0.013710633851587772,0.015924520790576935,-0.0014865181874483824,-0.01106858067214489,0.0015818772371858358,0.014050948433578014,0.008660915307700634,0.010943605564534664,0.006239672191441059,0.007044050842523575,0.012323305010795593,-0.008665506727993488,-0.0001572177861817181,-0.010058067739009857,0.01822587475180626,0.016492772847414017,-0.016428878530859947,0.008310088887810707,0.01605132780969143,-0.011006046086549759,0.0027961439918726683,0.015191820450127125,-0.016500199213624,0.006632618606090546,-0.00768011761829257,0.014931035228073597,0.01622472144663334,0.015333680436015129,-0.0013798156287521124,0.013406079262495041,0.012522443197667599,-0.006558108143508434,0.011976774781942368,-0.016674283891916275,0.003203056054189801,-0.010090773925185204,-0.014130796305835247,-0.015750758349895477,0.007301846519112587,-0.005634015891700983,0.008177977055311203,-0.01578735187649727,-0.006947006098926067,0.0009552669944241643,0.01037512719631195,-0.006697845179587603,0.004210588522255421,0.014275631867349148,0.004324481822550297,-0.009557206183671951,-0.017234791070222855,0.01311580277979374,-0.017292654141783714,0.01308085024356842,0.0006041697924956679,0.015723934397101402,0.0105818510055542,0.017753487452864647,-0.005573340691626072,0.009444847702980042,-0.003645586082711816,-0.0007773110410198569,0.004353884607553482,0.013388645835220814,0.01750667206943035,0.010025628842413425,-0.0028161269146949053,-0.002850409597158432,0.008763732388615608,-0.009364116005599499,-0.01421736553311348,-0.005430107936263084,-0.007951594889163971,-0.0076525225304067135,-0.009198098443448544,-0.016420630738139153,-0.0174848735332489,0.017783015966415405,-0.0024336595088243484,-0.004059799015522003,0.006601988337934017,-0.010133808478713036,0.016285385936498642,0.010348997078835964,-0.014720537699759007,-0.002832743339240551,0.01384914480149746,0.016187375411391258,-0.001040361588820815,0.00448016170412302,-0.011658363975584507,0.018060525879263878,-0.009573513641953468,0.015984542667865753,0.0053292508237063885,0.004082672763615847,0.0004762536846101284,-0.009858359582722187,-0.011317485943436623,-0.009874075651168823,-0.011147444136440754,0.010277003049850464,-0.005319903139024973,-0.015843402594327927,0.016338810324668884,0.013164079748094082,0.014940720982849598,0.016750730574131012,-0.012770084664225578,-0.004521140828728676,0.00948531273752451,0.007047057151794434,-0.012598167173564434,0.011243044398725033,-0.010145580396056175,-0.010178129188716412,0.0010483106598258018,0.0032462524250149727,0.002923959866166115,-0.014413807541131973,0.013799422420561314,-0.008154807612299919,-0.013920743018388748,0.013577671721577644,0.016093047335743904,0.012323995120823383,0.010544178076088428,0.005192846525460482,0.0018256239127367735,-0.014908581040799618,-0.003315504640340805,-0.0045551094226539135,-0.008620554581284523,0.008005158975720406,4.823559720534831e-06,-0.015043512918055058,-0.010080798529088497,0.0069504110142588615,-0.015021517872810364,0.01266077533364296,0.0005564565071836114,-8.221108873840421e-05,0.003649266669526696,0.012635878287255764,-0.00465788971632719,0.0070886979810893536,0.0024053421802818775,-0.008364928886294365,0.01361091062426567,0.010566343553364277,0.00547756114974618,0.012450606562197208,0.013355282135307789,0.007616850547492504,0.012295684777200222,0.006891313008964062,0.006252344232052565,0.003983907401561737,0.008742638863623142,-0.0127786286175251,0.013221150264143944,0.013283878564834595,-0.016988128423690796,0.01171503309160471,-0.01365608163177967,-0.006203645374625921,0.008553754538297653,-0.012886632233858109,0.010886101983487606,0.011690104380249977,-0.00022425527276936918,-0.017995424568653107,-0.0076035866513848305,0.004124597180634737,0.01728813722729683,0.004732757806777954,-0.008671579882502556,0.004837523680180311,0.0014659700682386756,0.010104485787451267,-0.014117280021309853,0.009429904632270336,0.002058655023574829,0.016933243721723557,-0.005595004186034203,0.00478667626157403,0.015337719582021236,-0.014817745424807072,0.015080953948199749,0.005939704831689596,-0.01648448407649994,-0.006549089681357145,0.00784259382635355,-0.015466711483895779,0.003509090282022953,-0.005300461780279875,0.00423829210922122,-0.016113603487610817,0.013280167244374752,0.016795439645648003,0.017358142882585526,0.009270291775465012,-0.013384128920733929,0.01017609890550375,-0.016487104818224907,-0.017055150121450424,-0.00540904002264142,0.00029526319121941924,0.010072583332657814,0.0073182848282158375,-0.001438524341210723,-0.00803028792142868,0.018662869930267334,-0.00221641780808568,-0.0016634089406579733,-0.01192352082580328,0.01053385529667139,0.00664560915902257,-0.009840128943324089,-0.015010898932814598,0.006396706681698561,0.005522458348423243,-0.008272823877632618,0.016344629228115082,-0.012847116217017174,-0.002703767502680421,0.015916647389531136,-0.0028668823651969433,0.004991029389202595,-0.0035695612896233797,-0.008912582881748676,0.016794146969914436,-0.003527606138959527,0.013003064319491386,-0.010578115470707417,-0.010661894455552101,-0.016365496441721916,0.005616051144897938,-0.004833418410271406,0.013477678410708904,-0.0009287127177231014,0.016640421003103256,-0.011267890222370625,0.013163525611162186,0.009848625399172306,0.01039991807192564,0.012702522799372673,0.009381616488099098,0.00502034043893218,-0.013002632185816765,-0.01674320362508297,0.015134395100176334,0.004093506373465061,0.010701906867325306,-0.000558150582946837,-0.013683907687664032,-0.013545986264944077,0.0069995359517633915,-0.002199301030486822,-0.010457622818648815,-0.0002928749308921397,-0.01556381955742836,0.0032650623470544815,-0.008576590567827225,0.010491264052689075,-0.006918034981936216,-0.002033133991062641,-0.01777045428752899,-0.01540316827595234,-0.004179326817393303,-0.0008605766925029457,0.003748592222109437,-0.006944061256945133,0.00728448573499918,0.013042319566011429,0.010162383317947388,-0.01669486053287983,-0.0008800224168226123,-0.014475035481154919,-0.009596657007932663,0.017305605113506317,-0.013020905666053295,-0.00016371226229239255,0.004100584425032139,0.007083673495799303,0.002144379774108529,-0.017617667093873024,-0.0059967259876430035,0.0010285713942721486,-0.01439550332725048,-0.005398290231823921,-0.016832493245601654,-0.01515154168009758,-0.003673671977594495,-0.013200108893215656,0.0023719132877886295,0.006924955174326897,0.010818603448569775,-0.010802481323480606,-0.012127860449254513,-0.014384433627128601,0.0048380508087575436,0.0071738059632480145,-0.016976868733763695,0.0157012976706028,-0.016226431354880333,0.001477261888794601,0.00760133471339941,0.013254174031317234,0.0075555783696472645,0.010655912570655346,-0.005619614850729704,0.01156302634626627,-0.014907976612448692,0.014657068066298962,0.002156462986022234,0.011915933340787888,-0.0019622971303761005,0.0050557381473481655,0.000862539978697896,0.007932483218610287,-0.015211381018161774,-0.015661440789699554,-0.009096016176044941,-0.011951384134590626,0.013902182690799236,-0.009468565694987774,0.0175524540245533,-0.005726163275539875,-0.010993503034114838,0.010517008602619171,0.005514690186828375,-2.7789854357251897e-05,0.0018259916687384248,0.007644261699169874,-0.009532568044960499,0.017962517216801643,0.01712620258331299,0.00523510342463851,-0.011041832156479359,0.006427731364965439,-0.01577996276319027,-0.0171210914850235,-0.008643793873488903,-0.0016303244046866894,0.012991160154342651,0.008011518977582455,0.00810430757701397,-0.003162710228934884,-0.005758029408752918,-0.004975066054612398,0.017520304769277573,-0.01638217456638813,0.013629996217787266,0.002979076001793146,-0.002060291124507785,0.00846710242331028,-0.00021254605962894857,0.01366804726421833,0.014899378642439842,-0.002371669514104724,-0.007596367504447699,0.0037868137005716562,0.01488227117806673,-0.010898836888372898,0.004794037435203791,0.004806591663509607,0.00792639795690775,-0.012896490283310413,0.007943712174892426,0.014424203895032406,-0.01101607084274292,-0.009344198741018772,0.016604440286755562,-0.010834558866918087,0.012944248504936695,-0.0005608195206150413,-0.008312447927892208,0.013573289848864079,-0.0021638902835547924,0.0005109222256578505,-0.005376266781240702,0.0030585594940930605,-0.012089942581951618,-0.004095668438822031,0.0166243277490139,-0.008907819166779518,0.005260001868009567,-0.006662948988378048,0.01041005551815033,-0.013218635693192482,0.016439730301499367,-0.0009572681155987084,-0.009259521029889584,-0.015630679205060005,-0.011129729449748993,0.0009901938028633595,-0.0058868080377578735,0.011569829657673836,-0.0027710897848010063,-0.009238481521606445,0.004011979792267084,0.007299465127289295,-0.012089856900274754,-0.012084346264600754,-0.016762912273406982,0.008477588184177876,0.006741724908351898,-0.00045762991067022085,0.012574014253914356,0.011928939260542393,0.003641814459115267,0.013471965678036213,-0.009783197194337845,-0.013486700132489204,-0.008249782957136631,-0.01597287878394127,0.0008412049501203001,0.015095255337655544,-0.0164909940212965,-0.01383201964199543,-0.0022395416162908077,0.01582024246454239,-0.0069924937561154366,-0.00033461861312389374,-0.016194241121411324,-0.012342282570898533,0.017818469554185867,0.01723235473036766,-0.01728426106274128,0.0165807344019413,0.005751816090196371,0.013970477506518364,-0.0012699976796284318,0.0007140037487260997,-0.0005405205301940441,0.0055481609888374805,-0.012733792886137962,-0.017056547105312347,-0.007280679419636726,0.007452229503542185,-0.011018211953341961,0.005760900676250458,0.016959862783551216,-0.014619728550314903,0.00622596824541688,-0.0017345902742817998,0.013427965342998505,-0.011597135104238987,0.0076260496862232685,0.012403306551277637,0.0160432830452919,0.0073109036311507225,0.00034757659886963665,0.004150570835918188,0.0140108373016119,0.0030027597676962614,-0.016910500824451447,0.016268203034996986,0.007338805124163628,0.006505879107862711,-0.010170764289796352,0.005932419560849667,-0.003574434434995055,0.005873379297554493,-0.013661001808941364,0.006029302254319191,0.018473997712135315,-0.01582501269876957,0.01752675324678421,-0.0032026057597249746,0.013307199813425541,0.010264626704156399,0.002737269038334489,0.00881424080580473,0.013762669637799263,-0.0028128079138696194,-0.005832981783896685,0.006325982976704836,0.011616963893175125,0.009454243816435337,0.010457718744874,-0.0018433780642226338,0.011516354978084564,-0.013817314058542252,0.0019942380022257566,-0.017571493983268738,-0.006379811558872461,-0.004224236588925123,-0.0031436504796147346,0.0075361840426921844,-0.0032772745471447706,-0.00110244145616889,-0.008805511519312859,-0.0037093532737344503,-0.00903566088527441,-0.01472381316125393,0.0036746119149029255,0.0056829010136425495,0.003539581783115864,-0.0011279425816610456,-0.004552687518298626,0.012474151328206062,0.0011445455020293593,-0.000842881912831217,-0.017537038773298264,-0.0056608435697853565,-0.004274838604032993,-0.0034570342395454645,0.0029967252630740404,0.0012449304340407252,0.0038989626336842775,0.009672197513282299,0.01122999656945467,0.007673909887671471,0.016893070191144943,-0.01739516668021679,-0.011338633485138416,-0.01724030077457428,0.005373496562242508,0.014036706648766994,-0.008804913610219955,0.015460629016160965,-0.01604072004556656,0.01628158614039421,-0.0050565204583108425,-0.014480850659310818,0.0002325100649613887,-0.008444646373391151,-0.007850744761526585,-0.006097064819186926,0.011175394989550114,0.00130399817135185,-0.006947055459022522,0.003839378710836172,0.007636432070285082,-0.008307390846312046,-0.0031245462596416473,-0.013687028549611568,-0.011476104147732258,0.006539393216371536,-0.011517384089529514,0.0009624015656299889,0.007623461540788412,-0.013978861272335052,0.002579288324341178,-0.008442814461886883,0.016927162185311317,-0.00033169955713674426,0.011353055015206337,0.00203101453371346,-0.01616615615785122,0.004835739266127348,0.01581845059990883,0.003982492256909609,0.01148456521332264,0.013455542735755444,-0.009244113229215145,-0.010186980478465557,0.0038417179603129625,-0.002828204771503806,0.012126977555453777,0.013830061070621014,-0.004766401369124651,-0.009446010924875736,0.009693059138953686,-0.007543619256466627,0.011652459390461445,-0.0030477051623165607,0.006063926499336958,-0.014704485423862934,0.00435952702537179,-0.0015027628978714347,0.003253847360610962,-0.011931599117815495,0.009059772826731205,0.01340697892010212,-0.009881505742669106,-0.014612242579460144,-0.017137864604592323,0.005213718395680189,0.00377837847918272,0.0017339964397251606,-0.009544757194817066,-0.0038941320963203907,0.0034936917945742607,4.85872442368418e-05,0.01749606989324093,-0.013135010376572609,0.007136879023164511,-0.0032376153394579887,-0.002322347601875663,0.008090449497103691,0.007135326042771339,0.017757806926965714,-0.013274102471768856,-0.01457170955836773,0.007902194745838642,0.0026539848186075687,-0.008253786712884903,-0.015116434544324875,-0.014884860254824162,0.014287668280303478,-0.011032040230929852,-0.0063079060055315495,-0.00988494511693716,-0.005385905969887972,-0.015611205250024796,0.0008435232448391616,-0.015521555207669735,0.01086377538740635,-0.009311826899647713,0.0016819232841953635,0.013778752647340298,0.005277602002024651,0.001015581307001412,-0.0066091138869524,-0.006023311521857977,0.00599241815507412,0.017558641731739044,0.005984047427773476,0.0021155730355530977,0.008243166841566563,-0.0013186204014346004,-0.015851974487304688,0.0022926030214875937,0.016375895589590073,-0.011744041927158833,0.006856867577880621,-0.010897815227508545,0.0012370154727250338,-0.014524395577609539,-0.0010431782575324178,0.009618420153856277,-0.0053619216196238995,0.006538636051118374,0.010984317399561405,0.015455768443644047,-0.008914966136217117,-0.0031500435434281826,-0.012384871020913124,0.018526922911405563,0.015709668397903442,0.0015198019100353122,0.013248467817902565,0.0012897507986053824,0.004688459448516369,-0.0138740548864007,0.00973275862634182,-0.013247659429907799,0.012039932422339916,0.010507700964808464,0.007728561293333769,-0.016152111813426018,-0.006569779012352228,-0.008174334652721882,-0.004437751602381468,-0.014469688758254051,0.01598774828016758,0.002629260066896677,-0.006492214743047953,-0.0034974077716469765,-0.0011258722515776753,0.004183077719062567,0.0008271869155578315,0.015599011443555355,0.00024890105123631656,0.017902741208672523,0.012725328095257282,-0.010747226886451244,0.014810487627983093,-0.013466905802488327,0.011275912635028362,-0.004924075212329626,0.013994378037750721,0.013050065375864506,0.010436107404530048,0.010300840251147747,-0.0075120883993804455,-0.01565929688513279,-0.0035875083412975073,-0.012145218439400196,0.006604846566915512,-0.005535471253097057,0.016859492287039757,0.004781901836395264,0.01229570247232914,-0.012911004945635796,0.013062534853816032,0.015958935022354126,-4.230356717016548e-05,0.0038672254886478186,0.010427919216454029,-0.011173847131431103,0.0001635367952985689,-0.003140909131616354,-0.012482828460633755,-0.004816227126866579,-0.014891154132783413,-0.016734279692173004,-0.013232334516942501,0.017421066761016846,0.002073409501463175,0.01662610098719597,-0.002470459323376417,-0.007242782507091761,-0.0004233731597196311,-0.002202766016125679,-0.01461529266089201,0.004494344349950552,-0.010423158295452595,0.0037283829879015684,0.004862076137214899,-0.01252424344420433,-0.01584109663963318,0.01000555045902729,-0.0013603768311440945,-0.016000205650925636,0.01766575500369072,-0.015774449333548546,0.0067879981361329556,0.017239395529031754,-0.008925913833081722,-0.012760809622704983,-0.013949025422334671,-0.0063276286236941814,-0.014024733565747738,0.006809275597333908,-0.014824561774730682,0.0007352751563303173,0.017871975898742676,0.011164078488945961,0.003941719885915518,-0.007141700014472008,0.004548904486000538,0.0009243294480256736,-0.0026077500078827143,-0.013137102127075195,0.013855705969035625,-0.0017427799757570028,-0.01106587890535593,-0.004776590038090944,-0.003055580658838153,0.011678325943648815,0.008416500873863697,0.009735864587128162,-0.017618725076317787,-0.0029667257331311703,-0.0006005690083838999,-0.017435260117053986,-0.008730314671993256,0.009224595502018929,-0.013168185018002987,0.001165969530120492,-0.010312291793525219,-0.01767306588590145,-0.0094526382163167,0.017144128680229187,0.011016342788934708,0.01648862287402153,-0.000395875220419839,-0.013747567310929298,0.0018143127672374249,-0.0016034726286306977,0.012495052069425583,-0.014518712647259235,-0.000509979494381696,-0.012842389754951,-0.006630001589655876,0.008219786919653416,-0.0008519358816556633,-0.004697820637375116,-0.004076216369867325,-0.0013877478195354342,0.009957874193787575,0.013822643086314201,0.016836877912282944,0.010410832241177559,-0.00693525793030858,0.007390459533780813,-0.0018970336532220244,-0.008806699886918068,0.012964812107384205,-0.016110949218273163,0.014532353729009628,-0.0016483183717355132,0.004267154261469841,0.004660344682633877,0.014246233738958836,0.004477314185351133,0.003248885739594698,-0.015369158238172531,0.00033745713881216943,-0.013245434500277042,0.00816702377051115,0.00015803602582309395,0.006178464740514755,-0.016664499416947365,-0.015162903815507889,0.0076482295989990234,-0.015343286097049713,-0.015485100448131561,-0.017457686364650726,0.01632276549935341,0.008803208358585835,-0.005082680378109217,-0.007803699001669884,-0.005530414637178183,0.009875868447124958,0.005153149366378784,-0.011540763080120087,-0.011806688271462917,-0.014350973069667816,0.0056203072890639305,0.009275098331272602,-0.008740479126572609,-0.017619634047150612,-0.015292858704924583,0.01638626493513584,-0.0076348017901182175,0.009657780639827251,0.004516489338129759,-0.004122388549149036,-0.010455830954015255,-0.013665826059877872,0.004268370568752289,0.010014195926487446,0.005073300562798977,0.0011602174490690231,-0.016402432695031166,0.016681168228387833,0.010370239615440369,-0.0075883399695158005,0.017190923914313316,0.003423761809244752,0.002935739466920495,0.008782770484685898,0.01100471243262291,0.005583105143159628,-0.013370123691856861,-0.0057256389409303665,0.015465193428099155,-0.010014780797064304,-0.004574053455144167,-0.002502729883417487,-0.0023707367945462465,0.004029708914458752,0.015942838042974472,-0.009153015911579132,-0.0135377561673522,-0.010844320058822632,0.01418007630854845,0.0053863427601754665,-0.007646656129509211,0.011599911376833916,0.013119489885866642,0.01246255449950695,0.014937888830900192,-0.009161371737718582,0.008922433480620384,-0.001979899127036333,0.01179336104542017,0.00795647595077753,0.009032350964844227,0.004952952731400728,-0.011841817758977413,0.0016222753329202533,0.01761052757501602,0.016124466434121132,-0.01617388427257538,-0.011691399849951267,-0.012842751108109951,0.008495011366903782,0.011871146969497204,-0.010058757849037647,5.951666025794111e-05,0.012449192814528942,0.008604885078966618,0.0011969648767262697,0.003375654574483633,0.0005485605797730386,-0.007574257906526327,0.0024975419510155916,0.007026549428701401,0.013716599904000759,0.00490577332675457,0.00923516508191824,-0.011908506974577904,-0.0014146744506433606,-0.017872091382741928,-0.008982805535197258,0.007911475375294685,0.017468158155679703,-0.014813696965575218,-0.0033471710048615932,0.01137852855026722,-0.01090468280017376,0.002412320813164115,0.009082620963454247,0.004257614258676767,-0.010545211844146252,-0.004537742119282484,0.01043642871081829,0.002350566675886512,-0.017747456207871437,0.009483742527663708,-0.01654275692999363,0.008718901313841343,-0.010937297716736794,0.01633480004966259,-0.005034818779677153,-0.006095374934375286,-0.012203165329992771,-0.006691537797451019,0.01394254993647337,0.018309783190488815,-0.004583087749779224,-0.00154372479300946,0.008177866227924824,0.01376678142696619,0.002668221713975072,-0.004003352019935846,-0.0027481152210384607,0.0062997047789394855,-0.017939645797014236,0.004751549568027258,-0.005694319494068623,0.010864831507205963,-0.014139578677713871,0.0029528497252613306,-0.001143923494964838,0.004732828587293625,-0.01634608395397663,0.002096687676385045,0.0018243551021441817,0.0012169721303507686,0.0029153297655284405,0.006147440057247877,0.010673535987734795,-0.008033697493374348,0.012089427560567856,-0.0003016798000317067,-0.015017629601061344,-0.015685752034187317,-0.006037142127752304,0.010428753681480885,0.007586857303977013,0.010578159242868423,0.0008081524865701795,-0.001979758031666279,-0.012434042058885098,-0.0058929272927343845,-0.0021790333557873964,-0.014490300789475441,-0.009660579264163971,0.0038007020484656096,0.008082292042672634,0.01769300550222397,0.01574508659541607,0.004783278331160545,-0.0029632484074681997,0.005173471290618181,0.010070942342281342,-0.013690936379134655,-0.002987793879583478,0.012028372846543789,-0.004594738595187664,0.002188612474128604,0.0025660255923867226,-0.011999114416539669,-0.00531148724257946,-0.006789692211896181,-0.017684992402791977,-0.01735796220600605,0.011846055276691914,-0.008020897395908833,0.0008779509225860238,-0.00724424421787262,0.01601223833858967,-0.008528144098818302,-0.0025966267567127943,0.013522042892873287,0.012415065430104733,-0.011110694147646427,0.011082866229116917,-0.0014017638750374317,-0.00025863933842629194,-0.01294395700097084,-0.014982587657868862,0.00864661205559969,0.00018102866306435317,-0.0022051858250051737,0.008360502310097218,0.009817714802920818,-0.01210674550384283,0.0042246556840837,-0.012912721373140812,0.009123452939093113,0.0059494683519005775,0.016672689467668533,-0.015563123859465122,-0.01579989865422249,-0.007844447158277035,-0.008683915250003338,-0.009354758076369762,0.014506478793919086,-0.009060732088983059,-0.008496369235217571,0.009308465756475925,-0.0015759379602968693,0.009774342179298401,-0.015760255977511406,-0.0005379620706662536,-0.017085233703255653,-0.015948230400681496,0.014505431987345219,-0.013235604390501976,0.000973053160123527,-0.0032516487408429384,-0.006037005688995123,0.014352980069816113,-0.01691342331469059,0.0052619753405451775,0.01663854904472828,0.0025163348764181137,0.015331543982028961,-0.01587473414838314,-0.0024982779286801815,-0.008630468510091305,0.008422881364822388,0.01751132868230343,-0.008668085560202599,0.005705408751964569,-0.010702637024223804,0.00249495985917747,-0.001101518515497446,0.017147157341241837,0.0038287064526230097,-0.0051481593400239944,-0.01352971512824297,-0.012343795970082283,-0.009544653818011284,-0.008716566488146782,0.012833036482334137,0.00237797643058002,0.00079060293501243,-0.013697773218154907,0.013341538608074188,0.008399290964007378,-0.015136279165744781,0.007994596846401691,0.0019043287029489875,-0.014373339712619781,-0.0009418181725777686,-0.00029509729938581586,-0.012245667167007923,0.015635238960385323,0.012415002100169659,0.005756919737905264,-0.0017516226507723331,-0.0032635179813951254,0.0052606635726988316,0.0014343586517497897,-0.015633201226592064,0.0003469779039733112,0.010873891413211823,-0.0013347710482776165,-0.016124125570058823,0.010324586182832718,-0.010593442246317863,-0.008426645770668983,-0.011825424619019032,-0.005887341219931841,0.009337671101093292,0.0007510099676437676,-0.010598250664770603,0.01371464692056179,0.013733415864408016,0.013387685641646385,-0.009306135587394238,-0.0016929276753216982,0.017511339858174324,0.009723138064146042,-0.01713660918176174,-0.015880290418863297,-0.0018948917277157307,0.014207019470632076,0.0011026860447600484,-0.0009082044707611203,-0.014783929102122784,0.00553407846018672,0.011438999325037003,-0.004342705477029085,0.009884340688586235,0.016284938901662827,-0.01097399927675724,0.0006994770956225693,-0.008328038267791271,0.010115033946931362,0.002659875201061368,0.005076240748167038,0.011252222582697868,-0.003466523252427578,0.015291858464479446,0.0015881479484960437,-0.012226385995745659,0.007122569717466831,0.010511099360883236,-0.006902828346937895,0.0131619768217206,0.015068894252181053,-0.007935653440654278,0.01740219071507454,-0.012896380387246609,-0.010939517058432102,-0.011841053143143654,0.01376026589423418,0.005106357391923666,-0.012357265688478947,-0.0020772994030267,0.004172030836343765,-0.0149376867339015,0.013825631700456142,0.010917854495346546,0.00014120018749963492,0.01677904650568962,-0.0029797519091516733,0.017049094662070274,0.005633044987916946,0.004878569860011339,-0.012547945603728294,0.013391970656812191,-0.0024768617004156113,-0.012371610850095749,-0.017489733174443245,0.0025793297681957483,0.0007168438169173896,0.007789841387420893,0.014096188358962536,-0.015511664561927319,0.008166518062353134,-0.011230157688260078,0.012465829029679298,0.011353660374879837,0.0015298494836315513,0.007445738650858402,-0.0066562616266310215,-0.0009360744734294713,0.01143735833466053,-0.0014447163557633758,-0.004983523860573769,-0.00042015951476059854,0.011847619898617268,-0.005822524428367615,-0.011825117282569408,0.0074124825187027454,0.011747841723263264,-0.014601476490497589,-0.009642353281378746,-0.012882663868367672,-0.005908752791583538,-0.0021187006495893,0.00902696792036295,0.005107205826789141,0.004446354229003191,-0.004886642564088106,0.012238336727023125,-0.0007203893037512898,0.017668405547738075,0.005071417894214392,-0.01300824899226427,0.006658153608441353,-0.006504090037196875,0.006771094631403685,-0.015319706872105598,-0.01199700403958559,0.012817909009754658,-0.009703957475721836,0.011843148618936539,-0.007993443869054317,0.005222339183092117,0.006766469217836857,0.00025161224766634405,-0.006978052668273449,-0.010476929135620594,-0.01692810282111168,-0.0070631843991577625,0.00559376971796155,0.015748759731650352,0.013324137777090073,0.009656403213739395,0.010538110509514809,0.006130418740212917,-0.008441958576440811,0.014864573255181313,0.006348671857267618,0.002422821708023548,-0.013742142356932163,-0.001729954150505364,-0.0013387080980464816,0.013272344134747982,0.001794499927200377,-0.004156511276960373,0.017329808324575424,-0.01394146028906107,-0.0025748740881681442,-0.01636316254734993,0.00869006384164095,0.01472904346883297,-0.008411131799221039,0.012705312110483646,-0.007739900145679712,0.014446064829826355,0.009070215746760368,0.010702572762966156,-0.017631541937589645,0.01664409413933754,0.00786286685615778,-0.007121111266314983,0.012114666402339935,-0.007907453924417496,0.013577502220869064,-0.013690279796719551,0.007573794107884169,0.0017302237683907151,-0.01434909924864769,-0.009127339348196983,-0.017551761120557785,-0.0013328619534149766,-0.007271822076290846,0.0033283624798059464,-0.007529217749834061,-0.0075387973338365555,0.008423760533332825,-0.016423029825091362,0.014573397114872932,0.012630946934223175,0.005933817476034164,0.003373432205989957,0.01411181315779686,-0.011345447972416878,-0.01507848035544157,-0.009275299496948719,0.010757890529930592,-0.01683015748858452,0.003082430688664317,0.018066832795739174,0.012870611622929573,0.001002435339614749,-0.01550047006458044,0.012247812934219837,0.003910601604729891,-0.013652990572154522,-0.0147310271859169,0.014604694209992886,0.005911997053772211,0.011826245114207268,0.013473612256348133,0.002292478922754526,0.0005668990197591484,-0.002810009755194187,-0.007183201611042023,-0.0024174379650503397,0.009687118232250214,0.0034016806166619062,0.01394806057214737,-0.0025039883330464363,0.0032208908814936876,0.004131239838898182,0.0024446716997772455,0.006469624117016792,-0.010047555901110172,-2.555954961280804e-05,-0.014661281369626522,-0.004817264620214701,-0.0011593133676797152,0.004834175109863281,0.015426700934767723,0.0028259954415261745,0.007882795296609402,0.0005202802130952477,0.005084780510514975,-0.015201683156192303,-0.008673756383359432,-0.004787400830537081,-0.0007993620238266885,-0.016315901651978493,-0.012790381908416748,-0.007806655019521713,0.016736360266804695,-0.006277238484472036,-0.0008505652658641338,-0.011283190920948982,0.0034704883582890034,-0.00847148708999157,-0.011046634055674076,-2.3419694116455503e-05,-0.01860628090798855,-0.017616812139749527,-0.009960714727640152,-0.016514291986823082,-0.014031846076250076,-0.005659114569425583,0.01101830042898655,0.002783535746857524,0.0006498437141999602,-0.0072246817871928215,0.015551822260022163,-0.003840716788545251,-0.015095804817974567,0.0042192465625703335,-0.01411566324532032,-0.005973232910037041,0.00013165651762392372,0.012994778342545033,-0.0009310054592788219,0.006841549649834633,0.017514411360025406,-0.013203689828515053,-0.008787241764366627,-0.0040735588409006596,-0.002760716015473008,-0.0039750742726027966,0.014405893161892891,0.007739986293017864,0.0037291592452675104,-0.00712441885843873,0.011526702903211117,0.016127044335007668,0.011217683553695679,-0.018259279429912567,0.004558912478387356,-0.016588909551501274,-0.009260470978915691,-0.01575486548244953,0.0039051915518939495,0.006694275885820389,-0.013803619891405106,-0.004114863928407431,-0.0017275967402383685,-0.004708530381321907,-0.013766427524387836,-0.0031833755783736706,0.008380881510674953,-0.01591379940509796,-0.015240305103361607,-0.006182442884892225,0.015250011347234249,0.0057360767386853695,0.005518854595720768,-0.005573870614171028,0.002854772610589862,-0.0174733716994524,0.005153333768248558,0.015108850784599781,0.004304912872612476,0.013523269444704056,0.007940868847072124,-0.013438072986900806,0.014432307332754135,-0.015898384153842926,0.0010729224886745214,-0.012798197567462921,-0.01737796887755394,-0.002730980748310685,-0.007195737678557634,-0.00043507353984750807,0.003052985994145274,-0.016149872913956642,-0.013598468154668808,0.0017161238938570023,-0.006083507556468248,0.007993429899215698,0.004895235411822796,0.011798759922385216,0.006452299654483795,-0.0031647358555346727,0.0057532102800905704,-0.008503364399075508,-0.0065572913736104965,0.010456551797688007,-0.00220068939961493,0.011094314977526665,0.011470302008092403,0.012437057681381702,0.014993247576057911,-0.002948702545836568,-0.007129653822630644,0.0026152662467211485,-0.004916746634989977,0.0035816729068756104,0.007123975083231926,0.006433108355849981,-0.004856574349105358,-0.012070846743881702,-0.002512688748538494,-0.01310914196074009,0.013414038345217705,-0.005938475485891104,-0.012753225862979889,-0.017974860966205597,0.004411728587001562,0.004217431880533695,-0.006845635827630758,-0.016465691849589348,-0.004231216385960579,-0.007039358839392662,0.006135605275630951,0.003664147574454546,-0.005171328783035278,-0.010289129801094532,0.017549807205796242,-0.001961229369044304,0.006737611256539822,-0.0128450533375144,-0.00011915383220184594,-0.01682618446648121,0.00011176143743796274,0.0169936865568161,-0.004213189240545034,-0.016987498849630356,-0.016909414902329445,-0.004439560696482658,-0.012810062617063522,-0.01766413077712059,0.008871763944625854,-0.0018473047530278563,-0.008258994668722153,0.013754858635365963,-0.014320376329123974,0.01576712355017662,-0.007219244726002216,0.013462445698678493,0.0037303436547517776,0.011918054893612862,0.017689581960439682,-0.00763799948617816,0.016694162040948868,-0.0037753363139927387,-0.004118199460208416,-0.005638891365379095,0.001695910352282226,-0.012504140846431255,0.0020524708088487387,0.0017279228195548058,0.009442362003028393,0.012147041969001293,-0.0020129939075559378,-0.007013164460659027,-0.008462191559374332,-0.010900819674134254,-0.016291670501232147,-0.006148734595626593,-0.0088004469871521,0.016186103224754333,0.0012035794788971543,-0.006330241449177265,0.00210497435182333,-0.0139933405444026,-0.002859645988792181,0.004463694524019957,-0.0004894497687928379,-0.0037551140412688255,0.017423059791326523,0.013253588229417801,0.0037931501865386963,0.00204887380823493,0.003870482323691249,-0.011358242481946945,-0.004060445819050074,-0.016910003498196602,-0.0010909658158198,0.0010423229541629553,-0.010386580601334572,0.016303401440382004,0.014290212653577328,0.007631002459675074,0.0009022247977554798,0.013269546441733837,-0.013319139368832111,0.010475430637598038,-0.01352611929178238,0.010537076741456985,-0.008011232130229473,0.013558528386056423,0.01603171043097973,-0.012497998774051666,-0.0013831289252266288,0.017457278445363045,-0.000305055029457435,0.013175244443118572,0.0034361358266323805,-0.004223279654979706,-0.007563382852822542,-0.010383624583482742,0.009598931297659874,-0.004456378519535065,0.00021810855832882226,-0.00022492767311632633,0.002279909560456872,0.012811878696084023,0.01715884357690811,-0.00372820976190269,0.01173106487840414,0.009504352696239948,0.002836021827533841,0.016453862190246582,-0.010692651383578777,-0.014053840190172195,0.012526660226285458,-0.002423782367259264,0.012397559359669685,0.01403562631458044,-0.01575133576989174,0.013569093309342861,-0.002026225673034787,0.00031870597740635276,0.004125786013901234,0.01501784473657608,-0.017582977190613747,-0.0012329255696386099,0.006601889152079821,0.00799484271556139,0.006983574479818344,-0.013120625168085098,-0.007187272422015667,-0.005011907313019037,0.011054438538849354,-0.0078780148178339,-0.010326019488275051,0.016568515449762344,-0.017590437084436417,0.017965463921427727,0.00616854103282094,0.011438514105975628,-0.0074212937615811825,-0.017937764525413513,0.0078112054616212845,0.011753307655453682,0.007857018150389194,-0.013831204734742641,0.009174421429634094,0.009673683904111385,0.005675445776432753,0.009583842940628529,0.012228241190314293,0.0037658042274415493,-0.014957479201257229,-0.0007761832675896585,-0.015782881528139114,-0.003382639028131962,-0.0032048870343714952,-0.015560806728899479,-0.005214296746999025,-0.01383631769567728,0.01104783732444048,0.016449252143502235,-0.015257971361279488,0.016235942021012306,0.0009176774765364826,-0.007146045099943876,-0.01529874000698328,0.0003094578569289297,0.010786072351038456,0.007314047776162624,-0.015931766480207443,-0.015487750992178917,-0.0040337517857551575,-0.007703906390815973,-0.009809153154492378,-0.008078404702246189,0.010391457006335258,0.015003357082605362,-0.0038108411245048046,0.01396845281124115,-0.007012940477579832,-0.0014118646504357457,-0.01016335841268301,0.0046461885794997215,0.01688300259411335,0.0030755968764424324,-0.005817805416882038,0.004773995839059353,-0.014501839876174927,0.013244414702057838,-0.00047219422413036227,-0.002068964531645179,0.00275973416864872,0.004188099410384893,-0.015876570716500282,0.005962282884865999,-0.009965774603188038,0.00714575219899416,0.011004804633557796,0.01029212772846222,0.0014246894279494882,0.00031106179812923074,-0.013246214017271996,0.009373761713504791,-0.0087332334369421,-0.0005856608040630817,-0.008456793613731861,-0.013856240548193455,0.003994569648057222,-0.015923434868454933,0.00894191861152649,-0.006752838846296072,-0.01795913279056549,0.0003283082623966038,-0.016486825421452522,-0.008296881802380085,0.00723668746650219,-0.015910647809505463,0.011731358245015144,-0.018083246424794197,-0.00926909688860178,0.008192464709281921,-0.00687436992302537,-0.0143929747864604,-0.005426718387752771,-0.008304819464683533,0.012388658709824085,-0.007128110155463219,0.01006979402154684,0.013856613077223301,-0.0029547791928052902,0.014093182981014252,-0.0050701843574643135,0.016023635864257812,-0.0154900336638093,0.005962469149380922,-0.00015308662841562182,-0.0037955776788294315,0.00499848322942853,0.0073136878199875355,-0.017728790640830994,-0.011838470585644245,0.007811148185282946,0.006332274992018938,0.017108600586652756,0.00933071505278349,0.016219519078731537,0.007349053397774696,-0.007313050329685211,-0.01427172590047121,0.010228822007775307,0.005120853893458843,-0.0162840336561203,-0.0049344138242304325,0.01641676016151905,2.7108699214295484e-05,-0.002432721434161067,-0.0015839197440072894,-0.010476152412593365,-0.004660551901906729,-0.004666157066822052,-0.01601785235106945,0.009782512672245502,-0.0028173988685011864,0.011730433441698551,0.012777292169630527,-0.010289378464221954,0.0057670362293720245,-0.0008041427354328334,0.01375596597790718,-0.010055025108158588,0.006682544946670532,0.003676371881738305,-0.007363002747297287,-0.013032419607043266,0.00508840149268508,0.008456354960799217,-0.0066789244301617146,0.00503746559843421,-0.0035844743251800537,0.007878866046667099,-0.010718189179897308,0.013999155722558498,-0.007711306214332581,-0.004737644921988249,-0.01617179624736309,-0.014416993595659733,0.0003776054654736072,-0.008864193223416805,0.011422194540500641,-0.01763051003217697,-0.004427087027579546,-0.0060153198428452015,-0.01788380928337574,-0.014120463281869888,-0.003725134301930666,-0.001005939906463027,-0.004265973810106516,0.00034247987787239254,0.0032554995268583298,-0.017679395154118538,-0.0013520090142264962,0.016359267756342888,0.0004174687492195517,0.006130439229309559,-0.007016890682280064,0.009787148796021938,0.009837954305112362,0.0004704122256953269,0.016984039917588234,-0.013400817289948463,-0.017651483416557312,0.009570787660777569,0.011177773587405682,-0.013798191212117672,-0.008511836640536785,-0.017263347283005714,-0.007511709816753864,0.009901883080601692,0.0007006399682722986,-0.005476700142025948,-0.004501000512391329,-0.01791355013847351,-0.007039741147309542,0.005475481506437063,0.017107585445046425,0.012278163805603981,-0.01738441176712513,0.014160164631903172,0.009950613602995872,0.009913702495396137,-0.0015895104734227061,-0.0037323287688195705,-0.0071825748309493065,-0.01563802920281887,-0.009743788279592991,-0.009246298111975193,-0.0007625958533026278,0.009040063247084618,-0.0009673874010331929,-0.016032155603170395,0.016642604023218155,0.016000650823116302,0.01023772917687893,0.017417853698134422,0.001304085017181933,0.016448860988020897,-0.015558523125946522,-0.0050837257876992226,-0.010057806968688965,-0.010924385860562325,-0.01295058149844408,0.004475364461541176,0.0102376788854599,0.0028834007680416107,-0.012710259296000004,0.011298234574496746,0.004952763207256794,-0.004050577525049448,0.0064134616404771805,-0.008505858480930328,-0.005470619536936283,0.014677580446004868,-0.007710884790867567,-0.0010554787004366517,0.013866034336388111,0.007401947397738695,-0.015669090673327446,-0.012720820493996143,-0.01770072616636753,0.0047989520244300365,-0.0018261525547131896,-0.013330834917724133,0.016154183074831963,0.0011207914212718606,-0.009376210160553455,-7.415085565298796e-05,0.006526042707264423,-0.015247047878801823,-0.008006433956325054,0.010844936594367027,-0.001470863469876349,0.001817301264964044,-0.0026660203002393246,-0.0165406446903944,-0.011944999918341637,-0.002042933600023389,-0.01048603467643261,-0.01605488546192646,0.01230018213391304,0.017161548137664795,0.010379614308476448,0.012769177556037903,-0.009256831370294094,0.016566649079322815,-0.010757923126220703,0.01643340289592743,0.017954379320144653,0.007595769129693508,0.01737651601433754,0.0026446403935551643,-0.008794301189482212,-0.002320517087355256,0.0035100323148071766,-0.015384632162749767,0.0043481504544615746,0.017469413578510284,-0.011468352749943733,0.010344634763896465,0.014557410031557083,0.015611905604600906,0.016306763514876366,0.0006785520236007869,0.017054567113518715,0.00922316499054432,-0.012070031836628914,-0.0011435304768383503,0.007578379008919001,-0.009253094904124737,0.004771404433995485,0.005792886484414339,-0.012157193385064602,0.0022160629741847515,0.009745622053742409,0.00011244422057643533,-0.017714010551571846,-0.017763188108801842,-0.005059556569904089,0.015221860259771347,-0.010014701634645462,0.004803874529898167,-0.009882725775241852,-0.0065013268031179905,0.012556233443319798,0.008049597032368183,-0.014715072698891163,-0.002591492375358939,-0.016954364255070686,-0.0007285208557732403,0.0059028309769928455,-0.01350388117134571,-0.007446945179253817,-0.0035863614175468683,0.014907415956258774,0.017632268369197845,-0.016229312866926193,0.009136106818914413,-0.004816119559109211,-0.0037999474443495274,0.0092062558978796,0.015029766596853733,0.016367031261324883,0.0026418163906782866,-0.005265675950795412,0.010124520398676395,-0.009125500917434692,0.0022622495889663696,-0.005136607214808464,0.005646599922329187,-0.009279533289372921,-0.010996492579579353,0.015165237709879875,-0.014226911589503288,0.00031539276824332774,-0.009866993874311447,-0.016499551013112068,-0.016616981476545334,-0.011530325748026371,0.013296471908688545,-0.00780595513060689,0.015993131324648857,0.002822425216436386,-0.0023442707024514675,0.00281429011374712,0.0005227014189586043,0.009247258305549622,-0.00762207293882966,-0.0051195924170315266,0.014283130876719952,0.015800094231963158,0.013836776837706566,-0.003140658140182495,0.009861486963927746,-0.0010301287984475493,-0.00017270490934606642,-0.010716584511101246,0.0032454479951411486,-0.011161268688738346,-0.005895503796637058,0.0129062719643116,-0.010573607869446278,-0.015398410148918629,-0.015473777428269386,0.015886839479207993,0.0003410561184864491,-0.003157449420541525,0.011251113377511501,0.01211176160722971,-0.006100413855165243,0.006943365093320608,0.009712317027151585,0.005553645081818104,-0.012540269643068314,0.013598743826150894,0.001523628830909729,-0.007658874150365591,-0.0027036124374717474,-0.01648854836821556,-0.013281801715493202,0.009541371837258339,-0.017887556925415993,-0.002942174905911088,0.0009257717174477875,-0.015903649851679802,0.017107795923948288,-0.010084101930260658,-0.007325584534555674,-0.007272225804626942,-0.009850971400737762,-0.018101351335644722,0.008056516759097576,0.017001045867800713,-0.009828027337789536,0.0059230453334748745,0.008599559776484966,0.012515970505774021,-0.002691639121621847,-0.007228415925055742,-0.006483542732894421,0.007597324904054403,0.011528952978551388,-0.011519325897097588,-0.004615358542650938,0.014606591314077377,0.011170757003128529,0.017546409741044044,0.009246516972780228,-0.0037708007730543613,0.003388542914763093,0.005904109682887793,-0.01507851853966713,0.0017593861557543278,0.007333765272051096,-0.012266133911907673,0.009944898076355457,0.002873806981369853,0.016106750816106796,-0.01643957756459713,-0.008495854213833809,0.0035760088358074427,-0.007197473663836718,0.007777341641485691,0.009305273182690144,-0.014339324086904526,0.00044148199958726764,0.0002593215322121978,-0.004726378712803125,0.01568393036723137,0.011882311664521694,0.0072297826409339905,0.007840468548238277,-0.001250751898624003,0.015336493961513042,0.0071282172575592995,0.008345111273229122,0.013115150853991508,-0.007763450965285301,0.01135194581001997,-0.010765832848846912,-0.0053997952491045,-0.005835434887558222,0.017261184751987457,0.013028480112552643,0.00734284520149231,0.008171423338353634,0.0025452901609241962,0.016351645812392235,3.9740061765769497e-05,-0.004136201459914446,-0.011976631358265877,0.01045528519898653,0.00860082358121872,-0.0040095504373312,-0.01696133054792881,0.012314120307564735,-0.017482711002230644,0.007440722547471523,0.01669091172516346,-0.0022428620140999556,-0.009344805963337421,0.007227431982755661,0.011424127034842968,0.0018226043321192265,0.01686825044453144,-0.016040004789829254,0.00033662281930446625,0.007465137634426355,0.012753773480653763,-0.011637379415333271,0.01047133281826973,0.0016496791504323483,-0.0037467312067747116,-0.013276108540594578,0.01316272746771574,-0.012208483181893826,-0.007307203020900488,-0.007873497903347015,0.013225598260760307,0.005853333510458469,0.010459651239216328,-0.008974026888608932,0.004316526930779219,0.002511352766305208,0.012136422097682953,0.014243470504879951,-0.01780274696648121,0.006246995646506548,-0.016426656395196915,0.001635830500163138,-0.007522891741245985,-0.007119158748537302,-0.005327039398252964,0.004476276226341724,-0.006135411560535431,0.008262443356215954,-0.0035940867383033037,-0.015637535601854324,0.01025437656790018,-0.007746831979602575,-0.0023902293760329485,0.0067791203036904335,-0.0059263212606310844,-0.015749145299196243,-0.0044842972420156,0.01604774221777916,0.00539384875446558,0.0062717255204916,0.004774532280862331,-0.010397291742265224,-0.002768023172393441,0.009107306599617004,-0.01476339716464281,-0.008322211913764477,-0.008244526572525501,-0.0027029116172343493,0.017068760469555855,-0.01570316217839718,0.0007324138423427939,-0.011517508886754513,0.01705324836075306,-0.01426128763705492,-0.003780961502343416,0.00829260889440775,0.007137320935726166,-0.0029776631854474545,-0.005632610060274601,-0.0037899476010352373,-0.008531629107892513,-0.010502059012651443,-0.0005766305257566273,-0.008478378877043724,-0.00784765649586916,0.005820359103381634,0.016848282888531685,0.003658382687717676,-0.015035120770335197,-0.015243050642311573,0.016258178278803825,-0.007118613924831152,-0.014601939357817173,0.0035926972050219774,0.004614401143044233,0.005379865411669016,-0.00832573976367712,-0.017292136326432228,0.016798581928014755,-0.008886675350368023,0.005987412296235561,0.0071382950991392136,0.00374582689255476,-0.007045184727758169,-0.008517124690115452,0.0033782916143536568,0.013221497647464275,0.016049889847636223,-0.014125088229775429,-0.012379121035337448,0.015974506735801697,0.008516564033925533,0.013880306854844093,-0.010708505287766457,0.003117651678621769,0.007445380557328463,0.006614231038838625,-0.0031490831170231104,-0.017266033217310905,0.003144975285977125,-0.008818618953227997,-0.0016734026139602065,0.016566164791584015,-0.0035264999605715275,0.0123357018455863,-0.01111640129238367,0.0063429931178689,0.01734423264861107,-0.014210710301995277,-0.017621956765651703,-0.0022361157462000847,-0.01453833281993866,0.00904039666056633,0.015081232413649559,-0.0022639587987214327,-0.008563942275941372,-0.0022431823890656233,0.00806293822824955,-0.017693733796477318,0.0033988968934863806,0.004195475485175848,0.005044280551373959,-0.00903242640197277,0.00787845067679882,-0.01463163923472166,-0.010753447189927101,0.01352453138679266,0.00851875264197588,-0.017413219437003136,-0.009150405414402485,-0.010432597249746323,-0.008036007173359394,-0.009046944789588451,-0.015722837299108505,-0.0018310745945200324,0.008121654391288757,0.003740851068869233,0.005946590099483728,-0.015254594385623932,0.016181744635105133,0.012187417596578598,0.011029721237719059,0.011725855059921741,0.01544240489602089,0.001520961057394743,-0.010983710177242756,0.004094533622264862,0.008721948601305485,0.008425349369645119,0.0008775194291956723,-0.015456313267350197,-0.004602907691150904,0.015282638370990753,0.003144887974485755,0.001443749642930925,-0.008182513527572155,-0.004629446659237146,0.014307868666946888,0.00631357915699482,0.010620462708175182,-0.0014050002209842205,0.004055860918015242,-0.009518257342278957,0.006889627315104008,-0.0028312893118709326,-0.0022022249177098274,0.005241965875029564,0.015736423432826996,-0.015604754909873009,0.011963586322963238,-0.00804902333766222,-0.0025314989034086466,-0.017541667446494102,-0.0075078620575368404,-6.579759065061808e-05,-0.015941118821501732,-0.000455229397630319,0.015321742743253708,-0.014075985178351402,0.009200138971209526,-0.0034151608124375343,0.005394378211349249,-0.008851471357047558,-0.012385520152747631,-0.01239018701016903,-0.01563304103910923,-0.011489479802548885,0.005814367905259132,0.01381568145006895,0.011458054184913635,0.006714888382703066,-0.014378546737134457,-0.00782734900712967,-0.007182518485933542,-0.00939007569104433,0.00018120231106877327,0.000910656584892422,-0.005573604721575975,-0.005457676947116852,0.011674003675580025,0.010088544338941574,-0.007084152661263943,0.014859517104923725,0.015960557386279106,-0.006547754630446434,-0.005356455687433481,0.0002838093205355108,0.01590607687830925,0.013629570603370667,-0.014303085394203663,-0.003874404588714242,0.0018823244608938694,0.00012040790898026899,-0.011071649380028248,0.012854360044002533,0.0060093277134001255,0.011936393566429615,0.012666624039411545,0.00849180482327938,-0.0024290974251925945,0.003808529581874609,-0.012461050413548946,0.0062166485004127026,-0.01148718036711216,0.006807332392781973,-0.009648621082305908,-0.013741294853389263,-0.012368394993245602,-0.01806366816163063,0.0075674899853765965,0.008274921216070652,0.0004184083081781864,-0.012485045939683914,-0.01525096409022808,-0.01740061119198799,-0.012179641984403133,0.01392978522926569,-0.009359622374176979,-0.005182905588299036,-0.01438837219029665,-0.00998773891478777,0.0008110091439448297,0.004061082843691111,-0.008976895362138748,-0.01589903235435486,-0.004279483575373888,-0.009861537255346775,-0.010456299409270287,0.01624627597630024,0.0038895884063094854,0.0016651046462357044,-0.003225009422749281,-0.0025513351429253817,0.0013417556183412671,0.0073553286492824554,0.0076581500470638275,-0.011612331494688988,0.0002544588642194867,-0.002856810577213764,0.013462746515870094,0.004421144258230925,0.0009351404150947928,-0.014023372903466225,0.0031092031858861446,-0.014313713647425175,-0.006181113421916962,-0.01356586068868637,0.006334192119538784,-0.010889733210206032,-0.003606290789321065,0.014597943983972073,-0.010399083606898785,0.0001424583315383643,-0.0029702570755034685,-0.01748679392039776,0.01014501228928566,-0.015911562368273735,-0.0013110635336488485,0.0018978201551362872,0.0045340354554355145,0.00660979887470603,-0.008660112507641315,-0.017253629863262177,0.008330317214131355,0.0013815861893817782,0.012273118831217289,0.011771890334784985,0.012006083503365517,-0.0008181189768947661,-0.006386828143149614,0.010149074718356133,-0.0019158197101205587,-0.01144055649638176,0.012513313442468643,0.013767119497060776,-0.0010125229600816965,-0.01517438143491745,-0.0037867461796849966,0.011095869354903698,0.014670697040855885,-0.010347859933972359,-0.015237094834446907,0.013417785055935383,-0.004150186665356159,0.0013972518499940634,0.016642378643155098,-0.01568884588778019,0.005225278437137604,-0.015317477285861969,-0.004410095978528261,0.01093286368995905,-0.0023504782002419233,0.017961373552680016,0.002181040123105049,-0.0062293256632983685,-0.009842060506343842,-0.005292477551847696,-0.004412469919770956,-0.015303931199014187,-0.0046119713224470615,-0.0011310417903587222,0.0082197654992342,0.00567590119317174,0.00716484896838665,-0.01797991618514061,-0.010464390739798546,0.0053190323524177074,-0.0008891047909855843,-0.018020205199718475,0.010533539578318596,0.009539240971207619,0.0016748717753216624,-0.01564745418727398,0.00973514188081026,0.003085214411839843,0.009993580169975758,0.008942147716879845,0.010678780265152454,0.00035281587042845786,-0.01319554727524519,0.005962923634797335,0.004483191296458244,0.00882119033485651,-0.01173341739922762,-0.01099768839776516,0.01404079794883728,0.009056554175913334,0.014579440467059612,0.009187240153551102,0.0033917136024683714,0.005697797983884811,0.014174990355968475,0.002957176184281707,0.004744428675621748,-0.012341349385678768,-0.0008943001157604158,0.007598419673740864,-0.008409485220909119,-0.010868025943636894,-0.00712943309918046,-0.009677674621343613,-0.010494763031601906,-0.0026093493215739727,0.01485135592520237,0.0005153148667886853,-0.011040792800486088,-0.014969203621149063,0.007458994630724192,-0.004312089644372463,0.011548042297363281,0.005695994943380356,0.01046654675155878,-0.008313561789691448,0.006863734684884548,-0.008859147317707539,0.015440564602613449,0.004642229527235031,-0.006691050250083208,-0.008475257083773613,-0.011321626603603363,0.007212053518742323,-0.00979440938681364,0.003745351918041706,-0.00845769140869379,0.005903652403503656,0.011534394696354866,0.01005897019058466,0.0095065301284194,-0.011178161017596722,-0.0147850401699543,0.007231074385344982,-0.004700274672359228,-0.002407555002719164,-0.016842495650053024,-0.008603204973042011,-0.016655730083584785,0.013927143067121506,-0.009154208935797215,0.0018094675615429878,-0.0166960209608078,0.005779789760708809,-0.006649842485785484,0.014045516960322857,0.01362578384578228,-0.006143980659544468,0.014633839949965477,0.018123948946595192,0.011991007253527641,0.012645239941775799,-0.008841059170663357,0.0028105536475777626,-0.015581182204186916,-0.014689389616250992,0.018307458609342575,-0.005860690493136644,0.009185297414660454,0.01130617130547762,0.013337702490389347,0.018290633335709572,-0.009388241916894913,-0.016474131494760513,-0.003171882824972272,-0.01306390855461359,-0.016818342730402946,-0.004680967424064875,0.01062152348458767,0.0028323298320174217,-0.006426872685551643,0.005748196039348841,-0.009547759778797626,-0.017470810562372208,0.009558028541505337,0.004463309422135353,0.009454739280045033,-0.016580937430262566,0.012142428196966648,0.004304209258407354,0.0023220148868858814,0.004515161272138357,0.013141910545527935,0.002688557840883732,0.0025186031125485897,0.017266802489757538,0.009118487127125263,-0.0020789739210158587,0.007555324584245682,-0.003988596145063639,-0.009565063752233982,0.0037984345108270645,0.01513337530195713,0.015319840982556343,-0.005961031652987003,0.0005295568844303489,-0.010654580779373646,0.017642633989453316,0.01689264550805092,0.005162641406059265,0.010883443988859653,0.007832100614905357,0.003498171688988805,-0.016040874645113945,-0.0021465453319251537,0.005850905552506447,0.005960226058959961,-0.005147252231836319,0.015364916063845158,-0.012441552244126797,-0.0006053270772099495,0.006323528941720724,0.006657368037849665,0.004688092041760683,-0.008678431622684002,-0.01277568656951189,0.00452349241822958,0.0032864809036254883,-0.01163515355437994,0.007159999571740627,-0.001793914707377553,0.005848615895956755,0.012005656026303768,-0.012044963426887989,-0.017581837251782417,0.009967707097530365,0.003917031455785036,0.007143368944525719,0.01191397663205862,0.010817588306963444,0.016463935375213623,0.0017598180565983057,0.000136083152028732,-0.003099176101386547,-0.011987903155386448,0.0030165868811309338,-0.007685504853725433,0.015017610974609852,0.003034238936379552,0.003352406667545438,-0.00554381450638175,-0.016250791028141975,-0.01691589504480362,-0.003165639005601406,-0.015212476253509521,0.0036459052935242653,0.013448904268443584,0.013741332106292248,0.005686590913683176,-0.010758120566606522,0.01285985391587019,0.013684263452887535,-0.01109599694609642,0.008430753834545612,-0.007821803912520409,0.010556810535490513,0.017681293189525604,-0.017201201990246773,0.013792167417705059,0.004052250646054745,0.016668057069182396,-0.0014729854883626103,0.012358784675598145,-0.01585257798433304,-0.005720485467463732,-0.015284598805010319,0.017245789989829063,0.011668658815324306,0.01290606427937746,0.015775293111801147,-0.014806709252297878,-0.0041441358625888824,-0.015512288548052311,-0.01065733004361391,-0.009794379584491253,-0.001208381145261228,-0.008501777425408363,-0.014384003356099129,-0.012005480006337166,-0.012978293001651764,0.016854332759976387,0.009239784441888332,0.017204919829964638,-0.0017837953055277467,-0.0077287061139941216,0.010971796698868275,-0.0060858940705657005,-0.007226256653666496,-0.009715831838548183,-0.013429075479507446,-0.00888069812208414,-0.00517661590129137,0.0063429102301597595,-0.015681644901633263,-0.010410023853182793,0.011197942309081554,-0.012667924165725708,-0.005627265200018883,0.01318918913602829,-0.012359753251075745,-0.014983437024056911,-0.0004988221335224807,-0.007044908124953508,0.0023872649762779474,0.010971776209771633,-0.013063845224678516,0.0029548134189099073,0.00016942255024332553,-0.01283910684287548,0.004774083383381367,-0.00781114911660552,-0.00027088425122201443,-0.015148080885410309,-0.001483239815570414,-0.007078384980559349,0.011314142495393753,-0.01616065204143524,-0.003172059543430805,-0.0012047169730067253,0.00844128429889679,0.0028745385352522135,0.00622726883739233,0.01011564675718546,0.01298980601131916,-0.00673931697383523,0.0011857390636578202,0.011972437612712383,0.01718306727707386,0.013732089661061764,-0.00482072914019227,-0.011460303328931332,-0.0006518728914670646,0.008661378175020218,-0.0007373741245828569,-0.0008832719759084284,0.012046361342072487,-0.005163602996617556,0.012772692367434502,-0.003514440031722188,-0.006231637671589851,-0.0016727788606658578,0.009452477097511292,-0.013563352636992931,-0.01098694559186697,0.016245679929852486,-0.011437893845140934,0.002713243244215846,0.003075863467529416,1.847022031142842e-05,0.005555261857807636,-0.009521780535578728,0.0020735731814056635,-0.00459200469776988,0.0057998704724013805,-0.01308028120547533,0.0022976291365921497,-0.011946248821914196,-0.007756187580525875,-0.010197808966040611,-0.01194277498871088,0.011885280720889568,-0.007863692939281464,0.01495554018765688,0.016335003077983856,0.002017248421907425,-0.013157043606042862,-0.004779283422976732,0.010375172831118107,-0.004918435122817755,-0.015135405585169792,0.001677670399658382,0.012267383746802807,0.010284553281962872,-0.012181793339550495,0.00560733862221241,-0.01052322518080473,-0.01061302050948143,0.013038295321166515,-0.009341996163129807,-0.008717852644622326,-0.01799784041941166,0.01328203547745943,0.01095078606158495,0.0051559386774897575,0.008830257691442966,-0.012249677442014217,-0.0010459282202646136,-0.005563952960073948,-0.014560363255441189,-0.00038227083859965205,0.01474698819220066,-0.01695537008345127,-0.007907326333224773,-0.010627185925841331,-0.009586794301867485,0.014544634148478508,-0.001360261463560164,-0.0014901278773322701,0.009230085648596287,-0.01227544341236353,-0.0003104625502601266,-0.0023457524366676807,0.0036711564753204584,0.018182752653956413,0.009936142712831497,-0.0034286139998584986,0.01205441728234291,-0.011631670407950878,-0.01744125410914421,-0.011063595302402973,-0.006077974569052458,-5.387388591771014e-05,0.003809592453762889,0.014375248923897743,-9.547879017191008e-05,-0.0004418755415827036,-0.016700811684131622,-0.016726816073060036,0.001929534482769668,-0.0021328001748770475,0.011892196722328663,-0.012357753701508045,-0.01704109087586403,-0.0021655207965523005,-0.009541250765323639,-0.01610671542584896,0.008163652382791042,-0.014221634715795517,0.0032891621813178062,-0.007552837487310171,-0.011942599900066853,-0.00482491310685873,0.010696835815906525,-0.004245612770318985,0.008777148090302944,-0.013474634848535061,0.010225730016827583,-0.008923333138227463,0.006219483446329832,0.0025639054365456104,0.015870369970798492,-0.004325326532125473,-0.015680553391575813,-0.017341231927275658,0.011536555364727974,0.0004912702715955675,0.009281033650040627,-0.009627101011574268,-0.00583660090342164,-0.01718056946992874,0.016399357467889786,0.006023609545081854,0.01570901647210121,-0.00884046871215105,0.0036637685261666775,0.006356074474751949,-0.006534995976835489,0.012400264851748943,0.015987494960427284,0.013851121999323368,0.008258890360593796,-0.008470175787806511,-0.007419466972351074,0.01702701672911644,-0.017411300912499428,0.008054593577980995,0.007750665303319693,0.004591461271047592,0.017702262848615646,-0.006649276707321405,-0.005723790265619755,-0.015168888494372368,-0.002396134426817298,-0.009462491609156132,-0.005273343063890934,0.012165961787104607,0.015376468189060688,-0.011230272240936756,-0.00440728385001421,0.015597219578921795,-0.016195746138691902,-0.014838936738669872,-0.012366782873868942,0.003420039312914014,-0.012411711737513542,0.01671580597758293,-0.0020642841700464487,-1.431338932889048e-05,-0.009266011416912079,-0.0009756312356330454,0.005532699171453714,0.008371501229703426,0.009556335397064686,0.002892962424084544,0.014475906267762184,0.011535423807799816,0.009411466307938099,-0.015925586223602295,-0.0176938995718956,-0.010375285521149635,0.005823346786201,-0.0032614273950457573,-0.0036631578113883734,0.013820555061101913,0.014025682583451271,0.014621400274336338,-0.006536824628710747,0.007077526301145554,-0.008121669292449951,-0.011247345246374607,-0.011411615647375584,-0.005695591680705547,-0.002609586575999856,0.011727657169103622,-0.013657313771545887,0.008515200577676296,0.00048208460793830454,-0.00793276447802782,-0.00037908059312030673,-0.007487081922590733,0.003409069264307618,-0.0024829425383359194,-0.012448829598724842,-0.014031518250703812,0.0014798970660194755,0.014406547881662846,-0.005649110302329063,0.008257409557700157,0.005354295019060373,0.015238271094858646,0.011232541874051094,0.0019807512871921062,0.005332539323717356,0.013961189426481724,-0.003434194950386882,-0.0060797398909926414,-0.017462486401200294,0.012020639143884182,0.010859315283596516,-0.014072652906179428,0.0029012602753937244,-0.0013133515603840351,-0.013538872823119164,0.017758697271347046,-0.010017633438110352,-0.015573348850011826,0.003880308708176017,0.008734053932130337,-0.016716498881578445,0.005785834044218063,0.0011225342750549316,-0.014278052374720573,-0.012332212179899216,0.0017794982995837927,-0.007888688705861568,0.015424204058945179,0.010931756347417831,0.016858689486980438,-0.008845219388604164,0.016646552830934525,-0.0026165626477450132,-0.005835202056914568,-0.016405321657657623,-0.016266394406557083,0.006636577192693949,-0.0016082966467365623,-0.00975700095295906,0.003635230241343379,-0.009053093381226063,0.002787141827866435,-0.005276616662740707,0.011114864610135555,0.010634181089699268,-0.0005710095865651965,-0.00537581043317914,-0.005258169490844011,0.011126521974802017,-0.005946206860244274,-0.010249110870063305,-0.014668021351099014,-0.0009527378133498132,-0.00048511975910514593,0.012639177031815052,-0.009798116981983185,-0.004221205599606037,0.01137040089815855,0.011769713833928108,-0.0040993457660079,-0.0009159323526546359,-0.006479261908680201,0.015908416360616684,-0.013356026262044907,0.016098489984869957,0.006941286846995354,0.0011811678996309638,-0.01664823107421398,-0.0007563763065263629,-0.002786369062960148,-0.011932804249227047,0.005662959069013596,0.017484648153185844,0.002482728101313114,0.008031229488551617,-0.015211801044642925,-0.0026862488593906164,-0.013396328315138817,0.004184050019830465,0.016037197783589363,0.006028518080711365,-0.015075015835464,-0.00491855014115572,0.002153415232896805,-0.003770045004785061,0.012097779661417007,0.011691650375723839,0.004115051124244928,-0.0044639091938734055,-0.0087884571403265,-0.014291192404925823,-0.005129440687596798,-0.0028672320768237114,0.006128517910838127,0.005870822351425886,-0.015037319622933865,-0.003679481102153659,-0.01135963387787342,-0.01223576720803976,0.011847137473523617,-0.016430219635367393,-0.002830407116562128,-0.011865943670272827,0.013741275295615196,0.00212424760684371,-0.010037276893854141,-0.00034786335891112685,0.007842709310352802,0.016477273777127266,-0.010260608978569508,0.013441627845168114,0.015567952767014503,0.01483127661049366,0.004515743348747492,0.004335775971412659,-0.0036736696492880583,0.008824007585644722,0.0011153153609484434,0.006299055181443691,-0.002866976195946336,0.008040218614041805,0.011352455243468285,-0.013081381097435951,0.012246809899806976,0.0017082615522667766,0.01261403039097786,-0.0022534108720719814,-0.004120249301195145,0.0149178896099329,-0.008887075819075108,0.012407669797539711,-0.0008202765020541847,0.00036094183451496065,-0.007169520016759634,0.0022760245483368635,-0.006183212157338858,-0.01665371283888817,-0.008478239178657532,-0.017607275396585464,0.017078427597880363,0.016444135457277298,-0.004088528919965029,0.007943771779537201,-0.005644862074404955,0.005621904041618109,0.010630347765982151,0.016015363857150078,-0.003930806647986174,0.010047427378594875,-0.008442663587629795,0.017599357292056084,-0.01707378774881363,0.003371436847373843,0.005840877071022987,0.0069641112349927425,-0.01353541947901249,0.015692440792918205,-0.011252690106630325,0.004882043693214655,-0.009982862509787083,-0.006937186699360609,0.0014584562741219997,-0.002979232929646969,-0.012405380606651306,-0.012176338583230972,-0.0034328578040003777,0.008770773187279701,0.013957072049379349,-0.014996322803199291,-0.003877075854688883,-0.014646078459918499,-0.017653722316026688,0.005495239049196243,0.0032094994094222784,-0.012622610665857792,-0.010050036013126373,-0.017552746459841728,0.011991308070719242,0.017526131123304367,-0.01268188375979662,-0.00989585556089878,0.013487134128808975,0.015400729142129421,-0.0031322448048740625,-0.016250988468527794,-0.016780445352196693,0.0027780658565461636,-0.003793791402131319,-0.01707606390118599,0.0030268693808466196,-0.0174187570810318,0.010428437031805515,-0.006989734712988138,-0.01638900488615036,0.0033709583804011345,-0.0039365277625620365,0.016744956374168396,0.001074369065463543,-0.00818096473813057,0.007379127200692892,-0.008475312031805515,0.014370744116604328,-0.0046248105354607105,0.0017811288125813007,-0.01622168906033039,-0.002512100851163268,0.012088346295058727,0.010892943479120731,-0.009694872424006462,-0.009623298421502113,0.011391706764698029,0.015779618173837662,-0.014273843728005886,-0.0014825314283370972,-0.0055882856249809265,0.013513066805899143,-0.014627784490585327,-0.010174587368965149,0.009139987640082836,-0.015924038365483284,-0.00020762313215527683,-0.0020319432951509953,-0.0058677783235907555,-0.003753805300220847,0.0011436378117650747,-0.012151146307587624,0.0027129424270242453,0.01112035010010004,0.009503215551376343,-0.01229908037930727,-0.012496555224061012,-0.008512139320373535,-0.004798100329935551,-0.00307096098549664,0.006118799094110727,-0.015907589346170425,-0.016585199162364006,-0.004338533151894808,0.006972391624003649,-0.01102079264819622,0.005075785797089338,-0.00852768961340189,0.0140116848051548,0.01405851449817419,-0.007048212457448244,-0.009323484264314175,-0.00325313420034945,-0.008975417353212833,0.006639925763010979,0.011425787582993507,0.005936973262578249,0.011446500197052956,-0.003778055775910616,-0.01255769282579422,0.008439406752586365,-0.005325308069586754,0.0058768875896930695,-0.0083501311019063,-0.015363906510174274,0.017547741532325745,-0.012303563766181469,0.01735992729663849,0.017144957557320595,0.010824738070368767,0.005496019031852484,0.0028947836253792048,0.01349793840199709,-0.007380931172519922,-0.0010589673183858395,0.004380935337394476,-0.0030604926869273186,-0.0023694082628935575,-0.00581110967323184,0.0023729028180241585,0.012987727299332619,-0.010287974961102009,0.015890533104538918,0.006896463222801685,0.011717446148395538,0.001926280907355249,0.009847060777246952,-0.0176220815628767,0.011065815575420856,-0.0169236920773983,0.013720043003559113,0.017864391207695007,-0.007269888184964657,-0.010463329032063484,0.009385530836880207,-0.009205861017107964,0.012724226340651512,-0.014757484197616577,-0.013954914174973965,0.016659317538142204,0.006601815111935139,0.012738591060042381,-0.0060861604288220406,0.006398571655154228,0.003381013171747327,0.003684296039864421,0.006215901579707861,0.0023543231654912233,-0.0029006674885749817,-0.007797589059919119,0.009811013005673885,-0.009765583090484142,0.007178002968430519,-0.009416350163519382,0.004666932858526707,0.008992835879325867,-0.010129998438060284,-0.01581096462905407,-0.012887346558272839,0.004160131793469191,0.012886211276054382,-0.0163431279361248,0.008397568017244339,-0.005751015618443489,-0.0010403301566839218,0.015127746388316154,-0.006346310954540968,-0.0011312728747725487,-0.017432555556297302,-0.015040402300655842,-0.00854222197085619,-0.0167839415371418,0.004896822851151228,-0.0024829264730215073,0.0018790329340845346,-0.011654465459287167,-0.007125608157366514,0.0058702463284134865,0.016670823097229004,-0.01633966900408268,0.013720208778977394,0.0023689339868724346,0.0018688347190618515,-0.0007033172878436744,-0.016222545877099037,-0.014699445106089115,0.00368015025742352,-0.005379332695156336,0.015057622455060482,-0.0033034132793545723,-0.012654908001422882,0.007555683143436909,-0.007623306475579739,0.0008591451914981008,0.007170249707996845,0.014341355301439762,0.01053302176296711,0.006146274507045746,0.0062124175019562244,0.01599283702671528,-0.0076542566530406475,-0.01818159781396389,-0.008412370458245277,-0.010003657080233097,0.006089774891734123,0.005010861903429031,0.003540844190865755,-0.017313387244939804,0.008289956487715244,-0.006410353817045689,0.005738218780606985,0.001773045863956213,-0.005848923698067665,-0.013481223955750465,-0.014602839946746826,0.011516877450048923,0.014689503237605095,0.0052790045738220215,-0.01474763173609972,-0.003863716032356024,0.0081326300278306,0.010436794720590115,-0.01340350043028593,-0.017720745876431465,0.007982518523931503,-0.004978902637958527,-0.008733530528843403,-0.01742788776755333,0.0013806779170408845,0.012497926130890846,0.016734369099140167,0.0027594417333602905,0.0010412436677142978,-0.014531885273754597,0.0022418072912842035,-0.0038335600402206182,0.004071376286447048,-0.003726738737896085,-0.009131049737334251,-0.014527348801493645,-0.006819625850766897,-0.014489615336060524,-0.012022269889712334,0.01718302071094513,-0.0021565519273281097,0.0006514025153592229,0.013123884797096252,0.017757795751094818,0.0032862024381756783,0.011388559825718403,-0.006327305920422077,-0.007071267813444138,-0.003796499688178301,0.005852393340319395,0.006135464180260897,-0.0072589595802128315,-0.013753002509474754,0.004680162761360407,-0.013388634659349918,0.0029694430995732546,0.0067330412566661835,0.0070776790380477905,0.009017865173518658,0.013216119259595871,-6.723251135554165e-05,0.008199900388717651,0.004536676686257124,-0.011028353124856949,-0.01677125319838524,-0.007778562605381012,-0.0020280354656279087,0.00423344224691391,0.012192705646157265,-0.01125500351190567,-0.01376312505453825,0.016452278941869736,-0.014433461241424084,-0.0009630623389966786,0.0027965896297246218,0.0012368950992822647,-0.01501641608774662,-0.016245458275079727,-0.014437695033848286,0.0029654852114617825,0.0019254586659371853,-0.009440968744456768,0.004931177943944931,0.011511605232954025,-0.016658874228596687,-0.00032663001911714673,0.006553160026669502,-0.009357402101159096,-0.007406590040773153,0.004307491239160299,0.014463662169873714,0.01135595515370369,0.0031687896698713303,0.008272366598248482,-0.0048441230319440365,0.004854354541748762,-0.001480705919675529,-0.011376853100955486,0.007415287662297487,0.0022572509478777647,-0.0048747193068265915,0.015026253648102283,-0.01696249097585678,-0.006350613199174404,-0.015800870954990387,0.00988870020955801,0.007533922325819731,-0.006033618003129959,0.006499833427369595,-0.0034927474334836006,0.0092748599126935,-0.0014955702936276793,-0.0029409327544271946,0.015689590945839882,-0.008754451759159565,-0.013507196679711342,0.002997910836711526,0.01672026328742504,-0.004754610359668732,-0.016210362315177917,-0.006305131129920483,-0.00037092313868924975,-0.012726671993732452,0.00508094672113657,0.017328795045614243,-0.0015043660532683134,-0.004989479668438435,-0.0033838176168501377,-0.013883150182664394,0.01375278364866972,-0.003165432019159198,-0.004234883934259415,0.005499526858329773,-0.00241248682141304,0.005464982707053423,-0.01582837849855423,0.011343085207045078,0.015595224685966969,0.005121943540871143,0.016222450882196426,-0.012846317142248154,-0.0009869105415418744,0.003616092260926962,0.0028768477495759726,-0.0035986003931611776,-0.005799493752419949,-0.013489184901118279,-0.003932217136025429,-0.012122104875743389,0.008326678536832333,-0.01052559819072485,-0.015810903161764145,0.0021903938613831997,0.0037331166677176952,0.013934693299233913,0.0031502642668783665,-0.0051969802007079124,0.01138925552368164,0.0015789774479344487,-0.01498125959187746,0.0026083961129188538,0.014722888357937336,-0.0035428879782557487,-0.0070490059442818165,-0.012797587551176548,-0.01236831583082676,-0.002195140114054084,0.0034670326858758926,-0.014864498749375343,0.01604587957262993,0.009076664224267006,0.0029018151108175516,0.011576291173696518,-0.015374038368463516,-0.0011001561069861054,0.00443545775488019,0.011597714386880398,0.009962965734302998,-0.008226653560996056,0.01557764783501625,-0.013780244626104832,0.013274000026285648,0.01664142683148384,-0.011873789131641388,0.007740374188870192,-0.016761068254709244,-0.003595487680286169,0.0003831244830507785,0.0027459925040602684,0.015556525439023972,0.006056562531739473,-0.0007795747951604426,0.011063625104725361,0.016131704673171043,-0.017268558964133263,0.01733589731156826,-0.014959274791181087,0.011441707611083984,-0.007958113215863705,-0.013444977812469006,-0.0024081089068204165,0.004725177772343159,-0.004866694565862417,-0.01652330905199051,0.002917697886005044,0.013806633651256561,-0.003715381259098649,-0.00991496816277504,-0.0017866878770291805,-0.016110859811306,0.01151448767632246,0.011782770045101643,0.002916548401117325,-0.005620570853352547,0.010510408319532871,0.002367459237575531,0.012206155806779861,0.005232084076851606,0.010762671008706093,0.003977552056312561,-0.002743111690506339,0.016673387959599495,0.0016093999147415161,0.0038106022402644157,-0.009591260924935341,0.004973570350557566,0.002907706657424569,-0.011095660738646984,-0.015753749758005142,0.003736770711839199,0.009422620758414268,0.0006888447096571326,-0.010196096263825893,0.006204498931765556,-0.014956744387745857,-0.001969181001186371,-0.012154114432632923,-0.01141310390084982,-0.01080041192471981,-0.004403816536068916,-0.01656751148402691,-0.004162885248661041,0.00032139968243427575,-0.0008181655430234969,-0.00439024344086647,0.011584313586354256,-0.013341792859137058,-0.00019568669085856527,-0.01647518202662468,-0.01602216437458992,0.0023229133803397417,0.0027499468997120857,0.013844776898622513,0.002336846897378564,0.016683707013726234,-0.016245245933532715,-0.014408571645617485,-0.016642214730381966,-0.011596372351050377,0.001262200647033751,0.005564318969845772,-0.01617659255862236,0.016337214037775993,0.012494892813265324,-0.007288205437362194,-0.015110661275684834,-0.012101472355425358,-0.013662406243383884,-0.013766877353191376,0.000995688489638269,-0.00901071634143591,-0.004962903447449207,0.01773660071194172,0.0066205961629748344,0.016274986788630486,-0.013094423338770866,-0.004538643639534712,0.0018938651774078608,-0.015544900670647621,-0.018092941492795944,0.006120903883129358,0.004794633481651545,-0.003426127601414919,-0.0004388584056869149,-0.0033671704586595297,-0.01732347346842289,-0.005939196329563856,-0.01116610411554575,-0.014108654111623764,0.016796551644802094,0.003666594857349992,0.008221771568059921,-0.006639733444899321,-0.004182062111794949,-0.009876763448119164,-0.014852866530418396,-0.011590804904699326,0.010617629624903202,0.0062631042674183846,0.001691989484243095,-0.0009329128079116344,0.01513125840574503,-0.015358403325080872,-0.007969632744789124,-0.005520616192370653,0.010111143812537193,0.01771639846265316,-0.009279655292630196,0.013478103093802929,0.011904679238796234,-0.009862091392278671,-0.0037406268529593945,-0.003240237245336175,0.017367033287882805,-0.011668977327644825,0.01064365915954113,-0.006100388243794441,0.00818278081715107,-0.0029888178687542677,0.0026680289302021265,0.011934422887861729,0.010889491066336632,0.013115066103637218,-0.015830913558602333,0.006779673974961042,-0.013137869536876678,-0.0030211741104722023,0.0016875113360583782,-0.003555998904630542,0.000616890552919358,0.017738070338964462,-0.01323530450463295,0.006246019154787064,-0.0038145226426422596,-0.01320992037653923,-0.012378152459859848,0.01617714948952198,0.013747558929026127,0.014658675529062748,0.017675509676337242,-0.010511655360460281,-0.0047020991332829,0.006497469265013933,-0.0002904611174017191,-0.0027357416693121195,-0.0050247590988874435,0.0033886448945850134,0.0026415344327688217,-0.012362370267510414,-0.0013225636212155223,0.0022592167370021343,0.0028646267019212246,-0.010231003165245056,0.008834228850901127,-0.01702357828617096,-0.005293163470923901,0.009912395849823952,0.0020422947127372026,-0.008941609412431717,0.006805830635130405,0.002289167372509837,0.010567392222583294,0.008263066411018372,0.0038370646070688963,-0.0005430261953733861,-0.01330240536481142,-0.008679928258061409,-0.002988391788676381,0.003888420294970274,0.0007370631210505962,-0.007548101246356964,-0.017489586025476456,0.0003454867983236909,-0.007289924193173647,0.008655545301735401,-0.016653552651405334,0.0034618633799254894,0.01619025692343712,-0.011616788804531097,-0.001059412956237793,-0.014243082143366337,0.0048041981644928455,0.0019233274506404996,-0.0028556305915117264,0.001010303501971066,0.014310081489384174,-0.010813029482960701,-0.017139077186584473,0.013159552589058876,0.0030234649311751127,0.014294685795903206,0.0038197459653019905,0.011425058357417583,-0.002202454023063183,0.00934186577796936,0.01416637934744358,0.0018929137149825692,-0.011823898181319237,-0.008835900574922562,-0.01147698238492012,-0.009327723644673824,-0.007215638644993305,0.0016842345939949155,0.0033134454861283302,-0.002466662088409066,0.004152560140937567,-0.015152485109865665,-0.014646944589912891,-0.011668148450553417,0.0007985681877471507,-0.0100943548604846,-0.007582362741231918,-0.0033742135856300592,0.011158001609146595,-0.017580734565854073,0.0052964226342737675,0.006054338067770004,0.010691522620618343,0.015442869625985622,-0.017285306006669998,-0.012500599026679993,0.013871820643544197,-0.0019561804365366697,0.001876658876426518,0.005637002643197775,0.006397854071110487,0.015453049913048744,0.0178879015147686,0.00805275421589613,-0.007530577480792999,0.013768501579761505,-0.016675135120749474,-0.010212147608399391,0.01404629833996296,-0.008945424109697342,-0.01043883990496397,-0.013136079534888268,0.012924309819936752,-0.00015213065489660949,0.006296919658780098,-0.009201387874782085,0.009378550574183464,0.009288842789828777,-0.006474893074482679,-0.0028840608429163694,-0.010281842201948166,0.01746859773993492,0.005604835227131844,0.015738386660814285,-0.007985945791006088,0.009489285759627819,0.009461267851293087,0.006351954769343138,0.016319390386343002,-0.003953694831579924,-0.013476605527102947,0.005990082398056984,0.008396447636187077,0.002921182196587324,-0.010505381040275097,0.00015553721459582448,-0.006653555203229189,-0.0025910024996846914,0.005255669821053743,0.008732359856367111,-0.009704895317554474,-0.0034612854942679405,-0.008484113030135632,-0.01118038035929203,0.009579427540302277,0.014849277213215828,-0.004668924026191235,0.008776151575148106,0.014528819359838963,0.012778890319168568,-0.011337527073919773,0.016071908175945282,-0.004684519022703171,-0.005892121698707342,-0.01604008860886097,-0.000583680288400501,-0.013974960893392563,-0.009188732132315636,-0.006357507314532995,0.011648792773485184,0.014132515527307987,-0.006505814380943775,0.013468832708895206,0.013193405233323574,0.009988203644752502,-0.012190230190753937,0.006859263870865107,0.016256270930171013,0.006886801216751337,-0.006291848607361317,-0.00011534062650753185,0.0053289830684661865,0.00037834205431863666,-0.01371692307293415,-0.006664569023996592,0.010957681573927402,0.01310152281075716,-0.012937158346176147,0.01677153818309307,-0.005791066214442253,0.005989419762045145,0.009270528331398964,0.011487855575978756,0.016308505088090897,-0.006708561442792416,0.013171362690627575,-0.012964259833097458,0.00733737088739872,0.008658927865326405,0.0065103014931082726,-0.008816729299724102,0.013500278815627098,-0.01169300265610218,-0.015920041128993034,0.008030209690332413,-0.0006024668109603226,0.012317962013185024,-0.004236059729009867,-0.011638153344392776,0.011902901344001293,0.0016719568520784378,-0.011003741063177586,0.007757197599858046,0.00030074434471316636,0.0039055433589965105,-0.001834218855947256,0.011495977640151978,0.011712076142430305,0.007415857166051865,-0.014327540062367916,0.012103641405701637,0.006220899987965822,0.007111308630555868,-0.004911261610686779,0.013336391188204288,0.007800673134624958,-0.014105071313679218,-0.0034309520851820707,0.013787400908768177,-0.016179755330085754,0.01673206500709057,0.006663981359452009,0.005041210446506739,-0.008200063370168209,-0.009167217649519444,0.01565481349825859,-0.007243826054036617,0.009884195402264595,-0.003944557160139084,-0.0129386056214571,-0.017621232196688652,0.0016057547181844711,0.017041660845279694,-0.004851324949413538,-0.005305717699229717,-0.005804026499390602,0.0006632414297200739,-0.0021315787453204393,0.013466209173202515,0.00010468463733559474,0.00039036013185977936,-0.012416547164320946,0.01780185103416443,-0.008840774185955524,-0.01472498755902052,0.006238102912902832,0.003518786747008562,-0.0025485611986368895,-0.0025283771101385355,0.010083053261041641,-0.011048412881791592,0.01153599750250578,0.005514944903552532,-0.00285655097104609,-0.0013356030685827136,-0.008563844487071037,0.009316481649875641,0.0007502062944695354,-0.006132157519459724,0.004332135431468487,0.018589219078421593,-0.0018378796521574259,0.015698658302426338,-0.004988782107830048,-0.015571849420666695,-0.010415333323180676,-0.0025804992765188217,-0.009845444932579994,-0.01799892634153366,0.014951806515455246,0.01235150545835495,0.008623698726296425,-0.012069899588823318,-0.013685815036296844,-0.01567857712507248,0.007991541177034378,0.015454268082976341,-0.0030365376733243465,-0.014098982326686382,0.000265340058831498,-0.005896841175854206,-0.004763380158692598,0.004427813459187746,0.00761967059224844,-0.013942825607955456,-0.016241254284977913,0.018067819997668266,-0.009431932121515274,-0.015885135158896446,-0.011090652085840702,-0.016502104699611664,-0.003751952201128006,0.010940579697489738,-0.005568868014961481,-0.001795190735720098,0.005946381017565727,-6.295309140114114e-05,0.01294298842549324,0.012858581729233265,-0.01812424696981907,0.009741593152284622,-0.0016796356067061424,0.017248591408133507,-0.0007285398314706981,0.017492759972810745,0.009123842231929302,-0.008888027630746365,0.0012363370042294264,0.017421698197722435,0.012767262756824493,-0.014638463035225868,0.007156659848988056,-0.005638359114527702,-0.017795322462916374,-0.003517178585752845,-0.009602218866348267,0.011433526873588562,-0.00591232581064105,0.011727549135684967,-0.01805119775235653,-0.006998302415013313,-0.009413132444024086,-0.009393289685249329,-0.015345092862844467,-0.011158855631947517,0.0023281690664589405,-0.007190980948507786,-0.002820270834490657,-0.0040908814407885075,0.01388409361243248,0.014711101539433002,-0.0006438560667447746,-0.006593932397663593,-0.014433586038649082,0.0161605104804039,-0.015963418409228325,-0.007260897196829319,-0.007271855603903532,-0.006323300302028656,-0.011834057979285717,0.009708990342915058,-0.013882540166378021,0.004641501232981682,-0.013779937289655209,-0.015470638871192932,0.014866458252072334,-0.011066089384257793,0.012010588310658932,0.002119761658832431,-0.015128353610634804,0.016433971002697945,-0.009258974343538284,0.013134360313415527,-0.011556101031601429,0.012978941202163696,-0.017275098711252213,0.000941859616432339,0.010060750879347324,0.015297848731279373,0.014513044618070126,0.011563727632164955,0.013959753327071667,-0.01084806676954031,-0.007670938037335873,-0.007325990125536919,-0.004236805718392134,-0.0036545037291944027,0.0019684138242155313,-0.011859018355607986,0.007494550663977861,-0.011840152554214,-0.00669902702793479,0.0005067792953923345,0.010564681142568588,0.008492331951856613,0.005304187070578337,-0.012637226842343807,0.0014893492916598916,-0.01489998772740364,-0.004389873240143061,-0.003024555277079344,-0.01638062112033367,-0.00795651227235794,0.01670190505683422,0.016749802976846695,-0.005564975552260876,-0.016651973128318787,-0.011593423783779144,-0.003815604839473963,0.016213512048125267,-0.012663951143622398,0.009675360284745693,-0.013838106766343117,0.01772211492061615,-0.004690774250775576,0.009673088788986206,-0.005430774763226509,0.004365419037640095,-0.011202236637473106,-0.012497595511376858,0.015810515731573105,0.015133334323763847,0.01430764514952898,0.004485205747187138,0.011221860535442829,-0.015217309817671776,-0.006128895096480846,-0.006758819334208965,0.005128434393554926,-0.005449742078781128,-0.012715845368802547,0.0036312800366431475,0.011313851922750473,-0.0042177545838057995,-0.013139855116605759,-0.010804867371916771,-0.009315679781138897,-0.006926272064447403,0.005355124361813068,0.003963958937674761,0.007477296516299248,-0.005473397206515074,0.01125345565378666,-0.010737490840256214,-0.0015409371117129922,0.010421725921332836,-0.011691407300531864,-0.01435454934835434,0.013574075885117054,-0.005725751630961895,0.0066656265407800674,-0.017100529745221138,0.006772696040570736,-0.006675496697425842,-0.01610189862549305,0.003942661453038454,-0.009451665915548801,-0.004160723648965359,-0.015114976093173027,-0.01258978433907032,-0.007141093257814646,-0.01470897626131773,0.01484663225710392,-0.017770878970623016,-0.0005667366785928607,-0.013564626686275005,-0.0069347466342151165,0.015275615267455578,-0.012937841936945915,0.01598287932574749,-0.010985203087329865,0.00811953004449606,0.0010019390610978007,0.013531871140003204,0.0015974936541169882,0.0007493742159567773,-0.011072658933699131,-0.01226061675697565,0.014909031800925732,-0.0059270961210131645,-0.0048911431804299355,0.00914458092302084,-0.005726614035665989,0.016075508669018745,0.008448310196399689,0.0036305864341557026,0.01375977136194706,-0.016373734921216965,-0.008924010209739208,-0.0009576538577675819,-0.00964964460581541,0.008777658455073833,0.015513391233980656,-0.002404616679996252,-0.005502478219568729,0.016512317582964897,-0.0020225492771714926,-0.0003097057924605906,-0.005201525520533323,0.014847414568066597,0.0026130324695259333,0.009776648133993149,0.011464814655482769,-0.005489482078701258,-0.0023652748204767704,0.012730593793094158,-0.004690452013164759,0.010429935529828072,0.01576216146349907,0.004433120600879192,0.008579191751778126,0.010945184156298637,0.012454024516046047,-0.0038434811867773533,-0.01614881493151188,-0.003460503648966551,0.005491913761943579,-0.002302591921761632,0.008636698126792908,-0.006020703818649054,0.004164475481957197,-0.01168039906769991,0.00892083439975977,0.001354009029455483,-0.01109340414404869,-0.008159023709595203,0.008242638781666756,-0.00129664724227041,-0.011081453412771225,0.01607976108789444,0.007146785035729408,0.01607356406748295,-0.002898803912103176,-0.001157008926384151,0.01369477715343237,0.000368642620742321,0.006945448461920023,-0.009781531058251858,-0.002766113029792905,-0.014322482980787754,-0.010292588733136654,-0.017912087962031364,-0.016638461500406265,0.017451444640755653,-0.009253708645701408,0.005845776293426752,0.012203030288219452,0.0016606651479378343,-0.012677665799856186,0.008132128044962883,0.0035818666219711304,0.008228074759244919,0.009205972775816917,0.016771886497735977,0.002187961945310235,-0.0063346754759550095,0.004667854867875576,-0.016210319474339485,0.014521148055791855,-0.013534627854824066,-0.006064171902835369,0.011660736054182053,0.003722413443028927,-0.0036695513408631086,-0.0007306009065359831,0.012918626889586449,-0.005673056002706289,0.013386555947363377,-0.015045342035591602,0.00949148554354906,0.01194896548986435,-0.012156554497778416,-0.0032045363914221525,-0.013151717372238636,0.0064565869979560375,0.0004726690531242639,0.004758885595947504,-0.010835463181138039,-0.010255813598632812,-0.016399964690208435,-0.006259447894990444,0.0021037068217992783,0.012829989194869995,0.005767232272773981,-0.002776356181129813,0.016016241163015366,0.007799849845468998,0.015588144771754742,0.00035655387910082936,-0.008936166763305664,-0.016129057854413986,0.007685379590839148,-0.013848557136952877,-0.007333946879953146,0.0015684833051636815,0.002353995107114315,0.0032314066775143147,-0.011664565652608871,-0.004454315640032291,0.003782517509534955,0.01669102907180786,0.007669336628168821,0.01461278647184372,0.008702666498720646,0.0030075320973992348,-0.011046118102967739,0.005286619998514652,0.00415125023573637,0.0035623102448880672,-0.0007212202181108296,0.0008198219584301114,-0.006235431879758835,0.0011085646692663431,-0.010406842455267906,0.011264974251389503,-0.011082038283348083,-0.01465878076851368,-0.0022786729969084263,0.005530546419322491,-0.002451839856803417,-0.008407906629145145,0.0023171433713287115,-0.005110088735818863,0.015868963673710823,0.015552406199276447,0.00042505995952524245,-0.0060707819648087025,0.008641229011118412,-0.016819387674331665,-0.0011589907808229327,-0.006695077754557133,0.014620846137404442,-0.01760736107826233,0.000850561773404479,0.008142819628119469,-0.0007135268533602357,-0.015532327815890312,0.01668090559542179,0.0004656785458792001,0.004211058374494314,-0.009792011231184006,-0.0010699736885726452,-0.0030813233461230993,-0.015994178131222725,-0.014754598960280418,0.011207391507923603,-0.010196059010922909,-0.011550044640898705,-0.0004082602390553802,0.009528843685984612,-0.015715477988123894,0.00229278695769608,-0.013873339630663395,-0.01684741862118244,-0.016346141695976257,0.011790893040597439,