-0.015476659871637821,0.05271059274673462,0.027847718447446823,0.010128292255103588,-0.04171595722436905,-0.0406087301671505,-0.05431681126356125,0.04257071390748024,0.010816702619194984,0.02462364174425602,-0.0568137988448143,0.05633538216352463,0.03931344300508499,-0.03423784300684929,-0.037629831582307816,-0.03809870779514313,-0.02327396534383297,0.003628872102126479,-0.007930624298751354,-0.024922305718064308,0.01283180620521307,-0.04294608160853386,-0.024734091013669968,-0.016141345724463463,-0.0048113479278981686,0.034792374819517136,-0.03491460904479027,0.0032455327454954386,0.012162601575255394,-0.05266756936907768,0.014141424559056759,-0.038255807012319565,-0.05059008672833443,0.05449944734573364,0.05611957237124443,0.03744860365986824,-0.02328985556960106,-0.048053640872240067,0.022210178896784782,-0.007047233637422323,-0.04473837465047836,0.00041643937584012747,-0.05548214912414551,0.04908470809459686,-0.02785327471792698,0.01657452993094921,-0.025375818833708763,0.0005721485358662903,0.004148258361965418,-0.03853658214211464,0.055496279150247574,0.03247467800974846,0.05227896571159363,0.04698757827281952,0.011218785308301449,0.050226856023073196,-0.04880557581782341,-0.036646753549575806,-0.05421033129096031,-0.02111751213669777,-0.014080232940614223,-0.027647988870739937,0.038394782692193985,-0.01815364882349968,-0.02638963796198368,0.005060644820332527,-0.04320644959807396,0.03634819760918617,-0.050035588443279266,0.0573117770254612,0.032576944679021835,-0.03578765690326691,-0.060237817466259,0.03637833893299103,0.024578237906098366,0.025364624336361885,0.031015539541840553,-0.05067221447825432,-0.018169915303587914,-0.04632643610239029,0.043386269360780716,0.01467453595250845,-0.019946251064538956,-0.052344463765621185,-0.02233465388417244,-0.020878830924630165,0.027104906737804413,0.016311518847942352,0.045853760093450546,-0.004589193966239691,-0.045225873589515686,0.02478773519396782,0.030538208782672882,0.00744324317201972,0.03133019804954529,-0.0014572186628356576,0.0025524948723614216,-0.00976775586605072,-0.05737144127488136,-0.04724627733230591,-0.05647404119372368,0.015516845509409904,-0.022488849237561226,0.00035545023274607956,0.04756706953048706,-0.030476709827780724,-0.011513606645166874,0.029264897108078003,-0.032360710203647614,-0.050701018422842026,-0.025706961750984192,-0.04040347412228584,0.050905972719192505,0.03621969372034073,0.015914540737867355,0.044115081429481506,0.03607830032706261,-0.03551934286952019,0.04846061393618584,0.007201056461781263,0.03768971934914589,0.04875078797340393,-0.019257772713899612,-0.045591674745082855,-0.03073939122259617,-0.00685520563274622,0.03427199646830559,0.04047119617462158,-0.05930276960134506,-0.002558455104008317,-0.013063402846455574,-0.03457026556134224,-0.04847075045108795,-0.021792177110910416,0.051279474049806595,-0.020345736294984818,0.0026526222936809063,0.02406921051442623,-0.015643982216715813,0.05666838958859444,0.05498935654759407,-0.029262607917189598,-0.0002938173129223287,-0.024109646677970886,-0.02576611377298832,-0.055106669664382935,0.012971327640116215,0.000523996539413929,-0.053329598158597946,-0.02650480531156063,0.048981115221977234,-0.030621802434325218,-0.04205138981342316,-0.001371085294522345,0.05838718265295029,-0.0297135841101408,0.02046794258058071,0.03088717721402645,-0.031623367220163345,0.026625104248523712,-0.016828961670398712,0.014734475873410702,0.013478987850248814,0.00345030939206481,-0.04842548072338104,0.036610186100006104,-0.023005478084087372,-0.0375714972615242,-0.05766104906797409,0.009235930629074574,0.020768431946635246,-0.057347193360328674,0.001152871293015778,-0.03316256403923035,0.018788335844874382,-0.03821540251374245,0.02252470701932907,-0.010260367766022682,0.05319952964782715,-0.04190726950764656,-0.019586103036999702,-0.047766365110874176,0.04878635331988335,0.04450564458966255,-0.030500633642077446,0.017618445679545403,0.037637125700712204,0.005975518375635147,0.0032484098337590694,-0.030330292880535126,-0.047783564776182175,0.04849481210112572,0.04740380495786667,0.015883641317486763,-0.018402786925435066,-0.0177487563341856,0.026798024773597717,0.0474109910428524,0.04658475145697594,0.034037310630083084,0.017305264249444008,-0.048995841294527054,-0.039600569754838943,0.04768691211938858,0.01297425851225853,-0.05796005576848984,-0.04765274003148079,0.018974579870700836,-0.0589464008808136,-0.04036702588200569,0.003335426328703761,0.021154478192329407,0.01726142130792141,-0.03569839894771576,0.022930903360247612,-0.03275132179260254,-0.01905469410121441,0.029822198674082756,0.017790690064430237,0.042475320398807526,0.01889410987496376,0.007965711876749992,-0.047763582319021225,-0.015602237544953823,-0.028358053416013718,-0.029802147299051285,0.056433796882629395,-0.013136617839336395,0.04675184190273285,0.015612384304404259,0.035090573132038116,7.574301707791165e-05,0.009097141213715076,-0.0005864378181286156,-0.036178816109895706,0.026048174127936363,-0.02663601189851761,-0.056246042251586914,0.01712464913725853,-0.03881794959306717,0.053062960505485535,0.05392765626311302,0.04903440922498703,-0.013009828515350819,-0.05677429586648941,0.05013078823685646,-0.006017533130943775,0.05672423541545868,0.055184174329042435,0.044393643736839294,-0.0234747976064682,-0.013943874277174473,0.04094196483492851,-0.02198760397732258,-0.03851601108908653,0.006300124805420637,0.051975470036268234,0.024351734668016434,0.00802777148783207,-0.04854593798518181,0.0143283037468791,0.05852281674742699,-0.042351190000772476,0.002480615396052599,0.044902924448251724,0.028264803811907768,0.022407175973057747,0.024316491559147835,-0.01705474592745304,-0.026001183316111565,0.0368194505572319,0.03692340478301048,0.04370215907692909,0.0492020919919014,0.0013495945604518056,0.00019690091721713543,0.03551960736513138,0.01785331591963768,0.02405684068799019,0.0341794453561306,0.04571244865655899,-0.018305761739611626,-0.015778761357069016,-0.04895167797803879,0.010707049630582333,-0.05553768202662468,-0.003259391291067004,0.007416716776788235,-0.025458669289946556,0.009794573299586773,-0.05690573900938034,-0.055188581347465515,0.03759736567735672,-0.017119893804192543,-0.0439411960542202,0.002621601102873683,0.03178011253476143,-0.03361758217215538,0.014636125415563583,-0.0492774061858654,-0.05385425314307213,0.0033171719405800104,0.004787311889231205,0.015803741291165352,0.026507651433348656,0.05676322430372238,0.00324891391210258,-0.0196134801954031,0.03609715402126312,-0.026133306324481964,-0.006232500541955233,-0.04936455190181732,-0.055451396852731705,0.056306127458810806,0.041315313428640366,0.02251940779387951,-0.011058158241212368,-0.039003703743219376,-0.04132790490984917,-0.030076151713728905,0.005325217265635729,0.024606788530945778,0.018290312960743904,-0.027515649795532227,0.054374732077121735,0.0278573390096426,0.005631763022392988,0.01331631001085043,-0.009927401319146156,-0.030405888333916664,-0.018143124878406525,0.030015211552381516,-0.05783406272530556,-0.045861322432756424,-0.05410143733024597,-0.05478081479668617,0.04161732271313667,0.024025849997997284,-0.002646238077431917,-0.048204030841588974,-0.00017552739882376045,-0.00034608886926434934,-0.038830097764730453,-0.00789600145071745,-0.011374610476195812,0.014665435999631882,0.01629273220896721,-0.0542973168194294,-0.011686206795275211,0.015306539833545685,-0.001359024434350431,0.03893795609474182,0.016043463721871376,-0.042429547756910324,-0.054364196956157684,0.014348779805004597,-0.05867041274905205,0.007814378477633,0.050282932817935944,0.006762880366295576,-0.01379135251045227,0.017559055238962173,-0.0029809337574988604,0.005053708795458078,0.052614640444517136,-0.012829422950744629,0.05486186593770981,0.04836723208427429,-0.036159783601760864,-0.05136117711663246,-0.047534406185150146,-0.05736362189054489,-0.04833189398050308,0.021736375987529755,-0.05105453357100487,-0.020794151350855827,0.04108809307217598,-0.05682123824954033,0.03763750568032265,-0.026135528460144997,-0.046229179948568344,0.023550743237137794,0.01493972260504961,0.04372760280966759,0.027995089069008827,0.03586035221815109,-0.02623709850013256,-0.03826190531253815,0.029908163473010063,0.03649896755814552,0.05839547887444496,-0.010386987589299679,-0.015239152126014233,0.032929521054029465,-0.01891987957060337,0.05131994187831879,0.04272663593292236,-0.008312486112117767,0.029906585812568665,0.03036828339099884,-0.047048162668943405,0.047883402556180954,0.0007664627628400922,0.038930345326662064,-0.02213417738676071,0.04763750359416008,-0.012479886412620544,-0.057306110858917236,0.0487256683409214,-0.047926709055900574,-0.020918093621730804,0.05405234545469284,0.05420014262199402,0.00881153717637062,0.015914594754576683,-0.006102317478507757,-0.024333374574780464,-0.02059704251587391,0.020930834114551544,0.03075183928012848,0.03462601825594902,0.034839361906051636,-0.047913797199726105,0.00025827158242464066,-0.05290123447775841,0.00576769607141614,-0.006367859430611134,0.04573376849293709,-0.01865096390247345,-0.045640796422958374,-0.04296114668250084,0.03027305379509926,0.013366980478167534,-0.04785969853401184,-0.0494692325592041,0.023928815498948097,-0.05071423202753067,0.03828714042901993,0.025022273883223534,-0.04957006499171257,-0.04960058629512787,0.05806851387023926,-0.01451618131250143,-0.013417341746389866,0.03723837062716484,0.05343819037079811,0.059976380318403244,0.030155977234244347,-0.014103388413786888,-0.04726594313979149